2.503592908318998805e-03 -2.222656340366791980e-02 -5.564635069644592244e-03 -9.942842568277303339e-02 4.856717162614403172e-02 2.011644484852391675e-03 4.181723277567704622e-02 8.880457808870453884e-02 -2.286703686679413157e-03 5.456704773573300277e-02 8.356038561982204182e-02 -8.185835396943196007e-03 1.768510522935695384e-01 -1.189295667580808971e-02 9.272883047238960133e-03 -4.945294742793783505e-02 8.449816322125310031e-02 1.518402769964235545e-02 1.075159598088687024e-01 1.458645023712922201e-03 -2.630717441803675713e-02 4.610354839591374737e-02 5.140694153549777434e-01 4.554966136859033704e-02 -5.585061075469399672e-02 5.900778183607476197e-03 1.301862052573458384e-01 3.325619603698423173e-06 -9.908696639699975106e-03 -5.634478062364012274e-02 -2.122091261842505572e-03 4.262108298185850186e-02 1.052679584913863596e-03 -9.780368932952167998e-03 -2.410457766649934733e-02 5.686442155274667315e-02 1.881283655876735822e-02 3.891543715894727612e-02 2.681140893384342805e-02 4.631897374025518294e-03 -1.146636347980527215e-02 -2.146176008266966959e-02 1.733326180412707491e-04 -2.664350447909063016e-02 -2.279253316901971582e-01 1.455824522990864234e-01 1.738993892129140351e-01 9.486406986842485511e-02 1.889281020220633378e-01 -6.353984300549728181e-02 -1.403548733364785514e-02 5.334521879949216672e-02 -1.713415922864308313e-02 7.417663960351994490e-02 3.546090262572380077e-04 5.448571101725792343e-02 -1.191431347812647035e-01 -2.285341851371998270e-03 7.537660883986116445e-02 5.468957054312130516e-04 7.938966988409751346e-02 1.414898549606996569e-03 -5.310035506518075848e-02 3.699995272375473931e-02 6.478239022465315244e-02 -2.038331381412658919e-02 4.605314531319213887e-04 -9.355738915299394165e-02 -8.751012561299964521e-02 2.956614364208406953e-02 -5.302292833095945644e-03 -8.786561892351579806e-03 6.122957707419136343e-03 6.330509499882333233e-03 -6.641894544439322368e-02 -2.134905219598830575e-02 -3.927352367244756580e-03 9.800308550818676023e-03 -4.609304519167754105e-02 -1.624977643462284516e-01 -1.093074329519276855e-01 5.847124799750745561e-02 -3.257316391350417728e-01 -2.705793632381213176e-01 1.164533955324229507e-02 5.684194602395712358e-03
