3.089894430129906319e-02 -5.986058707917116251e-02 -8.993066961156526151e-02 -1.734467353936516298e-01 3.785808047598576698e-02 -3.166237843194159157e-02 -1.016878344677590168e-02 4.727605414104173176e-02 5.248689725995268895e-02 2.444540396336726540e-02 2.249688047348511744e-01 -3.989125146300059876e-02 -3.433549470094930667e-02 1.810621555623832118e-02 -1.038680228144559653e-01 -8.146840364789358080e-02 -3.194592516582528494e-03 8.920335403803210383e-02 -1.180565841353356862e-02 -5.403440329653379920e-02 -7.251911235939258182e-02 5.947596837375659223e-02 2.331561788604513338e-02 -4.202144374514294248e-03 -1.509956210785988184e-01 -1.913347862992386128e-01 1.026251846262393186e-01 -2.375218711229661744e-02 1.327307877743965081e-01 1.310256409984563754e-02 -2.474864770458464619e-02 7.023432000263961361e-02 -7.241644434051618118e-02 -3.563865493005246438e-02 4.528679282152223151e-02 -1.628849646271407839e-02 -1.229017994193654095e-01 -1.068087779443166879e-01 9.654566293767052887e-02 -1.333378565617907539e-02 -2.703916458385834942e-01 1.022700730795831209e-01 -1.621944881443948272e-01 3.321225683278874324e-02 1.537902811326921360e-01 -1.144619218862604759e-01 3.414866806693192536e-02 -8.853934195848119082e-02 1.419618596723387915e-01 2.076760558574448218e-02 8.489372212031315703e-04 -1.841315576833311707e-01 -8.049609718153730165e-02 -1.034301235572274852e-01 -9.226114744727414996e-02 5.776964971838990937e-02 1.811312000374222173e-02 1.214506188211448151e-01 -2.291357520898656269e-02 -2.396493416153347086e-02 -1.432769556010264345e-01 -5.150002590570210148e-02 1.446349297946325323e-02 6.423242633561510040e-02 2.309448125033217517e-02 4.258695917061168512e-02 -6.020096027647246772e-02 -7.599712622413964946e-02 -5.925780899392520812e-02 -1.844151922890717998e-01 -4.839930217574869159e-02 -4.105701665778368342e-02 1.370679804614748365e-01 -6.985443983406197654e-02 -1.353894917184918223e-01 1.698268237691898663e-01 -1.005127077536049629e-01 7.313701413544354546e-02 6.317202641178594480e-02 -2.005568849142866650e-01 1.384054585902659007e-01 4.065487887347821530e-03 4.116777644406849346e-02 -3.695374977547787737e-02 -3.972069782193810017e-02 1.223803491053771508e-01
2.617271996862934741e-02 8.565976107991410404e-02 2.273141768489904124e-01 1.169735183030472525e-01 2.152143572199521071e-01 2.429462046260436048e-02 -1.147906121742893054e-01 -2.231073610300222110e-01 9.634873297320573071e-03 -2.225497852648291031e-01 -1.039221112542340481e-01 -1.408097804971497891e-01 3.432522214269932877e-03 -1.044436990913983898e-01 1.250065446084888121e-01 3.730662484889219095e-03 -1.024867667501454249e-01 -4.542631682143214410e-03 3.578690492458161398e-02 1.448402213782854289e-02 -4.678671666746326424e-02 3.436732668147713526e-02 1.049250234757021227e-01 1.504445913657897517e-02 -1.433034184357920293e-01 -3.534412373085441678e-02 -9.163770559727138498e-02 -2.299559464906765216e-01 1.677444607694485862e-02 -1.219817149742039031e-02 -1.448219736162564553e-01 2.169892614206359038e-01 -1.286285872549476628e-01 -1.656179539387878930e-01 -2.216494251824472836e-02 9.170889987703084723e-02 7.549032904050027859e-02 1.819284615538887817e-01 9.043924659598740270e-03 -7.124516588597470945e-02 -1.247416769038464796e-01 1.104176542199665073e-01 1.803484577160659186e-02 -1.091000733905684965e-02 8.960273669451764011e-02 -1.779616100323394290e-01 -2.692968108945774652e-01 -1.046790582539676440e-02 4.187459876681916965e-02 -2.108633167420087273e-01 3.496877153888576506e-02 -8.287116821549844747e-02 3.017292214906713843e-02 2.989209868645427773e-02 -1.379160817393084229e-02 -2.130265059264406513e-02 -4.041250035548872577e-02 -9.141941740321792020e-02 6.956240908457969607e-02 -2.869598919964775480e-02 2.802160111222815053e-01 2.551075630780108017e-01 -6.469960890981687161e-03 7.410719959167738624e-02 1.358800962142773239e-01 -3.670649214219998818e-02 -5.175587662773018655e-02 5.417625887512840521e-02 -1.667149140843787389e-02 9.108162074243980610e-02 1.374558402489051978e-01 -5.630820200404765274e-02 -4.031706333744061385e-03 -9.387958772908402971e-02 -1.915201777854973753e-01 5.523859930018502201e-02 1.952112913240718617e-01 1.189596748503567586e-01 4.932817423525984180e-03 6.628613612149449053e-02 1.056955534685576070e-01 -1.197753066426109347e-01 6.884519067482378074e-02 -5.811169249385528951e-02 -1.557864530852387797e-01 -2.437360495297398108e-02
8.437091756425378619e-02 -7.860379080981817757e-02 -8.997518445640484419e-02 -3.960582517157872073e-02 1.712451778348339851e-02 3.631598393172846134e-02 1.610282612506430955e-01 -6.689444073257520829e-02 1.632222157693482556e-01 1.076799809083378023e-01 -8.070008924162791475e-02 -1.093497450927000819e-02 1.539655745095649779e-02 3.048493985836255304e-01 1.921139713657111364e-02 2.371494493043747320e-01 -4.204074966270535119e-02 -1.917411107380448954e-01 -6.241891488360423040e-02 -5.491665252123684865e-02 1.008447528068148052e-01 2.239786197352974448e-02 1.607192453274826002e-02 7.832751301492852161e-03 2.238802575694159164e-02 9.797722137561723499e-02 1.675926855256878178e-01 1.026642173657353468e-01 -1.698907318948795209e-01 -1.324004954796736966e-01 -5.168671655026750404e-03 4.554612332921623152e-02 -2.115087785790467634e-01 7.274649906384336295e-04 1.848309411585503659e-01 1.447536140906244056e-03 2.369394882663479820e-02 4.335195740254956659e-02 -5.032669147604194176e-02 -2.244644671760975818e-02 -1.867798878530313178e-01 -7.192083788766927277e-02 1.831493916922451518e-02 -1.884090201069206216e-01 1.571303746311597804e-01 -6.335311456886494330e-02 -1.820863633834699652e-02 -3.701397966345342655e-02 -4.013578030661962143e-02 -8.484587047567272722e-02 -2.980627379597209498e-02 -1.154578930815888110e-01 4.298441542558241457e-02 -4.478121670965701934e-02 -1.740619408431694215e-02 -5.738816417367694628e-02 1.557500294379430550e-01 2.824791430773233164e-03 6.056753147950998117e-02 9.031013345467560349e-02 -1.126187459934384905e-01 -8.089547047763016863e-02 3.068138678272110467e-02 9.593584207125363528e-02 1.774957435772439585e-01 -1.122327415729870853e-01 -2.109315808990283592e-02 8.204256009255080084e-02 -3.257550444075327234e-02 -2.402727309982127975e-03 -3.270172740809261167e-03 1.024349857160819499e-01 -9.689079597083852247e-02 -5.445544605387080128e-02 9.553557224544127757e-02 -2.233151749792812168e-01 -6.618187911964892867e-02 5.670617945336802954e-03 1.273806063279739054e-01 7.773026861446763469e-02 1.085771326007364951e-01 1.021883296078277270e-01 5.551901774295360525e-02 2.860103961250934704e-02 1.884796106259783652e-02 -6.668933844175949088e-02
-3.908218132285204427e-02 -5.580462678918239605e-02 -1.105247010177894465e-02 -4.222883441655370801e-02 -3.087286695159153702e-02 5.951171344116192724e-02 -8.693058265449873923e-02 -1.736115863835845097e-01 5.492705972677278808e-02 -2.525523869177992084e-02 -5.905928145369220700e-02 -4.525528584838259261e-02 -8.818647719642776217e-02 7.775601709544718854e-02 -9.984400063729199915e-02 -3.504516176366298530e-01 -1.135882949714954460e-01 -2.819722773343205993e-02 2.788863468483479546e-02 1.997213864133690342e-01 2.294776915744178164e-02 -8.508799434550101681e-02 -3.679836329089099245e-02 6.322864475393273620e-02 -1.735737234828305386e-01 9.707152959313732760e-03 -1.150656375915233010e-01 -8.425883425207626731e-02 -2.085874959737330989e-02 -1.095001335782132962e-01 -7.501375652003648697e-02 1.265658582290513610e-02 7.879175930488349633e-02 8.181386030168466550e-02 -1.124281557590831732e-01 -8.034711832039805046e-02 -2.851528340441900761e-02 -7.747293418715392455e-02 -7.391078860475157331e-02 4.161214180253494654e-02 6.313007274043645756e-02 1.486860595881849545e-01 -1.156013411943135616e-01 -4.770488664276640450e-03 -2.545724795129935755e-02 -2.635264993652805532e-01 -6.007455328792096066e-02 -8.423063964774422929e-02 7.061685184062958809e-02 1.870047284807975774e-01 -8.835899139875458275e-02 1.048471339466114371e-01 1.798236803435858955e-01 6.424953818996108346e-02 2.355620223646055778e-02 -5.768816680397968050e-02 -1.244323149449093197e-01 1.766185684458943320e-02 -4.484390447921385997e-02 -1.092145351563813226e-02 6.347419149649058748e-03 -1.657899575959333530e-02 -4.527718917696461204e-02 -1.234956413117167945e-01 -9.110110920513926624e-02 2.125545099508539260e-01 5.924318198528467916e-02 -3.426393659334487415e-03 -1.588292704538165068e-01 -6.529648369987725229e-03 3.720271157733228556e-02 1.268150176267944795e-01 -5.305941962658026340e-02 5.194235960371033911e-02 -1.241629446383941092e-02 -2.099547219230781803e-01 -1.478005129553938424e-01 1.858003520069913608e-02 6.913622064421576924e-03 1.814419461858881588e-01 -2.380225873807392811e-02 7.941961063597577364e-02 -7.405242480472543944e-04 -3.728987344120827940e-02 -1.255950799719769140e-01 1.234686657262226567e-01
-2.266324963897052014e-01 -1.503478390282674826e-01 -1.792488525421268852e-01 -8.752316947325482210e-02 -1.274199772226789207e-01 -5.729984541002377391e-02 1.889477876646846466e-01 3.347712989084514201e-02 -1.756416315498050551e-01 -6.242981216021380869e-02 -4.792868035618164102e-02 -6.730564538062891455e-02 -2.374626911495486548e-01 -5.317055811817356786e-02 -2.500455705963699482e-01 -5.597433274850036056e-02 -1.511669781850954741e-01 -7.292833849346999631e-02 -2.518256756578417244e-02 -4.328543234243999865e-02 -2.223097021327479494e-01 -2.882832106798599581e-02 -7.615189670635333363e-02 -1.484172014012786756e-01 1.658215546011534980e-02 -1.195126893190615464e-01 -5.788283014147736077e-02 -8.967530164721333741e-02 -8.598599013379290557e-02 2.753536722150368155e-03 -3.545656162640955372e-02 -6.097775066837671232e-02 5.997253157747634705e-02 1.494826657914658519e-01 -1.082309123819276409e-02 -7.692587546633572471e-02 3.776240080719101000e-02 6.455713296917829636e-02 -2.321285248267565826e-01 -1.333597778512407017e-01 1.084547700048947988e-01 3.057077729040127978e-02 -5.167687966544597805e-02 7.687979690396730403e-02 -3.386246639069278030e-01 -2.973554314304592827e-01 8.754617640231571185e-02 -4.023178597114999144e-01 -2.052731739849074089e-01 -8.112213155445102686e-02 -1.913822425726984799e-01 -1.421423719422830745e-01 -6.294152071368813717e-02 -4.057874425164762627e-02 -2.610170851452456309e-01 -1.002602709984801721e-01 -1.027843542716428138e-01 -1.531554121499691112e-01 1.476887162203812665e-01 1.681686896783223667e-02 -4.413914429360477065e-01 -1.693188361724685120e-01 -6.762233666867734083e-02 1.282900415023988105e-01 -9.826143553605957981e-02 6.216008101186692135e-03 -4.011846403310909831e-02 4.571637508255252391e-02 -2.990337438736438425e-01 -7.594731410544930394e-02 1.146563701931174739e-01 -9.829333897452691149e-03 -1.516174999036604965e-01 5.533273481689422735e-02 -2.530965166616794826e-01 1.203852462701918147e-02 -1.240922858620173153e-01 -7.964578364969700230e-02 -1.498463494827282499e-02 -1.917322266184974811e-01 -2.327328173410760370e-01 -9.743859196068740958e-02 -2.651355530860861065e-01 8.311752055589864685e-02 -5.532294673550471054e-02 4.264059504619391316e-02
-1.270702705916244291e-01 2.781014496516600459e-03 5.629525533134772941e-02 7.372152779516277787e-02 -7.689124883015804879e-02 -7.367227341902893301e-02 -5.855622854664971344e-02 -5.663113369328196672e-02 -1.345187738911640396e-01 8.074667831919857264e-02 -1.203899940864385509e-01 -1.415450916060177061e-02 -8.029114810380438838e-02 8.592615298704156523e-03 -4.057029429540615073e-02 1.144083360103904101e-01 3.675019557341504400e-02 -1.294749529630415952e-01 3.890770071939681635e-02 9.349970531033795218e-02 9.018080128107661131e-02 7.345673935965540968e-02 2.971057170165165157e-02 1.618194033372841525e-02 -6.002024522672130304e-03 3.565239690112885496e-02 1.208582557146647279e-01 -1.241128686603460846e-01 6.036090158091477614e-02 -1.906003680575555359e-01 -3.329319630280831027e-02 -4.922762096600367260e-02 -1.339618725783935094e-01 5.830514850922457332e-02 -4.468241631033357912e-03 1.033911336331658631e-01 1.807431524703493730e-03 1.015278625845570659e-01 -6.827132812235332804e-02 -8.498789866701588619e-03 1.123707537593877925e-02 -3.784217445868700430e-02 -1.153333455784126688e-01 8.230388460465758171e-02 -1.107382550595974596e-01 -1.607045565870400539e-01 7.711676609836186358e-02 -1.750513167263664793e-01 1.400286801310854715e-02 3.505434441009570024e-01 8.003918938956004758e-02 -5.631854018745468399e-02 -7.248898680548934714e-02 2.613918077320302735e-02 7.374690788685910568e-03 1.084979554919899072e-02 6.315706854715873175e-02 2.998749626116450125e-03 1.450954400542077763e-03 -6.330601698396882970e-02 -1.039666109409563000e-01 -8.186300186157251246e-02 5.710471108838776483e-03 2.281048024806941153e-03 1.055066291265473605e-01 -7.712661100966357319e-02 -1.529920619094978507e-01 4.683488583052256710e-02 2.345681942723116923e-04 1.232441515119664377e-01 7.124088257411122227e-02 -1.210507072192866240e-01 3.881974605102413156e-02 5.642758909638030153e-03 8.318161055582307117e-02 1.276299787666047014e-01 7.411001852839185777e-02 -7.130598883199208704e-02 3.468939585935363473e-02 -1.045189029891110816e-01 -1.880749667571561812e-01 5.834627719369740034e-02 -4.141121811172239486e-02 1.975145145892207021e-01 -1.004736001830061481e-01 2.606254035804817515e-01
7.172652770519641341e-02 1.953836609318140294e-01 1.194144354376671796e-01 7.458972375209267647e-02 -1.857526388181697241e-01 1.810047939501904096e-02 -1.333269389873834553e-02 -1.994599210000146394e-01 -3.132320448824107983e-02 -1.386658864173591077e-01 5.211694971655295942e-04 -7.568053366751952005e-02 5.199853370437548632e-03 -1.608980378973627889e-01 -6.019647757091189932e-02 4.449505210340103101e-02 -9.576372527552545755e-02 1.213329491623730411e-03 -2.758196913987892573e-01 -1.253896308224153877e-01 -1.033555083195200446e-02 -3.681392135926551956e-02 -6.045869109022043719e-03 -1.514231225432959536e-02 -9.882876469081962323e-02 5.479034384712747757e-02 -7.367582996797454598e-02 3.884035986339750418e-02 2.007872421303298904e-01 -1.096374974846857711e-02 8.477289403690722869e-02 -2.449993780867894960e-02 -7.561765322496541430e-02 7.185102431193460260e-02 -2.300595609788426074e-02 6.459621589288568055e-02 1.766971297992565026e-01 4.571455818082604400e-02 -2.489655144444248569e-02 5.159593045781091236e-02 1.008579443455896209e-02 3.002970525592741843e-02 -1.209213516407294658e-01 -1.494820411443058827e-01 -5.353620739320292393e-02 1.663084484648191252e-01 1.145328345434745709e-01 1.042786157121253915e-01 -1.794276409977542397e-01 1.186600738979282227e-01 3.211783748600054167e-02 2.142376871294821850e-01 1.646190183338479829e-01 1.987970737579192529e-03 -1.554145567787968037e-02 5.981773336699622301e-03 -1.420854673866912554e-01 -1.429155293223415557e-01 -5.348499494795024706e-02 6.531761532283959781e-02 2.992664596089966364e-02 2.951580453047576019e-02 -1.563987255379687205e-02 1.890628402037048683e-01 -4.678450516075340071e-02 -8.632227500811920362e-02 -1.256721103364015490e-01 1.439185685616461985e-02 -1.827501646116928280e-01 -1.346247785505880479e-01 -1.409261613818711401e-01 7.847357900024497235e-02 -8.630151737939772971e-02 -5.137082898855861030e-02 2.825627781079856696e-02 -1.503628430905950830e-01 -5.769690159394113421e-02 1.862816643745778267e-01 -7.493861648404646914e-02 3.938174511354877033e-02 2.283384136030165990e-01 2.281405227697075669e-02 3.023019875032146794e-02 1.918598280252873933e-01 -8.108920499900447443e-02 -1.816436455127561078e-01
-6.422991926006293983e-02 -4.289757487355292387e-01 -6.867180412235274201e-02 -1.502084107090804199e-01 7.406796312962954376e-02 -1.095600501160064744e-01 -1.302312202647653294e-01 1.104420982029621218e-01 -1.097805708748469944e-02 -3.787872247406345316e-01 4.896649192113035343e-02 -1.680994521765132033e-01 1.065204113335049552e-01 -7.283967380679472192e-02 -3.109546555745060781e-01 4.018060780112293201e-02 -2.808492508318105596e-01 -7.539264858610864040e-02 1.084779442652888948e-01 -3.592137688787333527e-02 -7.200647576682833728e-02 -2.338008762035322374e-01 -2.225329083555817877e-01 -1.650763086582610617e-01 -1.429936682995216202e-01 -1.354401367577210552e-02 -2.061690523022861044e-01 1.295796468495917786e-01 -1.065576166772062155e-01 -7.160628781857554526e-02 -6.991043338741560753e-02 -6.061760489624053866e-02 -4.950544163474909082e-02 -1.992790758961400233e-01 -5.081320963603640217e-02 -1.974757364379425284e-01 4.530445470025688814e-02 -5.194524663077113719e-02 7.473012902440108463e-02 -3.579262316315924841e-01 2.111707389530282156e-03 1.152940475925718217e-01 -1.348406031681842754e-01 -1.079904676356372023e-01 -3.074796116407605973e-01 -2.213882401847864501e-01 6.376115412165928031e-02 -5.010655884352034350e-01 -6.307587542337356190e-02 -7.421023815534705248e-02 -6.819966625684534267e-02 2.592234945151228875e-01 -3.036863021994209988e-01 -2.489175629533381118e-01 -1.439879568924429601e-02 -2.547035261940501505e-02 -2.071480215408916248e-01 -2.515132949677564844e-01 -3.010918057401387390e-02 -2.482701936680173013e-03 -4.598920624655797873e-01 -1.412524831605263820e-01 -6.851204447519287921e-02 -1.131515254469749321e-01 -3.369527012067513039e-01 -2.608375844879128325e-01 1.664464854310031272e-01 -4.400693307413729438e-01 -2.520691438295373787e-01 -1.265551557236637148e-01 -3.372336685956944802e-02 1.483112587237922775e-01 5.271939110142662144e-02 3.554319092481503933e-02 2.712554408268024603e-02 1.160132809918221347e-01 1.229357517565755897e-01 -1.294408454795071550e-01 -1.990107454251201224e-01 -2.412122827518645707e-01 -1.413253863768659802e-01 -4.780193345286848361e-02 -1.381768214168108411e-01 -1.501593796224414967e-01 7.543569532875520067e-02 -1.131172129472200888e-01
-2.108966919731130110e-02 7.472575304482961811e-02 1.465984211145653082e-01 -2.734494513073517652e-01 -3.490628384068647505e-02 3.358220355591700484e-02 -2.775272311455382127e-02 1.712666427928740409e-01 1.023940614378792968e-01 1.280712880516737991e-02 -1.195682723290761446e-01 -7.586899476779156160e-02 -4.366716745920901782e-02 8.191266095699381578e-02 7.916465280883652755e-02 1.383024337260534420e-01 -1.380207748750756150e-02 -9.339953949364886154e-02 2.986469903247439273e-02 -1.329535329110695663e-01 7.663096434338657892e-02 -1.184596416469226171e-01 8.394929123567125562e-02 9.080540593913634384e-02 -8.024662367543813901e-02 -1.052752218591699457e-01 -1.971420076353905537e-01 4.978691231838085554e-03 2.189715187871456303e-02 3.988454101977772365e-02 1.743533651706538276e-02 -4.830565877099440159e-02 -1.800034037786673868e-01 -5.608794101521108466e-02 -1.378655173080305107e-01 -1.147745930430853559e-02 -5.921236073480241890e-02 -2.289577982343452001e-02 -1.119424430545559318e-01 -1.192765503443369082e-02 -1.318406978207019020e-01 4.314460424640408076e-02 1.158234424577522931e-01 -6.441495763499235916e-02 1.197116030062584935e-01 9.856316441849655163e-02 1.760127078787509514e-01 -1.928970927512136946e-01 1.381890782050094330e-02 -1.828808918564819863e-02 7.127351620074426353e-02 5.269677473566134612e-02 1.126784212536662971e-01 -1.620470817251727369e-01 -4.527192430465838691e-02 8.512529279301425666e-02 -2.409460939534646337e-02 -3.809698450362469790e-02 -1.532590958897025457e-01 6.238609417007664505e-03 4.423595593258931175e-02 8.608828690269437756e-02 4.140451985025785098e-02 5.848297077408956546e-02 -2.285795799239454806e-01 1.410950430220147822e-01 -1.976747098723365959e-01 -2.902949862048299565e-02 4.307450657211131517e-02 6.841253870984047303e-02 -1.356766822827246144e-01 3.066490302843720428e-02 9.118722682587071526e-02 4.917834745510291788e-02 1.332814158405977167e-01 1.081743248230193286e-02 1.569468467633564901e-01 -5.739024319221969900e-02 -5.311766966473900620e-02 4.328256277581144645e-02 1.044729567131417458e-01 1.041638454429612698e-01 1.263680905280906153e-01 -2.053943039678478300e-01 5.468423057630650286e-02 -1.675375752418962749e-01
-1.392571171429137777e-01 -1.151161307170168596e-01 -3.592544202147563565e-02 -4.260538850139628658e-02 -1.091768191459690646e-01 1.247023807033409010e-01 1.052256594427883503e-02 -1.433693174475437482e-01 -8.346242186440404331e-02 -3.887060227906090348e-02 1.496908922386484264e-01 -8.636313189285568792e-02 -1.163229709503873222e-01 2.411409558808321196e-01 -4.819449292241249211e-02 -3.183505430678944953e-02 -2.367826803459435400e-02 -5.866627860210706785e-02 3.196690642276441008e-02 -1.229082809216706061e-03 -1.526629348200525711e-02 6.541167260270020455e-03 3.366804290178743858e-02 -2.521552204568244249e-01 -1.460247113653209139e-01 4.168382989613165363e-02 1.009146743031899274e-01 -1.498598475286392895e-01 1.242443038244106374e-01 -9.404924252822370601e-02 -9.746554625230278990e-02 -6.970150304514384498e-02 -9.528926067876127004e-02 3.867188372389440600e-03 1.772342403380138265e-01 -2.423460577032210753e-02 -1.584151343509776766e-01 8.123160883255566012e-02 -1.154635995652740499e-02 7.994610750487952944e-02 -8.541654617231532465e-02 3.961175053343393010e-02 -7.195408661077232204e-02 -6.730600832805937184e-02 -7.615912917945921734e-02 3.379490105882008988e-02 -1.784557943759237375e-01 -1.728197064248764014e-01 -5.582835344380635695e-02 -2.391304510696227320e-02 2.081522399980334503e-02 -2.043308505708984202e-01 1.517391513102979428e-01 8.471983497644508532e-02 -4.447315503974281353e-02 1.421986647009218507e-01 1.355360434881937026e-01 -2.125127566238488031e-01 5.071532606529433745e-02 1.350608466078715986e-01 -1.294359239319221692e-02 -1.096809516299724827e-02 -6.298769223083323932e-02 5.486973226160382633e-02 -1.804651906532451101e-03 -2.257739599464219163e-02 1.387292805927436423e-01 -5.959349456553703073e-02 -8.965832626104289216e-02 1.881169132655363396e-01 -2.278205128820995004e-02 -3.090330330608612869e-02 4.957065204811879344e-02 1.920442601143771549e-02 -1.226188148093653590e-01 1.199585187793284630e-01 3.183906489388194788e-02 -5.312310322685343499e-03 3.128608703536723407e-02 -9.442368482944633878e-02 -4.520994099895503382e-02 2.728653461710719985e-02 7.346152631921057385e-02 -6.613949369255343880e-02 8.516490967462146677e-03 -1.078597613232764631e-02
8.161622478025809535e-02 7.599473591373048786e-02 5.512785156536650216e-02 1.891099904135725568e-02 3.061396816480328742e-02 -1.463350497171446440e-01 2.485323204244606066e-01 -3.024699813519078281e-02 -7.167752852855736878e-03 -6.870421773600179395e-03 -1.494211296641255737e-01 -6.442363783414442602e-02 4.209221758002047037e-02 -4.771851922562737880e-02 3.199293209134226185e-03 7.003229564377272398e-02 -5.318799595108267969e-02 -4.790756312565028902e-02 2.489819105945777766e-01 -7.004350809549030055e-02 -5.407975956727959638e-02 -1.155225789550809040e-01 1.272759132942337390e-01 1.574281330879820709e-02 7.516658125095927734e-02 -2.693348957486713449e-02 5.721570784496329137e-02 -6.288010453313361801e-03 -6.483937014505535001e-02 -1.638739828185511727e-01 1.313256806710864089e-01 1.119087043013719945e-01 1.401240765366274232e-01 -1.396478810223461819e-01 3.108399286756150914e-03 5.885214112106844364e-02 6.063216134948185010e-02 2.199630681014016487e-01 -8.388199565971189015e-03 2.291059901457872805e-01 -1.957688322634992539e-01 5.570228744586391140e-02 -1.024788667952928889e-01 6.073565305252264651e-02 2.475577320168088624e-01 -5.048549029283655627e-03 1.474471015027684906e-01 -9.659154056263549726e-02 1.232410759374730630e-01 1.416225117633577169e-01 -1.168233834102921052e-02 4.921276261825303228e-02 6.369844368642028735e-03 5.839836092343800300e-02 -7.460065006181168523e-02 -6.132026763488816062e-03 -3.267140846717473401e-01 -8.639061676799895950e-02 -7.466586118455789678e-02 1.220067996167537722e-01 3.520884794915610239e-02 3.820262019011689408e-02 2.912750109087751393e-02 1.258424862690121215e-01 -4.617753113590953445e-02 1.473047372668037369e-01 3.838067111340973808e-02 -2.804684644193962059e-02 3.547016285929489171e-02 -3.255702239663775532e-02 9.954637350623848913e-02 1.559034512871120270e-01 -1.606111393639934048e-01 9.605328518180512171e-03 4.716223030581204179e-02 -1.576023923424790252e-01 3.362251346287084205e-03 -7.998829839966939415e-02 7.788520512937893714e-02 -1.403835846972972812e-01 3.446802237208648062e-02 -1.248511609469580286e-01 9.194991663025094131e-02 4.200371563940039077e-02 -2.080140626735114268e-02 -1.551916876084736552e-01
6.767932507973595420e-03 7.050788856011758199e-02 2.925618871269151065e-03 2.126835567021499035e-02 2.522029042127199930e-02 -1.813690208247327740e-01 -1.182346324454571218e-01 -9.923413477360724932e-02 6.100904710915175388e-02 1.868331833528268440e-02 -6.811934572068038818e-02 -1.359170842014602310e-01 7.440762977563668279e-02 -2.060514172992920084e-02 -2.683016972226819341e-01 -1.286141576785482243e-01 1.943294441498428504e-01 1.718494886947507377e-02 -1.401126616316437645e-01 1.409190652589129289e-01 6.430749610648841749e-03 1.100928642190013712e-01 -8.843498472730933202e-02 1.866967115057112936e-01 -1.089251795350137247e-02 -3.064504914079330469e-02 -7.070958732262597191e-02 -3.911435778337003788e-02 -7.013367093239632200e-02 1.906660991428756335e-01 -5.599674487921867810e-02 9.964348010236483144e-02 7.151297189764183049e-02 -3.909192466236060398e-02 -9.709717671374075432e-02 -6.868568433984114513e-03 1.132915819107783856e-01 6.410669498950505307e-02 1.235239850550307328e-01 1.109376594088902906e-01 -9.004896854005491058e-02 -1.609050569137850236e-03 1.538699589878507468e-01 -2.012749705047924553e-01 -3.950765854555782219e-03 2.155892722217831944e-02 9.446149079293111872e-02 4.139929584994215400e-02 -1.183200674600480007e-01 -2.055916854496623800e-02 9.564072806808672500e-02 1.587029906006567903e-01 7.922116559942872505e-02 -5.608956589116848718e-02 -6.727107401063481262e-02 -6.859256269857134936e-02 -1.391950876945950988e-01 -5.604593331700324921e-02 3.243034981050654103e-02 1.407647071451561538e-01 -6.325888200407853504e-03 2.516678762548232862e-02 4.901112632511019779e-02 3.198705379743054661e-02 1.477744618448317837e-01 1.049733213969545192e-01 -5.025584524806390313e-02 -2.578316482046520419e-01 -1.387392734854587528e-01 3.907789730092650626e-02 1.322394922710290466e-02 6.090619714475310059e-02 -6.408199400869743489e-02 1.072011478057463413e-01 9.728917148974708384e-02 9.466081584399163584e-02 -8.995927682037423156e-02 -1.048605696125704534e-01 -1.208843435212802152e-02 -9.673123935708090315e-02 -2.254677541025029708e-02 -1.391094900158732217e-01 1.667763375525308789e-01 -8.624946230880488340e-02 -4.321871674029012511e-02 -1.274031327294142812e-01
4.300610713260585860e-02 1.569554646460840086e-01 2.754848357136109871e-01 -1.059336251927180533e-01 2.837758960367420813e-01 -3.602143423799137878e-01 -1.493858708578048311e-02 1.606438229040922303e-02 5.770021373253778757e-03 1.583548301921866297e-01 1.489536958487446272e-01 -3.977229549238794210e-02 1.791789187785075843e-01 3.219160327121479981e-02 8.544554324268856249e-02 8.438123392503481257e-02 8.588219156710019675e-02 -1.365895476348353774e-02 3.761482310555966380e-01 -8.213837573316845608e-02 -6.037806479976753904e-02 1.274311567736870487e-01 -9.803458653313538995e-02 1.322218974285218063e-01 1.513399226130521941e-02 -1.425546240850303625e-01 3.034545409261431570e-01 -1.444036662049468511e-01 -2.657582124979674960e-03 -1.628748686951662916e-01 -8.947552035880136645e-02 8.864111616732947563e-02 -1.202234131893724356e-02 -1.342612387691626274e-01 6.410586437409954152e-02 -7.943276862687745354e-02 -1.099464510914251597e-01 4.404181949177339572e-02 -2.283042664361865925e-01 3.124848985799175832e-02 1.461488200523147069e-02 1.221781687867530136e-01 4.754626139640298621e-02 -1.414715574339446003e-01 -1.720825369427065321e-01 2.156171598175681426e-03 -1.601603493353486729e-01 -2.371936821860308464e-01 -8.786321854885380950e-03 3.066284757125841143e-01 -1.532998844758104995e-01 1.193245554551621845e-01 1.791999356017081046e-01 -5.206721046910518791e-02 4.597838620110270003e-02 2.507933380703473644e-02 -2.050214273492285966e-01 -7.872104957192270491e-02 1.401429464941594538e-01 1.085585630424568959e-01 -1.001423476558802733e-01 -5.463182578777552034e-02 -6.661545542607805181e-02 -1.698584246083260363e-01 -8.976168911423978991e-02 3.239472629807552129e-02 -9.790982152494169533e-02 4.691427461266984428e-03 -2.086738545412443191e-01 -9.235638846479492237e-02 8.989519287213108834e-03 4.077839887132816421e-01 -2.369983643338684498e-01 -1.475293695634854740e-01 -4.240440509570349292e-02 1.978453024729502283e-02 -3.592140870247839245e-03 2.499831141066060081e-01 2.055203741444892040e-01 -3.298859217954470957e-02 -2.125801651913277607e-02 3.087308970784379825e-01 -1.144631540489846611e-01 8.849763261280041080e-03 1.208569451512860049e-01 -1.366914464402729235e-01
-1.795472095609058627e-01 -8.287358516750903403e-02 7.068291134498247419e-02 6.590924885766894468e-03 1.671799582879534007e-01 1.494608125459989389e-01 9.940994329529552476e-02 -4.573661442442588515e-02 -2.510410474867712238e-02 -7.358373176170411589e-02 3.052741651110525353e-02 -3.937795674327286555e-02 4.726175379644890345e-02 -5.867936717892185960e-02 -3.522866006812253731e-02 -1.498361049116026800e-01 3.389677540637026781e-02 1.319461081130794411e-01 -6.099061980534064425e-02 8.073479376574445310e-02 -9.250523454564456294e-02 3.220903527317367510e-04 1.038756234725602898e-02 1.798771781766385011e-02 9.325597737320154290e-03 -8.367577741314073669e-02 -9.838628723420800998e-03 -8.463306246271197486e-02 -1.191019799384667038e-01 -7.942934441455080929e-02 -3.088602042906518977e-02 6.385543820649271229e-02 -2.809098517454243216e-01 -4.591625015282312094e-03 -1.565564444917315334e-02 1.647866416604571171e-01 -5.980783104618088430e-02 1.403257859312854738e-01 9.510736400830663295e-02 -1.646842628447569429e-02 3.700844450653822254e-02 1.713864356275391146e-02 1.188236069655116160e-03 -1.060159686462141260e-01 1.484762820127782934e-01 -2.982890120192954186e-01 -1.360472413736350675e-03 1.233117907829509030e-01 -2.947234096128323877e-01 1.749373016554168353e-02 -7.670111868389586918e-02 -3.786720852232002693e-02 1.372538278976488668e-02 5.343775987527991933e-02 7.322051006005714235e-02 1.314506504066098036e-01 1.137292529636566019e-01 -1.104608573324820930e-01 -8.584784714836594249e-03 5.285596232748480255e-02 1.523336128017048485e-01 2.081606955891332489e-02 -2.562105038357620490e-01 -1.202414191448309549e-01 -1.141726538185317413e-01 -7.423229952354179484e-02 2.151527429669261582e-01 -1.808714463694471308e-01 -1.150936095808767490e-01 -1.159522242270967646e-01 -5.761368484140253626e-02 -2.999980295614472769e-01 1.193374086353941876e-01 -5.972279991446075714e-02 -2.825148531610516614e-02 -8.569987312800535217e-02 9.947139053310380397e-02 3.294777397541528291e-02 -5.165027680070431726e-02 -1.517383225855004902e-01 -2.820640359668480021e-02 -2.581868469065647376e-01 -9.471294195807104799e-02 1.401502457119878017e-02 2.187463516138847888e-02 -3.402878168204198639e-02
-1.312023692078392034e-01 1.760394644431945155e-01 7.674475197643750024e-02 -7.402761955518351311e-02 -7.227375201723246212e-02 3.161538504766914920e-02 -2.844403454894298133e-01 -8.965755760419343023e-02 -3.606256897937988593e-02 3.676953351145209603e-02 1.823371111260637875e-02 -1.162950676333545097e-01 -3.274585111939641857e-01 -1.170462507817776748e-01 3.247443979842745687e-02 2.887080210014073608e-03 1.289062417791224935e-01 -1.048682353093442210e-01 1.338686187561762830e-01 -7.326750014713256931e-02 -2.690571569627793827e-02 -3.427203736392059885e-01 -2.203916359485502408e-01 -1.499716125209062945e-01 1.390433122675509003e-01 1.541092817970554640e-01 1.420694984472940237e-01 9.898148692743166666e-02 -1.144988577072376251e-02 -7.048263706872255618e-02 1.144517894271455533e-01 1.026112130862652377e-01 -2.552046589028780441e-02 1.823283141202405588e-01 -6.908971915307315914e-02 7.704322843178973423e-02 7.348871649206281664e-02 3.687606533025888922e-02 -1.053385628607345498e-01 -9.369926590543493916e-02 1.011669380900758336e-01 4.412739885765689513e-02 -2.685470174684193578e-01 2.797671523865566945e-01 -6.478645394874232855e-02 -1.051692400436457647e-01 -1.190097454343879702e-01 -2.024014401251810757e-01 -1.023712249377607512e-02 -1.727870757964848625e-02 5.692157654958686884e-03 -2.327812257265208240e-01 -1.054551339255059561e-01 1.989286881072853674e-01 -6.116015902067541837e-02 -1.697383409071714089e-01 -1.818389396735829167e-01 -9.079610879848952487e-02 6.741943672575979873e-02 -4.403538686355164961e-02 -5.461012564118455925e-02 -1.299700214709388901e-01 -1.432433076013500672e-01 1.436841182847368448e-01 -6.130637103995406623e-02 -1.114145809859048118e-02 1.222761772025689614e-01 -1.171403176299986165e-01 1.543289726106704049e-04 -4.788002694483763783e-02 -3.994829644747985298e-02 -3.341317123244137016e-02 1.183678404070806073e-01 6.028172905778530349e-02 -1.051532341313639145e-02 4.498404084528443564e-02 4.644613302618712247e-02 1.820797238633501194e-02 -2.941733299535573623e-02 -9.103772029228671125e-03 1.068228820140706414e-01 -2.014842443805241190e-01 -6.821309947195249024e-02 -1.166468815610605669e-01 -5.184254092802127734e-02 1.219876555110682576e-01
-1.797660784951077978e-02 -6.088045897966314068e-02 -1.670703795610185838e-01 2.084376466180717646e-01 -2.586744506554273237e-01 1.419799949726703314e-01 1.406729215513755071e-01 -1.160239252175084695e-01 -2.647403799515699735e-02 4.582603866011635864e-03 3.587983712267167613e-02 -1.107937594927990849e-01 -1.727643945985462073e-02 2.538906277352375590e-02 -2.192005547368974794e-01 -9.349193510777896454e-02 1.015361010469203323e-02 6.702332808758365568e-02 -5.650976906848049174e-03 -1.046078054780115729e-01 -8.906634205068493515e-03 1.459070722427364686e-01 3.120023663529632174e-02 -2.052591874207283507e-01 -8.141886953196342258e-03 -6.183216610351911779e-02 -5.313449277386055047e-02 -1.365752474325632182e-01 2.518405931892607474e-02 -1.642546567143469624e-02 -1.378112277998094076e-02 5.751245092855210989e-02 -2.485472557984522712e-01 -4.255363163962677109e-01 5.236917543680136289e-03 -1.986948257886665958e-01 -3.606161294027131203e-02 1.823393279637856024e-01 -5.983752793312367702e-02 1.379672719595655406e-01 6.146849460872272353e-02 -4.107686551378891132e-02 -8.899383934168203503e-02 -1.878634821772110497e-01 -1.318067899658056097e-01 2.481316532460465241e-01 1.238132380497024565e-01 4.723532123443453801e-02 7.760218363634052707e-02 -1.418798718614923682e-01 -6.158155384138799815e-02 2.855958414198861428e-01 -1.220428581252751971e-02 -1.239063758590580461e-01 -1.348085629710636946e-01 -9.368037470324140636e-02 -1.772734021409574368e-01 -1.215758054832712931e-01 -1.018849040039135068e-01 -1.690031647076075116e-01 1.801031878531835773e-01 -5.053787041244148237e-02 -1.717488954763584652e-01 8.102322021715478717e-02 9.116379585343203917e-02 -5.168231863282377048e-02 -1.347892788899917038e-01 6.428022444662086221e-02 1.497334496536956716e-01 -1.322885462594350081e-01 -1.350675653618992889e-01 -4.014962874968825562e-02 -1.913760841894785458e-01 1.125426426379833589e-01 5.180754672438655367e-02 -1.433975376618568283e-02 -2.456884687381736265e-01 9.286857776040055579e-02 5.986587796541681383e-02 -1.082396694790613706e-01 1.149411124233524345e-02 -8.463009719930750241e-02 1.635788777898609936e-02 8.572693070168704854e-02 -1.385763489712078522e-01 -2.796448100567714978e-01
-9.135236001096692926e-02 5.422708359517910970e-02 -5.755210586999394418e-02 3.873011802152318550e-01 1.752584002918259054e-01 8.355585128932520311e-02 2.550080457055457078e-02 2.755867099629173422e-01 -3.322046184925116913e-02 -6.206960059032882310e-02 -2.994135377438661774e-02 7.125963589873254324e-03 -1.049210877527452374e-01 -7.495337408667591961e-02 9.628762825877994203e-02 4.559378022176896472e-02 -7.339769017852110222e-02 1.300853585968535231e-02 -8.220680881725116185e-02 -6.149689789727841999e-02 -1.125783632433981496e-01 5.130912392937020394e-02 -1.697394349216571965e-02 1.930935603389372091e-01 -8.730881261652800873e-02 -6.212286873593291653e-02 -8.713802478148989505e-02 4.516484414499852967e-02 -2.453649132381033604e-01 3.884687210423905246e-02 -9.314999421954868464e-02 1.238490266743275114e-01 -9.826230574657560113e-02 -2.492720933395923405e-03 -3.340597695655202204e-02 3.047363707016222459e-02 -3.218100812028829721e-02 -9.939095791791721646e-02 -8.661516311222243469e-02 -2.088023867914333698e-01 -1.255262408035324739e-01 1.348394503145199375e-01 9.667608075871515078e-03 -1.551444605973796020e-01 -3.449564343085460144e-02 -2.566303266774705993e-01 -1.274143438036987042e-01 1.588036964265966688e-03 -2.154630959249475078e-02 -1.254621806156339114e-01 -4.580513389183468731e-02 -3.182195004287011741e-01 1.650360050295470171e-01 1.040405449223298917e-01 -8.744906347205676223e-02 1.043774569921047668e-01 -9.187037786958515695e-02 9.742893599976780450e-02 -3.259291971746086473e-03 1.923708205882825317e-01 1.658394626765053587e-02 -1.814644552808954148e-02 -2.915178931493991182e-02 3.973330161037249425e-02 4.423499900481912134e-02 -3.625707912321364523e-02 -4.290393372695212870e-02 -5.666848482324012698e-02 -8.627291624751379229e-02 2.804908935873198783e-02 4.385162393104714146e-02 -1.083630795835422225e-02 -8.904072247357782332e-04 -8.492224037555312632e-02 5.909882671143518867e-02 -1.074014715065257919e-02 -4.563207537656494006e-02 9.003185318414778926e-02 7.076730167388399495e-02 8.915277477984165366e-04 -1.492807142618493288e-01 -7.330859295978918444e-02 -7.488103419906778913e-03 -2.099012150388538667e-01 3.809740839727155520e-02 2.775425711188890185e-02
-2.693246526376070343e-02 1.569654481371263524e-02 -5.212456057910186402e-02 -8.638924805338465962e-02 3.157390184562970659e-02 -1.755951223932995797e-01 2.462488750106800461e-01 -1.011548493380795000e-01 -7.730552294931997137e-02 -3.386675001311909017e-02 -6.716362270122808176e-02 -6.610806630378041060e-02 2.825141575085919274e-02 -1.557610516947185997e-02 -4.776103002217879645e-02 -1.502383384935427890e-01 -9.718269206040203168e-02 1.390568382994156367e-02 1.127623428898798068e-02 -1.418819401144348624e-01 -2.143640998566032768e-02 -2.486577897089815303e-01 3.952908606892328175e-02 -4.455852133796859432e-02 1.028684168798857795e-01 4.233887265138814443e-02 1.142657983594352888e-01 -4.037301661140827586e-02 -7.090569013523761663e-03 -8.547218099905218303e-02 8.883925005181221579e-02 9.817871608765902855e-03 -1.786438742093409901e-02 1.241310316741890962e-01 -1.854526640691014916e-01 1.025541977969510188e-01 -8.250303249955261153e-02 4.219971602014646779e-03 -1.861717707824390722e-01 1.457448722459638718e-02 -7.597514086281698109e-02 -1.132172768514671385e-01 1.403070834207464923e-01 -1.374494741983676438e-01 -4.497120916119073941e-02 4.245205263100976234e-02 4.718398224474016495e-02 -1.358541443451379283e-01 -3.673384585082656306e-02 1.745632420213226732e-01 -4.610323106555200973e-02 1.841239395212796726e-01 3.182403808433393461e-02 5.056476723711320065e-02 -2.261739673730175926e-01 -4.206440505922978690e-02 1.292532024370476873e-01 -4.319302197018776851e-02 -8.127135487702072392e-02 -4.375778750391855904e-02 5.442006529410361310e-02 -9.593053026234145408e-02 -5.130574571203602718e-02 -9.234521649391663756e-02 -1.150364784572614901e-01 1.610701813636414015e-01 -1.274672626970475009e-01 7.454682393254868922e-02 1.338363473344234174e-02 1.213275651924885790e-01 6.323354194552749385e-02 -7.404401417257663008e-03 9.764385391338013809e-02 -4.171820675552415092e-02 -1.689063013718754844e-03 -7.620352872926863808e-02 -4.877775401597422150e-02 4.384894085395120433e-02 -1.324778673474052149e-01 1.450903744315960864e-01 4.186627725113258036e-02 1.571515171720648807e-01 -1.137446150099690129e-03 -4.515673206223164843e-02 1.075017866633780489e-01 1.203595317655779540e-01
-8.742603073546015291e-02 2.064737821640177592e-02 2.498575423759626102e-02 -1.190388580582574934e-02 -1.150466101113587075e-01 -2.085443415902423769e-01 2.414004681171916800e-01 1.161997998756555267e-01 1.599681427829298952e-01 -1.656700254967909680e-01 -2.330944847491762673e-01 1.339439518650033523e-01 -1.002314465845705049e-01 8.352117163001283873e-02 6.376228027807444299e-02 6.914060480483251447e-02 -1.033998587734310214e-02 1.029965535559707324e-01 5.341037853079733111e-02 -5.351165195129419655e-02 -4.270007235961756353e-02 -1.209498105930607165e-01 -2.003598963420507445e-02 5.106128339702843688e-02 1.100155243412753447e-01 -3.416700918231199702e-02 -4.580422931203195769e-02 -8.280750018399549162e-02 -5.703045714242802738e-02 -7.198022277946032610e-02 -5.469631526455987717e-04 -2.794833600314854116e-02 1.832583651666642999e-01 -2.693599383833554170e-02 1.595139520195117677e-01 -6.010302357394479988e-02 -1.851632662328821233e-02 -2.419913954020318572e-02 -1.683999744751194308e-02 -1.214336322719463818e-01 -4.478312646140365783e-02 1.822265816170460725e-02 3.098362897685394413e-02 3.652459645314038578e-02 -5.089633314156318672e-02 -1.414040641075507698e-01 4.249566423313451413e-02 -2.318845917565511561e-01 1.273659869624536312e-01 4.786889413049539134e-04 8.954607252254635774e-02 -3.554000409703432506e-02 -8.332704485822033103e-02 1.202046046646265132e-01 6.026387340206529331e-02 7.096230943220675639e-04 -5.218942771002901132e-02 1.407310531945785981e-01 1.515878588500845781e-01 -6.028578422682936977e-02 -6.766630263525084954e-02 -4.255908598238916651e-02 -1.298871775900073688e-01 -2.162151681636187081e-02 1.979585453243344964e-02 -1.815121641266152219e-01 -7.148556847267495407e-02 9.364358066975785044e-02 9.318430495267069485e-03 -2.220465817839105960e-01 2.122919888498349394e-02 9.179164190379025812e-02 1.043838390562182028e-01 1.004828690086384535e-01 -5.699278096860976167e-02 -5.769567625682617273e-02 -3.889047847241010325e-02 8.088672173211194916e-02 -1.083794514616892718e-01 -6.695169097471191655e-02 4.493066863670246852e-02 -3.831347227067032762e-02 -1.535402622168758058e-01 3.353359284420089070e-02 1.670332468538556769e-01 -7.414762767446228531e-02
-1.792898620478840938e-02 -5.663921558929857492e-02 -8.615252321342397462e-03 1.242794013050486229e-01 5.570810957722410750e-02 -1.042129672207964958e-01 -7.201499582815401590e-02 8.828938163520902438e-02 -1.385316693379410047e-01 -9.315355229201800757e-02 -1.655436044974685494e-02 4.488873593946605955e-02 -4.247735203602414494e-02 -1.125084203853920876e-02 1.399096522078260574e-01 -1.056977215205858467e-01 -1.473646914607069057e-02 -9.448610442956967281e-02 1.035794609158720569e-01 -1.178906173478093677e-01 -1.418561776483318049e-01 -1.825638945303046864e-02 -7.693505864687935625e-02 -3.611329271943609920e-02 -2.716093641061241223e-02 5.246886649877536418e-02 -2.072251600652942338e-01 -2.491126918640698684e-02 -6.452897511666040586e-02 -1.037054336172737873e-01 1.593099248228697085e-01 -8.118035199373620225e-02 9.925668535734925857e-02 -5.473149865759183164e-04 -7.651565636176278773e-02 -1.568447712318387852e-02 1.171956785573440539e-03 -5.410763375047552767e-03 -5.756292071068191268e-02 7.259469635751671091e-02 -4.058381457680686893e-02 -3.743045433939643646e-02 1.214285898925455409e-01 -3.941009258473188864e-02 -3.429114166052233542e-02 6.406812758092496340e-02 1.925374619127889486e-01 -1.018087706422405592e-01 4.019187422872017024e-02 3.105022035661127860e-02 -9.490052984500574329e-02 -2.503079003280343773e-02 1.010156860904816711e-01 -8.132126056641481027e-02 1.255288825998435165e-01 -2.338548231885532180e-01 -1.172037947410683664e-02 6.088942419945288925e-02 2.814046973348378194e-02 -8.757895134190191166e-02 -2.693628837520123387e-01 -8.108022230266437314e-02 6.245940782111115974e-02 1.648020982624474329e-01 -4.666824053100764036e-02 2.005603524112538061e-01 -2.192888532952713340e-02 1.239910474295579101e-01 -9.874256603298396662e-02 -2.093600900594421929e-02 9.417236551419860824e-02 1.354962545024945564e-01 1.145685063244532009e-01 -9.921181427930286095e-03 1.476981188022495790e-02 2.977584236427872205e-02 1.444722575882630977e-01 -8.272896879557332939e-02 3.796993605202059717e-03 -6.036595408673842145e-02 -9.233907257254153622e-02 -1.439361231680881190e-03 4.171161977667724174e-02 -1.590967539521648266e-01 1.950965434257858899e-01 4.800445109708090241e-02
-1.477156915148808702e-01 -6.888055422495113767e-02 -5.980781424389831902e-02 -1.797755458092739345e-01 1.367303110941324451e-01 -6.730204055433031129e-02 -4.761698639295242758e-02 -1.109361781123678892e-01 5.935547265985075330e-03 -2.056095794183231129e-02 8.985780934620626187e-03 5.648368235695256506e-02 -5.766931914779836049e-02 -3.320142774675312325e-02 -8.987551682196205649e-02 -2.409499439338908255e-01 -3.618811836744614558e-03 -1.497361808236462311e-01 9.974701422428125519e-02 1.965706197480260320e-02 3.727077662564641514e-02 -3.478917276287470106e-02 -1.349664075682736608e-01 9.886874821725524787e-02 3.199097151428929170e-02 -1.102985731384452106e-01 1.190425264609678291e-01 -7.159814319820798079e-02 9.585474862983815736e-02 5.991648644915410771e-02 -1.155835840731851347e-02 1.005209740851356615e-01 6.284162675789783936e-02 -1.878165742888620593e-01 8.868727482939524343e-02 2.494980588002865818e-01 9.938285205195825089e-02 1.228616429019362306e-02 7.976966292373464246e-03 -4.902676460037316830e-02 -5.179157110502725925e-02 -1.110078986394643502e-02 -5.954050990457968040e-02 1.018336221472380086e-02 2.203726956040528429e-01 -9.596580188717054871e-02 1.092937363394270306e-01 -2.525641121108260917e-02 -1.368960984572616980e-02 -9.931420232965016900e-03 1.759793737201543196e-01 -3.671334524713008168e-02 1.027000194915499709e-01 1.301395077506302400e-01 -1.101042330821284665e-01 4.016658484390356332e-02 3.667325121637827340e-02 3.087687621541947147e-02 -7.893674065179077937e-02 2.467979193146539740e-02 -1.529406786299438185e-03 -1.186037211885376391e-01 -7.097105825205293761e-02 -7.288227762670719534e-02 5.339273190791883617e-02 1.739468223440840677e-01 -6.712795746616009168e-03 -1.339407358053170405e-01 -5.225681738763306161e-02 -4.288551414258104204e-03 -6.146199960227981957e-02 3.832102737512738111e-02 -2.139396778306551505e-02 -1.136531839147599948e-01 1.365752649489611059e-01 7.093060472504646163e-02 4.624452608744746322e-05 1.405877573715954426e-02 -2.587005431059734642e-03 2.482152556721333239e-02 -8.836984230165806364e-02 1.357651369745091485e-01 9.738977707590543154e-02 -1.450796807461870730e-01 -1.699633289026817595e-01 1.151483267016028544e-01
-3.035397751093020860e-02 -3.996190071471109745e-02 1.430384945125235882e-02 2.651079911735958194e-02 3.036468767643595301e-01 -8.856823276460468186e-02 -2.478070009660048381e-02 -4.870139854966317253e-03 -8.194935350699122933e-03 -9.465201312881359186e-02 1.630270055458340681e-02 -7.271169002509932436e-03 -2.642818257978835420e-02 -4.359677786367361502e-02 -3.684501684562343365e-02 -5.611793968090727364e-02 -2.512720043029585959e-01 -5.990923031211300986e-02 4.169886605944455454e-02 -1.229018319811625709e-01 1.468397462952301946e-01 1.251723427360671714e-01 7.478227021947055075e-02 3.051195036736385063e-02 1.136119513436935763e-01 -3.418457281902327616e-02 -1.212406515336108548e-01 8.703807472973960901e-02 1.659284113641225633e-01 -1.351049341325307185e-01 -3.737318413699038111e-02 -1.507629316698029173e-02 1.463462442766419180e-01 4.823018061074201002e-02 5.606541705445339946e-02 -7.887970991446770219e-02 -3.194633082564920287e-03 -2.313750784481192688e-02 -7.044501913729174503e-02 -3.877888529102158088e-02 1.792248189580403217e-01 -8.806476772726096192e-02 7.877335634878951387e-02 -5.730251661136737812e-02 -3.121820077679075822e-02 -1.042679456969771573e-01 1.429812007028958554e-01 -3.718818737460453938e-02 2.034009565259074087e-02 9.768031588799397369e-02 -5.953307439428611597e-02 1.503106743671994705e-01 2.910367579217098405e-03 3.534721157733013847e-02 8.199017515376759435e-02 3.461055162166186139e-01 -8.368629131826339773e-02 -2.280506221411765511e-01 1.563759253060761911e-01 -1.677694087183571534e-02 3.301458508538418490e-02 -1.226691526030005003e-01 3.041575278451590369e-01 1.325639852616658509e-01 2.229421190793638430e-01 -1.255049524779976722e-01 -1.271511472335649928e-01 1.314562049383336817e-01 -2.129141857051199127e-01 1.455218030901093453e-02 6.925231122519664995e-02 -4.960266647010193319e-02 -9.542495225905271716e-03 1.591266039261910181e-01 -5.940471894420625010e-02 1.042618351995078518e-01 1.857337142851032963e-01 8.129801826442910329e-02 4.975147085619809062e-02 7.253388810583256963e-02 -5.762617052608876717e-02 8.434514918873425859e-02 -6.420400355155567174e-02 8.143438863992905064e-02 2.346376695793868650e-01 4.418302226998373217e-02
-1.329620526156260751e-01 2.299151055310453551e-01 6.994317674127448203e-02 -3.580004511625906743e-02 -3.625759239933740163e-02 -1.409065183762424345e-01 5.096598875055685651e-02 -5.499437631428259754e-02 -6.370138312031407846e-02 -1.856711379612712431e-01 -4.881811869733346937e-02 -1.062373736140012903e-01 1.691885982994462967e-01 4.210921405653686271e-03 1.176562061551088001e-01 -1.068604318273076725e-02 -1.366405879728192496e-01 7.121448544259763314e-02 8.473708819238262580e-02 -2.094347688503508664e-01 6.083412069428912466e-02 -6.573711727952039063e-02 -1.727733912084943035e-01 -4.968091434447954174e-02 1.711070285972393912e-01 -2.001296380415415466e-01 1.587079477693662255e-01 3.338021760603313709e-02 -1.692813868355799375e-02 -6.163292787036076664e-02 5.181107264171246757e-02 4.527586933008122261e-02 8.556632744337366869e-02 -1.516179951517349078e-01 -2.862970390896728279e-02 -1.511803676080932662e-02 1.026389497343825896e-01 2.578410503549976585e-01 -6.507772064708344795e-03 4.459494856944980490e-01 -7.184925187189665496e-02 2.842724038420128482e-02 3.530606353517846963e-02 -1.954663679086796613e-01 1.757705927130244761e-01 2.100267314747480962e-01 2.965842566876856212e-01 -4.416937146420751858e-01 -1.440267696445017565e-01 1.340148807829713296e-01 4.885638263174165580e-02 1.892003846547264112e-01 4.715689838648731008e-02 -6.143953473284673866e-02 -8.585870222005667629e-02 -7.681707581689768694e-02 -2.336694918808691901e-01 1.267121458844949755e-01 2.254126681874888405e-01 1.007263696676841645e-02 -3.724609933338441370e-01 5.858711407010919192e-02 -1.593151006285955240e-01 1.936810647872428404e-01 5.105930530367222553e-02 5.246358662973152516e-03 9.820630147945744182e-02 -1.151538901172867446e-01 -2.468879889081713463e-01 -4.636832344518152654e-02 -8.168412319941087407e-02 9.644838408150128994e-02 1.993896286664027517e-01 -3.290699250722159408e-02 -1.902389262503235146e-01 -3.561926434340470515e-02 7.644271387244823412e-02 -5.065533897846787037e-03 1.108397980027489987e-01 -7.228833840486090234e-02 -1.120467759573353511e-01 -2.932588615377203223e-02 -1.214948883234505395e-01 -5.827194388592920465e-02 -2.488973733450837791e-02 -8.693394699660583758e-02
-1.256482457398898633e-01 2.665374448644428629e-01 1.018957833942838870e-01 9.567152957940297173e-03 -4.382005241767090303e-02 1.262174555443106305e-01 -7.378166313937899179e-02 2.336277576567122316e-02 -1.474579129845297355e-02 -1.059634700683730578e-02 -1.038703456668584463e-01 1.108786724144978503e-02 -2.545056415480687409e-02 -3.590016395803006799e-01 -1.028854239347541250e-01 -1.612835382666422956e-01 1.214453313107791421e-01 -6.116885200535625289e-03 1.352794989208525034e-01 -3.607117822004109881e-02 -3.576518737069918005e-03 8.144922032604097473e-02 -1.439773267066054296e-01 4.347410406324964810e-02 8.834525657169600699e-02 -7.725439934047105550e-02 9.219152419060107351e-03 -9.389254075971011082e-02 1.410039163332741860e-02 2.901900325699159622e-02 2.054588030583923974e-01 1.900859099843034972e-01 -6.480647315168761025e-02 8.442611456455401120e-02 1.555033340886178839e-01 -1.463136854879373006e-01 -6.810511631733340981e-03 -4.896323998980531972e-02 -5.218381315265550185e-02 -2.018087871149513643e-03 6.004631977377267171e-02 1.259939200078026844e-01 1.399689157676070328e-01 -2.663867186251282076e-02 1.221957472718822463e-01 1.086043876841245176e-01 -1.064164257298706468e-03 -3.976156559983476391e-01 1.072365237985749634e-02 -2.532641443849335816e-02 1.357740377869978143e-01 1.539090656730428275e-01 1.129818639514059142e-01 4.944423742345838146e-02 3.351143023981707075e-02 -8.873946092868723046e-02 8.007812627808007233e-02 1.254404773864764289e-01 -4.841855041869430609e-02 7.116710570032311334e-02 -1.381256203234429714e-01 1.086041128589789323e-01 1.010260935894652518e-01 1.915572360299053201e-02 2.330344201849211538e-01 -2.279890605429142625e-02 -1.188586382252262291e-01 1.687130721946239198e-01 -1.546220761324075543e-02 9.908260704056481849e-02 1.042762405446085172e-01 1.023810842111535363e-01 -1.539989657821287106e-01 -1.324567029360170997e-02 -5.941849097866385571e-02 1.514412996945097012e-01 -9.801198437783806283e-02 1.880478045621251926e-01 5.296868349798618952e-02 -1.533709262425209663e-01 3.585310361518086186e-02 -1.721816181918503844e-02 -9.455807790234961596e-02 3.899335350945375839e-02 -8.442942539940891111e-02 -1.518496681779199775e-01
6.193246311370922269e-02 -3.274512695828316750e-02 -1.082150106428940023e-01 1.179076689617239021e-01 -3.456953758533034410e-02 -4.726420425374256579e-02 3.619872467920160625e-02 -8.400282390887316153e-02 7.293204385727942995e-02 6.749293679874387650e-03 -8.363488832349252888e-02 -1.435467392639574735e-01 -2.474974176014062971e-02 -3.805559605589074745e-02 1.230097872627670397e-01 -1.365599726346985489e-02 6.744379592892944808e-02 -6.297238148744581376e-02 1.158508225619188786e-01 1.284055757710126505e-02 1.472603536957505510e-01 -9.002748459736446829e-02 9.599963485054699430e-02 -1.460531318541207491e-01 -3.446906896292017269e-02 -8.030439383334608827e-02 2.494605323817591369e-01 -3.075688109155499603e-02 3.917119617202498294e-02 5.161388923016307223e-02 -6.554920198815211707e-02 -2.436301790654080146e-01 1.089462888657456302e-01 -2.085054755902076562e-01 1.058784982420943183e-01 8.490542570831403901e-02 -5.810405399456251146e-02 -9.998815621828868738e-02 -8.349162357657698152e-02 4.908847514143563351e-02 -4.886745138892735485e-02 7.549066522311956295e-02 3.231411060230862664e-02 -1.625880193083459602e-01 -7.502250192411165364e-02 -8.539340082715864144e-02 5.042462353077879766e-02 2.911075085221955794e-01 9.261927118036776194e-03 3.056780848405599507e-02 -3.609530817528438379e-02 -1.623850037046141448e-01 -1.478709025978825475e-01 -1.180096545885889331e-01 7.643401919403652878e-02 1.422594128590458640e-01 1.132670373772061700e-01 -9.761048973823251151e-02 -2.778563804593010139e-02 8.973672979007228656e-02 2.372718123106531962e-01 2.947682026774757838e-02 8.720936780504563723e-02 8.789210038497662081e-02 1.953672941174552369e-01 1.580577735330099265e-01 -2.489397448362578105e-02 -1.414417602233968008e-01 2.186169792054467875e-01 -4.794408952147842518e-02 -4.051500702657463010e-02 2.241680743520348129e-01 1.113608993397965409e-02 -1.216569536752079295e-01 -2.204500837668643687e-02 -9.941537463901624350e-02 -1.663834387107075152e-01 -4.313798549063579263e-02 -1.063180439154873605e-02 3.804932585302830267e-02 1.840251048884260776e-01 -8.267729320019816253e-02 -1.343626649398043382e-01 1.260490385451944750e-01 -1.728176053284294078e-01 -2.338368886937623736e-02
-7.275600180002605999e-02 1.002082376495852800e-01 -5.609152101781168104e-02 8.774382379813953914e-02 7.158894205691056223e-02 -2.091021234126699824e-01 -2.902151654784554391e-01 4.975445046757136919e-02 4.856288390790746562e-02 3.721950717874571157e-02 -7.878375761849300274e-02 -3.853204421830938586e-02 1.099390266272808336e-01 1.351690408926618792e-01 5.531256887877081252e-02 4.160205295339527987e-02 1.330168035308987584e-01 -3.644316266249009173e-02 -1.088371956242933786e-01 1.313532187963558640e-01 -2.449874395565382681e-02 -1.384950022735858266e-01 -1.140256906429645140e-01 -1.030037164121086340e-01 -3.894016496319335774e-02 1.181174270496659039e-02 2.278320234329297284e-02 2.154772438498669257e-02 -6.150817454807637474e-02 -5.753734196637998871e-02 -2.791547485106747606e-02 -2.197355157861127437e-02 -1.226004690768246475e-01 -1.004166301451416971e-01 -1.777574948046629078e-01 1.616698060663900316e-01 -1.288942412514253733e-01 1.497363256408350829e-01 -1.057150164503328077e-01 -5.581219920832112408e-02 7.081984584195174376e-03 2.080399577622725205e-01 -1.606011929751481257e-02 -1.888949566761256860e-02 -1.296866058781190600e-01 7.117564301386851422e-02 -3.606522334418572201e-02 -2.674480942918526227e-01 -3.695363171671664504e-02 -1.342179097400010845e-01 -9.610166749583119727e-02 8.109401466219859356e-02 1.033859300475640716e-02 2.196685165509712767e-01 6.517369270022399519e-02 6.881288158717641101e-02 -1.558660886607956819e-01 -1.662876107558971042e-02 -3.482426936774938447e-02 -1.139569623554054362e-01 -3.912189351920739022e-02 -1.245758141148373549e-01 -1.330972940032093821e-01 -1.934195893617194906e-01 -2.690189509765177900e-01 -5.166556193967426769e-02 -8.982287252359909269e-02 7.337679307273010931e-02 -2.669366432154365171e-02 4.979482221256824326e-02 2.872285187043032914e-02 7.433793340252581316e-02 -3.975815684901239794e-02 -6.281570009741657690e-02 -1.375002579998433130e-04 1.911619528155929781e-01 -1.176166523313032508e-01 3.146600787626804147e-02 4.224842640002472727e-02 -1.351348700598798969e-01 -8.133736205975376776e-02 -6.776921158570257953e-02 4.592118799757098635e-02 -5.215938565918810249e-02 1.440106961026013099e-01 -2.629376576597357296e-02
-3.901578458983678832e-02 -9.455302574892424095e-02 7.306730090788046694e-02 -7.663547902831653602e-02 1.316155924706724836e-02 -5.479479939352316364e-01 1.854754954589266369e-01 -3.390613719192017012e-02 7.711960325798154769e-02 1.097836223466872596e-01 3.602714830437162702e-02 9.965274144194985473e-02 2.077406538181294712e-02 -3.986017858840007477e-03 -1.198374969787493680e-02 3.147030891147975518e-01 3.618233744850206379e-02 -4.458845825615528891e-02 3.907649626404628429e-01 3.543843506631451368e-02 4.620788869458169329e-03 2.924959326607585175e-01 5.309645889607503277e-02 3.588562347808134101e-01 5.393704278373755850e-02 7.195232533585974033e-02 4.005879340502078306e-03 -1.192383072529261401e-01 1.075804103229915654e-01 -1.310889883200479222e-01 5.412960675619561679e-02 -3.572440904802660216e-02 4.521815753034860719e-02 -1.291419970312204235e-01 -1.960715959680387963e-02 1.050131426474016152e-02 6.280041666602588502e-02 8.152587036931373266e-02 -5.900332949707653984e-02 1.350833045719211090e-01 -2.163967198763425831e-02 -1.632098501569864968e-01 -2.805370847725671690e-02 -3.231948589773434022e-01 9.224054566831697832e-02 9.974785519268881961e-02 5.919469366265842081e-02 -3.651732295922302529e-01 8.548635809158630638e-02 3.661510762117425877e-02 -4.140066790812300668e-01 -5.213778265318737976e-02 -3.885142226872531634e-02 -7.752168334728039290e-02 8.940398192271668820e-02 -2.183208876803518494e-01 -1.870568167388916847e-01 -3.692658346901216831e-02 5.098801707783333637e-01 -2.072649218855831255e-01 -2.248107682347266489e-01 -1.054470515397563229e-02 6.335332990467998360e-03 4.010529051235097592e-02 1.079862639458165630e-01 -1.526081534898866554e-01 -5.920467556836828127e-02 -3.348605480280099356e-02 -3.947956761984482421e-01 5.425615417645909128e-02 -5.077772799453427605e-02 1.835591840126155061e-01 1.864495752292950059e-01 -1.600323193823946499e-01 -2.555953339952832248e-02 5.302122372536246381e-02 -5.341192573022308238e-03 3.238626545983778679e-03 -7.235109715833674959e-02 3.826554479334766390e-02 -1.424745980441697590e-01 1.753015997353916666e-01 -1.246381436601244203e-01 -7.708387248826169269e-02 2.098063674417644797e-01 1.052825822598364713e-01
-4.589141512103783044e-02 1.475964363571117544e-01 -8.115746689362483834e-02 2.311251392060911444e-02 -2.079794669172781441e-01 9.200029021297902176e-02 2.555289135413787299e-02 8.131835653888590254e-02 -7.138761611360826265e-02 -4.201734925160224149e-02 1.074377906204393301e-01 7.658524031189031800e-02 1.000127270288231202e-01 -1.100491498209884150e-01 -2.437064571413773140e-02 4.521206970788204521e-02 -7.382702990477475746e-02 -9.910760903067365735e-02 1.311896092480448195e-01 -6.417660573693520498e-02 4.298277841099767266e-02 3.745542107930112385e-02 -2.385836452325069620e-02 8.169023632529059942e-02 -9.644055904325675443e-02 -1.419148535849590158e-02 3.837278734912882849e-02 3.871090683448393660e-02 -1.745198299576526668e-01 -5.945907720228246068e-02 -3.989737764350177046e-02 6.108867954241970627e-03 -2.252766947561362643e-01 9.826555438980530410e-02 -5.446651018285238871e-02 -1.155634078163223083e-01 -8.195421439148627141e-02 4.510956237052274331e-02 -2.144979461771849907e-03 -7.416735786388614637e-02 -1.644405710530882081e-01 -8.394725005004821661e-02 -8.489285529182492851e-02 2.143052733361939383e-02 -1.939968034623420767e-01 3.046559319395242965e-02 7.936292746612388926e-02 -9.858704724445517542e-02 -2.055748178932211567e-01 5.716004374937871252e-02 2.282756584447898640e-01 -2.342005875120058839e-02 -7.562714630230957594e-03 7.377167018775521168e-02 -1.294585068971443598e-01 -7.060790450175091770e-02 1.219660631827177918e-02 -1.897653922183118458e-01 8.492625335594229663e-03 2.236287661804656768e-01 -1.779131909655317853e-02 -4.301855375438842083e-02 7.410723345799744011e-02 8.464889511881396045e-02 -1.706593575829893836e-02 7.617564608637615586e-02 -1.595745055284069902e-01 1.742887737576246099e-01 -1.296256646785232391e-01 -3.511679283248864830e-02 -1.656313359206922076e-01 2.856965591811140917e-02 2.309540761370292711e-02 -1.772913752922426756e-01 9.572470825888237944e-02 9.665600308333101298e-02 -1.256992381134676151e-01 8.320704006923629326e-02 1.706004709756572257e-01 5.318932414970990036e-02 9.387433693401181500e-02 -1.226240752395805350e-02 6.244153802656403698e-03 -1.244623774116482631e-02 -7.560197150650833919e-02 1.152250484182020494e-02
-6.514738777348391685e-02 -1.092012067831685390e-01 -7.424896147751511299e-02 3.469762524748926796e-02 -5.340683336154849331e-02 -6.080064544811904920e-02 3.145446345148332490e-02 -1.001711179975159696e-02 -8.007217538747764263e-02 3.177730405934268976e-02 1.954091016853093110e-01 1.528299534798510384e-01 -8.226177602719077220e-03 7.149168676687302215e-02 -1.453195021039787593e-01 -4.892227433607643575e-03 2.129088372699976944e-02 -7.551962414093595088e-02 4.790569325288629443e-02 4.985317840286055541e-02 1.015371118229576458e-01 -1.465809188588103329e-01 1.846550776125431004e-01 3.824972805804840222e-03 -1.617764619093675915e-01 1.134640358197332999e-01 4.997984389033423291e-02 6.712230439461611131e-02 9.586558222511316896e-03 3.436096809872478137e-03 1.273475598906518291e-01 -1.482866044527463012e-01 4.259869865601198513e-02 1.855632838126716755e-02 -2.682715559567312724e-02 -1.316080688094268701e-03 -2.251102172602033671e-02 1.125648571287251980e-02 -8.994915517117858805e-02 -1.813989198126459979e-01 -2.091896702867222096e-02 9.618294647562720956e-02 -5.046203234015093908e-02 -2.104935340969676591e-02 -1.186931109562366499e-01 -1.588771985053001601e-01 5.258514130745167020e-02 6.554409028824199901e-02 1.011146855720265608e-01 3.072534757902920313e-02 -1.385356631528516513e-01 -3.702724291029262094e-02 -1.455279214876804839e-01 -1.287986963317175604e-01 -5.321867103536543492e-02 2.259577459763162377e-01 1.845898528326635479e-01 8.638028504532040130e-03 -2.132114097035767500e-02 4.998044007908795938e-02 1.648026680802409938e-01 -9.191486856253425208e-02 -1.566453203325956778e-01 -2.404201953182311946e-01 1.127382369507600735e-01 -2.040921990867381602e-02 -6.568916939303678926e-02 1.358477004930773724e-01 1.231213712653797532e-01 -1.241020013042354597e-01 -1.886107537556206944e-03 1.633956201384452744e-01 1.166016289216835339e-01 -2.339426830260397591e-02 2.476978105660124219e-02 1.045806505119368235e-01 -1.244248218157684716e-01 8.245296352081883662e-03 1.144936046113595035e-01 2.349739099503908232e-02 1.332722991367334964e-01 -4.297253335304988126e-02 -6.217328193514746332e-02 1.285068372309720874e-01 3.932658785015723940e-02 1.238236641274934741e-01
-1.531756751600944766e-01 -9.699361503434027199e-03 4.990235615455684837e-02 -7.396004882570526850e-02 -4.136332037054128719e-02 -1.614805066076823725e-01 2.741035635411228633e-01 2.806200581826178916e-02 -8.646774602301361690e-02 7.862322212501464402e-02 1.788970177626810973e-02 -1.147426811797226248e-01 1.389249616966358424e-02 -7.495879448495927633e-02 -1.591446543021338700e-01 -1.880210184684120989e-02 2.982432809166679979e-02 4.622444998637349062e-02 -2.114089159559945086e-01 -6.488462675847127270e-02 2.250313163867760993e-02 2.210989411631750223e-01 8.547294213180284261e-02 9.954584455814270705e-03 -1.221843075158279140e-01 9.669939695102916510e-02 -7.407983066914346215e-02 -1.191233073280805049e-01 8.667493553420024810e-02 -1.926933821105280067e-02 -1.127674139439740625e-01 1.827930145513944477e-02 -9.562560422564532481e-02 1.578812628891582137e-01 1.438475374151779729e-01 1.730153192643840432e-01 2.284272673338216819e-02 -3.265274747318933773e-02 7.477129463601861481e-02 -2.334689505727982062e-01 7.316523800217515638e-02 2.641724491084712634e-02 2.070320019976316581e-02 1.940118008544738093e-01 -9.229700954945355140e-02 -4.935478607559218994e-02 -1.430910232476144683e-01 -2.322244634493438598e-01 4.953839752458799595e-02 -7.680173461046796435e-02 6.557871513503325811e-02 -5.635285674822330254e-03 3.840823941984621709e-02 3.363526033475552901e-01 -5.918091250089776469e-03 1.555742533277023332e-01 -1.511259378781758950e-02 -4.552252508286074723e-02 -1.117643104533694448e-01 4.349601564150076122e-02 2.018745457963445900e-01 -1.191342751543300466e-01 3.828883032538114850e-02 1.080360378404075922e-01 -1.251507761443060307e-01 1.297354318209825996e-01 -1.124723678603330723e-01 3.850746339817326391e-02 -6.903584405966937954e-02 5.090537781496048270e-02 -1.689404716241201254e-01 -2.007185655111691502e-02 -6.284263092799733177e-03 5.483460748680780289e-02 3.925798632458586679e-02 -7.430860773989954315e-02 3.727489213485750408e-02 -1.800567035039707664e-01 7.951246976917165921e-02 9.507980866901778738e-02 1.576277283765279424e-01 4.671183616838246039e-03 2.886886285536484614e-03 1.286759025901595688e-01 -9.692686677666196432e-03 5.602271949482670599e-02
-3.064796651671670286e-02 -4.348727496452346047e-02 -5.145232223206359923e-02 -4.557727281391835139e-02 1.462622495386771138e-01 -1.548354150201720143e-04 -2.018215742731639395e-01 -9.230411685543196687e-02 -1.101812869792664490e-01 -8.808547426111819345e-02 -1.132255459721095286e-01 2.014547162668815089e-02 2.960575021162721865e-01 2.506937360483008428e-02 5.443290735507272382e-02 -1.998515363609992546e-01 -1.068341637446422188e-01 3.856968360716152983e-02 -3.359685547704267740e-04 1.527154994242348462e-01 2.405517246250103158e-01 1.620149697793628052e-01 -1.632890884903586137e-01 -3.162732884094441449e-03 -1.027787544522639901e-01 3.289101680539212313e-02 2.090873372778272177e-01 -2.689669444229728090e-03 1.402218320170248722e-01 -9.210246212739235661e-02 2.170205563794573855e-01 -1.187027043270575261e-01 -5.678142641029258059e-02 -3.098725901195099885e-02 -9.354261583899002586e-02 2.030673344489841436e-01 6.720899110950513677e-02 -3.105591876051176925e-01 -5.089137330377335039e-02 -2.200145895798804457e-02 8.279034232386052461e-02 -3.120149482447954342e-02 -2.033974079583680816e-02 -2.177908896844334141e-01 -2.021493158284027314e-01 -1.672058192248763453e-01 -5.915655865057679874e-02 1.154813417811628440e-01 -1.636422977908080501e-01 -1.384484746904578178e-01 7.055410425441337174e-02 1.008731176156386043e-02 4.333307741101621868e-02 1.006304531530039133e-02 6.031698982456740188e-02 -1.915254449680298676e-01 -1.011383433846578667e-01 -5.344648736043369069e-02 -1.542502075316370402e-01 -9.705337738431857320e-02 8.479637692706362695e-02 -4.377490736830123332e-03 -1.364078699804754935e-01 2.568974834528785223e-02 1.072988991459193076e-01 -4.204934305109698373e-02 -7.328618306204709443e-02 7.948816908060943320e-02 2.015360081461899933e-01 -1.259831519284755619e-01 -3.036410247248032615e-02 5.452599252986113643e-03 5.083738960929608947e-02 -1.700652659262727739e-01 -1.002048197810717495e-01 2.940164785161759192e-02 -1.149929750206869911e-01 5.839540622290224914e-02 -8.065181616827094219e-04 1.496881655924327953e-02 -8.864109392380584151e-02 -1.349617888915358999e-01 -8.036635489591875681e-02 2.257778921060312471e-01 3.146221609390199587e-03 -8.612294299631778616e-02
4.466013971935562515e-02 -2.520021523015423398e-03 -2.100877358323907651e-01 9.771496184560533871e-02 -2.029278596130184784e-02 4.459000599666459314e-02 2.191710490853399952e-03 7.711550682398015982e-05 1.229546279168864699e-02 -4.497578975456430900e-02 4.599646721127494814e-02 8.145182772151088324e-02 1.795133899832128399e-01 -1.062989706387867661e-01 7.963994833356529898e-03 -1.247067334941594913e-01 -1.556693309052662455e-01 -1.474506119617847444e-01 2.306429083288978887e-01 -9.520614169433613827e-02 2.060676088039934545e-02 -1.158333806588606185e-01 -9.944899524908526467e-02 -6.641301797647605754e-02 7.886117307205885163e-02 9.670681824433882690e-02 5.303002268108900075e-02 9.106189940972669872e-02 -3.020533611465845911e-02 -1.316128231443823571e-01 -7.436737399693364725e-02 8.540976295983727928e-02 1.102482767535326313e-01 1.468779173436884355e-01 5.628235126480072431e-02 4.603480045861461228e-02 2.565690802023801523e-02 -5.470660281573964945e-02 2.835288971617252324e-02 2.335503865367272169e-02 -4.481636476123765367e-02 5.379650132329259066e-02 -1.779696901025572264e-01 -7.249359185052639369e-03 3.831210713243119598e-02 -2.012374387194768022e-01 1.110590693215440447e-02 -7.907079325711123541e-02 -4.881245006604204018e-02 3.353193876642567850e-01 7.688838816063869874e-02 -2.194387424321413982e-01 1.292035345024249438e-01 -9.136103071957825394e-02 -1.819706106196999906e-01 -2.949794490274360720e-02 5.410451321951995768e-02 1.167232818866388300e-01 1.264585732031220933e-01 -5.235317474629897633e-02 -2.772823311616786843e-02 6.443853051905358564e-02 3.123925972295043749e-02 -1.210564756303022793e-01 -1.252851431244920988e-02 -4.426047698605198311e-02 3.926231616327481577e-02 -2.286625219655973318e-01 -1.223951936577228755e-01 7.257801012000396346e-02 -1.678158745388498227e-02 6.628687635661033306e-02 1.327809141138613369e-01 1.907427968265691387e-01 -6.766418208408196688e-02 3.696833105726405558e-03 1.428997696929096561e-01 2.346976711875012681e-02 1.119115677332886138e-01 -1.999210141776706362e-01 1.957305107722102921e-02 -1.502990032346381843e-01 -4.769776461797672201e-02 -1.285708521245614855e-01 -1.430936699676908612e-02 -1.460366576220409884e-01
-2.535294877560073101e-01 8.803492634527797234e-02 1.166497459361110073e-01 2.311063367881386124e-02 -1.520678399373226464e-02 -1.159714032657498638e-02 -9.851412341691517804e-02 4.962720589499280965e-02 -3.710712174936534741e-02 1.214460307571083864e-01 8.182719529596939323e-02 1.754062912210783420e-01 -3.659243704645721851e-02 2.512575201889863039e-02 7.389542948520033683e-02 3.042457724196022395e-02 2.658860910643635889e-02 -1.192267305828126900e-01 6.629042096120563166e-02 -3.660474671146324299e-02 -2.140643239046441937e-01 -8.472018418918422777e-02 7.749445514528925660e-02 7.086376965773574788e-02 -1.426481475298377044e-01 1.035054624256572312e-02 -1.303823591149008421e-01 5.285463103140278923e-02 9.131781856259882368e-02 -3.054008893181693954e-02 1.173294966078857748e-01 -1.311101742828679403e-02 1.486180937356790244e-02 8.657223097929589439e-02 -2.681548101744298668e-02 1.134610330557159763e-01 7.064334923975063019e-02 -8.083621646100123959e-03 6.010877263996270564e-02 -5.391398401451391598e-02 1.233397754294113663e-01 -7.919440110046201131e-02 -1.208889301430179398e-02 -2.130995939930439564e-01 2.919529393992433691e-02 -3.556785493616584914e-02 -5.817483229175651055e-02 -6.589047020089121298e-02 5.741234994125533203e-02 -8.403110912362420082e-02 -1.126343889884977578e-01 -5.433144313246029804e-03 6.368488015543564973e-02 -1.776543106855578771e-02 -1.594595123714323548e-01 -3.735853771685013758e-01 9.437443723934568762e-03 1.618289430339412138e-01 3.146899274773801679e-03 8.382880705273829114e-02 -1.376653900520569129e-01 -1.319957276460823892e-01 -2.512268956439467349e-02 1.887666808162504622e-02 -1.692657899105935448e-01 -2.724151422101568285e-02 -5.811148290665958671e-02 1.954416465650503018e-02 1.581678685382469085e-01 1.354474152078463667e-01 -1.697626030398631525e-02 5.639274409996018755e-02 3.943051848266705683e-02 -5.227173510727638889e-02 2.022522044659749718e-02 4.103796784672354009e-02 6.691650241887940609e-02 7.001721181678499661e-02 1.583261172894098456e-01 -8.997806160758753391e-02 4.725928546112997258e-02 7.901044693698934529e-02 4.515948219918292095e-02 -8.909519476792611414e-02 1.831496594533914279e-02 -6.415506275896312727e-02
-4.339782985748095318e-02 2.415783494059348807e-02 -1.861678157361042890e-02 4.298684329116930769e-02 -1.391951263158790197e-02 -9.399924460891795688e-03 -8.961222859812940922e-02 2.624763752348613366e-02 4.500500612781446752e-02 6.971460416360444889e-02 -2.529574342118005165e-02 -3.434985555575961053e-02 2.700324679876632827e-01 -8.425559596829182429e-04 -1.790638146184994062e-01 -1.460873159569526548e-02 -2.417738045514055134e-01 1.859864182535539978e-01 1.067315243223694310e-01 -6.910841025408564174e-03 2.566912934963970147e-03 -1.249991953870913802e-02 8.839640601334503023e-02 6.216173461226343760e-02 -2.731243353097378285e-02 2.598433906229156709e-01 6.831633767059350866e-04 -6.093174498337960293e-02 8.218251043640555087e-02 2.625886069634464706e-02 -1.501104891476964798e-01 -3.514705073611536917e-02 -5.137863233177546868e-02 8.905660161950200437e-02 1.553020775525004726e-01 1.155988541404738834e-01 4.539511992582553890e-02 -1.919180460401681554e-02 -1.014351830649643516e-01 -2.452246692158594268e-03 -1.986332125794791625e-01 -8.964359794050445057e-03 8.721425013259936909e-02 6.633754471293218380e-02 1.525379412033283089e-01 -5.685252774824447325e-02 -2.785078183457759260e-02 1.124882745083417152e-01 9.175898709132268571e-02 1.796288916085031773e-01 -1.106024178214216891e-01 8.989360541745400335e-02 1.209521231926987961e-01 3.430182117359174832e-02 2.050548862506702263e-01 4.477012952099079096e-02 -2.473644028238175530e-01 1.121263320664774576e-01 -1.602501727557752442e-01 -5.201547653393789883e-02 5.140923981434578766e-02 2.247579407015088127e-01 -7.114827850310964652e-02 -5.418479355176116299e-03 1.339963134999624939e-01 -1.902503776745942121e-01 6.290591155108464505e-02 -1.070353276239715545e-01 -1.933640671413640877e-01 -7.504757087550173629e-04 -6.172349906142659756e-03 3.718038179058728160e-02 9.325991314097838158e-02 2.303033029336343240e-02 1.595164743644159056e-01 1.294381460850736465e-01 -7.745883306040401983e-02 -9.958184741213781457e-03 -2.425858077140654115e-02 -1.886079449343554815e-01 1.626843414476760452e-01 -4.558757871151958990e-02 1.078507053148857059e-01 -3.861297812798090284e-02 9.914714708423659484e-02 -4.810326800161848076e-02
1.099220318938180924e-01 3.947009414191957749e-02 6.999177866507454160e-02 7.566463939770963487e-02 2.949652106552966974e-02 -5.674672111262855229e-02 -7.238027360837635815e-02 2.102563921063978492e-01 1.531899404108721108e-01 1.569041756866262904e-02 1.236058994031737218e-01 -6.713757396642622277e-02 2.076163102044828457e-02 -1.606424924263574749e-01 -7.295547780063792176e-02 -1.750538772683682062e-02 -1.397637899256278828e-02 2.672921116965286739e-02 -1.505461209805354361e-01 4.382784658486640894e-03 8.442127057288440276e-03 2.042536284720246689e-02 7.274309487976345079e-02 -5.651570445026186246e-02 -1.490703060337436325e-01 4.461557934515728713e-02 3.126107096504227717e-02 2.906105306654765269e-02 1.412186833787815732e-01 2.294749648410995824e-02 7.811560253808469412e-02 9.294411801162779166e-03 1.091424711562681733e-02 -5.640700895438954809e-02 -3.795442593298484126e-03 1.496533745928393944e-02 3.132980160261842478e-02 1.358359256695547412e-01 1.425786764818130770e-01 1.551207112864217974e-01 -2.573181607654819944e-02 2.790849015178460679e-02 1.074134004509180729e-01 8.240925597998025737e-03 1.331798661574894460e-01 -2.393760629446853028e-01 1.526817807592840692e-01 -7.741061033107833611e-02 -4.703494538146368517e-03 -2.701253281786256816e-02 8.435262193898733496e-02 -1.730893664991353664e-02 2.115940865969837270e-01 4.808055202183028620e-02 -2.129224633097638944e-02 9.928764812111151583e-02 5.550983467625580925e-02 -1.925122414739892374e-02 1.246077641882999548e-01 8.425089207246726219e-02 1.328637811899818222e-01 -1.020891025002542141e-01 -3.159758487717564956e-02 -3.953672548876922821e-02 7.855948731564132981e-02 9.901475241391952120e-02 1.016754105206721936e-01 -1.737401682776869294e-02 -6.293182610344337513e-02 -1.214185192760415880e-02 1.399452075968773412e-01 1.725018452400863544e-01 4.775661300079958593e-02 -3.687133339210874744e-02 -3.093080750669164117e-02 3.578400207817256096e-02 -2.582970057897205907e-01 3.604279768604139872e-02 -3.758392587426272885e-02 -7.068975695955619087e-02 4.546760531616358091e-03 -8.401798528145129619e-02 5.785024819292705622e-02 -2.143857990831269343e-03 9.692810593060115221e-02 -2.026463066492495690e-01
3.244801808913781033e-02 -1.524644969148372387e-01 -6.049176479604376211e-02 1.280482355092051605e-01 -5.170039453007343327e-02 1.386455516445023184e-01 2.005248683320829672e-01 6.837802849568785923e-02 5.622349152914801751e-02 -1.660564537904068716e-01 -1.022615213144039900e-02 8.027786333838077271e-02 2.992317098709276202e-01 -5.589581580827076429e-02 5.342320597786931469e-02 -3.440875388776871990e-02 -1.025336508388120446e-02 1.100778284111361555e-01 2.009412139133654601e-02 -1.168639314227023218e-01 -1.575886232032986667e-01 1.139423092384579672e-01 1.722011930410775882e-01 -1.801367565301112139e-01 -3.155125385968518548e-02 1.568302454574458868e-02 -3.031204891381343233e-02 2.115607436607912402e-03 1.876885832059814810e-02 9.516830613871800348e-02 -2.750736314565400964e-02 2.794381260413809076e-01 4.149644518012247235e-02 -4.148048447598480515e-02 3.520776286826354795e-02 3.698435674917126964e-02 -8.079001710879314679e-02 -4.115165884670833661e-05 8.478595124896770585e-02 4.405705246245690543e-02 -4.813768731772041093e-02 7.671601399719811532e-02 -1.276698466274428165e-02 3.260194286972700750e-02 -1.950880781035789491e-02 -1.169178397626918497e-01 -2.859624891486322110e-03 1.367220074127338189e-02 2.098867484759086022e-01 2.376099522745589165e-01 6.028805560540062558e-02 -1.277911070722179410e-01 -1.748892525045938340e-01 -2.197018523958028380e-01 2.372439822286220301e-01 6.011631959427434120e-04 4.114758956733154810e-02 -4.226049604341172716e-02 -1.148780817519597236e-01 1.284841989698975451e-01 9.165867055888917260e-04 3.024518055845949846e-04 -2.494347170931337371e-02 1.102478154729537724e-01 3.377128115690894005e-03 -1.167030892182907911e-02 1.323722071561836133e-01 1.221746085889389155e-01 -7.894537381085270367e-02 3.141101332628665199e-02 -7.242144951471166103e-02 2.085766049302350267e-01 5.790283140238980386e-02 -2.117658751497907277e-01 -4.814039835590882416e-02 5.942029395756807941e-02 -1.280416631693906404e-02 -2.624158731426278618e-02 -5.830615685132419651e-02 1.437574462853337676e-01 -1.232760251447190258e-01 1.656019351799457306e-01 7.991779631590218563e-03 1.070633102095055189e-01 5.516925318752610718e-02 -1.842226222716521547e-02
3.555522067584068052e-02 1.020682697957594476e-01 -1.692858849651227016e-01 2.579944013805024645e-03 9.957365160923503655e-02 -7.111076514600432608e-02 4.441624406847729384e-02 -8.613489790104669752e-02 -1.248736021295347026e-01 -1.561095334767240439e-01 -1.938158880221964864e-01 1.654014077388736292e-01 9.190837224996860344e-02 -5.976208539838637201e-02 2.315452234698428535e-02 2.609403618185334728e-01 7.192543718457823643e-04 -2.182297939204790732e-02 1.725306646824942558e-01 8.475266605172883383e-02 1.407267799184393903e-02 5.912606387475487918e-02 -9.315938493420226896e-02 -2.685683896484201885e-03 -3.797420102308794385e-03 4.565697606149481114e-02 1.667987712479762352e-01 3.890133579200230618e-02 -1.877502100438468990e-01 -2.229470723600014415e-01 1.033927250547079790e-01 -9.667575516677774866e-04 2.291315185330596860e-01 1.012815231754822382e-01 -8.388025099089142789e-02 -1.506869687923896028e-01 -5.767030378050074131e-04 7.842726351831824649e-02 -5.215584954044107796e-02 -1.554461748952028211e-01 -1.278451462845100681e-02 7.971502724318203781e-02 2.414781852167813270e-02 -1.220414301725470108e-01 2.697200006721108267e-01 -7.125222115563309422e-02 6.246357551106826965e-03 1.918595010931713890e-02 4.052694611943397779e-02 3.844421461089850278e-01 2.163980372393030649e-01 1.690058250265707163e-01 7.681312924359076644e-02 -2.911820006648977999e-01 -6.561026107938836872e-03 -9.963526584962979424e-03 -1.483920033440372932e-01 3.249080543083370659e-02 5.437859126320255393e-02 -7.346722722108805885e-03 -1.436605789930693600e-01 -1.024084084609998418e-01 -3.628415820224242805e-02 1.412486118602914731e-01 -8.710921984631883608e-02 -3.242492048942118704e-02 -7.198548763665117700e-02 5.528866105859590874e-02 -2.125191598555564720e-03 5.656919140381861527e-02 -9.730667361084775757e-02 -6.253647979093043818e-02 9.836883949825435403e-02 -9.101044150368256536e-02 -2.217619335631345057e-01 -9.188993271965011089e-02 3.573978119755189670e-02 3.389309988954807007e-03 8.041594448806418938e-02 2.498790933770818345e-02 -1.145615103750299013e-01 -2.583707685815302829e-02 -1.994994790709014865e-01 -1.253000619470887311e-01 -1.194459181723703661e-01 -5.172476757200591274e-02
8.725891624351558851e-02 1.777684365020003321e-01 -9.444253812571329343e-02 3.881573873765422483e-02 -1.125261767561371445e-01 1.694650143053333391e-02 -5.369108537590538272e-02 -2.461954820944381797e-02 1.472120234605157341e-01 5.842496667991647907e-02 3.948090264414916978e-02 1.356158033521561168e-01 -8.844911808205366266e-02 -2.661675367693672190e-02 4.202758817649737688e-02 1.164996660188882399e-01 1.036781833072128456e-01 4.329371548055235830e-02 6.534584979937073379e-02 1.899523261626994905e-02 5.082964951502181444e-02 1.354469542572362961e-01 -9.284952218521086431e-02 -1.010022113565265667e-01 4.332904962581211883e-02 1.488736936165860336e-01 2.560785349007202796e-02 -8.607104270836005155e-02 1.543847805429786890e-01 -2.385807814158620935e-02 1.198659637873744285e-02 -1.942467044690468214e-01 1.309176884498843008e-02 7.307290148165675181e-02 3.643000253637751398e-03 9.713523844186464085e-02 -9.408163944493684594e-02 -8.854725425761258983e-02 4.036886877243633237e-02 1.621353375304288857e-01 -6.250270256852218098e-02 8.828064682732046295e-03 -1.310803810375645861e-01 8.341149866665920065e-02 -8.704589623638372964e-02 2.529790568812290488e-02 1.307375788357876059e-02 -1.014083178158406706e-01 8.215786367432850734e-02 -1.764625665101814955e-01 1.097085499283839971e-01 -1.095294258003145366e-01 2.348034249195528611e-01 9.418560327887132155e-02 7.990175135197691292e-02 -7.833633704919648610e-02 5.305147540592774352e-02 -5.903837926116961565e-02 -4.945441100670521645e-02 5.984375945161309746e-02 -9.951199197543225683e-02 5.782379595543525597e-02 -1.146795659935964523e-01 -2.217900961430143911e-03 3.620788559965270464e-02 5.978664879722990488e-02 6.596783372251270594e-02 8.692857431576196670e-02 1.616937679288917018e-02 -4.143788446030708533e-02 -1.176391250577395187e-02 1.418074752413905071e-01 4.542270471399718901e-02 1.051016245610909422e-01 1.444150584536588004e-02 1.690686379540022322e-01 2.039320786912924427e-02 6.058741770131927107e-02 -8.432737685346566869e-02 8.390881671607657022e-02 1.070786340294712091e-01 1.048182929464645113e-01 6.121773719481866244e-02 -9.742798423144501119e-02 -6.722379836985838131e-02 -1.023997368180246809e-01
7.372931040581558182e-02 4.128573142125927659e-02 4.064970966061243196e-02 3.337617708787316700e-02 1.596520717485899743e-02 7.388839653831883944e-03 -4.295768040267440580e-02 -5.177162530896839421e-02 -6.272599689246582955e-02 1.225547936574841595e-01 1.941808040021259646e-02 1.250490801415615194e-01 2.915438727991301326e-01 1.165748895803431495e-01 5.228902841977174643e-02 7.730927191066974680e-02 -3.432943673612145336e-02 1.157475837432584836e-01 9.272588029535903942e-02 9.462274509102718001e-02 1.292232209485190964e-01 -1.162051325567925730e-01 -1.065314633070163358e-01 7.203919729876259725e-02 1.138116945841571859e-01 1.477445990713231738e-02 1.228669480040425477e-01 7.040884660214433155e-02 -8.894832570054717058e-02 -8.226846757695935319e-02 6.642587964901676412e-02 5.921337128395898208e-02 -1.247484895669461746e-01 2.441365222034815041e-02 -8.226890498916078487e-02 -1.916767537216648720e-01 2.561380227885573513e-02 1.187331028210873579e-01 -1.152619457679361081e-01 4.644045562260167015e-02 -6.089946122169290904e-02 2.140365654266972520e-02 5.500037557877310301e-02 1.067447822209767472e-01 2.935092074607486071e-02 -8.131683630409515529e-02 1.528655831487903682e-01 3.412513120665125466e-02 2.999658826216009336e-03 7.550824151639446910e-03 -1.133989284337350439e-01 1.502181450253891604e-01 2.937369106391053003e-02 -5.543466007080214558e-02 -9.999028669336013087e-02 4.118334548135735296e-02 -1.230230053238831889e-01 -3.076055096848213585e-02 -9.450904133660308071e-02 5.139598185163083213e-03 -5.667898404439351834e-02 4.382764435319239094e-02 9.610180284660024830e-02 -7.905941800523691443e-02 4.678910541183754594e-03 -2.120385783713496508e-02 -5.751911263884563336e-02 -5.937590675662325623e-02 -8.497005334123074877e-03 -1.119731893707753834e-01 -1.244803611413814078e-02 1.074878843788105998e-01 -1.781842902050636557e-01 -3.326080771242411610e-02 2.002052319190072982e-02 -9.661025893115769009e-03 1.289517456788514815e-01 -9.379829838693250210e-02 -9.138178429972478034e-02 -1.301161286691866203e-01 -7.951461157357793408e-03 1.093033513173630178e-01 9.647951419276040719e-02 -4.109906374707457399e-02 -2.497275535956665002e-02 1.895846690213985608e-02
6.652148547299983894e-02 -1.242467329700756434e-01 -1.813391219762144208e-02 1.368873847778701580e-01 4.620914014183115370e-02 3.435304764053909860e-02 9.310093560119822587e-02 -5.271569949344511244e-03 9.157326688169419027e-02 -9.170345728460543855e-02 7.941213389507797982e-02 3.570466162161486934e-02 -9.618272421925898319e-02 -9.555211044339008419e-02 -4.869083257277684318e-02 -1.661814672963650985e-01 -5.931410146558436375e-02 9.897785237462482233e-02 3.536798131911823850e-02 -8.974027235574769112e-02 -4.798209238056114212e-02 -2.196505914214825009e-03 -3.173700332579505734e-02 7.659162229758276208e-02 8.769139977347661929e-02 -1.211525536947753029e-01 7.764424385903867520e-02 7.242371803866622104e-02 2.904580674834254458e-02 6.895377553843722029e-02 3.387206607331084279e-02 1.258361731879264755e-01 -8.649923937924072076e-03 7.021857284768030782e-02 -5.718287661299258084e-02 1.113971257828217654e-01 -2.115186988202922003e-01 -1.244244453803782782e-03 2.992462161993534025e-03 -2.472606609671414157e-01 -1.782603656411318460e-01 -9.510052825148772315e-02 -4.203777712602512623e-02 -7.446658889681126436e-02 -8.509494483357818440e-02 -9.022337159012509822e-02 -4.240143703362134198e-02 1.065678457263183748e-01 -1.583196803997248547e-02 4.238808654422825117e-02 -2.283140974702717318e-02 5.883239010381196947e-03 9.436932599238291586e-02 5.070343716933804756e-02 -3.446741499880780907e-02 1.450961768988646150e-01 -2.365787089147024930e-02 -7.628572899166137511e-02 2.341555948865791381e-01 1.419616588006098468e-01 -1.504459030062607616e-01 -1.671689504335275300e-01 -1.452626676970738759e-02 -8.878614833044924659e-03 2.600761297351429288e-02 -1.262509130444558203e-01 -1.265619193614354876e-01 6.632897128638265416e-03 -8.992701797478461212e-02 -1.835178910143550890e-01 1.784191505076390127e-01 8.802400567930893094e-02 -2.407268727115791096e-02 -4.756618423346976182e-03 -6.850176399830372465e-02 -1.198497251962719751e-01 -1.425407514087603800e-01 6.235722707616922489e-02 -2.458393595428708198e-03 -1.483030274506236430e-02 -1.230922485124704979e-01 1.307074609729289016e-01 2.447101855683656360e-02 2.251342847404638192e-01 1.370859048407520320e-01 3.883422814540469364e-02
4.253448027365063638e-02 9.793114517414273912e-02 1.523937839820141693e-01 -1.106463086903074766e-01 3.398999966298645037e-02 -1.817743373324104059e-02 -1.273640430725055950e-01 -8.588909902549728137e-02 -1.491485498218390708e-02 5.943216507666245624e-02 -1.055364686797023721e-01 -1.255653035363639980e-01 -1.480234925123036227e-01 -1.525650052555309853e-02 1.774045827560423796e-02 -7.284681119682161199e-02 -5.113522553154836725e-02 2.466082480516940123e-01 1.196492107933230520e-01 -3.410382337347771936e-02 -4.101072442215481645e-02 4.128816963661272738e-02 -5.171241067828346444e-02 1.367442837727937399e-01 -5.270929093232751099e-03 -7.761315636077398272e-02 -1.435276089887158046e-01 -1.613440017378946767e-01 8.589691985788443229e-02 -1.660335136841860522e-03 -1.094131526827741147e-01 8.838046364514268172e-02 -4.217246715596682793e-02 -9.648695685273472877e-02 -2.724674582322020311e-01 1.012542042882154936e-01 -1.321685112398060177e-02 -1.253994459591850075e-01 3.695761265145657698e-02 7.784111429390361617e-03 -2.816888376040409953e-02 -1.452815412964956476e-01 1.343704704970856700e-01 -5.174651766946632842e-02 1.185590798460972733e-01 5.665096550505214351e-02 -5.603039811476250021e-02 -3.596627528605941121e-02 2.537348356301604921e-02 -1.421352800513975105e-02 3.637451911723506293e-02 -1.751840304811003515e-02 9.000962800690688603e-02 5.532873733775705433e-02 -1.272971886408821168e-02 4.317881255810106927e-02 7.147543518564554443e-02 -5.386342678039917481e-02 1.444208705625919797e-02 9.601805659913946467e-02 -4.517006026447854122e-02 -1.597717990644164920e-01 -3.997715166570819240e-02 -3.409022631512370616e-02 -3.880246412268328199e-02 -5.305981734734015881e-02 -1.332995545486053146e-01 -1.227208187973467673e-01 9.630742132606812111e-02 -1.361106969909162698e-03 5.752290252546177901e-02 -1.110415181998633538e-01 1.754807395838801076e-01 1.400050673158871328e-01 -1.320310049236008212e-02 -2.540767069698888700e-02 2.419671192265025056e-02 1.297187794354853763e-01 -7.685408202937458631e-04 -5.845339273813891096e-02 2.469948739508630309e-02 -1.013257115916859491e-01 4.743272850218861053e-02 2.699372776033193838e-02 -1.084873988491732721e-01 3.016066988581195610e-02
-1.122127599248237823e-01 -4.964811406195172513e-03 4.323107830374212091e-02 8.047563710426353101e-02 3.813634728279528124e-02 -5.184085267669411717e-02 -5.703156585794856570e-02 -1.213343942443281809e-01 1.035952681792714353e-01 -1.075936627896012521e-01 -1.049536342263207161e-01 -7.194543758998955818e-02 7.864887258113924251e-02 3.574560885997297988e-02 4.769545747928660012e-02 1.384197079376147110e-01 -3.412940204283899936e-02 -7.151502451399420479e-02 1.408568538590930508e-01 -1.065731910927281700e-01 -5.615374461293420882e-02 -4.902679320036958804e-03 -5.680078716999263644e-02 1.049813801203141744e-01 -5.462132056278091313e-02 5.827346914408039805e-05 -1.162159280870212266e-02 -1.902130562080886142e-02 1.118669567214673755e-01 4.250998585399891512e-03 -5.202575525674642265e-02 -9.215157987815406071e-02 4.673233460061745892e-02 2.075559993168394485e-02 -5.268574146848290646e-02 -1.422134588994216353e-01 9.209937806210757860e-02 -1.224997726495653527e-01 3.192145480121335449e-02 1.355529742491181078e-01 -6.693212163255803093e-02 -5.273765844456029805e-02 1.168278277884532076e-02 -1.452804858707822978e-02 1.095478843566598942e-01 -1.546261281848732572e-01 8.638600524565397121e-02 1.237755158695228869e-01 8.632412162346833617e-02 -6.801845422432910293e-02 -9.455310033676495030e-02 -8.048818493716866640e-02 1.284335486923557090e-01 -1.433220904366404314e-01 6.460635871043007850e-02 1.844969411541827822e-02 5.888094031262941508e-02 -6.289021963510565971e-02 2.055927425025425373e-02 -9.054311959242639096e-02 -2.284238915846422135e-01 -5.080083188998532617e-02 -3.660026754390424686e-02 -3.519848912933804669e-02 1.676499229028985127e-01 1.024560459594087147e-01 1.286824922297928608e-01 -1.447302898989722975e-01 4.027200290005424066e-02 7.625128359128106881e-02 1.206864138329309527e-01 2.250981476637004264e-01 -1.385308034981002079e-01 -4.472558753936855397e-03 5.053483313990341647e-02 -1.405894935177916596e-02 -1.923753903839054147e-01 -6.989325896340720622e-03 1.032783735427316718e-01 -6.876515917144084000e-02 1.589226433925064186e-01 -5.110318053949416961e-02 4.367873913989477053e-02 1.240839045867317830e-01 7.381823172590366855e-02 5.064817515827223920e-03
2.488080076354544368e-02 1.869417117679213897e-02 -1.319703943707475208e-03 2.736713602001811241e-02 1.186701416258850866e-01 -7.877244626129786820e-02 7.402445547310089469e-02 1.596283179394207812e-03 7.445386948558740947e-02 9.327948990632187187e-02 7.868417063587380966e-02 -1.038618010964211941e-01 -8.270258413007347542e-02 1.482488798923547180e-01 -6.271503716789435419e-03 4.923405882209339057e-02 -1.068964967060113784e-02 -4.909730403142831962e-02 2.029715134197422333e-01 -1.394583561543001060e-01 2.128620349525496558e-01 -1.229990596054313934e-01 6.838442048651104110e-02 8.447641228241596634e-02 -1.475079504164580890e-01 7.886297902134953297e-02 1.520275025291853432e-01 9.104030437111365615e-02 -7.571103562990887104e-02 -1.905597472530135700e-02 2.763495593018067305e-03 -8.257222921409254623e-02 6.866812968824886898e-02 -1.753536269369255218e-01 -8.365308351401712361e-02 -1.022335125948537621e-02 -1.126061871743377352e-01 1.481115960931032038e-01 1.849489658218809451e-01 -4.383444564413019329e-02 -9.490559149940273886e-02 5.368965718941707405e-02 -7.557575084546096222e-02 -1.892337812235092842e-01 6.480093247148197011e-02 1.284991732025272393e-01 8.616689366048188581e-02 -1.490968913783883437e-02 -1.455328828201609137e-01 6.011162527362926000e-02 2.501788677838767128e-01 6.922053608557010573e-02 5.524087302835093555e-02 -1.048731269933712990e-01 1.669495153474042926e-01 1.864367933336983640e-01 6.045589782864515919e-03 3.659323444406817338e-02 2.028123678686490350e-01 8.299618019641263889e-02 9.986017300366632765e-02 5.505114227484270845e-02 1.823304141810953849e-01 -2.762552494723414728e-03 -1.090535656027224326e-01 -5.262613706164266658e-02 4.668095093154775270e-03 -1.113539639462061276e-01 -2.927722472516950183e-02 -9.606524310973588165e-02 -2.848397477063278893e-02 7.851135270810663536e-02 -1.527620698326424831e-03 -4.130132134487951058e-03 -1.874098740619257741e-01 -6.053544789626744138e-02 1.300240428783822344e-01 2.706696829646162636e-02 -4.106688640567049409e-02 3.052589866787740885e-02 -1.724099445382798745e-01 -3.872615740445039395e-02 9.007951336029092204e-02 7.283587456807819049e-02 -6.284227338621976855e-02 -8.767603718088590181e-02
-9.494953969456565793e-03 -1.071600166214946998e-01 -3.313682628690627074e-02 -5.500324328888982206e-02 3.399187592056064633e-02 1.326282916408657864e-01 -1.291442416796690917e-01 -1.959222797747997846e-01 -2.195332341082559535e-01 -3.842877122513742999e-02 -8.786457079011267268e-02 -9.657190704171017548e-02 1.115863442782161208e-01 -2.248039748428894979e-01 2.399479829450976154e-03 -2.326989604343042695e-01 -9.113836421442753077e-02 -1.218408430864649922e-01 1.819599211421009388e-01 -2.644733880830509379e-02 -1.411886997683353684e-03 -4.197918981025054036e-02 3.478006576568264119e-02 4.973175502266842518e-02 -4.554910616667807999e-02 -1.021981222741141782e-01 3.834194222833447324e-02 -5.238435494163787287e-02 1.130959374301757636e-01 4.432892468156535842e-02 -1.792857334394175883e-01 1.174438830507204962e-01 -1.042457730146556516e-01 6.780152956283665155e-02 2.552196267171125132e-02 2.012060074398586140e-01 -2.999931896400864079e-02 -5.854564278162806973e-02 -7.259688833551856957e-02 -1.089062819949271760e-01 -1.503429500070489477e-01 2.021018148351280963e-01 1.345279600900325771e-02 -8.572751511980575279e-02 -1.384811979346711741e-01 6.038548225699029437e-02 -1.814219262966525886e-02 1.322710017739773813e-01 -2.241584907064758103e-01 -4.181031243462276503e-01 -1.478785971398875743e-02 -2.214044306010061747e-01 1.290936264623673280e-01 -1.052913662528585370e-01 9.415431472936605650e-02 -1.272989255606453984e-01 9.077104572489531897e-02 -1.246328044910286620e-01 -1.915752309678188381e-01 -1.174055655698246770e-01 -2.262920373129373997e-01 -2.263512878733474343e-01 -2.686245699665064657e-01 -6.809436858934000969e-02 -2.910284892153808603e-02 -3.099843689234618727e-03 -1.166046718877477573e-01 1.473931366533054177e-01 9.848382956066287219e-02 -2.804860694920678632e-02 -2.371052018715358312e-02 -2.552887935405022124e-01 -9.668673487817922019e-02 -2.523962427469556014e-01 -1.716990814335716264e-01 -1.143012036551722677e-01 -6.300735340750281133e-02 -3.123333166054550677e-02 1.059295426773128324e-01 -8.488285398601405629e-02 1.418500011721267884e-01 -6.665210803532412021e-05 -4.244989026157572343e-01 -1.385115929658533862e-01 -8.847008039134868218e-02 -1.041599873600562720e-01
-3.847824937381102983e-02 1.086109877148100367e-01 -1.038496684949406501e-01 -9.088962212588928835e-02 -4.491326911955553086e-02 -7.452988486690767522e-02 -5.665786837525651348e-02 1.409487407997262187e-01 -5.480238526208756206e-02 -9.074307574665976817e-02 -8.223464811916562922e-02 8.521888880058053894e-02 7.147840853912967862e-02 5.846524324128716393e-02 4.900589677100166547e-02 -9.741457708262518667e-02 9.788731715021296853e-02 8.158468367943249103e-03 -1.386577367002266026e-01 8.210336788047091494e-02 -8.900313098779108478e-02 -1.284886795860285258e-01 1.307591560101015529e-02 6.560251064722330550e-02 6.305194515936440348e-03 -8.096722555339637417e-02 1.147196521443576561e-01 -6.493559164666035111e-02 -5.022331225819250122e-03 -2.197816049987336498e-02 -1.043160944225802189e-01 1.447678883926853399e-01 6.471015095282710294e-02 2.061490948335502060e-01 -1.223630093546901054e-01 1.846978191153039392e-02 1.164187318172721086e-01 -1.099272624667926856e-01 -6.168265933221134950e-02 -1.281157005474333754e-01 -1.445393289670495185e-01 2.595964737360715539e-03 2.545712575142955805e-02 7.108589895562932026e-02 -5.647872684113260794e-02 -1.529481676522307654e-01 -2.516485514757543090e-02 1.012966217171821226e-01 1.056112246779574715e-01 -2.670821688748546696e-02 7.896316007653109148e-02 5.654353314653458654e-03 -1.723053591915355287e-01 3.507800476960032388e-02 4.457550167518167100e-02 2.660577912106042997e-01 3.173283233526153976e-03 1.444381710781699468e-01 -4.309509951042479032e-04 2.463640937787074311e-02 2.393204179841455226e-01 -2.850160068728002996e-02 -5.416788141221360459e-02 -9.303215153058265463e-02 2.518400689206450223e-03 -9.981941767088653439e-02 9.987787286884545340e-03 -4.832909703159169595e-02 2.522087719851986432e-01 2.152120814631603707e-01 1.522969086248779080e-01 -4.104253319819594487e-02 1.464006509714861903e-01 -9.572110083558932336e-02 -1.443017557007554574e-01 -1.240882378646163964e-01 1.235178465537727782e-01 1.543975205261316486e-01 9.481589509261360849e-02 6.195843835822151952e-02 -2.880618089531819396e-04 -5.272613066636701318e-02 -3.004161925320239859e-02 -3.418842460575645392e-02 6.856028448755195626e-02 -6.320443803778195979e-02
