5.116325534945592030e-02 6.714319594360948495e-02 8.354699899371194338e-02 1.779845396702407212e-01 5.095935074052319880e-02 6.219464337437392160e-02 -3.073214238637168080e-03 7.815932771818818320e-03 -1.223637968380753699e-02 -9.748273567853675547e-02 1.393622548857880450e-01 5.229957742792248898e-02 1.093813851548949660e-02 1.216503220855452150e-01 -6.313103792869051434e-02 6.236255489582913369e-02 -2.899693647820013320e-02 -7.751135483883868360e-02 -1.976931914216989161e-01 -7.677346844954240513e-04 -4.291864077068823641e-02 -3.693646115401180013e-02 -2.313365898798563566e-02 -1.835723231040354772e-02 2.375757853688375831e-01
3.535206060406472645e-02 -8.516929797990300047e-03 4.441939140574785450e-02 -5.399607334444531115e-02 4.132699203049344794e-02 -8.589012974703710140e-03 -1.406287765042997240e-01 1.009928520102626875e-01 -1.536444626488142617e-02 -2.177952520527257352e-01 6.080787258924247318e-02 1.303382353922439840e-01 -1.801230788013302719e-02 -4.643754283441855341e-02 -1.333705350018534463e-01 -6.737181882071507921e-03 -1.459797331525288129e-02 1.779411858115895473e-01 8.882481835381117810e-03 4.705936365492527362e-02 1.635812136261038663e-01 -8.967383018961068430e-02 7.153966166584979636e-02 -4.744405166463908780e-02 -1.137288129664013464e-01
-2.533250749178646566e-01 1.534095662513299332e-02 1.176267510063556954e-01 6.555611076899979517e-02 -1.737113308608619899e-01 5.673152404505015650e-02 -1.098330829776163337e-01 2.509692333915897189e-02 1.108534778888889266e-01 1.534595390062988285e-01 5.917074434223399543e-02 1.752180194681883518e-02 1.441778652159358409e-01 -1.521910600373100608e-01 -1.157698902076873815e-01 -9.801034565308447410e-02 -8.152789021784513646e-02 1.014787065532699456e-01 2.945109915545608414e-01 -1.011739094060852377e-02 4.531036825951012537e-02 6.596142941941195159e-02 1.014293641735593623e-02 6.791729679840301931e-04 1.429645431069656025e-01
-6.067906600334567468e-02 9.346956984952398129e-02 1.467331551027251935e-01 2.925346910513769785e-02 -1.582300353346361987e-01 -2.718538698953424856e-02 -6.489608995664385149e-02 1.666865018672972765e-01 -6.718592719046879991e-02 -2.341687431476742187e-01 3.453577381021781800e-01 2.617799127740506604e-01 -1.579956159988932934e-02 2.638567572946428630e-01 2.295611233974291510e-02 -6.162175890000224504e-02 -1.872628311473032992e-01 -1.270669745964634334e-01 -8.128023086228912397e-02 2.235184730282823162e-01 1.399065562892831127e-01 -7.354865223292729459e-02 4.743758600759582361e-02 -1.035606996437209021e-01 2.095811929269004569e-03
-8.510960573949907793e-02 3.760669315790028666e-02 1.353050006915285097e-01 -1.361507895583183858e-01 6.555922556819578084e-02 -2.745600013750568169e-02 -1.215004892953822496e-01 1.005600791712237679e-02 3.118048690287070560e-02 -1.244413787084262119e-01 -3.553852575795719837e-02 -7.814808676538015364e-02 -3.915338730699097908e-02 -5.143735456066585859e-02 -6.524643273433734791e-02 -1.530267829674028801e-01 -2.215012033974413652e-01 -3.285568335359061870e-02 -4.623725693295595296e-02 -1.400523431808343294e-03 6.024314047690056996e-03 -1.407386809998624477e-01 -3.813441667353372616e-02 -1.671608367662261729e-01 1.681154158109809393e-01
-2.797083360432192078e-01 -2.036669927441506212e-01 3.178526467033090247e-02 -1.172983797488771490e-01 3.429429373956906502e-01 -1.737207526649966471e-01 -2.864063248256765171e-01 4.582041219265905324e-02 -1.759020441692275838e-01 3.163877107507489517e-01 -4.997279459452140526e-02 -2.905295434896226769e-02 3.529117002972984030e-02 2.994424677648119815e-01 4.627584688381629618e-01 -1.936968474858055400e-01 -3.186846868675131672e-01 -1.870590911534426816e-03 -3.531414865820420995e-02 1.258832645911194259e-01 -1.625137161870387481e-01 -2.736628531861466929e-01 2.581403447960869957e-02 -5.494315796688770820e-02 -1.915284220253799241e-01
1.809224496371712732e-02 -8.821827626081429896e-02 -4.538668737773815520e-02 -5.702198302482063691e-02 -6.285305589661145664e-02 9.551946752723410039e-02 -4.238600737954930087e-01 9.798567989412833301e-02 -2.107864726605450378e-02 -1.453266203251527555e-01 1.369208057568862824e-01 2.335393064179929618e-02 -6.350889739206570794e-02 -1.216763025757300193e-01 1.245881018258084560e-01 7.619221649968688226e-02 2.313889599779290207e-01 5.846251443261399339e-02 1.635819424148562684e-01 -1.655234194436515371e-01 -2.446388406645598201e-01 1.349113813992736666e-01 -3.972522244351080895e-02 -1.938612608057496689e-01 -2.387279288882165548e-02
2.065632640424285710e-02 -1.124067177102532067e-01 -3.096800510544928196e-03 9.430462452458650280e-02 2.675275241466959497e-01 -9.947460130385923915e-02 -2.622239125813995500e-02 -4.149316949254139991e-02 -6.473381564470205227e-03 7.329160561198010126e-02 -2.862311650915270664e-02 1.507599183619876271e-01 -1.210406578313795306e-01 -7.710010206634990149e-04 2.272635062361192532e-02 -2.409788447736073980e-01 -1.047730530608805138e-01 2.511271840941634720e-02 7.066924221639593606e-02 -9.287167382487560019e-02 1.852011983481156171e-02 -4.382326097495578554e-02 8.766762525807138273e-02 -1.067385399392831308e-01 1.686485606001691673e-01
-2.853586439959443846e-02 4.580567285006925671e-02 -1.059049543639966479e-01 -1.693642052897177674e-01 2.307992339736499865e-01 1.827932355078497675e-02 -4.608136430349391022e-02 -1.721276038301255418e-01 -6.825416670661093449e-03 -9.523152777471430297e-02 9.015637679429611140e-02 -1.037390257600752375e-01 6.927739466699500692e-02 -2.598716170628901367e-01 9.533131111643880495e-02 -4.240974786305733851e-03 -8.336229846921637543e-03 2.183116336598025786e-01 8.348473535081618602e-02 -1.665122220000625833e-02 -1.285824998168737243e-01 -2.531931651970021901e-01 -9.870032865158757940e-02 -3.743222103757466029e-02 1.462062110477328480e-01
-4.311431864861417496e-01 3.706313773893177115e-03 3.373188340690868453e-02 -5.400060998261254491e-02 -5.947762254066471521e-03 -5.313237312008684682e-02 -1.714769269673858607e-02 2.036334483120885025e-02 1.818527258842846453e-02 1.068280765438727742e-01 3.119343564854690221e-01 4.319524701218460661e-02 -4.908445657514458327e-02 -2.481979373258355048e-01 -4.627270422393620075e-02 3.882808555613614238e-02 2.201961724348650007e-02 1.111878886510533210e-01 -2.503788822458371047e-02 1.782473737195841013e-01 7.155465915793840677e-03 1.632228338439601911e-01 -9.889892264924810342e-03 2.087332021894212908e-01 1.485402449388092683e-01
-9.428967567279169723e-03 -1.330001261726663220e-01 -1.594638291972247379e-02 -1.843301935468533506e-02 -8.531263023578829208e-02 4.930052425533188593e-02 -1.500690208322815189e-01 -1.757192959460494863e-02 1.169027890816454369e-02 5.027443349893299246e-02 -1.451895688318318063e-02 3.362113423346437674e-02 8.257979128536402369e-02 -4.323445639636543797e-02 9.931777350895530654e-02 -1.132907943167890952e-01 1.968322030442891946e-01 9.744511288385369896e-02 -1.975863385663000765e-02 1.670041084607415405e-01 -4.245870881438150446e-02 1.030383506239753305e-01 1.194480264827025157e-01 3.156629391523369660e-02 -2.828705746369697058e-02
-7.287966135315922245e-02 6.914399330216504380e-02 1.076673997195391336e-01 2.276988810426941179e-01 5.487053253118878704e-02 5.112192371132211199e-02 2.345450174699806878e-01 -4.061231807256303339e-02 -6.170354167984937188e-02 1.989180317269484237e-03 7.535408656983409031e-03 1.471885006211274237e-02 -6.442858957216328342e-02 5.049890010204555885e-02 5.737279535274714820e-02 -2.261289086454628394e-01 -1.345222978821989102e-01 7.554269088879074848e-03 1.641095976371921006e-01 -1.662800973391989345e-01 -6.557260748476648193e-02 -5.758800258793427690e-02 -4.736315004523536376e-02 1.327045999637746221e-01 -1.233102001631605910e-01
-1.829682926953185851e-01 8.165276788011842368e-02 -9.304046470478326281e-02 -3.012498794493747439e-02 2.470395989778642332e-01 -1.102794249671162075e-01 -7.354491179228316022e-02 2.015844932484052790e-02 -6.039322611332737650e-02 -9.452496115141764688e-02 9.343666273695834523e-02 -1.295826496078020425e-02 1.025783549805114186e-01 1.935126468388052023e-01 -3.602341813172657004e-01 2.054158720085228207e-01 -1.066424353751923015e-01 2.001360019554298264e-01 -4.614047796870134749e-02 -2.848824201802253597e-01 -4.269976426360140576e-02 -1.100683709001722826e-01 -8.258858344962216602e-02 -1.863606872442842566e-01 -3.265875000193778355e-02
-6.838962395611007661e-02 2.252263092705469611e-03 8.539433207888122435e-02 1.086020098397568051e-01 1.771491499798478753e-01 6.361056978520061855e-02 8.525792191223530853e-03 -1.878038265789675268e-02 -6.531069613344077374e-02 3.222390321367071125e-02 2.370858708529964207e-02 -4.698335242798252348e-02 1.896877435821153063e-02 3.862886195125131428e-02 -4.241136505417362340e-02 -1.431295131996376535e-01 2.205194798342190732e-01 -1.244335985972871428e-01 -6.113396746065559439e-02 8.630764566976903418e-02 -2.251349854879945989e-01 1.386409562490243108e-01 -8.934898131990971770e-02 -5.910221763614818304e-03 1.034350686595010699e-01
-7.236408247698428164e-02 -5.152865897741695095e-02 -2.027225668321938623e-02 -7.969213190160728821e-02 -2.692660638038243959e-02 5.685040316015436274e-02 9.222650969337108096e-02 9.843209562110376287e-02 -6.635650532488457376e-02 3.670982075804338218e-02 -1.107397970536814769e-01 -8.798193490074299183e-02 -1.285161305474710226e-02 -2.102219505960220558e-04 -2.283945843705190715e-01 2.114111256471824518e-01 -3.322187648729243992e-02 -2.701150094827401912e-02 1.839529549335764194e-02 5.199847826383694610e-03 1.676205837181671265e-01 8.504727267640338484e-02 6.379841486156456742e-02 -1.263605879049178315e-01 4.975749489391667613e-02
1.211387777131072291e-01 1.335360741642973303e-01 1.625327269266341884e-02 -7.989480991790168241e-02 2.673879107212585177e-02 4.767472786120839634e-02 1.922017088484000713e-01 -1.832423878977992165e-02 1.854704897737013691e-01 -3.254377048295091224e-01 -6.351181421447854060e-03 -1.264455919077371038e-01 1.468063142395910903e-01 3.053580081003105101e-02 -1.701398826034892509e-01 -7.023019120706409935e-02 1.378489903572176212e-01 -3.501677259276749776e-01 -2.428914110763112644e-01 5.843715889053845841e-02 2.612562280213400270e-02 1.160943409432968060e-01 -1.723379522934608832e-01 -1.424446196731766201e-01 2.026994038793447361e-01
-6.710805852662353466e-02 6.843290844095990810e-02 -3.398930215036072289e-02 -2.549963930148689897e-02 7.455259185033726033e-02 9.717697183547395479e-02 1.549892226891395192e-02 5.507054810495481262e-02 2.850552726784327806e-01 1.565859888147808771e-02 1.569832920255049280e-01 -1.092767519648947111e-01 -5.355680799485975502e-03 -2.273150058272156993e-01 -1.165127841956489219e-01 6.698532596006985182e-03 -2.575508315348279398e-01 1.156864555978189130e-01 -5.116303577209410647e-02 5.228286564903054934e-02 1.783176719212239969e-01 -1.519919607649765358e-03 1.297701146629110236e-01 8.311341647902621699e-02 -1.645138130480233440e-01
8.558077125527470408e-02 -6.591206141170176391e-02 1.926618871577282788e-01 -3.393280529483268249e-02 7.576250367828420151e-02 -1.029976289600731121e-01 -4.510723003455602981e-02 -1.003520752112723458e-01 -2.329219658473571375e-01 -3.047920287667529315e-01 8.432036096703118128e-03 2.010087941556688851e-01 1.277033369772297977e-01 1.982574281467202881e-01 3.771436689320630670e-02 4.749991063912292755e-02 -2.439536945733971479e-02 -1.234066429544744201e-03 -1.509789457812175939e-01 -1.411221296821300319e-01 8.520940764696070813e-02 3.496269406598029317e-03 9.332197436493390452e-02 -7.291045773294517474e-02 -1.199449065333027253e-01
4.837832187598429257e-01 3.665446848510164196e-02 2.648628714353504776e-01 -8.298891569991369288e-02 2.588877210647054783e-01 6.794382198441781262e-02 5.033065660249380624e-01 -1.652106834767246013e-01 2.905306936681582020e-01 -1.667779806865739289e-01 1.762105139527616049e-01 -1.637571940292805173e-01 2.925921373305289674e-01 -1.372797403589257614e-01 -2.084375142332038910e-01 1.363290607491791928e-01 7.246338762270954081e-02 -2.110262858211524040e-01 5.389559276638346969e-02 -1.672139016283704371e-01 7.949351925623034110e-02 4.555991187866956921e-02 -2.123720533012872780e-01 -2.161022004340191482e-01 2.837985993601810919e-01
1.848003413280993878e-01 1.640025371987710312e-01 -5.434807518206342253e-02 1.128079077184604012e-01 3.816244367290230061e-02 7.290069713360637638e-02 5.518936710110575877e-02 1.458674714825882422e-02 -8.656238119151783705e-02 -4.632688777469345237e-02 -1.117292051346909093e-01 -1.414572870861951354e-02 4.164636244634398882e-03 -6.063700630336477104e-02 -3.414105978645989078e-03 -4.593854206983129067e-03 1.095838851791544263e-02 -2.729075673573073263e-02 -1.284468326574245423e-01 6.916701643344028150e-03 -4.525046146859589002e-02 -2.062180455339162125e-02 -1.752313798687179791e-01 -6.372666123616381462e-02 -1.602496161512017570e-01
-5.356247360673623004e-02 1.623066332205260198e-01 -3.696688892762062945e-02 -1.637670522887643004e-02 -1.041042891649694713e-01 -1.438419503431759561e-01 -1.214821612812503060e-01 9.471942249054111918e-02 -1.059366306293488963e-01 1.133665254239010350e-01 -1.110673347683274748e-01 2.167161283276834716e-01 1.339696780528865927e-01 3.459380427862103480e-02 -2.227689423977102512e-01 -1.107523235074208898e-02 2.659501089067839441e-01 4.264240714833945206e-02 -2.173432188975428937e-03 6.510619399444209088e-02 6.533197345863776817e-02 1.135510939638160466e-01 -2.406894888531474486e-02 -3.215498986841386908e-01 1.505377858899344667e-01
-2.449131452676464871e-01 -1.498888693723081020e-03 1.536665138207332082e-01 1.187343811409164035e-01 -8.813578612623118591e-02 -8.406938293900531600e-03 -1.929510956748050621e-01 1.082146029939586862e-01 1.797099643934915725e-01 7.054764034407146056e-02 -5.638191439946872718e-02 -1.028753643830895292e-01 6.430234184010122367e-02 -4.243527881783089040e-01 -1.293163451833239941e-01 5.167334711442759382e-02 2.133615033739575395e-01 3.208555978624953731e-02 7.431924443570417718e-03 -3.128672834406710790e-02 -5.281135072034218170e-02 -1.626559965116942258e-02 -1.278521378150405119e-01 5.175966805502132603e-03 1.120824737459083370e-01
5.994824549648142958e-02 -5.149583178229965837e-04 3.225039782608739303e-02 -3.394428938710014054e-01 3.493757313046079449e-02 -2.201721542857318706e-02 -9.765429241549382633e-01 2.109265552062973559e-02 -8.260525034488262405e-03 2.225517610578332806e-01 4.696027095469079704e-02 1.741483860928798866e-01 -2.848606842705044342e-02 -3.778163309513850043e-01 1.712458500065214828e-01 2.705207117108875403e-01 1.045245747238818385e-01 5.822441400718945254e-02 4.560992292539998993e-02 -4.488983130220947082e-02 -3.038538669987863039e-01 2.578890261476528556e-01 -5.748762770392674276e-02 -2.866951047745260397e-02 4.847467714291792129e-02
-2.527418948315198199e-01 1.105289682636523829e-01 -9.516777038667381672e-02 5.047959320929915061e-02 4.744409899075746617e-02 2.506088414552662402e-02 -3.039026051267044309e-02 -4.979423063792213361e-02 6.707852222050132707e-02 4.392719025091203211e-02 8.762696484684862064e-04 -7.875949693914076344e-02 1.378863199453357613e-01 -2.531873915601858815e-01 1.364070573298087341e-01 -1.479229380286682938e-01 -1.135022951883094960e-01 1.351545256102859027e-01 2.502798419919542439e-01 -5.010193706098334948e-02 1.258897809968048398e-01 6.764593103623352255e-02 -1.405572808656795347e-01 -1.438702775476242979e-01 5.843051466460660870e-02
-4.137182018883314716e-02 5.830386209033361355e-02 1.746870934127478514e-01 3.502453893954820402e-02 1.538627778980345695e-01 1.442161172680195835e-01 -8.345910042902547898e-01 2.694335156784635754e-02 1.587407987246273744e-01 2.163203451521750476e-01 1.963219065150544063e-02 -7.391802971957664448e-02 2.409044490882872869e-01 -9.052799845070215179e-01 2.732511951025011765e-01 1.628730807763751343e-01 -7.570908195482373149e-02 1.665317163458487626e-01 4.682499412633590874e-02 7.975741256396479129e-02 -6.380402849873663407e-02 2.529312903798696666e-01 3.891227703958939632e-02 7.779453385672580046e-02 5.922672184993361955e-02
-5.736419702237531559e-03 -1.009187287050164819e-02 8.100797775286382174e-02 1.840993779466703062e-01 5.739935160042932555e-02 1.392712012901120011e-01 -3.932863801607450194e-02 1.201473644691098686e-01 6.590316835080300625e-03 1.204734668594655972e-01 8.342268250217199643e-02 -2.065678039144207556e-01 -4.091251837388967805e-02 -1.211287107654247241e-01 -3.152760746281518117e-02 3.516220727664133572e-02 3.284606026639232956e-01 -3.374966552989688839e-02 9.830465377481620304e-02 8.000077248143414033e-02 -3.896292538758051871e-02 4.644756945872879211e-02 -5.592342229569659262e-02 3.226470365553978092e-02 4.410389691064345308e-02
1.690751621905178248e-01 2.588096084760794016e-02 -1.409589159691465934e-02 -1.913165735076982066e-01 -1.537587842903974378e-01 1.331534553575766111e-01 2.112182182847154033e-01 -8.747244227561105923e-02 1.213100806896020845e-01 1.466180983653440906e-01 2.542882782322010773e-02 8.872192911598024423e-02 -1.124337301698426633e-01 4.665056795366955694e-02 -2.053823224566195815e-01 -5.700509033986046747e-02 -2.088944125598493282e-02 -5.610987001630824561e-02 -1.061004273080006916e-01 7.805253226873759553e-02 3.579033525960399059e-02 1.517431138687677650e-01 1.621998076320094184e-01 1.228613359167829155e-01 2.546216064243292734e-02
-1.262448840246510329e-01 -4.919463030538884230e-02 1.083955778012963417e-01 8.675048101827530223e-02 2.160354783423019606e-02 1.463953925794367894e-01 1.139472071398445197e-01 -7.107579413155543091e-02 3.102823231706556498e-03 4.451031981837313273e-02 1.264643107453473636e-01 6.961823583545934113e-02 3.952483250987502000e-02 8.698736329233709708e-02 -8.570820847600375825e-02 2.444726894966485140e-02 -3.380339739082165174e-02 -3.062831345181746615e-02 -6.506523739774823512e-02 1.012604414546547649e-01 -1.248667561267903653e-01 -4.531180611082330500e-02 1.386547747719728829e-01 8.400326241685861228e-02 8.887084453821182672e-02
4.060630663324073936e-02 -5.942616223398149156e-02 -4.183527292389218472e-02 1.299251332902131018e-01 -4.380139708391768694e-01 -4.422091510355931343e-02 -3.962419031576339817e-02 -1.123358449918166330e-01 1.216363181791531578e-01 2.945762908699569027e-01 -1.190281870758419652e-01 -6.744890616283980012e-02 -1.281649329848050523e-01 -4.528891982449648884e-02 -1.467635995467262144e-01 -3.162173016186993479e-02 1.432193682906769162e-02 1.438101379856250861e-01 1.000139645476975370e-01 -1.198452062626152032e-01 -2.636627838572163512e-02 -1.079913370353587226e-01 -2.218548875674352383e-01 4.615521265121575595e-02 -6.443907958604263263e-03
1.178237484948607972e-01 -1.473509814373065163e-01 1.555872220181554189e-01 4.405693297309082324e-02 -1.684366063059448970e-01 4.267792576750602945e-02 -3.503583399780909463e-02 5.226300638802240661e-02 5.234877254096088200e-02 4.386079600194593003e-03 6.172715924465970588e-02 -1.422299438088148182e-01 1.874981552959806286e-01 -2.416764409682208362e-02 1.862719926191402087e-01 -1.613255640352612985e-01 6.409301454894913985e-02 -6.254573892849697725e-02 -4.069357213749753149e-03 -6.982469477883113118e-02 -3.902076579863335976e-02 -6.123897516475117209e-02 6.169424523558354745e-02 -4.801184498572918374e-02 6.041222475641306461e-03
-7.429033962373908680e-03 -5.384716961158348553e-02 3.748795513951314051e-02 -3.171227444447777266e-02 1.380699677758011057e-01 3.976720868434438505e-02 -7.327223672987577541e-02 1.032576114966286679e-01 1.914152765728837496e-02 -1.069329284655150952e-01 -1.599884020797263939e-01 -3.409215100569844004e-01 -2.192099765731640726e-01 1.762911391343881806e-01 5.296728038820136888e-03 -2.730405042805692309e-02 2.987553905076098873e-02 1.466597654591205724e-01 -5.990074097653686619e-02 1.151884838521864823e-01 -1.029639732004798691e-02 3.561301107845178671e-02 -1.219954235840376017e-01 6.893352742880123896e-03 -1.807893168570329223e-01
8.940518708122581482e-02 6.636851817479942628e-02 3.359303335568316479e-02 -6.959786653448181426e-02 2.749432341131953506e-02 -1.493775287854499367e-01 -4.158048568477257234e-02 -1.011835100053523184e-03 8.963249506974661773e-02 -7.836201627560880623e-02 -1.100364550200380598e-01 8.990053498236828117e-03 3.081157812582074329e-01 -4.683312665944815156e-02 -4.803127445527906325e-02 2.416063743731249047e-01 -3.929433952529427093e-02 -8.637579888498957831e-03 1.427748160789428684e-02 1.057153992692393824e-01 5.279026141360184526e-02 -7.217996207135378428e-02 -1.107343397597110174e-01 -3.875193756301869435e-02 -4.857806869211138412e-02
8.918673111950002619e-02 4.522013361998887537e-02 9.071020149767554386e-02 3.351234516343779002e-02 2.798722345278342391e-02 -1.500082726849926995e-01 9.952815227501109197e-02 -8.065606844044020951e-02 -5.771980031555334900e-02 9.314400292344146570e-02 1.301050888817756671e-02 9.437865911521127471e-02 8.526788318608817530e-02 -6.146203479843179857e-02 7.636629553521991076e-02 -7.446739320663187806e-03 2.780456933134684352e-02 3.467479347389777061e-02 1.056287106774692619e-01 2.027820271176279665e-01 -4.023551332778700640e-02 -3.781715674588933401e-02 7.429838374274615187e-02 6.398159053897754800e-02 -4.726136193880306480e-02
1.651731055104455337e-01 -9.696107205756090974e-02 -3.653587670946717696e-03 1.219544810857256661e-01 3.914094341469236127e-02 1.006629253467330454e-01 3.397088940897818876e-01 -7.993088433378427171e-02 1.304599451909148056e-01 1.330840304306507016e-01 -9.631068011346596847e-02 6.433467359230055083e-02 -3.144397356033230839e-02 -7.058369943330546070e-02 3.700198315226408963e-01 3.138747003260160262e-02 -2.045389794159033214e-01 -3.712702634863032647e-02 -1.190057177881911621e-01 3.765466982087789863e-03 -4.396311307963249315e-02 7.300968490452062337e-03 3.411194142010869762e-02 -8.711072132907787813e-02 2.133403513176023170e-01
6.418099261705086100e-02 -3.906825448852992155e-03 1.087137686292917460e-01 -1.398278739777371049e-01 3.631740744147415878e-02 1.153211226294574288e-01 -7.333378787139596677e-02 1.529526991241543336e-02 -9.486185681362334365e-02 -1.703335788755235836e-01 -1.388442774098059551e-01 -1.039753674880058154e-01 4.001313698474414510e-02 7.287245270822713394e-02 2.565977854961364879e-01 2.719614258073364474e-02 4.434034095019064037e-02 8.525207169444962152e-02 5.645372106513105170e-02 1.809998329742214807e-01 1.584572324297456869e-01 -5.340481803819494694e-02 -3.327594125437954853e-02 3.785829273991667826e-02 -1.098274205747699489e-01
1.196135332027761511e-01 -1.381591691733556788e-02 4.338792544991410677e-02 1.321312232888025018e-01 -5.666380454040115255e-02 -5.982922717301315113e-02 -2.581775559145818577e-02 -1.217755183119172309e-02 4.231681923398163125e-02 2.043086356948740634e-01 -2.771824722357194570e-01 2.329196300309219550e-02 -5.595270947070810075e-02 -5.255500792068153182e-02 -8.537091507473171248e-03 -2.131379780133554891e-01 -8.642851026273115633e-02 2.494769796729989220e-01 1.226464194056389734e-01 -4.647867763909928340e-03 7.209783386060936161e-02 -3.169089406975282297e-01 5.190384639586969467e-03 1.614034416097967495e-01 1.179990823185469301e-01
-1.294026879937938863e-02 6.280713908061218154e-02 7.670196006342683108e-03 4.032292906126951765e-02 7.833154299272196419e-02 1.394705375581197782e-01 1.394451807786590940e-02 6.948649824764857597e-02 2.509719884855038732e-02 -7.515171566876771569e-02 1.164172034015184126e-01 -4.221130775673966745e-02 5.285700492195103545e-02 -4.089164709874658354e-02 -8.979144705123917602e-02 1.592051600380300358e-01 5.415252385442760781e-03 2.519971678030057394e-01 1.130267150912013518e-01 -4.004799057930200079e-02 -1.943600175480725278e-01 -3.670707524040503489e-02 -4.540389650660248133e-02 1.430129005933831465e-01 2.271221612222764918e-01
-1.955632317456999433e-02 2.127650579727417834e-02 5.200547390812510634e-02 -2.233949500299042268e-01 -2.977577580558052328e-02 2.111299409769462621e-01 8.318733770937310201e-02 -1.044319967759593931e-01 9.887123709739591149e-02 -2.811232217301640746e-01 8.646568084417281808e-02 2.791540369851319356e-02 1.437357624617813245e-01 -3.520602540001540048e-01 -5.662929851409724546e-02 -2.439299962668756150e-02 1.111673568074534602e-01 9.735453076129185757e-02 1.899663250447080898e-01 -9.556727358302255504e-02 -7.452980230232710002e-02 1.198256435073438569e-01 -4.982348492669792794e-02 -6.078201705799599064e-02 -1.977773585503779519e-01
-1.087805806234134059e-01 -1.140765258823248501e-01 -1.516124677462453718e-01 -5.964853462134307727e-02 -8.986974492086370614e-02 4.429154317359405846e-02 -3.216363189158276403e-02 4.540454662342032974e-03 2.968356506340209464e-02 7.940551762107746214e-02 -1.266422414676727781e-01 -1.977683712815640760e-01 -5.029143595545811779e-02 1.211909578471752486e-01 6.192870186353331002e-02 1.155002433313345178e-01 -9.531448585035416643e-02 -2.876553207781747806e-02 -1.430965969763298706e-01 1.463529319570811560e-01 4.230283314472538247e-02 -5.827550868005436369e-02 -6.575474579143304743e-02 2.835763158335239537e-02 5.069082607566063881e-02
1.015439657763211878e-03 4.680860433263127340e-02 2.587982640168423054e-01 -9.472199319464048861e-02 2.667832439827331203e-01 -5.992378018880804152e-02 -8.771939162538968660e-01 4.705626493462605753e-02 1.517714830678073556e-01 1.578047171272548010e-01 1.707741117684139220e-01 3.246952620959506208e-02 5.401983446548662415e-02 -1.023663377062695584e-01 7.087545550810642192e-02 -6.633003953940536102e-02 1.167907263679289487e-01 2.335224077240217466e-01 2.123576029674573429e-01 -1.571201488964789339e-01 -3.227358741207767001e-01 1.191753262773725119e-01 1.850435921152674690e-01 2.079980867042496018e-01 5.625504668303082934e-02
6.472022125975443463e-02 9.021668082563494284e-02 -1.871641473887870333e-01 -7.192165937802282027e-02 -5.061327320726751594e-02 1.445836719640145041e-01 -2.536115573570515980e-02 6.394684027133334947e-02 4.901986983508893614e-02 8.505463094513886213e-02 -1.498192209442767153e-01 -1.007210780451937016e-01 -1.635687027475572208e-01 -2.628361088569831083e-01 -5.695789482379110674e-02 -1.313808493869425276e-01 -5.985527403505935817e-02 -2.445099406211374143e-02 7.097806075967623418e-02 -2.317916426021955634e-02 -9.475782125525767166e-03 1.238351659860614934e-01 7.325220458276032742e-02 -1.759843535962103134e-01 2.378941807055577964e-02
2.486156079087593340e-01 -1.715064029229560749e-01 -1.391196232253092135e-01 -1.014955216448293479e-01 -2.248685437811591969e-01 -8.081424440718774915e-02 4.118229537959767345e-02 -2.196172758478332487e-01 2.041080736329781153e-01 -7.953271785555335316e-02 -1.659227406514043046e-01 3.355667802647416958e-02 -1.388484080495240025e-01 2.938574477217588410e-02 -7.645554830602328822e-02 2.369985223627412430e-01 -2.256020690265835016e-01 7.933078534682272420e-02 -2.761061144946354573e-01 -4.953973178602081445e-02 1.907504670266890467e-01 3.592655432839805124e-02 3.202899705038018130e-01 -1.670501747814537308e-01 1.617578800824272245e-01
-6.932161092742583630e-03 9.191844635543792996e-02 2.259860593499821713e-01 6.497614204070813193e-02 -7.517686149193422707e-02 -1.020573002751857805e-01 -3.514135498063469115e-02 3.831739924543782483e-02 3.360056739514338808e-01 1.007027364740185893e-01 -1.194713857016608816e-01 2.674930403442499910e-02 3.053783966392077318e-02 1.209329531395378077e-01 -1.286720005845239101e-01 7.191692493129248076e-02 2.381977013477037594e-02 -5.753269004651224983e-02 7.558240830180316949e-02 1.216129223182525476e-01 2.970426249876181868e-02 -1.259219337338192413e-01 -1.130624488790397814e-01 6.087464076206752089e-02 4.279677620982614422e-02
2.114991334478309171e-01 5.331904207660882050e-02 -5.078235581659436282e-02 9.534966792420660961e-03 2.740273304063288173e-01 -8.943049101005921819e-02 1.785996045867428439e-01 -1.413860335999406193e-01 -1.162663651206115034e-01 8.395785484862049175e-02 -7.679939031290601613e-04 -1.911181046565997577e-02 -2.303259328471671252e-01 -1.478582342355247436e-01 4.025795394636068614e-01 1.712680566380364311e-01 -2.776875477139276183e-01 -8.257879445559062823e-03 -1.783938879632496199e-01 1.416025594896720141e-01 1.337736085222321070e-01 -9.504308906712514993e-02 2.109439135540336074e-01 2.488000475859432070e-01 -2.189336088654960655e-01
7.414195025172158615e-02 3.217651047433039285e-02 1.911693528375426887e-01 -1.123655056843679140e-01 -1.708169783307484854e-02 1.665398761750304379e-01 1.629408873759481680e-01 -3.992671429607574374e-01 -2.499109604835355603e-01 -3.294149914812546931e-02 1.718536232927123653e-01 -6.709353882094930277e-02 -9.299067245890318967e-02 -3.189852300056051915e-01 -1.768416943687985826e-02 1.768236872399421289e-01 1.628238214989777971e-02 1.629900446897911692e-01 1.454707697798903465e-01 -5.066788518068767594e-02 2.046171973535390876e-01 -6.376853106348456812e-02 -5.208973673697905177e-02 1.896168203079198755e-02 -1.559959154582074292e-01
-3.836848082988149611e-01 -4.908629634551434258e-03 5.718850414289941564e-02 -3.343460182308075068e-01 -4.095932585055521435e-02 9.017071782660644394e-03 -2.699313639547518684e-01 1.251685056026410892e-01 -2.117309825608104934e-01 4.191178437490107600e-02 1.213426122182468953e-01 6.020448006094543392e-02 9.049950741097256834e-02 -1.642845534927040163e-01 -1.007786222970268181e-01 1.975463100206546752e-01 1.804352485016854357e-01 1.520709669919149964e-01 1.614350265333717449e-01 1.141199906187672364e-01 1.732267562782561776e-01 1.982171227734599306e-01 -3.033613923208948460e-02 2.536409013219318442e-01 -7.712410634031401091e-02
2.135867455947515481e-01 1.801126185987749206e-01 9.295851746756828016e-02 2.280358879983737305e-02 -1.784859910570596453e-01 7.843009585809725126e-02 -6.264812963760324482e-02 6.272304449448963537e-03 -3.023712076681976946e-01 -1.101479642544744564e-01 1.374623165142311032e-01 3.689398970799701027e-03 1.291848286234986883e-02 -1.026578770212919073e-01 -1.101197790476455413e-01 7.417158036292164670e-03 3.792717901605719977e-01 -1.014337076028284240e-02 -4.502958092833850984e-02 -1.711511989992122113e-03 -5.031338352156281002e-02 1.267366108915590484e-01 8.631055292161440851e-02 -1.145694939575328808e-01 6.983806664319386348e-02
-1.245470809989421973e-01 5.665546538515112140e-02 2.300435136624963406e-01 3.500145992902618797e-02 4.752601055700073629e-01 2.360028644719463706e-02 -5.657608831208664479e-02 9.346741102366866449e-02 -1.737024225573850431e-02 4.180018320996299330e-01 5.175621228201712082e-02 -4.925289444232761049e-02 3.474711016659810525e-01 2.041173886362152023e-01 4.026461370415991559e-02 -2.496545441819001399e-01 -1.557699611118557592e-01 -3.632972705929982116e-01 -1.765065825755033346e-01 2.012999137596107810e-02 -9.378617726650384512e-02 -2.642457914956964915e-01 1.152772709909329930e-02 -1.367181140998706967e-01 3.849893494254680304e-02
-6.650038061498476927e-02 -7.253969304297480658e-02 -2.292370788593114106e-01 -2.024051625385988110e-02 5.402423052461866743e-02 7.873712212740822947e-02 -4.938698845285868083e-02 1.291380720646054248e-01 -1.318580153530052590e-01 1.442278381314902706e-02 7.431917133286799690e-03 -2.206279042442909136e-02 -1.330512009655467759e-02 -3.073035428063455345e-03 7.338329130940539347e-02 1.438938072354644659e-01 1.138185268666334904e-01 -2.407086948374830560e-01 -4.218237725173152979e-03 3.105357893994110108e-01 1.091464253004046092e-01 7.720740467196302026e-02 -2.078805362595372297e-01 2.046571505945450620e-01 -3.422388406566078539e-02
3.618028759554274831e-01 4.105495868248376645e-02 1.394483404151488637e-01 -1.388805062035811388e-01 2.091148532307526009e-01 -1.725960663508993576e-01 7.630376431648838720e-02 -3.448331037853388098e-02 5.247197482012587455e-02 -2.096285712849344784e-01 1.152215041671941220e-01 -4.456519340849705857e-02 3.946454125644176941e-02 -8.563831513133188245e-02 -1.985821725306665675e-01 -1.528118082838699626e-03 1.067052885707537591e-01 -2.359016017366709073e-01 -8.751821166370589433e-02 -9.308196340380786582e-02 -1.072866421949142390e-01 1.345258741947655823e-01 -6.279426442642502271e-02 -1.565819154683168180e-01 1.601162479959491666e-02
-1.030189849880237644e-02 -5.224164016461320392e-02 -1.252971146651698231e-01 1.857157518031735816e-02 2.242254800447441854e-01 -1.292865779376136115e-01 1.136818322433033948e-02 -2.505214042917958128e-01 -1.629414123418151603e-02 -2.549822247414023496e-03 -4.494971167696529268e-02 -7.090730112286634801e-02 1.072765514251811381e-01 1.707125993759636695e-02 2.079297543345282606e-01 9.139630679720327222e-02 -7.581132190635053725e-02 1.333637371695059748e-01 8.829725412253090766e-02 -1.606737097026873784e-01 9.247595778935036037e-02 -4.459031090580706930e-02 -4.316362415968437449e-02 1.390190069703483092e-02 -1.442712763226582651e-01
-6.434729840435178538e-02 1.366740423003727153e-02 -6.707907853460806646e-02 -1.069344616402013171e-01 3.507217886499202492e-02 -9.506071434436946799e-02 1.113666474706834358e-01 8.005129487269892208e-02 4.753963146151896080e-02 -3.987051430657667650e-01 1.550165896105958896e-01 2.994884426226149254e-01 -1.560289849340402157e-01 2.507614122610991592e-01 -1.765878459849154480e-01 -1.475274481775633584e-01 1.825564069476499629e-01 7.764448378229971137e-02 1.583352665743312238e-01 -9.776545106008077690e-02 -1.879015833801180035e-02 6.254826310152253321e-02 5.379615974266280243e-02 -1.160639466261850494e-01 -1.755534432578839121e-01
8.875241552583665317e-02 -1.713666452876402499e-02 5.121246594711316436e-02 -5.224455852655610771e-02 -2.366323730366435840e-01 7.796439327649200279e-02 3.030853217579237979e-02 5.801736409710260556e-02 -7.765240646619232801e-02 -1.953670398304699074e-01 -8.975825172924242409e-03 -5.033451471169016200e-02 2.569286051182219088e-01 -1.881956527430707002e-02 -4.844602209601839293e-02 1.695647361877257453e-01 -6.631793378472521094e-02 -5.993514322615756118e-02 1.169922617247511898e-01 -9.013919409314907760e-02 1.378065843900030951e-02 -3.647347958130965628e-02 1.143810763454612689e-01 -1.803011406992825472e-01 2.646773080989619498e-01
-1.008280815517502427e-02 -7.467939151467939407e-02 1.321410807088818362e-01 -7.793458355949406391e-02 8.033537638587544272e-02 5.105471394900083087e-02 -1.742455955679106105e-01 -2.017143595822432078e-02 -8.246731263128172229e-02 -4.449138724248597604e-02 -7.880106385667152991e-02 1.380658187374618762e-01 1.095280833982995583e-01 -1.355781403741751767e-01 1.923215692262294774e-01 -1.868106087555781170e-01 7.544255685520756538e-02 1.769462421692317433e-01 -1.031257700332506577e-01 2.047938979349927524e-01 1.619753280934252693e-01 -8.574239628313698458e-02 -2.553902115387922736e-02 2.121087524681938286e-01 -8.829989478708520634e-02
-1.322168683886347784e-01 -7.289729306195731964e-03 4.920227949119099914e-02 8.425389437411770488e-02 -7.575622115112927608e-03 6.336462922476969462e-02 -1.028496855297442170e-01 2.479861821182331727e-02 1.301753887229916973e-01 -2.612472110980724668e-02 4.090028830485182426e-02 -3.599182382355449461e-02 1.674606919572908803e-01 5.506593816552721177e-02 1.378316931770790475e-02 6.714814671259483614e-02 5.736388610424363738e-02 -1.159969457625523725e-01 9.822881744866830689e-02 -4.989427375951719507e-02 -3.312385709593698713e-02 -2.998997032982591085e-02 -1.294439781301262582e-01 -1.628267757622303136e-01 2.813657243251057108e-02
4.346020512712326506e-02 -3.044171484476676515e-01 -1.153411275868633096e-01 -9.263521451762309067e-02 5.130990347196416612e-02 2.564153901335306657e-02 8.460929959215023055e-02 -1.088188514390625583e-01 7.465253833899849166e-03 -8.399050767878502022e-03 -1.323205768870890642e-01 -7.765249009067956565e-02 -2.085518720694752026e-01 2.443675994351773295e-01 1.280577167614933287e-01 -2.079532650763044610e-01 2.612953773159142346e-01 2.788670295256849563e-02 -1.135674983008313904e-01 -8.287856283571025384e-02 1.114230645001202807e-01 2.585329760205111738e-01 1.091706925221117980e-01 -9.151984559015696741e-02 -3.349360275931060477e-02
-1.087716766237582788e-01 -1.321441630009507207e-01 3.134232777239759904e-01 -1.867045197633435960e-01 2.675882931285067726e-02 -1.204168854390688798e-01 5.663902637841941590e-02 4.069737226535586477e-02 -8.850526723192307654e-02 2.440033192932321848e-01 2.521522016427418800e-02 -1.574647939312323955e-02 -3.126025884495398522e-03 1.940903949874302759e-01 1.289429534920326359e-01 1.250443511536342700e-01 -1.706730192403024537e-01 -1.357755906473207680e-02 8.044877055938906910e-03 1.313473570618689246e-01 -1.788188863036297704e-01 -4.685978892790929051e-02 -9.090901021726423281e-02 -4.312454438966511344e-02 -9.261229605972645662e-02
3.700126544346325069e-02 -2.148688680021887121e-01 6.442088140565578602e-02 2.162477614194061870e-01 5.034318526936384236e-02 -1.087587195191743877e-01 -5.653465639957276634e-02 5.923852712009927690e-02 8.290154644206054746e-02 3.406398720525535221e-03 -1.301366862379407970e-02 -1.717029181373538049e-01 1.011001551118928532e-01 -2.011217865680688388e-01 -8.793773232797653938e-02 -8.873337013684061414e-02 -2.370988174014175900e-02 2.277386310709708095e-01 1.288629680166110403e-01 -1.150963175111147652e-01 -1.935812370900806545e-01 4.649473757089406245e-02 -1.032448965824829673e-01 -1.680919533591848300e-02 -1.392723056512192581e-01
2.327048666256018306e-01 6.534900455199990632e-02 -1.389963564605988140e-02 -9.140792584883443428e-02 2.002618012729666941e-01 2.032050777468230318e-01 -3.727598950155039947e-01 -8.222205387572674440e-02 3.792856011857274057e-01 2.240337081753389706e-02 -2.202993144142900012e-02 -1.363006842889287647e-02 2.130603761907059190e-01 3.898393624798875134e-02 -2.590027098512061032e-01 2.737406604987457914e-02 1.687493722016642772e-01 -7.079912351329073483e-02 1.780287255513736122e-01 -4.508082604602429294e-02 -1.679499777826756746e-01 -9.415988893270840765e-02 -1.216118485653499282e-01 -1.643323230905441301e-01 2.521549937340413217e-01
2.242928969601234654e-02 6.513234215671828697e-02 -2.402258864761663143e-02 -1.310428395781402244e-01 -2.085241405499627110e-02 1.255130199492583698e-02 -5.799203503930015768e-02 1.183583007487911710e-02 -1.174006591239677433e-01 9.105355642115485482e-02 -1.110079616917060558e-01 1.371691742216734899e-01 5.924619128835827836e-02 -5.362746015144830014e-02 7.909610391899518644e-02 -5.129563633183148452e-02 -1.364143904625810498e-02 8.715590695700339841e-02 1.226214879708530520e-01 -2.735732817794246652e-02 -1.271129862219242401e-01 3.145771972044157649e-02 -3.681798120234238553e-02 -3.502344921272293465e-02 -2.704918982363777036e-02
-8.107121242884623991e-02 -1.758905481156700923e-01 -2.792973870451932461e-01 -7.184792843162579601e-02 -2.615768134993029514e-02 -2.724054848129927597e-01 -3.649939301156854832e-01 9.664074874681811977e-02 -1.041254725638923601e-01 1.439704908852577625e-01 -5.475587264729505493e-02 8.309129602400610465e-03 9.192918467135716143e-02 3.042062172153754407e-01 2.465860651929611125e-01 4.926951866197053220e-02 5.880650733306357070e-02 1.907108486195667751e-01 6.955235394461510567e-02 1.347742794084703377e-01 1.708074904763132000e-03 8.518792808457222032e-02 1.262157007555143595e-01 -9.926010890530639896e-02 -1.351355115516414684e-01
1.205126590430737922e-02 -2.104450853475574312e-01 3.174445369270759154e-02 9.673365447295860509e-02 -1.146947881621197818e-01 -2.418383984156061497e-02 1.917937517759631463e-02 1.348971150569938660e-01 -2.142429482164628918e-01 -1.810765628593251075e-01 1.431712289182447695e-01 -8.567457261123549717e-02 -1.748422563096765567e-02 -8.474831924347586698e-02 -9.949636939062161956e-02 1.760944248333840556e-01 -6.062850686891477214e-02 1.285981829057324666e-01 -2.130403091078913666e-02 9.918801263148488423e-02 -1.089445693117128133e-01 5.815013339386758406e-02 -2.444735960048357443e-02 -2.980651834501597125e-02 -1.425147467841815160e-02
-3.505936114699580441e-01 -2.272068780156117837e-02 -2.136581420053152228e-02 5.639110318069898847e-02 -1.276114719936086161e-01 -4.230919028613053939e-02 2.283299210316217659e-02 -3.142520824855139783e-02 4.538465554918469369e-02 1.870175755442524679e-01 6.248540738340449541e-02 4.261434500272476972e-02 6.036620934040349412e-02 -1.225858189548625354e-01 -1.944507156857122054e-01 8.383577901886539452e-02 3.580817305246354332e-01 3.381883409266951690e-02 -1.583647190221960238e-03 -1.758315544442685674e-01 -5.361043413543827019e-03 -5.382619348906554635e-02 1.790118578630559565e-01 -7.737935720792510352e-02 5.641375988622858439e-02
3.252820990234436271e-01 -5.362854749917029401e-02 2.432652492411052636e-01 1.002614498131243204e-01 1.914844765878606081e-01 -4.360174322571071931e-02 -7.033534968233493556e-01 1.032316968939522850e-01 -4.774548190040257822e-02 -1.540455952161066122e-01 2.939186952521870566e-01 1.331195186505849948e-01 2.227499277710004999e-01 5.923986501249776243e-02 3.835486473931258855e-01 -9.648176474801324620e-02 7.832758563243097383e-02 1.127658165396354384e-02 1.013510356855162470e-01 -8.746269755810684443e-02 -1.418916079260897911e-01 1.582962887263471563e-01 -1.073312179036185060e-03 4.475286612755144389e-02 1.612715738924075382e-03
-2.416342618615323068e-01 3.365215649784929902e-02 1.700749199564315917e-01 3.163427745226677495e-02 6.363642090146064134e-02 1.999489759143677214e-02 -5.355210419237654840e-01 1.760871743085201391e-01 6.648900770829276052e-02 3.844487492937159190e-01 -2.554678800457207272e-02 5.392238611862765207e-02 1.412291732709825554e-01 -7.001197147710045421e-01 -4.904363725472158930e-01 5.079643400488427496e-02 8.220152272917989307e-04 -4.104828886396182097e-02 5.437448901184822186e-02 -3.944695588889533117e-02 -5.839172308512179110e-02 9.393253597528578025e-02 1.908228764989750026e-01 2.106925678819883407e-01 7.027237212700296332e-02
-1.322686219213000114e-01 -5.789307808092582913e-02 -7.030440050660793916e-02 1.020269545758139551e-01 1.540983151760300651e-01 -1.475241802665172852e-01 -1.941200798152488693e-01 5.011789190038953151e-02 1.640202735494629138e-01 -3.451163386231398400e-02 -4.605170578406434304e-03 -3.875014203533864304e-02 1.230512189931869255e-01 -1.686765693003515476e-01 7.278826054578331484e-02 4.395152456629785459e-03 8.407125487292806468e-03 -5.245415134396773371e-02 -1.198031727400363233e-01 -1.372654315412311435e-02 -4.597754344669309490e-02 9.965189902277073186e-02 1.408629787024475062e-02 4.199836101913318907e-04 8.552955619397320519e-02
1.603234866898716957e-02 8.378205319124738468e-03 8.948938727082254851e-02 -1.384599549010382194e-02 -2.529336537029950802e-02 5.484617630309415737e-02 1.651075263027342588e-01 -1.327323331299538334e-01 -1.291574089051393884e-02 -2.075498049431570846e-01 6.000066325452680510e-02 4.860174612155444829e-02 2.037383980249360127e-01 -6.895242423686677447e-02 3.789729035530719353e-02 3.890539378727004421e-02 1.205663469188271997e-01 1.133686594511428003e-02 -1.040953797620849525e-01 1.506664623213450627e-01 -4.776224792364557742e-02 1.290792341764593620e-01 1.296072689464487504e-01 1.114246798504927444e-01 1.764643087983884182e-02
-7.410977504628073198e-02 1.627727310094245761e-01 1.164751015475637003e-01 -8.885606391887770905e-02 -1.206232872901188691e-01 2.550041036945758788e-01 1.167892115511498380e-01 1.522503486033737474e-01 -5.594075796831870367e-02 -1.152464962757979300e-01 3.370606498983932248e-02 2.082045704154506516e-01 4.359182825940709563e-03 8.080533889266382219e-02 1.576790487308272204e-01 1.280066598385880550e-01 -1.959296303744013576e-02 -8.697978232025982415e-02 -1.809970893480116264e-02 -1.935582265938879665e-01 4.380339738172023267e-02 1.687179355963263350e-01 -1.097818506320932946e-01 -5.645822990368905281e-02 -1.964647123063324730e-01
-7.266582590335581016e-02 -2.491135590307853170e-03 5.546174937042905317e-02 -5.610438000811358156e-02 4.270976099897768608e-01 -1.505328470705885879e-01 -1.448651348969960673e-01 -2.889896125757798750e-02 -8.314839676995786077e-02 3.369499449224239718e-01 6.090275925087461351e-02 3.680246362260121418e-02 -6.317704303670733379e-02 -3.739965561097063906e-01 7.027610861716934720e-02 -8.543468093448965128e-02 -1.784670737699275145e-01 1.545315056572034718e-01 5.399815003606853181e-04 1.549384892185609597e-01 9.727285459173035109e-02 -1.377990317981786228e-01 9.456729860365263585e-02 -8.882548782465109205e-02 -3.898350078073629932e-02
6.330163768268806668e-02 -2.757863993410958336e-01 -1.137954784054196269e-02 -2.566839169468892456e-01 2.236698634646122064e-01 -9.218288304978254633e-02 -1.417741182089281848e-01 -5.147457171840116863e-02 1.727752839778073368e-01 -7.172812992131170906e-02 -7.107120934083700770e-04 -1.578625154651263143e-02 -1.554667011708982527e-01 2.669923157440489553e-02 8.708366028369456113e-02 1.579397299572917746e-01 -5.861350744090626508e-02 -1.993432043839998835e-01 -3.697491503464053059e-02 -5.709654090725887338e-02 -7.150973014650718884e-02 1.220899106161604242e-01 -6.733323321085200874e-02 7.472293255196470196e-02 1.045893827795417973e-02
5.925602719738346479e-03 1.313035661393385511e-01 1.744812830742991927e-01 -4.811767885566953229e-02 7.019723460838531159e-02 -2.564095006481444464e-02 -1.190077297529639894e-01 1.504703170421217984e-01 2.027810050033708802e-02 7.828619757461603712e-02 -2.102907105971063006e-01 6.130379803922521298e-02 -1.396331020456776650e-01 -5.102797430076846247e-02 -1.106388768510680777e-02 -9.669221915306540349e-02 9.654822785594822931e-02 1.213384525793404500e-01 -8.018201232679218748e-02 3.774126839734157079e-02 -1.213071913856006157e-01 -7.200364526904927398e-02 1.840107344937888870e-02 1.266236714698771859e-01 -2.407042274605372331e-02
4.029433634826445898e-02 -5.288732210856681923e-03 1.538034984554786377e-01 1.180479878822829516e-02 2.924662520737068006e-01 -3.075598028341758761e-03 -2.596800923195222710e-01 -1.082021515028231406e-01 -8.967539959001705197e-02 1.139815142505703899e-01 1.561431918180859468e-01 9.122968621781778198e-02 -3.171920261349622794e-02 -1.037358195032616198e-01 2.735603911729855148e-02 -1.789036997693088382e-01 -1.727237748010257146e-01 -3.024706518939869124e-02 1.699875197598615939e-01 8.482642696143629160e-03 -2.629096503127393292e-01 -2.086342942872353445e-01 -1.076584538800051671e-02 -1.463543253664689181e-01 -4.703196960676771926e-02
4.858312609489465195e-02 -6.591413053240460784e-02 1.010783313863025806e-01 -1.166189425360508389e-02 -1.205726784250498729e-01 -9.161996102512783013e-02 9.985359090362572188e-02 -2.596753871110760170e-01 2.119982671145289044e-01 -4.382166496584680160e-02 -9.597792638715053892e-02 1.838946914308005609e-01 -4.394405090427774829e-02 1.000960270648238448e-01 -5.489265196681431674e-02 1.815064767714196781e-01 -1.999279769516899494e-02 -3.160057570870893062e-02 -6.599886799629774148e-02 -2.034971638303562091e-01 -4.923709291282153677e-02 7.035167814959766841e-02 1.206128557232697684e-01 -1.025260499146046916e-01 2.511557102628479698e-02
-2.405133624703958625e-02 7.312419148191214024e-02 1.705039995140833209e-01 8.206423069954874028e-02 2.009730405366579598e-01 -1.662953897578948459e-01 -1.596454228480981286e-01 1.626307123729083814e-01 6.868953507585803808e-02 -1.057491722802295364e-01 2.615934210431597809e-02 1.773988275102601486e-01 3.629237278255298405e-02 -3.104167327687434863e-01 -5.711583783908435671e-03 -2.849991272059229815e-03 3.408788906968877874e-02 1.801319921385409473e-01 3.849101861533647112e-02 -3.970305246057232590e-02 6.482008562909366556e-02 -7.223573210238189157e-02 -1.225223768620704312e-01 4.388779126623901239e-03 -1.173190313290987802e-01
-2.375259352445092675e-01 -4.890604201480808211e-02 1.701267316106535449e-02 -5.131857456942956475e-02 1.496796077255339585e-01 1.394039501557345698e-02 -1.839817983323767392e-01 3.810963902868365338e-02 2.558906213780156799e-02 6.584216984715307586e-02 1.998713478222219342e-02 -3.297922935791083865e-01 8.230057429201515298e-03 3.568236414087419539e-02 1.768519207901566026e-01 -9.786124115504821197e-02 1.613930138446895146e-01 1.373244167289722206e-01 1.183993459897441369e-01 1.020955298737462047e-01 7.227026965695146354e-02 -1.747931712031235707e-01 1.051055757053662720e-01 2.770395874704159600e-01 -4.770904771539268008e-02
-7.806657612393030216e-03 1.783570425648012270e-02 2.268512856888819929e-02 1.583524271029362190e-02 1.810924360482569495e-01 -2.095773571340699137e-01 1.150440589349623344e-01 9.376809880466578651e-02 -2.438961649550477548e-02 -2.031375245339946903e-03 -1.421563275634320743e-03 -1.239881413050553105e-01 3.724436735516789554e-02 -1.191726671676431731e-01 3.771904315217348980e-02 -1.120928388447328256e-01 -4.239852272622325613e-02 1.654022975665810774e-02 9.247981668943873468e-02 4.512082744985219072e-03 -1.497066926140754040e-01 8.072547599398473273e-02 -1.609052505801847055e-01 2.408814300538609371e-02 6.836536590703141958e-02
4.795603480429350141e-01 8.672935683814752758e-03 4.935337981431466015e-02 1.204976400186067581e-01 3.986225394924448884e-02 3.117767599289964983e-02 1.973600328584010355e-02 -2.866828845320174013e-01 2.240330477501956963e-01 -7.045506235023722696e-02 -3.105678464017554846e-02 -1.193482541177710021e-01 5.796419042269587013e-02 2.641131243789187066e-01 5.309245400430973733e-04 -7.521882930539958156e-03 -2.335327574984928656e-02 -4.325057275338418245e-02 3.770432324551539066e-02 2.466934988304884946e-02 -5.043723295497840736e-02 5.330060260376145304e-02 -1.507985887006392800e-01 -1.061132710756660102e-01 -1.616467213838749389e-02
1.975511663910157339e-02 -6.518447994335649365e-02 -1.055198422930265917e-01 -7.364531675525273768e-02 5.540467960985948764e-02 2.617560899403982913e-02 2.802779773375093861e-02 5.345322609182430462e-02 -5.463865740301756396e-02 8.983048474675278672e-03 9.847093688344185636e-02 -1.477367551525268080e-02 2.318740913867770592e-01 -1.132713724046722908e-01 1.273693278337639789e-01 5.536320804917738148e-02 2.129048113300338954e-02 4.428749716621120658e-02 -1.682390420294345781e-02 -1.007190312822971992e-03 5.680548444920414941e-02 -7.074690607309570833e-02 1.638737738117107268e-01 8.742337153889064016e-02 1.224032192827812227e-01
1.545408551857191115e-01 2.395346063867249964e-02 1.143748748668749760e-01 6.874581569929631535e-03 -1.388677110395909742e-01 8.963317093624660614e-02 1.338224317679532691e-02 4.311532069952048185e-02 1.061027534249516782e-03 -5.019493324320023486e-02 1.891132711292440871e-01 2.948014294988177825e-02 -1.933084284002918596e-02 2.315685216647944966e-01 -3.402324180404963077e-03 1.965655907038038955e-02 5.061927480899423154e-02 1.536127784949395912e-02 -4.201306461921423818e-02 1.171097621594169857e-01 1.557608488501173796e-02 -2.494391491901570487e-02 2.101839178614655149e-02 -9.522935768944770785e-02 1.122217579092965947e-02
-5.403072710543013191e-01 2.427431934437980152e-02 6.050875264747550275e-02 9.449150225136195014e-02 1.474121086244372519e-02 -1.296246535169439940e-01 -1.191698990043469353e-01 3.050626525890861029e-01 -1.186466934628621767e-01 1.107972286738489742e-01 6.701699919894370250e-02 2.271952436914338042e-02 4.014874016441474791e-02 -6.995153241317778603e-01 -1.191734340269113290e-01 3.046820562765431561e-01 3.195635767095729440e-02 1.325520680865168721e-01 -1.029243647425195640e-01 3.531922550510981085e-02 1.697445466165120598e-02 1.125062046973520080e-01 -8.781873496083023034e-02 -7.176398024530231123e-02 1.840968945970820059e-01
-1.692331570856284717e-01 -1.820947696536645843e-01 -1.085988121326136036e-01 5.902112551740355817e-02 -8.477339796171661987e-03 -5.839979347700644668e-02 -2.149748042013573113e-01 -1.687047406710551756e-01 -2.011700535399503775e-01 2.262633822223567293e-01 -1.450953166508304193e-01 1.176791119835308846e-01 5.373968141126021780e-02 -1.255462133540278906e-02 2.007707953768521625e-01 1.488767264737259344e-01 -1.771452188640585679e-01 1.960379339393829023e-01 2.388591682957284246e-01 -2.044811166040418626e-01 -1.843532858875921721e-01 3.016626377850344931e-01 -1.768841837341974810e-01 6.925739465127168926e-02 -1.538515760139780031e-01
-2.327666431247980838e-01 1.669742868761428523e-02 1.061152390935552331e-01 5.192792160198885648e-02 2.672259040255337698e-02 2.141682492199020182e-01 -6.404162035441239575e-02 -1.324315342835941101e-01 8.435090953869231467e-02 -1.977972467302150372e-01 5.007708163954839760e-03 4.516847930600242228e-02 -4.580932658146839170e-02 6.658350957948820648e-02 -1.079193763819624730e-01 1.477387513504733740e-01 6.456372615563972517e-02 -2.198840852543118563e-01 1.002390005408352325e-01 -1.018378607419920395e-01 -9.774627361258993175e-02 5.660081665269623558e-02 -2.017835962085065271e-01 5.855914314583936416e-03 2.217909182855241912e-02
1.072074242695864876e-01 -1.204674748348217028e-01 8.736579497883520395e-02 2.252770531647966049e-02 6.654772377055359622e-02 -5.851442893570732440e-02 -1.810732068164393749e-01 -2.479396946459964599e-02 -2.488626783417411392e-01 -8.888994099321317552e-03 -7.994210463977870218e-02 -1.410835732451699021e-01 8.879782555319030990e-02 -1.224451178201396567e-01 -1.458946761793831690e-02 2.380446816094795512e-03 1.988991066439412536e-01 -2.006872107182805509e-01 7.237982295955097678e-02 3.993040072203870583e-01 -1.067950934083446435e-01 5.487963818147171408e-02 2.619781300571835669e-02 2.015571895662828239e-01 -1.327287110193436925e-01
6.139394825563733102e-03 1.633144785380723912e-02 -1.515735914172640642e-01 -4.977935866638096007e-02 3.301709797920633627e-02 1.380535971819943641e-01 -5.820477004813910948e-01 1.254365318428861953e-01 -3.705806288407587079e-02 7.125363455352734521e-02 1.400599107989919934e-01 2.828919161244528580e-01 -2.767821023437810335e-01 -6.522011730235957039e-01 1.015343751103624376e-01 -5.767205296613258508e-02 2.693371193033476940e-01 3.580329470931593594e-01 1.849218004182802133e-01 1.120262472827896483e-01 -1.935208736553420406e-02 1.342924050669392633e-01 2.191196934552772924e-01 5.888701387033747764e-02 -1.673534073088681420e-02
1.057758221037368995e-01 1.699380462689005222e-01 -4.801781802707579677e-02 -5.419167775984035790e-02 7.238792383476121139e-02 2.716284956379355076e-01 -2.537871478823880769e-02 6.907680118665990299e-02 2.227435298548846865e-01 4.667095571418464900e-02 -1.496779718146721005e-01 -1.566092198999840812e-01 1.517143189664703906e-01 -2.027129299896144460e-02 6.837945702189424102e-02 -2.955810924294707820e-01 5.156131073671146869e-02 -3.994965538225955098e-02 1.161823938766080588e-01 1.498407002052097592e-01 -1.225580387710901165e-01 -3.250076480031739434e-01 1.593062342458598235e-01 -6.811432281234083841e-02 3.753916198772114243e-02
-3.556869053589312712e-01 -1.448483268798329282e-01 7.910359170323759403e-02 3.613952855890385091e-02 5.730356276867880350e-02 6.181694229695365583e-02 7.409137961106972148e-02 4.197000015994312161e-02 1.345992267695557965e-01 8.728635287813381327e-02 3.724409675332995828e-02 2.710436254231978620e-02 9.790041305309821196e-02 -8.189001021687880577e-02 -4.501741712281093766e-01 1.945033862195789942e-01 7.326863928230718803e-02 1.109682269293048723e-01 1.881216036124002677e-01 6.720033623927537669e-02 4.208173002443302974e-02 8.874474641058535673e-02 -7.452010563751054750e-03 1.604067716855646919e-01 6.014340676960360649e-02
