-9.781945767251606222e-03 1.113835343270312972e-01 3.212753268584406241e-02 1.041576263257931872e-01 -2.953301355739266793e-03 -1.332219246248483313e-01 5.769731974557319037e-02 -3.908225941308259184e-03 3.423365813239351990e-03 -9.949734794485633194e-02 -5.184108579428012287e-02 -8.694939532644944263e-03 -2.915722762307280166e-03 -3.424127795260893670e-02 9.344246965830418916e-02 1.695000053329939471e-01 5.144562778036004640e-03 1.650584944480558980e-01 2.607297037702058229e-01 -1.609401047187254642e-03 -1.435804802232734656e-02 3.145376758484856594e-03 -6.879202730863558102e-02 -2.265446852325096738e-02 2.352501276814027327e-03 -3.080110152995169971e-03 1.016912512191367884e-01 -3.191611021856816989e-05 2.280720286481613575e-03 1.515301833983674629e-02 -4.807313909044607400e-04 6.831824295404778646e-02 1.576501592456320058e-02 -8.089439258782638031e-02 -9.481246548557852385e-03 -4.065382562188871174e-02 -7.364845021905393370e-03 1.410251714432864401e-01 -7.299922470662158908e-03 9.663229217166374035e-03 -3.349782395683825048e-02 5.601937226021819899e-02 -2.616324379921697459e-04 -1.157256675616860214e-01 1.564900637642961945e-01 1.718915445587941293e-01 8.835447538618579344e-02 -2.236918018686897824e-01 -8.619115147032849200e-02 1.791138464813910036e-01 -6.531556900010462852e-03 9.316205293859387837e-02 1.985666725701169533e-01 -6.154474833841291903e-02 -1.775827966560940274e-02 4.875923645925464567e-02 -3.632230313296331420e-02 -8.171180509185339835e-03 1.008963506562634421e-02 -4.716507296631456043e-04 -1.250815877284775501e-01 5.645796109213140936e-03 -2.605646463653418440e-02 1.094745472569548378e-01 -1.242431515742497272e-01 -1.564484220438083426e-02 -1.142811755594279723e-03 1.352521733291588424e-01 -1.277969782821241351e-01 -2.177849521928399736e-03 -2.538813615139902391e-02 1.121368195411347017e-02 1.950022167302717943e-03 -4.769693147447718294e-03 -1.349305884611817774e-01 4.610058121984973766e-04 1.800233182204021010e-01 -1.342031087256759410e-02 5.256905859252382351e-02 -1.267762509881234789e-01 -5.473351766101223342e-02 7.728708798964310789e-02 -5.108474136156761214e-03 -7.421821906527675816e-02 -5.519478670623904036e-03 -3.869352200048576610e-03
