1.744995240465983810e-01 3.289555621078434772e-02 1.925660003385842867e-01 3.389789960576612970e-01 5.481340788324435415e-02 -9.320290290212714102e-02 1.280676626667088258e-01 4.612383225792913988e-02 -9.668425670536821837e-03 1.134524870557176435e-01 -1.475348593304439196e-02 1.380176818058430899e-01 2.769976333013924319e-01 6.025272785155055127e-02 -4.733305309590979740e-04 -3.285543313387762759e-02 2.016753835967132757e-01 -8.214641411522867476e-02 5.504967059065244556e-02 -8.479608188242843125e-02 -1.784220302725927909e-01 -5.340008601748042621e-02 3.659815370809302998e-02 -6.058720964447209673e-02 3.303086835066698090e-01 -1.452171859433312173e-01 -2.666872666700667582e-02 -1.871829468905035140e-02 1.710587437945220446e-01 1.769255537618399654e-01 1.258999078293936667e-02 -1.501646223736161773e-02 -9.374210547242500802e-02 -3.966928999483274043e-01 7.587836097186551922e-03 2.632491856904533578e-01 1.270457097070210317e-01 3.693278276209736588e-01 -3.316269860147556814e-02 -1.822231844637711706e-01 -1.457326665699774648e-01 -1.363055273611019913e-01 -1.707846092971918583e-01 2.903584481735340117e-01 -1.451774817327639300e-01 -1.235276366756998534e-01 -7.540552516910256631e-02 -3.197166300175451059e-02 1.306771932639912426e-01 -1.033895885039298190e-01 -6.574369557824669141e-02 4.493995189197889928e-02 2.735558377285873463e-02 -1.698179109111251084e-01 -1.181040118721182926e-02 3.642563981209948065e-02 6.019633834374037845e-02 3.023992029798030709e-02 7.283292578987278498e-02 -3.624719947411539356e-02 -2.399055025434801702e-01 -3.537444054683885203e-02 -1.252139013304764265e-02 -1.063655973709995081e-02 4.700619623348670055e-03 -4.182797267958347776e-02 -1.638583075486493568e-01 2.771611348403532626e-01 -3.820230579264682902e-02 -6.754107347439093634e-02 7.356626264215709865e-02 3.607642175533469497e-02 1.134173455458689778e-01 -1.196301618341174405e-01 -1.301082634528361731e-02 -1.048485984503060298e-01 -6.155369627878171102e-02 -5.570925439952683494e-02 -4.715259651560615300e-02 1.066839648579047117e-01 -2.777938074905586530e-01 4.070498253350730844e-02 9.571886194620476962e-02 -1.466699620901477097e-01 1.484372240570772383e-01 1.990364529427713358e-01
1.178490048730678058e-01 -6.406332742131344571e-02 -1.050627040474067797e-01 5.857598367428643732e-02 -4.264993832595796036e-02 1.222837284245597150e-01 2.042176979099126835e-02 1.022269057520918262e-01 3.562508520655753574e-02 8.599061882084590991e-02 2.410548633805987499e-03 1.785498459456517917e-01 8.301924582966085930e-02 6.293697407018794543e-02 2.036949776644354504e-01 -1.343551167197489793e-01 -1.318786683044310126e-01 1.264085681345094025e-01 -1.170576274368157199e-01 1.944582286738114063e-01 -3.371370088744776033e-02 -9.122347888670218063e-02 2.085469519810797256e-01 1.500641997591289634e-01 1.811109179998854346e-01 9.016744739922061269e-02 -8.958202545482919776e-02 1.910064953099033791e-01 -3.188276235647275608e-02 2.540193948472626098e-02 9.468378503705493499e-02 -2.043009144768472701e-02 6.254556350861295577e-02 9.737680226659668759e-02 3.775955152755941513e-02 -1.014531392882566940e-01 3.028548012713504906e-02 1.513568935370671331e-01 -7.226206870644509561e-02 -1.853437018464232713e-02 -4.098791006504173828e-02 1.851305714113883893e-01 6.728193679211807998e-02 6.838656602549968155e-02 -8.513308149968293326e-02 5.059758363560173944e-02 -6.006174946911618795e-02 -7.645660574262841402e-02 1.472896499600357366e-02 6.986362134827074633e-02 9.148057321657122876e-02 -2.026481971945245930e-02 3.818594641755550939e-02 -1.431070804824888520e-01 -1.491038970057116386e-01 5.051138300157504563e-02 3.475558241779157925e-02 6.356623231283298203e-02 2.401893366053792500e-01 9.444704481298733800e-02 -1.104726227358574370e-01 1.116479519296743050e-01 -1.425063693947117849e-01 -4.184091874686690637e-02 3.317829561203376049e-02 1.708872224276624385e-01 -7.418070041277637083e-02 -4.421322731151837437e-02 3.227515466399710070e-02 -9.104471907362578220e-02 1.122355749749933684e-01 -1.111594439243095839e-01 -1.147710126271506842e-01 -4.188114514465554605e-02 -5.895189955923028219e-02 1.905267594579784229e-01 9.875255417818558368e-02 8.337231967022852921e-03 -1.227249235076491307e-01 9.652045664267130953e-02 -1.095160415571316548e-01 -1.529819217950948718e-01 1.533702712299051252e-01 4.063972695457074985e-02 9.203456934095188835e-02 3.043811053047018600e-02
8.243183131656608986e-02 -7.651529975904221292e-02 -6.826737374898034227e-02 8.718928657820400330e-02 -9.901216910922837344e-02 -6.681000800046064947e-02 -5.985076182388153476e-02 -1.915751937808771524e-02 -3.540311022119909529e-02 -3.908563045043709355e-02 -9.198286041492205467e-02 -2.268055374162848414e-01 2.574874359568417037e-01 -1.386877780668226978e-01 -1.180299391728412139e-01 -6.364129502605259982e-03 -1.635191063814930013e-01 2.951372562711024883e-01 -2.071262628000241912e-01 2.867761842729699834e-02 1.867999374860391387e-02 -1.319139140429702040e-01 1.191727749587557922e-01 5.038150826143242278e-02 6.674080955714284391e-02 8.138231655863645275e-02 3.523064719839869019e-01 1.336527949436392138e-01 -3.520856621733505637e-02 -1.647913682964682325e-01 1.082622140287474721e-01 1.110161231622771444e-01 8.433386099461923080e-02 -2.411115134382897374e-01 -7.635739627117059565e-04 1.784461332075584078e-02 3.176487927500762365e-02 8.301246772978781996e-02 8.880851385782255469e-02 2.954651774044039433e-02 5.942707279526262404e-02 -4.606803372237230909e-02 -9.476671480518111812e-02 -4.186749041874835570e-02 -9.145659614029416282e-03 9.057441258795737938e-04 2.391739952320139917e-01 -9.923384921551436921e-02 9.174397628760103379e-05 -1.784477498058613387e-02 -2.534025670511819844e-02 2.671985137632339885e-02 -8.086806565167085903e-02 -4.297673985428980548e-02 9.901391528570011383e-03 2.036509937630294476e-02 1.709179458078635260e-03 -2.366054910730745753e-02 -1.622799322645799569e-01 -4.936811153727875545e-02 -2.342065849966707552e-02 4.100588383607729759e-02 -1.189390919754525350e-01 9.938178587518556317e-02 2.658867680945091738e-01 -2.095009887786193070e-01 4.326223211457502771e-02 8.117955390315063913e-02 2.078822750057398791e-02 -4.464640611176860091e-02 -1.295127820586836585e-02 -4.333312827505402670e-02 -3.155742351457519607e-02 -1.630983692501249693e-01 9.746001621530379910e-02 1.238147518127242497e-01 -1.271825812571390768e-01 -1.429002085011209511e-01 7.026741679793843676e-02 -4.310430802396536011e-03 2.706619512723746138e-02 -2.229741444880953966e-02 1.450339799011270137e-01 7.404348172970347253e-02 -7.333445234932327306e-02 -1.445959001227582474e-01
-1.582938397335081904e-01 6.103793791072052027e-02 -1.188859257784029011e-01 -5.068163542986875436e-02 -5.963140384505081354e-02 -5.256729626954628753e-03 -1.936279805846506941e-01 1.887785967938285583e-02 5.238910238342056602e-02 8.842208704466140642e-03 -3.108861716984717347e-02 9.740016626878341549e-03 3.990463456401302511e-02 -2.772592756426650040e-01 1.955912308250694343e-01 3.900933226879264859e-02 -6.524085823870200140e-02 -3.909533751876011209e-02 4.937417773491884626e-02 -1.161039390343665371e-02 -2.030684467781494473e-01 2.064492861359319420e-01 -1.105406572324726250e-02 1.020172711715799790e-01 -6.920498477843911589e-02 1.536377054245797735e-01 2.863436888922795895e-02 6.088438344754507764e-02 -1.045253366146954854e-01 1.211145289682700882e-01 6.898181645347883917e-02 1.301846229564998514e-01 -6.280875596415790019e-02 -4.810271184607877587e-02 2.303916697683942028e-01 -1.060015822721547263e-01 -1.359497006783208332e-02 1.136891362602695382e-01 9.772496771485561506e-03 5.829536797532935966e-02 -3.994490292628752326e-02 3.700558878475187358e-02 -1.306526851735316519e-01 1.658130679618188275e-01 -1.181640451285697647e-02 -6.801782039968504168e-02 6.663830820319142922e-02 -4.607197873885533063e-02 -1.334258471402753610e-01 -1.346717505797555281e-01 6.937731526901325108e-02 -1.595734381462669133e-02 -1.337015596684391731e-02 1.077743805976262848e-01 -1.126825808756743569e-01 -7.306777528648249198e-02 -3.848798091812755118e-02 9.435158931707401248e-03 -4.217145129057893981e-03 -2.868871923899076262e-02 -6.162640209564741040e-03 -1.073052762911747005e-02 -7.196043885517929006e-02 -8.129929885540773671e-02 2.745163577239395289e-02 -8.909150829955279904e-02 -1.157355259190853691e-01 -3.122922511256933167e-02 -1.576670161638158915e-02 2.256723497298209480e-01 -7.047002758562337377e-02 9.432607249694947849e-02 7.471883342046319043e-02 -1.188944955203736220e-01 7.732529774025997948e-02 -1.183880640193317735e-01 -2.659172237996740851e-01 6.063195243593808015e-02 -1.755890583437719477e-01 4.509344618059148851e-02 -6.840108977372165444e-02 1.659550796189872279e-01 1.068509399316009134e-01 -4.533858038513877142e-02 -6.878376110286824052e-02 -1.214077403094120655e-01
-4.588685899654971340e-02 -2.103253763369837825e-01 -1.299585571927912471e-02 -2.300869074193679364e-01 5.937796980601890012e-02 3.225688796845388451e-02 -1.654024360429067197e-01 -1.200983942510556735e-01 1.347850237357086922e-01 -1.857742439948616847e-02 -3.108497966436754023e-01 -7.222412958405088901e-02 -2.096018611258535225e-01 -7.483194439600159009e-02 1.325540129335290307e-01 1.945533962676439799e-01 1.813543302246155564e-01 -4.840623337582229679e-02 -1.164171995089861439e-01 3.349793698189462016e-02 -2.479829567947042929e-03 -6.042397769211025520e-05 -8.908485812124503078e-02 6.989585086067305608e-02 -3.184416234464500228e-02 -9.304714477073044998e-02 -7.440226951090860887e-03 -9.931236109295807357e-02 8.472435324661532763e-02 4.984636691228306327e-01 8.929668011315497131e-03 1.067522996140151947e-01 6.558093966221292814e-02 -1.523650320009128922e-01 -5.568135566054629310e-02 4.843187627525145644e-01 -1.676142408178105114e-01 -1.909961357755647904e-01 -2.109660551756427083e-01 9.344722943566977080e-02 -4.832287730595449804e-03 -2.241648270949311295e-01 -9.888186826972461541e-02 -3.828593276018483205e-01 -1.006470988135708608e-02 4.490058045752227944e-02 -1.663138145129749168e-01 -6.472021078196056598e-02 1.564560956847111869e-02 1.092741217711776791e-01 -5.777726352692501982e-02 -1.592013960486697577e-01 1.894692446202129177e-01 4.699298269204241207e-02 1.479146756017166719e-01 -1.285820599662998998e-01 -2.002304022573510034e-01 -1.095723844079251191e-01 1.366954525541951293e-01 3.580521652379948377e-02 -1.526205306017340280e-01 3.645172706868794743e-02 1.123831485968632554e-01 3.361019681059115860e-01 -7.372076913027574008e-02 -8.660913442996655276e-02 -1.442283022064475284e-01 4.099963520812792139e-01 -2.646969799285459612e-01 -1.843331268634320896e-01 1.665037427951602533e-01 1.189671075713353982e-01 3.822227930577520166e-02 1.251022041699787618e-02 3.160510992757769588e-01 1.560732731060422429e-01 8.386846891463511922e-02 5.505914060753352990e-02 -2.016585726350893226e-01 -1.645097737110825242e-01 -2.251521855803272423e-02 8.987902883978111934e-02 -5.034137834533156802e-02 -3.132369223174234496e-01 -5.898928663983641490e-02 8.942695206936700919e-03
-4.728380431340073464e-02 -8.190926549890593933e-02 7.122927600045211860e-02 -8.752187997353317803e-03 -1.004504208969796003e-01 3.240811344566325858e-02 6.928208844137004330e-02 -6.609205905966447636e-03 8.005648034309968686e-02 1.466045323926881694e-02 -5.087634305324269246e-02 -1.171539495392838193e-01 1.921804030618386519e-02 2.467274310303507745e-02 9.050577616011665216e-02 -2.086162585637624245e-02 5.642068342406127146e-02 -1.190444010082623572e-01 -7.261416724581441773e-02 -1.087252303750514508e-02 -7.872313248566377430e-02 8.993515054357120730e-02 5.535160471480283367e-02 3.340260739711661819e-02 3.445247387147112178e-02 2.001062816161224278e-01 -3.998819621294011362e-02 -2.201439479229897744e-01 2.075484741792709212e-02 2.073510928982973817e-02 -5.190777761997777268e-02 -9.266434717842821078e-02 -4.296471133868538100e-02 -9.824297636926448279e-03 -5.141907913959830462e-02 2.231265858831503468e-01 -9.573664824969699283e-02 -8.410529829667186263e-02 -2.239554688653779269e-01 -6.325923766837596683e-03 -2.011788630785903975e-01 -5.678141626263177866e-02 -2.775783515315827579e-02 -1.192507868242864838e-01 1.682258676215722393e-01 7.535513219480698133e-02 1.192449762086455201e-01 -2.369501972317636720e-02 1.232713860089645758e-01 4.744743990692685404e-02 5.003135046757499482e-02 1.053117814387631579e-01 -1.047826282208090404e-01 -1.231298360007597632e-02 8.624712056538291760e-02 -2.975268907370956506e-01 1.782232344341788954e-01 5.517242626306264469e-02 -6.373938611433286813e-03 2.202815953887978309e-02 -1.054006551445862139e-01 -3.499153103837768231e-02 7.073210812584057594e-02 1.748052875752797997e-01 2.331984119302243641e-01 -8.342911011611426828e-03 -6.604850280480697999e-02 -5.451921298369224317e-02 -1.074658205948031547e-01 -4.005960864372789089e-04 3.806607454022738202e-02 7.633384681511266043e-04 1.099507008057967195e-01 -2.426885359623338900e-02 -4.911024228712222717e-02 -5.623649404437402327e-02 -2.039519768425687718e-01 -1.567511248863509843e-01 -1.047695224005981557e-01 1.253912726891845963e-01 9.487799468708929540e-02 1.385777135206591182e-01 -1.439885871153138430e-01 -2.174300376116219680e-01 -6.614272362541698258e-02 1.703872399366942320e-02
4.897093665199465928e-02 2.787397289916363485e-01 1.012979171760613889e-01 6.412871581937537036e-01 -1.181445775285262234e-01 -8.837420892698563679e-02 -1.150329845202133217e-01 -4.940218552613327707e-02 2.354856785060585947e-02 -3.481020911202632045e-02 5.425814526603419535e-02 1.328572444382632445e-01 -3.163785923479116025e-01 7.812454721782696732e-02 -3.966656212410379911e-01 1.326831782082398339e-02 1.796758535879708907e-01 -1.357436415346872753e-02 -1.368341844779006611e-01 -5.787825281166519148e-02 -2.404423728188361323e-02 -1.616862197782575894e-02 -1.570996658679521263e-01 1.149963119682620577e-01 6.731026888098082250e-02 -1.211127050561378454e-01 2.092277098367627264e-02 1.518261170355705569e-01 -2.235677905034007262e-02 -2.018562586406467269e-02 1.073647293703846595e-01 -2.802205924081304089e-01 1.373666947634836488e-01 -2.844206532206683957e-01 4.994095165197547787e-02 3.073990820417165093e-01 9.604693941569548976e-02 1.075578348088802177e-01 -6.295734470566952123e-02 -1.306130191540620655e-01 -2.739354040173024862e-01 9.716195542247213490e-02 -1.349087211777560136e-01 5.402355091697094019e-02 9.202963529044154434e-02 -1.226719032137558590e-01 6.934998944245175656e-02 -3.117112507124354948e-01 1.473693871045577697e-01 -1.302198472486783276e-01 8.294772693125421203e-02 3.639326001006759626e-02 6.313422049130110181e-02 1.462267210469136991e-01 5.455611598025122272e-02 -2.182118039850591273e-01 4.037532562201723296e-02 7.622549922596534577e-02 1.324669630529032582e-01 -3.633084490751763845e-02 -2.842698750937650565e-01 -1.112493710988713552e-01 1.385242509792512233e-01 3.662806656615746337e-01 -1.303200908836374683e-01 -6.908295962444607752e-02 -1.140623833897507211e-01 1.883489454818122188e-01 5.521748105714496813e-02 -1.570448872871293700e-01 -2.197435542287096144e-02 5.437063990995265328e-02 -3.730743725824389734e-02 -3.036148994465179274e-01 -1.556759211115919632e-02 1.158761352452996989e-02 8.893312306330497519e-02 -1.043079499709511360e-01 2.547560249498628804e-02 1.107158669466377643e-01 -2.291569505358238834e-01 -1.009821555885236782e-01 -1.064006713239477597e-01 6.627948198484164000e-02 -1.558380178372180402e-01 4.775330312546029882e-02
-9.803213586208621433e-02 4.565103017717350026e-02 -1.441360215743141548e-01 -2.159610313925610370e-01 1.396349155451090743e-02 -1.646180582601396714e-01 -1.015371658757603240e-01 -1.146505796887302420e-02 -1.742356197809230567e-01 -7.556064755855838866e-02 4.692285689485053285e-02 8.283194083593395374e-02 1.524458492901124840e-01 9.569310633488105344e-02 5.797010031954857173e-02 7.409905649867953858e-02 9.620875276530573006e-02 -1.630502958352124665e-01 1.057199638264477715e-01 -3.688851707391983120e-02 1.212250819450058220e-01 -3.954755096090991490e-02 3.560506884771153652e-02 -1.362555827268418784e-01 -3.646906301138987117e-02 1.646788892333198862e-01 6.119323297858696165e-02 -1.385042735095726163e-04 -7.463152506956304000e-02 -1.419778596968994215e-02 4.656424804770819409e-02 -3.573884680653926366e-02 -4.968351889685107547e-02 -1.231263522773580338e-01 -9.952730559945288658e-02 5.769686272236912439e-02 7.648955970747307875e-02 2.254418614667308973e-01 -1.326426433948863469e-02 1.189339131966433705e-01 9.497405151464881345e-02 -1.341256704435963287e-01 -1.221293460453790336e-01 -9.748514648232346758e-02 9.814645058937543354e-02 1.863882649264317001e-02 -1.106119957976009899e-01 2.437658569618597060e-01 2.495378363183538006e-01 -1.994210830677473900e-01 2.301745062357338223e-02 5.198595407421768150e-02 -2.093679541351911241e-02 -3.882917091466350779e-02 -1.248568630755990394e-02 -2.364251142544994133e-01 1.331764238236506082e-01 -9.438109864552136907e-02 -4.998373722048202183e-02 -1.263068349102275389e-01 -1.097122304604196547e-01 9.352328191004791874e-03 -9.376922105220611425e-02 -2.465101293641215954e-02 -3.559087086096386632e-02 1.080108905050025658e-01 -1.997976282858108799e-01 -3.955373554235766531e-02 -8.339587635187399942e-03 -1.587060544203054147e-01 -1.952693207943884957e-01 -1.798280223860102278e-01 2.129940821214243094e-02 3.870078772376039922e-02 -2.040714393203943433e-01 1.197902213788688414e-01 1.068061730076048516e-01 3.875041124889732486e-02 -3.668913746677955612e-02 2.213032215515877976e-01 -1.525748536185322357e-01 8.023045979722506771e-02 2.263456342488387452e-02 -3.448711581386644798e-01 2.110157186498992088e-01 -1.810608182838167046e-01
-4.040347866251143422e-03 3.420357318552880166e-01 6.304832564728658773e-02 2.890460557092231486e-01 -1.571212880846547810e-01 -1.758512798047769388e-01 -2.385446667865106368e-02 1.521373508566334909e-01 -3.465640295817112859e-02 -2.755915952122045195e-02 -1.523417678816114647e-03 1.012465038633246356e-01 -3.128269226572678585e-01 -1.964120210541021594e-01 -1.423663687972098746e-01 1.079307899607530596e-01 1.047655432800948389e-01 1.851574615655708633e-01 9.376644412769362391e-02 -3.445246193230389921e-03 1.516194123222032175e-01 2.319629011519648912e-02 -1.560801818368332261e-01 8.465083706531317809e-02 -4.757693337314734816e-02 -3.221598010011405416e-02 1.647825968571444144e-01 -1.012814862173993559e-02 -8.385147940159830282e-02 1.137753797551660680e-02 1.019502202146347486e-01 -5.331791472198518095e-02 -4.072476403953347729e-02 -2.117839868604937670e-01 4.168315064723597529e-02 1.227233574033439883e-01 -1.595255658145909583e-01 -9.521382288722333997e-02 -8.789672453571072130e-02 -4.226341291260092559e-02 7.466036699726745496e-02 1.557504023531435522e-01 -5.077360263573650612e-02 -5.952787839318032792e-02 -1.229714161756275959e-01 -1.788868561715123706e-01 2.661892199814425708e-01 -2.586966998493060443e-01 8.106880515147904531e-02 -1.436801087109126074e-01 1.128658664067209647e-02 -1.676677042934948125e-01 -6.515044133893392597e-02 -6.433316438203703046e-03 1.798245691633090504e-01 -9.233219196148155505e-02 -4.208905938117366713e-02 5.502951277681330383e-02 -1.153974606848076016e-03 7.210413482472328994e-02 -3.542989728870320487e-01 3.037814303463679672e-02 1.236723761349387274e-01 3.132538782452413267e-02 8.266127654421340232e-02 1.696192088845395185e-01 -1.304689002081386431e-03 6.570863022959094746e-02 1.107525150919181772e-01 -1.691271775673607314e-01 3.255962325091919796e-03 -1.785898126661140950e-01 -4.432538000970632358e-02 2.375644149011689119e-02 3.631991899311203670e-02 -3.315940962684457705e-02 1.871897631187293132e-01 -1.111228361697332023e-01 -2.116568525564365907e-02 2.316699336193296307e-02 1.054397372683146539e-01 -5.520431342770007466e-02 -8.268208081210670635e-02 2.936174731775911297e-03 -9.245492057521631502e-02 1.374931183294746985e-02
-3.690325059622164700e-02 -1.188110307779717684e-01 -1.242505047317587208e-01 -3.450294904461310985e-02 -1.379700031761854628e-01 -6.748221332453108873e-04 2.056175122211534589e-01 5.380496125303184385e-02 6.103051155354603102e-02 -1.150177413150959144e-01 1.137196580250501715e-01 1.218949515540518509e-02 2.066254567757863925e-01 1.079302578205175861e-01 -1.409118397307726200e-01 9.422692090432170306e-03 -1.343707761393354294e-01 2.893700077350639527e-02 -8.740131280076354758e-02 1.313214337745929605e-01 -5.139282686551401025e-02 -1.373562288448155200e-01 7.452475442354433710e-02 -6.800897416888758429e-02 -1.234619016219927132e-02 -7.749873563627265871e-02 1.591013987218908021e-01 7.858074393724930051e-02 -6.871616397049096388e-03 -1.190020257343212817e-01 9.260070982936642603e-02 9.509151887422064020e-02 4.465425503889732667e-02 7.169024723688151302e-02 -1.606515617439524812e-01 -6.453556052923067887e-02 -5.448884640139500801e-02 8.262776903263881201e-02 1.074143891590547961e-01 -1.251553016627139914e-01 5.823905417972372045e-02 2.130289175610076136e-01 -6.713522184617562449e-02 1.931684076715723120e-01 -7.204295040888103463e-02 -8.055812548146171204e-02 2.895040356480455337e-02 4.175039960593463634e-02 -2.976785992879988837e-02 -2.574158107662564629e-02 -1.173851745041535333e-01 2.645839229523535424e-02 -3.153513954515152398e-04 2.682696731241669408e-01 1.375774655066744068e-01 -8.516387865986076167e-02 1.074019934374812052e-01 9.963886077721818835e-02 -1.386370014065852960e-02 -6.585914285298502709e-03 5.846395405812384455e-02 8.673063146809487090e-02 -1.247951473242315673e-01 -7.107623121913615727e-02 4.824615468413461644e-02 3.842124210776483306e-02 2.332711838656256753e-02 1.147043451155950206e-03 1.137524409308292156e-01 2.050103937033289359e-01 4.110623834971501023e-02 -1.400928905431794019e-02 7.717611322103291871e-02 -4.496073540319925343e-02 -1.123353329904689668e-01 -1.669398342335569677e-02 -2.721831497523655718e-01 -1.151211782085876101e-01 5.944408004834507778e-03 -1.155176138623295601e-01 -7.792084344677693841e-02 -1.211231857131280301e-02 -1.523422307697529510e-01 -6.185093771899956988e-02 -5.389062578694903127e-02 3.436163507582877096e-03
1.111696971350275148e-01 1.891766977102261604e-01 -1.555961803658836157e-02 -3.821481499354572459e-02 3.708449687150072033e-02 -9.962964925823283857e-02 -1.268606910190775861e-03 9.144858666031056849e-02 -1.364551312132140093e-01 1.325322230065618945e-01 2.798927346303446001e-02 -6.412731249291493685e-02 9.158616976698775308e-03 -6.573410548573976886e-02 6.550220191971703465e-02 -1.137729074893368691e-01 -2.645711260795315795e-02 -1.930431136007625392e-01 5.045303436930321378e-02 -1.773459321864402916e-01 2.546081060764496251e-01 -1.168727131904548772e-01 -1.833828295623316645e-02 -1.221246421079805189e-01 -1.171057036420128095e-01 -8.715944002590993167e-02 2.050003841046422748e-01 -5.256405931019397099e-02 2.690465561725169374e-02 -1.969362203958767987e-01 -6.685135593056450165e-02 5.277917227556330748e-02 9.882576267195594677e-02 -1.795195441126943847e-01 -1.388692114334288685e-01 2.247341391289642831e-01 -8.650794030566755222e-02 -2.515483759950875586e-01 2.580340699595256582e-01 -9.026170669532761204e-02 -1.536345256557318517e-01 -1.072136371639659802e-01 3.640044678803068534e-02 -1.558946823909754253e-01 -1.333152317355905947e-01 1.987878475502280751e-01 -2.344894596649989282e-01 1.013274003775671041e-02 2.554150066053225698e-01 1.870465295269737871e-01 -8.196744288359440744e-02 -2.121559105231852482e-01 1.212903707665196895e-01 -1.815778776067770162e-01 -1.225056806588342567e-01 -7.814617036300253866e-03 1.116306983523046303e-01 -2.736620804759712713e-02 4.355225919236539039e-02 -1.514174492999960896e-02 -1.598706825527346498e-01 1.271989699214742531e-01 3.055777726146348319e-04 1.569260897449206438e-01 2.892122767632177016e-02 2.332901676876999175e-01 -2.761329767800000529e-02 -2.289375096832983181e-01 2.588466326281724066e-03 1.135148706036048227e-01 1.578219640204739094e-01 -8.227480747845163089e-02 3.485891538014632141e-02 -1.184313794814030457e-01 -1.055838931384965595e-01 -8.992407425746247462e-02 -2.668877905960725383e-01 1.660728119367606836e-01 -3.996357890411133401e-02 -3.448911516174913566e-02 9.552239864577465045e-02 1.237585607613040650e-01 9.743426803347936260e-02 2.098794658802122792e-01 -9.466461928345911228e-03 1.145474898124795339e-02
2.410274298629619047e-02 5.685720051108830164e-01 5.282670692921021677e-02 -4.571226351941876792e-02 -6.243907841957784671e-02 2.642432648135104034e-02 5.524347091620884775e-02 -6.903735252842185593e-05 5.287537480683323493e-02 1.326095264294659959e-01 2.989301646726928371e-02 -8.411072320872030328e-02 3.451784604091795439e-01 -2.724583670139599234e-02 -4.760009129166817288e-02 -7.887570886638296808e-02 8.843691602164938104e-02 -1.090138916020099852e-01 1.014918680490507624e-01 -5.901810760129219506e-03 1.674121855165566219e-01 1.445118097076052155e-01 9.658086171827157118e-02 2.114440609506920699e-02 -1.170243780120742982e-01 9.447904578536611697e-02 -8.552502731397380398e-04 1.389145315677927373e-01 1.996683976570652608e-01 1.183721062796316142e-01 -4.204724916811120733e-02 -1.290240047172831472e-01 2.738332659361760076e-03 -2.196996618650317590e-01 2.452924482516576424e-02 -1.180683105586379129e-02 -4.064042621544757677e-02 1.186376105461179331e-01 -9.916453741219566353e-02 -8.984689902296086328e-02 -8.340779497401390463e-02 1.240409612954268409e-01 1.381906091718059226e-01 -1.144281591911859852e-01 6.433833797618024493e-03 -9.950498226741165408e-02 -1.175555356539677576e-01 3.393632207726176020e-01 7.482143445013187235e-04 2.051123574722038198e-02 1.394248950791906853e-02 -2.869646340947351604e-02 -5.733270376297402993e-02 2.818573018659616958e-01 4.881549371287471212e-02 -8.832608013366576027e-02 2.097585030036061560e-01 1.007337777576513063e-02 -9.129781605613980500e-02 2.013584156628417041e-02 1.011815708865902580e-01 -1.822450493886151601e-01 -9.399981118074331177e-02 2.064247113996773297e-01 -2.864620523772576921e-01 1.671339812727132834e-01 1.636453624244430319e-02 1.756959119983667050e-01 -1.525244420580917915e-01 -4.831297302587318071e-02 2.305773057870116188e-02 -2.754450559689202160e-01 2.089745900363743428e-02 1.450937564919177469e-02 -9.352946547608152750e-02 6.309887552458168236e-02 -1.015542435356406037e-01 -1.110550374158326276e-01 1.872109501021588518e-01 -2.166281085041322357e-02 -2.275794405939050302e-01 -1.844773230106739603e-01 -2.369808622042550092e-02 -1.603849807031389740e-01 -7.602177365819193233e-02 -5.473517120937067444e-03
-2.083659334648416475e-02 -5.347888347385439806e-02 6.402471802688218527e-02 2.973719286933127481e-01 1.673317520213663256e-01 7.873832645611968106e-02 8.019512891976163238e-02 -1.433335494036239166e-01 1.667219602360040520e-01 2.115643244303468465e-02 4.733710587212239945e-02 1.047738863911947399e-01 -9.660177194553298818e-02 -3.544685195472605660e-02 -2.606220636342107197e-02 -1.324612981534572242e-01 5.408125073216063158e-03 -1.056239671691460991e-01 -6.709207448788101491e-02 -8.952030675260706782e-02 -4.945534492905438034e-02 1.327386840053483008e-01 2.493239341942625475e-01 7.315575049323361223e-02 -1.438162243816658858e-01 1.264201900144943658e-01 -6.685171742161501174e-02 -6.606085939769920645e-02 2.028066266167815115e-02 -9.780793572493171051e-02 2.205600969288016439e-02 -2.029250430009002168e-02 2.622989353164794854e-02 6.458133403855378929e-02 5.176019805802295135e-03 5.106726336085090634e-02 2.931038552171548461e-02 -4.604989905607483058e-02 -1.013202831647979224e-01 -6.612281215120559275e-02 -3.191553477953853763e-03 -7.090158413340212629e-02 8.667283449580962321e-03 1.175242904262084193e-01 5.187619637671852385e-02 -1.017816893789245253e-01 -6.747972094904222673e-02 -7.296414819155157272e-02 -2.479345919938459319e-01 -2.645430592456494284e-02 1.281233434566902696e-01 -1.509374705346888945e-01 3.877220513117825285e-02 -4.459881413812991080e-02 -9.973707532714842783e-02 -1.248529587652009651e-02 1.141076558150435835e-02 4.751921392191769608e-03 -1.470684723639563984e-01 -2.308587577325667273e-02 -1.144447709254178547e-01 -7.331130172949078261e-02 2.908446942621125131e-01 6.063642221742795296e-03 1.054819248674622317e-01 -3.988991210017721854e-03 3.494708482752353906e-02 2.703993149121325379e-02 -1.168227891094263254e-01 -4.500401300247012376e-02 1.573512103681400098e-01 -1.423290910659883168e-01 -5.455165519730748730e-02 -2.995603994103650594e-02 7.452339888162108628e-02 4.104799339143139908e-02 1.991228498140428793e-01 4.872898792848232713e-02 -3.483499115788588063e-02 1.254474946531478341e-01 1.320595592187749287e-02 -1.481833942741799248e-01 2.295301473915860868e-01 1.864566866591601813e-01 -1.701499754232573339e-02 3.581331447973120502e-02
1.257101112644296304e-01 -4.182082187813726537e-01 6.242628318939916210e-02 1.792128098009404813e-01 -1.364235043831305283e-01 -4.134844595278321794e-02 1.893679206673974311e-02 2.313876611306414921e-01 9.847481742069888466e-02 -4.441956295512748676e-02 7.929088736942328797e-02 -2.099421098364432359e-01 9.979448937676865805e-02 1.101405263248969764e-02 6.927578161729029248e-04 2.930125707791038647e-01 -2.038044888562968726e-01 -1.415230841275802670e-03 6.564899384778975777e-02 8.269102800509249562e-03 2.335442791416881825e-01 -1.117026731103327591e-01 -5.858501275203416812e-03 4.326229723332056243e-02 9.091973258866190011e-02 -1.000278530896152041e-01 1.972038405671299177e-01 -2.683727352093812080e-02 -1.275805454207449598e-02 2.740754438845368068e-01 1.209234855039439255e-01 -1.469381739013942978e-01 9.081003204725428268e-04 -3.760274797035977334e-01 1.756667068430471310e-02 4.098284874998054383e-01 2.652063728690542618e-02 4.333308666161114764e-01 -2.882220929681726901e-04 1.262038818498322224e-01 1.585558582905567115e-01 -2.825397225560442593e-01 -4.574241343800385801e-02 1.474589382934619886e-01 4.926191765365572905e-02 2.209901109113931450e-01 2.322737010212417297e-01 5.897936488388144660e-01 6.468840967913449536e-01 2.191093378449779083e-01 1.975109358146916461e-01 1.773099028305023458e-02 -1.144524054077695058e-01 -4.650848233597952297e-01 6.987524757911661721e-02 -3.016620120223544310e-01 2.780731882766466767e-01 -6.706670464273657359e-03 1.743573097716615006e-01 2.532776801680589746e-02 -5.100492267988421258e-01 9.976903359728378495e-02 3.609271296431815768e-01 -1.456390733711954433e-01 5.461782483777095215e-02 -3.732993242078433416e-02 -1.892477800799473864e-01 -1.088462109563579500e-01 -1.995298036389869453e-02 9.707907085618573684e-02 9.379159517796577250e-02 -4.749744324967847958e-02 -2.643748550331019923e-02 2.022528536335092830e-01 -2.507199568482341712e-01 -1.010182993782919453e-01 3.936257790853865401e-01 1.062330392092684372e-01 -1.517334379569079249e-03 9.401133197284312903e-02 -6.970109534397130879e-01 7.688274869922154253e-02 3.117170305420799981e-01 -2.100506427093823125e-01 1.522043134257197727e-01 2.355577806315596948e-02
-1.167016309971984772e-01 -2.805317447723563173e-01 1.046478156296229423e-01 -1.819670186147389068e-01 1.491760742647096627e-01 6.636003010841273753e-02 5.202035842002939586e-02 7.615381785881961130e-02 1.864999656302789369e-02 9.774030374725832526e-02 5.144482973439584023e-02 -1.197041192347538842e-02 1.023909868749539598e-01 8.382253179523738162e-02 -1.772753378874677710e-01 -1.254422559744356458e-01 3.180906890330506553e-01 -5.087746797537756605e-01 1.188521964917162443e-01 -4.078229964799070378e-02 -9.788323156036261852e-02 9.944140931036875297e-02 1.291254710284762686e-01 1.979014656915933090e-01 -9.363039953049739905e-02 6.924679557882103265e-02 -2.559649245170706466e-01 4.780678907997995553e-02 -5.988598033458398390e-02 1.097743866792847411e+00 -1.494177016919380763e-01 -1.130426262287189815e-01 1.139238422989973659e-01 -1.184895646497494820e-02 -8.465865171423922475e-02 -1.394232850386513956e-01 2.290974342070373759e-01 1.012564523244089687e-01 5.980063978001967651e-02 -1.900118214148764362e-01 4.004075020496644655e-02 7.153850520911315958e-02 7.361858407607076160e-02 3.548014430637518035e-02 -2.396016266149387786e-01 -2.829228770809661953e-01 -1.277269888078380322e-01 4.290138925571732598e-01 2.577361576953193234e-01 2.093469372507766602e-01 -1.071043831910267197e-01 -1.566324768260961842e-01 -3.363147986361794128e-01 4.333602723275016277e-01 -6.139099433303853853e-02 -4.362038204033859556e-01 5.716415848902287045e-02 -1.413721032639387309e-01 2.076410518167109975e-02 2.024228857237627965e-01 -1.416066694213857502e-01 3.705414743038080994e-02 -6.181692896807158139e-02 1.029428484046525094e+00 -2.498881243122036688e-01 1.874484022535654049e-01 -2.097423919604471942e-01 5.458312911656274524e-01 3.615741936761320274e-01 -1.013844332808458704e-01 3.363482799214501801e-02 4.875805266663554155e-02 -8.245202769558100664e-02 -1.558865689786834985e-01 -2.498895392560592787e-01 6.950481477400206887e-02 1.885121059016185430e-01 -5.682436991866000875e-02 4.032543012682470590e-02 1.192509637601652794e-01 -4.895200245320584509e-01 -2.451787863458081140e-01 5.271526106403442297e-02 -3.301030470358073399e-01 2.120016089507896495e-03 1.410357146005437601e-01
4.949050744110563421e-02 2.875222167089247841e-02 9.008827371208963375e-03 -1.173929135354559172e-01 1.544669242927640684e-01 -5.032260066491880263e-02 1.547373605489263948e-01 1.828525096709688325e-01 1.730706328724577331e-02 -4.455860564548301539e-02 -8.822974369780714476e-02 -5.360728636473192227e-02 3.594210139602051213e-02 -5.737889919890993423e-02 -1.655496912751123761e-01 -2.336110420344865712e-01 -8.250531846465324060e-02 -1.339904448545956028e-01 2.132462861280029487e-02 -3.178947700157262746e-02 1.257255248076964149e-01 -1.817066794796212137e-01 -8.056641756265107979e-02 -8.851625103709252762e-02 -1.057508980909706575e-01 7.434955251000810450e-02 -2.628606847657290468e-01 -5.220369636929925866e-02 -5.429369142101434648e-03 -1.055191207434150319e-01 -3.876317839609733779e-02 -1.784650778519553949e-01 -3.404000477173148992e-02 -9.701287172772557477e-02 -7.008438904187701268e-02 5.358101045362820281e-02 1.356222942036217904e-01 -4.745036983161671218e-02 1.228549094213688270e-01 5.905763112994293768e-02 2.625192190224358985e-02 -1.070101722317636506e-01 1.019536807113217633e-02 -1.767915896760090602e-02 -2.947669379131263589e-01 -2.616948962067985884e-01 -3.302173251352461536e-01 2.457054079935315494e-01 -2.654055924766400287e-01 3.145553928872703020e-01 3.595397445987353561e-03 -1.704641565626051625e-01 1.620167867563800101e-01 2.795796462588836517e-01 5.755857603116195514e-02 -3.405190019185455053e-01 2.168414357308167950e-01 -9.772881545092214350e-02 4.418428471469364460e-01 4.906348671163079933e-02 -3.170016365185186480e-01 2.631962717597506329e-01 1.665446612562580114e-02 7.465559816953049044e-01 6.248267488459849917e-01 -1.246142975269698416e-02 -4.150568983460065087e-02 1.013956796885705225e-01 -2.768323528174833070e-01 -4.584345978916412601e-01 2.582438542940851747e-02 1.012255442177651121e-01 -7.989398023970904761e-02 1.210634693145366814e-01 -2.842663821547475878e-01 -8.212171899552334065e-02 2.127891053637704644e-01 3.197695731000139291e-02 -7.512318710176378589e-02 2.042918426855110658e-01 1.640214739575546199e-02 -8.052050016535378107e-02 2.437364603458469225e-01 4.359665573718305570e-02 -5.354459299644891840e-02 7.192475103620207810e-02
-1.813366063499529113e-01 3.872561603809206859e-02 -5.035811906803892846e-02 4.060237903577971347e-02 9.550791707952360765e-02 1.754668222242752179e-02 1.028569046439833795e-01 1.641514209220030218e-01 3.993973764034024904e-02 1.259976059900699552e-01 -7.211947268029746116e-02 -3.384764120703632161e-03 -1.288041903315090553e-01 1.136204627910299692e-01 3.391582417430819701e-02 -8.335611710992854584e-02 8.236992231591515334e-02 3.951381179836484236e-02 1.933388353776812393e-03 -9.491237504758186228e-02 -1.206890595676818594e-03 -1.946680732826979454e-01 2.951855407493484545e-02 -2.728080005684823880e-02 -3.513309050222594709e-02 8.803471655508182669e-02 -1.326684427626988183e-01 1.946584976171143178e-01 -4.503401754970114135e-02 1.947709429950545898e-02 1.020906585068121625e-01 9.142546030921620825e-02 2.443528043669820904e-01 -6.547315139454477906e-02 -1.355723710119174398e-02 -1.101691407166826425e-01 -3.283203251062516426e-02 -9.664135120348731067e-02 -4.120322933166675056e-02 -1.822040059508637233e-01 1.619622295513283017e-01 -1.313070811070663202e-01 -2.801217692949592997e-01 -1.577103942397551362e-01 -7.551480559676954085e-02 -1.019677336690126973e-01 1.056184053911366494e-01 7.653456644062706267e-03 -8.713107849897951812e-03 5.102635485994682502e-02 4.004490943433933886e-02 7.742072661422043367e-02 -7.911011529332874492e-02 -3.500753179044595320e-02 6.797508421422650271e-02 -2.594069542835447661e-01 -1.613805731653213948e-01 5.009351399882755462e-02 -7.602057167662282233e-02 9.369356328551298185e-02 1.135348073614207698e-01 -1.198241633117973354e-01 4.596504394389180903e-02 1.811370074774635852e-01 -3.440193896392023526e-02 -1.001081151076688713e-01 8.808256646614118224e-02 5.608224372630534610e-02 4.176047401904149636e-02 7.727929538544005272e-02 -2.994747288046226141e-01 8.711864460133740551e-02 1.822150240951632971e-01 4.263567992443395571e-02 3.741670674813058622e-02 6.369457410039883194e-02 2.304249354777253289e-02 6.464414261311393628e-02 1.750851075697577863e-02 -1.099882410535023142e-01 -1.520811542932734850e-01 -9.187566466813555655e-02 -1.772885118309154295e-01 -1.027140575122298671e-01 1.755258139996502820e-01 7.530813975516949255e-02
-6.907355947861985868e-02 7.227643190738196333e-02 -1.624099113061134442e-02 -3.460520369102031840e-02 2.746422376643855787e-02 8.098371458272424217e-02 2.560648156178784926e-02 1.240403089870118769e-01 9.374083520638432088e-02 8.282964332554297593e-02 -4.937946118727677691e-02 -3.224657108562063723e-02 2.054698826807322687e-01 4.882682357440953913e-02 -6.759935235602988757e-02 4.525015031881467371e-03 3.913818994457629596e-02 5.964293273580187349e-02 1.336051538390580218e-01 -7.242427148742161536e-02 4.605786341180689858e-02 -4.398075282490149923e-02 8.275623705652222772e-02 5.598546497301701286e-02 1.115647435354636396e-01 8.960445168929270787e-02 4.665570067227883810e-01 -2.008085139956655718e-02 -1.151599089555019745e-01 6.173210976058344374e-02 -5.855999107421906019e-02 1.193625645419720688e-01 -2.242394568584526460e-01 -1.359715364651283565e-01 -6.829420534630441242e-02 7.192458583041544395e-02 -1.114758995105712691e-01 8.069280293558134254e-02 1.440889711628259504e-02 -2.182636132774383175e-01 8.407581262635611952e-02 3.832996757824201628e-02 -8.991712154150004188e-02 -2.569353202693472338e-02 -5.248517882957826064e-02 -6.697394813372233892e-03 1.072499953384047425e-02 1.637748001889032246e-01 5.192380406003065801e-02 2.322218612922521686e-01 -1.212899772342431182e-01 -2.375623170397420936e-01 1.610772780668087434e-01 -2.065826624698436156e-02 2.163680795195256721e-03 -1.226014208517053894e-01 2.229826443116448842e-01 -9.375493625361408859e-03 2.068719110831468422e-02 -3.957578079668001153e-02 -7.035889746510182174e-02 1.798234887547792149e-01 -9.614972875812966002e-02 2.493625417444105263e-01 -1.724287009541046189e-01 1.386369488532569472e-01 -1.653179374802523915e-01 1.043824186696684919e-01 -2.395811313908787210e-01 5.523487532849533088e-02 -1.194350764989264152e-01 -6.785406950966166306e-02 -3.159597297622838280e-02 -8.689946120468380886e-02 -2.461753786798278332e-01 -8.445045419345954818e-02 2.259808011146956924e-02 -2.970826269767647132e-02 1.474440124693937593e-01 5.748651807795195079e-02 6.032817114030736283e-02 -2.333929325920365005e-01 -1.553251449496109160e-01 1.259470817577505730e-01 -1.839559720228088266e-02 -3.611903302776738739e-02
-4.409194072680325260e-02 1.556703321376930460e-01 -3.521731210513058541e-03 4.356416656010264621e-02 8.181012210039630139e-02 6.143865858398702556e-02 1.675656167560627893e-02 1.576718949222170041e-01 -6.810474736725484826e-03 -3.067400029887795698e-02 -9.481943613488720557e-02 1.283792437924991328e-02 1.287500526239331311e-01 -8.006404753902494897e-02 -1.244264313780447107e-01 7.398934868958939592e-02 1.740191907791413528e-02 -1.682850073728529849e-02 -3.370912147810892212e-02 8.089443354737961209e-03 7.775698914513551330e-02 -1.474885522311558672e-02 -1.077442434743689781e-01 4.419872428864773939e-02 -1.868848470724549238e-01 -1.356601966500514123e-01 1.257750732435027885e-01 7.574683300614039327e-02 5.469803821133020598e-03 1.989613836812984538e-01 -1.044391186435791319e-01 -3.989663980212899974e-02 8.390224008723277949e-02 1.424702239549662797e-01 5.022670761658105248e-02 -2.935557042699115105e-01 -9.417594622631847434e-02 1.959791285745990722e-02 -2.860622805764035173e-02 3.230933221334312266e-01 1.010817101368359644e-01 5.217025357376923328e-02 -1.119103685020893385e-01 -1.408951491371637429e-02 4.744626964341203817e-02 1.137424087750599916e-01 9.385955565561811265e-02 2.810742019815701265e-02 -2.513933833589757777e-02 1.165338621064490043e-01 -1.187301824317808646e-01 -1.854309400404985722e-02 1.384377561151194265e-02 1.324716895907962488e-03 -9.876358608653160176e-02 -6.258781812355593277e-02 -2.086759008193407872e-01 5.295296041527279562e-02 1.057902691013665880e-01 -9.552507355334931630e-03 6.267723531208976850e-02 -1.469286297414493514e-01 9.923617163593337342e-02 2.371976151656301768e-01 -2.241923717378545844e-01 -1.088030768982244240e-01 -6.761585272714881745e-02 -8.893291172989066518e-02 4.754889225964891580e-02 1.881922061887137954e-01 9.937272596970574134e-02 7.652422264242325634e-02 -7.144893218822268022e-02 -1.096780409650919552e-01 -4.001411842690170972e-02 1.615448165485839083e-01 -9.705473341712964053e-02 -4.298073377810082696e-02 7.367182565092503937e-03 5.480703933293536168e-02 -1.787712380603818652e-01 1.811763691288654499e-01 4.495593018775564942e-02 -6.826628341873421102e-02 4.339091534125921051e-02 2.410540902534276039e-02
-3.890783472273116189e-02 -7.185665514399182108e-01 -1.397239679476741658e-01 -2.354811045821410959e-02 -9.037226303317801024e-02 -7.659578855684213983e-02 2.318566485685403036e-02 2.178622844616009413e-01 4.721488097041300590e-04 -7.503451032272952237e-02 3.845058683636341096e-02 1.972977800145081784e-01 -2.975704488115602508e-01 -1.035769565005774107e-01 -4.111648429206004457e-02 3.398749996202882206e-01 1.334189196111739140e-01 -3.120817038887898631e-01 -1.425947447980306648e-01 8.094224971537022917e-02 -1.967620401296757970e-01 4.215954930650367416e-02 4.500242799723581932e-02 1.033573215836546128e-01 1.256752600801309960e-01 5.515249773931116956e-02 -1.585129568636127473e-01 3.072683930469113575e-02 -1.626912550027949100e-01 6.037763022125459261e-02 2.512767062044222316e-02 2.959125494263684444e-02 1.119062932513115432e-03 -8.826143283648582583e-02 3.487455619737398534e-03 -3.085847095444735691e-02 -9.280973089131895615e-02 1.731129523679762749e-01 -1.455734186225258742e-01 1.516952294167940862e-01 2.839050522454073314e-02 1.178447701978037054e-01 -1.004291501921776714e-01 1.012408381696870002e-02 9.856402428575336550e-02 2.470875873116991361e-01 2.449370897288800919e-02 1.913034018765761290e-01 -8.706762306978119148e-02 3.787868805413047157e-01 3.488485476024301701e-01 -1.361881232578805896e-02 -3.078451656391841679e-02 -3.537211612554183593e-01 1.228656763689413289e-01 2.195793945925628848e-02 -3.150933482759819548e-01 1.466070411898527381e-01 1.391646024579911434e-01 4.733554503044633960e-02 -2.761351539667054183e-02 6.720034156761445221e-02 7.715076578294899345e-02 8.994068329067278489e-02 1.570641037503641424e-01 6.753060748265672653e-02 -1.563495846900729569e-01 7.093940282188601620e-02 7.438459683120125787e-02 -1.475002235353566060e-01 -1.003116058813462996e-01 2.779324912686029214e-01 7.472046989785600252e-03 -7.129681354437744905e-04 -7.079287176914206281e-02 7.921013864880543931e-02 1.392287874742131060e-01 -2.383968275159953007e-02 -7.482989003142281881e-02 3.646834400538491450e-02 -2.519979013667228429e-01 -6.710860478347085989e-02 1.598249226398767708e-01 -7.530015174538301492e-02 1.990413011783116748e-02 5.461694505564594626e-02
-8.560356784567373090e-02 -1.399675087055921585e-01 2.466653742760941126e-01 -2.272671679634315489e-01 -6.916979575810161540e-02 2.823543232474276868e-02 8.005417903961692394e-02 -2.505241598985469623e-02 4.946269861765434372e-02 -4.689748915455096284e-02 -1.273537444095704796e-01 1.430721179883557292e-01 6.774928801034589831e-01 2.013268256096076292e-01 8.867170492165823981e-02 6.018172109675727632e-02 4.110359984515107173e-02 -1.087185014421441775e-01 2.281049456710058931e-01 -8.194108226063543179e-03 -7.021976533024413755e-03 -3.343967896120321748e-01 1.389409309662392178e-01 -3.504536327230783899e-01 6.911750564016141962e-02 -1.522361606249309496e-01 -4.092795713597106033e-01 -1.838728390831657900e-01 2.441774768583096777e-01 -1.307308938399341994e-02 6.349005908766162595e-03 1.065074078508867483e-01 1.237567788765159688e-01 -1.827039877099484733e-01 8.666293374213093759e-02 1.118620898417727327e-01 -2.841157533265758692e-02 1.854105329795140700e-01 1.487660037744169550e-01 -1.368814174005126838e-01 2.954291479259657516e-02 -6.203221563357144003e-02 -1.799573494417419650e-01 -1.623794053819282157e-01 -8.869172381674714223e-02 -4.423625306262422840e-02 1.054108838933050796e-01 -1.965908122513692052e-03 -4.375555484721589949e-01 2.780017548682368056e-01 -2.070017114952439272e-02 -1.654533449278958457e-01 6.829255644539983239e-02 2.854522892679657309e-01 -2.218061727592692163e-03 -3.896432385893486977e-02 3.365693079539291976e-01 3.990193547357355486e-02 8.936317045571420814e-02 1.353585492141806679e-02 -1.350756670794387160e-01 1.857819358606197235e-01 -2.884528435263173374e-01 1.113882751691709222e-01 2.216956007298414091e-02 4.094485334593819803e-02 -2.446218866582133833e-01 5.791859756014077210e-01 -1.535424447461588042e-03 -3.849556480029134309e-01 -3.323382162994490546e-02 3.808583101297458029e-02 -1.586966638495314330e-01 2.451304380344394504e-02 -2.846660123938172249e-01 -6.501186446767122373e-02 4.049152942653145848e-01 1.591042177720604009e-02 -1.072599862593164310e-01 9.447315707432821924e-03 4.097035326320213611e-01 -1.179670015642082515e-01 2.421858073131525624e-01 1.465429870211854835e-01 -4.323083881550459501e-02 -4.749679378728008383e-02
-1.667331675563175353e-01 4.779966826645594934e-03 -7.399393390416182659e-02 1.937559646188566631e-01 -1.898837989685961125e-01 -2.490629749463908055e-02 1.336624643437748228e-01 -1.479901350498337431e-02 -7.541636296856533972e-02 -1.204050390854406322e-01 3.009352328515879083e-01 -7.603025508463788495e-02 -8.069112235803829747e-02 -5.522961374950993013e-02 -1.980078826008520310e-02 -3.412363103544806958e-02 2.105827471176662802e-01 -1.439822534823551603e-01 -1.711225024225101754e-01 -1.450471169692527096e-01 3.649445547445249322e-02 -6.251278637351306844e-02 1.444697247954105646e-01 1.169652501464256283e-01 -5.925076568088470837e-03 -9.616235251865115630e-02 -5.965534771683923126e-02 -4.388699117569797026e-02 -1.057396160300514559e-02 -5.530069555912950352e-02 4.995456732853070098e-02 -1.456726742498827380e-02 -2.305441486492911148e-03 -1.133912680115755078e-01 6.499564458957918234e-02 -1.095122131316828527e-02 -8.295577174579435442e-02 7.245579742084599928e-02 -1.303032073443709526e-01 2.011595715049098454e-02 -3.447999924557504370e-02 -1.198385680092565048e-01 1.875264996311456003e-02 2.309093206968172163e-01 -1.003518287275909221e-01 -1.914386598666288908e-01 2.062442924024265878e-01 1.256771053595688303e-01 2.553470167848722605e-01 9.879968511164367861e-02 1.412977781424898105e-01 1.132231810154876034e-02 -1.423260475686485282e-01 8.626568647508736642e-02 -8.206241169255348855e-02 -6.916806029137963219e-02 -5.928125781537307848e-02 -1.136467677821253602e-01 7.188922069052609831e-02 -2.889119886598597725e-02 1.649155798170157394e-01 -6.620333057976592050e-02 -7.978397597628360260e-02 6.334898511980918689e-02 1.840951408490393015e-01 -1.738035447339289843e-02 -7.390234113972581065e-02 -6.221883212635078569e-02 4.925498069739205759e-02 -1.754774934027219235e-01 -3.234189653006201790e-03 2.416300671477580268e-03 9.595306297986939958e-02 7.550343923013119740e-02 6.197507233844991997e-02 -7.959969607194075647e-02 -2.541699508123329218e-02 1.704352836593116538e-01 -3.158022732942273453e-02 7.845385766162231433e-02 -2.159118341260260199e-01 2.266243757873060427e-01 2.461396978446388495e-01 1.063563016146352735e-01 -1.749679891053252945e-01 1.748171588483065642e-01
-3.954256442628437118e-02 1.401402274052078109e-02 -1.125710250246456101e-02 -5.594618723010796185e-03 2.174801593225257346e-01 -1.601493849986290741e-01 2.263255512433062777e-02 1.707440099573085124e-01 -3.058836062564226042e-03 -6.696935612006465685e-03 -1.064274627049735522e-01 -1.289969478053508700e-01 1.336963565579374069e-01 4.561543611542488025e-02 3.032962229659832976e-03 -2.209754011253844130e-01 -1.629855247558398279e-02 -6.612080292363770040e-02 2.134908130843033713e-01 -2.074331348223403815e-01 9.083625515191295907e-02 -7.172413895728264877e-02 1.431996882156736928e-01 -8.141079165261095457e-03 1.193919518306879174e-01 -2.137699506981905473e-01 5.769871187775051091e-02 2.795441933884656310e-02 1.406453507453407914e-01 -1.130113834213831853e-01 -1.771024430724428556e-02 -7.535935496777694531e-02 -4.812076868961404769e-02 -3.131168446766292163e-02 -8.948168872560358089e-02 3.744987317301172736e-01 1.007189996347340050e-01 1.339663146763398482e-01 6.181447463243060908e-02 -8.261529598464667501e-02 -2.064279734503709010e-02 2.533842466391326154e-01 6.760271558543833048e-02 2.171524569574416197e-01 -3.472237241049228040e-02 -8.305162432531970618e-02 -4.159540236933913920e-02 -2.039677872576319273e-01 1.799008830381932933e-01 1.609121686105632332e-01 9.358090142808840606e-02 -9.030093778664437243e-02 1.093989900448728431e-01 7.105292627806243655e-02 -7.481579866083551585e-03 2.771902364417849762e-01 3.813253309799611440e-02 -9.992627613216388538e-02 -1.679794377197379174e-01 -5.893483964410613229e-02 -1.009104524863071589e-01 -6.343530069572078656e-02 -1.981127930103551427e-01 1.364748551537827703e-01 4.855282734211088802e-02 -1.239242118909126417e-01 9.050061750343109390e-02 2.906499811948771717e-01 3.652629547698926088e-02 1.478457439889128422e-01 2.124068461306636429e-02 7.179162850157456977e-02 1.115459555128397590e-01 -1.513395138897260517e-01 -4.357506404672743805e-02 1.016036510035990686e-01 -5.141832845966987781e-02 -4.024077758057800595e-03 1.595168007833884516e-01 -3.371268718484881494e-02 -1.892879617927495928e-01 -1.299398862206230937e-02 -8.601170527243418018e-02 -1.330709536765245782e-01 7.727502696512014713e-02 1.778814183899967566e-02
-8.457352386000725752e-02 -5.111815045730484508e-01 -9.529002633981385750e-02 1.754251383616416693e-01 -2.078579530964718911e-02 -6.856881740931997093e-02 1.601225776842926662e-02 -9.018966365567984700e-02 4.514319542697395327e-02 3.858057550861950652e-02 -2.095098847116348695e-01 1.927595387699964464e-04 3.407269354435837200e-02 -2.440093200329658263e-01 1.078623112819630941e-01 6.596836993124320647e-02 1.402619759637870056e-01 -1.122012663149209583e-01 2.352257424639958572e-02 1.584101171456724425e-02 -1.027353189939515798e-01 -9.524525947403666981e-02 -2.501349364254069618e-01 -7.238676426172646616e-02 3.682313187816719634e-03 -8.293724131618093742e-02 2.386081913083655526e-02 -7.038590359904466076e-02 -7.506575316374372586e-02 -2.438606716513077449e-03 7.076389490364008716e-02 8.113510443135807382e-02 3.353580434290666379e-02 -8.589565290512407580e-02 6.442230538646646909e-02 1.231496268626935398e-01 3.301481194290765975e-02 -4.022731968444176465e-02 8.626435850150135365e-02 4.787702249546054584e-02 -3.199275881014834177e-01 1.519962549213044467e-01 -1.912331942582131961e-01 1.791426600301803951e-01 -1.060809408281695315e-01 1.120868815301077071e-01 -3.589599293628512738e-02 -9.044864912770270160e-02 -1.159284134476624706e-01 2.320306104226023680e-01 2.477432391683662138e-01 -3.839083709196552258e-02 1.485912566827156389e-01 -8.580765904302560532e-02 2.424855773242701271e-03 4.036032638391535698e-01 5.718415471818544260e-02 6.139116660601530440e-02 -2.176178111866928500e-01 1.501039061404730868e-01 3.262181652672488941e-01 7.266063206074593883e-02 -1.895981526012901486e-01 2.886843301113163340e-01 1.138921936790967815e-01 -1.610235076472365384e-02 2.380462698334844321e-02 1.899920290294176417e-01 -1.471224691198226228e-02 -3.856995258145083649e-02 -1.707723077618920338e-01 1.152391955788489020e-01 -1.829933924134803380e-01 9.758448556795605577e-02 4.760091471811565139e-02 9.228426984885140794e-02 -8.802005097322217197e-02 3.084706411620460539e-02 -5.017674029149087056e-02 -1.123664004437529423e-01 7.112837967687556107e-02 1.752471670478950860e-01 5.867825411843168304e-01 2.117771622442964630e-01 9.410462662559350433e-02 -1.583024522494282382e-01
-1.336085318538370870e-01 1.187729301593225123e-01 -9.591623516700401031e-02 4.601746633845326118e-01 3.041247894374150482e-02 1.396863505148803197e-01 1.763097887195918534e-01 4.852265360022222501e-02 5.023190085584323256e-02 -2.070613823900259096e-02 6.089124001457650592e-02 3.975667415925034781e-02 -2.216767073333354710e-01 -1.486831602290625796e-02 6.127674423472069531e-02 -1.823216704928787638e-02 6.250268605239721331e-02 -3.599370670111251558e-02 -5.610571427821162138e-02 -1.025957873302825452e-01 7.345147068059885986e-02 -1.391506060170802639e-01 -1.544152349752783426e-01 1.899113668085529727e-01 2.142346654951632068e-01 -1.694908169985963331e-01 1.798704555353198287e-01 -2.114382908455566396e-02 -4.542756361567776811e-03 3.816688151036327220e-02 1.077721476584393573e-01 -1.234267936080928191e-01 6.185347617135854986e-02 -1.904286846004077938e-01 6.044639532818385508e-02 3.008756356946767352e-01 4.995203171566207781e-04 3.963176794019748067e-02 3.655496412202640516e-02 -1.560470288195016098e-01 1.627891088080243853e-01 2.857934278672264461e-01 6.996994695309474710e-02 2.256892775084228669e-02 -6.531746075554296926e-02 -1.410565550920790390e-01 1.645105837011463790e-01 7.990311654908627270e-02 -8.865679040953040879e-02 -1.787963766934367593e-01 -2.594556127797131850e-01 -1.780156802216674439e-01 3.215031091715064154e-02 2.673866287074796455e-01 -5.847634448569882099e-02 3.702433863394869601e-02 1.861417764990925539e-01 1.228357933869204076e-02 -4.569455158428211566e-02 -1.308264947050455651e-01 -2.230857861114023954e-01 4.155793414289318116e-02 4.858222140264222000e-02 1.656563865398202051e-01 -2.142556668757081935e-04 6.714224991445208457e-02 -7.848005530008109187e-02 -1.209271008717014845e-01 2.384697710918019797e-01 -1.072935470175238881e-01 -2.958244311608061033e-02 -1.218287453720308111e-01 4.567783092265537831e-02 9.851761885051818490e-02 -1.146056753668506373e-01 -7.143640428499792305e-02 1.173785749752091628e-01 5.266499299425160541e-02 -7.790847757360566672e-02 6.001449206213763793e-03 -3.948107311809422315e-01 -1.685267554666754208e-01 -6.909314493601042585e-03 5.930672109283467719e-02 2.913857333128812288e-02 -1.055659332891277918e-01
-1.457278450656876723e-01 1.560074795583593410e+00 -1.853829499468710174e-01 1.078458690638148587e+00 6.422776958887208010e-02 -1.388017946979851203e-01 -2.179368027141772024e-01 -7.282880571108737988e-02 -7.433977166956898253e-02 -3.814210671437666678e-01 -3.814827315230726601e-01 -3.236236439675435617e-02 -1.238571103472762669e+00 -1.209544885223061556e-01 -5.142915059864675564e-01 -5.521707324712084031e-01 -8.519166969583954682e-03 -5.164163256539784363e-01 3.164323430549063620e-01 9.119418865854049538e-02 2.793258175461531545e-01 3.155979664460671352e-01 -4.196340724318291526e-01 3.741275717756631543e-03 1.247867685314096725e-01 1.440079504431030222e-01 1.800097053027649718e-01 -1.094637309892795701e-01 1.330218373369573305e-02 7.743941804831565578e-01 -1.753288192366327658e-01 -2.239510108855071735e-01 -1.524241162749775391e-01 -8.470100791456184330e-01 -1.407467147179565503e-01 3.411256967578670807e-01 -1.852355706385489312e-02 -1.441752318740756045e-01 -6.999895941348042994e-02 -7.781522790633008113e-02 -2.151717849118691961e-01 1.206880391109201867e-01 5.006337181519276980e-02 -1.038374702898635205e+00 -8.280268294333446855e-02 1.888577316539921669e-01 -5.575216488154079997e-01 1.766396008850383392e+00 -1.245266627154075323e+00 -3.961277861365413155e-01 -4.049975890193909245e-01 -1.704835638837293443e-01 3.356500101587433504e-01 9.172043908763154452e-01 8.585164448569139461e-02 -2.034069557216214297e-01 -4.097196159831335838e-02 -9.242521269939373008e-02 -2.837196998580134855e-01 4.280098886415783371e-02 1.627825185065961966e-01 1.629826746803934023e-01 6.523905050707614521e-04 2.358067887570576282e-01 -8.766296265136224175e-01 -2.024561918149512807e-01 1.795486224722907809e-01 -8.859221021495933268e-01 -1.187550446363720535e+00 4.140763720592596231e-01 1.449092869856123955e-01 -1.041637221360365295e-01 6.699127585283508324e-02 1.610789920338464437e-02 -1.971428041773088113e-01 1.205716993948985766e-01 1.025867660574896201e-01 -4.548864843392710217e-02 -1.030819298761423281e-01 -2.889445374580872916e-01 2.113345453319926681e-01 -8.092401898473391975e-02 -7.724639485156606922e-01 -4.967082601134942960e-02 -1.401050401319464955e-01 7.768190932344892774e-02
1.760031415349882014e-02 -8.630874233478486035e-02 -4.317247443133886281e-02 9.273458468646740560e-02 -2.223905781376245283e-01 7.529686906260696366e-02 1.743338099154884968e-01 2.729679333801726671e-01 -1.987581553420500746e-01 -1.016872391009466525e-01 1.620818201603474451e-02 3.711791086245597171e-02 1.907371866685826645e-01 -2.925771949387147644e-02 1.799673694316131570e-02 1.465967329577133604e-01 -5.082795877175075305e-02 7.879877111186843475e-02 -2.815200084971507533e-01 -9.217964653669542818e-02 -7.391038754265400954e-03 -1.301303317708301932e-01 1.469508692181727694e-01 1.146482441880927183e-01 1.055533429500420395e-01 -2.646160587729629032e-02 -2.869678982807995493e-01 5.565695699918434686e-02 -1.694446375028770269e-01 1.914549414234173186e-01 -3.103075959984687160e-02 -1.053326026319814923e-01 2.316558375435203224e-02 1.303199340666504891e-01 -1.945775123909804921e-02 1.921626167496660875e-02 4.553687326878817082e-02 1.632453736022486945e-01 3.252818310974554122e-02 1.832652694628119638e-01 1.125013204625580944e-02 1.861183169271962146e-01 5.668737044725712104e-02 6.937971425616780430e-02 -2.507473984881928852e-01 -4.035392059064765030e-02 -7.074873231734817025e-02 -1.232865444567702723e-01 2.960986252444096634e-01 1.561855777960151903e-01 -5.275554292712674592e-02 -1.092434980878608242e-01 -6.119891180095073102e-02 -5.034441632860661014e-02 -4.969928331498695007e-02 9.895714358764878815e-02 4.242908806907213365e-02 -2.231948465857933744e-02 2.645386167926370713e-01 1.991761459480873367e-02 1.371254785911687757e-01 -5.629400585261030987e-02 -7.534866176021089157e-02 -4.499681906189353930e-02 1.266742158691055720e-01 -4.764818401881415477e-02 1.334612519880499504e-01 2.130158393520854843e-01 5.959238943990512877e-04 -9.197729205287769050e-02 -4.036053868834996866e-02 -2.819812723010079250e-02 1.734234452115284153e-01 -4.345419315435446531e-03 4.267233425875580771e-02 -1.452295936066663462e-01 1.244700518409116302e-02 -5.360804048390416070e-03 -2.177760426085794190e-02 2.140333012472135921e-01 -1.496815199646170658e-01 -1.084360344538350951e-01 2.669211550482540329e-01 -6.559575587411738129e-02 1.860026308538502079e-02 -3.690917297279887321e-02
-1.973684789709016785e-01 -8.435549440096308527e-02 6.584914821277275399e-02 1.571589877527118650e-01 1.214804196741466336e-01 -1.101227817071605275e-01 1.191755207807302791e-01 1.957366356436185395e-01 -4.185478736070138289e-02 9.699475204463267608e-02 5.296760013358536856e-02 -1.199006258310089806e-01 3.016642372230087243e-01 -7.454102024384229308e-02 -5.269495060366236744e-02 -2.331220931496026313e-02 -1.470836223800053855e-01 6.173784789429243025e-02 -2.688393223130793389e-02 2.343290195501697339e-03 -1.179660366557229584e-01 8.557998873496517125e-03 8.677475217864111245e-02 2.130186762847668669e-01 1.648935519642490966e-01 1.683477776366234524e-01 2.077007082590471565e-01 -7.223875867166796097e-03 2.142900234197100268e-02 -5.344877622862903577e-02 9.890597681753190984e-02 -8.929036486591362953e-02 -1.818641946802399545e-01 1.982287096111531033e-01 -4.501794603170553022e-02 1.983870713319437484e-01 4.436959765117153703e-02 -1.480276328029040134e-01 -2.661763232801998558e-01 -1.685248572771795572e-02 2.560234314461907329e-02 -8.098263753272468002e-02 -6.585205082026816814e-02 -1.244915178634002084e-01 -6.193418953894472279e-02 -3.396573094136019072e-02 1.743978095598230221e-02 3.125322440535242552e-01 2.815677342346835643e-01 4.187963992637586119e-01 -2.059981658595382015e-01 -2.418558173731372440e-01 -2.329202441592203437e-02 -2.781929887061099782e-01 -5.647304230837871253e-02 1.779287057852501630e-01 7.438688641039413463e-02 1.312901287599705369e-01 -7.292219961129350891e-02 1.375257026746738720e-01 3.888448012313531349e-02 1.497013597256957596e-01 -5.882521601124268348e-03 -2.241055180666528812e-01 -1.823463483017159423e-02 -2.124592691726718413e-02 -2.434075584858886449e-02 2.960437075635276583e-01 -1.529786347070095920e-01 -1.446713247093013022e-01 1.124652607813253213e-01 5.799218965106554650e-03 -5.812083138107006219e-02 1.107855517098026293e-01 -3.014432201142698900e-02 4.007587647293522903e-02 -1.083549883343967457e-01 -2.484839546265022944e-02 -9.733674522856358355e-03 2.812946706508966457e-02 4.400971586946295783e-02 1.141039239868690408e-01 1.942224599041167954e-01 1.595199861627392690e-01 -6.936666237658344059e-02 4.955845592214695033e-02
6.606389584560544426e-02 1.320497765194619810e-01 -4.245513244439063499e-02 7.166744474432758250e-02 1.623416123393501415e-02 -5.375603593216511655e-02 3.408381293907288695e-02 3.949958003287519226e-01 1.954868534840415728e-01 1.138396621292400990e-01 7.946119393893597005e-02 -1.036536369173556571e-01 1.832788506029250364e-01 -2.895266953662090081e-02 -8.960725406698397122e-02 1.054943405572744686e-02 3.485113967107395655e-02 -8.251463950501278233e-02 -6.588059172494341309e-02 7.958552243305594409e-02 3.027151350581416128e-02 -1.931401739425022551e-02 7.515269946141513169e-02 -4.983504429790336365e-02 -7.613467940730458960e-02 5.143237412044007750e-02 -1.429113540115670711e-01 -2.010782268585877830e-01 -4.830467022220542167e-02 1.242455639878721346e-01 5.908607714422974000e-02 1.064727238055618863e-01 4.471710897334780360e-02 1.512905353496609151e-01 5.496283781421007486e-02 9.650118638472514332e-02 -4.395772950361190312e-02 -1.037742305259025943e-01 8.895362150433602788e-02 1.005041992483217059e-02 7.103396020763984298e-02 1.774180952869906236e-01 1.910395696341473382e-01 2.347626165898732409e-01 1.870991920042369000e-02 -2.250884179486344339e-01 5.647696588985619617e-03 -6.688613266307914806e-02 3.042415676254874857e-01 1.530965334392884458e-01 2.180167253563321597e-02 -1.249881726149696115e-01 -1.411993790979586549e-01 5.878041642226536356e-02 3.764270574813876474e-02 -7.479553651663717329e-02 1.134704254727652989e-01 -2.091858327676468232e-01 -9.301481905667809136e-02 9.727731124772477644e-02 -2.964060148830188757e-02 3.515743139702428438e-02 -9.873251456381915148e-02 -1.617573098822094532e-02 -2.239395091804081417e-01 -7.859834569353627010e-02 -1.531810274992572718e-01 1.448736708368870973e-01 -1.608241613240769807e-01 -1.383321438830399375e-01 8.033138772537590233e-02 -1.259509953819969441e-01 6.483644397222418365e-02 1.768026627438894771e-01 -1.581197005755034368e-03 -1.578912662543403012e-01 -7.550797014188893874e-02 -7.062524944496677282e-02 4.384564130097715756e-02 1.843364699294426992e-02 9.421599356818284587e-02 6.190720034035507996e-02 1.080476690216198785e-02 3.909718405951952830e-02 1.812916948321682820e-01 1.018315456578853806e-01
-3.125654863406197859e-02 1.268030044296494796e-01 5.199261075230319357e-02 2.524466482111977217e-01 4.939490857138979091e-02 -8.994303124881196376e-02 -7.219689356626089738e-02 2.579745007414008806e-01 1.902755649448292230e-01 -5.553999826611872442e-02 -6.601985803125344499e-02 -9.920688449456804836e-02 2.048962573104535223e-01 -2.170907424195690216e-01 -2.696475269679390885e-01 7.345624785220586372e-02 -7.773052601227109504e-02 1.819723937254581758e-02 -5.944634022227572590e-02 5.328798429314338808e-02 -7.729105671242354758e-02 -1.681923351045815085e-01 -9.006051328329577055e-02 1.772989998143807144e-01 -2.051201559040546213e-02 -1.180369295036342303e-01 1.702141669319698000e-02 5.049947217800111743e-02 1.262461518065511046e-01 2.123196231827232106e-01 -7.293822641335502566e-02 1.094026455526203173e-01 6.941215581027565529e-02 1.561272944709233834e-01 -2.608612065484962675e-02 4.191160649066785759e-02 -1.169205242557501412e-02 -4.910563831241273464e-02 -1.072887129054655442e-01 4.075104305171224628e-02 -7.816250249559068830e-02 1.776925147168494923e-01 2.621207122551143590e-02 1.405334946377173877e-01 -8.521172958950946896e-02 -7.535938614913732791e-02 1.923095044779909168e-01 3.781551435633059843e-02 1.094662435850763393e-01 3.093490986412663069e-01 2.524789023568943525e-01 -1.542827534310770299e-01 1.230701015347234889e-01 6.101316767364761001e-02 -6.258033042990408801e-02 1.292620522982743936e-01 -2.396052979274848616e-01 -1.544804702476944847e-01 -1.045730828763303533e-01 7.934017959972637646e-02 3.227666493666379588e-01 3.395953512875871105e-02 1.630404340339260960e-01 -2.309601369376521607e-01 6.752094505047268047e-02 8.061266788522652993e-02 4.392872840106191307e-02 8.670630304664143917e-02 -7.091293534258760745e-02 -1.465396652319155280e-01 -5.143479525567010852e-02 -6.791134999154690988e-02 8.112635799443231044e-02 1.704900527764666163e-02 -5.540581726276527785e-02 -4.331044287467237554e-03 9.509162493044887032e-02 7.043786237669712180e-02 6.082096056708001519e-02 -1.824276566696577395e-01 -2.936891088266761068e-02 6.802081505297376263e-02 -6.262896578815278781e-02 1.226794851624734839e-01 -1.303443591433321447e-01 -4.395488834446290016e-02
-1.401833043935799272e-01 -9.166202138215542861e-02 4.735118858144523463e-02 2.656063736828405686e-01 -2.313571130923028699e-02 4.483264956570722631e-03 -7.887122941681649901e-02 3.452580668579400824e-01 -4.360047733147628252e-03 1.754124879713431506e-01 6.036897923053727300e-02 -2.028113880563261195e-01 6.777482776863613667e-02 -1.409990797901167492e-01 -1.327601340719583300e-01 5.787113632273200442e-02 -4.806840393727718208e-02 5.312558946911112578e-02 -1.636601985842437157e-01 -1.155779644083137214e-01 1.040077843064327393e-02 -1.593683388975351140e-02 5.707298073498338030e-03 -1.174351871700066441e-01 2.240069635317580143e-03 -6.954395525497611419e-02 -8.206707876364742471e-02 9.219348042245775754e-02 -1.125592090207818696e-01 1.884798288831743551e-01 -4.424696637276724631e-02 8.360598114672877779e-02 -8.921042371644140323e-02 2.570425987781622124e-01 1.338880257485505487e-01 -4.218236761245607036e-02 -2.971970919357797003e-02 -1.332722020227075366e-01 -1.659649378737434178e-01 7.945976276608211764e-02 7.925442790125658554e-02 2.417074798601347718e-01 -8.954387696217912251e-02 1.383015090764117827e-01 1.102284688269010854e-01 1.867228419743289028e-02 8.406307485766627285e-02 3.064923223793543650e-01 3.095942027889772574e-01 2.937456979984249261e-01 -4.376364166418050122e-02 -2.301897047746127301e-01 -1.136398265805849996e-02 1.631545612179714499e-01 1.909511561933620316e-02 -1.100814058388506905e-01 -4.484321363282346012e-02 -1.268796153888804637e-02 1.464637578038844277e-02 -1.661094053823528871e-01 1.426191914759226409e-01 5.954590293682401891e-02 1.347083002618458536e-01 -5.601181782357644162e-02 -1.475459506824287614e-01 5.390385073496673299e-03 1.068508588596286668e-01 -5.110852269924371499e-02 -3.899823575765639649e-01 -1.331211212006689903e-01 2.913689217469338580e-02 -9.134264667401297000e-03 8.878600471851909315e-02 1.341546359658444230e-02 -1.199955310448394680e-01 -1.552184831584172420e-01 7.525399072740721063e-02 1.008976779471566949e-02 4.264552386803078382e-02 4.407965697269134592e-02 1.048391443250387342e-02 -3.123085173361729930e-02 1.065285445600666209e-01 7.733572086408302404e-02 -1.744202547525570968e-02 8.690635266888738913e-03
2.149965665986535227e-02 -2.175480750063873148e-01 9.854876108491805731e-02 1.963026229471495632e-01 -1.463174362833704889e-01 1.523271213845395766e-01 1.063805355848308591e-02 2.221524439950459118e-01 1.072742517313721167e-01 -5.774991099352266843e-02 1.281080115286057086e-01 -1.201428775376504610e-01 9.201326501137693792e-02 -7.318728240798032247e-02 8.516455465540005709e-02 1.126064310872752217e-01 -2.227234759049106783e-01 7.083632713139031978e-02 -1.334169839666990987e-01 7.154881775510994746e-02 -5.126641266449690620e-02 -6.276169616829334330e-02 -2.124150730543862206e-02 1.292700050768455233e-01 2.358588158563975322e-03 5.168412326406440077e-02 -2.793918818374735435e-01 9.725087697778614718e-03 3.848145586094436216e-02 1.994207906913997019e-01 6.054393302130200993e-02 9.909503976482632315e-02 1.244031887198307068e-01 7.247343519331848893e-02 -1.913145642413479341e-01 -1.532012285517782291e-01 -1.625850585897827827e-01 1.950291641409423668e-02 -1.276168696122771153e-02 8.146076127994457405e-02 -4.324890124860745338e-02 -4.470120460982022342e-02 5.563651416481312645e-02 1.028816636920685951e-01 -6.971116195833754192e-02 9.505922373399372169e-03 1.680228503625789405e-01 2.214442641162837067e-01 -2.281268774917847436e-02 1.898121933593962252e-01 -2.150246985972153746e-01 -1.796952327425324070e-01 2.728345512523289162e-02 -2.218084964614533416e-02 -1.153437447510598651e-01 2.571634499124466136e-02 -5.109742552426020656e-02 -4.936360392690095078e-02 -9.819313801950017850e-02 -1.751465459965543398e-02 6.389648705413970842e-02 -2.162758719357432413e-01 3.227620739654804560e-02 2.298420901434136340e-02 1.114921950935790218e-01 3.417935735291036808e-02 -7.292380940869599981e-02 7.646348489853736774e-02 -1.569553595027153026e-01 1.551534090609539562e-01 4.478974270983569067e-02 -9.793553787792179388e-02 1.168652286054274875e-01 -2.975267571453413598e-02 2.044703615047752665e-01 -1.359126966814889481e-01 -2.796880347272040490e-02 7.299842613388419880e-03 9.045291106750166787e-02 1.383245723222239487e-01 -3.796535573921416135e-02 -9.231963254358950544e-02 -1.055393811085452022e-01 -1.681019688030931936e-01 -9.486738926378877890e-02 -5.603535618015298425e-02
3.870153982414855504e-02 2.356871013078436911e-02 3.098475632713033889e-02 5.611839991113599935e-02 1.831188481792225473e-02 -8.205410752938714636e-02 1.539622058392864368e-01 3.451308690702424298e-01 4.729108468603562820e-02 -2.443554472183808932e-02 -4.737782064530710047e-02 1.252076064436558889e-01 8.812603553518928712e-02 -6.582908838154051534e-02 -1.321555970100030397e-01 -1.021111607671740251e-01 -1.660200460218274887e-01 1.885226945075779703e-01 6.084255570851612727e-02 -7.081221494405148809e-02 2.592399804647799524e-02 -8.530055719774082279e-03 5.582575180595510111e-02 -3.676094502513399531e-02 -6.929607782421157158e-02 1.156509150273165726e-01 6.761148250284786110e-02 5.769558933986538435e-02 -1.156440862409838927e-01 2.389417129843965093e-01 5.317373781263500659e-02 7.562663631920769902e-02 -9.315783622902840122e-02 2.537875032746279014e-01 -1.489050476970069925e-01 1.240033145573889578e-01 1.039810671836227246e-01 2.015234308828071086e-01 -3.213330824919891082e-02 -6.575358792832265709e-02 1.219831345602120365e-01 1.537465940903455335e-02 4.422159611237787107e-03 6.243105825717669422e-02 -1.104841284957678721e-01 -4.776195113212146695e-03 1.637100314060100856e-02 1.315030338272206722e-01 2.436060413730541802e-02 -6.061300887507128921e-03 -5.473216559481616783e-02 -9.999919825824368780e-02 8.109464490626758226e-02 2.702626317724900196e-02 -2.402415169644669946e-01 -3.774277528406227988e-02 -8.068021367387264581e-03 1.529083743866822553e-01 5.220182541910659696e-02 1.901204849620730108e-01 8.457703843984766545e-02 2.743325665951373143e-02 -9.551408007416875567e-02 -2.564977319026597868e-01 -1.018358513475060984e-01 -5.569024115990448692e-02 -3.920012307160732762e-02 1.665547310161772099e-01 -1.140754619108769324e-01 6.047488624726381906e-02 1.416864937372857257e-02 -4.428262094456742598e-02 -5.478772767754058748e-02 -1.992486139589946456e-02 -1.079391379686470837e-02 -6.979327526980928960e-03 6.562875125769511431e-02 1.233248932027292133e-01 -9.709610500250306919e-02 9.092913123803197939e-02 -6.326279994443877175e-02 3.842237220635769807e-02 7.210123641586094201e-02 4.404444614080210707e-02 1.043505539807178945e-01 -1.422153185357215854e-01
-8.888967025222835328e-02 4.747377633955754406e-02 1.242748924504671754e-01 9.169284716768194565e-02 -1.286616134769189568e-01 -9.252527104581681483e-02 1.082013157252675467e-01 2.734951866521612707e-01 7.007266869385203600e-02 4.465009789285420694e-02 -1.100014104681522192e-01 -5.324692880621992308e-02 7.165535972448434932e-03 -4.179620141767809161e-02 -5.467524642803310575e-02 1.737189713514335210e-01 4.168500984001616283e-02 -4.474824991936337398e-02 2.360329007383044422e-02 6.605191126815661978e-03 -1.486866610334170447e-01 -6.749841703240090640e-02 -5.857714009203820321e-02 2.764621827090250616e-01 -2.063151636471968493e-03 -1.652419692337454837e-02 2.085160137770521172e-01 -5.728119979051538892e-03 -1.493433347847178960e-01 1.413674245514754957e-01 1.173024072014335062e-01 1.167684270322243006e-01 8.856346549470298091e-02 4.920112516498080513e-02 -6.707591288836239896e-02 6.515821405925877052e-02 1.119452532844139592e-02 -2.081686831163496176e-01 5.960998378308439427e-02 -1.867986816661291738e-01 2.899567434711650474e-02 5.971399747861567964e-02 -6.909286451175590538e-02 -2.645038942110717328e-01 -2.127659537173786503e-02 -7.357318854629668614e-02 1.084822839159320512e-01 1.537946685375749245e-01 -2.011944480601754459e-02 2.189636927184657189e-01 -1.071134722381009152e-02 -2.287622840019137016e-01 9.092020073532706970e-02 1.834405612081937420e-01 9.450251187224618932e-02 1.315839177725996734e-01 1.099794079353193232e-01 1.524336303934089309e-01 1.167651815022135720e-01 2.080695296299638064e-02 3.158759652847559912e-02 -2.262343838183683842e-01 -1.676857335887434186e-01 -8.307750689616304196e-02 -5.769600923393363584e-02 -7.437114776864344433e-03 -9.994934282860702679e-02 -8.716718589107243231e-02 -1.369555881894182758e-01 -8.535866063885578711e-03 -7.886618748294182968e-02 -9.949005399682575579e-02 -9.445010736066568324e-02 -4.314853782940865357e-02 1.319216306330306052e-02 5.771822855945757391e-02 -1.771322194453249510e-02 -1.018762180901923164e-01 -1.666029839199825724e-02 -1.976901075505144989e-01 2.603542676370469433e-01 1.182863160252281831e-01 -9.302251407919927273e-02 -6.015368015953725250e-02 -1.154980402407378495e-02 -8.250926551574731815e-02
5.617118486568198343e-02 2.253527081230491044e-02 -4.043648898990235413e-02 8.658151319383282363e-02 -7.087274177251233487e-02 7.536702356630027577e-02 3.488388018017220260e-02 2.152567798090570528e-01 8.219143378242442510e-02 -1.690361560993057163e-02 -7.990740470287960306e-02 -1.139886548412936823e-01 1.573653861191130487e-01 -3.113221612473651007e-02 -2.440755080478763661e-01 5.032301448852196518e-02 1.491762995416196641e-02 -2.191647076698656771e-01 1.255760443242160407e-01 8.232285297479173536e-02 -3.619414062089758299e-02 -1.349064761628991083e-01 -1.668069390661582885e-01 6.135237481024124334e-02 -1.178087029312100409e-01 4.229799403050244627e-02 -2.272849515949602051e-01 1.649127292546986173e-02 -3.423738767636805985e-02 2.593973160469912886e-01 -1.024318498571384212e-01 6.708553553145903126e-02 -1.314296132841705211e-01 1.655600310263919128e-01 -4.271603361539538790e-02 7.572521483545889553e-02 -1.345886789404101835e-01 7.551150925108886247e-02 3.117656861428487469e-02 8.606508580883444337e-03 4.495911715515718554e-02 3.600840497506603566e-02 1.241511188410908406e-01 8.095583445071517781e-02 -1.830434339547420686e-01 -2.625773058017872447e-02 -9.705695963161852652e-03 1.526764974238535300e-01 1.598795168297666158e-01 1.147093650575432694e-01 -4.672305782898696774e-02 9.911732891201366358e-02 -1.115021594555246076e-02 1.895608842536782301e-01 -5.418443210886068201e-02 -1.295092539554364430e-01 -4.600396852499254868e-02 8.681119553378929821e-02 -1.435028908968451478e-01 -1.033164775291367382e-01 2.028193518563918205e-02 -2.240642712444659498e-02 2.558035369899486766e-01 9.466532941021059411e-02 3.013751254464151069e-02 -1.553263921793424929e-01 -3.393851759756576214e-02 -6.476081465364895429e-02 -6.534731171084867674e-02 3.329524539990583870e-02 3.364246736319372738e-02 2.234490232833698797e-01 -9.270068793074123792e-02 -1.314921844974406735e-02 -1.918186229159041523e-01 -5.869055154731485369e-02 2.445859144663967699e-01 5.259322366230204104e-02 -2.063866694382696446e-02 1.052249057084078537e-01 -1.893794276706262103e-01 -1.151827316838674731e-01 -6.974382505995758638e-03 -1.848751130063342948e-02 -1.549431937678891202e-01 5.473359855446190136e-03
2.789475442963491522e-02 -1.008663141305120997e-01 -2.447484997597984893e-03 -1.257279108427241110e-01 -2.539379027743548511e-01 1.890726851135085887e-02 2.249941858170482253e-03 1.812231803522390827e-01 8.397908520337332705e-02 2.249284809513410824e-02 -2.336412738493418573e-01 -9.930751662114075187e-03 2.916280538967803287e-02 -1.050682084051142787e-02 1.139780206670807511e-02 -1.328118980577301378e-01 3.648098647008188311e-02 9.371566854542603964e-02 -5.362591391369939120e-02 4.578823573490815868e-02 1.489611353916659754e-02 2.560608629712243789e-02 -1.084000928613438747e-01 -9.245712039162249513e-03 1.270715954578438001e-01 6.404104713982460007e-02 -1.197830142019832567e-01 -1.176473154361082907e-01 -1.304282340271784024e-01 3.858498311084935239e-01 -1.433998099614120815e-02 2.284414588493795528e-01 4.044546392747346009e-02 7.951167132568850993e-02 -4.434414285726064791e-04 4.611255907647245772e-02 -9.899951789505351263e-02 2.446033915714007634e-01 -9.963265579160853619e-03 -1.252088466245269982e-01 4.569582201390236242e-02 1.266969620365360205e-01 -1.007539073185975131e-01 1.681135857515993481e-01 -1.667392678153704622e-01 -7.768038881535392973e-03 4.798397476724189370e-02 2.672852583570446972e-01 6.514260286113936205e-02 1.599090133912016154e-01 -1.146036781837794921e-01 -1.889383020369844179e-01 -1.540696491999827833e-01 -8.805166507218223360e-02 -1.735736988604840159e-01 -1.085793380136642651e-02 -1.770456224995271485e-02 1.707522324144988488e-02 1.739133410823062997e-01 -1.220117156931552760e-01 -1.336261631808924044e-01 2.547572089537202336e-02 -1.831933075428153201e-01 -6.855772214225352990e-02 -3.127262183964765740e-02 3.428329019190492349e-02 -4.256380132575954961e-02 2.540098348610687617e-01 2.210343107997884624e-02 -4.138902772776759803e-02 -3.650804501453357859e-02 -4.825328203923208437e-02 3.290161635020528164e-01 -1.459597633202832645e-01 -4.078525899046551127e-03 -2.787965204973759104e-01 4.791518988722597017e-02 1.877019761266131015e-01 -5.589180948740263277e-02 1.800680430351798977e-01 -1.035486010274582064e-01 -1.386908202382182431e-01 -9.507185439635537638e-02 -5.789363300492045283e-02 -6.386868676214647877e-02 -1.693948323523676025e-01
1.506643675176808361e-01 8.793926961083453619e-02 5.570664407713324384e-02 4.980393763979105298e-02 -1.459284526895176723e-02 -2.150861660625211572e-02 7.893666857596877418e-02 -2.113911401147120298e-02 3.960828397761312347e-02 1.586769174069976307e-01 -1.069661152379708102e-01 -4.090765732172581270e-02 -8.269319801208881160e-02 -1.107507788459603446e-02 -6.158605775941084631e-02 6.384381805536010202e-02 4.143125145473142146e-02 -7.257108518552092546e-02 5.139803256663396519e-02 -3.419166838322800633e-02 -1.238836612131937326e-01 -5.459230158813899864e-02 3.328302829091555060e-01 2.389742336418693436e-01 1.116129746510176185e-01 1.753899974606567269e-01 1.479219009665586754e-02 -5.313833944148108231e-03 -1.959378914787054116e-01 -1.447149897578799138e-02 -8.588500342229242468e-02 -2.063872012578121459e-02 -8.184170614119606890e-03 -7.283713037293249037e-02 -6.355402107311228233e-02 3.214006901050230069e-02 -1.390742487050098675e-01 -7.786851579169762338e-02 -3.888937531698141714e-02 -1.462650482384872663e-01 -1.888756077445281206e-02 -3.962407092714193696e-02 1.235382643752316878e-01 -3.003080214532706516e-02 -1.096490301597877193e-01 1.063932263711560577e-01 1.098639515264778349e-01 -6.299795668726486386e-02 9.265180762950023241e-02 -2.939310163950932531e-02 -1.055201109897214856e-01 -1.421066432822069570e-01 3.080531880521860180e-02 -1.285166110567357300e-01 -6.332173537196342239e-02 -5.391593666928929524e-02 3.217415353167706049e-02 3.786278781682256289e-02 5.337921248883621683e-02 -2.863182808100257076e-02 1.170963295548204872e-02 5.610215183414953705e-02 5.625934147620184622e-02 -1.695129320133578199e-01 8.395624714683672107e-02 1.301834449873535415e-01 -1.664802908881795329e-01 9.986139814512364453e-04 -1.492722325616731294e-01 1.116100687841013878e-01 1.135653634380308086e-01 -9.584886321684898958e-02 -1.640533803388404266e-01 1.131305866017403156e-01 -1.074092060248205277e-01 -1.326966076382976312e-01 -1.824716408287126168e-02 -6.838966733980726687e-02 -1.703312206591786893e-01 2.061720205737492886e-02 -2.813875467809854453e-02 9.415502287122271344e-03 -1.821028998761596851e-01 -9.174613908733895984e-02 -2.121445923948459336e-02 7.329031840047876833e-02
8.837622501841363443e-02 1.076564392005123355e-01 4.159679454273838561e-01 4.994741413908931893e-02 -4.709569542259945951e-01 1.008367221287042315e-01 1.003084373414723646e-01 8.349003954475250344e-01 8.604864885346771852e-02 -5.182763170899312016e-02 -1.724583704666436332e-02 7.361730199471221148e-02 -9.639698546676879476e-02 6.173735330744316990e-02 -7.428970467710541148e-02 1.882774387815002448e-01 1.671203868116676317e-01 -2.439630703459274019e-01 -2.885056168837302759e-01 3.163200100898741485e-02 -1.943179302782363504e-01 -2.374464648203045980e-01 -1.849960220576851722e-01 2.151277817177769669e-01 2.200526589419739970e-02 1.558101917461583719e-01 5.348596677199932148e-03 -7.663087488117509283e-02 -5.311242395396998522e-02 2.280505902880313462e-01 8.868722046001961679e-02 -1.955601703878205311e-01 -1.583420217062402047e-01 -2.646677405305261632e-02 2.802961777696161890e-03 -1.488032774073887454e-01 -9.286511390185926695e-02 -6.439401571242364675e-02 1.164874455014518473e-01 -1.198212404937748360e-01 -4.365701402991745161e-04 -2.675956493830659033e-01 -6.211926221156545413e-02 -1.828250784246568672e-01 -1.612255357951933588e-01 6.664628097965349940e-02 -6.073442313751171301e-02 6.006861126003543161e-01 4.680727297950976196e-01 1.501477357858411465e-01 -3.595648858363464928e-01 -6.100204664090791602e-03 -1.520388900778053276e-01 1.471245114670805820e-01 1.624492983885785511e-03 -3.428774878124223879e-01 -8.377577357952631365e-02 -7.968741488676422957e-02 2.250880016844589993e-01 -1.436246913711211881e-01 3.129047304508049410e-02 -5.526191046588744410e-02 2.881215485223632966e-02 2.058112634428216903e-01 1.269710889556492084e-01 3.733401323900327473e-02 -1.865149785723679288e-01 3.607054837505923595e-01 -3.849020738217762694e-01 1.288653052071619953e-01 -6.664957187766277027e-05 1.587834712910660973e-01 9.089941961886313648e-02 5.244474398005841143e-02 -1.255953092477836083e-02 -1.421539418280585165e-01 -1.586423705847822899e-02 9.697741007053325979e-02 -1.615640300726115253e-01 1.389660903586942796e-02 2.764495891037233033e-01 -3.577237209509401827e-01 -2.283519613016989636e-01 -1.762555290609332526e-01 7.129671096098638347e-03 -2.896568382218747684e-01
-6.867677750726686181e-02 -1.406352732975088560e-01 -5.377613575032308413e-02 3.159229404210048830e-01 -1.398575214362159924e-01 -2.538876061035770515e-02 -6.062969931313393068e-02 2.987774380966873311e-01 -1.014934916664286257e-01 -2.141867428535103313e-02 1.924444949963897422e-01 1.096879142986969952e-01 9.790833686836247773e-02 -8.553204640583203511e-02 -1.148183227714731081e-01 2.928284495721873437e-01 -1.246989676111392720e-01 2.369549012543492872e-01 -2.550584132837941387e-01 -3.053784799820046664e-02 -2.376596662770914248e-01 1.024403717337503926e-02 -8.871946665830596213e-02 1.917697611929443380e-01 1.020231768050731680e-01 6.357869674592317444e-02 7.133150574125808087e-03 -1.092938074384172120e-01 5.197731254455179029e-02 4.907875176292755270e-01 -1.948272952268376851e-02 -6.779047521566695933e-02 -1.965317175186097332e-01 1.288549572888415540e-01 -2.184628498829954690e-01 1.223944645995959750e-02 7.761958870660075338e-02 -7.068879525217727777e-02 4.302887443150489599e-02 9.513700948600172305e-03 -6.988733851389220854e-03 6.605804002513995798e-02 -4.405663297696624237e-02 5.597721459757364765e-02 -2.528222566145833516e-01 6.010399194604831852e-02 6.539454440624266340e-02 -1.249421308126748287e-01 -1.385987269439805936e-01 -3.329984145065620349e-02 4.538803514127894706e-02 -2.025757640490541411e-01 -1.481202776839439864e-02 -2.511309258651996390e-01 9.087771928495290419e-02 1.779835961457642834e-01 -2.413221744965042548e-01 1.187172754497489158e-01 -1.099855513609783036e-01 -1.774853811750937427e-01 -9.752238611973716720e-02 7.327751210079926081e-02 1.714262226248040519e-02 -3.313357916359919997e-02 1.246277191054527833e-01 3.291734931597442571e-02 2.124064602394055701e-01 2.966887366833676487e-01 -2.685933674636458157e-01 1.354208993986708021e-01 5.671280812503784463e-02 7.487833229412106661e-02 1.018793483365322897e-02 -1.899406983301571081e-02 8.754703428434063017e-02 -8.555238797838395082e-02 1.268325271903886220e-01 1.168985687353780029e-01 -7.298991407140821563e-02 -2.237650460308584100e-03 1.681179857121889443e-01 5.646294503060401981e-02 7.133189329147468505e-02 7.529958290247153185e-02 7.936605624115490587e-02 3.612851047553443384e-02
1.143923127378721066e-01 2.283344071091481797e-01 7.429790498336019677e-02 1.720051999067812379e-02 -2.988736836062226843e-01 1.824261549790807263e-02 1.227060116564040841e-02 3.615180733390699341e-01 1.149741329983624133e-01 -8.561186929598059436e-02 -1.501615742060655456e-01 -7.701577477481043321e-02 -1.776565692682144371e-02 1.480570982552022463e-01 -1.927122858391932259e-01 -2.153631826460812859e-01 -1.607866185808149440e-01 -2.205063249547432325e-01 6.098487157246102602e-02 -4.578313256398787445e-02 -7.479213262400745410e-02 -2.100245448362042244e-01 -2.057792805211011711e-01 2.053164473344775420e-01 8.987885072832768607e-02 1.130679775238387780e-01 -2.578722121730024908e-01 1.612729497887417096e-01 1.163136775400948897e-01 6.056112564046087776e-01 -1.229473426828124605e-01 2.535064654271245929e-02 -1.668351681704283163e-02 5.857309172823587512e-02 -2.088775904585890297e-01 2.058293875294437969e-01 1.124324129463528943e-02 -8.432701272532713843e-02 6.430455197693813428e-03 5.738803319575902506e-01 -2.494355010776706100e-02 1.563837353092264459e-01 -7.460473389653153597e-02 -4.290055254394391226e-02 -3.056001519203500605e-01 1.793067071595951523e-01 -4.127336697642212948e-02 9.388801481689645900e-02 1.901790005549807705e-01 2.897282335938232700e-01 -6.499744037875473945e-02 -1.693283386004670321e-01 6.587582722917106892e-02 -6.684685336616241758e-02 8.187613992549576392e-02 -2.192231476702689308e-01 -2.598044406651633387e-01 2.174926952203500366e-02 2.331835949808734043e-01 -2.015699972027691286e-02 3.213507675095182980e-01 -5.754780665094933606e-02 4.081356983380858561e-02 -9.539203652432218239e-02 5.835596083611434282e-02 2.200224544059391912e-02 -1.873100029609092165e-01 4.030247457464182226e-01 -3.372816484313367891e-01 -1.141702652108632782e-01 1.239914184527754898e-01 -9.112303167397298176e-02 5.982769268296068976e-02 -5.712533104224928882e-02 -1.366698878380307736e-01 9.254695719867690740e-02 1.717402174928139291e-01 -6.333979037181426686e-02 -2.185332087106469923e-01 1.555544453708013197e-01 -4.110008071682725861e-01 -4.812182699172364714e-02 -1.415506630829601875e-01 -3.104676091713313713e-01 -5.516104239205629756e-02 -8.711521073919575864e-02
-1.551545814893346420e-01 2.005832925497355312e-01 2.504048413155574720e-02 6.501513179646724316e-02 -2.627856885463782932e-01 -6.591154986323086162e-02 8.895276415113319290e-02 7.129724037823709226e-01 6.045912255759055415e-02 1.191591777021189097e-01 -1.594470224358974786e-01 -4.908426109491297040e-02 -2.214175421112466943e-02 -2.236113683322122903e-01 -2.635913650454086987e-01 2.883764721861271640e-01 1.274485120237440205e-01 -7.345779451652795222e-03 -1.342334217290125919e-01 1.967540362511387697e-01 -1.178355300038882864e-01 -7.258462800595062714e-02 -5.564843354196560288e-01 6.589319033145764337e-02 1.942021096592637941e-01 3.361772886077567246e-02 2.439507715283006084e-01 2.294881166255391403e-01 -1.734971435538100112e-02 5.917487352379194876e-01 -1.743216314645906206e-01 4.969788102062337731e-02 -1.510298967217408098e-02 -1.075112409706422273e-01 -3.489682708078993556e-02 3.130110206164099518e-02 -3.075148118755598528e-02 -7.093834040557252252e-02 -4.501998521547818065e-03 -1.637263896323868928e-01 1.812545949346645521e-02 -1.512551498349576085e-01 1.049077759786388037e-01 -1.466935291032216704e-01 -1.257411757818911735e-01 -9.996218715722217374e-02 -1.787055174406040337e-01 7.983024451995430759e-01 4.373083388893935636e-02 1.690866821961526933e-01 -3.904545473360473418e-01 -1.259977030111673335e-01 -9.598729528082819429e-02 2.111012620772846071e-01 -3.853157506419959549e-02 -1.785021620739348780e-01 -1.716071107315125799e-01 1.155207689933880622e-01 1.475631114797167354e-01 4.615083700347710240e-03 1.431690143885884503e-02 1.448272456178372747e-01 7.292746003206406619e-04 1.510183000806865350e-01 -3.064399577489432952e-02 5.770743907012908930e-02 2.015428531629419040e-01 -5.579493969674400450e-02 -3.174454107914625456e-01 2.136801198791478396e-01 -9.913359774624775841e-03 -9.927598303934068169e-02 -1.101956388347377080e-01 8.088528394448925296e-02 1.782565128807308552e-01 -4.250676083805341593e-02 -3.490243286162857117e-02 6.032256545565595901e-03 3.465714637586129326e-02 -2.344778898397847644e-01 1.455725254648697342e-01 1.479068201521301432e-02 -3.521951682375490944e-01 1.430083638473758356e-01 -1.845970847439799001e-01 1.664385983644535438e-02
2.379067502080357832e-02 5.931730786482576345e-01 3.804058216919595781e-01 5.762602989496143913e-01 -8.954910974634718857e-01 1.216173420563684549e-01 2.218082546377803943e-01 1.634410100135091026e+00 1.863146756475681509e-01 -4.468650317521015713e-01 -4.596369307450038910e-01 -1.144799771137785666e-01 3.084627686110725242e-01 -2.273136678512305275e-01 9.566009838444574503e-03 3.668661518986060521e-01 1.703445993299734229e-01 -2.269785736627919215e-01 -2.450297869365511416e-01 -2.841260378010455057e-01 -2.542163623550364737e-01 -7.067508858892213031e-02 -4.129996533922790092e-01 2.356611428055123969e-01 3.469296500720764898e-01 5.436369568181231154e-02 -5.569565427140180103e-02 -2.027897165834399024e-02 -6.690063003709292855e-02 1.746293987149391658e+00 1.128260955209879103e-02 -3.142194903826835833e-02 -1.758289538685414433e-01 1.726134155382507140e-01 -6.230554953316037176e-02 4.952507353997883666e-01 1.130823334278117098e-01 -1.943841876430753846e-01 -9.661638204422511034e-02 1.989354291858474455e-01 7.847154786259938342e-02 -2.585647605686012818e-01 -7.869699793080997541e-02 -3.845190317035385719e-01 -7.634564832316228511e-01 2.685791032232579534e-01 -4.218138778707627295e-02 1.438107517421318926e+00 6.808149174896376277e-01 6.930383611107816533e-01 -6.494482255005278315e-01 -6.078996846504743923e-01 -2.950933803860558147e-01 2.006396523239834251e-01 -6.155673475887406959e-02 -4.352657921215800640e-01 -5.752499755416512484e-01 -1.053001558019562162e-01 3.052744642720311430e-01 8.905438136781053393e-02 2.110081433895580894e-01 -1.662972531647366192e-01 5.768445794834865109e-03 -1.802497821009222123e-01 1.731334633792158129e-01 -5.096665416412101551e-02 -6.618762898430080588e-02 7.564653566615957558e-01 -1.278798531697570739e+00 2.433837077742853072e-01 5.423765216196468897e-02 -2.180034373735023900e-01 1.432606817875914547e-02 2.472361304802625503e-01 1.933099289206354210e-01 -3.596913364515920142e-01 -1.130580838083819206e-01 -8.490398478553332073e-02 -1.046256818446991699e-01 -3.228134241580707942e-01 1.987862565283971539e-01 -3.318946957413836940e-01 -8.047938908262952662e-01 -1.410189045546325071e-01 -2.467850972640066656e-02 -1.679200016901730985e-01
