-1.943045967743583791e-01 -9.123780915659571167e-02 2.177949679915008527e-02 3.847314697002308242e-02 -9.389815726777853144e-02 1.017811297408698773e-01 1.420255309623812412e-01 3.978131888757145684e-02 -5.914383455536605105e-02 1.116069626561002198e-01 7.552607444683687166e-02 8.643953056265669954e-02 -6.549047834521828926e-02 -2.834332212627370673e-01 2.118145722065350733e-01 -1.610885167363149406e-01
4.882266057863411451e-04 2.386673204036205698e-01 3.292261373552626824e-02 9.152882351469679434e-02 -1.503024915476364465e-01 -1.777630193675553694e-01 -5.145868659467817824e-02 1.084898679447850456e-01 -3.431566901525671953e-02 -7.644262352838630814e-02 2.132836866367117737e-02 1.043612709426913476e-01 -1.414343617295116262e-01 -1.225446716731177915e-01 -7.874407472823145848e-02 1.095577707557975899e-01
6.219580308536856728e-02 2.079287934775294056e-01 1.067684713862119827e-01 -2.745355683079935688e-02 1.261441620682113851e-01 2.123020490361839444e-02 -6.559589698027890048e-02 6.088177034381317410e-02 -6.949571143529745254e-02 1.421285438429543621e-02 1.277574315379745862e-01 5.026124897967556085e-03 -7.366245040494120988e-02 -2.867205369033593715e-02 1.010795817248415912e-01 -5.860919552818751044e-02
-1.571003907921298542e-02 -5.431564101230877684e-02 2.829914323300838572e-02 -3.869353086378327783e-02 -1.603046259095282644e-01 -8.866211792124463476e-02 -9.322233815627209430e-02 1.125643742273424730e-01 7.998992531346235668e-02 8.168970129242979217e-02 -4.524996985710084962e-02 -8.163135281597766468e-02 -3.769986830712503817e-02 -1.102367337184533558e-01 2.487143680598613016e-01 -2.249755130892602539e-01
5.830373475384177662e-02 -1.287874447740523232e-01 -3.096194118580369858e-02 -4.848897585992705678e-02 -1.177297105857386117e-01 -1.139897147932927984e-01 2.285615873033615131e-01 -1.357194440002150795e-02 -7.650715475377822816e-02 -3.272577599447734631e-02 -8.855376247600521555e-03 4.260267273978028679e-02 -1.808577801075976210e-01 -1.040322524531637170e-02 7.771320812497650721e-02 -1.599691052663934354e-01
4.677991634409307126e-02 1.698486887372072096e-01 -2.092845832708369568e-03 8.115529421294480350e-02 6.705704503109098658e-02 -7.075056975105768753e-02 5.087754766252729557e-03 -1.567096633295102237e-01 -4.512947839984001591e-02 2.752468811332021981e-02 7.157584651423982980e-02 1.961341598168867863e-03 7.153043851661873564e-02 -1.101367241812945957e-01 -1.012789040802045994e-02 1.875609667809812961e-03
4.718391334951873572e-01 -2.055871400173536409e-02 -3.854648766240960367e-02 -5.841481006073948740e-02 -9.191170874214574238e-02 1.932352113782475136e-02 -1.280619860324785364e-01 -1.794613290910725967e-01 -7.335681395241515877e-03 1.940537259655892577e-01 -1.636219617244144831e-01 2.311912463880274812e-02 1.582842370419988987e-01 2.288594869521575481e-01 4.595398968068858947e-02 -1.720091527961529476e-01
2.518537213422815113e-01 1.512716555711327363e-02 4.587759221629269385e-02 3.919753854302984730e-01 -1.359758822496987540e-01 -3.812614773483650587e-03 2.502619786643777156e-01 -1.390186299111978094e-02 -9.297889757614594131e-02 1.608576357845563354e-01 -7.596290261561293444e-02 -2.411827453247271102e-01 -5.739557338191283303e-02 3.468964859296245762e-01 -5.039968245691035797e-02 -2.106915581514922919e-01
1.431510250194757417e-01 7.855781592801672208e-02 -5.807134791656300664e-03 -3.961967335215212799e-02 9.386720703375649177e-02 4.052040803228881133e-02 4.544057360054582634e-02 -2.915494451399052930e-03 -1.688225584327773532e-01 -1.162573464201371171e-02 -5.036854293147997180e-02 6.318957859830498514e-02 1.103505515093649719e-01 -6.947613209952722968e-02 4.698206547468251199e-02 1.722795568946236255e-01
-6.665269033959554668e-02 1.681270033659535423e-01 -8.529015744009151023e-02 2.409571276320865169e-03 -1.109374568462957039e-03 1.149889987006237450e-03 -8.374850630844984933e-02 -5.920028236554101403e-02 -6.677243841825736270e-02 3.277669383114936025e-02 3.304438356257932696e-02 2.225035464876268243e-01 1.370742415486238264e-01 -5.100019246712125115e-02 3.235081233602447870e-02 9.971179807917596172e-02
7.019119336354770478e-02 -3.405342964161336711e-03 -4.367225244140544860e-02 2.027812707950653603e-01 -8.522114575193889818e-02 -3.256736558956493249e-02 1.536369070717776286e-01 2.478168928674007870e-02 2.594458500364895531e-02 -1.299406257563564815e-01 8.580900614497694034e-02 1.616274223579317881e-01 2.292448572528474338e-02 -3.459089081204365975e-03 7.486667803469240767e-02 -7.756368568729787860e-02
-2.522860234046716554e-01 -1.473455184550815419e-03 -3.360630131093355621e-01 -4.764224637071021173e-02 -3.504201757072628737e-02 -1.353176412683411434e-01 -1.009661414310534244e-01 -4.648126975686617257e-02 -1.643391953001428485e-01 -3.695616358624116415e-01 -4.826952661334286271e-02 2.250371889403162545e-02 1.829986247593457516e-01 -1.740825194810532162e-01 7.534179207129438824e-03 2.862141571100713655e-01
2.403907793028198236e-02 -1.017032825549492037e-01 -1.134370116072938584e-02 3.134751879228489524e-02 -1.370759940360591067e-01 8.664900046717836923e-02 1.086819411841891125e-01 -6.299793536445252862e-02 -2.408739087799667902e-02 -8.669407912585203047e-02 7.119835418471555377e-02 -1.061933539719703418e-01 -2.209824987015258230e-02 -8.560944013038615519e-02 5.089403893978845100e-03 -1.794533881470634362e-01
4.481398308092687244e-01 -9.747383380484070381e-02 8.422558968720965378e-02 -1.031170657311875939e-02 -7.613161064762506702e-02 -8.876410436913821644e-02 2.113346255822793826e-02 -5.823229768680182605e-02 1.688003214829532361e-02 7.261228048637882737e-02 -8.176367107711934867e-02 2.162103864958428712e-01 -3.745230447789114209e-02 5.283478845580634464e-02 -1.408637221188787925e-01 5.898589085349508210e-01
2.350664066957847687e-01 -1.550605517587821669e-01 5.036849831402826494e-01 -3.477939294549182159e-01 -1.461214485253994333e-01 -6.835159869183485282e-02 -4.915955198098450468e-02 9.783479779217301234e-03 -8.542287835734113655e-02 7.502408227712992206e-01 -5.342042650472385995e-02 -8.841349030471455650e-02 1.083364923296698812e-01 3.927826481176154849e-01 -8.311872116882249029e-02 -2.218170089930593114e-01
2.438561214336321392e-01 -2.050635297625239273e-01 -1.344717416176666874e-02 4.963529251582381174e-02 -7.514283837167234047e-03 -2.633213882330344077e-02 -2.659431340497456480e-03 -2.174548808286731402e-02 -1.299181258920177884e-01 3.244112716360305626e-01 1.424357868789055126e-01 3.323746441015101166e-02 2.408350424595425976e-01 4.328074474869834654e-01 -4.555167238257588902e-02 -1.015849326282046439e-01
