6.391877784510774374e-02 -2.914119729245686075e-01 1.259387722556130906e-01 -4.499811612818732098e-01 1.728600528760288746e-01 -4.121205738543468056e-01 1.167625359684566488e-01 -1.660365846878179286e-01 -4.492974501722206415e-02 1.540490795114656530e-01 -1.014077122184794538e-01 -8.345319915047904116e-03 -3.700817357362699150e-02 2.086418020775498150e-01 3.107636038806350642e-01 3.113628244752763008e-01 1.192158463249767403e-01 1.852398403473144439e-01 7.901346144465401511e-02 1.053561452700179785e-01 2.075237878202257635e-01 1.569275767691902523e-01 -3.362798858216006076e-02 -1.996165884639252569e-02 6.595545992461307461e-02
-4.046412507441809331e-02 5.156349011816208777e-02 2.516384040783637560e-02 8.497095940049416429e-02 -7.829596064471255890e-02 2.333454126340102630e-01 -1.258856270937768196e-01 -3.759259232410677026e-02 9.256831971370976797e-02 3.056399661945336313e-02 8.203096666109169210e-02 -5.057763209951423450e-02 -7.038201544708813651e-03 7.239451348683031929e-04 1.579540056301663997e-01 6.880710256741640052e-02 8.031173559471239953e-02 -6.516650962083586629e-02 9.697006655150022802e-02 2.356168570448336982e-02 1.396047000648443503e-01 2.022701133286267938e-01 -3.180452638906323265e-02 -4.121701143643870247e-02 -8.731441049813255806e-02
-1.412697648601639600e-01 -9.508593466063419708e-02 -3.805118218393164359e-02 -5.915318564243269434e-02 1.256104180570939421e-01 4.685515071582486285e-02 -2.222137437016643013e-01 -8.635070490857470887e-03 -1.120431498895645556e-01 2.462057334894212079e-01 9.687220414220844289e-02 -5.993208870922164810e-02 -7.057645029251291557e-02 1.718468218088405330e-01 4.419770912550397002e-02 -7.236024319324775578e-02 -4.500474160682933072e-02 6.917014554141473481e-02 -6.108607959136997528e-02 1.299923063401178802e-01 5.261246582601557253e-02 -3.742200434771574685e-02 6.822049971546303992e-02 2.164568947563651480e-01 -9.845584981715807538e-02
1.143313827933881144e-02 -5.616399809011855121e-03 8.928150839663871741e-02 1.189663035616450246e-02 -2.889168988541950811e-01 -1.219328526203211638e-02 6.405107471522974993e-02 -1.026636270150567548e-01 9.714898145756004078e-02 -4.958028406217705047e-02 1.929673274366116298e-01 -6.080943237313344435e-02 -4.668082106920469487e-03 -1.217550384474757053e-01 -2.149179278820682881e-01 7.850367245936672178e-02 2.395933504986444695e-01 9.029127668819005026e-02 2.088584149302863679e-01 -1.347791044848306030e-01 -1.967652331110491537e-01 2.996720401840768933e-01 -1.284622105959492000e-01 -1.255142029181496310e-01 -1.373816987491883190e-01
1.117035454754060492e-01 -5.190152927021926543e-02 -7.506161358458626753e-02 1.376038314916814068e-02 -2.074889662216356997e-02 -6.782257456432032316e-02 7.549936999718374897e-02 1.068727880603512204e-01 9.851306580791634182e-02 7.660302174433575306e-02 4.022755471592000254e-02 -1.776106673826677307e-01 1.668792687109703354e-01 3.015530668132699807e-02 6.075287029177584008e-02 1.114646902632185493e-01 1.432865341980179008e-01 4.183880602802011323e-02 4.350785472785349828e-02 -5.996198210715665555e-02 3.264487304154188758e-03 -8.545566330097707775e-02 -7.201307601481958531e-02 -8.938668808921643172e-02 -1.562157656774476946e-02
1.049164306246401362e-01 3.170759137034843134e-01 1.892689977620316474e-02 -1.348616018379389381e-01 1.264932265873897066e-01 -3.010027077491422842e-02 -6.605938192410690246e-02 2.096521335219875617e-02 -1.240741245657901171e-01 2.223694540405066547e-02 -8.857317166609448428e-03 9.816225065188142682e-03 3.828184666737404623e-02 6.782970395058045450e-03 1.692506638096012098e-03 2.842463336336097796e-02 4.153178248291698044e-02 -1.031673129902680869e-01 -1.429604757454883412e-01 -6.186352188833575509e-03 -1.432836996344463987e-01 8.739862985894145120e-03 9.389181147058213439e-02 6.068962568778482614e-02 -1.048383686041829271e-01
-8.661789237922630502e-02 5.747490152653181826e-03 9.509480520872571480e-03 -7.066715194140370249e-02 1.748735220841877297e-02 -1.117041263657199551e-01 -3.434096290227389020e-02 -7.966656087750959014e-02 -1.254934072357237473e-01 -1.575847331358336545e-01 9.395818771900997513e-02 1.615253975080271909e-02 -7.841987304085076826e-02 -7.698239034147902338e-02 -2.079880465258804045e-01 -5.140208470009417080e-02 3.208338468603255111e-01 -1.436358766360652968e-02 1.229743584572611931e-01 -4.575910471662113232e-02 7.478466016434719144e-02 1.165612438972196546e-01 -1.071002217478563695e-01 -1.710425545175601070e-03 1.403235861148454111e-01
-8.037008668736782269e-02 -5.826422606942392030e-02 -2.856753935596760552e-02 2.516329240169250248e-02 5.349825591479390879e-02 1.249710436756603094e-01 5.068310942576235989e-02 -7.623890970073808962e-03 1.240355051259042496e-01 7.274664811288257538e-02 -1.500760224004773769e-01 2.507710365992363855e-01 1.773910923415429053e-01 -1.460884142853566790e-02 3.742096122251174078e-02 1.318385036322202164e-01 -1.730190193017032071e-02 7.294441296092829541e-02 1.103304866661324324e-01 -9.479977684539590832e-02 -6.010164816681816402e-02 9.131890694983531287e-02 4.493652844193041229e-02 9.285390703459453499e-02 -1.457645247860455025e-02
-2.842008993817963028e-02 -1.999588134271164386e-01 -1.146961497716901257e-01 4.615892551841301733e-03 8.227525571712740460e-02 5.301865241096846704e-02 -1.279042337320440877e-02 -2.722123168307909527e-02 2.159098280085893981e-02 7.946570207068851671e-03 1.403240508968068290e-01 1.452479892407885706e-02 -1.481773455382335569e-01 -1.271889450748585892e-01 1.516971219287099326e-01 -1.172135965841761274e-01 7.722445321378455796e-02 -2.694141774141311368e-02 -1.677444429530284414e-02 -1.325478253831177330e-02 1.222096238205109958e-01 -1.945355838346159855e-02 -3.450798146538927840e-03 -1.531586175025887731e-01 2.053875234230723851e-02
-2.229868657931929066e-01 -1.740469519767526840e-01 2.451149446465836559e-02 -1.623024727223361940e-01 3.076911682501899392e-01 -9.287904004178636208e-03 -3.156675239724254234e-01 -1.505760292094811548e-01 -5.729727839934382200e-02 5.345521639157730931e-01 1.834459633956218166e-02 5.572332106010949998e-02 -2.917680913214458147e-02 3.462365483363110674e-01 2.058861864597825719e-01 -6.775960251424197056e-02 -4.224003455511628896e-02 1.804148949635347443e-01 -2.872643113071629561e-04 2.152002746960051394e-01 1.460979077377164148e-01 1.855899268780094313e-01 -6.132331750473384718e-02 2.784867638298826331e-01 -1.194501877470553475e-01
-6.899262249293763860e-02 9.755018620841593435e-02 1.934738963293153868e-01 -4.039285030333021782e-03 -2.997125389335784929e-02 -3.963602973654468259e-02 -1.894349242578698689e-01 -2.170147730027708818e-02 1.780406233524403289e-02 1.245525361420448673e-01 8.535289012666490149e-02 -5.052170592320898851e-02 1.409647165548062742e-02 1.006984228205556609e-01 -6.022611455336401853e-02 -4.036194415845050648e-02 1.360692276980497439e-01 1.098046340650596642e-01 2.572398417989482048e-03 -3.724494734246649313e-02 -2.066095605296813520e-01 5.665309924239599754e-02 -9.481009476547119785e-02 -1.812828508907649572e-01 1.564787635363887319e-01
1.598925561485644853e-01 -1.225677690339581766e-01 -1.153449489159953795e-01 7.106987841407044759e-02 -1.092022357356737250e-01 1.273848354320149256e-01 1.136108067693634288e-01 5.130394934258663414e-02 1.253922740294795279e-01 -4.054647804128230087e-02 3.961897439947403843e-02 -6.628994657187382844e-02 -2.698391934481798177e-02 5.724864283309086949e-02 7.405704305619696670e-02 -7.532661524342207371e-02 -8.272029329532899766e-02 4.796539470768123106e-03 -1.081861251819493386e-01 2.051958997239661797e-01 -2.488124645320944142e-02 -7.985413826573393298e-03 1.255205010777215580e-01 -4.295299127156861074e-02 1.625490541275885145e-02
-8.036323483304057269e-02 -7.189170251602667455e-03 8.671396459865376993e-02 1.313678553486974376e-02 -3.089551183709269080e-02 1.361354631210201782e-01 -1.274869831693559163e-01 -1.690225639510438416e-01 9.268603546619551270e-02 9.597780706338492063e-02 -9.254745893747132190e-02 -1.364018423937589375e-01 3.136701268823541278e-01 4.625772497246447706e-02 1.179786218081115001e-01 5.247538320354889346e-02 -5.997913671023985538e-02 8.821504014127594384e-02 4.913029802481931607e-02 6.547447208885347029e-03 -3.261370953716256210e-02 -2.297800045975990080e-01 -7.967442518484350866e-02 2.287806935279859330e-02 8.976292436303673350e-02
-1.329087428163727158e-01 -2.219109047643965937e-01 -1.509022307442250410e-01 -4.546913339575953117e-01 2.634116461201265746e-01 -1.939370073116735704e-01 -9.747897992773091325e-02 -2.889226261394244738e-02 -2.415069443601215726e-01 2.412660252731665678e-01 1.729410580887034143e-01 5.300860198302700249e-02 1.409964156953878445e-01 -1.063432916183730120e-01 2.886460296022984595e-01 -1.693807712650806097e-01 1.423481755468864463e-01 -6.599125831427969657e-02 2.612890986882789868e-01 2.298997409686650562e-01 -4.794680483192566983e-02 1.345362240135529290e-02 3.112237539139836237e-02 5.908444982470128365e-02 -2.307831493227852082e-01
-1.338540401856187501e-01 5.063953420613234724e-02 -1.782992354555993243e-03 -6.068000690286699111e-02 9.595009271564924891e-02 4.664670732037500683e-02 -7.185491159366212688e-02 -1.238044719892076317e-01 4.753267309749184544e-02 -4.530066198344272210e-02 9.152768103812628994e-03 1.530305549580821545e-01 5.625559723415374941e-02 -7.947787244781914784e-02 1.128153222369757298e-02 -9.472763810927126160e-02 1.605974492563125022e-01 -5.555085692995011953e-02 2.089760072687372322e-02 4.164421373637312851e-02 1.465141750591376392e-02 -1.986789303171205279e-01 -1.486339179879003769e-01 -4.511381347326435393e-02 2.964140657004850007e-02
2.730762284485102609e-01 -1.778149747873729314e-01 -1.331651806569906227e-01 -1.646483211822851733e-01 -7.016129610861471244e-02 3.354433650794853838e-02 1.554353061740547104e-01 1.265195614188299733e-01 2.729455617211610785e-01 -2.988857256163354181e-01 -5.015647870923901908e-02 1.197847542491061942e-02 2.168843560206683285e-03 -7.847851523389977324e-02 -8.126103461170482156e-02 2.834850827006060378e-02 -1.925507610387685031e-01 -1.371110266617612261e-01 -2.786356134174646226e-01 -1.248586441198169389e-01 -1.194505323616489208e-02 -8.730296427280931360e-02 1.467161041374752950e-01 -1.046516543960030465e-01 1.601702579891275402e-01
