1.737542495927060504e-01 3.953202436535015879e-02 9.551323117171754695e-02 2.420367261357502797e-01 1.867220907300639887e-01 -9.777576080927431745e-02 1.242883783637145356e-01 -1.201876468215311820e-02 -9.937731721561232634e-03 -3.960354686114462425e-02 2.063243604918196458e-02 1.029922169727095910e-01 7.797514759832360753e-02 -4.664306689153926988e-02 4.539989844913885214e-02 1.146074262143133293e-01
1.357881687603486875e-01 -2.133246017094390934e-02 2.827960235112800952e-02 -8.945193981906723879e-02 -2.552989815834078580e-01 6.533603443802937782e-02 8.938761254654591093e-02 -7.430589461626216363e-02 2.248671392934933344e-01 -1.343022072230423969e-01 6.656949033117638519e-03 1.086015361568581136e-04 1.460258571949689388e-01 1.388968258319810967e-01 1.013508919463195629e-02 4.240748828759254019e-02
-1.862262610714146283e-01 -1.982661790826038273e-01 -4.004785460204565023e-02 -3.512627410478197376e-02 1.230146619723320039e-01 1.202008558977719910e-01 -5.704221812755445181e-02 -3.020092341206283976e-02 -1.042986480069521549e-01 -1.020956788254403919e-01 -1.670384060171625218e-01 2.513834619823071548e-01 -9.959310657957247404e-02 -8.513620186233099296e-02 -1.320006645969164505e-01 1.688173973075341450e-01
-1.613897847557951570e-01 -2.127402802139687077e-02 -8.954665611936757363e-02 3.869024978592620206e-02 -5.108051375688730383e-02 -1.180632184122412109e-01 -2.818222833865487078e-03 4.283318705304176716e-02 6.651722238316788716e-03 3.024718977397813924e-02 -6.343220936809636223e-02 -3.627411659871381672e-02 -6.724604477759510424e-02 -3.595531615405413162e-02 -8.131462820444540496e-02 -1.726282602331676852e-01
2.350471742268748776e-01 -3.527205902675061705e-02 -8.601540155889605965e-02 2.093106286480995171e-01 -9.072983643832421841e-02 5.242586930401559216e-03 2.279166212960073157e-01 2.107057404388522001e-02 1.153872092637755059e-01 -1.883181420317882326e-01 4.278500577216879514e-02 -3.161680987305104940e-01 -9.678532004029351266e-02 -2.769862098219185720e-01 -3.475063264165102750e-02 2.038158989084604411e-01
-1.307534275088128584e-01 8.956956763453113868e-02 4.550387256525536411e-02 -1.503237954836476042e-01 1.488252193795599754e-01 1.895740523287199886e-01 1.137751555075844495e-01 -1.792247144069453874e-02 -1.070640560797427587e-01 1.164763141233294136e-01 -4.023490301355277937e-02 1.419572657638986657e-01 1.301889360904913071e-02 6.654942370280646224e-02 3.573119180835553771e-02 6.913971178762391701e-02
4.167384463709119385e-02 1.789656294593755248e-01 8.902785890065227983e-03 6.628363481620282160e-02 1.882793483052648820e-01 -1.347922794784006673e-01 -1.148325559105623783e-01 1.001379441927658237e-01 -1.175883971222762836e-01 1.299212938123282812e-01 -3.540795507753696780e-02 -1.291232010420566290e-01 1.920144698513137904e-01 2.392350910635587455e-02 1.914941244405003185e-01 2.101210158819034057e-01
-1.473583343431244252e-01 1.926728573419700941e-01 -2.582929821436577567e-02 7.689800760324008722e-02 9.463102673389825470e-02 -1.550031927080074146e-02 1.151686734614951052e-01 9.205956345473399749e-02 3.746798188459180001e-02 -9.563364317985417751e-02 2.966326522861170017e-02 1.521913600836843350e-01 -8.676744255294301100e-02 -1.044299475378331760e-01 -5.632014752651222367e-02 3.106833956291046861e-01
4.867525179757736797e-02 4.051390125800535813e-02 -8.733750936010864496e-02 5.647270022003376272e-02 -6.743326606573761539e-02 3.107504670628754868e-03 -2.318759224415056774e-02 6.776344709592761750e-02 5.707096879532910089e-02 -8.158590812461627428e-02 3.878994699246480354e-02 -1.468086729219411080e-01 -1.444230234500097632e-01 -2.382067253860464806e-02 1.359100235802572151e-02 1.674016653297501489e-01
1.828908470508811002e-01 9.573543814271893992e-02 -1.029785057726657904e-01 8.161793861208709033e-02 -1.315907410511521214e-01 -4.647055687739098939e-02 -4.917211205087843734e-02 1.726371569804080186e-01 -7.389391281196173999e-02 -5.988144943500173928e-02 -1.077723276825498337e-02 -4.063843014389559305e-02 9.031024413854957245e-02 -1.209665624044755500e-01 -1.122092468061535314e-01 -4.717112594957196398e-02
-1.341466632511607027e-01 1.921547215639720640e-01 9.226425531966858662e-02 1.954064762201026748e-02 -1.227909634581309251e-01 8.440923438500023968e-02 -7.035285218484348124e-02 -1.544595922731609172e-01 1.193393604715675821e-01 5.516274108645230490e-02 9.108490176826235241e-02 9.885693072024011319e-02 5.096266868973523684e-02 -1.988768734401510918e-01 -1.134171284012716191e-01 1.471392004400027542e-01
-6.069262195542827337e-02 -6.521427741127169830e-02 -3.727098376832366916e-02 1.172313559032281058e-02 -3.562796399177148993e-02 -1.375324224313059784e-01 -1.592215965613000828e-01 -2.234323818707450449e-01 6.236763371311226933e-02 -1.520906577963529738e-01 -1.105140057086851924e-01 9.967407822533183234e-03 -8.758056725574936419e-02 -2.811815227729379946e-02 -1.385972054368257989e-01 2.934052136679640710e-02
-1.037402338643133443e-02 -1.152355155859384334e-01 5.052613862186790955e-02 -1.333047742220513920e-02 7.717905512136674639e-02 8.232709513821023783e-02 2.619117142887876226e-01 1.337985715108345186e-01 -3.747739097734917313e-02 -7.982799746469064484e-02 1.090801869808743635e-01 1.420196639253005003e-02 6.896152634537658366e-02 -1.864243474547967183e-01 -3.039003664977581003e-03 3.540695458569540800e-03
-3.775255933945258491e-01 -9.405716616442275427e-03 3.642388251675116734e-02 -1.034140597239869147e-01 7.850554077371509065e-02 -4.668150321769022615e-02 7.498997957184345975e-03 -3.142087908072331570e-02 -7.245486564580565225e-04 -1.574569815926046834e-01 2.484569286218240580e-01 -3.534460749769359478e-02 -1.856571501347229480e-01 -9.724474987829140327e-02 -4.334574669414430897e-02 4.564050980136425406e-01
1.138046850539412708e-01 2.577809115059183885e-03 6.698561491071830520e-02 8.308833882773754287e-02 -5.999120604107947841e-02 -2.393693979240435130e-02 -3.067560182546098524e-01 -3.854907337806393747e-02 -5.247225906865734396e-02 -1.490381049168526262e-01 -1.147519479360060574e-01 -1.203955963524265815e-01 1.642455991233524870e-01 -3.703693501349505368e-01 6.592234526411186457e-02 6.350412486127811340e-02
-1.054369370156991170e-01 -4.268672512612615988e-02 -6.525720627320073797e-02 -8.667461452237193442e-02 -3.092013561340309705e-02 -1.678050347806081810e-01 1.469175022502010874e-01 1.109630868081646488e-01 -8.047570190192905593e-02 -2.665721446218067836e-01 6.395315778629515058e-02 -1.567648802226914162e-01 -5.484967770756471982e-03 -1.996723147265548615e-01 7.177709691911278445e-02 4.168945742693268008e-01
-8.413257451940048259e-02 -1.375620576627314962e-01 -1.558770372090916012e-01 6.559893880236077057e-02 -1.188859257784029011e-01 -5.075593152352170928e-02 -4.576574310687998859e-02 -4.725675172536470715e-03 -1.936639605168532230e-01 1.444619666476509683e-02 5.387941908463601132e-02 6.449011490637025952e-03 -3.392438210740587184e-02 -2.272121048983353347e-02 4.004900340489606775e-02 -2.459275776403411773e-01
9.143824105293026083e-02 4.417413616076586863e-02 -9.362663062937488789e-02 -7.564974627476495073e-02 4.926089206724809655e-02 -1.195450501710944823e-02 -3.188300180064815859e-01 2.049099991581352642e-01 -1.129611953369935411e-02 1.192185070827609002e-02 -6.469867658323810722e-02 1.828159803690582452e-01 3.583100971667269735e-02 -1.844005149721122394e-01 -1.163315656089845135e-01 2.378039405952671048e-01
6.361819372121307881e-02 1.284558838161023175e-01 -5.904464466682665669e-02 -3.661599679884132430e-02 2.303916697683942028e-01 -1.061133686403647192e-01 -2.671672086808105084e-02 1.147719838084447080e-01 9.296907036295433760e-03 6.188992842240687714e-02 -4.239915822124259992e-02 3.208777707528923800e-02 -1.508182179547241375e-01 1.284986281812843800e-01 -1.105028590000479809e-02 -4.222439805239627114e-02
-5.477765643486167541e-02 -4.721335690173913274e-02 -1.714851037240264775e-01 -1.823486984139942590e-01 6.939265455437393371e-02 -1.604540736184396216e-02 -6.406787373577874090e-02 1.099311145512570226e-01 -1.124169703178895946e-01 -1.816089666340262865e-01 -2.667727480005686533e-02 2.102422765568350352e-02 -2.153176499317058581e-02 -8.660661999789627530e-02 -2.016070145274499910e-03 5.196687366921844825e-02
-1.892114052552456016e-01 -8.028736291451184226e-02 2.264100547960821302e-02 -1.169919231502227902e-01 -1.157719999878752404e-01 -3.098121506035484557e-02 9.275975906626600376e-02 2.352906077360086279e-01 -6.916921022435360000e-02 -2.902653294437753523e-02 9.488246879423177516e-02 -2.053944980476498927e-01 6.008918079815004504e-02 -1.646653943676649468e-01 -2.459997710468986576e-01 3.513487941936037640e-01
-3.234067583793338585e-01 3.908876726684053227e-02 -8.634359872044908291e-02 1.278194518342929131e-01 1.068321012229101197e-01 -4.527129930811124581e-02 -2.318535773255236271e-02 -1.138817029449626372e-01 -4.222781477528478322e-02 -1.094451650563401934e-01 -3.546421554379369789e-02 2.380425330470110554e-02 4.188458256833595128e-02 -7.645181699777198886e-04 -6.393429274892240000e-02 -2.750012001724919455e-02
2.582200300752979238e-01 -6.514008673522678206e-02 -6.215479656110016460e-02 -3.797108367764251424e-02 -1.845355278820882683e-01 -4.791033104001153620e-02 -2.848688661037210301e-01 6.183200700510794318e-02 6.984493946816246190e-02 -6.466557211166729449e-03 9.205046409475660385e-02 3.701045966207725663e-02 1.986359065861277584e-02 -2.337787660303140558e-01 -2.801390101159684926e-02 -1.563802320558685677e-01
-1.371757863176509551e-01 -1.125090189022988491e-01 7.752465117656321368e-03 -1.302742675233305725e-01 8.417846569272433022e-02 -2.494779122318182066e-02 1.068719792879205266e-01 4.946587691372900109e-02 6.435885941335453553e-02 -2.655858407417315825e-01 1.468780449792370492e-03 7.089941277860638269e-02 -1.305253471142938104e-01 4.283295246201634932e-02 -2.274370169367442573e-01 4.077956532410482310e-02
-4.627417149983200501e-02 -1.651322348857310052e-01 -9.939602084274029581e-02 -1.358714965328547963e-01 1.647960088547904545e-01 1.634722439192701562e-02 1.504315050016540867e-01 -2.191816691583750240e-02 -3.583035434279087383e-02 -2.192901784216167438e-01 -2.825412208531570546e-02 -1.290418663646612230e-01 7.541339048891713970e-02 3.689842273487444618e-02 1.451213742540058416e-01 2.549183185203721114e-01
-8.442701558820977503e-01 -1.150265230378462733e-01 3.148876115641352502e-01 3.801911121206197897e-01 -1.770641598209256318e-01 3.568821754303375809e-02 1.853556570754375077e+00 2.882471401986342815e-02 -1.537141084612735770e-02 -3.353431533586248015e-01 -1.453910963067776563e-01 -5.517523211986061771e-01 -3.515832047353982248e-01 1.143526271085197610e-01 2.161912908679949064e-01 1.939204501042192774e+00
-1.429824946510176720e-01 1.093834829774516237e-02 1.259314923057459623e-01 7.738555923466462760e-02 9.270165663159461722e-02 5.804425792137151568e-02 -2.522763085943403594e-01 2.633095177119844019e-02 -1.042038459384700931e-02 -7.368374999377434731e-02 8.950712883235750761e-02 -1.895640117630769672e-01 -1.615364673001859486e-01 1.571843998297961509e-01 -4.904661084514998215e-02 -1.569525374012074037e-01
-1.442523152033873823e-01 3.162361032291106239e-02 -1.103599075140237473e-01 -4.241879989888400204e-02 8.202416838203284433e-02 6.834487774347465907e-04 1.825801263604880931e-01 1.762195486980626391e-02 -3.653673871027900838e-02 -2.086751831128340617e-01 -1.504484079888338856e-02 6.067039459079660857e-02 -2.236232013398836704e-02 1.265503157557102965e-01 5.360004656476977103e-02 1.024686612448673546e-02
-2.273817259623747700e-01 -9.004827605921812694e-03 -9.700717816410540928e-02 3.135850852553204865e-02 4.631303293186071063e-02 2.824538600019560128e-02 8.332711682995969094e-02 2.090483866937047630e-01 -4.605459015501570108e-02 -2.979100940695157407e-01 7.309525157105442247e-03 4.656926411642703378e-02 -1.553635925451635480e-01 1.171470341651215281e-02 -3.957579763231185849e-02 2.657481761240100895e-02
-1.728650076452562245e-01 2.442981773783986787e-01 -9.845927272743482117e-02 -1.435241826958556510e-01 -2.288620040014528456e-01 2.522869477675875396e-02 -1.858152311283209068e-01 -5.012071128311912371e-02 -2.732941920660408863e-02 -1.662613678584684562e-01 1.625473096582630284e-01 1.052330175395281842e-01 5.859635097874360543e-02 -6.015738187164886529e-03 1.127863546037123077e-01 8.258866672513259788e-02
-2.436414756120450567e-02 1.055767575564509758e-01 -1.183561577843892793e-01 -1.434628713193511207e-01 8.625960113284511510e-02 -2.654770785275704648e-01 1.944023181577703499e-02 5.570556427049715154e-02 -3.367674786732119310e-03 -1.244119731769990737e-02 -1.079762661676496455e-01 7.489832997128353931e-02 2.950921467579295868e-02 1.978651391142984273e-01 2.705097168337327607e-01 -9.268349685233311097e-02
-1.425912180094558168e-01 -4.898180502753248650e-02 -1.076872234480538426e-01 -5.917657382841984282e-02 3.827324300122681572e-02 -3.117160876948279515e-03 5.666353989065103791e-02 -2.368204405046890962e-02 -3.333897271820257524e-02 -1.253340580140046567e-01 -1.670022348469580864e-01 -1.398621523772572151e-01 -1.944771422937220939e-01 1.676050170335060818e-01 8.968199793387965357e-02 1.202557407073955031e-01
-2.136549276147021170e-01 -1.966758451875767755e-01 -9.517679923963932864e-02 -7.637086152024222252e-02 4.986902749098275078e-02 1.049265367335872751e-01 -1.582134387697580746e-01 1.739130230373979735e-01 -2.162005962217558933e-02 -1.465901206041704541e-01 -1.693649793792947333e-01 -1.355534973491355662e-02 -4.262139743144216508e-02 -6.492865394138171153e-02 9.383475384990924706e-02 2.221651977030417169e-02
-2.977490851902228064e-01 8.909549355154347539e-02 -2.352603731135808340e-01 -1.354596737814937196e-03 1.224870564193659694e-01 6.590027581257225549e-03 -2.152019734243962312e-01 -5.771521324210435178e-02 -2.524866954285390208e-02 -7.381065358433408496e-02 -2.079189262596863041e-02 1.646190101981058126e-02 -4.889624626751613162e-02 -1.196682881647172653e-01 -2.399007976379450777e-02 1.198086296138533707e-01
-3.577384395095213609e-02 -4.405405431692636931e-02 1.035774434960346352e-01 -2.850831715947771960e-01 1.181378601288285979e-01 -6.305180679668805077e-02 -1.202570898148970086e-01 9.788387813307555807e-03 9.629071335907050944e-02 -9.379723111704978133e-02 -6.779001985257021579e-02 9.142330514199456526e-02 -2.843617404264835447e-01 -2.197856955179887384e-02 -1.350213021092049881e-01 -1.480981161114705291e-01
2.157067492335819903e-01 -2.221803484517865124e-03 1.591266769312161807e-04 -2.283867474267676778e-01 -7.290446587946956825e-02 1.974920726231537901e-02 -2.006033990845362269e-01 6.146255094294977850e-02 1.586320155534842605e-03 5.400132324823623056e-03 4.544537993818123511e-02 -1.495495238681751882e-01 -4.498837334518802217e-02 4.385113902124065932e-02 5.886556079922609236e-02 -2.059180155526786071e-01
-7.922701551142737053e-02 -1.110519465734749051e-01 -3.502377903918661717e-02 5.898407527433452424e-02 -1.951804101481602327e-01 -6.598820890579461251e-02 -3.555796702280152322e-01 7.828347102678590019e-02 -5.543550805898625478e-02 -9.271602096337280829e-02 -2.169859508735140496e-02 1.023740024663871706e-01 -6.085387821434476430e-02 -3.112434218688047149e-01 5.423306589992983595e-02 -1.818140072810887353e-01
-1.034623092003452427e-01 -1.116987500177274439e-01 -2.782900529024560921e-02 -1.989495758649715285e-01 -4.703361056252051281e-02 -2.164916503147224641e-02 -6.041502366971496230e-01 -1.735569621985894040e-02 -1.532363849585019477e-01 8.364423307651532025e-03 -9.187916148633898383e-02 1.966443569707992112e-01 -2.850128925858250173e-01 2.278704986902349294e-01 -1.835970487346021141e-02 -6.687494747490884128e-01
1.439446969628789263e-01 -2.641063914996200426e-02 -1.897485537226723806e-01 -1.844913815336829410e-01 6.051200840821666788e-02 8.978663725903540671e-02 -3.224311794360603112e-01 4.482578017491326700e-02 2.539513298582068285e-02 -1.398787306107998341e-01 1.349819710295232233e-01 -2.375944309182535519e-01 4.326065580896782531e-02 4.387488296412905137e-02 -2.708976502387070578e-02 -3.217516288688956339e-01
2.035114289056192405e-01 -1.199091044271031192e-01 3.260593859758086077e-02 8.903319572417779659e-02 -5.779420086283642947e-03 -4.086196762383979868e-05 -8.468291206089834100e-01 -3.745786242486624611e-03 4.954924915377915268e-02 -1.433591677728862819e-02 -4.618724374064339666e-02 8.079301035317808244e-02 -2.187584561825768881e-01 -1.604990011045313025e-01 8.762134928779322096e-02 -5.153496441444275211e-01
-4.313596001694556259e-01 1.339596647549783637e-01 1.560420032818605196e-01 -5.793986453947693599e-02 -1.218100750782828978e-01 -3.048148961522936795e-02 5.683775145883853686e-01 -5.304069808670095528e-04 -5.886960488595485014e-02 4.102482266179620363e-02 1.384917352848397641e-02 -3.468764372705054333e-01 -2.075049430985139165e-01 1.196440288257727275e-01 3.540030432558925050e-02 5.983064993465152526e-01
-1.371011164806645588e-01 -1.237201022514709536e-01 -4.871731731664630943e-02 -4.219815229536892920e-01 -9.348675533224586054e-02 -1.259392977041446371e-01 -1.087741244203234148e+00 2.934238867545833213e-02 -3.587045263349480928e-02 -3.626534484420578242e-01 -9.049167491854134132e-03 1.195084705474137449e-01 -7.354025748645830474e-01 2.885309974406559674e-01 -4.811722492722253497e-02 -1.080673942872555582e+00
