1.236551483421138992e-01 -6.598922036145852925e-04 -8.610509085355091963e-02 -1.199829235171269437e-02 -1.627180555125505926e-02 6.130623802022681923e-02 5.032402818362725211e-02 -4.057050792876383538e-02 -4.311369077683011725e-03 5.815060318845572708e-03 5.095649521150754507e-02 -1.306692120137146855e-02 5.027609729979825443e-03 -1.307748223045771853e-02 8.940566450809424304e-02 2.307539238236846341e-02 4.961111878337216841e-02 9.831607240760075524e-04 -2.062018604519137363e-02 1.910795665116068358e-04 -1.900829067107432171e-02 5.258008069781582722e-02 5.481827214600705489e-02 6.007289292298927108e-02 -8.234609810802973745e-03 1.760218404762841499e-02 2.374835917776699917e-02 -2.155503192144057195e-02 -2.309973437299607871e-03 -1.300719699691176880e-02 -1.607486385667275877e-02 -1.552967799364344537e-01 1.647160657586975094e-02 2.755473932777225549e-02 -9.301844234685083951e-03 -5.240683743965770386e-02 -6.835721202156148923e-03 2.140929611447668635e-02 1.519220758359459029e-02 -1.348173021579139944e-02 7.625174196589953879e-02 -1.081215921879573154e-02 -8.882873784994502198e-02 2.520485220983350802e-02 -2.149616959071727895e-01 -7.824398365859211446e-02 7.189938445495089054e-04 -4.117959393930720538e-03 9.908945172639772869e-02 3.921222251781540658e-02 -8.869098566251893204e-03 -5.433223724021895434e-03 5.564213011611613552e-02 5.608094811334825595e-04 2.675231140847518507e-02 -3.708462544637043667e-02 6.889522055522315225e-02 -4.302522017286762438e-04 3.967731451671303866e-02 -6.237262912295398441e-03 2.300461426229183197e-03 1.234895958268492633e-01 -4.252043359252639237e-02 6.506039720752070099e-02 8.853082527274080266e-03 -7.176331711853287457e-03 1.068906684389197333e-03 -4.004366008211279748e-02 2.473413826474296986e-02 3.909345871868087630e-02 -3.745630391054418674e-03 -3.967760028344589560e-03 4.036714370864593650e-03 1.069432771809381011e-01 3.361726676985971290e-04 -2.199717703593000607e-03 1.033965601265605418e-02 -9.759088267474552714e-02 -9.191648253380695077e-02 -1.821627710837116091e-03 4.896190810398216853e-02 4.032074810385997965e-02 -8.036423179109995014e-05 6.577679875701614165e-02 -4.254324905601590111e-04 9.040242819728955270e-02 -1.819174424607426094e-02 -5.862624665375303773e-03 4.559287595465035328e-03 2.151667372557701172e-03 2.388052611485950993e-02 5.410287979639104815e-03 2.712150141902586534e-02 -1.467440585122734530e-02 8.605117879414501660e-07 5.490763046824019555e-02 -1.811634751987820777e-05 1.438906248392436971e-01 -3.636790894130974977e-02 2.527693975659874026e-02 5.467059269974398200e-02 6.849278801619257395e-02 -5.673525044309168756e-04 -1.505202979918673044e-02 8.856224337199089525e-02 -9.145157688020309761e-02 -7.425525205108120252e-04 0.000000000000000000e+00 -1.136841271810362609e-03 1.985272840252576623e-02 1.094242726913627478e-01 -6.563328971337784035e-02 2.309051512907266471e-02 -2.066826289925048285e-02 6.113305561307559588e-02 6.714080360450418172e-02 -7.355340940758971213e-02 -6.302254573456934038e-03 -6.633871150700101438e-04 -2.052961486091740145e-02 -5.877280631655659553e-03 3.618047832408396308e-02 -1.410722622813863521e-02 -1.143187978017738554e-01 1.047066767951342553e-04 -1.950931259962145710e-03 9.722731900986567033e-02 2.254812220682250040e-02
