1.085332912488636697e-01 9.633428639829806628e-02 -4.039724689822638687e-02 1.009899285716983619e-01 -4.200886682396957200e-02 3.860661650813972806e-02 -1.904246948707606635e-01 -8.048685269169579548e-02 2.718531853275114527e-02 4.241009857587141330e-02 -1.195115647743554693e-01 7.099652226432751068e-02 1.310399198079221228e-01 1.604510445847853045e-02 -2.271795313006277905e-01 5.017382234371785266e-02 2.309180940372463579e-03 -6.028036642693960362e-02 -2.402174701202777415e-02 1.533522090444544850e-01 -9.812058283988164820e-02 1.659562907976885049e-01 7.684976012319537364e-02 2.483600746137407389e-01 -3.701850433451360500e-02 5.750680366084809370e-02 2.987315737552407972e-03 -1.627249220498305088e-02 1.037734327700700759e-01 4.889148094899447086e-03 -1.224091291324050368e-02 -9.096156692928258902e-02 8.464828453683959086e-02 2.142640564349097276e-01 -5.214352680535195433e-02 5.976861451404815589e-02 -4.817891494074942604e-02 2.937812191336887455e-03 1.335384285322899385e-02 -6.171724702074294494e-02 1.371712126832538292e-01 6.720572587942354181e-02 1.799454032097531631e-01 1.469050020159645420e-01 -6.698421564646996236e-03 4.298367529799848596e-02 4.513689409685203713e-03 -7.376992436480249438e-02 -2.535105046404624932e-02 8.668461467946105004e-02 2.958529888731547056e-02 -1.261018113476043145e-01 5.546965400133987284e-02 -2.983479966029607688e-02 8.331681880778908644e-02 -5.109064519099531382e-02 5.687949839696620352e-02 -1.423366891479278529e-01 3.739150801738983648e-02 8.090218734707055326e-02 6.894101373137472011e-02 -1.502363433950516802e-01 -2.207881612060757504e-01 -6.112967535205710012e-02 -5.664127059117724655e-02 6.312163913324748271e-03 -9.129760038453334225e-02 -3.376812366148903427e-02 -3.306938776996806457e-03 4.673910146342764860e-02 -2.357140653757252430e-02 8.422649735500324641e-02 2.206320518121258067e-01 -3.730368440012940545e-02 1.256519955807928468e-01 2.986223475622933055e-02 -4.629769398065361474e-02 -2.213564645909715800e-01 3.329441647655236730e-02 -6.559099584689745410e-02 1.274372547712485926e-01 -3.081515551195203664e-02 6.994996983364690224e-02 -8.971067342235462816e-02 -4.437897748081810582e-03 -1.545034062245571362e-02 1.792865885372104395e-01 1.615016195663872278e-01 1.116475375308598056e-01 -9.509537574668434912e-02 5.818885453838542471e-02 4.843477423864667869e-02 2.300531758837266651e-03 8.884515075800764050e-02 1.023154658590213761e-01 1.540927958758325778e-01 5.583916118724316369e-02 -4.146573474025772033e-02 9.147278791796172037e-02 4.424678263425144836e-02 4.602203410533780431e-02 4.480418126435815884e-02 -7.413414393665995750e-02 -1.750042893000812172e-01 -1.352758310598971003e-01 8.150722948156616243e-02 1.019984394805058814e-01 1.001075520274558595e-01 -6.844517819554953031e-02 -7.706104404770174054e-03 2.894886790359346013e-02 -5.414865043310923554e-02 -9.634727997841890934e-02 1.369299449433627192e-01 5.826790018219180772e-02 3.868971520179236706e-02 9.940145286538701330e-02 -4.873230856267546374e-02 -1.574864297540483904e-01 -5.940486456358114176e-02 -9.023890050548827313e-02 1.150925850870037834e-02 -6.246419150717207741e-02 -5.846770748709134713e-02 6.506315886857776121e-02 6.730091728194602385e-02 4.071023334425775964e-02 -7.044527438990401402e-02
6.723536047632358570e-02 -7.766466681945791151e-02 2.658402206314825628e-02 -5.541557619929785017e-02 9.961516482662531591e-02 -5.244788747252564914e-02 -3.053664004871982796e-03 -6.800731636595327978e-02 -6.901468128508801703e-03 1.389077316708117182e-01 8.757879676916870137e-02 -1.325262817300386364e-01 -1.430421711738289192e-01 -2.730128319642681836e-02 9.305925577808492333e-02 3.960780637465410176e-02 -1.709889415674392954e-01 -9.728448647588365528e-02 -2.122884185861613482e-02 -3.827957615977124750e-02 1.735391601459062572e-01 5.510171068451405474e-02 1.437548411075172672e-01 2.217643579764675896e-02 9.525276179162658896e-02 -2.348668493219413858e-02 -1.691645246814478185e-02 3.863789578257544044e-02 -2.070385349933392960e-02 -1.730148806915459692e-01 -2.093005640948380208e-01 3.853715346147409959e-02 9.816121858375291553e-03 -5.235274758003100048e-02 7.290415146029202709e-02 -7.711056040594115035e-02 3.010345274202641183e-02 1.752022135033844130e-01 1.384236241083486307e-02 8.639594633945913565e-03 1.716963209623353350e-03 6.840406905335859322e-02 -1.963704935578879703e-03 1.538260439726280016e-01 -2.682504594541264969e-02 -1.547145111622048042e-01 1.991850718944470494e-02 3.631068132161213158e-01 -1.112362449650614732e-01 2.515702771438080299e-02 -1.048568751927930476e-01 1.173161721375808736e-01 6.051955138122043498e-02 -2.328195365539012865e-02 -7.321712897862366065e-02 1.382085183490617264e-01 1.084309081121021395e-01 -4.052337585791046526e-02 -8.745687592096776375e-02 8.163136656714375938e-02 -1.100176689465999919e-01 1.545144577302953216e-02 1.236236838322410103e-01 2.555060734415072476e-02 -1.533438663944931279e-01 -6.073007560069727806e-02 1.171933903054725307e-01 -3.960257870280771940e-03 -5.003172585562898692e-03 1.497011035832258863e-01 -9.724869670589209036e-02 2.533757944356496844e-02 -5.419165166194828825e-02 1.277506426459238398e-01 1.813677401214611748e-03 -5.306063393067772527e-02 -2.800179203390421381e-02 1.479436208101317634e-03 8.061518512631908606e-02 -4.751396428485582524e-02 1.950791902908604047e-01 -5.623159423998985718e-02 -7.607555618660445662e-02 -3.761313598228900601e-02 -2.101970563338412257e-01 1.680087291242723935e-02 3.167381554826850798e-02 -2.144703268815321279e-02 1.673870421563303512e-01 8.839437630133586965e-02 9.494497640307260344e-02 -8.754298678217309337e-02 -9.795959917975938236e-02 -1.195449532691618827e-01 -6.147041980806297601e-02 -2.585858577251218815e-01 4.594116915751016855e-02 -2.813027027019194271e-01 -8.907703355218846153e-02 -1.941451887124697601e-02 -1.088856496023089121e-01 -9.035113117501397673e-02 -8.643248152920841865e-03 7.251388726761277825e-02 -2.738377799308131313e-02 -6.560381766566843187e-02 9.829609772016748015e-02 -1.366911327442875967e-01 -1.276667769638245575e-01 6.887914054435091693e-02 1.053716511298474628e-01 -9.849285924772427370e-02 -1.078341670994773516e-01 -1.001892559835077523e-01 4.502356739907959621e-02 -6.398414197417554017e-02 2.870597962949117399e-02 -9.002422010333134897e-03 1.432668125618619392e-01 1.633585014570156091e-02 -3.188696036869042572e-01 1.841203658822294364e-01 -6.627051190845414941e-02 -7.104649945339498729e-02 -1.516022308305675081e-01 1.702157068425027078e-02 -6.337216431931276539e-02 6.944518931440105819e-03
4.994057094865045343e-02 -2.159638328857148987e-02 -1.596223141985237959e-01 6.679386445003958339e-02 -3.394180756384615472e-02 -2.080694427712517433e-02 -7.829086327395254341e-02 5.846928998357468071e-02 1.900202755875351757e-01 -1.358126507993605847e-01 6.540218633449311654e-03 1.376037860269828383e-01 4.534391592878315308e-02 1.588237800233241459e-02 -5.407475432424538320e-02 -8.922330841449969963e-02 -1.015820833165334905e-02 1.134358439531089058e-01 -7.121371833162024045e-02 -7.782661246825503532e-02 2.192972885804786720e-01 2.786528105772288766e-02 -3.652019537265149135e-02 -1.659152807074500136e-02 4.447541604691845896e-02 1.587734127747958413e-02 1.356954494885859522e-02 -1.941151504866899802e-01 -8.365161633431263122e-02 -1.970878182011332261e-02 1.352621388891392662e-01 4.974318589804608420e-02 1.430199462331552263e-01 7.858637855726105514e-02 -5.729173405873010105e-02 -9.865566676264711510e-02 -1.565024853657729087e-01 -4.561006992798477544e-02 8.038598544949326907e-02 3.295909487882663080e-02 1.463111991761122388e-01 6.577718821664568782e-02 -1.862224129702288178e-01 -4.618676388829757312e-02 -1.838362383147956573e-03 -6.681841762671386978e-03 1.000577961811481426e-01 -1.032173469077111161e-01 -1.170791650997185934e-01 -1.768469184261953209e-02 -1.379193794211246993e-01 -1.924342164677207423e-01 -7.086515808087316681e-02 -1.055042941541562557e-02 7.847410114821473659e-02 6.646932447594375293e-02 -1.971819630935861892e-02 9.657332374713445411e-02 1.137591681767207985e-01 -1.372751745615360779e-02 3.696066909619483837e-02 1.268820030955474520e-01 -3.215520229266403962e-02 -2.619880091117285023e-02 3.449741833554637732e-02 -2.422040221240001276e-02 -1.658974017391953715e-01 1.051374514065540333e-01 4.612006223009725708e-02 5.151376475028591334e-02 7.727724249222889252e-02 1.549025505309110651e-01 -1.619227382396168109e-03 -1.944343054857408937e-01 6.137556516291988937e-03 -8.279333740980646117e-02 -4.605792646726754661e-03 -8.653681440641895761e-02 -5.930896805995049259e-02 -1.254456592754873145e-01 1.338022057672162424e-01 1.692195577404245754e-01 2.706635544132590665e-01 7.852489329996931167e-02 -2.014288838861725550e-01 1.626514757798919464e-01 -8.651318166540568344e-02 6.185831783833356523e-02 -4.210613509659359016e-02 -7.891632525513011132e-04 -5.878571264349530257e-02 9.997994267846209426e-02 6.033408389137021044e-02 -1.143207368531224365e-02 3.226770036765952421e-02 1.379595555905498705e-01 -1.262061471234919019e-01 -4.384773116948136734e-02 5.813182821513735582e-03 -1.110008613026164798e-01 8.285903758499647831e-02 9.372417139375587014e-02 -1.871933574330285344e-02 -7.119392167950382155e-02 1.413276360897258721e-01 -2.061719672438570572e-01 -9.033149286074208459e-03 -1.443460997015327540e-01 1.198515900202700053e-02 2.333632013988518050e-02 -5.796694558275058973e-02 -1.233371503741136355e-01 4.606831046447625033e-02 -9.663281309325064128e-02 1.342070804553770480e-01 7.985479470960570036e-02 8.759792663156550085e-02 -1.322771097600355383e-01 1.673892654729556839e-01 -4.922697888882714146e-02 -1.352828625542601138e-01 -1.400680937275122495e-01 -1.052771639792007274e-01 -8.484329913768613729e-02 5.539160342320536938e-03 -5.734758735804391938e-02 5.148211119271495217e-02 5.417943791716810925e-02
-2.495695733796669813e-02 -1.798408586733415970e-02 1.868288147783444403e-02 8.555485421446859529e-02 4.056973357287674276e-02 1.445513793579261408e-01 2.531569870781359977e-01 -1.304569044164463343e-01 -9.345173143302226704e-02 -2.381736240298322482e-02 1.295868887425855875e-01 9.445892423988384856e-02 2.902370670690354940e-02 -5.128935369875487621e-02 4.345746880008864027e-02 -6.801860632358032455e-02 7.492192365175879285e-04 3.641277816721814192e-02 -2.968070229721831432e-01 -1.195306123697247314e-01 1.736886228115053221e-01 1.128736087839044555e-01 8.104521494929034509e-02 -1.455790496543369339e-01 -2.144575877756273175e-01 4.894446504617359917e-02 -5.473548422141897435e-02 3.005300990178206288e-01 1.445744391775989277e-02 -1.026771991511165744e-01 8.478636576078260600e-02 3.811186857374340188e-03 8.056530108877733853e-02 7.964993214964340151e-02 1.719316737796150463e-01 -1.091725259594678171e-01 7.391122979142288052e-02 1.601402383706498900e-01 -1.559272154142762601e-01 -2.664274477804103314e-01 4.592614669758519896e-02 3.235568305847217885e-01 -8.186545174465632846e-02 -1.346664179163095665e-01 -5.235696785355455074e-02 5.236705626418350357e-02 8.983073051876164228e-02 1.344126971523109670e-01 3.413681129967839623e-02 -5.202645792257581253e-02 1.808832272030442556e-01 -1.435279857393432501e-01 -1.108362572394670093e-01 -2.421495002525528035e-03 -5.484232334026586247e-02 -3.852021963621880124e-02 1.487996663682164267e-01 1.256188312917759162e-02 -2.720186211465219078e-02 1.548296879828847950e-01 8.909293756185443502e-02 2.257636586652889132e-01 -5.616899191233299532e-02 2.821466145074598419e-02 -9.172581438276225518e-02 2.935825543407168635e-03 -1.410571342270898476e-02 -1.056965095135163901e-01 4.490073292319320813e-02 -1.175722487105406305e-01 -1.151687880145060294e-01 7.496684683547763517e-02 1.633948986880466234e-02 1.473654064210505599e-02 2.945174583679074226e-02 1.367428773971275102e-01 5.415052107662651076e-02 -1.814121187595623547e-02 1.390308455066533722e-01 -6.671612321043880744e-02 -1.839686807550480752e-02 -5.294553163965055875e-02 9.069437507483635308e-02 9.415614569379631218e-03 -1.801296091612081263e-02 7.393015022679262291e-03 -6.123669221849731975e-02 -6.835009411334065643e-02 2.435488478644190231e-03 1.616701283044652826e-01 -8.888113797682964390e-02 1.022651388584894100e-01 6.271086208192483413e-02 3.527276414089435680e-02 4.902955067824335544e-02 -1.314312858777409027e-02 -1.001526305517189130e-01 6.685464322756906608e-02 -1.092351806061148817e-01 1.272713670023604970e-02 1.564770378707368639e-02 -1.162026930962563459e-01 -2.056549879122799573e-01 6.774119216489782325e-02 8.648198747447202739e-02 -1.387886124931483056e-01 -6.942975859836378848e-03 -1.193291721106794490e-01 1.919811923709911295e-04 4.850523166538720649e-02 7.396594660004555954e-02 -4.295416228773810824e-02 -9.976901082860245400e-04 1.784484046909679683e-02 -3.917105108098401650e-02 2.922138764792643340e-01 5.507808054149631455e-02 3.976045654754459258e-02 -9.612550548255567595e-02 -1.757586952942765679e-01 4.620793581954732443e-02 -1.495704239778520572e-01 -9.993495803265636107e-03 3.333590744765884545e-02 7.703166496463650925e-02 -2.161552932002084627e-03 2.854542250297337769e-01 -1.604455067577630414e-02
1.850153705107103128e-02 1.433376022348794299e-01 -1.022630370594524857e-01 -7.602217877935016008e-04 -2.596207609091480753e-02 -9.623244042295855949e-02 3.572011231940454973e-02 2.315353233457266013e-01 -1.027490556989076598e-01 -1.007354043787479780e-02 -4.470528391496243065e-02 -2.517916167940946748e-01 2.260262683270233552e-01 -5.210581408863118602e-02 7.531606325313885963e-02 -2.653468737210720185e-01 -1.972459457718701240e-03 -2.257043357856806376e-01 1.494977976028001865e-01 -6.751739428231012807e-02 9.979909155843218194e-02 1.765898175370011688e-02 -3.743688869024347499e-02 -3.449447055440700571e-02 -8.600135684842470651e-02 -8.906043462328626370e-02 1.877100979623250827e-03 6.126957388098076829e-02 5.604425943306468733e-02 -8.366444920006528216e-03 -1.871139451849006818e-01 2.934962774380609710e-03 6.227014676200239365e-03 -1.634162941513765399e-01 3.837468602975784016e-02 1.049638959277462286e-01 -5.788171703299747894e-02 -2.262715221269607502e-01 1.146069307397712123e-01 6.915129810101677821e-02 2.155983044111046409e-01 -4.863067771929991713e-03 -1.658817081737705146e-01 1.591916713741573786e-01 -7.516632724147494227e-02 -6.989837464258777389e-02 -1.224650238812656500e-01 -5.389528688459913064e-02 -7.380855363243239708e-02 7.346896651793241584e-02 -1.329143367884885220e-02 -1.243243205949888797e-01 1.444665987169962973e-01 -8.477948741361233942e-02 -2.280876316549961327e-02 1.312583696031072722e-01 1.699744469638850286e-02 -6.648645577005490859e-02 1.211159860240438035e-01 -3.611005056085235532e-02 -1.220425108938037462e-01 1.153643671927215147e-01 5.737221242621264039e-02 -3.863400917505278864e-02 4.839125389508344005e-02 -1.559354655240881293e-01 -1.750431556614621131e-01 -1.346505090142212369e-01 3.529208636257134130e-02 7.471290463697083384e-02 6.730734443108973841e-02 -6.868227625168052408e-02 -1.509117285543704612e-01 1.742099207019994489e-01 3.515575543551307386e-02 4.511454244720548151e-02 -6.203485077388148222e-02 7.605994979650698706e-02 -1.244880288784343675e-01 1.579148637051859538e-02 1.490597660539097480e-02 -1.316078858328381951e-01 4.619933184251480071e-03 1.434301014983662970e-01 1.505560506574447378e-02 1.351310426888294725e-01 1.326928007329873926e-01 -1.489736339881981286e-01 -2.318039492381500713e-02 -1.588823962132709378e-01 -1.112251460768599876e-02 -8.045768612095109684e-02 -1.119053985628187808e-01 -3.003229841671626113e-02 1.255396175681727094e-02 -6.036660620590356824e-02 -1.994254036596799229e-01 -2.365162805938232291e-02 -2.095689540995240574e-01 -3.751345266015100599e-02 -1.053240180886153010e-01 -4.543895973165688884e-02 -6.413932658679513676e-02 1.341459675366090398e-01 -5.467992904763684797e-02 6.372712519444380386e-02 -1.429740853465012451e-01 1.170133305642581494e-02 -8.266207682347719021e-02 -1.000810396544890013e-01 5.598150913989417138e-02 1.056061117804225208e-01 9.063070054555276422e-02 -2.939200975065088886e-02 1.534048519039302172e-02 -8.522297680413953858e-02 2.861298766247143965e-01 6.215218704290483703e-02 -4.601824112801491257e-02 1.617750475394394774e-02 -9.096816522574020271e-04 1.383073892633030211e-01 8.055859481288205060e-02 4.449332946709460244e-03 -6.548217447320051066e-02 -9.918662051822858816e-02 2.247937888322808220e-02 2.563446416574048370e-01
-2.388363346007986998e-01 5.958291977108285536e-02 -1.718669151653696991e-01 3.820563654042045953e-02 -5.679708624370843201e-02 2.927081658748189111e-02 2.948272630026988264e-02 1.623157165298136015e-02 -7.696207289173285192e-03 -1.782764634064456372e-02 3.923532829515802983e-02 4.199768169435008636e-02 -7.448554283741717907e-02 4.571506016981489486e-03 -8.365879974607365321e-02 -1.297992496898443260e-01 6.085954763504024256e-02 -1.174679025735245741e-01 2.462547812572673245e-01 -7.600404219041935472e-02 1.660375285924672178e-02 -4.589051075435734983e-02 -1.527670779452323380e-01 -2.023064900142841349e-01 5.751857820465522408e-02 5.946738941767258646e-02 1.114418456256983381e-01 8.031961500065816495e-02 -5.882280020367809670e-02 1.933981139200617316e-01 1.466347302495849825e-01 -2.027990155720080512e-01 8.580322695628704588e-02 -2.384754017805582327e-01 7.726237879986387613e-02 -1.066417237090104692e-01 6.469292895363312756e-02 -6.162326559415593624e-02 5.260874613005111361e-02 7.096105485395903800e-02 -1.980317067710680723e-01 1.982982738209853810e-03 -8.107953654021363143e-02 -3.528551073243935132e-02 -1.631722533742441467e-03 1.319963696885921578e-01 4.036917124557382747e-02 6.712322209681918783e-02 -4.175830862438320579e-02 1.310692173759054890e-01 -8.152561741822648977e-02 -2.420235335169179658e-01 -9.883374919137224990e-02 2.323793991628880784e-01 -2.139985530254449181e-02 3.135659670779056829e-01 4.298016141369228466e-02 -5.493283263446156056e-02 1.101330221624076122e-01 4.534973383698932305e-03 1.918151436646988242e-02 6.708194957393491531e-02 1.483859577002168487e-02 6.188509262214870327e-02 -2.337433808916153100e-01 -1.167028812277331601e-01 -9.569869790486329464e-02 -4.247500654868045789e-02 1.387567145746993746e-01 -1.491995224346387774e-02 9.498319343197083459e-03 1.238038080188345880e-01 -1.148834107595838733e-01 1.372884906834004499e-02 1.590130003290778637e-01 -1.497042391031755681e-01 -7.465990348245849298e-03 1.582591050137985636e-02 -1.967993629756823737e-01 -1.887482341024207533e-02 -3.114504322288183871e-02 6.820782752530185622e-02 7.265266553119247711e-03 9.622999340881981112e-02 6.540567565012880835e-02 -6.071006860889799350e-02 -4.925015161419318832e-02 5.170261970968702964e-02 -4.088862505128837421e-02 2.190549407725317366e-02 6.037944359590284582e-02 1.347714847008530670e-01 -1.295670562246570463e-02 -1.770389394844144870e-01 -9.628150019790383818e-02 2.433081602302376578e-01 -9.085403342967950102e-02 -1.145673071602446545e-02 5.075078855018860108e-02 -2.571330829426610731e-01 -1.831421236246366657e-02 -1.138343021805105076e-01 7.055433454801214588e-02 -9.222011132962232294e-02 9.963963650976069564e-02 -1.594837298557525568e-02 5.761182003503342863e-02 1.761703193528945111e-01 -7.574147152337994127e-02 -1.591092010066899598e-02 2.217414611940482227e-01 -7.109078633668991509e-02 -6.519511490480291160e-02 -9.098486672761116334e-02 -9.374548301942370321e-03 -1.573187260717827107e-01 1.505178605704055907e-02 8.944299822040902015e-02 -1.600730854381838819e-01 -1.959859271617030718e-01 -3.771048261912279126e-02 3.216481781787242089e-02 -6.905493561387650303e-02 -1.115096657683104370e-01 -4.963011018734887758e-02 -9.681727145881495467e-02 5.813018000621377607e-02 -4.575489584259233994e-02
-8.095050341875138777e-02 1.489169670334466455e-01 6.877673168757311717e-02 -6.720444425823432488e-02 5.090541770537142935e-02 -8.058285901361417897e-03 -1.596213284234264049e-02 -9.303155913004736155e-02 1.632510693976367833e-01 -5.399871046329520613e-02 1.018231606680759793e-01 2.628339513548460724e-02 -4.427097372371201212e-02 1.298948908465972774e-01 9.814947600608676936e-02 9.698059719199320083e-02 6.455250918957582129e-02 8.163296641675557574e-02 1.104657279524918628e-01 -1.149309034507844246e-02 -9.845111080663451752e-03 -1.688128302203916464e-01 1.333797059552860320e-01 -7.644952245415706504e-02 -2.223137104367572114e-01 1.133022362322089471e-01 -1.331601208065432418e-01 4.755279959790164462e-02 -9.657370959809262467e-02 -4.662321251695593360e-02 7.207077440304228942e-03 1.325914778674323613e-01 -1.384433773088460107e-02 -1.329292012811075785e-01 6.405091150263272914e-02 1.235182984619029034e-01 -6.869925780255368986e-02 -4.767379715745053564e-02 -1.946841978110633031e-01 -1.290652380995159221e-01 1.211088314710953712e-01 -5.301779748641288759e-02 -1.331085863199101826e-01 -7.665239769369507072e-02 -5.201165920507429610e-03 4.062896373188969179e-02 3.806724653296439387e-02 1.082853732147470716e-01 3.418825138886966708e-01 1.738264458180309724e-01 -1.006311036587580893e-02 -2.788962656574487525e-02 -8.288572604999121241e-02 1.355370877332275938e-02 7.320841344169355669e-02 -3.661079971771135505e-02 3.260484175244371396e-02 2.786023465011600031e-02 7.882929120878762186e-02 -5.498199202184538698e-02 -4.361380014947521810e-02 -1.232234543760264145e-01 3.474359440444458463e-02 -1.293551063458765402e-02 1.973141372025144780e-01 1.507134299756816009e-01 1.071876710923515413e-01 7.527425419032164611e-02 5.726921012317300053e-02 4.598110123041520420e-03 6.225179152343589956e-02 1.714325153901255228e-01 9.048161331224469084e-02 -1.885745023653789820e-02 1.588660577734757155e-03 -4.651661743985813918e-02 -1.166723405639779332e-01 -2.230806363385409719e-01 8.069817490931362192e-02 -5.477591735208780371e-02 1.132379960964731147e-01 4.259752269480667625e-02 -4.344830287370813476e-02 6.007621306986060672e-02 -5.707770211379837449e-02 1.114397336357213393e-02 -2.430282898281705545e-02 -3.942353186627221839e-02 2.303613341462229236e-01 -9.508455618071588733e-02 -6.477299684285457715e-02 -1.053949280024144702e-01 3.547927984946505631e-03 -7.809171873122650043e-02 9.689751561828624515e-02 1.907030305596271735e-01 2.525219312933554144e-02 1.925695380935754653e-02 -2.507977222131783923e-02 -5.150826798758586372e-02 -1.146196497341228082e-01 4.663006692453400964e-02 4.851041339619429488e-02 2.095078841368832323e-01 -1.585374386098872268e-01 6.748212892149721420e-02 9.098757022979862830e-02 4.675730550263729191e-02 -5.751949038153128524e-02 8.771867319175334632e-02 7.465991613148194317e-02 3.457518500179406710e-03 -2.268267412010467610e-01 7.065946707984664676e-02 2.054842052889448156e-02 -1.643548134597443144e-01 -1.217885863289028675e-01 -8.158313804648016643e-02 -2.806462600665777726e-02 2.360985387813724704e-02 7.779489151042620620e-02 7.304721953540049828e-02 -1.356141041423201687e-01 1.261938303939024453e-01 -1.389786058026917792e-02 -3.821267737570509249e-02 -1.418670361594651375e-01 3.400073053773697979e-02
-7.701699900878417049e-02 -1.944829924178269609e-01 1.292478606204602865e-01 3.204916016271618789e-02 1.119925414411638703e-01 3.595637109277104865e-02 -1.069035954312231793e-02 -1.043956008536189341e-02 -4.513201654747158592e-02 3.708813021976145596e-02 5.607067170034227277e-02 2.338613379075957927e-02 -4.973926141761106368e-02 -2.007462862606514478e-02 6.490678496139816456e-02 -1.914712896499826122e-01 6.455329201597706512e-02 -4.985962390177638148e-02 3.332841120881026298e-02 7.702634993032438093e-02 2.023820406460474786e-02 3.411350676931410031e-01 5.850938499320378766e-02 8.596741570261381971e-02 -1.164588087983273734e-01 -7.625226467202782243e-02 9.391055679469940964e-02 1.459772058301821683e-02 -1.609479403831305666e-01 -6.564059745070553557e-03 -6.575271441168699382e-02 2.044554239236885673e-02 -1.452390774000113516e-01 1.411184760894310386e-01 -1.072318104323360111e-01 -7.910650956885387219e-02 2.791414361278875614e-02 6.574458011863527906e-02 2.053063357940137501e-01 7.047806321702260179e-02 -1.809286666151898593e-01 -1.050416359523673460e-01 2.087037519326541413e-01 -6.880332524409812738e-03 -2.047411181314343354e-01 1.187681024318264639e-01 1.577532803778965154e-02 -8.171104546810095681e-02 2.874937556454810333e-02 1.008641293937154182e-01 -6.334635508738493959e-02 1.652482369642028354e-02 -4.848363313352856314e-03 -4.704056604079655257e-02 1.656863573124523203e-01 1.699338513976849652e-01 -1.266859094472701577e-02 4.584311915225526557e-02 -5.814835662908848096e-02 1.325921636922121893e-01 -8.895794796361750079e-02 -2.937539924770685151e-02 -1.208259168367855352e-01 9.945654601708321663e-02 -6.080945177868449930e-02 -8.910785873645132860e-02 -1.337569404239023207e-01 1.730185894067847938e-02 7.988359036156909843e-02 -6.491495287305731887e-02 4.000520908428844419e-02 -3.787497710072201818e-02 -7.375307093393315694e-02 1.474645616300237494e-01 1.352705786084514201e-02 -9.329598616522574717e-02 -1.814990683677872654e-02 -2.296277717427797418e-02 -1.941507002702148920e-03 -4.450402369068400671e-02 1.232460557497880825e-02 -8.107500272862630530e-02 1.035677385425540914e-01 1.817375512141060079e-01 2.894509926886553591e-02 8.188617577962777061e-02 -1.364677499086875412e-01 -1.559845524688973084e-01 -4.061344837008832448e-02 2.678228730401400748e-01 2.327586899485848196e-02 -4.580051593464432872e-06 -1.204898887266048491e-01 -3.320073077507597337e-02 8.177894848658780191e-02 1.807132936356922459e-01 -1.568044545094896269e-01 3.701824890544994084e-02 5.637299627074049473e-05 1.830011590107090691e-01 3.776759040913102439e-02 1.872162987867324324e-01 -1.651358315405333232e-01 -4.702742490310171664e-02 1.543063273727299511e-01 -2.181908857432922622e-01 1.171669028125318056e-02 1.441905693194721338e-01 2.431202975665425203e-02 -4.492851633666797295e-02 1.911504258736605039e-02 -5.377054129339910865e-02 -2.385675607681638499e-01 1.700073621330257939e-02 4.778862606568301530e-02 -3.248791532812868310e-02 -3.146137463938075696e-02 3.448823071213542868e-02 -1.138069720942006119e-01 6.286709037174433023e-02 -1.394351909537841147e-02 -1.134629219833152569e-01 -2.504835237290055638e-01 -7.428291869189075636e-02 -1.140639163062021622e-01 -7.872926533204877009e-02 -5.542877117319990748e-02 -6.116555997774580228e-02
-3.944796480253917603e-02 -1.187087517888074095e-01 3.498113445841685709e-02 8.221382643008533220e-02 5.068548510704905252e-02 -7.633988273269594208e-04 7.520249380797368322e-02 4.741888656624401038e-02 1.283253369244908293e-01 -1.520144750577062387e-01 7.372511431103043189e-02 -1.870943208498942675e-02 -7.226775595963581822e-02 1.330480437440462460e-01 1.126346868491845954e-01 -7.466053648517638475e-02 -2.617926761812922054e-02 2.109097202677872630e-03 -9.365412827057835454e-02 -7.247766247981214660e-02 -4.158452242023454211e-03 4.840784439864978528e-03 -7.460463114794274597e-02 1.120724187810799022e-01 -5.165522698408329255e-02 -4.739766592669313050e-02 1.580535142775133517e-01 8.051766359929893313e-02 2.245555879811965694e-01 1.732119625577805133e-01 -2.405623734360592680e-01 -2.942685323307221018e-02 1.062046427735042070e-01 9.803496600878183753e-02 2.632334518308382040e-02 5.211300378161142638e-02 -5.360298658141283978e-02 4.806757182687173419e-02 -2.427021528046579280e-01 1.255024125942245661e-01 2.045840492338650216e-02 6.235179299649741547e-02 7.036195940522665948e-02 -1.218865406128869511e-01 -5.207105788391695744e-02 3.919831556310793275e-02 2.556635047311062864e-02 -5.787668407692132116e-02 -6.254171950258886892e-02 -9.669746530546424745e-02 2.117532784170867918e-02 -8.130932500240660443e-02 7.876552016167910619e-02 5.027514381044059788e-02 -5.951992308854046204e-03 1.615868385117586181e-01 -8.423700395163390836e-03 1.932835108346285524e-01 1.798281364898368095e-01 2.448675851796018599e-02 4.796942131515430363e-02 -2.631219019852043539e-01 -6.108434180351732072e-03 4.107185947048252322e-02 -2.821195811499433992e-01 8.539053729782737634e-02 3.421657454268806769e-02 -1.320490084356302496e-01 -1.174171898354224239e-02 6.152852770192038939e-03 -9.250462151834548674e-02 -7.776309053898207424e-02 6.261429402694983215e-02 6.500865793246358992e-02 -2.852533391757580694e-02 4.861988916309333691e-02 -1.720163802835656397e-01 3.010642947667213284e-02 -7.458829777310380105e-02 2.437936304004601970e-02 -2.686084950793407589e-02 -3.880353948142634124e-02 8.003872161576839131e-03 1.178339531043040289e-01 -2.897783726373364122e-01 5.504681103951798021e-02 5.856937428036952664e-02 5.036645889623802413e-02 -4.940728873401151189e-02 -1.426806841012581706e-01 1.768904827262960944e-01 1.738589629662704306e-01 -3.860898796605854305e-02 -9.647550497845226725e-02 -1.681044754635141122e-02 1.814420307245330141e-02 6.293874098959292840e-02 -4.618939284799100653e-02 -4.230439331832122618e-02 4.539733828990125120e-02 -1.971515238401250203e-01 -8.240399299822949442e-02 -6.104623483488418739e-02 -3.679015508756857539e-02 -7.448373209924652461e-02 2.404271780563013994e-01 1.106509664635822454e-01 2.410845733521377598e-01 2.904272954302383747e-02 -3.113067501527841570e-03 -1.929810121439522186e-02 -1.163308757468668464e-01 1.103173537263848203e-01 -4.223209520693183006e-02 1.285564586797798871e-02 3.983369069537479740e-02 -1.657067001221097444e-02 1.031832990544986339e-01 -1.744939919144173901e-01 2.462083165852908123e-02 5.009787065749496393e-02 -1.090087266151639339e-01 1.293000518227345741e-01 1.249541298087107274e-02 -9.424452362120780413e-02 5.173419059831654843e-02 8.091652681363424582e-02 -5.376302967063270599e-02
-1.364311915363470434e-02 -7.028269433467787541e-02 1.041817335704489471e-02 -1.710504390126545982e-01 1.565514593862498555e-02 1.467621340349999637e-01 -2.114012393474918195e-03 8.073006263454964027e-02 -1.120222037911091685e-02 -7.346535804579111539e-02 1.180442637935052719e-01 -3.363608931643990996e-02 1.329163078019998112e-01 -8.039151607699829283e-02 1.434366654695626575e-01 -1.809495138492746291e-02 -5.039352644246828522e-02 -5.664748028371201227e-02 -3.108508072582359394e-01 6.640835940506198409e-02 -4.231223652937309704e-02 2.733969387688540975e-02 2.816025575438898046e-02 1.037275863785903501e-01 -8.931717261061186686e-02 -3.130692330312800920e-02 -1.128842456245162523e-02 3.011058836762083371e-02 -4.738395401095635978e-02 -1.868772764854610968e-01 -2.154651210963358932e-01 -5.011312800913462345e-02 7.874244974272642458e-03 1.394219082067892079e-01 9.217495804265063430e-03 1.037543554931942037e-02 3.345245689614332468e-02 -1.044803442981675490e-01 -1.257524066819325770e-01 -4.191286510441926544e-02 1.505750308573958474e-01 1.335586454638517662e-01 -8.291991263900719278e-02 1.559965415534069518e-04 -8.317569496209294144e-02 2.129816702347682097e-02 -5.294950741023342344e-02 -8.767376032889317994e-02 7.592346776646383133e-02 1.498935094754821895e-02 4.219965108581701790e-02 2.759194352115117987e-01 1.990452950932581067e-01 6.293674184014474982e-02 -1.575197580373337986e-02 6.291785482948805686e-02 1.020150957968566918e-01 8.940116517715057665e-02 1.393804856109036316e-02 -6.302833868398163841e-02 1.558758053232583152e-01 2.429419721920185460e-01 8.504048664302367444e-02 2.805411985016743881e-02 -4.556130005254321186e-02 1.348956726833040742e-02 -3.664814253808405808e-02 1.850489444424913490e-02 6.693824622006588898e-02 -3.051602218136214781e-02 -5.119821522557987253e-02 4.198374453602982809e-02 2.360797969392894879e-01 7.325894991367543074e-02 -1.974984868920974801e-01 -1.050516279904741002e-01 4.192258238587855956e-01 -5.448445262802771583e-02 -9.299371619431336111e-02 -1.920606246638152381e-01 1.791788220076273030e-01 -2.838823418496411524e-02 9.281214377189614395e-02 5.477103162890784721e-03 -8.076707729997144314e-02 -3.371213022396039871e-02 5.946402158600090637e-02 2.320996704297936114e-02 3.645443674285223090e-02 -2.028794359921505530e-01 -1.676686066584223700e-01 -8.603957111236816557e-02 -4.443363632033394837e-05 -3.721736156848956534e-02 -9.162712174593921899e-02 -1.177909158825704294e-01 8.591866739542618203e-02 7.394330628324437271e-02 -2.586140201165290989e-02 2.506480202225640219e-02 2.914611103265499215e-01 1.101542563305705907e-01 7.121268944848838968e-03 -1.140035843058753717e-02 6.720942743265552466e-02 -1.880593303773279434e-01 9.363533057152757799e-02 1.137873246039749695e-02 1.846421922089797746e-02 1.144554470244077554e-01 -8.990034626854158384e-02 -2.062000268199652153e-01 -1.294485448530555693e-01 1.956060849241846381e-02 1.628621768711172313e-01 7.663222092311394729e-02 1.748626970301340455e-01 -5.829702941333240324e-02 1.038409953311307393e-01 2.085034553760004364e-03 1.462572939047679099e-01 -3.343376443138117160e-02 1.975443543988153472e-02 -2.980827005861413220e-02 -5.779104910849271193e-02 9.775493313141346303e-04 7.307818085185978363e-02 4.401674182952972081e-02
1.922046573318464402e-01 4.312225310998557895e-03 -7.246608943091747967e-02 1.360717414603898612e-01 2.713151845067780094e-03 -1.702535213929605995e-01 2.347358140798839199e-01 1.684052184151715870e-02 -4.732961643597966700e-02 1.850636536958861766e-01 1.552575244773728678e-02 -1.438174307499629767e-01 -1.048373418796583051e-01 9.856049140928196950e-02 -1.139755322346352323e-01 2.073564802873198720e-01 1.053771630590164543e-01 8.661890641012658099e-02 -3.108971321536281932e-02 -3.942913546678027820e-02 -1.713832413436964519e-01 6.538067126294357101e-02 -1.863537499124404140e-02 -1.546332443870808981e-01 4.796426212561096664e-02 -1.978102266025048850e-01 -1.348689818568530596e-01 -1.015210949226944270e-01 -2.565178452558822264e-02 -4.666660654291605870e-02 -2.025542362456470291e-01 -2.889050304276218756e-02 -1.512705478480445287e-01 -1.547740731062164921e-01 -2.084659008780861619e-02 7.481488393023888461e-02 3.123565174697015990e-03 -2.725652313559310813e-01 3.537444982889009770e-01 9.630048375902824920e-02 2.232266058598413316e-01 2.249800107439295024e-02 1.462603819226272472e-01 3.507102014472093018e-03 1.207988762559510654e-01 -8.703075988732890400e-02 9.071163273061340349e-02 -1.756171845222166961e-01 1.613785877352127626e-02 1.677194162271349598e-01 1.066284653053194836e-02 8.398400104418722589e-02 -6.935870671078790684e-02 -7.953667713841450779e-04 1.825554184208935948e-01 -7.820570042560596319e-03 1.079756110552847620e-01 -1.271317608562767265e-01 -1.374723985368897158e-03 -1.462304630641387271e-01 5.080378734035370658e-02 2.304451905185830318e-01 4.185677590991102731e-02 -1.077945384056198108e-01 -5.026743822372789494e-02 -7.920078307558659630e-03 -1.444701613098482995e-01 1.779422435530985946e-01 -7.515283766675774635e-02 -8.892914286944467173e-02 -6.520477308783922954e-02 -3.446852866441323798e-02 4.471640299762021792e-02 -6.120922595386371623e-02 -7.537649255801090464e-02 7.337439512864876723e-03 -2.285039978417802986e-01 1.859868396161020246e-02 -5.245397071844596498e-02 1.317305997590216826e-01 -1.272784894588278315e-01 7.631874237760222224e-02 -4.450404471270226481e-02 9.109876825037140080e-02 1.194734978134275316e-01 2.012619748157146865e-02 5.763420142898966099e-03 7.970831515627004038e-02 -1.401924757322098869e-01 -4.845022581495961322e-02 -1.080768192458805288e-01 -6.151623963936585920e-02 1.424488415162289967e-01 6.037038630907456960e-02 -8.991974856641384017e-02 -8.889211890759389154e-03 9.579268677066922477e-02 -2.174525875480814302e-02 -9.044737070228250908e-02 1.450266533911231948e-01 1.921647256804142889e-01 3.964421397696519384e-02 -2.406552309899999756e-02 1.743142805185178001e-01 1.229744722601480364e-02 -2.912152176901558823e-02 1.354302906571628034e-03 -4.994624535911811047e-02 1.212262999300545933e-03 2.316239104418472625e-02 1.181224196631489032e-01 -5.387000059171639238e-02 7.060417144849580329e-02 -8.170267017804973275e-02 1.368001062156278536e-01 3.897161055751605097e-02 -3.874776716688230205e-02 -8.039110491645287682e-02 8.177371882411176018e-02 -2.357523586822815875e-01 5.957289383468756389e-02 -6.308725803240346902e-03 6.402965821021472381e-02 -5.235242686185682948e-02 1.359448969270733165e-01 -6.860309970229596516e-03 1.146819730452657005e-02 -1.133995678318671790e-01
-6.229977875835965295e-02 8.788426950039832097e-02 3.511939237226761878e-02 -7.997612044103308282e-02 1.321465652452212813e-01 -7.697186189306591542e-02 6.329892777955168250e-06 -2.617080844509984267e-02 3.902032529567945468e-02 -8.382185346161861658e-03 -4.646231292320383843e-02 -6.669295596850069452e-02 6.199043824997133023e-02 8.913919413361720556e-02 1.363963725407741356e-01 9.344391492546552658e-02 5.891839433507898433e-02 -1.094288908951241389e-02 2.165527873953716764e-01 -5.152550883124015768e-02 -5.413173836133559902e-02 5.486046894193327000e-02 -4.337064409678020871e-02 4.069743123550860486e-02 1.142343622670536629e-01 4.968019750099410270e-02 1.638113683361845374e-01 4.956853992842596111e-03 8.732647763954436149e-02 -4.400800493370385369e-02 4.250545414042622427e-02 -1.962172141286686045e-01 1.007531698497294570e-01 -5.549075357488923027e-02 3.807700497429720304e-02 8.231445354756995736e-02 1.009174861271083974e-02 5.958182716929306087e-03 -1.579730144499557343e-01 7.631839677333379646e-02 1.925727253878504186e-01 -3.885436820914759531e-02 -1.470185629549598458e-02 6.065467094867380005e-02 1.454914691630296852e-01 3.751592942797463571e-03 1.369505138518954390e-01 -2.980006034343553496e-03 6.855534314331657164e-02 -1.078899267646441368e-01 -2.042615411530752378e-01 7.858144498312621962e-02 1.672148152246309000e-02 -5.113148801422062045e-02 -1.964491060016683444e-02 1.050972229592752293e-02 -8.216674510671929943e-02 -1.690451113644868275e-01 6.540098331844295364e-03 1.019830943533207024e-01 -9.809699738979678341e-02 1.580892106623611182e-01 1.828535519005748677e-01 9.964609502390708862e-02 -9.613407590772604649e-02 1.047304154628680706e-01 -3.364373118614865515e-02 1.007915036638040163e-01 -9.869715019215970220e-02 9.056073437944886506e-02 -1.917976714284060774e-02 -5.160511372689074311e-02 -3.756629667826055785e-02 -9.303516528848969347e-02 -5.958124877578843334e-03 2.455162313414380737e-01 -2.293534931680691891e-01 1.419153562834308546e-01 -1.205353048110279768e-01 -3.166347068391687364e-02 -1.265352177856354787e-01 -4.441499793624958947e-02 -1.419548343619780606e-01 2.699972416792120050e-02 1.790626045589165938e-01 1.539470611181334957e-02 2.334593629949796231e-02 8.135590229107352023e-02 1.745691039261966504e-02 -5.737805359896920761e-03 -8.982267630958251300e-03 4.174075443283657011e-02 1.286193489057934070e-01 9.560757901165586881e-02 2.093791674152532117e-02 1.654221357034017237e-01 -1.319579361021977759e-01 1.080582054682212127e-02 -1.478597969974074222e-02 7.608593055699119923e-02 1.309756238163429232e-01 -2.015577033533731965e-01 1.254080563670265380e-01 -1.741932917692957938e-02 1.760429883596100614e-02 -6.331674364401065902e-02 -8.318637653551778921e-02 2.542398434626423967e-02 -3.668402053198564078e-02 1.034027463886912773e-01 -5.091512486181044850e-02 -1.283671749947459806e-01 1.402206541648610971e-02 -8.838531158414988931e-02 6.280812048519135438e-02 9.482819805062801116e-03 -1.508110791658931749e-01 -1.593400170783215719e-02 -3.674256577565117310e-02 1.079363820080269515e-01 1.276996055875357916e-01 -2.279286593086905788e-02 -9.125221085806185795e-02 -3.296791966264028817e-02 -2.072846872767371840e-01 -6.992644230550709716e-02 1.221385795771111060e-01 8.363133210800649531e-03
1.312142118023220394e-01 -1.758651555654382470e-01 -4.011185596425102112e-02 -2.717860841059752119e-01 -9.593976686830472944e-02 9.818571978241136256e-02 3.338272236566792173e-01 -9.331615576939764067e-02 -1.055716645891605632e-01 2.197357528250637806e-02 4.434243548765410409e-02 7.374850700725888895e-05 -3.376565944411969583e-02 -3.862303299645200583e-02 6.315271878517059352e-03 4.502199603003761291e-02 2.432757381344572908e-02 1.095520578357377962e-02 1.924085928256047406e-02 -2.264714681739895819e-01 -3.318114080721966397e-02 -2.353177428159868023e-01 7.337480080830857676e-02 -1.708192286942192273e-01 6.618358267807795438e-03 -1.027977126127276736e-01 1.425304890830247050e-02 -2.682270395920778247e-02 8.686903127443516837e-03 9.288817921894233776e-02 4.801812257309217430e-02 1.723733150944128933e-02 5.120941668116246737e-02 -2.242321378060769740e-02 2.537089649999305085e-01 1.125030615962715336e-02 -9.932423557458390506e-02 6.694600291996874453e-02 1.714041234417477688e-01 1.491069039733362578e-01 -1.286501978217825248e-01 -6.111544751095258909e-02 -5.522542163517429187e-02 1.026778502917888580e-01 -4.970063732202101292e-02 -4.009666791443132206e-01 -4.503818828043417571e-02 2.638701964488228240e-03 3.384539042105740719e-02 -6.548953341460414523e-02 -2.372799001545704278e-01 7.586382161414806369e-02 2.100066488055368774e-01 -1.166085771432350260e-01 1.632348795320155976e-01 -9.367163275913475626e-03 8.704465798101312934e-02 -1.327186050507619397e-01 -2.428784114060053307e-03 -2.541896407670669600e-01 5.953908180840680048e-03 8.339351501546821144e-02 -8.700204105072792057e-03 7.047309148174191185e-02 1.381573489685898881e-01 -2.777943700971019503e-02 2.447473867459287397e-02 -3.171581249026715621e-02 2.432376313320285255e-01 -6.757343163350883024e-03 -8.972199338906501620e-02 -1.497157710621347011e-02 -2.814573504747180932e-02 -9.504273928971421204e-03 -2.262711033624964230e-01 -4.673998850894519469e-02 2.202328150884003688e-01 1.141150361189117307e-01 -1.618551321959643408e-01 1.474690599304935290e-01 2.180052966595181496e-01 -6.903514992965918695e-02 -8.451486367546032219e-02 -8.033321270982005102e-02 -7.967573167190149241e-02 1.494956636604527767e-01 -1.895644695478647945e-01 7.147395115321217296e-02 -2.438825946568941652e-02 -6.881204334297306990e-02 -1.267265211909438319e-02 9.963183018435307989e-04 4.491499498812566438e-02 -9.281726297849710039e-02 -6.961169249077048260e-02 2.476724961318668358e-02 9.618530836989755417e-02 2.488132037243124262e-01 1.396772568863624900e-02 5.104399800866542269e-02 4.397037907725518530e-02 -3.407453581535017234e-02 -1.735683589136581273e-01 5.305667382345336837e-03 1.510527920512200750e-01 5.633311355460451919e-02 -1.103212685911443419e-01 4.323818087559800488e-02 2.278150560103542055e-01 2.728008403276915503e-02 -1.141740072372351630e-02 -1.283047978232539355e-01 -1.190240476744413439e-02 1.580660069358067465e-01 1.551413136582660730e-02 -2.701580296771500037e-02 -4.030164691362355528e-02 -2.025161923663606200e-01 -4.942899703876994788e-02 -2.108487108334929083e-02 -9.596492464623203322e-02 1.049275277854040123e-01 -3.201727212021740487e-02 -1.239843171324064852e-01 6.025586089126137163e-02 -2.456392552364730641e-02 9.770312547166198902e-02 9.544403707684119553e-02
-7.711548072067202220e-02 1.115699774015010276e-01 -5.519260772739388587e-02 1.142724682956547666e-01 1.250633349035759068e-01 -2.998752206576243626e-02 -1.757451017421811368e-01 4.255376080053702853e-02 -1.487542673866592280e-01 6.352722371002243740e-02 1.654354566831437168e-01 -6.450507678228283026e-02 -6.171577352128611305e-02 5.902545279573780806e-02 1.350400313651575757e-01 -8.201270177266165029e-02 -9.462481903288523510e-02 -1.251496413878807040e-03 9.437781115104765250e-02 -9.398017873224139007e-02 -4.192009965504754632e-02 -1.118119356903479918e-02 -8.480659765840849185e-02 2.072941380520369747e-02 8.104338164447219550e-02 -4.824202909476427853e-02 1.532952464942637615e-02 1.759351842685432654e-01 1.298901599452210176e-01 -1.419841715116845760e-01 2.198804051874271234e-02 8.288423279176466985e-02 2.015388234092090752e-02 8.825623530658809057e-02 2.793290038793248050e-03 1.937090354413360527e-01 7.088008986091418051e-02 -1.020041684095840534e-01 6.503444604960922915e-02 -5.214792272154134684e-02 1.597807475090913254e-01 1.326940890419072983e-01 -8.703532643200068879e-04 5.335673007796044864e-02 1.863234325275749947e-01 1.399224312131899448e-02 -1.450455910998688924e-01 -9.278590052130347710e-02 8.355299706356792561e-03 -8.205795523194465285e-03 -1.356433533131979896e-01 -1.570564392306404433e-01 2.193997856227271337e-01 -2.109275125152412084e-02 -1.635261197327726734e-02 -4.546211864908052819e-02 2.628863422301322417e-01 -1.079467444921785729e-01 7.721688343210762751e-02 -6.759307807231425269e-02 -1.411339163140486186e-02 1.716289085987653673e-01 5.427774275202328774e-02 9.872229727228679086e-02 1.905319328966187942e-01 5.793629530857321436e-03 1.306424128676786367e-01 1.353660792649920286e-01 -3.454025245014671897e-02 1.759556802320073332e-01 4.281712618811902432e-02 -3.561672904241294096e-02 8.169701079541358268e-02 -5.709729408391330668e-02 7.021149121509744073e-02 -1.770442124969979492e-01 -1.384460129749067459e-01 -5.825173537606351953e-02 -3.118769531299356856e-01 -1.050633616967939499e-01 1.735689189118849174e-01 -2.794639189776238365e-03 -6.892118931740055798e-02 -1.917351803229029872e-01 -4.221505371026337827e-02 6.082781405725998236e-02 1.193178140708782246e-02 -1.499762667185305931e-01 -6.462671106158407452e-02 9.770341371792272411e-02 6.505063294786671800e-03 7.249087573777567017e-02 -2.698507154837443550e-02 -5.843346381659041307e-03 5.970347842713254194e-02 -8.525720214138085562e-02 1.223490861763670695e-01 7.055008920733085720e-02 6.152272146742818887e-02 1.785622110307873711e-01 -1.290299330809800415e-01 -2.610182454020457815e-02 7.608111814470340517e-02 1.534255873177027552e-01 -9.477178049165912999e-02 3.964619849639260118e-02 -1.039959273820387914e-01 -1.541199362102382009e-01 -7.791516788606107913e-02 -9.644962505011393794e-02 1.932584886198587815e-01 1.235165170053270506e-01 1.338359068870850210e-01 9.598027547664974429e-03 -9.047505937354613156e-03 2.597086344817113868e-01 -1.787617772630505919e-01 2.044317629768026834e-01 -2.178657036759624067e-03 5.725768368129174196e-02 -9.094217567036151639e-02 -2.341393836454202376e-02 -4.789055033445040535e-03 -1.842696263374734578e-01 1.144695497222958241e-01 2.782798146007713427e-02 9.472862708379627128e-02 6.512773357258964946e-02
5.680269337660015516e-02 -1.481666074872712013e-01 -7.707861267539323213e-02 -7.786033679594529799e-02 -9.290822638844239978e-02 7.580946602533704393e-02 -1.238384828786947417e-01 6.085671510115922556e-02 -1.175735603074039154e-01 -1.282627258186090080e-01 -1.814433960310189164e-01 -5.424822192809191507e-03 -1.595508501356438236e-01 1.916363670590974858e-02 -3.736773983886333694e-02 -1.187578052642158238e-01 -7.884674066447184063e-03 1.112666290190227197e-01 3.793204622063828246e-02 5.843441834399995538e-02 5.697042253205573080e-03 -1.075688558670854014e-02 -5.600584111426368944e-02 7.807481382070173559e-02 4.374429336827485859e-02 -1.082543747036112253e-01 1.026182443314378467e-01 -4.843125702830412133e-02 4.814714764547363239e-03 -2.335511387977248082e-02 -2.357521601233940681e-02 2.669779050175548341e-03 -1.550082747923396120e-01 2.837966207672822094e-02 1.446261657332316083e-03 -1.421745456921700082e-02 1.148802700260268123e-01 -6.243810991620858675e-02 -1.719391762857519768e-01 -1.713362070141235260e-01 4.333268076178464073e-02 -1.367972092299013787e-01 -4.921151536746517369e-02 2.506542410090956130e-02 -3.315296670546845070e-01 4.185612242406016453e-02 -1.091173317954067662e-01 -9.759126466396095267e-02 -1.410988341290999974e-02 -2.196142102632776261e-01 2.978883623781598128e-02 -1.742190261780863225e-01 -5.599799960780967728e-02 1.420322774286152667e-01 3.468663417063087839e-02 -8.464823705594887171e-02 -1.001312247070085121e-01 8.571539006364742308e-02 -4.999618696854612326e-02 7.553091073417783630e-02 -8.719809245592514968e-02 7.475281243298884104e-02 1.475515009403403077e-01 -3.990527710391449101e-02 8.999227903240379633e-02 -8.720785405883298147e-02 -4.606726340509637030e-02 -2.883833164981871797e-02 1.649781244719573658e-01 -5.800882785557977955e-02 1.151502795577812564e-02 3.251797756640641829e-02 1.571908890467497433e-01 2.474258908413002125e-02 1.623875278416318513e-01 9.168970990279511069e-02 -1.712594483081195662e-01 4.317653768888937010e-02 -2.751140847651326743e-02 1.594523625212689311e-01 7.063027935077058339e-02 -2.566575481049535035e-02 1.011060264220736971e-01 1.409120326891333264e-01 9.080003182899641645e-02 2.175271922296115601e-01 1.606268396870046411e-01 9.626537349063235549e-02 2.281213088439801862e-01 4.121323352509906335e-02 -1.537908158825951246e-03 -3.081011813972759847e-02 1.434256615793664258e-01 -4.039652578162918756e-02 7.201999176308461481e-02 -7.327809619335112767e-02 2.094912303814385479e-01 3.679624675807189552e-03 2.216011429222752016e-01 1.247979151420082200e-01 4.715924968726643157e-02 -3.983325995699611710e-02 7.754502409101857174e-02 -5.162329881192849468e-02 3.039327769357298009e-02 -2.518559554700271555e-02 -1.066949107525750895e-01 -8.913684728201967319e-03 5.594194907266602807e-04 -9.783786182307592505e-02 1.102092634599046717e-01 4.959544133528005078e-02 -5.582903407894351799e-02 8.987682685175035074e-03 4.646966236480923156e-03 5.278519832171736648e-02 -5.458699996952853795e-02 -1.305300462574998932e-01 8.578359533306534335e-02 -2.031847563891377162e-01 -1.674308056279170606e-02 -1.064263760934164721e-01 -1.412154944252262678e-01 -9.685943217729818533e-02 -3.126221957948863150e-02 1.925424245042659799e-01 4.960055304884936067e-02 -4.695026583504803216e-03
1.445511782862936821e-02 -4.702316632292889015e-02 -4.914122192875858275e-02 -4.911167198383330212e-02 -2.249805185355105430e-01 -3.612948096622239230e-03 -1.444955402237532438e-01 8.503065920139425693e-02 -8.048583659056279815e-02 -9.592102450757578752e-03 8.593733799336179813e-03 -2.353642488280654754e-01 1.327477896950322311e-01 8.495962325488927436e-02 3.806584364060641712e-02 -9.145448291766297699e-02 2.823994980448678999e-02 -3.028018630771138475e-02 2.397208161348103050e-01 -5.995336146035004643e-02 -7.457615505324813147e-03 4.152077018824056054e-02 -1.467189612562607159e-01 3.898617122346824393e-02 -1.358739545375084179e-01 2.079501536761688141e-02 1.269314452508880364e-01 9.986778071567299631e-02 -1.805663772665323753e-03 -4.021339819835504509e-02 -3.908138054029944297e-02 -1.489912328132513009e-01 7.797704153274158390e-02 3.406887856067365716e-02 5.430714845466513147e-02 -1.841440198252682070e-02 1.504422467116537376e-01 -3.416565041548758758e-02 -4.559790739245800362e-02 7.463263633320614543e-02 4.789852769724684683e-02 -4.826845168529345087e-02 -1.337830334779133374e-03 5.434814497336444561e-02 -3.133149565108467316e-02 4.385215323691864925e-02 -1.672268887873066545e-01 1.470208943494693832e-01 1.285904411370975692e-02 -1.231520430340235089e-01 3.251803132801198148e-02 -2.137485072538129749e-03 3.100525206857658242e-02 -4.452873594457999740e-02 2.191905712713451346e-02 -5.486668964773537549e-02 -9.290077391223730552e-02 -9.163452574955255336e-02 1.814814255562079426e-01 -4.804608038447984175e-02 1.562109175481001810e-01 1.243006518167877328e-01 1.030046496539603201e-01 -9.354600044268425452e-02 -6.467387751907531512e-02 -1.185643388936371972e-01 -4.247144288157634479e-03 -2.013254039703020193e-01 3.414126686080698470e-02 1.333548292840731897e-01 -2.062959277313303891e-02 -9.221602027110455124e-02 2.784491576581608896e-02 -4.855361311310211342e-02 1.209466696494986004e-01 2.867065110361044500e-02 -1.124421475242604745e-01 8.319298825854967716e-02 3.771039586713322705e-02 2.818608832842364742e-02 -3.867288393553196951e-02 -4.541960552854069216e-02 1.257420059146801827e-01 9.972587248578428099e-02 -1.313116158555273534e-02 -6.625418778715315427e-02 1.086653944854362036e-01 1.600536498053703113e-02 1.156289339642205261e-01 -1.230959371069044461e-01 2.211848256850046379e-01 1.161096470959631886e-02 -1.426038615960721623e-02 -3.149467460318036011e-02 -1.508832692716451929e-01 -1.219169855382709958e-02 -1.295952283670730454e-01 3.429127215725434608e-02 -1.408151304526391867e-01 -2.727282364250229255e-02 1.387448298605295852e-02 9.437855634065516006e-04 -1.734773964090366438e-01 -7.005845820859327167e-02 -8.307856343369453278e-03 -1.470827224043722015e-01 -1.323837184919253174e-01 3.295043874214589191e-02 -3.185636558267850721e-02 -4.302703027467352087e-02 -1.248702277621547979e-01 -1.624569281813259269e-01 -1.390538123358243394e-01 -4.089797376689401770e-02 -2.076005477214791228e-01 4.001445159001054686e-02 3.902782757494845101e-02 -6.445267159344304775e-02 1.115466712653222919e-01 4.682044945815205805e-02 1.386509863934990740e-02 -8.769264936203895189e-02 1.409445058439598442e-01 -4.445943676545834056e-02 9.671033286336762347e-03 9.530719890506837710e-02 -1.274435809447921862e-02 -8.452408049048594496e-02
1.026355595264270698e-01 -8.710225662707957173e-02 -1.891572586934714417e-02 -1.011080133970314043e-01 5.680600015106903461e-02 3.288826086896302209e-02 -1.157549251226047682e-01 -1.624139618183677997e-02 1.429144866007767689e-01 3.024196740083898161e-02 -4.713150669989813607e-02 -7.817237903061655113e-02 5.014669720029401581e-04 1.085593754069867287e-02 1.324843321858839851e-01 3.641028347547050487e-02 3.265466772027359604e-02 -7.859587650554426819e-02 -1.617494687789119423e-01 -7.325796646274691792e-02 -1.343265732798697709e-01 -1.949792019286669953e-01 3.920117847151106082e-03 -1.429379381404560952e-02 1.232009606421907988e-01 2.032269889198744239e-01 1.250963559886168579e-03 -1.258080235308250416e-01 -8.095957036137493845e-02 -9.645328077772645503e-02 4.097438662911070777e-03 4.974317801389501609e-02 2.119807106496703897e-01 -2.653050893486777473e-01 8.647281108077911616e-02 8.035517178888612611e-02 -3.619221477617016319e-02 -7.759324582603552289e-02 -2.591078861197388949e-01 -8.804974401089910030e-02 -2.628321240359391894e-02 2.288222174070265666e-02 -9.022856460550794655e-02 -1.726993115676014323e-01 1.152428972201217511e-01 -7.635077788665010912e-02 2.242509556139920743e-02 2.753547045131814804e-03 8.830145739603174893e-02 2.010137275324435091e-01 -4.826666377892458587e-02 -4.175089866294208474e-02 -4.881824769749933818e-02 -1.114735603406994124e-01 1.393105324280502211e-01 -4.730319983644015042e-02 -5.887870752004460695e-02 -4.613111354495838534e-02 -4.206750863296498943e-02 -3.449570363931355604e-02 2.624548605536088375e-01 -1.055352118990983065e-02 -3.904160859228707897e-02 -5.112148110313781413e-02 1.509543308296808564e-03 5.593792993920072149e-02 3.437009880074858893e-03 -2.344491857550801139e-02 -6.141368975780310546e-02 -1.479773818576492206e-01 -1.175867125836135008e-01 -1.045504801762753705e-01 -1.410646736116879518e-01 -2.384245286513640358e-02 1.384994946188934928e-01 1.168667963919567225e-02 -1.859993138878015817e-01 -1.818094896380935688e-01 -1.425640390807837166e-01 -1.617271766421450596e-01 -1.449042401796875046e-01 -2.469375124086622378e-04 -1.304419512629125533e-01 7.607533490835957646e-02 1.188859300718547313e-01 -1.175227070852057597e-02 -3.179958526452961731e-01 -1.470810703444883627e-01 1.277123470389505411e-01 5.528886876277220447e-02 6.012996332130222249e-02 1.205886579486236398e-01 -4.627302894690483309e-02 1.830872230539623557e-02 -6.201127808929743357e-02 -9.108962424104078207e-03 -6.993967640881111614e-02 6.514530276615361493e-02 1.967607688287411061e-01 -6.669603460969494857e-02 -2.939690111620868462e-01 2.729463878582103625e-02 -1.776605186746844367e-01 1.171189880295737534e-01 8.266580979039665766e-02 -4.187776524120786353e-02 -2.016193489398548921e-02 -4.456205508871777243e-02 4.869589784629228812e-02 -1.864810524317851159e-01 -7.228768763106446782e-02 1.022704275812706676e-01 -4.801250946379884144e-02 1.781450071606611452e-01 8.669981283742406522e-03 8.490455765286829271e-02 -7.006366889233053841e-02 -8.010537347696081861e-03 -8.446090064087768967e-02 7.021607118854117369e-02 1.626189990613857994e-01 4.714800024370203319e-02 -7.213318976899948942e-02 -3.827656427122537453e-02 1.871729475705113249e-02 -6.319581329304706230e-03 -3.269379051750253423e-02 -2.085286607171152676e-02
-3.886545266507727275e-02 1.006593893990006677e-01 -1.175076333009968284e-02 -3.710290511201535385e-02 -1.538516916478276930e-01 -1.051344583411854966e-01 -4.279825326709463251e-02 -6.547336255864841248e-02 -2.065064739542215450e-02 4.405358508786681032e-02 1.807889644692725339e-01 1.006024706745800162e-01 -7.682319870162464606e-03 -8.042277244687896787e-02 -9.813073207321441893e-02 2.667547240694849095e-02 -1.906163472905645154e-02 4.321777578970860401e-02 -1.711038787840299391e-02 -3.957554900125814790e-02 7.166721531475492291e-02 5.000381690445324101e-02 -5.959582847008590423e-02 -6.588940122965737667e-02 2.809332627817154315e-01 1.090865672031800238e-02 -4.375846039431848661e-02 -8.456323849628574058e-03 -8.618603708675223740e-02 2.275407746759440866e-02 8.911837642350434185e-02 -4.468777141442475259e-02 2.404182927802313297e-02 -1.016138364862613497e-01 -2.021933541400947575e-03 1.809977807308983319e-02 4.431896850970507007e-02 -1.417600285558304196e-01 2.634830414483550244e-03 -3.407920351505963619e-02 -2.352430009762176144e-01 1.145078924530299053e-01 -2.135262805144958267e-03 2.005390062728096001e-01 -2.667765591886008675e-02 8.125107072562875316e-03 -7.272902438305146877e-02 8.395676688516762187e-02 -1.428311710426489502e-02 -4.272770046786723147e-02 7.630720032966753497e-02 -7.035474766702391747e-02 -1.111503074555070768e-02 8.849172727401649965e-03 -1.021346857681965786e-02 -9.339107400511414969e-02 7.188944716982233196e-02 -1.766996527530277084e-01 -6.317313698395926602e-02 5.196206052935342656e-02 -1.337112049072207605e-02 -2.750038145091618716e-02 8.144878302553974769e-02 -6.716098812360496439e-02 -5.601365623715847536e-02 1.565699157316474688e-01 -7.614309579285549745e-02 -8.559456131862307193e-02 6.377414659616642556e-02 -2.468219307739054694e-02 1.265844541816736890e-01 -2.315976693546514115e-02 7.530764979374562906e-02 1.900167966840537181e-01 6.128786091758536142e-02 -9.984290043911708823e-02 -5.045974549632382261e-02 6.018344589900479630e-02 -3.376589200707150878e-02 -1.498801583814721172e-01 -3.686870884553877098e-02 -1.954184414380061019e-01 -1.363051453022940673e-01 -3.227514161738343629e-02 1.602402206247914851e-01 -1.019995510463111987e-01 6.243157882596245267e-02 9.444529874009921500e-02 7.401276324974902232e-02 1.888962245374689597e-02 -2.430372755108508448e-02 -6.153059812797614936e-02 -4.601415218511297790e-03 -1.457254847734664859e-03 -4.043036768618513133e-02 5.901715921903723239e-02 -1.219882280169600069e-01 -3.027604775999565359e-02 2.111480478462050489e-02 2.839734968073676091e-02 -1.475859733363129034e-01 -2.094232760817912875e-01 3.145928288882839097e-02 -9.364130966030331793e-02 -8.859449098992380756e-02 -2.881311236593780967e-02 -2.006544473743096177e-02 1.751758015850690686e-01 2.198347915435165320e-02 4.890471715655022450e-02 -2.060683155348018436e-02 1.914591859756871184e-01 -9.221328949893195515e-02 -1.381835191360739623e-01 1.062180457006946799e-01 -1.186615105276022930e-01 -7.323904678314653582e-02 -2.687058571580435568e-02 -6.463585598111699915e-02 -1.115733741359402342e-01 1.382284146141773973e-01 -8.434985976050722589e-02 6.717348654699338562e-02 -3.762938831284884204e-03 -1.461683059298073302e-02 5.133166347837161969e-02 -1.458847922503874774e-02 -7.596937304884017472e-02
5.872407696624555584e-02 9.930880725465225656e-03 2.042268953122717279e-01 1.199004755357363644e-01 8.149716527050031301e-02 -1.557865525586729638e-01 1.848057440671934878e-02 1.610466482581971726e-01 -6.099342438674893070e-03 -4.396754619067117648e-02 2.320482535870514451e-01 1.351536542232820715e-01 7.073783397312351229e-02 2.864984272514086230e-02 -5.019238169165222280e-02 9.013831478237231687e-02 2.043053810230670633e-02 1.633688067325616763e-03 9.517240571632619439e-02 -3.251499940745818107e-02 1.460662667718661822e-01 -4.715899925170269347e-02 -5.850834452046802664e-02 6.482419429915894926e-02 1.699102933283255226e-03 -3.283498347438652126e-02 5.208104978036755955e-02 -1.481634016336221271e-01 -1.006963166743017751e-01 1.174041829005464388e-01 2.849774117664242989e-02 -6.101227542364463796e-02 1.027167173680695322e-01 -6.678253277242550412e-02 -5.596160163774763219e-02 1.451702812823822165e-02 1.067387678324605571e-01 1.666146244715701772e-03 -8.643711264388200671e-03 1.284023756840260155e-01 8.704163671986098194e-02 1.032348844094645168e-01 5.118799320940855407e-02 2.202557525934175850e-02 3.919049890939974717e-02 -7.464828094240792689e-02 -6.838467522329912118e-02 -4.297138278357768432e-02 -9.511326015182017257e-02 -2.294169520550568345e-02 -2.812417391445829473e-01 -1.363675368453054829e-02 -1.479526703055750354e-02 1.320341515695992174e-01 -4.141629428742437530e-02 3.895940191412461395e-02 -2.704064456931726257e-01 2.619364287255632195e-02 1.634698076448068416e-02 4.641528290377850037e-03 7.796457979286440521e-02 1.228482276061674955e-01 -1.095734488413047381e-01 1.955338694825246751e-04 -1.104051294819597129e-01 -1.351444889574168473e-01 1.454143186364499907e-01 -4.185722783421974569e-02 -1.112911792186064563e-01 1.030503298465243640e-02 3.270145215226665653e-02 -8.422793358636750105e-02 1.047571667405828438e-01 2.441436924908006734e-02 -5.397316961256612422e-02 1.168315657318414746e-01 2.096482375823238362e-02 1.001760960685223363e-02 -9.889008726816025940e-02 -8.699041445346791801e-02 -2.788429945974808463e-02 -1.014516146957371023e-01 -4.049829405471836591e-02 -3.142434831530899197e-01 -3.098331135943203918e-02 5.850497065686389303e-02 1.882763554268641198e-02 1.185068736589408728e-01 -3.534601166280049167e-02 8.050647849227413055e-02 -7.810783809212235029e-02 -8.268508122510156988e-02 7.260189041444305158e-02 -1.330456612784743364e-01 -7.892331159039232824e-02 1.691640473936557865e-02 7.926063412482539650e-02 -1.651998187418642072e-02 -4.311991793107044363e-02 -3.470896282512809378e-02 1.313194709242867207e-02 -1.510579880267906919e-02 -1.591251665414161187e-01 -2.589425275412172035e-03 4.459909822032332577e-02 9.959981949343915675e-02 -7.576735207219254149e-03 2.285602704446025937e-02 -1.834349090443284855e-02 -4.718394325697169642e-03 2.725484691074712626e-02 -1.810309843860943568e-01 -3.301615191515910180e-02 -7.068730869387095106e-02 -1.146734137569741102e-01 -6.744337117215852030e-03 1.869446289534208716e-01 -9.064828353159026797e-02 -4.350749522489021776e-02 3.970480210574279384e-02 6.314253740655186020e-02 1.010622622113125785e-01 -8.789263853186901621e-02 -9.727458270077450619e-02 5.015377428155999573e-02 7.992483418537008055e-02 -1.023411956342674088e-02 1.511447712765648724e-02
1.026237831553071245e-01 5.780318297248179804e-02 2.277074666269252728e-02 -1.245004737255451903e-02 1.457650520788703608e-01 -3.500138672275152768e-02 -6.148374931065986315e-02 4.797000479974064535e-02 3.234705670699255381e-02 -6.252334440274310082e-03 -2.336387262210990433e-03 -1.134176683389203355e-01 -4.360339722889022135e-02 -2.323032390948951212e-02 8.313526674548440965e-02 -7.665147088647762674e-02 9.257721169684915430e-02 -1.130807114612186227e-02 -1.572760891826446850e-02 -2.929422380409897608e-02 1.046036576378343991e-01 8.271811570678282155e-02 -7.473567515317991461e-02 -1.101512117597556323e-01 -1.722869055278443418e-02 1.430978926876229629e-01 -9.430572871581784089e-02 7.858467411233882940e-03 -1.120633289401279237e-01 1.016832335017459482e-01 3.832248533021220815e-02 -7.019514802713264223e-02 -1.048243330046216004e-01 1.649100546373302029e-02 -1.795868403521948820e-01 1.538894294154293007e-03 -3.764879378408536592e-02 2.771969080761568782e-02 -9.499633317244020325e-02 1.063043010314578402e-01 -6.564613090159682196e-02 -2.497406269819401822e-02 1.632879029869218346e-01 -1.454386309828136770e-01 3.914883449744238630e-02 -8.387421451868390387e-02 -1.083612916559205941e-01 4.295990859656655114e-02 1.242097299815981964e-01 -8.721763876377296165e-02 -1.123354591986165385e-01 9.324885011840268120e-03 -1.251101127182271677e-01 8.054424980998600714e-02 7.285375619332006003e-02 -1.072766153701992381e-01 2.436963183808212377e-02 6.154071901266842948e-02 7.776118230356375560e-02 -3.042856602729493778e-02 1.141050675615848560e-02 -4.738629764399317212e-02 -7.647473428852659405e-02 1.753791017536198982e-01 7.407728257881694006e-03 8.486290469334174802e-02 6.603812105862422177e-02 -1.207819466142367668e-02 -1.711384255986310166e-01 1.286174986397002618e-01 6.787357908563805553e-02 -3.185678660125390582e-02 -1.403240305012809844e-02 -3.639168650614395956e-02 -1.191055641334590465e-01 -1.054028480746705548e-01 -1.680840934809009202e-01 -2.785768955843830330e-01 1.096270495191181693e-01 1.237365414073118702e-01 -4.101552709524304064e-04 -1.578387978782197498e-01 -2.166756770266535514e-02 -1.109753452344183766e-01 1.132355942909471641e-01 9.961070098262174433e-02 2.932004004459971488e-02 1.232674800002741926e-02 -9.125031760993029817e-02 3.154005738918945756e-01 -3.039719430842590109e-01 1.924879035606141126e-02 -3.554038554890033043e-03 -3.999736056142896845e-02 1.835923569079981055e-01 1.254648087238444953e-01 1.372288337469958486e-01 2.236281442083870863e-01 -7.897964102454980984e-02 3.447321776268744142e-02 6.015323594141538943e-02 1.067757036823405586e-01 2.049334320623722450e-01 8.505778325310109356e-02 1.111191990116796730e-01 5.191744794476448044e-02 1.180677380029121308e-02 -8.540045014709224391e-02 1.193077801960902434e-01 -1.702727909878094248e-01 5.663162923844312913e-02 -9.282351016069829985e-02 -1.488217961856064253e-01 1.203745994090930915e-01 2.403232646846433507e-01 -4.816268258143304587e-02 -1.352634839549279322e-01 -6.071294702617989480e-02 -3.017754181203170447e-02 2.507893147744189033e-02 -9.346163015111677574e-02 9.783464244991131598e-02 -5.831836419606181016e-02 -1.156077436038599748e-01 -9.761340683567371057e-02 -1.542176698532526646e-01 4.322566339120303969e-02 -8.094234882019997468e-03
6.289260235960354717e-02 2.062236716367331357e-01 -2.789151095940208339e-02 -4.491722817005476542e-02 1.702385822339627305e-02 8.494064851031900287e-02 -4.600878859217275539e-03 1.120837774099712747e-01 3.859412997337650919e-02 -1.458293369816178985e-02 -8.498297291374304341e-02 1.189557284087101319e-01 8.272398437664026105e-02 -3.787574585647978526e-02 2.723055666277366185e-02 7.840527984670872530e-02 9.617404811003890663e-02 1.089224979393995513e-01 -1.418719344374467228e-01 8.679858989270484992e-02 1.138164986522749306e-01 1.150934293965349131e-01 -8.783279712942423587e-03 4.461416049599396111e-02 4.362539858126619069e-02 -1.620406764176885589e-02 1.221783330484846192e-01 3.189525171488976490e-02 -1.377073154840186275e-01 -5.468731336428048900e-02 6.638774880094450159e-02 -2.706485204377129944e-02 -1.003810912051578685e-01 -1.006218909815407604e-02 5.503943064218313336e-02 -1.392048883116918101e-01 1.019750831084213614e-04 1.573167555776242010e-01 4.334459186632056565e-02 4.549233648343834098e-03 1.915013046160849719e-01 2.615768576203905127e-01 3.505865698558414956e-02 2.709226341968445362e-01 1.012462633121516964e-01 6.571318080752107382e-02 1.473403894763400390e-01 -1.311764116527627810e-01 1.023286196293161920e-01 -9.039223292074552440e-02 -1.283315735796022351e-02 -1.439768284715435553e-01 1.265004795921330361e-01 7.589184091914613628e-02 8.731345165787088303e-02 3.984679056309349543e-02 2.203395969684164291e-01 -5.563782280308687822e-02 1.032610935192514179e-01 2.286575110240992581e-01 -6.018962196973084988e-02 1.779556874288228951e-01 -8.081942634920043222e-02 4.848013449926281970e-02 -2.103693957763339006e-02 -7.014529736456001641e-02 1.441285588893336245e-01 2.227189288132627645e-03 4.563005851959518050e-02 -4.751712748546309262e-02 4.901615300483939952e-02 -1.294561424494750437e-02 5.382491824684759035e-02 -1.374763732707077191e-01 -1.318049368159138202e-01 6.593631019564950846e-02 -9.767977960903524715e-02 -5.604666051868140153e-02 7.162095198760627668e-02 1.175067314141494679e-01 -1.086750522124989640e-02 8.603825545304105704e-02 2.368488308510809104e-03 -1.563890682345632499e-01 -8.263997799122357879e-02 2.368471441971560509e-02 -3.214844913149057792e-02 -6.175765050955833897e-03 5.945374730306124400e-02 3.223158358561319103e-02 1.434311113199359944e-01 -1.759702181721642944e-01 5.207755540350806310e-03 6.783377480910489365e-02 -1.239499543665323888e-01 -9.776995850618003248e-02 1.785529830768208537e-01 4.775098252220764256e-02 1.069372198582337896e-01 -9.250484912082313979e-03 1.018789310415971205e-01 -3.730279239398408275e-02 1.175377198551738611e-02 3.491326255667061285e-02 -8.285992597205804611e-03 -1.491682047505709929e-01 -5.039980160045722662e-03 -6.599224284788000883e-02 -2.826535889577009089e-02 1.698507564584413043e-01 -6.315556711688834202e-02 -3.370980445184416918e-02 -1.873044582261300939e-01 4.417462935548887443e-02 -9.417756963357294675e-02 -3.783973743704215770e-02 -9.933331024518804453e-02 -3.538212061308957518e-02 -6.230579054825206159e-02 2.021522838970362876e-02 -4.616770424076181711e-02 6.244557269456194742e-02 -2.511351048900830815e-02 -1.404403917935730661e-01 3.145572905363688138e-02 -1.342628342384048594e-02 -1.931024918481462627e-01 2.888380698094265148e-02
-5.350226504232374197e-04 -7.559313981601750720e-02 -1.200268645408093283e-03 4.037816599114939231e-02 5.180621525049824289e-02 -8.855080849518837116e-02 -5.436782676013210414e-02 4.109147659494743338e-02 3.073652871226641853e-02 -1.034817417302736214e-01 -4.101982165381056616e-02 -1.768749176159969960e-01 8.883885566651014698e-02 -3.719935988383973879e-02 1.863466059553428034e-01 1.147859275182873118e-01 -6.113065445061380970e-02 -2.948572310240885619e-01 4.235561372465432989e-02 3.145702118144488857e-02 -4.395778154478496846e-02 -1.706913524989964182e-01 -1.874927446174838586e-02 1.320163375057913091e-01 9.439493017838584965e-02 -1.681636803670817637e-02 -1.318790150327867894e-01 1.710794129156045507e-01 -7.098726039666657106e-02 -3.016965606909169546e-03 -7.237186332698189450e-02 4.845982597573682271e-02 -3.473480615351035028e-02 1.705060565284460261e-01 9.109145609521563346e-04 1.487284498738924987e-01 7.435782660059363225e-02 8.605427148125911752e-02 6.938782983035704510e-02 -1.698037680827999690e-02 -1.488428853772423045e-02 -7.855073069880973147e-02 4.013175630597178023e-02 -1.919346306851085759e-01 -3.730315187545669292e-02 -6.974998562152140424e-02 -1.057772395090044865e-01 4.474804697909128687e-02 5.939878856736965917e-02 -2.774092886856909801e-01 -1.743785789530461622e-02 9.755401070206939917e-02 -9.770490917669001629e-02 1.050855975728876013e-01 2.473271144684293654e-01 -5.434395563246349758e-02 9.479351693150178670e-02 -1.695971991150802168e-03 2.569568177033697623e-02 1.017653441054497052e-02 2.519800727493160530e-01 -2.471471981301895382e-02 -1.902997432633116159e-02 -2.316735009032440951e-01 1.108976599238823135e-01 1.309091101315074668e-01 1.121645663254059316e-01 4.778857866441370283e-02 -2.346584497201576192e-01 -2.484323874567271606e-01 6.626278813994257444e-02 2.266963628114388937e-02 1.320766688347487505e-01 -5.890630426644978546e-02 -2.133714583488135683e-02 7.581776945239800114e-02 -1.165819507573940123e-01 6.428828000134167997e-02 -2.550377681808866925e-01 -1.390074549357531442e-01 7.865631224953886780e-02 -6.082733816922482675e-03 -1.693174466310193652e-02 2.606723025805992786e-03 -2.819157996689714083e-06 5.618868274805599583e-02 -4.658530435736905895e-02 -2.004072733145224050e-01 -2.467459160492597309e-02 1.037211222149375250e-01 -5.204110710414552171e-02 2.585491645705094432e-02 8.995773349710714517e-02 -1.176905202881551732e-01 4.838871323959379085e-03 2.418979554139034371e-01 -1.634330361019087074e-01 4.753752554378642969e-02 7.979732588755648892e-02 1.639409405192880920e-01 -1.229177247557567132e-01 -1.832358308102914612e-01 -1.493062124620104236e-01 -1.714750829377275840e-02 1.226714979628915902e-01 1.303940715180734178e-01 -1.261202293990132482e-03 -2.084060497301248316e-01 4.715666478862529098e-02 -1.153726987810683828e-02 1.361494549906979157e-01 -9.229160813372978833e-02 -1.472444587310066388e-01 -1.267861455879983890e-01 3.096000209229363698e-01 -3.488092931383063311e-02 2.213367913870598405e-02 -1.393853369787154692e-03 1.374304189203305882e-01 -4.168785329515768689e-02 -5.189177801570200171e-02 -9.141410379882518658e-03 -7.809835754681687670e-02 -2.226958052736801585e-01 -2.744781870481850447e-02 -2.695667033041769176e-02 -9.544471808762089449e-02 -8.141582457151851082e-02
-2.335408296972635994e-02 8.050547464671412023e-02 9.128854940255275163e-02 1.062924678971907677e-01 -5.413866008144956748e-02 -9.588443257366316419e-02 -4.425378019396659229e-02 -4.738935285589690460e-02 -4.253970558271251423e-02 -3.406678540532027261e-02 -1.308785336153440726e-01 -6.720039009574300948e-02 -1.032405073971046638e-01 8.879982168104741391e-02 1.047764162211498318e-01 -1.934802720889834682e-01 -1.400296684386139086e-02 -3.252316051873385249e-03 -1.048230512612099707e-01 8.450077366405925328e-02 -1.630282583313376055e-01 4.820635639716993465e-02 1.438752508458392317e-02 -1.273721336174652718e-01 6.670466577331954361e-02 -4.402009117559484153e-02 -1.654980118811263945e-01 -7.919209711823738118e-02 -7.756472959323194860e-02 1.730747199212072374e-01 8.852359338397761124e-02 -1.019546846451805239e-01 6.479126314532240860e-02 6.538593280094137650e-02 -2.097385047905344496e-02 1.690694381860642082e-01 -4.480159059625648393e-02 -9.682772388170887701e-02 1.662801493932058224e-03 -8.577291496320195441e-02 -2.623074630941035768e-02 1.170733591438486293e-01 -7.747065851701469275e-02 1.348530928107913307e-01 -4.321696411751263511e-02 -5.082334616917780212e-02 -1.265152832705351317e-02 1.161601721192916381e-01 -1.361459908755195680e-01 -1.186642987419018330e-01 5.025305912619251053e-02 -3.540778601497348438e-02 -2.407549020719099986e-01 -3.553076491387524571e-02 1.029864314551275258e-02 -4.549617359900271635e-02 -8.197249736522044250e-02 -7.518177573804647740e-02 3.966689514941173361e-02 1.854510381071669822e-01 1.022054900734118733e-02 -5.272477212928324691e-02 -8.040119818677739227e-02 -1.582057556563719965e-04 9.041946790432478509e-02 -5.403839975388029931e-02 6.085626600453755697e-02 -7.880029798537990793e-02 -6.574088931424409976e-02 1.451478562799694283e-01 1.644643930628380407e-02 -9.679180004258059952e-03 -8.561550340060460063e-02 -1.318010109532488476e-02 7.997834517600053983e-02 4.577848604879142247e-02 -3.981753315027528571e-03 -1.459829104529365151e-01 -1.933079169652373794e-02 -5.181725768910912244e-02 7.782027496823512580e-02 4.018455640311288657e-02 3.091103854238145751e-02 5.833273320291013087e-02 4.732183581506881065e-02 -1.068592085528818347e-01 -1.103088171885543006e-01 4.233537262555239072e-02 -9.084645432343539662e-02 -7.698524031759551578e-02 8.048336779224408641e-04 9.004956266356888006e-02 5.491754855681509062e-02 -1.368370891512187271e-01 7.774496403622678520e-02 5.731836256389719053e-02 1.111584140906441386e-02 -8.363486016891233388e-02 -6.606420911789269435e-02 -1.219901070033602413e-03 -3.090447437379673784e-02 -2.029453305159646115e-01 9.458158075486179650e-02 -6.279578651276809809e-02 1.287072806870766528e-01 -6.731318737772458427e-02 4.685627774802052919e-02 -2.094264629330314653e-01 1.789220173438360872e-01 1.975224650783288100e-02 -4.093686701386889393e-02 4.119826654393082821e-02 -6.839186285851364677e-02 4.831956292723570134e-02 -1.130550538849122710e-01 5.551535616897377429e-02 -1.524836268814237505e-01 -1.815166046490894192e-01 1.671183537058284485e-01 -2.067539894388284102e-02 -5.279233881445614951e-02 -2.802447234234280854e-03 -1.287730609135825655e-01 -8.113778467352610047e-02 8.369001899198147409e-03 8.692930402329111794e-02 1.280292394923635280e-01 3.944300959717619154e-02
1.012751740576479098e-01 -1.681269141566368586e-01 -1.121586826240339174e-01 2.684042919394970944e-02 -1.629438143013450802e-01 -6.616041223718822917e-02 1.038154383456245389e-01 -5.395477111949763260e-02 1.002268262775641294e-01 1.195386424243697135e-02 -4.942111302134202105e-03 -1.799900052362686997e-03 2.189212054367139781e-01 1.037261473858539819e-02 -1.341717481100078713e-01 1.625814319597851110e-01 2.994065951399645879e-03 2.569242872881975261e-04 -7.908695290733472327e-02 -7.801531786895271603e-02 -7.936024925060661261e-02 -1.045220570320823522e-01 3.357438612354701757e-02 -1.064822192442947853e-02 -1.420705297535354850e-01 -1.654036721912232610e-01 -1.031770258134843410e-01 3.069183881723005353e-02 -6.511514270443981289e-02 5.972035122170395172e-02 -8.046005788705511141e-02 -9.884796074974205177e-03 -1.975449883549266206e-01 1.020728991846357459e-01 1.141101176358417027e-02 -1.172903337863061835e-01 -1.550529090615504202e-01 -3.989183112447874241e-02 4.411991802439214905e-02 4.612102200958330400e-02 -6.279471082948268924e-03 1.261344985268937971e-02 -3.998130069438871753e-02 -8.680762093444539806e-02 -1.685017634413036314e-01 3.595996287676904157e-01 1.462412470327239047e-02 1.510490958538950601e-01 -1.019531185050103900e-01 -5.765470511358988803e-02 -2.013380605377788554e-02 -1.306725751375590605e-01 -2.603574826360311335e-03 -4.882998519388035558e-02 -1.039839178917912332e-01 1.672848820726365315e-01 -2.521997593072713290e-02 3.874523811437888959e-02 2.384103677689037096e-02 1.182284202056658046e-01 -2.811749121378341598e-02 -2.353964621821664771e-01 -1.040928208047679770e-01 3.828494823710419659e-02 6.270512160942116886e-02 1.715887181479646972e-01 9.868201991376521209e-02 8.577154882239523825e-02 -6.536150151904197673e-03 -2.087087624347054027e-01 -9.705320929419977705e-02 3.517282813507523892e-02 6.294963079147124219e-02 8.194996869377647875e-02 -6.832054325119865656e-02 -1.029230455176810138e-01 1.516809464903625948e-01 -9.261123827230352545e-02 -2.022039505609992960e-01 -7.664579653981483387e-02 -5.791705501032114178e-02 -2.081223630419097581e-02 1.996070945150648923e-01 1.038863377016629660e-02 7.393009024174124200e-02 1.296949896371593358e-01 -3.127169539419460409e-01 8.390798606666809156e-02 8.031162902752367327e-02 -1.288153320469829222e-01 4.738045869390106885e-02 1.630350426115751566e-02 -1.045301656630079623e-01 1.565970937469147450e-01 -1.097784009654801524e-01 -6.434497375833929389e-02 1.894727242105148923e-01 -7.708559356428200393e-02 -3.683540854490034017e-02 4.830818356259443391e-02 -8.640479364143975605e-02 1.199771386949357622e-02 2.764622414942104894e-02 -4.893231403612051389e-02 1.350275207655599607e-01 2.545729310881228794e-02 -2.147440323020521902e-02 -6.583449694098980620e-02 -1.340826471364202910e-01 2.767068181019630840e-02 1.159997566304766525e-01 -8.272454230852924195e-02 4.829888895541079030e-02 -8.898304206666426963e-02 2.241330123965559404e-02 -6.624510832032434737e-02 -2.024843694740068988e-03 -6.835780482864159402e-02 1.503300536967490386e-01 4.570074518258225582e-02 -6.790289398647020302e-02 -5.832319579189479235e-03 -2.949388901580165048e-02 -7.658400785310144621e-02 -8.677146240580610459e-02 4.038782301861624374e-02 1.201591970024906975e-01 1.296799872084124228e-01
7.059661785510704113e-02 -5.452304766043272743e-02 1.727129391140102277e-01 -4.566441762866563225e-02 5.204287061760223126e-02 -4.334945278967649446e-02 -2.223011122392813330e-03 1.546650573406696816e-01 1.275696568933384900e-01 4.483314597881257746e-02 -8.392852540754476912e-03 1.111984156728634543e-01 -1.299741738566593530e-01 4.747727071488784534e-02 6.057134592370959358e-02 6.561054556886664058e-02 -3.726896475742956516e-02 -2.409895702901452413e-02 -1.063955503491917642e-01 -1.891951087756882019e-02 -2.452068029869595989e-02 3.540907442468417543e-02 -1.888290533020454687e-01 3.777656555156116286e-02 2.466052459087463705e-02 1.377684333653108606e-01 -6.240805499535089645e-02 8.260468955826920368e-02 4.230404629178803610e-02 -1.628315174066643500e-01 1.590115740517899501e-01 1.719765651094492809e-01 7.160748203240265529e-03 3.127800269732159966e-01 -1.078710786764213725e-01 -3.313802278462341100e-02 -7.402886700412092402e-02 8.094472951656728199e-02 -1.467728219115828348e-01 9.179942443744533442e-02 3.685397276884221779e-02 6.449125510144888829e-02 9.297114108989730508e-02 1.331715414626382932e-01 1.586020096663157963e-01 -3.237751653737587498e-02 1.507731147817788775e-01 -1.460660515892057976e-01 1.471388547656388712e-01 1.660782482794382342e-01 2.614724304160142426e-02 7.008141822338748161e-02 1.077588735235730094e-02 -1.500832508203543691e-01 5.872645600830395107e-02 2.311157509907296737e-02 1.447377427860671410e-02 -3.925432614799743286e-02 -8.949241157431443716e-02 7.070682007552642201e-02 1.127896666856530034e-01 8.774091897197133783e-02 1.337304667213381759e-01 -4.152305265676876217e-02 -5.005323731081747635e-02 -2.320924621381774966e-01 -1.272856108861080970e-01 7.051018067522535349e-02 -2.659448040603356808e-02 1.475496112950589259e-02 2.369196515639869216e-01 3.508696306183886615e-02 -2.337914955504267686e-02 1.670062383422682983e-01 -5.803401434578629031e-02 1.180636470208054761e-01 -5.580917247884427390e-02 1.172114893196331692e-01 1.256847018493918722e-01 -1.537283057459995772e-01 1.244035012901116427e-01 -2.032217879853468190e-01 -7.673287038611455169e-02 1.524810371501707507e-01 -8.934144401952748282e-02 1.884188837029724950e-01 3.454840924079614906e-02 1.512487443308069834e-01 -1.892990691560194954e-03 -5.398652848776752666e-02 -6.078412290894896763e-02 -1.160518901100450612e-01 7.204038553050627625e-02 1.621183884145824816e-01 1.479831982655918921e-01 9.977637600581797106e-02 -7.668353144625537909e-02 6.028700207155762714e-02 7.928540580437597185e-02 -1.025511644801078703e-01 -8.231047223246303057e-02 -3.497525573024025392e-02 -2.758484167314105215e-02 1.532192769021957224e-01 -2.204195706181616074e-02 1.100376086782551693e-01 -5.337536572996399997e-02 -1.139237596648864648e-01 1.091650340629889276e-01 5.765506373480883823e-02 2.345005291537650138e-01 -1.372700484742913618e-01 -1.624151130211951843e-01 -1.026919183672852787e-01 6.259656252620973693e-02 2.630534742035780041e-02 -6.162790126152729170e-02 -7.115565599441894817e-02 2.970977276027498789e-04 8.542141652228252280e-02 -2.347830540100976360e-01 -4.296859010538145972e-03 5.657791366022626306e-02 -2.727554992405601189e-02 4.347615432364161647e-02 3.535720961311967780e-01 -9.491198018932411884e-02 -1.677439933130238647e-01
-4.558877597683315408e-02 -1.388779548472809933e-01 1.674395119132084664e-01 -9.614881532251344509e-02 -1.017172311093136883e-02 -1.843811135942094170e-01 -2.964184953038793285e-02 2.046324065442093054e-01 -6.648038486836556349e-02 -1.856751236590882537e-02 -5.949783202137078758e-02 1.799118695349554570e-03 9.418540128527697368e-04 1.704350204455249481e-03 2.840028038825915813e-01 -1.699855985072570297e-01 7.708283348265231039e-02 4.546852815594994157e-02 6.980402069736592330e-02 -9.650305933057028857e-03 1.433578109478527152e-01 4.649714715945411914e-02 -6.211455632657041093e-02 4.059868692496982484e-02 3.090847048308971168e-01 3.841359236930823318e-02 -1.569426834784986569e-01 -1.390679768047038169e-02 4.106015668780563233e-02 1.229085057428526556e-01 -5.921862172391708506e-02 2.286979581432228570e-01 -8.421817686945617942e-02 5.364447675783572816e-02 -1.947633786002864881e-02 1.425342984518180589e-01 6.174783696836794178e-02 -8.041457850203212465e-02 -1.820202702157257268e-01 3.894391800256629538e-02 5.331764739751604365e-02 5.215298558079419639e-03 9.869638778236183851e-02 2.458612917007535759e-01 1.903973920543926626e-02 -2.101729802642447048e-02 -7.081536470097606062e-02 -1.375151461203352465e-01 -3.292985376913248191e-02 1.773091245704399022e-01 -4.282863652591215042e-02 -1.243964876714655221e-01 2.007837566028914944e-01 7.015449298102495457e-02 3.025528147727724396e-02 -8.208141523616577576e-03 -1.356125428570604252e-01 -9.922591489199514281e-02 -9.263723439472855425e-02 3.383793789901096138e-02 4.570470999348151195e-03 1.169985486130190461e-01 7.168386820623424971e-02 -5.038557284599457647e-02 -3.806973400265062368e-03 -1.469885283199455148e-02 4.137468659450783959e-02 1.164689748884779191e-01 -1.638837628519387857e-01 8.456234005749382887e-02 -4.130581422814084969e-02 -4.892391507159590119e-02 -1.362347475576513797e-02 -2.332943218875464242e-01 -8.497163614834531142e-02 -4.788217804513909132e-02 -5.433507539722695623e-02 -9.495777478443094555e-02 3.064077408064234259e-02 -2.085927373305148519e-02 5.969279977775739099e-02 -3.128437798880064763e-02 -2.181876050719712759e-02 1.353981023742681540e-02 -3.227027405958104306e-03 -6.843283442108824555e-02 1.912508294372054773e-03 -9.431866351977967466e-02 -1.386033337688451772e-01 -1.846247333328954465e-01 -1.007528959728115625e-01 -3.726036163577385596e-02 -1.780185534473408271e-01 3.331093072878369560e-02 -7.608241606146824536e-03 -1.017003958021854212e-02 -2.683814517006829787e-03 -7.061198445629533749e-02 -1.379038364559123375e-01 1.238286542167569074e-02 -1.961828714130049445e-01 -1.632370055250098873e-01 -1.681314520519738842e-01 -1.010672478135902913e-01 -2.051361644626661929e-01 1.139834453257528302e-01 -1.619188806895888455e-01 6.243674915979341260e-03 -9.758112908867912216e-02 2.034238743491849355e-01 4.348301416547977610e-02 2.031252251611008752e-01 -8.276948341889772687e-02 -8.394695719975295289e-02 1.402758584924935770e-01 -8.433863366325254629e-03 -1.065561586292314289e-01 -2.053726650148702051e-02 -1.079420224561005032e-01 -2.247178727955721766e-02 -4.455736924822879114e-02 -2.037155412302872060e-01 -4.210509162264141486e-02 3.185944867585106810e-02 2.131899598212091407e-01 8.120546166618602957e-02 -1.314073440186195804e-02 -3.448711572681047860e-02
-6.965130912375487593e-03 1.112890030466097968e-01 6.260205588998547788e-02 1.324725922216629104e-01 1.359009958094585654e-03 -6.680494459983978006e-02 1.659045596087145623e-03 -1.240017145120306252e-01 1.786614419369643159e-01 -2.337204227884601138e-02 1.604392718508724502e-01 9.047795506179895364e-02 6.682956595993541637e-02 2.373030304325202400e-01 3.280893841632779445e-02 -4.133625538359093909e-02 -1.717191886842817372e-01 -9.030088120580745392e-02 1.249265198623648321e-01 1.148033109331309809e-01 -3.084108513973015525e-02 3.510809138514593697e-02 6.136061264103513657e-02 1.680938719741519594e-01 1.065615428828500522e-01 1.082366599839905061e-02 -5.821721768215647880e-02 3.274222943468989289e-02 -1.537167292858203083e-01 -9.739785858813292119e-02 -1.668159724674181943e-01 -2.069934868223490335e-02 -6.679540157669928979e-02 -6.058811812431436072e-02 9.593940790386526474e-02 2.649744977257506920e-02 -7.488228772610427443e-03 -8.266264116688581270e-03 1.830781536844810764e-01 1.048808065429362585e-01 -4.675985363823303986e-02 -5.082690575808800765e-02 -1.518729579377910144e-01 -6.557554600593731853e-02 -4.748490763446490404e-02 -2.068008513567527462e-01 9.475491842925768196e-03 -6.938474420817184948e-03 -1.352665559356660274e-01 -5.802635306969133877e-02 2.404493837397102957e-02 9.325053472916153274e-02 1.818379968171405792e-01 -2.507059482566894801e-02 -1.443402880189380844e-01 -2.605217329807261728e-01 -7.759720396381336593e-02 -1.018335419240679746e-01 1.262787031884059774e-01 -8.900607644649483063e-02 4.984596338891350564e-02 5.569431253667306292e-02 -8.215760817283962458e-02 1.845972992138746327e-01 1.104163082669570861e-01 -2.427731469087802962e-01 1.057760238041655643e-01 -3.366772046278090902e-02 -4.890665189489882408e-02 9.259746471271604329e-02 -1.213416672403217073e-01 -7.760381644579006366e-02 4.927774159802031373e-02 1.188004102724153355e-01 -4.148249563975749815e-02 1.123843068306359383e-01 2.397247109662076561e-02 -1.793146916964190596e-01 -9.313019156852585245e-02 8.909523879530588386e-02 2.011393071256035447e-01 2.477484132583415988e-01 -1.132678314859547203e-01 6.859567345390017723e-02 -1.145424456034049299e-01 2.690856986902344025e-02 -7.731311058581115392e-02 -4.860500834400017373e-02 -9.316616096963728499e-02 9.807635548677320902e-03 -7.702302982655290231e-02 1.222709281415424246e-02 -1.575021012958387548e-02 4.509701812589413106e-02 -8.616301800013331791e-02 2.777062669084720894e-02 1.532260126194936838e-02 -5.311282893691557372e-02 2.134330334439634227e-02 1.417816064074537696e-01 7.321103767005353313e-02 4.696699594956609686e-02 -1.386019176203883430e-01 4.436101101887918174e-02 -2.018496265741920037e-01 -1.871034791505279682e-01 -5.373154654337179009e-02 1.734742112156944724e-02 1.176499267512857022e-01 -1.587158924545442884e-01 1.049261125199175415e-01 -3.101025969726721454e-02 -3.719909684495311536e-03 2.140747244534073335e-01 9.790659195652019753e-02 2.549152642533291518e-02 -5.031758500371722592e-02 -1.045295731725548322e-01 -4.474632796908116494e-02 -1.691958756590787594e-01 8.670213022662705271e-02 -3.594071737976670816e-02 -3.276205387338188696e-02 -1.049416229563836372e-01 6.514479818624789587e-02 -8.216911400529317011e-02 5.970774385409021584e-02 -1.550646845496012061e-01
3.272137762313312350e-03 -1.527777576637404378e-01 -5.918716420734146388e-02 1.183450569561723675e-01 -1.447165147250784878e-01 -8.133508209097656261e-02 -2.638018508505862725e-02 -1.301360855015141482e-01 2.350284088385234602e-02 -1.379482144621708810e-02 8.563312660422697786e-02 -4.315782449025045570e-02 1.031614595206294255e-01 -1.566315825122036737e-02 -9.010275184705637819e-02 -6.263460573679504283e-03 -8.523752475483237223e-02 -2.852758952245195226e-02 9.549350139332801746e-02 1.232352877673328767e-01 1.477692162033701073e-01 1.972261451885673304e-03 -3.144754718860489073e-01 1.310450135774927083e-01 -9.026266354237280631e-02 2.146815562723211612e-03 -1.131512428104737150e-01 -8.792619181614685919e-02 1.258703135662151973e-01 1.403368875170044614e-03 6.727598546819271719e-02 3.840302163326643481e-02 8.590826032739657531e-03 -2.771776145058048313e-02 1.535387569112291462e-01 -1.275455332244055107e-01 1.495899542412590030e-02 7.447538535308682872e-02 6.333308220158755976e-04 -1.006522657186032996e-02 2.520854530090223949e-02 1.224581103094144752e-01 5.827371469444924540e-02 5.987641945669418264e-02 1.672427249861667964e-01 2.622408245002987373e-02 -1.943088209981741754e-01 1.167812973134702142e-01 8.456172278919338314e-02 -1.518275658909051112e-02 1.156842521926628176e-01 -9.511388519200876523e-02 2.310841153570040302e-02 -7.848858619307089168e-02 -1.244048045528605151e-01 1.265346795498442090e-01 1.158221311521876601e-01 6.948999279411019470e-02 1.488934041604429437e-01 -3.667613926984155531e-02 -9.045872256758652474e-02 1.342034703419234254e-02 -5.662815226165070215e-02 1.362278713285511589e-01 -5.359866534236275293e-02 -2.055505286831098288e-02 1.356599864891225027e-01 -3.124927497724819953e-02 2.452273362011217483e-02 -7.296476683773021367e-03 -4.106033786202686886e-02 1.055429953164826046e-01 -5.112838248858252166e-02 -5.348466551309697531e-02 -2.244293067811991421e-02 -1.910560066673729629e-01 3.278948018644362722e-02 3.043068553300899010e-02 2.158696729479875343e-02 -8.510288874389657088e-02 -6.751980401041704494e-02 1.510267182009527032e-01 -9.536487144820450512e-03 3.065290737446960817e-02 3.108056116855495432e-02 -9.332141023148356196e-02 -1.084299416864932530e-01 1.394332828854698281e-01 3.898316966387892907e-02 -8.631599474334492039e-03 -1.350983545574364550e-02 1.451263881897200958e-01 9.433169535783497706e-02 4.687771093500498441e-03 -8.610765923122255805e-02 1.108679979547851427e-02 4.643716815048445912e-02 7.504732447231249326e-02 3.068559294617551753e-02 5.205181050745939786e-02 -1.354619936015078463e-01 1.484049417328528742e-01 -1.002352805056147961e-01 7.113442012490286959e-02 -9.255022334857884725e-02 -1.248499757838156116e-01 2.260826684119215599e-02 -2.279123562775255130e-02 1.297427302044903696e-01 8.269450254740762229e-02 1.372030650070172816e-02 4.544023201624288605e-02 1.558263458788436973e-01 -1.565027266252972185e-02 6.265697082850096855e-02 -8.304892409297534583e-02 -1.503672999781054398e-01 -1.416358399624119135e-01 -8.667798690617707635e-02 4.043505581658581732e-02 6.433760095384546962e-02 3.697219570602579275e-02 1.641164866744266107e-02 -1.262800789774448131e-02 2.414454117341017017e-02 -6.207397212844290024e-02 3.562041770185935680e-02 -6.048227735756495083e-02
1.743463459470649402e-01 -1.108374521922563805e-01 -1.807610716847220800e-01 1.417461908939479931e-01 1.252654280335959713e-01 5.514969802458177112e-02 1.329745275911447255e-01 -5.566461026157543124e-02 -1.928639869596514289e-01 1.233379730644235950e-01 6.291544001770342509e-02 1.149610210350677370e-01 2.278272913780521047e-01 1.372512795957108733e-01 4.950222416411384496e-02 1.782390870269231348e-02 1.852359821438862020e-01 3.199676371518994644e-02 9.359174557603876232e-02 2.053105873974032103e-01 -9.096839044722301870e-02 -7.134660250373396628e-02 2.080502830250922086e-01 6.823085557021320302e-02 1.192738097208290438e-01 -1.983803194866765214e-03 -8.445039746595243979e-02 2.100339124447444528e-01 6.604197135954889553e-02 2.176320014825341431e-01 9.655596720956979850e-02 4.212241440258179988e-03 -9.041339636004111502e-02 -7.919732885159324817e-03 -5.020494501621920042e-02 8.758561916637876144e-02 -4.998737956313930447e-02 4.502422776644195851e-02 7.879881892368881258e-02 1.954136522939143861e-01 3.820820221014033929e-02 -4.294378129233258901e-02 -1.547287407079737387e-01 -5.841891387347993708e-02 1.932783236667133878e-02 2.869594035401677387e-02 3.907143792518105729e-02 3.980053170072581081e-02 1.096593655481109542e-01 -1.499938484015491957e-01 -3.617454150232096016e-02 -2.493046677792076435e-02 -3.453224064860381526e-02 3.199858286099283022e-02 1.272892632333874063e-01 8.427213676730188618e-02 1.469236740084401971e-01 1.017738631468524842e-02 -7.749447156091759936e-02 1.189855943881952954e-01 3.758832010018267611e-02 -6.498507590338320483e-02 3.031576484108380320e-01 1.587571523245180638e-01 1.167147373071698024e-01 -7.384602183814567566e-02 6.178298941811695422e-02 5.055653900366048441e-03 -4.446413192310234158e-02 -1.649677612727334375e-01 -1.249714932997888078e-01 -1.616520822989065548e-02 -6.057180522295860757e-03 -1.434214007070125640e-01 3.818682156373975206e-02 -1.447066130270127926e-01 5.656985474120228979e-02 -1.023973245018985345e-01 -2.704535670978253439e-02 -1.362822131065505038e-01 -1.193116937577144571e-01 3.148006176308348891e-02 -1.934055874650066620e-01 -8.471002865979500307e-02 -8.095021081852883660e-02 -2.145296514654859987e-01 3.057060771250805567e-02 -1.645326948094865405e-01 5.757317968652733015e-02 -4.277683795603839934e-02 3.798621980800972412e-03 6.122280747588580360e-03 1.113867944738999305e-01 -1.670077647481306091e-02 -1.349466578921071358e-01 2.174780856011438585e-02 2.655558384422686269e-02 2.507283824711089570e-01 1.749668169634943926e-01 -1.532139763314816772e-01 -7.341416535797584686e-02 -3.137510689844590778e-02 3.655836975211711887e-02 -9.790281641817813463e-02 9.109182752057291832e-02 -9.665993204902899316e-02 -2.819371282039235260e-01 -1.732289653767642851e-02 -1.326710256651110476e-01 7.701343820496814319e-02 6.226586087959214448e-04 -1.360141066883848726e-01 -2.599250566302233403e-02 -3.608756656993829248e-02 1.025287985695006870e-01 2.598021648054496535e-02 -7.207001130094184416e-02 2.263919296778781343e-01 1.011303187603867365e-01 -1.075461631615173136e-02 5.149037835424497694e-02 7.831271298173121675e-02 -7.677829485646439633e-02 -2.761224585319804192e-01 -1.679960784043482980e-01 -8.065732253076283997e-02 1.657493646899025619e-01 4.450306868736407517e-02
-3.203720496582115884e-02 2.369214143222880820e-02 -1.793338564454232537e-02 1.129196976608794895e-01 1.212743020501311358e-01 -3.979883455850852236e-02 4.276257969934833120e-02 -1.171599124586516910e-01 -8.786376020099181949e-02 1.621275947303816301e-01 6.763494860320259927e-02 7.699387152043458971e-02 -7.025506134192811836e-02 6.304758272583163223e-03 -1.458567592963833093e-01 7.394301842199932362e-02 6.150310120355417798e-02 -6.797615340927133654e-02 3.454696465585412046e-02 3.623389288391438631e-03 -3.425923675734002249e-02 -1.365636431520224070e-01 -4.521510167359355653e-02 -3.514489182670409856e-02 -3.450091139845527788e-02 6.996426995756685474e-02 6.535529682542902397e-02 -4.906289753675049242e-02 2.603900026530199183e-02 -1.776443034786313602e-01 -2.458120441380143018e-01 9.959175746442645860e-02 -8.338748561531277026e-02 -1.259180114487080671e-01 -8.924065596525841693e-02 4.873680508065442174e-02 6.602198360708634584e-02 -3.984889318507616601e-02 1.252721945763619615e-01 -2.751894498915214565e-02 -1.791982756337979349e-02 -8.827484099333524070e-02 3.768440073402100354e-02 9.364098837170647949e-02 2.955053868868297295e-02 5.071538377181980528e-02 -2.534524188753471338e-02 -1.650375425733309753e-01 2.437746632827267682e-02 3.815192981696392122e-02 -4.752182171903648195e-02 4.215607790803382188e-02 6.783075191359351497e-02 -6.884029614598857760e-02 1.430992012810050097e-02 2.001586270141690951e-02 1.637361499037402746e-01 -7.422149101915373470e-02 4.073866471001630352e-02 9.169598373520741752e-02 -1.502092719673138177e-01 9.921804860489250033e-02 -2.486999581281382557e-02 -4.172662272467497074e-02 -1.202263281668348137e-02 -3.446944914446115060e-02 3.269720190047255975e-02 5.345985751067645897e-02 -1.398654160580036776e-01 -1.352306258937876204e-01 -5.080035097952247114e-03 -4.553393118920146670e-02 2.026253551796665942e-01 7.747819561018667693e-03 -5.275147125991146158e-02 -5.159855940653394757e-02 -3.814671998643121703e-02 1.890385308840633605e-01 4.397171903443217178e-02 1.052517723296676339e-01 -1.749932187697039732e-02 1.649988582914156121e-01 1.345440481903392438e-01 -8.948573506371933217e-02 2.014967486730084301e-01 4.949954642178486935e-02 1.003140707285301789e-02 3.289619049756652147e-02 -1.230139137354692574e-01 -6.321409411952907953e-02 -7.704546285979546605e-02 -5.707898419719411448e-02 2.108301859541434134e-02 1.625336093938547057e-03 -4.992081890205646300e-02 7.197199816759129731e-02 -3.710071711259373822e-02 2.667748113779304028e-02 -4.038526701316114825e-02 -7.801587389030621711e-02 -2.402420724866934088e-02 -1.000913198938416931e-01 1.125393213849860052e-03 1.691990252905926917e-01 1.049685676323969669e-01 1.158106125037020595e-01 -1.932018312301389540e-01 1.522325774842239743e-01 3.799934353950065041e-02 -3.694623173917155334e-02 1.959747052951658214e-02 -1.205320870760727414e-01 1.313245634809738493e-01 -3.426073108387945459e-02 -1.665338152472361870e-04 -1.113703025524670209e-01 1.013905548537513274e-01 -1.091811524489107524e-02 3.215056316767904432e-02 -1.035220304317794188e-01 -1.042828778329291939e-01 1.020885897088618655e-01 2.614040896805098699e-02 -1.933098739078946138e-01 7.821555726915489781e-02 -5.288567988301198092e-02 8.739334855670541358e-02 7.859733165084634154e-03
