1.777399853310361322e-01 4.077909407463304464e-02 1.546658637429654259e-01 2.323356761136546322e-01 8.520288226404744425e-02 6.586823756956714654e-03 1.596172330173424303e-01 -7.779872070349082291e-02 -1.389287059655912836e-02 -3.643969329015106506e-02 -1.031906879505072455e-01 2.217211687899847683e-01 1.509505749019171283e-01 3.658875804871728615e-02 7.943129777641491640e-02 9.791648915733582037e-02 1.422709052568247312e-01 -1.899489366515541566e-02 3.744216662012322255e-02 -8.620476213711647517e-02 -2.557158684655405079e-01 2.219394414467941168e-01 9.310870185997389969e-02 -8.180729603677201756e-02 2.203605376226635548e-01 -8.912508332661869814e-02 5.716873763917212393e-03 -3.448134958546188178e-02 1.750671249557215481e-01 1.777173471075621514e-01 1.057785114321679321e-01 2.040269399691627822e-02 -5.058764337142353934e-02 -2.053804422467575552e-01 4.131915926829774627e-02 -3.982721067557752626e-02 1.221622340832060200e-01 1.703933925479499123e-01 -3.453012827096677007e-02 -2.848996309332336302e-02 -1.135476938037800060e-01 -1.434371500584168679e-01 -1.744852459448127391e-01 2.018871390070221816e-01 4.215936140423511697e-02 5.734087649527044167e-02 -1.225063096744080232e-01 7.672243060552452754e-02 -3.516963351995702064e-02 1.495868214053499567e-01 -8.534474839192922324e-02 4.142735843858661587e-02 -3.169276047566637611e-01 -1.179390618929994916e-01 -5.662313550865519240e-02 -3.015466415745301706e-02 -6.469994279081194011e-02 3.040740462641302461e-02 -4.655825334758807721e-02 -3.216745820144167184e-02 6.720331317300392085e-03 -1.268537032372125672e-01 -8.933433010968237775e-02 -2.760512686468009069e-01 7.174515375542010742e-02 -3.818749248544853897e-02 -1.975935867596128881e-01 5.835455988140621220e-02 -1.330203150116074096e-01 1.520055197701433713e-02 1.493929812510896848e-01 1.846969059787150966e-02 1.164839790135679259e-01 -1.495672077962029167e-01 3.967408585924706715e-02 -6.954209216443070496e-02 -1.388167726632520971e-01 1.916322101257994168e-02 1.222342646685171119e-01 1.365611195918234877e-01 -6.639746705023602535e-02 6.214573935225510548e-02 4.651841562015295722e-02 -1.941609094538463420e-01 1.487321018668031347e-01 1.226656928468787960e-01 1.171260848006648175e-01 -1.639708508783483190e-02 -1.057659820456054028e-01 1.165129116375409751e-01 -9.260719192493102603e-02 1.824882769283279749e-01 -3.814414376568148884e-02 1.131543223190150521e-01 3.563682365617417552e-02 1.541945697286888906e-01 1.039221870933229510e-03 1.657003333045612703e-01 -7.325286482392975862e-02 1.448118175873110425e-01 1.835306336060187060e-02 -1.513950909180546422e-01 -1.281539357705105686e-01 7.874953684293674316e-02 -6.921756092368597235e-02 1.923288119908396210e-01 -4.815873533602382101e-02 -7.474548114407578159e-02 1.925379142991051340e-01 1.487970782949588899e-01 9.884421164446176300e-02 -7.436487347131685854e-02 -2.406777537368455511e-02 2.106754408194641548e-01 -7.125339601164522307e-02 2.087623880286764155e-01 1.066282734689588396e-01 -3.962582290072660419e-03 5.985326978926413383e-02 2.589548426259624669e-02 4.189339341257467680e-02 -1.646047748392817645e-01 3.401720021551923184e-02 1.908046807200987627e-01 -1.167376715971618073e-01 -1.116443096057366940e-01 -2.165816591873122032e-01 2.551050142658571329e-01
6.961386354960587275e-02 4.114030865684489835e-02 -7.692333120825921300e-02 5.517254995673458173e-02 -8.295140365197263554e-02 1.138881095983537879e-02 -5.838185850268948207e-02 5.356032526274966815e-02 5.760161787909209158e-02 -3.178931352953395795e-02 4.808006485511469308e-02 -9.693409131222185948e-02 -1.520114709082627524e-01 7.051318823094090971e-02 1.041989257720523677e-02 7.039183874867900592e-02 2.194679864415876036e-01 9.491486997248978208e-02 -9.250915751857495539e-02 1.117000404831915150e-01 -1.346337892329477759e-01 -5.979019914814438785e-02 -5.815821481151501986e-03 1.608254894685679504e-01 -8.045936819235724458e-02 -7.276883000607824170e-02 -1.401808476515336091e-02 -9.132885909428829774e-02 1.145666368472805230e-01 -1.025025676029565486e-01 -1.226177053546796819e-01 -3.970938979002297531e-02 -4.120711138912061533e-02 1.866397492585483986e-01 9.402427955149242345e-02 2.134392244236206840e-02 -1.233315955718940621e-01 9.705460695358403278e-02 -9.925478261629767929e-02 -1.542426412757224030e-01 1.216394457957753195e-01 3.198107447913142720e-02 8.988260570436398811e-02 3.410207888055311054e-02 8.758348505510517301e-02 -6.117202752406294269e-02 -1.034792354961305560e-01 6.791768077353389776e-02 -7.007367426829823331e-02 -8.309005201545710539e-02 -4.901009898528373154e-02 2.001319634533744660e-03 -3.534140783458979140e-02 -1.374212880831176264e-01 -8.979035642847180143e-02 -2.363910162292527373e-01 6.039878802887647252e-02 -1.600455507082401418e-01 -1.224208913126615811e-01 5.395414388696155410e-03 -8.167353090526362214e-02 1.398488418775536701e-01 -1.219922929239758286e-01 3.048077113655383794e-02 -1.067483553950933188e-02 -1.167685080202203185e-01 6.232598507911812219e-02 1.868974760910351030e-02 8.657175449541297529e-02 8.524868418347900101e-02 2.161279687040338349e-01 1.333701445129952257e-01 -3.614687383714953323e-02 -2.603173167323431098e-02 1.098260441998960280e-01 6.552637307225978036e-02 3.536360038433521841e-02 -1.749374110190626275e-01 2.823570133811796352e-03 -8.462192387198318178e-02 2.822576991589846943e-02 -1.901564354275554758e-02 9.101789080925920539e-02 3.509822280317061866e-02 7.863279621089762361e-02 -4.602729710838793231e-02 -9.533546426085123815e-02 -3.837434752234792495e-02 -3.174203999712916190e-03 3.744432874601308359e-02 2.229691459870707659e-01 7.337343841358194996e-04 -1.008085842967816198e-01 -3.495293358910234183e-02 -4.635959746460942277e-02 5.749058924679560645e-02 -1.540800950057334417e-01 -7.122210270881602218e-03 1.179911146858694457e-02 2.074933795497363453e-02 -6.156464188380357527e-02 -2.125717350498704597e-02 -1.424042683442824919e-01 -4.084829401703997387e-02 -5.379630327212787250e-02 4.997227639838973390e-02 -1.158076093551371893e-01 7.811981017099933755e-02 1.497638886889147147e-01 -2.065469723176241723e-01 4.394833687828454682e-02 6.182911032660460410e-02 -5.390386020047525234e-02 -4.010603203265591249e-02 -6.188835803759906891e-03 -2.736458544014202382e-02 -2.645803534919809533e-02 -1.665129657475115654e-01 1.152130539899214323e-01 1.101904344146065334e-01 -7.934466931725653316e-02 -1.446335035306230699e-01 5.235983065864834723e-02 -7.681368673717527129e-02 6.009306882919365940e-03 -2.939818116224745745e-02 5.193413574164510577e-02 6.867934208793347040e-02
-1.131908642828717282e-01 -1.375055618208663732e-01 -1.580566776837726284e-01 6.458318174748009510e-02 -2.783741286269986182e-01 -1.642754582864641710e-02 -5.799861104587953481e-02 -8.300349129235339019e-02 -1.964338982519536481e-01 3.330057215595903786e-02 -2.655710786803600933e-03 6.447038956644879359e-02 -2.623853206412348968e-02 3.672022797689629414e-02 4.501678118716177096e-02 -3.011877460167292075e-01 2.606893400244847392e-01 4.253774524694613202e-02 -3.494811568788791512e-02 -3.965985582511512286e-02 4.684834516349796474e-02 4.953754341336639305e-02 -2.056568181742962631e-01 1.746615075586179511e-01 -7.122630502802196339e-02 1.376533813436187081e-01 -3.188896594857028310e-02 2.690384198506216018e-01 6.875030870871426045e-03 5.493342746996673909e-02 -1.386704601253322122e-01 1.570818806030746806e-01 2.547051200082427191e-02 1.445371441368238363e-01 -1.556001992479952648e-02 -2.728292970275044554e-02 2.294552228776794711e-01 -1.320084025611492073e-01 -6.855146637276605080e-03 1.148230168381071392e-01 -1.904508838558216510e-02 5.837214938257377639e-02 -5.152653140946537175e-02 4.571212021721173663e-02 -1.081248513819408202e-01 3.086126414145675678e-01 -1.084139178854334924e-02 -6.616998001273771690e-02 1.498587408203753413e-01 2.226131787240227117e-02 -1.469584673111585804e-01 -1.347379262306681591e-01 2.318224736472049990e-02 -1.588743233743753619e-02 -5.997387977726185287e-02 1.045115987811896102e-01 -1.157531728329205534e-01 -7.290756043404757192e-02 -3.982272399114421962e-02 1.039380408200930861e-02 5.937008195550974587e-02 -2.937532196116285008e-02 -4.150449038263341606e-02 -4.058281762461699721e-02 -1.461038826793989720e-01 -8.063272840039303890e-02 9.947228102392328963e-02 4.276360207515687156e-02 -1.823228745927800709e-01 -2.073183632624971476e-02 -4.598363829551165884e-03 2.362159482420792544e-01 -7.714121957412994890e-02 1.505501785893775812e-01 7.452053445095720152e-02 -1.193028831271775447e-01 7.508776746430503857e-02 -2.066660061360509060e-01 -2.491230246302909013e-01 1.113039558380884558e-01 -6.517153293643784817e-02 7.071984687499188738e-02 -6.840108977372165444e-02 1.362234731755341821e-01 1.065660305762356902e-01 -1.892964316211973586e-01 -7.652809006751698506e-02 -1.755984779017348285e-01 -4.576176774654488327e-02 -3.103907466469914278e-02 1.591129072533956079e-02 3.331836083822461991e-02 1.389827890902216589e-01 6.513042179042800861e-02 -7.641439239064430622e-02 -2.627492170986606493e-02 1.364190865434197208e-01 -7.159186652254035180e-03 -1.311960649449488425e-01 7.290430360326279752e-03 -2.563676683176710491e-01 4.799124593104099612e-02 -4.823851968506760041e-02 3.424037675781996942e-02 1.707292733315529665e-01 2.859374530112290813e-02 8.697111826567653636e-02 3.399649838012620134e-02 -3.753453481145348301e-03 2.598437722185015578e-02 1.893829478984389303e-02 -7.349583237471232766e-02 1.712753641373053427e-03 -9.350417904968413851e-02 -1.425031554271438683e-01 -1.054836743452082642e-01 8.859540379603891846e-02 -1.825016515807860104e-02 1.182568060659003589e-03 4.987632052227648771e-02 7.879273647953191628e-02 -2.201266296829605673e-01 -1.889764620676346804e-02 8.583998576915218004e-02 -1.718783339524586895e-01 5.025639001164231706e-02 -3.078138392246305144e-01 -9.448104183848606008e-02
3.863055184018809960e-03 -1.656715102321953959e-01 -9.855107376841507061e-02 -1.471835007463586920e-01 1.648134932207559744e-01 1.642277554873339609e-02 5.672902778526694306e-02 -2.226751005151544893e-02 -3.534317487571991129e-02 -1.616474188651032540e-01 -2.918373627478628232e-02 -7.614922118116233818e-02 8.579239242923364372e-02 1.141101866657573405e-01 1.466578715574177738e-01 8.525519394612320057e-02 -5.986539369229861018e-02 -1.115896985960394550e-01 7.666631816450861225e-02 3.562928174722889557e-02 -1.768538450677030749e-01 3.554817927437690928e-02 8.145198224878663629e-02 5.892558918162996151e-03 -1.850536710093415513e-02 -8.076484876163557425e-02 -1.446534699563387927e-01 8.002979493400275146e-02 -3.091144447717088239e-02 -2.334666615436927287e-02 1.732721186919133349e-01 6.845011068591903836e-02 3.708250012811020735e-02 1.420618051872356638e-02 1.519994860765772893e-01 1.719589307416194701e-01 9.295051114795281622e-02 5.822245913979243181e-02 -2.094603071206144751e-01 1.237219142335065775e-02 -1.301069541937040046e-02 9.395322938556872200e-03 9.430460873225178509e-02 -2.739677167189556450e-01 -5.693120534701850977e-02 2.699043549407613776e-02 -4.668455460527625583e-02 -1.416906113126259470e-01 8.689634868967954784e-02 2.768719058461280302e-02 -9.711045704444846993e-02 3.148172045158238036e-02 8.215857120497958854e-02 5.292646299360853840e-04 8.005648034309968686e-02 7.826017516166135224e-03 -3.952289826543543827e-02 -1.159420516399913004e-01 -8.593076697161272995e-03 1.942929380457716904e-02 8.758327615873309768e-02 -1.151074684872267252e-02 4.574156062209908113e-02 -9.646120137337284295e-02 -7.826291558275251525e-02 -1.103892990268877557e-02 -1.054628463985013975e-01 8.202478373246813170e-02 4.631303293186071063e-02 2.790957643924534340e-02 3.389041252159445683e-02 2.021043561484797690e-01 -4.688641879667956869e-02 -2.201441285500558009e-01 1.993001968964652065e-02 -5.060354096166589863e-03 -5.175190425104032876e-02 -9.788298593587699270e-02 -4.391895218021479863e-02 1.813384292178213050e-02 -5.028167006425382501e-02 2.412453679543748730e-01 -9.605043816331480799e-02 -7.931173627076716637e-02 -2.288620040014528456e-01 2.514844150215370111e-02 -2.016406627799760265e-01 -5.394546333745014327e-02 -2.756705345605569776e-02 -7.097279658468882979e-02 1.738872677454511018e-01 9.943943913154990044e-02 1.319136876301575667e-01 -8.824188185499186321e-02 1.128594064514568535e-01 4.960009463439622041e-02 7.714059486768455598e-02 1.029438828782767157e-01 -9.087632459590531953e-02 -4.243176209779014885e-02 8.625960113284511510e-02 -2.655619092974932927e-01 1.513328082573205391e-01 5.531320642075840399e-02 -4.570396066023485297e-03 2.205076557571733140e-02 -1.029935283308976574e-01 -3.499433645891047301e-02 1.100284338220373775e-01 1.298021972326221241e-01 2.696224052563579998e-01 -7.392466628041514075e-03 -6.585529668050037200e-02 -5.142339659399888796e-02 -1.018041875287364895e-01 -7.785475594085076306e-03 3.827324300122681572e-02 -3.424228053195386978e-03 1.096346845665798625e-01 -2.342158013445365394e-02 -3.474506524985632866e-02 -5.812684768603252478e-02 -1.632634526234495453e-01 -1.567767724308454236e-01 -1.179157930637687868e-01 1.301428071664760822e-01 8.952602728899300422e-02 1.374964066392989903e-01
-3.456321480360275422e-01 -1.985412068236757643e-01 5.393645317338069747e-03 2.496216796887629555e-02 3.112242674161648792e-01 3.584926396907679447e-01 2.047682198830384770e-01 3.285147067505526652e-01 -1.875246875372467772e-02 2.424898501888004057e-02 -2.790215412248543414e-01 -1.895488043029983638e-01 9.529943279795671796e-02 -7.035819534545159626e-02 3.056130420716563281e-02 1.729501869366919520e-01 -2.807598512864691864e-01 8.671275033150879774e-02 -2.137317643180494109e-01 3.853429370321292263e-02 1.696711972950413483e-01 -1.156086050011446466e-02 -1.258079549125698804e-01 -2.842893620804106125e-01 -6.660344668442606808e-02 6.215656055260149887e-02 7.996384287222790821e-02 1.069825266216577059e-01 6.686962386939794556e-02 -2.077401420443865110e-01 2.332713981506094603e-01 1.519113159872986230e-01 -5.237568306831568571e-02 -1.520831221308193704e-01 1.316030098011196359e-01 -3.442521010946499871e-01 1.008863909598458619e-01 -5.051044329736367744e-03 2.330818836397795940e-02 1.269150850347579816e-02 5.928451398957011904e-03 -1.978167094915429108e-02 -9.901874364396139050e-02 1.869287726282470585e-01 -3.577413001257931380e-01 2.036782853321379427e-01 -1.327788013773682496e-01 -7.179154056508145476e-02 3.391093899043276516e-01 4.884567391530197228e-02 1.277384163534888706e-01 -1.749917681484764731e-01 -3.300038848660397095e-02 1.965574007287849284e-02 1.264170591460627435e-01 3.201469119028371724e-02 -1.878280309387789504e-01 5.270042084546597283e-02 1.441981133088975607e-04 -1.861969558797138269e-01 1.602060770067401940e-01 5.383949154055120423e-02 1.581489671782700390e-01 4.171947548507345949e-02 3.013316021614380336e-02 -1.042280206879241250e-01 -1.303202384383202739e-01 1.389487638422321758e-01 -3.333912833845443235e-01 -8.806880658378780924e-02 -1.438343038633570214e-01 7.893721525241009784e-02 -6.542212580298480129e-02 -8.739007337143038512e-02 -2.171398445979993638e-02 4.358489872856893127e-02 1.360703746835329464e-01 -2.926464677858525154e-01 5.902804300783482533e-02 1.716526737241153844e-01 -2.923114008230726785e-02 -3.660421161400309598e-01 3.517801106813583240e-02 1.517227603253929191e-01 -4.700540754048236625e-02 -5.231610771654849473e-02 -6.813969499200656088e-02 6.346628407703647223e-02 -1.326623764324779409e-01 1.811134610030845637e-02 -1.432636610670894595e-01 -3.375008037910494363e-02 -1.829669879844269265e-01 -5.107286968738223437e-02 -1.104894050659278350e-02 -3.576405943032560236e-02 1.150951176588388761e-02 -9.482142821839467661e-02 -2.519805531212271354e-01 -2.721841544312145200e-01 1.216782354710025660e-01 4.214294381345753959e-02 -1.298766060877388877e-02 8.323316189159207790e-02 1.243806375849182827e-01 -3.876555703526027297e-02 1.313775640991340365e-01 -1.506998398214272061e-01 7.419259360566859973e-02 -4.163244618665098984e-02 1.417808929287684219e-02 -2.233521598121517848e-01 -1.445897459407363000e-02 -1.155005607799471090e-01 1.478470783527968957e-01 3.806424866347153380e-01 7.553193077361958219e-02 3.552622935179140361e-03 -7.372637772394467770e-02 4.571086879742309456e-02 4.416414201729187972e-02 1.952029015892389752e-01 -3.833858816189418539e-02 2.033680471251649857e-01 -2.374074356017043252e-02 1.449676715804506556e-02 1.135217914869733058e-01 2.578061777774848240e-01
1.699850291009511252e-02 1.371413012381320906e-01 1.018627088356301863e-01 -9.746338000174514793e-02 -1.726258438652207849e-01 -1.422645495454342816e-02 1.062731813726204844e-01 -4.328579324612947393e-02 -5.948559138512712896e-02 1.342614841875200415e-01 4.627311090497204793e-02 -2.167629055370040858e-01 3.113028249007988857e-02 1.032877150460057847e-01 5.163866235166774538e-03 4.954551021739794087e-02 -2.973174797975939102e-02 -1.318575984232493725e-01 -3.540642019134036117e-02 -9.457252220181366908e-02 -1.008012811193122471e-01 -1.489557430072652733e-01 4.693109188577342800e-02 -2.423166867378187539e-03 -6.269167154099759831e-02 -5.190019000439806407e-02 -1.075726890082810694e-02 7.532661291689411731e-02 -2.002401209984119856e-01 4.589349747926586148e-02 -8.197337691751563349e-02 -1.848711539597481246e-01 -1.848507774131639414e-01 -1.079748218457318026e-01 1.674139136467913888e-02 6.741075683840222488e-02 -9.129130632702470161e-02 1.066799944235062580e-01 1.434467646847621125e-01 3.986291597601360204e-02 -4.406910771754640743e-02 1.130775373953928908e-01 6.904485571056816207e-02 8.569026408749441659e-02 -5.678568548934944532e-02 -2.701044204412500482e-01 2.116492124489806059e-01 -1.616994284012537586e-01 1.388450021753957764e-02 2.099244577592763727e-01 2.492500573158061561e-02 9.508607183951556241e-02 -1.499551832649323180e-01 -1.776928542146863910e-01 -1.035865291481448680e-01 8.189658820093728697e-02 -3.900151661103021250e-02 -7.946363210714987857e-02 -1.611525839062587923e-02 1.084126208030339183e-01 -1.573082229191742343e-01 -1.429916607607306378e-01 -7.050032055581278989e-02 1.183828118047142719e-01 6.059405068012846569e-04 2.152901825525072865e-01 1.343066650513680960e-01 8.185888740698238353e-02 1.462488341114985824e-01 2.647193972815597984e-02 -6.346928948071735299e-02 6.771332849448848112e-02 -6.879750806783052619e-02 -1.978601131178230402e-02 1.327801920705257155e-01 -1.022147507089936867e-02 -1.300754203624433225e-01 -6.587810203401620046e-02 1.084790705259515153e-01 -7.686005906861485826e-02 -2.810124782340716124e-02 -4.098329653598724309e-02 1.839254943403099626e-02 -3.821015999073803376e-02 -1.602550456623290653e-01 -1.071406237499029773e-01 -9.344652864343411247e-02 1.255520029511968672e-01 7.943354586488228508e-02 5.823339153140173058e-02 -5.078692758997822854e-02 -7.123785805251192649e-02 -5.285630403234932440e-02 -1.126878172144326340e-01 2.497200391587007240e-01 -1.932381967151940716e-01 5.638925580348630451e-02 -1.430749266114664242e-01 -1.285664706448823129e-02 -1.042274039035154115e-01 -1.167646356664547580e-01 -9.168540830589862189e-02 1.753173215626649961e-01 -1.084148637705896392e-03 -7.504234980227295071e-02 9.252091562534099645e-02 -9.241300584127937028e-04 7.200337593416528126e-02 -1.819864734324865285e-01 3.390164348072347705e-02 7.851251170586151518e-02 -1.784429398502111741e-01 6.595415945870089502e-02 1.762432935337691353e-01 -9.357282045749294730e-03 8.354460349303981237e-02 7.875974511456121374e-02 -6.921996870949619074e-02 3.932960566577913160e-03 -1.543549818650437611e-01 -4.210714820030789923e-02 2.690755486734160151e-02 7.270329272751582805e-02 -3.980549574139197883e-02 5.540181233760792245e-02 -1.091640556818856550e-01 -4.818743691818971192e-02 2.225202751785948074e-03
3.151475097648784307e-01 -2.069433983599515067e-02 9.464340212381919248e-03 7.236371126667542897e-03 -1.624782169458550141e-01 -3.355503184121468724e-02 -2.932764327023471354e-02 -1.714703947161791697e-01 -7.975172456164903584e-03 -8.274188721265667013e-02 -2.439373229682736954e-01 3.403931114078598275e-02 2.504305231922113184e-01 2.546817260077995082e-02 8.579155972231547467e-02 -7.409539760597404212e-02 6.065507510726607376e-02 1.730495066078073518e-02 4.119230941630641629e-02 4.163738908539508371e-02 -1.322851930649243946e-01 1.721084657746497493e-01 -1.067810833077818822e-01 7.417745157108573961e-02 -1.405068875643173121e-01 1.379656352974464317e-01 -8.747317925923467352e-02 -1.111830604277877360e-01 1.862926278899838806e-02 -1.035680500280086874e-01 2.379811892970677342e-03 -9.975827727624636543e-02 1.994633612060495997e-01 8.287096585015772676e-02 8.678411867125977730e-02 -1.536674928235276794e-01 9.364093143052977519e-02 6.621217878138947743e-02 2.547460796727794158e-02 -1.176023659522608183e-03 -1.630305165172066806e-01 -1.062668223566423827e-02 -3.884281441309236221e-02 1.566599127978104133e-01 9.045613295213941751e-02 -4.325812124765782835e-02 4.888408633226792172e-02 1.729394292192507065e-01 -8.852769031751935025e-02 3.042266900410950936e-01 -8.118173325882296898e-02 3.119261943744582391e-03 -2.943735993580100518e-01 1.274046506247962637e-03 -8.849919155401433923e-02 -1.006000719125126064e-01 -7.751289431346625181e-02 3.285647439288066213e-02 8.777142407914223510e-02 2.255618060968562211e-01 -1.105297579784575296e-01 -1.537824437306997416e-01 4.986813738236402921e-02 5.071786982960336393e-02 6.833075006008832407e-03 -6.171027491625884903e-03 -6.817296767080779918e-02 -7.373947950617122660e-02 -1.776682106543419626e-01 -2.008521854584563796e-02 1.023544514011327788e-01 3.559784991419709388e-02 2.794577847442477128e-02 -1.708003831265929862e-01 9.749092069802589577e-02 2.127371690640373625e-01 -5.545854931321293757e-02 2.198983030399680183e-02 2.745124127505085831e-01 8.927845604229142640e-03 -1.192542103890981559e-01 4.037113928276219073e-03 -2.582796632969944772e-01 -1.829424487623595441e-01 -3.494384805299814711e-02 -1.560231737811319241e-01 -1.080183346385698157e-01 -5.846987644977257731e-02 -1.642335838413410409e-01 -4.232908489897747178e-02 -1.631758329688672571e-01 1.150805362924074843e-01 5.510177106118876317e-02 1.371550986281673545e-02 2.106202134206362330e-03 8.269019911903484343e-02 2.272849731096403259e-02 -1.389579655720376561e-01 -2.988113595418407861e-02 8.621929057978934552e-02 -4.252052817191099843e-01 1.787413941663042460e-01 1.076918400034142520e-01 -3.138795227169090263e-02 -1.562347716704987899e-01 -1.447215739537249801e-01 6.406828450560607402e-02 -1.061222287445909296e-01 -2.315215484328370793e-02 -9.352725498148715955e-02 -7.107671392459521953e-02 -3.117825062703131755e-01 1.289068618460537941e-01 -8.065709182796244880e-02 7.444164297136524056e-02 8.406339917662043748e-02 -2.353486047779725088e-01 -8.129950501344750113e-02 9.276482498503874075e-02 -1.366654047544478001e-01 3.514531464201824801e-02 -2.127522372272091233e-01 -6.146799222659396489e-02 1.723659208595679226e-01 7.763020323418733104e-02 -8.784639445040694217e-02 -3.220012728984386063e-01 2.010948549895524295e-01
-1.421478865187747742e-01 -1.541587399671787706e-01 2.503561684486492744e-01 -4.360986391910589427e-02 -2.981961071266857610e-01 -7.330159513324333714e-03 5.396014119854877777e-02 -3.993020308215506839e-03 -8.460929861475809111e-02 2.222790690463879448e-01 7.936841647777639897e-02 -7.771139570403963470e-02 5.462478691826561789e-02 2.787378216386153240e-01 -1.530763851692523436e-01 -1.636563039083935023e-01 1.553432328535724050e-01 -2.018880433689487497e-01 -7.753410882580077934e-02 9.660076977610690396e-02 -2.978887736164551395e-02 1.292042513545228581e-02 5.609708040435459203e-02 -7.016735603484605677e-02 -1.799541573368103331e-01 1.720629800031414913e-01 1.351883771549792501e-01 1.335904435977415539e-02 -1.510618992423343881e-02 2.321596176521818766e-01 -5.987854587268562692e-03 6.456329897387524941e-02 3.208573012965142829e-02 1.355724338618191083e-01 1.526366354274992232e-01 8.104461386124640898e-02 2.739924886753469443e-02 -1.453555681064108984e-01 -1.454054130036023899e-02 -8.406346083662662172e-02 -3.040039096276892644e-02 1.696989345220697443e-01 -6.382185507127302593e-02 -1.289890290746304770e-02 4.789758696541408095e-02 1.246793469147710748e-01 4.873947530702756742e-02 2.798827952459500557e-01 1.227138868679227973e-01 -1.008109547564262033e-03 -1.711459263663852280e-04 1.432863764231623038e-01 1.407858296157810454e-02 -1.162297003871490958e-02 -1.396785919405705290e-01 -3.307964738594173365e-02 1.226238756295609245e-01 -4.103817936578706138e-02 2.185849151666174103e-03 2.303864164689908844e-02 1.441539565183236338e-01 -8.695082897345428330e-02 2.337216383355784355e-01 -6.934309243946776280e-02 -8.031536323553530032e-02 9.458593328238297515e-02 1.622041224437496820e-01 3.021500507779516509e-01 6.316936062597834634e-02 4.579481300943150546e-04 3.579519851475005277e-03 1.638882568686383379e-01 7.230400677312123769e-02 5.709006113435931284e-02 -6.579260925367952373e-02 9.697049636082186175e-02 -3.396747890454256125e-02 5.758057646732537421e-02 2.535309609850592283e-01 -9.487001694519553441e-02 1.832058002360028443e-02 -3.321493610426404924e-02 -1.435795117163205653e-02 -4.204012802306697494e-02 3.594425043842091466e-02 -6.615959255408135342e-02 -4.097350957391696774e-02 1.723540198454074635e-01 -8.587829289088765028e-02 3.380675866423453468e-02 -7.768307496339420248e-02 8.867305816319939749e-02 1.279037689154712276e-01 -9.072612789700991442e-02 4.410329072731514199e-02 8.561075629184544677e-02 -7.994223995430965735e-02 -5.550802780726637325e-02 3.387517078829914430e-02 4.989670196079704773e-02 -7.452238371296071584e-02 1.003303775313870577e-01 -1.146575017554209291e-01 1.359517406271467874e-02 1.359245025002728813e-01 2.006889266752874268e-01 -4.115637577901818528e-02 1.047140294332843391e-02 1.905525137147618536e-02 9.755311709071111739e-03 6.699675489816185603e-02 -2.446186287788856828e-01 3.107177700554650951e-02 2.116872324145559897e-02 -1.271727991062853447e-01 2.544706078520709847e-01 9.012912099804286370e-02 1.591241575646807904e-01 -8.277875263202803813e-02 -1.383677250643881688e-02 1.806677722626957860e-02 -1.170346097922489170e-01 2.149655906260935362e-02 3.411324929587834787e-02 1.259633368110110174e-01 3.121737980957636424e-02 -3.266879187918723254e-02 -1.072823740903465495e-01
2.072816036548529306e-01 -7.918541605548538864e-02 -7.188122740120758691e-02 -1.079118223192157833e-01 1.088693500844759021e-01 -7.102031749011102069e-02 -1.053810323642591085e-01 5.625202635482182134e-02 -1.986250863182697016e-02 -4.128124836454775959e-02 1.970122571857163551e-02 9.889888760677703616e-02 1.521129763202340446e-01 2.321151926636725107e-02 6.063870569644978087e-02 -1.541942503396260822e-01 1.919294057413650778e-01 3.009482473193458504e-02 5.358545349749926218e-02 1.113987863985099053e-01 1.622522521639706283e-01 1.364472681084759331e-01 4.926904392485533662e-02 -2.550950130485754586e-02 1.046360504847587171e-02 -1.046563018817074642e-01 -8.398670273438674228e-02 -2.006705687076636505e-02 5.822900122629364990e-04 1.320341628196281536e-01 3.204633372840839933e-01 -2.741783311185627854e-03 -1.206383743192626645e-01 1.160330768237169130e-01 1.526000402289427738e-02 -1.923720353181186948e-01 2.417278912965049875e-02 -1.585207095222423146e-01 -3.775713819544862949e-03 -8.177961854807454939e-03 4.014864371842748192e-02 3.776539394791467857e-02 1.409439817458794063e-02 2.477061245802757161e-02 -6.518223258623542793e-03 3.678020694456576173e-02 -1.025642638060536710e-01 -1.427358731036738326e-01 -5.838380661555728907e-02 -4.864313654947774457e-02 1.422737314951151577e-02 9.527364536114331373e-02 -1.372827353421840653e-02 -1.048170406825473244e-01 -2.712925154496315799e-02 3.070098810393527208e-02 -1.676778915141088899e-02 -3.166552950521069748e-02 1.243053191057957724e-01 -9.672240870413952030e-02 -1.519565212002519927e-01 -4.201660629961977145e-02 -1.200639276908520292e-01 -9.715377548207564107e-02 8.373826080927908311e-02 6.453344222622119271e-03 -1.127209527448407161e-01 -1.120360219987807104e-01 -2.161059931341060836e-01 -7.689600277969495246e-02 2.716470505287706949e-01 -8.608404552219194039e-03 6.810942315668454261e-02 -3.055770458780362325e-02 3.484843832389412921e-02 6.643283519061531084e-02 -8.456348179639586182e-02 -2.915690351800356156e-02 2.217700769214706602e-01 -3.968056852088806125e-02 -7.411633305575052177e-02 2.453904917500386237e-03 2.690240731762466586e-02 2.240919181461683424e-02 1.266799589955040495e-01 2.165128076616863739e-02 -3.803647136908673478e-03 1.115205312075801536e-01 7.935556215303120331e-02 -1.484379076856834068e-01 2.118798557285282158e-01 2.305318467637704760e-01 -2.204652089701530926e-02 3.785922824839458439e-02 1.324358749995839246e-01 -2.153688968514279583e-03 7.303611537852386371e-02 1.866915405994215293e-01 -1.174994216675166736e-01 -3.294667814767579528e-02 4.774859578064957234e-03 1.128941189413838198e-01 9.218516805675189274e-02 -1.883539945747737115e-02 -1.248574312757818050e-01 -1.682798384488015109e-01 -1.137818277707515757e-01 4.706609465849369983e-03 8.021384395296625447e-02 6.106595775659585945e-02 -6.426212797166661050e-02 -5.372510501247895753e-02 -5.096641206963965776e-03 9.882490950048880562e-03 1.295117549015587788e-01 4.336633969689106943e-02 -2.394314682901777791e-01 -1.255619681289488754e-01 1.517178166724522659e-01 -1.180558539536826490e-01 7.702405150192534466e-02 -7.177942306042575660e-02 -1.636717998164179469e-02 9.035053961688069291e-02 1.305643961286903354e-01 -7.730240927008920349e-02 -5.570233226686073513e-02 -1.526488637468894627e-01
6.026455257755077011e-02 5.368295146538823448e-02 2.929578110421455703e-02 1.402359584191684716e-01 -3.067662730674883612e-02 5.900533039009814296e-02 1.919598664401326038e-01 -2.310507169908777581e-01 -4.572966037623485414e-02 6.721438391054466999e-02 1.073511014589005885e-01 7.909160671785128716e-02 1.114484493741058624e-01 6.440527028798603837e-02 1.641917277129577024e-01 2.981950341353549125e-02 8.132908961128264540e-04 1.449359793366471541e-02 2.006749353742403111e-02 -1.158930908892210343e-01 9.758856341067355389e-02 -2.706735853802975933e-02 1.627956104841028762e-01 1.328677296839910621e-02 1.148271211244544267e-02 4.616423301381033378e-02 -4.882416806751738170e-02 7.154658700608394761e-02 1.908848222707601461e-01 1.134856264805497207e-02 -5.765316617941208116e-02 6.998735342022559432e-03 -1.867191459791976982e-01 -3.655904867805509495e-02 2.833872526496874350e-02 1.387453183795383238e-01 9.728623202518821289e-02 -5.350762107491887493e-02 -3.194735177777049961e-02 1.121264774038553402e-01 6.606530890568659831e-03 -5.100295397556169757e-02 8.738506136654673739e-02 1.129578434884488669e-01 -3.159564202570262076e-02 -9.925266912240663514e-03 -2.027662587714544329e-01 5.909404678671392047e-02 -6.944971811527253513e-02 -2.518346547515852851e-01 1.516548293495596500e-01 6.849190344097669247e-02 -1.056252473328072594e-01 -1.214744173048275394e-01 5.476081886185780317e-02 -1.031160883678193113e-01 1.299905834863265275e-01 6.164593126261552758e-02 -1.971482365947238927e-02 4.059399647354162283e-02 -5.146781582773683056e-03 5.304348739972788301e-02 -2.321434906624081362e-02 2.161313065026182131e-02 8.180049496999847181e-02 6.446848235321894771e-02 -4.405571447884245456e-02 -2.713218055066648603e-03 3.913011177293833354e-02 -6.501292714219322755e-02 1.683112184753493001e-01 -4.255563991456545042e-02 -2.214321990489354075e-02 1.063487269668932783e-01 3.305327432349158129e-02 -1.443916554559656652e-02 -9.121763797859935852e-02 4.248861127739250038e-02 1.059522078275131340e-01 2.488697218437591063e-02 -6.278129675891258588e-02 1.831666064090330948e-01 -1.446577890035894431e-01 -1.313406794964977753e-01 9.605572244572284368e-02 -6.364640219681833889e-03 -5.616930690670320081e-02 -1.260049465908310573e-01 2.339067733498619295e-01 1.201302389224825039e-02 6.736505684194843413e-02 5.477227381581269844e-02 7.467467313519936256e-02 7.703231027426483968e-02 7.324240097548762041e-02 1.653449696392992468e-02 -2.916419863518445940e-02 -1.491798931024595487e-01 -8.426454275853033360e-02 1.807051417311150363e-02 1.123122830259349336e-01 3.249388275779914459e-02 -3.406923438779304453e-02 -1.303839883876056760e-01 -2.770619817552844033e-01 1.024447706910178446e-01 -5.892289865101497937e-02 -4.484650062040593244e-02 1.193753805500809978e-02 -1.521353297879315114e-01 -5.840603437116324154e-02 2.303400552045170024e-01 6.452991373090613547e-02 4.014912361524970719e-02 -2.188173392021947883e-01 2.229490713397617452e-01 -1.042159464772748761e-01 1.929683370521757813e-01 -2.114900582871693802e-01 1.516203967108835926e-01 1.671526044269332489e-01 -7.859241861133073326e-02 4.225803722728827677e-02 -3.023535378506602735e-04 -1.107353992160662326e-01 -1.447554330403414691e-01 -1.507743986500542088e-01 5.089607791250640167e-02
6.965391593958063232e-02 -5.680979036185317133e-02 6.987559302434324937e-02 4.507408670937499556e-02 -1.782019710335795426e-01 -1.077774860872982715e-01 4.385430954440409229e-02 1.297391977103161675e-01 9.964080426281727090e-03 1.446198605568487228e-01 2.273154476178307071e-01 -1.033994679539836786e-01 6.334205849050543458e-02 -1.396008550054366470e-01 1.452101537903066619e-01 -6.152337282839517169e-02 3.074125309346610602e-02 3.393146753154542561e-02 5.378724423059966231e-02 -1.960184098582006818e-01 -1.304090293673287326e-01 -7.661652296565592268e-02 3.630961848734492320e-02 -5.772917385778261745e-02 -2.022568548215612216e-01 -5.531391513629102530e-02 -1.138460625272487425e-02 1.483526752039518969e-02 5.310982153453360638e-02 -5.963517726653129458e-02 -1.774854105045098676e-02 -5.136904860005461065e-02 -7.216728605258397600e-02 -1.073326815969036091e-01 -1.914607684544797350e-02 1.406548684555898598e-01 -8.034949211679823233e-02 -1.522320349244241922e-01 -1.655286318364368806e-02 -1.275272058485295568e-01 7.273232019964431805e-02 -7.121768736697574320e-02 -3.320813414582698270e-02 5.528750469265683587e-02 -1.890198849798944147e-01 -4.410158592358319474e-02 1.307136641582153647e-01 2.333048185895699768e-03 1.147199141894664487e-01 -4.384254386987967224e-05 7.167581006622956996e-02 -7.725811730527522292e-02 1.062484276028139857e-01 1.346513352023170386e-02 -5.322121117722369149e-02 -1.169040448705326030e-01 -1.878189495238637152e-01 1.495937195165501776e-01 -1.825205597038559724e-01 1.332584100803371197e-01 -1.955642238606331365e-02 -9.732246733907100322e-02 5.374656686074806566e-02 -7.791015334424478134e-02 -4.993670709456265837e-03 -3.224383177364369135e-02 9.137745578677097802e-02 -3.260417334366980113e-02 1.731473293838073357e-02 7.515034805792078498e-02 -7.436606926256320027e-02 2.773954533084026508e-01 6.010278864006148025e-02 2.896793114430981086e-01 1.600179474655110123e-01 -1.937976599460806970e-02 -3.523543238628552843e-02 2.788372858738956579e-03 -2.305809390494392708e-01 3.636036616297728258e-02 7.381503766279258472e-02 2.452590802577501450e-01 -7.727718829782020959e-02 7.925094315591442451e-02 -1.256712710110656217e-01 -8.891905217793311111e-02 -5.217084446360995692e-02 1.094298891103878679e-01 5.574461536915493315e-02 1.029521750422921628e-01 5.366193071879846177e-02 1.617752374385101125e-02 7.888511780762490211e-02 8.126539306524378781e-02 -5.109261812322631047e-02 1.902625921054809655e-01 -1.808473102328396198e-01 1.500286502045026227e-01 -2.989768345023639112e-02 2.614738256621012072e-02 1.490774941669588127e-01 -3.383051823332121344e-02 8.829538212517958062e-02 1.706896170550983860e-01 7.547005102300693991e-02 1.910299473118990676e-01 -3.351025020075474453e-02 -8.209882269614044575e-04 -5.780542668165770948e-02 8.721096792118782082e-02 8.985696852362211329e-02 -6.166193184532227367e-02 5.417028709931787783e-02 1.247953315707648753e-01 -4.867979267318677319e-03 7.087017748339501100e-02 1.416966827841370236e-01 -1.969187917501032670e-01 7.326151126172975037e-02 -3.253054249237804368e-02 -4.383818024015209008e-02 1.031384264371235648e-01 -1.365206062420751820e-01 3.112883248610091580e-01 -1.571798521581584812e-02 -6.868838320035403067e-02 1.065675334107345357e-01 6.465151619959010054e-02
9.066302940260230481e-02 -2.092054945443566280e-02 4.876965397515121980e-02 -1.515597589382395305e-01 -8.405968341286722267e-02 -5.593819993640632843e-02 -3.206352366710887858e-02 -2.076671098430357965e-01 1.658556536243355750e-01 -1.126510618216696735e-01 -2.231568018626429173e-01 -1.400500614882518591e-01 -1.006826783552610405e-01 -1.310401305324822296e-01 6.037721089847193634e-02 -2.377708122155037726e-02 4.210201078420052617e-02 6.216449517760791466e-02 7.764866746009270460e-02 9.771685137401667220e-02 -1.339394575933084142e-01 2.906706679684507508e-02 7.981810045829944300e-02 -2.622512102995319117e-01 -1.823977554151329783e-01 1.281936730639679223e-01 -5.436598919647853828e-02 1.235349165631534768e-01 4.475300509042946795e-02 -1.258262394080695012e-01 1.816803331955085810e-01 1.430771380447553587e-01 -1.311727113027038802e-02 -9.802504096372730014e-02 1.501111999104467187e-01 5.957411316955597835e-02 5.317280147739608664e-02 5.779033867196747137e-02 -2.966019769640798609e-01 9.117595427448332845e-02 2.232994968479533604e-01 4.519885911255362709e-02 1.969891818434553465e-02 1.288719791668487824e-01 -1.889270261639882167e-02 1.623564861844000173e-01 5.742670356371470377e-04 -7.310555741912344585e-02 -1.936895861614973402e-02 2.419908630171828390e-02 -1.542104554298534547e-01 -1.068580365856713205e-01 1.332033589433694043e-01 7.540956636562427817e-02 9.763217084289589620e-02 -5.986055381464437664e-02 -1.100326780274627075e-01 -6.555450294843581660e-02 1.606067476069400479e-02 7.748766165901654901e-02 4.703539375786260079e-02 -1.079909659890720616e-02 1.026370230164289354e-01 -7.377757234003586018e-02 1.247990706866155680e-01 -3.031560201236422128e-02 -1.407421399112435134e-01 -2.103794764238373777e-02 -3.870732260565483418e-02 2.669645211265098822e-02 2.700588428973190944e-02 5.037748899027839206e-02 2.844608031847209104e-02 -1.692569725329061692e-01 -1.203848522505694130e-01 4.139642770147454465e-02 9.978211401292470806e-02 -1.467995179388794768e-03 2.150734430752362925e-01 2.798110124873202098e-01 2.817059144479211463e-01 -1.007815507730828730e-01 -9.988487960953681966e-02 -9.044015924767362380e-02 -5.669427470259962021e-02 9.025409568867714949e-03 -2.191725896058072942e-01 1.895061680544568861e-01 -1.726183783363226254e-02 -4.869693263796128629e-02 -8.013864652348769158e-02 -3.251004796554016890e-02 3.108790081277035267e-02 4.915774513119511302e-02 3.390592559424304014e-02 -8.480923710167154184e-02 -8.958157604108271665e-02 1.839058446787395634e-02 6.207893254566700103e-03 -1.374103607682812360e-02 -8.228073663120873127e-02 -2.040466263298890970e-01 -8.531082351356980564e-02 2.068278710970686829e-01 -1.002604031380743138e-01 -2.440767472474379973e-01 8.328350952822602404e-02 2.382001920220386260e-02 5.874986595028438424e-03 -3.989715383830780282e-02 6.965397866133002380e-02 -8.739573498040459354e-02 8.894306402975581116e-02 -3.868433208862463030e-02 8.501241401919970922e-03 3.236266347681280853e-01 7.837909349761836009e-02 2.258898108460016818e-01 -1.453301165237756536e-02 9.019558914156380891e-02 -1.760719803962977892e-01 6.482859186141727570e-02 -1.585920553132109112e-01 2.132022599010242880e-01 -5.181683877617690448e-02 3.839908132473467128e-02 2.408889977876080626e-02 -1.110213373701095935e-01
-1.504293884038175044e-01 -5.110404635801098217e-02 1.757201830838077683e-01 -3.151165356382192029e-02 1.818142542811373719e-01 -5.547906489088685889e-02 5.757218175366130702e-02 -6.604319350695736501e-02 -3.983314653871655037e-02 1.554571900052904854e-01 -9.651571414222082090e-02 -2.399751044053317559e-02 -6.096796669064402652e-02 9.948264501219492018e-02 3.498199308643109434e-02 3.737111192495443102e-02 4.761538528427537720e-02 5.880951120079874750e-02 9.921246851756718860e-03 1.545416408128939822e-01 -3.153155063115306318e-03 -3.830318417409649123e-02 -3.632684932966610825e-02 1.010528458297990477e-02 1.743745985365029449e-01 -9.454650928758159822e-02 -1.012912354568127754e-01 1.122241532138539694e-01 -2.300728903803973217e-03 5.726112972038900108e-03 3.498525347505682809e-02 -6.748247945482614696e-02 1.243572472952420710e-01 -8.157054309487787869e-02 -8.582529586307094394e-02 -4.675825852419270706e-02 -1.597455839000515299e-01 -1.257563709476794134e-01 1.942174690253893887e-01 7.880160252032884782e-02 -3.162088058995679574e-02 1.233203042647540992e-01 -1.168545937005672497e-01 -2.596057982845630455e-02 5.279194098632919441e-02 5.489414277634919320e-02 5.190332017771217415e-02 -2.544392186574699899e-01 -1.318115509134340502e-01 5.407135569033648392e-02 -2.179571368298245659e-02 2.548011108227287713e-01 1.106001228194265773e-01 5.580818806186658293e-02 -1.577466814885937763e-01 -1.774714466835794480e-02 3.694207888502777648e-02 1.127783630127802417e-01 2.251066979206547136e-01 1.054896503110719919e-01 -9.663284003589028837e-02 1.507193740111086866e-01 -1.133784019148048050e-01 -4.020022301703405493e-02 7.909881895125897566e-02 -1.534198507764755921e-02 -1.390691764601191815e-01 -1.608489745688560235e-01 -1.682963624107517986e-01 5.890318653121735110e-02 1.113567267976005304e-01 -1.060684736062036428e-02 -3.976998557518999361e-02 -1.678365906201945978e-01 9.130885939462630996e-02 2.211201538965223146e-01 -1.957188497616683120e-01 -4.568519794165873393e-02 -3.318195653941373446e-02 -1.635739131078883454e-02 3.080940910231698068e-03 1.445167705524721402e-01 1.008597286860103692e-01 5.825905986547742083e-02 -7.259026216828098899e-02 -1.247977038079948510e-02 -7.470633115889445397e-02 1.331616739883223488e-01 -1.737202578189297325e-02 -4.715030519416317512e-02 -2.412020604393265433e-02 1.130700634467111665e-01 -2.255454734643570491e-01 1.252906260100002944e-01 1.564762569462989708e-02 -8.057620710631710481e-02 4.427340723205027556e-02 3.623021609240567598e-02 -5.053023974159511628e-02 -3.309949954316478843e-02 -1.562496537523995199e-01 9.223980665489805997e-02 -5.340524052489006857e-02 -8.399555976856286355e-02 -1.950797632046723587e-02 1.181926830542187196e-01 -5.286869894001268444e-03 -6.081012569516899835e-02 3.727252539861532210e-02 1.754213588870623675e-01 -1.513416004769357615e-01 -1.384861226661448022e-02 -2.804891220503976518e-02 1.219085976425956924e-01 1.723897426611913641e-01 -1.076223531452526472e-01 -3.019660244693641582e-01 8.240328357931797632e-02 -8.366515406179028669e-02 -1.309790548514910835e-01 1.136099376176514519e-01 -1.252215519048357206e-01 1.406735711983110315e-01 6.304616437306034826e-02 4.381782462263554556e-02 2.361500081219255684e-02 -1.969796522609275069e-01 -1.963516363296602119e-01
-3.946826423436890219e-02 5.752806368561549921e-02 1.867531875224633930e-01 -7.607240015267860422e-02 -3.502253035637098444e-01 3.247947341993249748e-01 -2.881946543871661826e-01 4.160229407865616569e-01 -1.761656757729402056e-01 -1.211558491747337374e-01 1.481957486669621855e-02 2.417617263976122866e-01 -1.113301219169327144e-01 2.648771510395968309e-02 9.121132753559760276e-02 1.798104812451156720e-01 3.814820935453106521e-01 5.494014185111483622e-02 6.655168946708994726e-02 2.174055824246630964e-01 3.281865316720251891e-02 1.100485257540614707e-02 3.080537904436294813e-02 -5.886604129448186340e-02 1.376177400348581326e-01 -2.790365219368008964e-01 -1.905059624013137054e-01 4.016083643205176634e-01 2.648429670082375065e-01 1.285007417969961097e-01 -1.747528909916687065e-02 1.679421540296739124e-01 -8.903727259260908744e-02 7.741837971761199311e-02 9.405071957287465534e-02 1.900481576066793965e-02 -1.826882882535078856e-01 4.506767621130179646e-02 5.595116849260526465e-02 -6.355334562648995433e-02 -1.492372930503577666e-01 2.125021137423191431e-01 2.516168969572653014e-01 -1.706118445517137705e-01 -4.162804784217607468e-01 1.377278833269214853e-01 7.598729400278383950e-02 -3.187993055349716554e-02 6.373657387164680110e-02 1.654879872274532260e-01 -9.676467093626943405e-02 -9.005343890259279171e-02 -2.531933808171716316e-01 -1.049293054344389298e-01 7.335725340223061934e-03 3.294336308773535525e-03 -1.397009093570978910e-01 -1.363742312444539417e-01 4.271054612244810644e-01 -9.400822782129818200e-02 -7.479686364219022277e-02 -1.177148805341040423e-03 -1.384600106349239031e-02 6.590629158673026733e-02 4.176672041839314675e-02 -2.437949285257974899e-02 2.134897116485578450e-01 5.679450329092656791e-01 4.307740979439984019e-01 1.532183024882182443e-01 1.114648988378664773e-01 2.073305844252526786e-01 3.044173449166738543e-02 -3.145920360723036130e-02 4.380339503404458157e-02 -9.942842135759032834e-03 1.206777049185854406e-01 -8.160088079830497831e-02 2.073775010614974101e-01 7.218103104313954022e-02 1.795294140237942981e-01 -1.823827983784910012e-01 -2.122611295489226779e-01 -1.290395140747633007e-01 1.966351261273731332e-01 -1.819391915540692350e-01 4.807812352148124746e-03 1.394695336008762165e-01 1.143140034449738329e-01 -1.642382715216308409e-01 8.374479320511477032e-02 -5.986055199204880217e-02 -3.901191168862476119e-03 -1.145670510422780869e-01 1.279812020628021962e-01 -7.126363431720660058e-02 4.008856791041211926e-02 7.751860638192227537e-02 -1.173142143046674440e-01 1.028601487453260355e-01 2.766308573571808760e-02 3.784927434575660610e-01 9.925573908259872902e-02 -3.347211909204444481e-03 1.395417410056977274e-02 4.492315163676574574e-01 1.770690368962600861e-02 -1.006365521678550395e-01 -2.083900431012261634e-02 1.568259228219395784e-01 -1.834398805444903968e-01 -1.482849243732803964e-03 1.191753586493019268e-01 5.689301021671261394e-02 -3.029804619830998580e-01 2.249605860081834718e-01 3.442549932746398200e-01 2.144108439550868883e-01 -1.675615121240366656e-01 1.434391867311511914e-01 -6.021304858942910787e-02 4.437499216527142076e-01 -2.349061753398298535e-01 1.325398662126547056e-01 1.063582782374604963e-01 -2.916709582944206347e-01 -2.445126686759153123e-01 1.772995911569879290e-01
-4.832128366563852584e-01 -2.274476618928702662e-03 -9.483082673482304270e-02 -4.598736226130146348e-02 1.168085124377343381e-01 3.918208788060056347e-01 -1.689937759830107966e-01 1.182532239822489534e-01 7.655631710618485131e-02 3.606550610931188450e-01 6.743677785723270479e-02 6.686952805522118626e-02 1.086956661739805867e-02 -3.239252168284893763e-02 -3.066346702836451055e-01 -8.156668244998982464e-02 2.890958425999431425e-01 8.184432033472538448e-02 -1.490225555378222877e-01 -2.849630548281656406e-02 1.448963984085755996e-01 7.952298666165842980e-03 -5.832688730373593311e-02 -1.967861163112840928e-01 4.336923919916953474e-01 -3.170674462455642245e-02 -5.324867263077628921e-02 2.494298579854556663e-01 -1.249213153421146194e-01 -1.028517422579331431e-01 3.507052861850166181e-01 -1.361221469355607394e-01 -1.033901678161478072e-01 -1.919129218732214537e-01 3.540111777916554736e-02 -2.609682220783404172e-01 1.520135452883242810e-01 1.063131803872021386e-01 8.043337525455673126e-03 -9.948309389480336495e-02 -1.299458511608307318e-02 -3.307086557002170135e-02 2.553187138945516715e-02 -1.384582237347788125e-01 1.922918792433256363e-01 4.537253550569084887e-02 -1.944112974902181129e-02 -1.703465708605568785e-01 2.218600588735577250e-01 4.907288106758654900e-01 6.634312627027898202e-02 1.008844329365187475e-01 -2.560985590470750695e-01 -2.186990878907987389e-03 3.700187518468299741e-01 -7.023512831000307266e-02 -5.241590124248561057e-03 1.702570152241791313e-01 1.924458686815437858e-01 -4.635111888680095577e-02 1.284168110587446121e-01 4.174695853679735724e-02 -1.999040254257946625e-01 -7.300205193491950129e-02 4.710748005351043655e-01 5.166054761995170219e-02 -1.966659102815058735e-01 -1.049058604946958712e-01 3.516015034687634822e-02 -1.001823493222462336e-01 -4.314691095626660977e-01 -1.119154489667685687e-01 1.197361346867757970e-01 -3.292295493632452913e-02 5.480848429947132727e-02 -6.895763137776776686e-02 4.311091694390303819e-01 -1.851978149108620686e-01 1.225517054558877134e-01 9.347425587701148342e-02 -3.515927322842983815e-01 -8.427186958948730544e-02 2.756665493407743986e-02 -8.382461125662717116e-03 -1.627167616029146424e-03 -3.353032595960480089e-01 8.271309681420606352e-02 5.671086828325849760e-02 5.233398804076031668e-02 -1.029585223352001144e-01 -3.749630325387116186e-02 2.714054654182523341e-01 -1.058326454357649965e-01 1.613566621782820953e-01 -1.649216974417132275e-01 1.105683004060680347e-01 -3.979805965229340353e-02 2.065676389820906844e-01 -3.104536829297634970e-01 2.197642424159257646e-01 -1.342954744538695511e-01 1.805081545648394292e-01 1.565585901907142960e-02 3.846768648437969701e-02 3.231634308918335252e-01 -4.205941953373554254e-01 3.231332348574156993e-02 9.106456722299703654e-02 5.261697361648386660e-04 -9.527279709309247058e-02 -1.099183213079502480e-01 -2.068268702268399595e-01 6.148140329800461795e-02 6.810367337892729578e-02 3.626259175474428470e-02 1.939014383485517523e-01 -2.274221183556237105e-02 -3.069414941430323798e-03 1.201165423872587040e-01 -2.769782380743686656e-01 8.457525765507187612e-03 3.517424449103201400e-01 1.612717313297967192e-01 1.717451841183006978e-01 3.283300596290037454e-01 -2.809095133827360091e-01 2.493364437006732326e-01 1.638377521151046512e-01
2.050898987568752774e-01 -1.616887132041850139e-01 -3.234784398075542244e-02 7.481864512096980668e-03 -9.266406902726463668e-02 2.902127938498781368e-01 -8.635097946472025665e-02 2.801947051693769453e-01 1.039398581650751163e-01 2.188854941237965701e-01 6.840570975054274978e-03 -1.031042957539704957e-01 -6.687379625685764550e-02 1.944234714324041269e-01 1.474772453366215985e-01 2.496961996195966316e-01 -3.626500258843377150e-02 -8.625982860759304205e-02 7.817428907797721593e-02 -8.128262949119735570e-02 1.362331782127917390e-01 5.827107576849058224e-02 7.372014879025877432e-02 -1.062517237349588778e-01 -9.928475666574829162e-04 2.748847449695354106e-01 2.103675543081892640e-02 6.033339635146650615e-01 -1.130533601819903727e-01 -1.097373593537738223e-01 -2.488767613926946842e-01 -1.997879665112352876e-01 -2.660621180914347073e-01 -1.238330678507078009e-01 -3.793276415542763680e-02 -1.273055564862515254e-01 4.528376653957982834e-02 -1.948703652054499802e-01 8.284626068122569187e-02 1.843073293260686918e-01 -1.432125383422147846e-01 1.550966830018979670e-01 5.943874726344214321e-02 1.536211423214660921e-01 2.592191040331813801e-01 -1.652157697561187910e-01 1.523938005497038660e-03 1.019241380948314873e-01 -1.583826319399192495e-02 -2.612014929933994395e-02 1.755691287022536906e-01 -6.861119729210873874e-02 1.879782550182299700e-02 3.230624266666918404e-02 6.175116509280306060e-02 -3.292433456333204722e-02 7.428043002925910354e-02 4.326351797138636851e-02 2.740859180311223595e-02 -1.121970915608791752e-01 -3.520034935993716918e-02 -7.098927510436296197e-03 -8.931545108907772146e-02 -8.163865261463060241e-02 -1.417547570596223161e-01 -1.472289981667220249e-01 -5.297302909125169851e-02 3.946214293660028072e-01 -2.395931402153968770e-01 2.738298559221372108e-02 3.839048348540536129e-03 -7.140646205848789896e-02 1.299985051103026701e-01 3.580564655617882869e-02 1.866763182732365800e-02 8.870441077493551249e-03 3.041977451254981313e-01 1.808932935842209044e-01 -3.281238814198238901e-02 -1.516378512806176859e-01 -1.503359957289071291e-01 -3.398743077284147041e-01 4.517849189782409403e-03 -1.683579052237133833e-01 -8.393032583780232411e-03 -1.961400192957865607e-01 -8.525843527153061097e-02 -9.953229642086504347e-02 9.971588528013614061e-02 9.876493265493373197e-02 -4.851350822070960717e-02 -1.339274879560585496e-01 8.515338682701392714e-02 5.001230419514598319e-02 2.746508823871243385e-02 -1.569153033695417088e-01 7.086521130923531531e-02 -6.449104115931700298e-02 -3.605566832206843486e-01 9.141087947220249976e-02 -1.084757432741407790e-01 2.135674069622713611e-01 -1.766173611963456000e-02 1.136208950728933437e-01 -9.777279472386578296e-02 -1.111022258583762856e-01 -1.748996016366441072e-02 1.059806294933774568e-01 -1.274869660725184073e-03 -3.649280249741799348e-02 1.268406516962960195e-01 -2.022330153875724068e-01 -2.870615966551381612e-02 1.566634231259349253e-01 9.997400051745451710e-02 5.634085912697309184e-02 -1.966977827253159061e-01 1.648264758054790446e-01 1.176565170628662144e-01 7.637258939078619968e-02 -1.185870332242449643e-01 1.442708673016812881e-01 -6.930110548551556005e-02 -9.646649788898029043e-02 3.880858311745899458e-02 8.415438964538334010e-02 -1.677109858771113349e-01 2.043364147215127324e-01
-1.783520333478424702e-01 7.453505542583616084e-02 -1.925596715914191237e-01 3.853476495305951238e-02 -7.151769186676859569e-02 1.112667705032641396e-01 -1.007777648523007150e-02 -2.571751102895580496e-02 -1.015097064212597405e-01 -9.702188820523423296e-02 2.438917311696322046e-02 6.667306693054449174e-02 2.934348208938018510e-01 6.893924109370525022e-02 9.258219421155060302e-02 -1.555106164949029979e-01 -1.540545943037086585e-01 -3.560573321235328131e-02 -1.221947277911136359e-01 1.486386392772019172e-01 -3.923133692227916136e-02 1.005906092334436369e-01 1.560312918633793289e-01 1.827457753520432548e-02 3.328154386488898359e-02 -1.928455208096501589e-02 6.050416628054239299e-02 2.485143323824435396e-02 -6.910499826362099043e-03 5.108809973745769700e-02 1.532316071286798920e-01 6.668446331476486633e-02 2.252038387185988783e-02 -3.258904299815391925e-02 -1.008485245681354364e-01 -4.995635140730784324e-02 3.499795532732023762e-02 -1.585068267604861914e-01 -7.629039524295373742e-02 1.281734480310077195e-01 1.907416274180666615e-01 -1.659645673601113369e-01 1.364581175672907598e-01 -6.391774489766102046e-03 -1.522746623649158179e-02 7.031476985167048679e-03 1.089786203950328936e-01 -1.609348884996365248e-01 3.424173897925533033e-02 -1.304122079065980766e-01 5.102488957063442548e-02 1.554000770298309131e-01 -7.013726835344537107e-03 3.741550859708025339e-02 -9.748629999928483739e-03 -9.611572873944726481e-02 1.608024988889940055e-01 1.706468247260989057e-01 5.686284590826400087e-02 5.565945454487328074e-03 -1.029250423851336797e-02 -8.973262585055795382e-02 1.678268034470201953e-01 1.438330213115084633e-01 -1.812985128065304485e-02 -1.571667278155496061e-01 -2.713773282414457255e-01 -6.463218820540976572e-02 -2.831866044563764381e-02 1.413991909100850708e-01 -7.071182997451505581e-02 5.059965338467090762e-02 1.302830679934494640e-01 3.573842535751314137e-02 -1.372237462744715572e-02 -1.308715250091031512e-01 -1.464388604817119244e-01 4.371495758600717901e-02 -2.653325084443651505e-02 2.516553111712734742e-02 -5.697217958767999968e-03 4.666332304730608921e-02 -7.846874114294452585e-02 -1.886148007776917296e-02 1.896182228633144229e-01 -7.880794095186471893e-02 -2.898068879104434559e-02 -5.101507162418496277e-02 5.432614996452497097e-02 1.144722366138006264e-01 -5.702543308418284163e-02 -5.694108400231549794e-02 -1.970098370489481790e-02 5.166783347993160469e-02 -7.393953025101954180e-02 -3.948489602015744365e-02 -2.372193871513015306e-01 -9.831120493826345230e-02 -3.220891959750264710e-02 1.142608905012662546e-01 1.487357043852532805e-02 -1.386506832468100137e-01 -1.407700445793502730e-01 1.412537659848388770e-02 -1.901622030900904925e-01 1.351492845000346610e-01 5.238778801529554024e-03 -1.607320159234058021e-01 -9.762370896877632653e-02 -6.763780984456475853e-02 -8.173384351285523097e-02 -1.470867766738095384e-01 -6.408159864378866477e-02 -6.821669986790868112e-02 -7.449078917974265301e-02 1.453412244280160859e-01 9.930362755920378245e-03 -9.819532298335420517e-02 -3.365255379112240541e-02 -6.412138680446881345e-02 -2.861536104260030758e-02 1.051376152364759259e-01 2.642753686289895515e-02 2.324199333100445686e-01 4.101827854658402633e-02 -1.026682689640694562e-01 3.679104119759402797e-02 1.103968409453951749e-01
-2.072148001502823952e-02 -1.085755678738640623e-01 1.112175229661414508e-02 1.135986739204412621e-01 -3.427551491723432875e-01 -2.826010363353276267e-02 -2.220621161621759154e-01 -1.802457834322096497e-01 -1.034490422043336105e-01 1.313121701615419801e-01 7.294546415780307769e-02 -6.234611482669350641e-02 -2.115649268934860772e-01 4.583377971261973216e-02 -1.432518876060647796e-02 1.534964231945277202e-01 1.883749208634450389e-01 -1.421995755579888721e-01 -1.355199902509035374e-02 1.074279582294259544e-01 -1.269085007370847340e-01 2.570647127163442347e-01 -9.009131329552846901e-02 7.716794866054668537e-05 -2.238720315558273832e-01 6.127045700890546703e-02 1.525939605725252779e-01 8.433098611002612377e-02 4.711889752669321668e-02 8.237863887868440704e-02 9.801253430582985982e-02 -1.611472269330299911e-01 -9.228637493165559036e-02 1.330364909733403600e-01 -3.678248236304998420e-02 1.647437711320896558e-01 -7.077916677409970547e-02 -2.830689218093931578e-02 -8.918144932200874897e-02 -2.095756426587574994e-01 1.199476027253751215e-01 -1.453960986405258837e-02 1.303731016688708666e-01 -2.068681416476520624e-02 2.327534290966071506e-01 -1.254953287132657969e-01 7.166460391684408016e-02 -3.859073330404690777e-02 1.049277871368849147e-02 1.197471585869636646e-01 1.101797205211875325e-01 -5.019120123892171353e-02 -2.200993680073262126e-01 -1.169095747322027173e-01 3.464788752439083019e-01 6.118145666078786404e-02 -1.294953677134424164e-01 1.409952138396146359e-01 -1.159477046606942757e-01 7.916485817892066068e-02 2.628963969000427947e-02 -4.473761591455899939e-02 -1.262947290549573942e-01 1.445282026396157993e-02 -2.475537587385331639e-01 6.396903141234458468e-02 -1.679774130820095622e-03 2.486297478477099976e-01 -2.535302075190292159e-01 -9.844658630323679938e-02 -7.071533305210338412e-03 7.550585589175587420e-02 -3.288979085239722433e-03 -1.290483427366788220e-02 5.959950331069696627e-02 1.157979973745599661e-01 4.244760490334896497e-02 -3.089663010881561062e-02 -3.070849578672510960e-01 1.291058941361337975e-02 2.456281990303826879e-02 -6.425074551498356767e-02 3.327982174044547686e-02 1.140868354193611822e-01 5.048732699028416621e-02 -2.385315154884702638e-01 -1.664277178905285981e-01 4.118712800845915345e-02 -1.738633292520792573e-01 4.806339687717826187e-02 2.291100843247109720e-02 -1.921547854555919477e-01 -3.746318583081413231e-03 -3.706288345140378027e-02 -3.659729291624690128e-03 -6.237856474124080230e-02 4.195241084261415454e-02 1.527928026509414727e-01 4.868324664960092807e-02 2.094274771172370819e-01 -1.079129295559645707e-01 2.869657163845189540e-01 5.751973485310244577e-02 1.018188919962356893e-02 6.801308414805780356e-02 3.860145955115890093e-02 -1.301710520557057549e-01 -9.733759675567485448e-02 2.109637074549929048e-02 -3.459431870583351554e-02 -2.469566561179543235e-02 -1.179977750798973145e-03 1.225886055010252523e-01 -1.414768028964410659e-02 -7.144360235541251380e-02 4.082401515699928818e-01 1.676605764140957078e-01 -1.647045969447425914e-02 2.423991833226591674e-01 1.017337564853132148e-01 1.046110442027642917e-01 -1.757768240141670485e-03 -1.357403555567494313e-01 -4.108105180387849192e-02 1.412434172762145647e-02 1.582011259896555846e-02 4.801335805959783959e-02 -8.275433802976803546e-03
-3.147729187621199631e-02 -5.065831546231548514e-03 -4.917903365116220449e-02 4.800165920100231583e-03 1.994794772841052832e-01 -5.778735775619794901e-02 5.766417049883818674e-02 -1.291171715002758513e-01 -4.603769875347417384e-02 5.055281032039168898e-02 -3.543061956146540542e-02 1.636321610482096289e-01 2.017367019099714984e-02 -8.959524915448116578e-02 2.979952061538561695e-02 -8.197174375423381398e-02 6.255667391757323281e-02 -1.067597358079186778e-02 -2.061538570963612760e-01 5.030052118576183035e-02 7.631660359854348930e-02 7.949220051754270211e-02 1.876755350682145496e-01 -1.510904693441530167e-01 9.265903579440043503e-02 2.389334104976847256e-02 -2.646295273858604788e-02 4.564391508856718155e-02 5.230822656739950172e-02 -1.492297542797386689e-01 7.968954822400460547e-02 -8.965040321594196226e-02 -6.441904582295719661e-02 -1.586997866744654651e-01 -3.137514745616847012e-02 -2.350087582831865765e-02 5.628155116642290234e-02 5.509104487271257455e-02 -1.655779524433750038e-01 8.558704763790059289e-02 1.757728024809153411e-02 4.732298821516745663e-02 8.195489459156092560e-02 1.392594658765875237e-01 2.270056229811025783e-01 5.997301560412528904e-02 3.349651515338171459e-02 -1.080979265881945733e-01 1.472233019968159917e-01 -1.062569730591415018e-01 -1.663976900194874542e-01 8.425699702029088023e-02 -2.732938881794447217e-02 7.798225191027638448e-02 2.645245471245024488e-02 -1.388168189442191003e-01 -2.867389162310815531e-01 -1.091795301519670885e-01 5.315538686249424334e-03 -1.247043795165397734e-01 2.003589619010694850e-02 -1.083744114179942958e-01 3.807674775109479853e-02 -1.716347093432888868e-02 6.597424662454463851e-03 1.410917261062817896e-01 1.289015548216692897e-01 3.978090125337704203e-02 -1.911112058860706397e-01 -9.665219394021748456e-02 1.087623128081397460e-02 -6.424058206919237846e-02 -5.178464566121516316e-02 7.604210859788167187e-02 4.753938202508531385e-02 1.306248249644882675e-01 -3.200637175271160706e-02 1.220623045309138233e-01 -3.477744864361369953e-02 1.769863741398740864e-01 -7.323612664241057300e-03 -5.083482368705706522e-02 -1.631219507653532963e-01 -5.747675556369599530e-03 -2.585098840625013605e-02 3.262375160647647265e-02 -7.227372046500164099e-03 -6.770086610264600124e-02 1.079743385213114554e-01 -2.001656842307665204e-02 -2.800798908601997636e-02 5.049331613533181856e-02 -1.181494878087055445e-02 1.167492742785991577e-01 -5.969171117831944401e-02 1.454072150889923216e-03 1.518499028258617212e-02 -2.496152626879802328e-02 -4.097530134030558796e-02 8.552588968871982500e-02 5.337494478906424505e-02 1.064325332056290964e-02 -6.411500666667253878e-02 7.040668880087633252e-02 8.424647098513317334e-02 4.875122432903088165e-02 -7.544845570917933786e-02 -1.724585966814570423e-02 6.309675494184859013e-02 -7.125361178988477706e-02 -2.867297115029981275e-02 1.917950089363011090e-01 1.725817272210580511e-01 1.390955411506284156e-01 5.872567042749524124e-02 -1.591892601569368237e-01 1.153575989332505068e-02 -3.066572670957436880e-02 -1.056510815939665920e-01 -9.439385058606634959e-02 1.198114899789069765e-02 -4.660640499823212601e-02 -5.230570042908348760e-02 1.026437364445915573e-01 1.586582936379150530e-02 3.961891635040083737e-02 4.603273567138548711e-02 -8.043133142059526175e-02
-2.507120146004976347e-01 3.363325223432319516e-02 -4.020376161014899141e-02 -1.913829120417230578e-01 -1.263899563632582268e-01 -1.139661926939596753e-01 1.087784393061678317e-02 1.631107397927281932e-01 5.177266065524582794e-02 1.836159355657553116e-01 1.233331237445781103e-01 1.421987280762018468e-01 -1.203492069193808633e-01 1.010836206000841758e-01 3.972506111845591770e-02 9.661301755926253454e-02 1.110911418438970122e-01 1.026470096980633961e-01 1.697907899021188216e-01 1.659577769287348681e-01 2.531651255666718045e-02 -2.444884973893461655e-01 -3.564719105019016621e-02 -2.492584465941383165e-01 8.227719946514983063e-02 -1.444387001157189654e-01 1.307991066780100076e-01 2.238894922059790280e-02 -1.208032237011121696e-01 7.028031508722221155e-02 1.671618945072754769e-01 -1.614647166523649480e-01 1.357616173375586210e-01 -1.754808381949629903e-01 -6.073106490338088526e-02 1.505624211493371001e-01 -1.395352212447473483e-01 1.551802002330665842e-01 -1.314308285308919966e-01 -5.332580316299600186e-03 -2.924733275546042566e-01 -8.018542593169188104e-02 1.773328246730536406e-01 -7.299179580219886110e-02 8.013764107872894948e-02 -4.144918272517064683e-02 8.746646018418749446e-02 -9.491872612119708896e-02 1.643514486733612945e-01 2.058841263333618388e-01 -1.289789128679605205e-02 -8.304997761082918983e-02 -3.190711072416763106e-01 -7.097851001194992182e-02 -8.555013648936581061e-02 2.004939076900480177e-01 1.472570153250155889e-01 7.748336622210640068e-02 8.465041222228757156e-02 4.497344243169455053e-02 3.783160490014326749e-01 2.142941561861397559e-01 -3.907454265305250474e-02 4.739006539465533130e-02 7.412601102911966708e-03 1.261663629271083942e-01 -1.477594590746440784e-01 1.210481958508400485e-01 -3.147243342958043200e-01 7.954895967556392666e-02 3.575207255227021985e-01 -7.931433713129330820e-02 2.839980047106472781e-04 -5.453302467877119836e-02 1.172405761236292171e-01 -2.313687476710042656e-01 -2.604985933641142393e-01 1.187939666177229153e-01 1.907577878507220048e-01 5.472228845794417651e-02 2.165966687761030143e-02 9.897269939702618702e-02 -4.152388396364566081e-02 -7.247655364873840933e-02 -9.277012393055249218e-02 1.802165518206693406e-01 -6.316891894337783864e-02 -1.849608174589211784e-01 2.656346345598431871e-02 3.985379886593774096e-02 1.568099920383398682e-01 1.273028675264826180e-02 -2.039629204686400354e-01 -1.739754155722564588e-01 7.271748700204365423e-02 -4.289747956028867881e-02 -4.459939272557343452e-03 1.147095663453866904e-01 -4.496223907369596706e-02 1.318957604158741137e-01 -1.865355240355355548e-01 -1.338193091650447253e-01 -8.478524752677678300e-02 -8.839089194470404684e-03 9.712365786534669920e-02 1.526922900146933104e-01 -2.072150052729512804e-02 -1.143641395841849678e-01 1.125888168919846194e-01 9.838941579013917027e-02 1.842881559263670477e-01 -2.077194174137253491e-02 2.227810841337791448e-01 -1.141680333898963291e-02 1.731073774166964341e-01 2.432740684214646509e-01 -2.644758697275758838e-02 -3.219214104143718579e-03 -1.465063973931986230e-01 -2.689628745348423000e-01 1.883634254134403802e-02 2.456253003680158031e-01 7.042931817054633170e-02 1.641322518211398365e-02 1.069309426657222145e-01 -1.981447100669365968e-02 -2.528809512070862575e-01 1.707860489974064033e-01
1.465937349589659933e-01 -2.203634250376820813e-02 1.828476212291700598e-01 -1.253693493343405740e-01 -5.233109358579154241e-02 2.193692601993113833e-01 -3.158251582116410744e-02 -5.094390362771111791e-02 -1.287542243591360269e-01 -2.057090894798515798e-03 4.008718059632049996e-02 9.140404800847123923e-02 5.376197669913628657e-02 -1.681003893928346427e-01 -2.695726341194905062e-01 1.013859518644430607e-01 -2.910690262496053518e-02 5.148382956137171479e-02 -1.718278528277076833e-01 -6.321226382024792978e-03 -1.563727522642647805e-01 -3.699351392531834426e-01 7.565748823843548854e-02 3.124495434111222020e-02 -3.732941617409326479e-02 -6.180022848665311930e-02 -2.259012379593453856e-01 2.820036162066796304e-01 -2.984740749553311048e-02 2.676461168672109037e-01 2.600025375398845040e-01 -4.127319979528643046e-01 1.501296290709466519e-01 -1.356110878930746333e-01 -8.471264650422849485e-02 -9.992293859666838418e-02 -1.624945805436609284e-02 6.232389926299396893e-02 -8.229093522011923789e-02 -1.095156227089466999e-01 9.402812894556017431e-02 -4.289985585343896249e-03 -5.469121699241833584e-02 -3.407838424471894556e-01 2.179813253535111683e-01 7.935137870073540045e-02 -9.083272331933421595e-02 8.779999159159550259e-02 6.566416176321551723e-02 -8.434114711056456271e-02 -7.060236610356077427e-03 4.724889254892150614e-02 5.901573040548160898e-02 1.237323139429621355e-01 4.881006970933994271e-01 -1.535266068588788668e-01 -1.577037494245276117e-01 -7.786754726576129715e-02 -2.500935452434421835e-01 3.056846914195133352e-02 6.436906364080793863e-02 1.575767185693488781e-01 -4.647277523001865085e-02 3.784176271366471722e-01 2.181711509773049951e-01 2.306377439430653056e-02 1.933084650546822991e-01 1.747502691774383277e-01 3.099987802249960511e-01 1.106178924238054584e-01 7.550136538882352977e-02 -8.150313224181066074e-02 3.662770196559924502e-02 1.021054679578715374e-01 2.293802727778552694e-02 -7.864078647009642431e-02 -7.691485728527233841e-03 2.522877438765506186e-01 7.879573607524964496e-02 -1.298080724044169132e-01 -7.832322330898141421e-03 1.873377255530694341e-01 4.438968711286477020e-02 6.496557413054261654e-02 -1.806418290681387484e-01 -1.718248597848313908e-01 1.322850548606206433e-01 -5.459425356178607830e-02 -1.959293737735449126e-01 -1.539029338540798819e-01 -1.662775277448632835e-02 1.607932811382112581e-01 -1.639252057084686909e-01 -1.960294585319481420e-01 -1.500324697203890834e-01 -5.942466134446321158e-02 8.186279747118507810e-02 3.603843862882767212e-03 1.284060390587314360e-01 -1.994437618354856501e-01 -4.992539952782672902e-02 3.323811023131404419e-01 1.908562333497002828e-01 1.729224276530542947e-01 -5.418057603142285156e-02 4.919171563245263584e-02 1.693187529335469371e-02 -2.157356373494461188e-01 6.388042365734107608e-02 1.862255567650429322e-01 -1.003378783902864613e-01 -4.254967714579860338e-02 -8.484926738128117929e-02 8.254363002445255781e-02 1.919996763477286039e-01 -1.287861188665627987e-01 1.003594223071353070e-01 -1.141963426579036128e-01 -8.938958539054693564e-02 -1.824875679389255656e-01 8.162306001949197476e-02 1.344270758622863882e-01 -1.454262105936001970e-01 -1.892048298171042087e-01 -1.308817449688827184e-01 -5.408124380111872104e-02 2.629265185893032986e-02 1.195276395359149146e-01
-1.759204706440662402e-01 4.363065977243534010e-02 -4.225102272521993191e-02 4.339801334474387151e-02 -3.188980167300168866e-01 5.647169902161466859e-02 3.413919359736334973e-03 2.005185049739928449e-02 6.693978565625627319e-02 1.448062885441643577e-01 8.664990289740862051e-02 5.713054925295544401e-02 -2.540669013065051107e-01 -1.435242640053816243e-01 -2.403639577877144939e-01 1.431111500120634157e-02 -4.837852351351102503e-02 2.684104445964291541e-02 -7.209858353626380501e-02 -7.405377469451245032e-02 4.828813369949187112e-02 -5.469601649877189192e-02 -1.196108534722844022e-02 -1.147164611785539967e-01 1.879681888674714996e-03 9.842898873019945150e-02 -1.020934788807222743e-01 -3.572827299835716341e-01 -1.418384014016088046e-01 -3.992395179083627066e-02 1.695844925105647327e-01 7.598856156038394372e-02 -1.113720812657040260e-01 9.313220901591073853e-02 -9.147194903700565807e-05 -1.170358224770141065e-01 -1.479068352139729370e-01 6.656076745567132691e-02 4.187438762279712540e-02 -2.171857414126302788e-01 9.114525396280449832e-02 2.243899487902933088e-01 8.271082014705974372e-02 4.958311448536846522e-02 -7.396557208128898275e-02 -2.550972093066959934e-01 -9.770817489930683913e-03 1.581817535506667149e-01 1.029267836920742252e-01 1.300306626121950715e-03 1.360832851888895134e-01 -2.676544459438127965e-02 2.782241205075891011e-01 -5.658234239324416714e-02 -1.339438474532917145e-01 -4.530646870845580348e-02 1.083502808207450208e-01 1.037242354944780398e-01 1.615053300219799481e-01 -1.016114702822282917e-01 -1.522932373660197958e-01 -3.701336844063198295e-01 -9.578934856654898466e-02 -4.455508200742142738e-02 7.540254213354852242e-02 -3.015445730976545891e-02 -2.473577664448749908e-02 8.182665250053903355e-03 2.488109555869973677e-01 -8.582827842268535290e-02 1.325214604165662335e-01 1.981057456930923333e-01 4.868787847122184320e-02 -7.978141375846473093e-03 -5.633792203420258382e-02 1.205814695933330044e-01 -1.061677411682471761e-01 -4.789306252204226372e-02 -2.040684729421460286e-01 -8.838777577132946039e-02 -1.602480467126164154e-01 1.492007595742851078e-01 1.101325997530163830e-01 -1.477996315652377497e-02 2.087034631767445067e-02 1.149471202113624552e-01 3.026293282239620602e-02 -8.551429561090824472e-02 -1.454983569311072422e-01 9.712469291126456239e-02 3.758504796200992648e-02 1.224613373046841425e-01 -2.502178135826108041e-01 5.844066651176022670e-02 6.290032662315013512e-02 -5.955783912362370980e-02 -7.449918050262749336e-02 3.311177427427989400e-02 -2.247479888333878961e-01 1.591827496955436627e-01 1.109662919890713473e-01 1.750975341893653281e-01 -3.513292879078973308e-02 -1.118416823224936824e-01 1.572377438669211869e-01 -2.396279272787377179e-01 3.273922028539305324e-03 -3.174622171600719606e-02 -9.149955976233131727e-02 6.528167569346589316e-02 -1.632599334586819773e-01 5.304777309295755777e-02 -7.873728579701193275e-02 -1.520752534304473380e-01 2.248211974456184037e-01 1.441416033825972665e-01 2.125452611410069415e-01 9.362277942709830436e-02 -2.361047344680196614e-01 -1.620262983030454906e-01 1.351991295327561321e-02 3.006849215225155247e-01 8.110435662198849094e-02 1.784311853359366040e-01 -8.861559922918342547e-02 -6.639800254376945765e-02 -2.103400265556572002e-01 -4.248394876663364253e-03
-1.756846546781460350e-01 -6.317286884865568053e-02 -9.396941673154260433e-02 -3.554332482818566702e-03 -1.250161753144868049e-01 1.640376847722493370e-01 -4.113412741957630375e-02 -6.008391541985187712e-02 -5.305295088880804255e-02 2.616776217484180489e-02 -6.291169050932313156e-02 7.264776594205211990e-02 3.889441688987074069e-02 3.078148379816965097e-01 -1.534130843183700577e-01 3.988630002987127859e-02 -9.914753455208823174e-02 3.852882603522076593e-02 1.480058264823823910e-01 -1.520772697522069714e-02 6.566290463573519476e-02 -4.148219163522707809e-01 -7.691801358950212109e-02 -3.258531515868187678e-02 4.554512515157383042e-03 -3.794642125127885290e-02 -6.451417515238486167e-02 -1.299160055107890233e-01 1.562657511810130670e-02 1.383406774591187938e-01 8.265108382674897156e-03 2.569030449369227864e-02 -3.367344707187078234e-02 -6.792085281416707088e-02 9.451116062329405210e-02 1.340816760540269048e-01 -1.575146573309019540e-02 6.989364861498693904e-02 2.261303593425647782e-02 -8.438191052682324222e-02 5.047160937859914570e-02 7.218522022778828956e-03 -1.034104034956453561e-01 -3.926019426632661874e-02 1.162277001297318396e-01 3.791335061614879987e-01 -3.763096551178043286e-02 -2.970212751754327737e-02 2.889504473790417971e-01 -6.872941043780635140e-02 -2.002642548656124177e-01 -1.570550718823248426e-01 1.726572492620239707e-01 6.663545422501888915e-02 -7.686248912058450677e-02 8.260947175803966258e-03 -8.081502305101073702e-02 -2.171631157241669940e-02 1.371532601001513307e-01 -8.814772912438509356e-02 3.799719618652020459e-01 -2.891014982583560711e-01 -1.180359540843125242e-02 -5.838060850151493425e-02 -1.725660667328852704e-01 -2.191504258492717183e-01 1.201696067551750319e-02 2.117340882468654872e-01 2.657212274462670276e-01 -8.113150970585986110e-03 -1.202393436342498317e-01 2.362518914221836339e-02 1.173261048727403943e-01 9.763029066715160631e-03 1.008730212290296357e-01 1.438640204838350090e-01 4.333067422246587863e-02 3.543782385560129700e-01 1.512816157422477437e-01 1.821607990378730502e-01 1.640149665389408762e-01 1.049749294006929907e-02 -4.292238995721983641e-02 -2.026714029471066714e-01 -1.325479551589875404e-01 -1.937111870211896958e-01 -3.668814778394263731e-02 -6.368118885097727618e-03 -8.505275197951393806e-02 -1.681786048831678260e-01 -2.022865434920765465e-04 -5.493586173725514832e-03 -6.705622008519522559e-02 -1.314930841747321000e-01 -9.401565918724068271e-02 -3.562779062036505739e-02 -8.566389512739591705e-02 1.471679210358610435e-01 7.539426504235141602e-02 -1.644931131251005374e-01 1.070959191026453622e-01 -3.135351367475783246e-02 1.007028434950495988e-01 1.764117008535188713e-01 1.632819797685053920e-01 -1.002961056681088009e-01 -8.294466189158135674e-03 -4.015706755129159339e-02 5.344146471111455715e-02 -1.082492622524675735e-01 3.628042028914712472e-04 -6.135838982128507396e-02 2.761134590620575521e-02 8.175450967999671470e-02 7.394768353348835088e-02 1.173512209411067403e-01 1.265013708721578201e-01 -1.883056630082532296e-02 -1.282655186684771575e-01 -2.302774703983893334e-01 5.302872532450513682e-02 6.735726437372335784e-02 -1.724078493334768036e-01 1.821121270042944662e-01 5.192675906927460977e-02 -6.462846208407301007e-02 1.426945246128818179e-01 9.727029227316807969e-02
1.892486183023988910e-01 -1.248258273288692377e-01 -3.276430446096388893e-01 -2.329035249693792511e-02 -1.399751202849173759e-01 1.411243520811742425e-01 -1.672895806298973775e-01 7.542572555492266240e-02 -3.007761392755171556e-02 6.331019489553950386e-02 -1.567212761367899609e-01 2.272611693825395962e-01 -1.375374058950273592e-01 3.217597515567585109e-01 -1.216190581210507132e-01 1.024600531162016409e-01 -9.090915271610430781e-02 4.971907298492214689e-02 6.255035563818674149e-02 3.612288810685149870e-02 3.827756931053238887e-02 -3.709564644013633172e-01 1.557806625823991986e-01 -9.052387121248270385e-02 -9.993114136834856109e-02 3.137977910939682147e-02 -5.034675578549715341e-02 7.873784150219315103e-02 -5.546907797342880142e-02 -1.548521112168844104e-02 2.563487354563429715e-02 9.021749263193612478e-02 1.077922084605452829e-01 -1.265712655470667136e-01 -6.919559321960912224e-02 1.007652137874322645e-01 -5.806847013860264722e-02 1.250379505630689336e-01 -2.235745311572491789e-01 -9.960309998586810987e-02 -3.120898686253998147e-02 -1.781015003199286698e-02 3.010368539085642725e-01 1.356946138026696516e-02 -4.122020440076246822e-02 -2.080324371814871731e-01 -2.870247108676986930e-02 -1.300990887820406838e-01 -1.069660476254693550e-02 -1.374937883829363827e-01 5.314996988116647142e-02 2.095241768476241162e-01 -7.133474395681063673e-02 -1.924042077959067787e-02 -3.748518632451871002e-01 -3.150298953347732689e-02 1.444488267517341773e-01 5.684187364412764121e-02 -6.154870000702709204e-02 2.118106889376129148e-02 6.860916780276647697e-02 -8.809389056908420446e-02 -5.012499554451202953e-03 1.377841970282439876e-01 -1.889612668845528365e-01 4.179031916736045127e-02 2.359081621670927054e-01 1.557390672998385794e-01 -2.987786443161246849e-02 -1.548640736092920800e-01 -2.392960631120688575e-01 1.171282428724800678e-02 -5.790623711979043381e-02 1.386882804710066475e-01 8.142265901724234090e-02 -1.801205273056439779e-02 -1.861455742194611795e-01 1.261583023858125485e-01 3.712872482848798839e-02 -6.659112226694888573e-03 -5.664149253720763416e-02 -1.285904113222305911e-01 2.439566239079844767e-02 2.585415233733024398e-01 -6.260558853793113387e-02 1.712743378555771911e-01 8.283646665794211494e-02 5.207795046487687096e-02 -6.602444776917792968e-02 -7.268680632287498333e-02 5.949469629752705824e-02 5.583713053130467258e-02 -4.557076445987968960e-02 -2.828665428053082076e-01 -1.280806714148996217e-01 1.803438836377372900e-01 -6.794512039049864852e-03 2.432258518371155920e-01 -5.695291572056766782e-02 -4.211213255014976259e-02 1.210557609414172620e-01 1.161438135541414535e-01 -9.219997964454625106e-02 1.917215251851099034e-01 -8.195188928498348471e-03 5.351156093833179389e-02 2.999706455376298028e-02 1.092338876030797962e-01 -1.035011019204310212e-01 2.897492760051577007e-03 -8.112273078657598890e-02 -2.873480622162124382e-02 4.801042814276025583e-02 8.364119556077972972e-02 -5.630980766477056143e-02 -1.526363259144669915e-01 -1.222872378556527778e-01 -7.349429356953092463e-02 -1.213978720309533826e-01 -1.705395434542493482e-01 -1.688429182579868904e-01 2.129833610823087808e-01 -2.092650266960210600e-02 6.324826013184095541e-02 2.015663766303580906e-01 -1.002027697828203473e-01 -1.564609583142199389e-01 4.503659687984691573e-02
-1.137031005140733825e-01 -5.786472312831285325e-02 -4.485577619485371648e-02 3.490024033812680337e-02 -1.047882730781517224e-01 1.512435777498767064e-01 3.218737165989841997e-02 -2.373262893878586282e-03 -3.862964375083101365e-02 -9.760948946840163759e-03 2.514745589946978943e-01 -1.491027732285204188e-01 7.498738038228278113e-02 -3.116506441690767293e-01 1.680364111297830490e-02 2.171882793514259558e-01 -1.196728153322398208e-02 1.103544291272318401e-01 -4.228771051262711182e-03 -4.248881932545506973e-02 -2.145759220120029356e-02 2.025382385569435631e-02 -5.752496111283739860e-02 -1.233583263473954916e-01 1.421256985751849777e-01 -8.686738502878270374e-02 3.111744053697002368e-02 -6.266974498105339075e-02 1.280240122641606582e-01 1.089683782820076788e-02 5.065761486022949539e-02 -2.079758586817827548e-01 7.249575921422667102e-02 2.192173165477508956e-01 -4.011481157486188748e-02 -1.791459413076569862e-01 -1.113311602851677212e-01 -1.743988148895828788e-02 -6.592345373865276083e-04 7.101150446071277655e-02 7.581390380925823180e-02 -7.985159875026057175e-02 3.266181998826325761e-02 7.448826510363039562e-03 -2.019527621169781018e-01 -5.403593697219900155e-02 3.807499032406459483e-01 2.310120313291649519e-01 -1.034080304390201654e-02 2.656067447121124858e-01 -1.997708511710257883e-03 -4.218923804518206686e-03 -2.695763130986930101e-01 -9.601055659442864210e-02 -6.432141970467245007e-02 -2.584384974428677664e-02 3.471111341421317248e-02 -5.789423513918671299e-02 -1.281171033284569244e-02 -1.453665239110464753e-02 -2.968785368601217223e-01 -6.798080354282487470e-02 -3.704535126647351406e-02 -1.261690501767072370e-01 6.429446570402248123e-03 -8.301861766460154335e-02 1.226799142689003613e-01 -1.643516524057443695e-01 -4.997693722009527439e-02 3.576657542499993986e-02 9.202213862013901291e-02 -1.712691699016401503e-01 -4.554682319743555419e-02 -1.166903705618471399e-01 -1.448609728643021101e-02 -5.369440845899930981e-02 -8.997414518316483936e-03 -9.646274601153624617e-02 1.578752672693176790e-02 -1.183356529651310822e-02 1.377361396037150021e-01 7.665611758227790229e-02 3.688887075856658176e-02 -5.144059743359799541e-02 -3.848518152083552774e-02 4.866527808245009468e-02 7.967864429060406151e-02 -1.902178098586032942e-02 1.085634757926615679e-01 1.343627581686177852e-01 -1.949621326163349933e-01 1.387943093271058193e-01 -7.007981875897910384e-02 3.321324846087072430e-02 1.115976528026742520e-01 -5.710052457152057365e-02 -1.620265050906258275e-01 1.834248129030467411e-01 -1.061438802798285869e-01 -5.211600928395873633e-02 -1.428482515410048337e-01 6.844898732231010502e-03 -1.592096912224287564e-01 1.880286208738916193e-02 -1.390396573378148426e-01 6.765027193667451366e-02 -5.086098938780742734e-02 -6.884461387207981009e-02 -2.333371816193345952e-02 1.071330345981552357e-01 3.114449397302783071e-02 -1.732374066861133433e-01 2.531111944558258053e-01 -3.133097228222224417e-02 -1.128860227076674133e-01 1.002563083625070683e-01 -1.008391836298382083e-01 2.165302750673129273e-01 8.439643099625561418e-02 -4.837536521402633488e-02 1.605477388052750920e-01 5.878595223515779150e-03 -1.223636702495779771e-01 1.479837170296415538e-01 -6.220127215938399401e-02 -8.472313398294602227e-02 -3.354451849386444473e-02 -1.243255953933707220e-01
8.614822879665856581e-02 4.390282246988592291e-02 8.330007117070732658e-02 -2.300065826968188953e-01 2.979377503664207838e-01 -1.901788012455450094e-01 -2.668030406316407310e-01 1.173805971587285502e+00 2.978962089050251477e-03 2.728267840705979053e-01 -1.140013515260166060e-01 -3.259434037356023772e-01 2.716561775967566428e-01 -9.727892538762454855e-01 2.013909977610751911e-02 1.034220141883175487e-01 4.048061237645956822e-01 -1.486855078616153292e-01 -8.390952594304618151e-02 2.555507193331739077e-02 2.244620057548858960e-01 4.490843412847466132e-01 2.866816343937240996e-02 -7.949955031309126341e-02 -3.820167028055850705e-02 -8.076815653014707275e-02 2.428874239841408433e-01 7.176270011852623476e-01 -1.168466300359710143e-02 3.965345183785314032e-02 6.731127672823068453e-01 -3.231297317601131702e-01 -8.824510612024498435e-02 5.209874974414070437e-01 3.325459518965604988e-01 -5.194528503452772172e-01 8.913900699905916852e-03 -6.394092872516252482e-03 -7.317643053587435942e-02 -7.381204229098277392e-02 1.633610131648810804e-01 -1.528655138368207600e-01 3.513030281496378748e-01 2.057530598970034041e-01 -2.650676531583497919e-01 7.352309229283439385e-02 8.910886526256671381e-02 2.039917239545210870e-02 -1.641337731458556715e-01 9.290395436557100650e-01 3.602205845563581921e-01 1.226678233154607049e-02 -1.263628696046516578e-02 1.803843499975570086e-01 8.660420437150885276e-01 1.081667806382729941e-01 -1.589994767183716406e-01 -1.904340348553937648e-02 7.541177145788061642e-01 1.062684674823817094e-01 -1.445356689836564401e-01 1.379476409507504608e-01 1.904934039137896884e-02 -2.871561300884229451e-01 3.725584641175464506e-01 -1.672749634388466522e-01 -4.095126671861626377e-01 -1.625562549348130492e+00 -1.429583524401613348e-01 -3.670894986975596630e-02 2.595001352180537069e-02 1.733828564604343869e-01 7.065709608916444229e-02 -2.452855750995929507e-01 -9.824083961746898908e-02 -2.480482469880699106e-02 4.263992787737475032e-01 1.084870721332319876e+00 2.896486864907127368e-01 8.636520398827042255e-01 4.981995413336808010e-02 1.367443370535969260e-01 -4.070194235771822794e-02 1.407926407204498354e-01 -5.766779380873213179e-02 4.309062837358658693e-01 -1.392644184440560706e-01 -4.205985079772788654e-02 -1.636361221637495922e-01 -3.051590430185476075e-03 -1.806275924156215962e-01 3.009470466619298956e-01 -2.878129375855286165e-01 -1.578337929251824312e-01 2.826839673267896383e-02 -4.126435355714149211e-01 1.239857103151278603e-02 3.354950734026085901e-01 6.037642331667628093e-02 -8.328837837393085475e-02 -6.204684592449183356e-01 7.924789750930544274e-02 -1.732985013409710506e-01 2.733113928344897692e-02 -7.033308997411021057e-02 -6.614002638804226120e-01 5.194586582960723786e-02 -5.764546529569822275e-02 -5.340297656309608149e-03 -1.305941368473716724e-01 -7.336845535785468941e-02 -2.284725970544597140e-01 -3.743006900062581521e-01 8.027292916084863283e-02 1.609638009234864164e-01 -8.177770264827392832e-02 -2.152392444817970985e-01 -1.769142628194229905e-01 3.906172395057259245e-02 -5.321109134973491805e-01 4.035554815754899965e-02 -3.223857763113262970e-02 1.321686807709166467e-01 8.276310796766209732e-01 9.819153496396976211e-02 -1.316831544165390500e-01 2.740544596936890231e-01 -9.503933140845755023e-02
-1.151207627720103599e-01 7.985246247241603590e-02 -2.880678596676759795e-02 1.079026231921935142e-01 -1.171707092317813004e-01 1.676490612106595890e-01 2.335683694819582212e-01 1.587708143951500617e-01 -5.133516014724544274e-02 2.673608116201597190e-02 4.444598939029970747e-02 1.308613675995444481e-01 2.127859993916284345e-02 1.484545904989855725e-01 -7.780856650305451039e-02 -1.062211159977730253e-03 4.067835430714114020e-01 1.209844116071658177e-01 -4.795353514973325904e-02 3.961205847165735067e-02 -2.868592820586862019e-03 4.689525096309063446e-02 1.277713726568996955e-01 -7.554962813365560803e-02 1.519590380963056764e-01 2.202023196867030630e-01 2.537207175428775607e-01 1.580434230925535088e-01 2.078779832197730215e-02 -4.898320771687806469e-02 -1.067764230347271748e-01 -6.442986821388244079e-02 -5.121197984229749339e-02 -1.078180821869668682e-01 1.284307609190989685e-01 3.035439955848535324e-03 -5.222879642261503419e-02 -2.906644032684959494e-02 -1.212634136548804281e-01 1.426755266500453201e-01 -2.039075359808127652e-01 -1.127492172531007614e-01 -1.663165600467998162e-01 -6.805760930593281188e-02 -9.520171229585519534e-02 -3.770282309450892488e-02 -1.361797335009961056e-03 -8.533109227860019574e-02 -3.783804265601743017e-02 2.458131614186788716e-01 7.620540859097522934e-02 9.638322698838643066e-02 -8.319010235044989321e-02 1.613060650172969401e-01 1.197314296609593848e-01 8.208523985590250593e-03 -1.234391656468928206e-01 8.669772304846517022e-03 8.594977076175258635e-02 1.960852082150579476e-02 3.723425345736799952e-02 -1.733280961976514378e-01 -5.182852522911558096e-02 -2.081393867586685612e-02 8.065457997248992594e-02 1.067755047882495978e-01 -2.615687452861562359e-02 2.733451658073226542e-01 -5.278128500354576508e-02 -6.577252342690165232e-02 -9.262437735574727271e-02 3.494143398429414016e-02 -1.754089539042777979e-01 5.699257990439929311e-02 -5.339425609179842408e-02 1.252207364536097323e-01 2.671211161005810908e-01 1.068330080030734236e-01 1.747900460521220958e-02 -4.773551623828321822e-02 9.463043106200789978e-02 2.920122669935118834e-02 -5.281564748884792077e-02 9.059751206875324425e-02 9.426602566552670648e-02 5.671686103380565308e-02 1.611998247820350671e-01 -4.606529578324486396e-02 9.445891408047729643e-02 -1.913950068789315243e-02 1.194549088002651860e-01 2.764877470899044717e-02 -1.512429383898812041e-01 1.569874130558649994e-01 -8.154299517850778153e-03 9.132386163877318982e-03 1.222733038054501092e-01 -7.431696222468034407e-02 -4.213127211031034852e-02 3.553742499628560064e-02 1.665077908791963782e-02 1.311563937783019329e-01 -7.857522175850353841e-02 -7.454789565470461288e-02 -3.333411845422026756e-03 1.837051334653895251e-01 3.151748798862978596e-02 2.377796334525969155e-02 9.788030838272239464e-02 -1.187920261092417634e-01 -7.189780189262422183e-02 -3.945983444964223930e-02 -1.181478575023422045e-01 1.667771457548579139e-01 -1.135503885189963064e-01 9.144501656590578453e-02 1.513276355250999794e-01 -4.271027786236058360e-02 2.311266978739573083e-05 3.803208714016334535e-01 5.588218689786643434e-02 4.185829359220493151e-01 -2.934308979693315417e-02 -1.347993867589742933e-01 3.225882676775448238e-02 -8.448640999579942745e-02 -4.226797485679918420e-01 2.675003456610322572e-01
1.885542254749156543e-01 8.977497272605355905e-02 2.716034408409738476e-02 2.056702574086126389e-01 -1.213408497733280411e-01 5.052973275824944321e-02 -2.816341839852801732e-01 8.316460264889885545e-02 8.318650102840992322e-02 2.445045023926519651e-02 1.646616682457763825e-01 2.364336936620951846e-01 -4.058420228525948942e-02 2.048270486901775655e-01 -2.027730605990071822e-01 1.584398609806943470e-01 2.832177287673626198e-01 -2.614990744509234147e-02 -7.265778118183720269e-03 -1.724769338363393509e-02 -2.344596361021878198e-02 7.795764288200345005e-02 -1.370230719151539420e-02 -2.648817913899244592e-01 -1.940212200667223649e-02 3.845966179527580964e-02 1.987728353892497801e-01 1.903651121552000780e-01 2.822079570251566361e-02 -1.683248616516460350e-01 2.696411296939458732e-02 1.604606212545871963e-02 -1.174721433530893505e-01 -5.830042757777266493e-02 1.327715168977440172e-02 1.193047452170803019e-01 2.644452786119433005e-02 1.726947241446039338e-01 -8.668121562234853278e-04 3.023583398060483360e-02 -1.255136101842607710e-01 1.079202524041108918e-01 1.475597232992176266e-01 -1.505713213164086225e-02 1.526309857746311477e-03 1.338306274024559650e-01 -1.183426285805153251e-02 1.659495689676854513e-01 1.258908421286891385e-02 1.866227768656156527e-01 3.809030318553092709e-01 -4.474778590537743100e-02 -3.911118143124042018e-02 8.779740168835048486e-02 9.931395941869265720e-02 -9.114892877459408738e-02 -1.543394469607274611e-01 5.805277052815738942e-02 9.725146138571821863e-02 7.585917909351017063e-02 1.453685961788961367e-01 -2.947180019369032185e-03 2.164724223371886774e-03 -1.251169727753026484e-01 8.153078337761056338e-02 6.212176808544957185e-02 -5.530903336561562855e-02 4.828684595768469728e-02 -1.730897292352712169e-01 5.356700188984630379e-02 8.070643877769806407e-02 2.289842215972042183e-01 1.579691690717883457e-01 1.886769103001095793e-01 8.177428663197361391e-02 6.340802820618571256e-02 1.677130514942542505e-01 1.348112271607981583e-01 2.516856680394552459e-01 -5.908415466247103620e-02 -2.154111412402429787e-02 -2.046207800375875532e-02 1.450951814032127307e-01 1.844745914338323522e-02 1.542298515579365870e-01 5.214911893916419905e-02 -6.230731937115768088e-02 1.290207500293837628e-01 1.282461843606204077e-01 -2.879960631112900016e-01 4.728939145292229695e-02 1.433279739906417050e-01 -5.850919030309738311e-02 -1.533898057996507247e-01 2.840844463958921984e-03 3.297364391587794680e-02 2.109685968421394844e-02 -7.061082068631900632e-02 -1.044950114814847397e-01 6.438036343647794701e-02 7.472044791514986795e-02 1.095809768868716977e-01 -5.681843404512013085e-02 4.116198793847428150e-02 2.970977631621717352e-01 1.667258269180748598e-01 1.168686958546927002e-01 5.373801933590323376e-02 -1.003471440300244683e-01 -9.838244381892419232e-02 -3.000602810288618971e-02 -2.101042690618914743e-01 -7.442341481734683628e-02 -6.954514261775090501e-03 -1.246540600104452667e-01 2.078345179614139171e-01 1.327587976706809218e-02 4.785771261229754270e-02 9.620660489561640161e-02 -8.141368506019053264e-02 5.874284996851622531e-02 5.535742014578748371e-01 -1.030625212926543702e-02 4.885836346434318384e-02 6.393057983258376709e-02 1.412026050483604078e-01 -3.068477532600174529e-01 7.713222888825389811e-02
3.249913794391760813e-02 9.184103363715251378e-02 5.341749274586331947e-02 -1.590499417814185412e-01 -3.834401043851166230e-02 7.882027381658428256e-02 8.124785045614107970e-02 2.330483636574813750e-04 -6.760483122952344603e-02 2.216372014370441290e-01 9.844812300433472552e-02 -9.109473425355152365e-02 8.670476821900234554e-02 -1.765608950331901406e-01 -4.549025511905965824e-02 1.203745327047288649e-01 3.036261981990838743e-01 6.800338272958002944e-03 -4.552916343283253814e-02 -6.522667271653895260e-02 -5.170182334362756829e-03 -1.151183472912900296e-01 1.882605532509704915e-01 -1.063718287475699242e-01 3.237991718842595651e-02 2.696045716187760524e-02 1.385009998405923037e-01 2.849680764781398201e-01 1.324882377540374523e-01 -9.883547132889972109e-02 8.017260871368377118e-02 1.599891268055937954e-01 1.037805370023976159e-01 1.931280445449920719e-03 2.469484649436399365e-02 -2.989371313353026555e-02 -1.330485014662198817e-01 2.056039834176966452e-01 2.467211245373159261e-03 8.738407971888394188e-02 6.707261809492046090e-02 -2.549398254788863213e-02 3.617077381268120340e-02 1.047154697507374776e-01 1.224746898995728549e-02 -1.413335573889099306e-01 -1.665181570082398810e-01 -9.745726606306918949e-02 -2.429578715267294992e-02 7.437564260687513917e-02 1.809339529705890348e-01 -4.402334082209891086e-02 1.697614662399482277e-01 1.453346719564128919e-01 1.666168080403895579e-01 2.086134912168591538e-01 -6.492222548469862853e-02 -4.348918676429661817e-02 1.033322930568015136e-01 9.165904053840738530e-02 -7.363222236976324497e-02 -5.797652130816810870e-03 6.969484366629115270e-04 2.047363657027181927e-02 1.424066452402095173e-01 4.963242690850851180e-02 -1.016632542926637801e-02 -1.536988132385185557e-01 2.287639823035985676e-01 1.827821986726381118e-02 -4.315743125159143129e-02 -4.096575104417322921e-02 1.076668537900015155e-01 2.889419084543122518e-02 2.534891123849958294e-01 -4.489785229265856603e-02 1.981976312700442222e-01 7.701507391978465455e-02 2.000033294831380162e-02 -8.142864152490651708e-02 -5.283978933813063966e-02 3.844854001785109887e-02 -3.687635362055504545e-02 3.282843163618674731e-02 -1.345671002542679351e-01 9.549211871466090074e-02 -5.730707935147225096e-02 -9.427089067921372301e-02 -4.109841507920587722e-02 -7.308083118686720114e-02 -4.146314843556598434e-02 1.157416110234989193e-01 -1.069882284276770512e-01 -1.467993715959535657e-02 -1.345507728019974536e-01 -2.822167201205947884e-01 1.557509589858657381e-02 1.216721801751613763e-01 -2.359698488829299612e-02 -3.389419955439999105e-02 8.878774279474019315e-02 -9.871253154627988857e-02 -1.220839951113650811e-02 -3.873694060525262328e-02 7.350606565571177198e-02 -1.171035731424270587e-02 2.590441976604968000e-01 1.665449506434714677e-01 -8.159850970501729070e-03 9.294428652244297873e-02 5.174970475230825095e-02 -1.464853394984384216e-01 4.897714634354336655e-02 -1.418769657849255905e-01 -1.067493211071668113e-01 2.310579673188327132e-01 7.819730545837547120e-02 1.925569465438424777e-01 6.216555864017483252e-02 -4.678174253325692589e-02 -6.138517203649628690e-02 2.864559575196700125e-01 -1.012150992077086864e-01 1.323443717644860185e-01 -9.069085680426597351e-02 7.117376667865425721e-02 -1.133744479471700782e-02 1.937436242908443518e-01
-5.303953533082823163e-02 2.618766362742152784e-02 2.342645024111325580e-01 -3.942537403909630173e-02 -7.889655346014361192e-02 2.446905092043790142e-01 6.329601311882636361e-02 -1.855464789944649695e-02 -1.027011789394020602e-01 -3.947964550368377595e-02 -4.212769348050023066e-02 -5.779240419853545058e-02 8.108836322694870733e-04 2.207686678547053361e-01 -1.150950147190527989e-01 9.364918941601325930e-02 4.472593175120725961e-01 -1.009714688920684278e-01 -7.036003282122582636e-02 -5.326804132539247894e-03 9.895930986540432683e-02 -2.555091808638298989e-01 -7.075210534902649784e-02 -3.515969670365857169e-01 -1.776715610108399457e-02 1.687331816689834618e-01 2.766929203806591242e-01 1.522409277982459674e-01 -4.239501007065122479e-02 8.314618539373386241e-02 6.706802714590436032e-02 -2.871521710669992511e-01 -1.509985516819588314e-01 1.150406764077506055e-01 1.329893899166078274e-02 -1.345356274808727215e-01 7.819446160250788369e-02 1.400650319070460559e-01 -1.170660445681309843e-02 7.351131405300288801e-02 -4.564465447644951435e-01 8.645303053321688747e-02 2.126874737755241329e-01 -1.440304689938046445e-01 1.860520682368886625e-02 -4.486186800630486554e-02 -6.234690851102636482e-03 -4.512014533739094196e-02 -9.396980530408487187e-02 2.539199647075335298e-01 9.361726413583655593e-02 1.242264171164083643e-02 -1.054478269844101868e-01 -1.036867161124346848e-01 -3.295319194897212978e-02 1.143461494504360854e-01 1.044239290543974991e-01 1.103571560707558297e-01 1.146122448695474361e-01 -4.483254615215478966e-02 1.988434340395409394e-01 -8.386440551507803876e-02 5.712280769488647936e-02 1.731875993395806668e-02 1.436234699655150326e-01 6.693863480571686508e-02 -1.422131490414327570e-01 3.344792757467768968e-02 7.601966725334081965e-02 1.764816250348346383e-01 -1.706758970262741704e-01 2.398905167692114496e-02 4.314558386551031050e-02 -6.891629929022545509e-02 4.493848666663678021e-02 -9.847507528828956455e-03 -3.127728521934174111e-02 2.162884267711846220e-01 -8.197334047305407378e-02 -1.505971870455003470e-01 4.110395219116350085e-02 1.242334327850409120e-01 7.364114036962718379e-02 2.449378630178659921e-02 -1.105850511092893720e-03 -5.062553950498187988e-02 -1.260490592568609403e-01 1.573076379374121342e-02 8.175177928697756335e-03 -5.122090789835882091e-02 -2.052815218047714385e-01 -1.578213651658888494e-02 -1.028034995786081818e-01 1.224190385356450222e-02 -2.192441518568730152e-02 -2.584026309327542778e-02 9.388386429111392206e-02 3.325614733219437163e-03 1.481422187872272894e-02 -5.383093103631468590e-02 9.259047741824412078e-03 4.771221487635708691e-02 -4.046184095592652435e-02 1.400730160040322865e-02 5.315207903364947001e-02 -5.203070860469762721e-02 -1.654274639606531649e-01 -8.900255517732390265e-02 7.098295155317356497e-02 -1.892716234453587290e-02 1.454379807552931558e-01 -1.046253101064648083e-01 -2.114537154809431867e-03 -1.188435906197252284e-01 2.151442570716646796e-01 1.496062312691455176e-01 1.333070884860779459e-01 5.908391215530019863e-02 -5.929278485442012608e-02 -1.192303246038568243e-01 1.919413378636551301e-02 1.405249692996389521e-01 -1.363870557748285070e-02 2.000732811500043756e-02 3.324199310670129803e-02 1.066296185539476887e-01 -1.707921461690480869e-01 -1.436691685338239120e-02
