6.257701286800013141e-02 1.371681278802841086e-03 1.094387797546675367e-01 -6.346965480536322091e-03 5.549908640226440537e-02 4.210905908848569350e-03 -4.157719770524927541e-03 6.145656033650868932e-02 -4.156710879369116029e-04 1.748451046049875335e-01 6.415580507234125429e-02 3.093185806281463068e-03 1.623263502004600733e-01 5.099002428648694712e-02 6.908092717256576754e-02 -2.692604859569850545e-02 9.439084469669402691e-03 -6.497387628828510126e-05 -1.346009898631962687e-02 4.964603526541025349e-04 5.986168751383813547e-02 4.975418295307945660e-02 -1.961411708644473367e-02 8.054709759816536252e-02 -5.473898582940130847e-02 -2.446017696942821007e-01 6.932689104498503119e-02 -2.253307451967783911e-02 -5.964853357266998099e-03 5.667286952856588449e-03 -1.151158219675465881e-02 -1.100603575502596791e-02 3.173255849678782714e-02 1.531583526144874585e-01 5.198256444227834783e-02 -4.131560349755141609e-02 -1.681200334684278611e-02 5.618919360424336901e-02 -2.960402371208912045e-02 -2.058396022555964138e-03 2.529029294941133599e-01 1.182146287455731332e-03 2.679571305254044647e-02 -1.078352260839547314e-02 1.212334684537957064e-01 6.421872123658917131e-02 7.199916422516059681e-04 -1.135744187085617994e-02 3.771891287086408945e-02 -3.235675318051405448e-03 -2.762214565746146447e-02 1.852952634054129410e-02 -7.812711518463894000e-02 1.597607718901758889e-03 2.230999984628299557e-02 1.184510164843798202e-01 -6.622888507872658204e-02 -1.055755464518629038e-04 9.109011528259174095e-02 1.325328357741250651e-03 -3.254983834039521656e-02 -1.817440088528117781e-01 -1.670584552298507164e-01 4.693699879932747288e-02 1.084115144854841568e-02 1.514623913758314337e-03 1.940560497279987182e-02 -1.509530706013082271e-02 1.137737558109859319e-02 -3.809548454523322466e-03 1.479980254352843659e-02 8.255082090911964113e-03 -1.308624056858107357e-02 7.567044218802393418e-02 5.319153329759458530e-03 -1.508289410471500870e-03 -1.788317117363485975e-02 -1.921678289927209599e-02 7.266409110702976015e-02 -2.906615906435170392e-03 1.110220063607979919e-04 3.082089235497012525e-02 1.971357803854760775e-04 1.061194556201300876e-01 7.306536489781826618e-04 -6.005682420544693895e-02 -1.235090008288793582e-02 -1.175085386317095415e-01 5.060648007405986470e-03 3.854067454078626345e-03 -1.880284953204923101e-02 -3.197787164373994129e-02 3.898282680187496047e-02 -5.378109334891483656e-02 -1.470839773984862285e-06 6.986295368311633280e-02 -1.839076653057156565e-05 2.777249192576269343e-01 -3.948590021162417391e-02 -6.626448453147369688e-02 -2.597747057743088339e-01 8.284617200604497966e-02 3.274480955163175519e-04 -4.769086864906968426e-02 2.041046391466301291e-01 -2.523255097032602381e-02 5.244195062250871231e-03 0.000000000000000000e+00 2.274502734581636265e-03 -1.242213911853816020e-03 -9.856461434739444485e-03 2.406704866708541182e-02 -4.779558228078684134e-02 6.204334428975329802e-03 -6.518450714167084437e-02 1.257713076822808695e-01 -2.601316452051589678e-01 -2.811672744254808693e-03 3.402062503348092124e-04 -3.356658208934702042e-02 -1.184941550179996299e-03 1.017578439541123696e-02 1.032729828871035808e-02 8.510370272688298765e-02 -3.027069785579401817e-02 4.450324205169872011e-02 -5.497654150099069714e-02 2.626918614994707551e-02
