1.842613373762337636e-01 3.969630808586305931e-02 1.443490608314694501e-01 2.247287043919082017e-01 1.044600973127577243e-01 1.057378491557552612e-02 2.140898722490155170e-01 -3.926495988134705989e-02 -1.294686077493245428e-02 9.449568284568764590e-03 -1.954785143269082912e-03 2.008871196316015517e-01 1.509843246585849952e-01 7.081586286763476290e-02 5.524493168559762440e-02 4.250599998484514558e-02 1.300264929327739072e-01 -1.971875100048871635e-02 6.042596679639149898e-02 -8.627898328138673689e-02 -2.932886812338634241e-01 1.940286355476963653e-01 1.079899323914470383e-01 -1.006582259093887488e-01 1.925968388366700312e-01 5.513074906001441807e-04 -1.296515163741257005e-02 -3.118844199073362092e-02 1.659959482495640404e-01 2.279212951976749280e-01 8.384487260094176941e-02 5.146391246587344454e-02 -4.425159852907505770e-02 -1.661015596723303678e-01 4.714274792991678814e-02 -1.787346895368938093e-02 1.174711797780074035e-01 1.511067010843075709e-01 -5.584991192272208832e-02 -2.842760783848963246e-02 -1.401710780811725732e-01 -1.453058702183044337e-01 -1.808576079152688920e-01 1.813195048044705382e-01 1.121575127498948138e-01 2.109455907671979255e-02 -1.216360701976210573e-01 8.185802556257569529e-02 -3.344128554977449791e-02 2.471513945399184675e-01 3.337072105698589159e-03 4.797516394689500807e-02 -2.212517830568423716e-01 -1.179578859741842595e-01 -4.425647573642543797e-02 -4.629738450867044650e-03 -1.043040207928434826e-01 3.030983682036339846e-02 -7.965387238933820113e-02 -3.466250815636933574e-02 4.802739070288237350e-02 -9.267880457873628464e-02 -6.779287922491790408e-02 -2.551616905445475703e-01 4.506012855143651935e-02 -3.903530640330021145e-02 -1.974550425217701244e-01 2.673435281648558690e-02 -1.291170949053868366e-01 -2.839566395826076742e-02 1.323633636779144862e-01 1.506118743603510578e-02 9.432884085461715196e-02 -1.899361770962214868e-01 3.007177663049942842e-02 -6.963740973101426035e-02 -1.150464280493373737e-01 8.599430728190677817e-03 4.583327808746884280e-02 9.203833635881079889e-02 -6.832278522070850402e-02 1.179917296752045625e-01 4.647393466632078474e-02 -1.873638510856892314e-01 1.487434249509460849e-01 9.433092683397399647e-02 1.174408201920796452e-01 -3.524199165769521108e-02 -1.059231778236237320e-01 1.025924958220933159e-01 -6.271658685146141998e-02 1.263708434522098079e-01 -5.901836763172610412e-02 1.045551789559880651e-01 3.563686516648257446e-02 1.279348251336784315e-01 1.040614776972573338e-03 1.606030781502011673e-01 -4.757152014026681114e-02 1.468370301816249723e-01 7.599751516877452373e-02 -8.795514246594429708e-02 -1.276878311243407338e-01 1.155021224082945636e-01 2.416213787009499625e-02 1.439362598535383342e-01 -4.274006820553907793e-02 -7.474548114407578159e-02 1.927412208038265518e-01 2.133615767403909125e-01 1.211881012422442866e-01 -5.489153630329118849e-02 -4.125079660662322317e-02 2.104918501637650652e-01 -6.055149559123969988e-02 1.868935588268112735e-01 5.946175989822183316e-02 -6.847866638639281411e-03 5.630863684048593304e-02 4.783474654721090596e-02 3.743929398955286869e-02 -1.340451203194661933e-01 3.266455758126511622e-02 2.223550274902722224e-01 -3.012461535641287533e-02 -5.306391642399090752e-02 -2.072575658903489104e-01 2.474571769694862977e-01
6.788755649154365468e-02 4.074618362411104588e-02 -7.391541703708698341e-02 5.449687309635862370e-02 -8.497442823384587784e-02 9.997973395317211534e-03 -5.905633518455354752e-02 5.381855891663856611e-02 5.781606043529024380e-02 -3.211118587318084749e-02 4.510196297302627999e-02 -1.037147285282327414e-01 -1.502285067905670124e-01 7.103542029665865787e-02 3.753065721549648896e-03 6.412102218704672507e-02 2.328752759383289905e-01 9.539953850426939608e-02 -9.181630049399309990e-02 1.117142683769285355e-01 -1.479651720277918303e-01 -5.872077340389857819e-02 -6.373374576792724920e-03 1.599638726622205354e-01 -7.353265089714750014e-02 -7.235926025213704205e-02 -8.249312974206196580e-03 -9.062950594246278746e-02 1.166973052678506734e-01 -9.915200448933424171e-02 -1.174606526760150066e-01 -3.963687736071092038e-02 -3.582571727890924290e-02 1.874721890416805314e-01 9.366772858844184257e-02 1.959664165627458821e-02 -1.236541614662106242e-01 1.049506386969660116e-01 -9.880729248646787088e-02 -1.543054923687145474e-01 1.217449058449090876e-01 3.211549851957838653e-02 9.803268906993070630e-02 3.725574647650818638e-02 8.920033914580480228e-02 -5.035396325681542468e-02 -1.034837102331593456e-01 6.755758605130639249e-02 -7.367949047943064822e-02 -6.850634221880735897e-02 -4.961514147813104320e-02 2.128233543089856714e-03 -2.885850745844579374e-02 -1.373897969037451705e-01 -6.953372974644971005e-02 -2.329515063176473000e-01 5.693134552670002513e-02 -1.601431185142893343e-01 -1.164435271358081059e-01 5.695766753511095210e-03 -7.518052671231036099e-02 1.436121675833305911e-01 -1.210561523831128472e-01 3.361191165951429166e-02 -9.940765936163428740e-03 -1.167434259149161269e-01 5.905392686750055020e-02 2.045059297734357073e-02 8.229245447144184489e-02 8.567390041672137690e-02 2.156851324882901322e-01 1.336951890224389317e-01 -3.368387633814005216e-02 -2.806746810106793347e-02 1.098161292092026814e-01 6.552637307225978036e-02 5.184258521828327693e-02 -1.745384220957195975e-01 3.813668003055186839e-03 -7.665292707905946301e-02 2.914156074342554026e-02 -2.123322009897205681e-02 9.101789080925920539e-02 4.129732420995285008e-02 7.863279621089762361e-02 -5.705139027737780866e-02 -9.677559979263632151e-02 -3.984622796126123523e-02 -1.819033427051776168e-03 3.709237221182652006e-02 2.240804880439120628e-01 -2.226168994566972772e-03 -1.005627219329782718e-01 -3.316697372637857077e-02 -4.635959746460942277e-02 5.594818499308488319e-02 -1.540802197105753113e-01 -6.104288913982625943e-03 8.452494364874075031e-03 1.312074136620798928e-02 -6.165169732771180744e-02 -2.922207657894807312e-02 -1.424051131791732316e-01 -3.599373415568857260e-02 -5.275205350848671121e-02 4.791185931151387828e-02 -1.152613307831092115e-01 7.811981017099933755e-02 1.494787295649512293e-01 -2.032384401616422753e-01 4.644669048133228534e-02 6.161479166066266555e-02 -5.975539111157020938e-02 -3.873072002703227545e-02 -4.856143991380824053e-03 -2.865601568232944638e-02 -2.335625990411409683e-02 -1.668165975316261429e-01 1.145038897608917916e-01 1.086932483070545963e-01 -8.133642592042028552e-02 -1.454430375873552173e-01 5.194796058168796304e-02 -6.565419946673718699e-02 6.355351619194375863e-03 -2.496915236265558405e-02 3.889918767342029349e-02 6.768423143317155166e-02
-1.561955185829808912e-01 -1.384812201864972503e-01 -1.306013475071024499e-01 5.932576756057776624e-02 -3.854616218012023032e-01 -3.504884249628385101e-02 -7.739448950428134966e-02 -2.630919681697174370e-02 -1.961994517284699757e-01 8.144681006294521297e-02 8.663890901943184508e-02 5.507604842689938635e-02 -6.984600551008335323e-02 1.219170592382671711e-02 5.984606051565059121e-02 -3.199437269606003609e-01 2.735047641896978798e-01 4.299664348381126988e-02 -2.233464086717325617e-02 -3.974534927144603158e-02 4.023678078725162477e-02 6.587433433590396403e-02 -2.011017965722213807e-01 1.708445103088404027e-01 -5.940364525469180035e-02 1.174588711529919033e-01 -4.039311084888063536e-02 2.987238102838314369e-01 -5.045723423893182930e-03 5.503812094690738177e-02 -1.259876589099515332e-01 1.829690448022000537e-01 2.997617390465785736e-02 2.033576113883834580e-01 -1.878514052021372505e-02 -3.268418942514094046e-03 2.219160170900226214e-01 -1.267836626247413057e-01 -1.369555974231398063e-02 1.182630547799375792e-01 -3.402398117763749674e-02 5.605896776281237004e-02 1.486753399043851294e-02 5.262531903230868724e-02 -6.530685948511233407e-02 3.123946471919038514e-01 -1.119489253794603463e-02 -8.110912718480993433e-02 1.413174334234416352e-01 4.702391662941060591e-02 -9.419985529031350835e-02 -1.327615763760381651e-01 9.745368485831134783e-03 -1.585201137656981618e-02 -5.515864918568634534e-02 1.224083666064594150e-01 -7.969086889937193607e-02 -7.300512824009706969e-02 -5.704068472453448224e-02 7.817582805741058946e-03 4.728746784507405210e-02 5.593790513041215634e-02 -6.214032368488844188e-02 -1.746633288256349559e-02 -1.795268344484662604e-01 -8.075554341442033046e-02 1.235928959265026883e-01 4.398905431213064043e-02 -1.954228797314348787e-01 -4.214350931242191733e-02 8.309634683287044771e-03 2.273393834840349848e-01 -8.450646161538052925e-02 1.309379768103164088e-01 7.096429861219327728e-02 -1.194666222830405994e-01 1.024616466622159106e-01 -2.169181487504155403e-01 -2.915669563607831694e-01 1.104888797670776357e-01 -3.030289199091168797e-02 1.153540875053027798e-01 -6.840108977372165444e-02 1.033658605182310591e-01 1.066157498751059141e-01 -2.027556900340854451e-01 -8.452192148822468276e-02 -2.054958679813545241e-01 -4.122789992365825940e-02 -2.817319284068035834e-02 3.525537854926084902e-02 7.352396573226858099e-03 1.192342614733238187e-01 3.389982020777512761e-02 -7.641439239064430622e-02 -8.019775857128530472e-02 1.364232019817877839e-01 2.200227256848092880e-02 -1.321847997427060550e-01 2.684204656859800683e-02 -2.646736050772439119e-01 9.962237157529631182e-02 -4.831614247153869640e-02 2.323606423753894062e-02 2.255475662195345898e-01 8.692842035998273043e-03 9.115091899493188432e-02 3.399649838012620134e-02 -1.053162990854726025e-03 5.327170832092148478e-02 1.685983235587562926e-02 -4.958494592141455409e-02 -1.450146631981331230e-02 -8.870678830575390306e-02 -1.447847056470344951e-01 -1.650334750619269208e-01 1.181979639056558729e-01 -2.338395640924584296e-02 -5.325327241539573424e-03 1.258910831693820301e-02 6.416372340532124074e-02 -2.430234962081106731e-01 -2.045724486284478116e-02 7.294374852477367166e-02 -1.382783884173486577e-01 6.643283931128429742e-02 -2.914494783460516714e-01 -7.920685660284537688e-02
3.863055184018809960e-03 -1.656715102321953959e-01 -9.855107376841507061e-02 -1.471835007463586920e-01 1.648134932207559744e-01 1.642277554873339609e-02 5.672902778526694306e-02 -2.226751005151544893e-02 -3.534317487571991129e-02 -1.616474188651032540e-01 -2.918373627478628232e-02 -7.614922118116233818e-02 8.579239242923364372e-02 1.141101866657573405e-01 1.466578715574177738e-01 8.525519394612320057e-02 -5.986539369229861018e-02 -1.115896985960394550e-01 7.666631816450861225e-02 3.562928174722889557e-02 -1.768538450677030749e-01 3.554817927437690928e-02 8.145198224878663629e-02 5.892558918162996151e-03 -1.850536710093415513e-02 -8.076484876163557425e-02 -1.446534699563387927e-01 8.002979493400275146e-02 -3.091144447717088239e-02 -2.334666615436927287e-02 1.732721186919133349e-01 6.845011068591903836e-02 3.708250012811020735e-02 1.420618051872356638e-02 1.519994860765772893e-01 1.719589307416194701e-01 9.295051114795281622e-02 5.822245913979243181e-02 -2.094603071206144751e-01 1.237219142335065775e-02 -1.301069541937040046e-02 9.395322938556872200e-03 9.430460873225178509e-02 -2.739677167189556450e-01 -5.693120534701850977e-02 2.699043549407613776e-02 -4.668455460527625583e-02 -1.416906113126259470e-01 8.689634868967954784e-02 2.768719058461280302e-02 -9.711045704444846993e-02 3.148172045158238036e-02 8.215857120497958854e-02 5.292646299360853840e-04 8.005648034309968686e-02 7.826017516166135224e-03 -3.952289826543543827e-02 -1.159420516399913004e-01 -8.593076697161272995e-03 1.942929380457716904e-02 8.758327615873309768e-02 -1.151074684872267252e-02 4.574156062209908113e-02 -9.646120137337284295e-02 -7.826291558275251525e-02 -1.103892990268877557e-02 -1.054628463985013975e-01 8.202478373246813170e-02 4.631303293186071063e-02 2.790957643924534340e-02 3.389041252159445683e-02 2.021043561484797690e-01 -4.688641879667956869e-02 -2.201441285500558009e-01 1.993001968964652065e-02 -5.060354096166589863e-03 -5.175190425104032876e-02 -9.788298593587699270e-02 -4.391895218021479863e-02 1.813384292178213050e-02 -5.028167006425382501e-02 2.412453679543748730e-01 -9.605043816331480799e-02 -7.931173627076716637e-02 -2.288620040014528456e-01 2.514844150215370111e-02 -2.016406627799760265e-01 -5.394546333745014327e-02 -2.756705345605569776e-02 -7.097279658468882979e-02 1.738872677454511018e-01 9.943943913154990044e-02 1.319136876301575667e-01 -8.824188185499186321e-02 1.128594064514568535e-01 4.960009463439622041e-02 7.714059486768455598e-02 1.029438828782767157e-01 -9.087632459590531953e-02 -4.243176209779014885e-02 8.625960113284511510e-02 -2.655619092974932927e-01 1.513328082573205391e-01 5.531320642075840399e-02 -4.570396066023485297e-03 2.205076557571733140e-02 -1.029935283308976574e-01 -3.499433645891047301e-02 1.100284338220373775e-01 1.298021972326221241e-01 2.696224052563579998e-01 -7.392466628041514075e-03 -6.585529668050037200e-02 -5.142339659399888796e-02 -1.018041875287364895e-01 -7.785475594085076306e-03 3.827324300122681572e-02 -3.424228053195386978e-03 1.096346845665798625e-01 -2.342158013445365394e-02 -3.474506524985632866e-02 -5.812684768603252478e-02 -1.632634526234495453e-01 -1.567767724308454236e-01 -1.179157930637687868e-01 1.301428071664760822e-01 8.952602728899300422e-02 1.374964066392989903e-01
-2.903306379648525892e-01 -1.979702486153001595e-01 -8.280173999536932783e-02 2.137569898444353217e-02 4.044335212395633872e-01 3.548114340672206546e-01 1.845162050554728927e-01 4.666846267333945031e-01 -1.675996459670434091e-02 -6.391702362668338910e-02 -2.882669459902545972e-01 -6.885705323427881996e-02 1.187245392025982199e-01 -2.069989672597299935e-01 3.756501704942431102e-02 1.729147410350284353e-01 -3.103693308255779937e-01 8.660229809431847781e-02 -2.300886610176318958e-01 3.821583439412291200e-02 2.390358981467504140e-01 -6.777652236692091603e-03 -1.069049856396125514e-01 -2.436496649936474856e-01 -3.073867729241061900e-02 1.986720338287351062e-01 -1.591919827165856963e-02 -3.132094249395793450e-02 1.442967388422187469e-01 -1.890316691658571746e-01 3.097978716550427447e-01 1.557959983616493682e-01 -1.944033362526950345e-02 -1.731551865248679156e-01 1.517608305363686572e-01 -3.576103375373015369e-01 1.015206352034288828e-01 8.035600418853969251e-02 1.558610945504596001e-02 1.187695060601790670e-02 6.916426984307283421e-02 -1.817601760298328054e-02 -1.295789155795991354e-01 1.771988651870871068e-01 -3.151668581837954175e-01 1.232081813192607705e-01 -1.295207773357678060e-01 -7.995583242401732571e-02 3.086519373048350334e-01 -1.050388913675654318e-01 2.477067445639977994e-01 -1.681747138089288995e-01 -4.729572583432312127e-02 1.965574007287849284e-02 5.661994397971019388e-02 5.915989433606325294e-03 -1.291399433614112968e-01 5.270042084546597283e-02 -9.200419784097020603e-02 -1.970023511054260212e-01 7.980671032939036513e-02 -3.205115590753027099e-02 1.985240109930287433e-01 -1.636413145589236950e-02 -1.331399458629223091e-02 -1.046854226534910115e-01 -1.740401017341796364e-01 -3.718509813558046329e-02 -3.248601271493767317e-01 -9.975037341147942327e-02 -6.235433104428521334e-02 7.893047788608675841e-02 -7.403490125681845557e-02 -2.897102257590766089e-02 -1.577708835915011057e-02 4.318276897912035756e-02 -5.887795318764761469e-03 -3.251840986223041852e-01 7.068258660407637783e-02 1.394365299654658774e-01 -6.857378364167850127e-02 -3.648064291470108356e-01 3.517801106813583240e-02 1.404859267694635594e-01 -4.700607833483756715e-02 -3.698480482740169883e-02 -7.121512148180948742e-02 1.510048319837454037e-02 -1.557237711132017088e-01 3.941559432437585081e-02 -1.174946217545935617e-01 5.889620845089364731e-02 -1.690739265010376136e-01 -7.141146204258713714e-02 -1.104894050659278350e-02 -7.263758799601031935e-02 1.150832305589560324e-02 -1.051674678125325835e-01 -2.753996151309527907e-01 -3.070162797525088361e-01 -7.787761238783979384e-03 1.456740840417828087e-01 -1.299048680616516141e-02 9.383165210441804516e-02 1.332729044981365019e-01 -6.673272749062481024e-02 1.281332440954512930e-01 -1.506998398214272061e-01 7.141309721422597900e-02 -6.397542902733494019e-02 -2.180314360375361707e-02 -2.228553092151487891e-01 -1.870143413889740341e-02 -1.143205750614462585e-01 1.739320141746297788e-01 2.819539676419878238e-01 1.583873712620326049e-04 -1.588137755269483989e-03 -8.228386886777624976e-02 5.231276009546805689e-02 4.523482305081656663e-02 1.380775290435521108e-01 -3.765754383765222701e-02 2.801607073686982474e-01 1.123247448778645213e-01 -9.102679150652057127e-02 2.674919662997812253e-01 2.162646135888074139e-01
4.043346235295686326e-03 1.367597239806713494e-01 1.079291357689499270e-01 -1.002181999730340223e-01 -1.942469905970627964e-01 -9.158307214785325889e-03 1.030065163225344499e-01 -4.444355372401667670e-02 -5.921283097408363422e-02 1.359101563338726559e-01 5.830305447391926493e-02 -2.244292887512990553e-01 3.070804808279488374e-02 1.121028432223976079e-01 -1.680355110694582753e-03 4.094707844252969131e-02 -1.393703922265121693e-02 -1.320240982801714480e-01 -3.330572513531045165e-02 -9.457588850295545191e-02 -1.323869455742570367e-01 -1.479559728073447655e-01 4.428689235416941039e-02 -3.901553474035705533e-03 -5.495488952785562708e-02 -4.752287308118413600e-02 -4.633080128751933952e-03 9.155145643018298973e-02 -2.061768529575414288e-01 5.800674705661725689e-02 -6.728363451630713088e-02 -1.931166899964759931e-01 -1.787180217794879233e-01 -1.051688921519070841e-01 1.578810172715941137e-02 6.369819401903110967e-02 -9.504341073352753910e-02 1.166406404623172022e-01 1.423963176753328674e-01 4.089306177916487289e-02 -4.761709805309595478e-02 1.132387453352422940e-01 8.142755915709941339e-02 8.558785214599212710e-02 -4.831707391848813482e-02 -2.585093874180797169e-01 2.123243996658158717e-01 -1.592543535302524405e-01 6.894293633993724829e-03 2.343729867139145162e-01 1.945549124583750844e-02 9.517805625660326341e-02 -1.365831207661677982e-01 -1.776613630353139350e-01 -6.528633524192187232e-02 8.711774389062562629e-02 -4.171447932060663027e-02 -7.946363210714987857e-02 -1.182965810318727627e-02 1.089557540171368771e-01 -1.435899859808264512e-01 -1.273847791528755213e-01 -7.352138736118039863e-02 1.236531776857978659e-01 6.117934621970482281e-03 2.136660443799405507e-01 1.393293939175939966e-01 8.765403362687207434e-02 1.335480534327526114e-01 2.043680573078178117e-02 -6.166653366731472685e-02 6.791235667714168311e-02 -5.959017080349132689e-02 -2.453993001007739178e-02 1.323972917318169407e-01 -1.021761611613500147e-02 -9.968654781545846499e-02 -6.405603937160984918e-02 1.107638436816062999e-01 -6.451545618034489060e-02 -2.541754986068314390e-02 -4.495370078288233456e-02 1.839254943403099626e-02 -3.887749355453572891e-02 -1.602492208149651765e-01 -1.255255324478328771e-01 -9.098734141390779628e-02 1.235467079830062653e-01 8.176988648075969590e-02 5.812161765721354789e-02 -4.838928415456855009e-02 -7.898659376978996172e-02 -5.529574058321817115e-02 -1.079636535941012332e-01 2.497200391587007240e-01 -1.991722497282556459e-01 5.639055574070597071e-02 -1.344129752538484879e-01 -2.110384106921183237e-02 -1.227657901663239681e-01 -1.036985151571322011e-01 -9.823852764465686171e-02 1.753384457908266914e-01 8.606213047840838640e-03 -7.583549992460322797e-02 8.464960823002642964e-02 -1.473113290891211471e-04 7.200337593416528126e-02 -1.824355245499154066e-01 4.199029291517784868e-02 8.289339344010643318e-02 -1.774497299614771206e-01 6.326050702602174780e-02 1.794300013114962788e-01 -5.209682675449515098e-03 7.061769103034883088e-02 8.376150767655833607e-02 -6.967620934548530987e-02 2.685616543057246352e-03 -1.621517333948110928e-01 -4.513030371025261722e-02 3.705060005884267677e-02 7.099890470064711134e-02 -3.256925852852333297e-02 5.045981504370353893e-02 -1.014107683351854194e-01 -7.402849186234021495e-02 4.220736839960888276e-03
2.605248176922704273e-01 -2.152774018023069849e-02 -9.901812591099802205e-03 2.108071609955413424e-03 -1.105645283572034010e-01 -2.294076630843451623e-03 2.258767099025991987e-02 -9.508694036182034626e-02 -7.264973370655203669e-03 6.276608655409647054e-03 -1.225144595865992891e-01 2.547179228766846201e-02 2.477138746647004341e-01 3.623147114345514480e-02 7.169334093102960881e-02 -1.336849193069277186e-01 6.813109768559437451e-02 1.775708992025709296e-02 4.979917493602955408e-02 4.153880106281854223e-02 -1.570078811024791243e-01 1.449994733749695452e-01 -1.009364348332002642e-01 5.054491991707927429e-02 -1.437310956661766448e-01 2.077398982472397349e-01 -8.909985828261601792e-02 -2.734386965165076441e-02 -2.352855634148313599e-02 -4.829937757657686709e-02 -3.012491199512709952e-02 -7.233102717727775410e-02 1.908458268822791348e-01 1.281263171620199703e-01 8.704091472810319974e-02 -1.558875674264297295e-01 8.967599778846026271e-02 4.531856383485925038e-02 2.135552100694477259e-03 -1.171335204100520900e-03 -1.687473141676878452e-01 -1.113399510452287543e-02 1.653342312113975296e-02 1.766704230049761515e-01 1.525398292156155411e-01 -9.457702225545214225e-02 4.908260046317024922e-02 1.794013080882677635e-01 -8.529499477306182187e-02 4.321577400102233346e-01 -1.004863715025807250e-02 6.753423373632338328e-03 -2.435840538026327329e-01 1.255222425063085056e-03 -7.012481519730140445e-02 -6.318709821987775199e-02 -7.673053265924206778e-02 3.275890658683094925e-02 1.072047138342245437e-01 2.247730774675438803e-01 -7.141627343658144000e-02 -1.313631230969389274e-01 4.722996390761002861e-02 7.091851845342589389e-02 1.242926365378067095e-03 -6.722247887982596079e-03 -7.402069433433706991e-02 3.959684154315461224e-02 -1.638103061353936019e-01 -4.811104333338623446e-02 8.016816115177546886e-02 3.331722240205804708e-02 3.700734707793771304e-03 -1.775651699525654936e-01 9.206348436111051747e-02 2.126623920231470732e-01 3.307699013660612974e-02 -4.352556565422454997e-03 1.993516409239882992e-01 -1.025538620901363975e-02 -1.006640401857664957e-01 5.273008020349673891e-02 -2.582796632969944772e-01 -1.990720253583306565e-01 -3.490773870462023087e-02 -1.925217599327551654e-01 -1.056237066093896199e-01 -4.834912037599403689e-02 -1.616138925851405561e-01 -4.310658006655199853e-02 -9.711289760277085070e-02 3.687483974289824940e-02 6.493031701033072367e-02 2.858278170749830455e-02 2.106202134206362330e-03 3.809812761686488802e-02 2.272989021700336579e-02 -7.709019283949845869e-02 -3.815470291502517236e-02 1.136870871323008708e-01 -3.653223786306002419e-01 2.805742754288021445e-01 1.073881186372642321e-01 -4.117849970001997983e-02 -7.116033012024651494e-02 -1.572827972983586176e-01 6.888787174391836077e-02 -1.061222287445909296e-01 -2.213753235642909253e-02 -1.070010084402488702e-02 -4.864714471735435974e-02 -2.868907082665053676e-01 1.215196421948984695e-01 -8.174920650982440973e-02 6.150433362979602220e-02 7.197634839580141497e-02 -2.391252801768926073e-01 -8.346942553467304182e-02 8.983786515239843007e-02 -1.382908563665891377e-01 2.716713820906989721e-02 -1.726188950912481423e-01 -6.348127958368582346e-02 2.029048464536744034e-01 1.198336352898641960e-01 -1.013981876408529860e-02 -2.689093534799815721e-01 2.291864653203776470e-01
-1.838669859997896505e-01 -1.541587399671787706e-01 3.232367272949971948e-01 -4.408050319304862574e-02 -3.533521818709572937e-01 -4.432121049794787021e-02 4.047902956590917339e-02 8.788083290644270462e-02 -8.403680926922409145e-02 1.633112520972408166e-01 1.059540772820682514e-01 -1.135058868634230417e-01 6.353134295321681557e-02 2.285008610797887585e-01 -1.506330726041588408e-01 -1.575298719213990839e-01 1.299393337301488205e-01 -2.041455238281351392e-01 -1.034492881271432407e-01 9.649285459651324448e-02 -6.708231678676573884e-02 9.764410618876130307e-03 5.508799077762616819e-02 -6.092445904416794733e-02 -1.359563137887216111e-01 1.458000961101581228e-01 1.305637843567848955e-01 2.934922871446708770e-02 -5.077373125565958628e-02 2.301012038810388294e-01 -3.676555277052829390e-02 7.034610600816616766e-02 2.864710340119764817e-02 1.579175633413842095e-01 1.465827609619851646e-01 6.801783131370779667e-02 2.258874292234559072e-02 -1.732929404970211806e-01 -1.050047586996001418e-02 -8.401403300558124565e-02 -3.703436453717126597e-02 1.735628443555696232e-01 4.612630308577798238e-02 -4.604604909712889209e-03 7.242152219142761194e-02 1.939901048951253038e-01 4.826449868441162749e-02 2.661132874055656128e-01 7.583657662479349748e-02 6.022476649794319264e-02 3.599178349333889693e-02 1.434176293475885600e-01 6.028630659879070930e-02 -1.162297003871490958e-02 -1.060138135011510080e-01 -2.502828955688040508e-02 9.912118755097007461e-02 -4.103817936578706138e-02 1.027802848880321994e-02 2.255621220710615077e-02 1.539124298636227739e-01 -3.318480234080083829e-02 2.301114973414769282e-01 -6.552420803081229761e-02 -1.237574838118239845e-01 9.459305530198518219e-02 1.250260897238248126e-01 3.115518348005023030e-01 1.478700013345696229e-02 1.979041731587667663e-02 4.599393237119836497e-02 1.586639070344875446e-01 1.014428188553651022e-01 4.646898238661299751e-02 -7.202420430988047684e-02 9.683884410094065198e-02 3.078435291140674268e-02 6.952374695283586314e-02 2.478167110230803660e-01 -2.897276647180598019e-02 6.783732986841042867e-02 -5.272535794807237455e-03 -1.435795117163205653e-02 -5.988803937517284126e-02 3.594206976285082428e-02 -6.770612631736434850e-02 -4.364964592681194050e-02 1.650518591067576812e-01 -9.412573276967459157e-02 4.046492997703581701e-02 -3.440263118601041142e-02 7.508521821374912475e-02 1.256986216215405516e-01 -1.033385477725698026e-01 4.410329072731514199e-02 5.273489554558697529e-02 -7.994223995430965735e-02 -4.560089278427947868e-02 1.782219184675906979e-03 3.147345117326548480e-02 -6.531409405567682736e-02 8.142554155903240776e-02 -1.146223306916485662e-01 1.130098771005871687e-02 1.044978881662227133e-01 1.449442430049920350e-01 -4.282543849547360004e-02 1.047140294332843391e-02 2.290283576915448996e-02 2.909923059551398558e-02 8.891794897350410731e-02 -2.945389003586095789e-01 -6.722538895400028552e-03 1.803280299805795281e-02 -1.189106829923259612e-01 2.291717692289132746e-01 1.186208410678969566e-01 1.565990803695999634e-01 -9.433969506858982945e-02 -1.873780039578387679e-02 2.242418346595964965e-02 -1.365164587149161612e-01 2.195751902168342415e-02 1.126932571398899657e-01 1.417181744765471929e-01 3.900846381730675716e-02 2.333738118924876676e-02 -1.135669740352443918e-01
1.878655685806474851e-01 -7.921150205651500409e-02 -1.016204893986633329e-01 -1.097974193762063372e-01 1.324585350234741832e-01 -5.984052288825072313e-02 -8.966070379888330111e-02 1.223459199993782165e-01 -2.030150083555496213e-02 -2.044257169547606875e-02 9.873259839733614096e-02 1.012796992525345635e-01 1.589443503638863220e-01 -1.345237027225939207e-02 5.845149250365415383e-02 -1.769950008851251810e-01 1.697987630753110821e-01 2.982569184395814782e-02 5.477888715193941771e-02 1.114785050198475042e-01 1.725470642708452906e-01 1.462374270437950818e-01 3.295460713574376033e-02 -1.502822280143147407e-02 1.861329254132831207e-02 -8.367109699594595107e-02 -9.147945910259713820e-02 3.724976290574317367e-02 -9.478683073979626145e-03 1.918211922137375292e-01 3.100998968502147735e-01 -9.666181069182656167e-04 -1.349920634978430956e-01 1.336180509590425836e-01 1.733478492749386188e-02 -2.048453698670160417e-01 1.873680929971463863e-02 -1.990678419628549023e-01 -2.575827033905379870e-02 -8.074215527869873718e-03 5.100085048919923009e-02 3.727047407390263190e-02 8.026205432519470384e-02 5.144588186336795932e-02 6.330534109683713141e-03 -6.725560552288695898e-03 -1.025690373293279417e-01 -1.393321872473909095e-01 -7.016318869661486435e-02 4.462537175805262463e-02 4.760161721605478402e-02 9.977078563613149542e-02 -4.350430716900052786e-02 -1.048170406825473244e-01 -4.717631487446238142e-02 3.590517644732001828e-02 -1.203019372273501572e-02 -3.166552950521069748e-02 1.393598727848383845e-01 -9.681308846280006764e-02 -2.253445679076681030e-01 -5.760318569444675130e-02 -9.224770657042490052e-02 -1.036285069333721665e-01 9.134036078984300588e-02 5.700805910186366142e-03 -1.189981762662515735e-01 -9.549921695322188819e-02 -2.028671881803696952e-01 -1.014270833532831817e-01 2.717318508706145219e-01 -8.747564933335937390e-03 3.293098104703684470e-02 -3.004447168293517337e-02 3.477222107940868695e-02 6.639660179709296062e-02 -6.941390265641553259e-02 -5.565973970211653826e-02 2.096623002558150872e-01 -6.668211514579497345e-02 -6.147214765085524252e-02 -6.398422680704934223e-03 2.690240731762466586e-02 -1.016436241207695906e-02 1.266697919995703747e-01 2.366216762351248948e-02 -6.317388743105142694e-03 1.306421908671224485e-01 7.156562537082906961e-02 -1.492338005185747662e-01 2.330350383062708697e-01 2.040870182607475436e-01 3.064726646603700526e-03 5.685410034656211697e-02 1.324358749995839246e-01 4.752280319699260936e-05 7.303632711075139228e-02 2.416940115877405926e-01 -1.394426663579767245e-01 -2.361723171582299618e-03 1.991150050377685221e-02 1.614473433869544616e-01 9.221079429001619032e-02 -4.144850053542497442e-02 -1.096951384005799834e-01 -1.681040725373374733e-01 -1.145647504311240183e-01 4.706609465849369983e-03 8.208875534312294608e-02 9.427689487750379183e-02 -5.934703170904906400e-02 -4.157301910715539839e-02 3.031502561758278938e-03 1.071147349367117252e-02 1.303066405771984571e-01 5.275986119061412682e-02 -2.449205695788218284e-01 -1.255974666564217967e-01 1.515856210680109895e-01 -1.152223752613249635e-01 7.645226718269931832e-02 -7.733005648871864313e-02 -1.771017829619880510e-02 1.161977760242654534e-01 1.444301087739004452e-01 -4.102041344298225367e-02 -3.317320981442078293e-02 -1.488338062767166625e-01
7.331871013163142325e-02 5.367188449929492094e-02 1.972548968216164891e-02 1.404062867227040268e-01 -3.037067180953488543e-02 8.424142296742732905e-02 1.723029283584860127e-01 -1.984371980233854693e-01 -4.571295953273636636e-02 7.510457354223822046e-02 9.479677192306516786e-02 7.395285358996316061e-02 7.744408356150545014e-02 6.158959612770310843e-02 1.516704112046564912e-01 5.635016244184292561e-02 9.051711037684671834e-03 1.217085020577858383e-02 2.135239781285710320e-02 -1.159068740490754729e-01 9.914003583543505582e-02 -5.549322077621272192e-02 1.817997225703488762e-01 5.384942578794440528e-03 7.444744603741679234e-02 5.094851043723239853e-02 -7.080607242224414011e-02 1.142867660673840824e-01 1.654344040616368972e-01 2.040983396373523273e-02 -2.291356776407041732e-02 -1.696854896489700948e-02 -1.720234773453963584e-01 -6.123565026619585960e-02 2.096374194233890584e-02 1.560284624054721347e-01 9.617942949073510217e-02 -6.271898185528727854e-02 -4.500347311513932386e-02 1.123334324401988743e-01 -8.700673362991316606e-03 -5.320467269696220469e-02 8.607673178676816805e-02 6.097148115385842004e-02 -3.804144908749848564e-02 -1.885724760564407541e-03 -2.024407830520475737e-01 7.015534134759889018e-02 -6.376819774333224167e-02 -2.856276043933334563e-01 1.525065019092854968e-01 7.044589839122646080e-02 -7.559446737901226454e-02 -1.214707445633371324e-01 6.048139387474192608e-02 -1.388201222780894306e-01 1.040395681977890618e-01 6.164593126261552758e-02 -4.649028583014701288e-02 3.894494624580793762e-02 -8.100945881867143566e-03 6.922090750115045266e-02 -2.082685655089315177e-02 5.722699858897666719e-02 6.914678165905566165e-02 5.880370889597830858e-02 9.268098112338970379e-03 7.434741689214962798e-03 7.451750850670597892e-02 -6.200777536351818886e-02 1.362878462748880748e-01 -3.931063279455759840e-02 -2.953294259457355311e-02 1.174343126738718046e-01 4.401588718853535753e-02 -1.442390770198576609e-02 -7.409759899534371086e-02 4.347944760017519866e-02 8.997495051446745273e-02 -5.407707666943283899e-03 -1.023374204747963256e-01 1.386898839293828067e-01 -1.446577890035894431e-01 -1.445973566625267381e-01 9.605572244572284368e-02 -5.384676501725680492e-02 -5.591214930162773794e-02 -1.133174404237560357e-01 2.319858010071466636e-01 1.105682406758254355e-02 5.830425776575295232e-02 4.932940773376739974e-02 9.972101846133389624e-02 9.820665960719505982e-02 7.324240097548762041e-02 1.395057090163646235e-02 -2.916419863518445940e-02 -1.769891079503554954e-01 -8.910698175986661584e-02 -4.827745134766465995e-02 1.646669369033122166e-01 5.929400311945111357e-02 -3.406923438779304453e-02 -1.039387231190335159e-01 -2.877679216115915928e-01 1.200065101029877818e-01 -5.892289865101497937e-02 -4.484650062040593244e-02 1.315739679080687313e-02 -1.723102208152385850e-01 -4.470562943850555498e-02 2.458985576957525288e-01 8.749685772248647075e-02 4.235869368412315678e-02 -2.063266003568544893e-01 1.705152042339797280e-01 -1.131052878803506800e-01 1.923901817205080911e-01 -2.118682321787372647e-01 1.766243088269733863e-01 1.618118371658086585e-01 -4.173322521182903921e-02 4.310626463683658177e-02 -1.129612935389704212e-02 -8.678278547115413077e-02 -1.489187476583596348e-01 -1.232392490282169240e-01 6.963463351905654908e-02
4.878602671935283047e-02 -5.657357241489775063e-02 9.504712672710080579e-02 4.420897439140988178e-02 -2.223091614406490502e-01 -8.060076839667559834e-02 2.787602353453354220e-02 2.539788962166393826e-01 1.063066653726636203e-02 1.119917041004366148e-01 2.328811071346356121e-01 -8.363846215617953828e-02 3.338450496266732320e-02 -2.075018363218215367e-01 1.633932594600935317e-01 -8.603967998420462837e-02 -1.730366642474953642e-02 3.184796483538344936e-02 4.619695940564726849e-02 -1.960066279048843507e-01 -7.724023384509796919e-02 -5.674779960982716948e-02 3.433249052768225923e-02 -3.507657352856997923e-02 -1.627354456766439694e-01 -7.723376057986007515e-02 -3.154145825888247934e-02 2.902517597590538109e-02 3.512839789432899151e-02 -9.622214745169678507e-02 -2.528822327538787426e-02 -7.500719249407261646e-02 -8.810439762900536265e-02 -1.070091786840682846e-01 -4.523152881028571354e-02 1.296891669597292351e-01 -9.421268949399003167e-02 -1.472654895520338625e-01 -2.722846488411684307e-02 -1.267554190031756900e-01 6.745554603106168612e-02 -7.223732282698536178e-02 -1.153999498211018271e-02 9.569719012670022118e-02 -1.765923001821481653e-01 -1.979917781091598480e-02 1.304775959715032130e-01 1.313893234998646633e-03 8.964897627069438879e-02 -1.371574651309620356e-02 1.153680646086340106e-01 -7.631577201343718586e-02 1.229586377587699175e-01 1.349662469960443215e-02 -4.186504452287910516e-02 -1.368127966395887296e-01 -1.680820696273687964e-01 1.496139636951631935e-01 -2.601660786829608218e-01 1.311660133117471261e-01 -4.716598486604409168e-02 -7.115142689269314535e-02 6.832112853160519916e-02 -3.823647769934907653e-02 -7.583919566136006728e-03 -3.195665274982197046e-02 1.175677917054400723e-01 -5.762115144903590114e-02 3.004970433495859211e-02 6.940100605864220340e-02 -6.014293438391150187e-02 2.653975705259382645e-01 1.099103672276367516e-01 2.729661898066724213e-01 1.670603621196168342e-01 -1.935094219364378101e-02 -4.021631363663464437e-02 2.695361093854775278e-02 -2.317827798794996896e-01 1.453752129462637308e-02 1.263772734019994182e-01 2.353142547579313848e-01 -7.727718829782020959e-02 9.412633398673131077e-03 -1.255943241152571166e-01 -1.158725049029360743e-01 -4.440002249737778905e-02 7.348769488478029688e-02 4.794256053349026103e-02 9.863256393438582514e-02 1.028163883700218273e-01 3.449748081473429789e-02 1.099005890915020628e-01 1.073420544889455014e-01 -5.109261812322631047e-02 1.796338108608233342e-01 -1.808428206799459759e-01 1.320215793660043380e-01 -5.529100337973939794e-02 -2.808905183520952684e-02 1.473731870931846988e-01 7.706225335622352533e-03 8.808670095073030393e-02 1.816065789891135596e-01 7.632996127504508566e-02 1.379073628291019316e-01 -3.321065293728382717e-02 -8.209882269614044575e-04 -5.424771863712286174e-02 5.840786692963215870e-02 1.162226629558013313e-01 -5.104563963519612863e-02 4.995695530485701891e-02 1.252053362063208219e-01 -1.206219493727987875e-02 -2.385544511830287734e-02 1.261576251244482527e-01 -2.003986744598694469e-01 6.237093198109440462e-02 -5.677327081363103128e-02 -4.692223621455607341e-02 1.281995865954411451e-01 -1.392264210490850862e-01 3.570379033500050703e-01 1.738836701244539026e-02 -9.457250622082437330e-02 2.631913101490614970e-01 6.904953290928800280e-02
9.448603931628804520e-02 -2.109754632468121074e-02 1.150864160179392581e-01 -1.523483760717168622e-01 -1.778766382978411165e-01 -3.436323767553672165e-02 -1.058943132779786855e-02 -1.341751154751742725e-01 1.659508715014949287e-01 -2.038100738202071049e-01 -2.336908293095559253e-01 -1.174546157546392244e-01 -1.112558043557999587e-01 -1.592542068288475277e-01 6.255442261716763486e-02 -1.767074781842266351e-02 -2.754289581371785825e-02 5.689370013103759588e-02 4.792943731626136961e-02 9.764722587294247247e-02 -1.361458953065639854e-01 -2.474070468395236227e-02 8.155267855163558788e-02 -2.492603066868508133e-01 -1.659318682083543717e-01 1.925337161529183105e-01 -4.480334297380544895e-02 7.342605326961718082e-02 -5.501765410006128482e-03 -1.478401277630075616e-01 8.667033294631473761e-02 1.742732406502349174e-01 1.691172052669649706e-02 -1.152436469547810927e-01 1.656184762838385782e-01 4.512653642437085277e-02 4.613526211892093887e-02 8.974646568444495653e-02 -3.165574141644459383e-01 8.998360853398877646e-02 2.136183691275511665e-01 4.759895378292107460e-02 9.901681724945493590e-02 1.275507086659604383e-01 1.792356838337778174e-02 2.593254212423323213e-01 2.952231598780638610e-04 -7.858343692888863918e-02 -8.003848988877977633e-02 1.216799806689274760e-02 -1.236059289547715712e-01 -1.067011070208118972e-01 1.902699861893033806e-01 7.540956636562427817e-02 2.283598881002711981e-02 -1.154109117250608774e-01 -1.531073730701196789e-01 -6.555450294843581660e-02 -2.335037093693991678e-02 7.777502200829738976e-02 7.147389244048128754e-02 4.165044740134630358e-03 1.403753625480598233e-01 -4.923011884751211237e-02 4.929823527542257638e-02 -3.043503894071608595e-02 -1.135326174280690270e-01 4.705256644521994824e-02 -3.051510380412697163e-02 -4.059351056776518835e-02 4.364794433267610296e-02 2.517826042760893529e-02 -1.329474872106451268e-03 -1.662917527711442744e-01 -1.300463071281455218e-01 4.135592767849931295e-02 5.804344420692082729e-02 4.028170465684526719e-02 2.051610920680610739e-01 2.711846811861959305e-01 3.541990892273620961e-01 -1.040384216365685954e-01 -9.988487960953681966e-02 -1.130281350159277609e-01 -5.667160573513901206e-02 2.361122162497279048e-02 -2.174123561315095543e-01 1.682473671245539593e-01 -2.379415967066598331e-02 -2.911926662265067536e-02 -5.366360153126656374e-02 5.648920803481954911e-02 5.276211267810502342e-02 2.472548841233776148e-02 3.390592559424304014e-02 -6.010714841100314038e-02 -8.958157604108271665e-02 2.564386242884434883e-03 -4.565599854662288209e-02 -2.407231040039348700e-03 1.195556946002770612e-02 -1.528194174007081740e-01 -8.538528193242145292e-02 1.998708478854094861e-01 -8.677268544708274800e-02 -2.680723350623315793e-01 8.119222703555292742e-02 2.382001920220386260e-02 9.101641443246341265e-03 -4.153546328137788790e-02 7.770630225737272523e-02 -1.223318712522296486e-01 6.114601067020361547e-02 -3.820467497866306822e-02 2.046406376539162617e-02 2.311131963047318993e-01 4.772028273174891422e-02 2.229995508573750507e-01 -2.713841001500694530e-02 7.648594039838149672e-02 -1.653696039240813986e-01 5.665603955781684659e-02 -1.597281004856513087e-01 2.793648132665697004e-01 -1.340729414718420595e-02 2.686487343172508022e-02 8.125055835478584010e-02 -1.270264844821700212e-01
-1.501114861824081881e-01 -5.110404635801098217e-02 1.419086767486748835e-01 -3.103344575142386041e-02 2.617103083359325066e-01 -7.255837308769789995e-02 7.804979625024845158e-02 -2.717017582429498770e-02 -4.021223660126201777e-02 1.348680591178465227e-01 -8.790267126886193438e-02 -1.481850695934402128e-02 -5.546543830774838812e-02 8.126604516783787757e-02 4.264313481651511861e-02 5.245640562640823019e-03 4.115237752146786582e-02 5.862208547203531100e-02 1.751956486713307157e-02 1.546265224797110371e-01 2.749016602562844372e-02 -2.210166277718851602e-02 -6.190253202189975601e-02 1.840884665552949134e-02 1.694558847719969397e-01 -1.102535011070813614e-01 -1.008029535012277406e-01 1.171352570487049910e-01 7.207443033642802095e-03 8.757301434092423786e-03 1.494351290093970559e-02 -8.151145980660159940e-02 1.019069530434383447e-01 -9.838308469600902384e-02 -9.143374018048988638e-02 -3.137135524898818084e-02 -1.618400805962480205e-01 -1.175584936547561798e-01 1.999209114265220466e-01 7.899426485707232437e-02 -1.696276257388937975e-02 1.219106649457684793e-01 -9.707456204828135427e-02 1.278160638863747684e-03 1.056090797899409198e-02 2.032661255588975868e-02 5.138292674007045868e-02 -2.521451971410052506e-01 -1.461599269891143138e-01 5.459347297597284127e-02 1.099459104251697752e-02 2.596741205400471264e-01 8.878112273002855548e-02 5.580818806186658293e-02 -1.570176824883159628e-01 -1.179976268641472030e-02 5.622975206982684659e-02 1.127783630127802417e-01 2.436246110363353146e-01 1.049196616159838863e-01 -1.647034646606911068e-01 1.285839114607064959e-01 -9.645222364033993745e-02 -4.134349239451413222e-02 8.023989775904553923e-02 -1.484376928601990886e-02 -1.303336396308459877e-01 -1.606951445283333335e-01 -1.807111105621504732e-01 4.726642800962761737e-02 9.820211450239667295e-02 -1.001568102775354623e-02 -4.943173864905302944e-02 -1.474930634511691097e-01 8.535587362234814401e-02 2.210591340790395987e-01 -1.624580081807407428e-01 -1.006087055327642421e-02 -4.258609393129462323e-02 -3.628156515941591276e-02 2.270302364928979480e-02 1.262581681969584257e-01 1.008597286860103692e-01 6.510459895642677075e-02 -7.257490872682852145e-02 -6.173846980640905480e-03 -6.855292316224673166e-02 1.493033592754747507e-01 -4.520752423050537587e-03 -4.430411913678997116e-02 -2.632414762471606620e-02 9.164008312338098317e-02 -1.801705515073135366e-01 1.386324151675712990e-01 1.564762569462989708e-02 -1.003860821385188368e-01 4.427483187411181131e-02 3.909786775182820528e-02 -6.337908087173746430e-02 -3.138866338397344052e-02 -1.805623330611041688e-01 7.866260717153934767e-02 -5.337595712141418591e-02 -1.087108746709693763e-01 -1.796641306232099958e-02 1.279240187482206248e-01 -5.208096879069134058e-03 -6.081012569516899835e-02 3.846984774148317493e-02 1.531560696380812325e-01 -1.602049587603559533e-01 6.397400232572313106e-03 -5.013507332468411515e-02 1.242685889739371941e-01 1.728316826296341646e-01 -8.061385425069339528e-02 -3.075559850804623352e-01 8.221335405600541102e-02 -8.362632370358427658e-02 -1.315706190950649279e-01 1.150003885866922593e-01 -1.353637994829817448e-01 1.417111192434618028e-01 6.251427957936213364e-02 5.524551851947218789e-02 4.330255320203874048e-02 -2.203060708336029572e-01 -2.005442951375100147e-01
-1.791328475145967034e-02 5.613303450076575357e-02 1.600083743004716563e-01 -7.935279261503530579e-02 -3.784516279247281401e-01 3.578646550284371175e-01 -2.249481555087090301e-01 6.963219651932218701e-01 -1.705836555007425592e-01 -1.522219781028941454e-01 1.868102143710037577e-01 2.228508718277022460e-01 -3.305752197403893922e-01 1.160850050529445288e-01 4.861720446325128175e-02 7.035404756811003413e-02 6.780204193920892630e-02 5.110978618002585960e-02 4.746074291826087033e-02 2.174798839756141855e-01 4.087260715809706152e-02 -1.230939699518784208e-02 1.008297238300120968e-01 3.051708110396667353e-02 1.368647627066347794e-01 -4.252193118430711016e-01 -2.692314405582038606e-01 2.736660597318932853e-01 2.579243909626832698e-01 2.234190277303526317e-01 -9.146084692364968294e-02 2.995673966825058154e-01 -2.102286511122389637e-02 8.665112024086966958e-02 1.282412682924201908e-01 -3.891749191285942284e-03 -1.870589876731133527e-01 -7.997392324652773110e-02 4.780585419671534719e-02 -6.622382341799529226e-02 -1.387137001988973939e-01 2.170544002332280287e-01 2.465725867887498812e-01 -1.428000691763331720e-01 -3.491810638147557766e-01 1.462601773412140205e-01 7.941759755954293232e-02 -3.331436417739365441e-02 8.336833502661591955e-02 5.675246202349498725e-02 1.195125814879961640e-01 -8.750303783294903492e-02 -5.595391150816600434e-02 -1.048230425518359293e-01 1.345424058930990568e-02 1.396426693731715914e-02 -1.936277092260132449e-01 -1.366365683946830500e-01 2.509599829402647808e-01 -9.635174712274310882e-02 -6.350426299697189969e-02 -4.434707833532922083e-02 -5.229874952692784712e-02 4.651866534288839200e-02 -1.597671387048722746e-02 -2.809243311950448616e-02 2.225339948462312367e-01 5.152868846923820412e-01 4.916949232900703071e-01 7.280620107881309588e-02 1.265787764821099948e-01 1.869184219803641800e-01 -1.200388627603146130e-01 -3.495846775289820213e-02 3.376307547274107895e-02 -1.002126006843775778e-02 -1.434465538103737309e-02 -1.764941939558774819e-01 1.248800701292423765e-01 -6.402986348813820977e-03 1.968163138840204884e-01 -2.231398131298660270e-01 -2.123945724104191746e-01 -2.429280373268107862e-01 1.966253183826380257e-01 -2.031706647235045904e-01 3.199913043634769472e-02 1.592071075172016015e-01 9.257626243228352092e-02 -1.501407959786708324e-01 1.362508240432480089e-01 -6.962202364608346787e-03 -1.174577201852729756e-02 -4.046513100428475451e-02 1.279812020628021962e-01 -1.023112718467141108e-01 4.008856791041211926e-02 -3.157850785252896281e-02 -1.361075334101085055e-01 2.420211511608532859e-02 1.524525366122796155e-01 4.537601231544370894e-01 1.007284130201201167e-01 2.143581747724741110e-02 1.241201173886372494e-01 4.961301461587003803e-01 1.918770504828194376e-02 -1.006365521678550395e-01 -1.922938279573610867e-02 2.368550837191950309e-01 -1.769073429238891826e-01 3.111445478771367179e-02 9.331547878462839729e-02 5.468306247402924397e-02 -2.154287943064184530e-01 1.921475029198241660e-02 2.775443304187506510e-01 2.079097545195742192e-01 -1.803377713432845475e-01 2.028036131249148777e-01 -6.147849456765246134e-02 4.677260071767794791e-01 -2.470094372227425172e-01 9.383213545414015311e-02 2.353461605601062101e-01 -2.256282870308170818e-01 -6.573529495476275464e-02 1.280090714956403919e-01
-5.490836159218067669e-01 -1.508907105226270926e-03 -5.780669079493100382e-02 -4.826360433511596437e-02 1.853946144519378891e-01 5.086958651622494054e-01 -1.391975935008074039e-01 3.175123946768987904e-01 7.824213379162743565e-02 3.951672257478290873e-01 3.727411281970956919e-02 1.517591768622630344e-01 3.455513989613039072e-02 -1.267119717436055726e-01 -2.383700827498867747e-01 2.221399842911313954e-02 -9.390864574473595239e-02 8.489390993595408164e-02 -1.661863397269410514e-01 -2.903132143512802271e-02 3.800348716864186405e-01 1.249512000963009205e-02 -2.273837443520899948e-02 -1.453787640841731899e-01 3.791078238602098027e-01 -1.779958337685831962e-02 -1.713067768802708224e-01 1.282744253778859977e-01 -2.782528929029164377e-01 -1.063419363973927834e-01 1.652472260140479543e-01 -1.680417988230391568e-01 -8.319835800414104865e-02 -9.350334715767567861e-02 1.936449051440600200e-02 -2.744624765100092678e-01 1.515324057092574950e-01 8.009088444619731628e-02 2.997228986378791538e-02 -1.002023861596544052e-01 8.212386034021522049e-03 -3.028178378133765045e-02 -7.696949564847806180e-02 -1.181904541536282216e-01 2.534608886818873197e-01 -3.494706855288153696e-02 -1.998198229394306663e-02 -1.575393409821140567e-01 1.645374539070181830e-01 3.431549401244584074e-01 2.381045290338625053e-01 1.047709782999017153e-01 -2.984210582406048307e-01 -2.186990878907987389e-03 1.178173826040444655e-01 -1.517055550640830641e-01 -4.447839377655618022e-03 1.702570152241791313e-01 6.093486353828763552e-02 -5.061844031194259047e-02 1.881615918467331172e-01 1.251364909099189349e-01 -1.789288576152668619e-01 -1.092502479108227315e-01 3.732213940648331230e-01 5.261205958025020474e-02 -2.351260494292091718e-01 -1.090485034687146415e-01 2.447814974784919689e-02 -1.151088388320371386e-01 -3.453625268479539878e-01 -1.132245385553110745e-01 1.149684005395909397e-01 -1.914011898104631820e-02 1.435651052120997043e-02 -6.926671812683521390e-02 9.982849639192398206e-02 -2.975012491627078148e-01 1.320479681948634187e-01 1.090242096453727660e-01 -3.507958400594049508e-01 -5.285093392472148266e-02 2.756665493407743986e-02 -1.669356721010503974e-01 -1.566051712765820485e-03 -2.826019396972945796e-01 9.573406804491393918e-02 3.193334299487003008e-02 4.693140785325229658e-02 -6.826041883204028715e-02 2.485735553487555816e-02 2.507510439470045926e-01 -1.225143543250541700e-01 1.260371359997284058e-01 -1.649216974417132275e-01 1.412056356078308927e-01 -3.979974718164911579e-02 2.435029960687865869e-01 -3.148763595016664252e-01 3.507580411210324267e-01 -1.732159078007723396e-01 2.939133580836193471e-01 1.577687116877702841e-02 2.179675096705712724e-04 4.040197412832324253e-01 -3.035838205797852241e-01 3.027368943876065921e-02 9.106456722299703654e-02 -1.349165665361723443e-03 -2.680672961699051907e-02 -9.350114583124087553e-02 -3.414983816049187437e-01 9.821137265098906985e-03 6.379638526290923317e-02 3.272486550733282040e-02 -3.786345302515854022e-02 -9.217434486703550423e-02 -1.175398485214372395e-02 1.065056887305380479e-01 -2.095273032803057212e-01 5.035051646464072835e-03 2.611171489090610698e-01 1.630369757795400443e-01 2.050548884502287339e-01 5.047774973066863069e-01 -3.652461292737400056e-01 5.783142186454166556e-01 9.747886657327711757e-02
3.057504644661462878e-01 -1.647961417359164737e-01 -5.967174888455702847e-02 7.528339771996990851e-03 1.377662021553254131e-02 3.501590398122494951e-01 9.670026746570463405e-03 3.901754715119352679e-01 1.039409337148932411e-01 1.546825175417907705e-01 6.918929315404689917e-02 -7.744136186274548639e-02 -3.418859329364817845e-02 1.225105681038996808e-01 1.904981570857430806e-01 1.714646421988135216e-01 -8.456178506611981838e-02 -8.705928015431814437e-02 9.086567989473103013e-02 -8.130019462117966944e-02 1.842633108506719908e-01 1.434803276601383237e-01 7.606615285029921791e-02 -1.028000667001663787e-01 -3.658088783066940075e-02 3.184867290559510455e-01 1.232963675737459158e-02 5.725634751546953005e-01 -1.503474239776038668e-01 -5.504957313733029045e-02 -1.728795166776584957e-01 -1.846942542695017286e-01 -3.104466168885069433e-01 -9.880837040661802351e-02 2.390805617934686766e-02 -1.119954805458059227e-01 3.157504669324950192e-02 -2.035722726830415108e-01 7.078283399356614936e-02 1.826791121027848130e-01 -1.071989506572159079e-01 1.480409988950859013e-01 -7.113008729158773816e-03 1.828967121733735546e-01 2.179839267792250401e-01 -2.828973029174149389e-01 5.774539023418635494e-03 1.103400646636765875e-01 -5.885731574518738435e-02 -6.641293800907428768e-02 2.868200903232888677e-01 -6.739700077625687680e-02 7.984006925211397168e-03 3.230625094816863552e-02 4.340072233243599809e-02 -3.671265810253734191e-02 6.036736038438108437e-02 4.328376214999939825e-02 6.794772746624809512e-02 -1.117048559327966650e-01 -9.119123314192056906e-02 -1.489497404397990138e-02 2.828018019679418753e-04 -5.745940694368299739e-02 -9.226728903330960740e-02 -1.498314529110522653e-01 2.168936103069799698e-02 2.360679390815125789e-01 -1.892996853403434432e-01 -4.383161543184577180e-02 8.347158128610566996e-02 -7.200801439223372680e-02 1.323556511699696125e-01 1.483119074668433303e-03 2.217215768562653261e-02 8.664386489756948154e-03 1.923515769141324327e-01 1.682526345290437653e-01 -3.413245578991359191e-02 -1.161681590805591080e-01 -1.050465819322653760e-01 -2.912004930483565457e-01 4.428887282118050550e-03 -2.312754728178469110e-01 -8.411732738980893728e-03 -1.872041690437299677e-01 -6.932598199976784670e-02 -1.269881345725326349e-01 7.366920495941006730e-02 9.225845215201800009e-02 -1.091098846770912657e-02 -8.998605661215643148e-02 9.755508937161459782e-02 6.356010263794248383e-02 2.746517125932923520e-02 -1.886127375452708033e-01 7.086821690186777267e-02 -7.844640381301364040e-02 -3.120170734356306208e-01 7.825866692324556784e-02 -7.223136800991102058e-02 3.316140220850937181e-01 -1.616410361303085436e-02 1.009698255075138218e-01 -4.528274668976243339e-02 -1.022064245035036734e-01 -1.538947870765187964e-02 1.059806294933774568e-01 2.590619396111430608e-04 -2.591085315330254185e-02 1.097483824739742403e-01 -2.131200937175625754e-01 -6.988952179229333816e-02 1.595342273631907559e-01 5.167921907690767314e-02 -3.007777876498187244e-02 -2.135091860796953234e-01 1.622535550867939824e-01 1.166327020224269956e-01 1.117446026255488611e-01 -1.212290439858832447e-01 1.314485172565646176e-01 -8.545980424868561409e-02 -6.168899951637461798e-03 9.264465725811561747e-02 1.054997094148729803e-01 -2.271842324278502273e-02 1.606525487158730059e-01
-1.477373628649889803e-01 7.301835311296143993e-02 -2.039369135814782796e-01 3.814647015380313866e-02 -1.060445156463451361e-01 1.092171479203909168e-01 3.090114452419512152e-03 -2.912363527207263714e-02 -1.021480320038038597e-01 -1.150802365733554489e-01 3.264417867379693083e-02 5.793897080541392935e-02 2.671664136466174733e-01 9.131864363488052805e-02 8.833568466913105377e-02 -1.520709674124990918e-01 -1.460039461926628812e-01 -3.569885690886827334e-02 -1.174075814730685258e-01 1.486214213064658007e-01 -6.323482327147711413e-02 1.122351508413915733e-01 1.623756020785906973e-01 1.305584388281859874e-02 4.566822691810882434e-02 -9.899462571216342821e-03 6.694604339952239802e-02 4.514600347824029858e-02 -3.675846134853410531e-03 5.094531281616889590e-02 1.750181019869747612e-01 8.610116930369862698e-02 1.340747990054212864e-02 -3.514901226035793691e-02 -9.374806533665482056e-02 -5.397417888169085687e-02 3.119085601378600650e-02 -1.521948713945163734e-01 -8.055985339733412465e-02 1.281423954234685858e-01 1.931634057850828423e-01 -1.654570229775002843e-01 1.491576071921652535e-01 2.149230603808719407e-03 -1.961973478517189950e-02 -2.558056291068943819e-02 1.105069334812900789e-01 -1.570602451985489423e-01 3.153161472499978191e-02 -1.214664683389520966e-01 7.479640354652557221e-02 1.594304989588171129e-01 -1.365330455833534302e-02 3.741550859708025339e-02 3.515625978716357958e-02 -8.791437766025642087e-02 1.642866093499197877e-01 1.706468247260989057e-01 5.731663004329166228e-02 6.920929533544533351e-03 -1.824191081532985925e-02 -9.979848021625778443e-02 1.864168308903073334e-01 1.358364749700698149e-01 -7.413303707439574362e-03 -1.578336589152098401e-01 -2.547505939940502562e-01 -9.421808895870587008e-02 -3.083293305563141601e-02 1.355919652391430197e-01 -7.040732901219433348e-02 5.050420939472421988e-02 1.353246192689908922e-01 4.218542039813179267e-02 -1.580494334785550320e-02 -1.308989670647758286e-01 -1.275070185723004845e-01 3.962923663515188072e-02 -1.732032868912723733e-02 1.783229000108057724e-02 -1.301916010519688083e-02 2.939641569417592373e-02 -7.846874114294452585e-02 -2.906244479730949598e-02 1.896182228633144229e-01 -8.343418225747027683e-02 -3.075701071191144775e-02 -5.729122746235589675e-02 4.606001288175019803e-02 1.029310134543954258e-01 -5.451318926645472990e-02 -4.324784499936080301e-02 -5.575409982080090782e-03 4.951704231384429500e-02 -7.393953025101954180e-02 -4.479313510661543651e-02 -2.372193871513015306e-01 -1.048325784530331345e-01 -4.210946157150752961e-02 9.756760754986479323e-02 4.708015346564582704e-02 -1.485386853314100419e-01 -1.405094196501419090e-01 1.737718400239134792e-02 -1.907911074473505331e-01 1.218249208431824576e-01 5.979165116740487763e-03 -1.607320159234058021e-01 -9.673641892439585610e-02 -7.546290483274359362e-02 -9.269049023029443668e-02 -1.310196012139202004e-01 -6.010608780543018337e-02 -6.668136541393338002e-02 -8.940148362503119728e-02 1.279281380599485152e-01 9.988589912912550217e-03 -9.805771657502790339e-02 -3.363029131554880202e-02 -3.836959207483740114e-02 -2.977958324715922547e-02 1.160588856632080446e-01 3.032132116625908119e-02 2.190869732833468364e-01 4.744426520562262939e-02 -8.939710832728210710e-02 1.347624782265121474e-02 1.076944789031106242e-01
-7.749800708960830065e-02 -1.091937459095032592e-01 3.539187105361226576e-02 1.143850521090038763e-01 -4.213143493504374337e-01 2.804035398458699230e-02 -1.664831022204194544e-01 -1.967333566568025757e-02 -1.034289018482441869e-01 6.170715379270193257e-02 1.010589219402689837e-01 -6.134909466004145884e-02 -2.998278250566437375e-01 -3.333712719730404922e-02 -6.325824747624457511e-02 1.010972620179534237e-01 3.282585994673078295e-02 -1.478234782702376737e-01 -4.653986485468764728e-02 1.070697349576433116e-01 -1.251125007158612190e-01 2.695148964507715905e-01 -8.624341127229546988e-02 4.823388244915453871e-02 -2.328629918926519715e-01 9.103455806515538262e-02 1.106828272906088817e-01 -8.475158924286694054e-03 1.746130247226980459e-02 1.045049772096922486e-01 -1.021385380983040776e-02 -1.118338774026655796e-01 -1.000731850957162355e-01 1.543783011171447617e-01 -2.084058957733096393e-02 1.178375457408848553e-01 -8.462228769766730330e-02 -4.756012616486158390e-02 -1.050805323566369881e-01 -2.128573916015644163e-01 1.392416213428953053e-01 -9.056251667972220476e-03 1.187133554980971811e-01 -1.877488096983605465e-03 2.871004317167960007e-01 -9.993459071942839556e-02 6.991638812187433993e-02 -5.255781822256887226e-02 -3.403406040557138690e-02 9.271646636012119413e-02 2.438947948549369527e-01 -4.966451220155289337e-02 -8.224186276877080981e-02 -1.169095747322027173e-01 2.944868124915268059e-01 5.462076652983698793e-02 -1.838489793430263530e-01 1.409952138396146359e-01 -1.886490171545199823e-01 8.122169353268197944e-02 1.253102902422075469e-02 -1.818393019708312852e-02 -1.118107782189358274e-01 -1.504789167137828357e-02 -2.543600410474883278e-01 6.514810855590497107e-02 -2.568339703914690811e-02 2.438539194332894899e-01 -2.693095114020233605e-01 -1.139617863619232924e-01 7.222546760307886615e-02 5.833531469236213213e-02 3.412459424676293762e-02 -2.884629175625408673e-02 6.172440427235263011e-02 1.153065570241900289e-01 9.505427037729767114e-04 -1.912176770382986030e-02 -3.547149881412740013e-01 1.090084451199103445e-02 8.095238805386834047e-02 -4.645822598413343330e-02 3.327982174044547686e-02 7.873734375493034177e-02 5.050236888857966705e-02 -2.336237795478559309e-01 -1.487435564579888680e-01 3.670538092166685668e-02 -1.801228516659497403e-01 5.894062197065694925e-02 4.511876901389230005e-02 -9.279390898766226581e-02 -2.008904455500181568e-02 -3.277475039957843117e-02 -3.659729291624690128e-03 -8.702770232081510904e-02 4.195241084261415454e-02 1.378442464608433116e-01 1.261567505354553760e-02 2.351436901076857378e-01 -2.694808678596524818e-03 3.083702231155156515e-01 5.724974600564725069e-02 -2.570779214897039519e-02 9.646085956866394528e-02 1.031328925249015184e-02 -1.321525138444276659e-01 -9.733759675567485448e-02 2.304450475905874332e-02 8.200198633290221167e-03 -2.648093638580227907e-02 -2.265250845918537204e-02 7.043454032911887486e-02 -6.977519342967220331e-03 -1.516394647613019189e-02 3.231693238415634939e-01 1.420107602806332248e-01 -1.951731206077743364e-02 2.297785401691376794e-01 1.145783895751082554e-01 1.103024857314447715e-01 3.119118531979897177e-02 -1.350542966867910866e-01 -1.920568648372085810e-02 9.760150568431270879e-02 4.365894036103733916e-02 1.834498870929149594e-01 -3.195837050426355783e-03
-5.362419988223716266e-02 -4.845292775577726349e-03 -2.515083622864596261e-02 3.522589130732077089e-03 1.629872629049446964e-01 -1.317601020952902102e-02 6.447986011636848425e-02 -1.434674213448924596e-01 -4.570350062985705647e-02 7.997168693970850561e-02 -3.007799238739670630e-02 1.676985638808475010e-01 -1.382804299709731836e-02 -2.348819147486868805e-02 3.551813163409265478e-02 -5.141022045053419975e-02 2.978648528951299140e-02 -1.038176354476556644e-02 -1.939648677918272557e-01 5.056226134758112084e-02 5.028696934753603548e-02 1.073659241377520612e-01 1.998457519313976138e-01 -1.624763687578125171e-01 1.150740451042448903e-01 1.642471137320674138e-02 -4.844189110353158689e-02 3.146076759547643265e-02 2.881523433667726800e-02 -1.681373882669406350e-01 9.986093966520018239e-02 -7.970935073838744667e-02 -2.794323812641948818e-02 -1.544617408080754539e-01 -4.593451051288444803e-02 1.060292011427155928e-02 4.237406763178672153e-02 7.887935829589422243e-02 -1.665685424908442958e-01 8.850058607392660703e-02 -2.408016679727737613e-02 4.484749467939277978e-02 8.979786799392198982e-02 1.337637622144317862e-01 2.406501828566937617e-01 9.862114091732221421e-02 3.561646308745552297e-02 -1.192765752479114927e-01 1.645697006809686558e-01 -9.985591090686540827e-02 -1.633142711501239519e-01 8.536720148634581451e-02 -7.543585256963815378e-02 7.807672544839458495e-02 3.389198806608682141e-02 -1.787263366481692817e-01 -2.845533131043326835e-01 -1.094722335701159843e-01 -2.449012691817833293e-02 -1.283964365443777678e-01 1.733809564559279578e-02 -6.955241622136724977e-02 3.303885834814331707e-02 2.505300418995586292e-03 4.548143292745081040e-04 1.411193355048177833e-01 1.162055840043633714e-01 4.176877558848094557e-02 -1.852707004131571022e-01 -1.250598085401635473e-01 -1.405326399798014804e-02 -6.287935564500375663e-02 -5.362790054327873368e-02 7.650819651192053428e-02 4.961704350429189253e-02 1.308190538253153068e-01 -5.266032947714379547e-02 1.063193726149938290e-01 -2.910071799738549875e-02 1.602390741412619557e-01 -1.071467467299877172e-03 -1.008211115448007789e-01 -1.631219507653532963e-01 -4.121324051029744140e-02 -2.583656261242161037e-02 3.438280181822939846e-02 -3.879009977416560009e-04 -8.474204132634838293e-02 1.034343335073402287e-01 -2.301145422726156090e-02 -4.463361027768167344e-02 4.293277522093667115e-02 -1.853447688124204226e-02 1.126969121316585415e-01 -5.969171117831944401e-02 1.815341921850373297e-02 1.518952737333574034e-02 -4.164442756207161617e-02 -3.504480304521827294e-02 8.667659552236786635e-02 5.838755061004822361e-02 -1.076983071066190019e-02 -6.392056091421738362e-02 8.243374966163184714e-02 9.824678209779122429e-02 5.489623699759382108e-02 -7.394875486929246289e-02 -1.724585966814570423e-02 6.331182262561171892e-02 -7.598530822709319288e-02 -7.779799908347177426e-03 1.673768241339267382e-01 2.009546718607866933e-01 1.400114882041534337e-01 5.471170784734088327e-02 -1.703777446146978458e-01 1.282913246219820336e-02 -3.161853523117313935e-02 -1.057187059693622533e-01 -1.254731502767120199e-01 1.161394358325028124e-02 -2.169124144304312302e-02 -5.174615390108085883e-02 1.023361809410970949e-02 3.145383150009133794e-02 5.158371442073154262e-02 -2.841120113048957452e-02 -6.055853633208121978e-02
-3.112502395192111027e-01 3.159414965741369485e-02 -1.635991765539085430e-01 -1.940361798963918250e-01 -6.378340865578092933e-02 5.474703321814161291e-03 1.102718108623399612e-01 3.603890082700747510e-01 5.704003280345183724e-02 1.300936720893118015e-01 1.519455918325247901e-01 1.300846870509549946e-01 -2.351410002741234906e-01 3.538296802752684961e-02 4.387608007933414822e-02 -2.969395000912624510e-02 2.694182952446137411e-02 1.023756914680615665e-01 1.967746184454734482e-01 1.659029163017844699e-01 3.422024352593833890e-02 -2.373512287532497378e-01 -2.382526144447003058e-02 -1.282827931719270897e-01 4.202817875485714144e-02 -2.222849869608422291e-01 4.375649999618771296e-02 -1.504193752854544319e-01 -3.180875148399051056e-02 1.004828835289175160e-01 2.438374492452445585e-01 -7.294726427025693960e-02 1.661069049771514983e-01 -1.799125444175617150e-01 -8.458670101052612189e-02 1.509561383314138583e-01 -1.414323446257546857e-01 1.288524107286405374e-01 -1.165138088388161935e-01 -8.112988192245481484e-03 -2.781392451532203047e-01 -8.261402057783973074e-02 6.203541933855348522e-02 2.796720261723301126e-02 -6.200984432371948671e-03 -1.399493703879758355e-01 8.734702810508968018e-02 -1.021727659396382132e-01 2.581268214431590713e-01 3.729394904780736902e-02 1.802950513072624772e-01 -8.333737516031616832e-02 -2.702808883210083279e-01 -7.097851001194992182e-02 -3.958484241862991054e-02 1.951463639270840933e-01 1.485551748046690101e-01 7.722102907187713972e-02 5.183491860562021436e-02 4.173756678112509888e-02 4.163106253869477968e-01 2.191488190761700927e-01 -5.291327960206437114e-03 1.417333258290083726e-02 6.350219003916227067e-02 1.217494032426967299e-01 -7.426800364249495912e-02 -9.050639237609308177e-03 -2.686745876483638829e-01 1.056242738505566575e-01 3.402368831703934116e-01 -7.752196004895579862e-02 8.921178759046572218e-03 3.494955517937931369e-03 1.476125846821522702e-01 -2.314530007735021433e-01 -2.722437163948776551e-01 2.194585785666963024e-02 1.804340596618007608e-01 -1.185854767317827754e-02 -3.683823611823724281e-02 6.226421148713957160e-02 -4.165732682514218521e-02 -1.396600730382886457e-01 -9.277725779227549707e-02 2.370274674275239246e-01 -5.703033738993188578e-02 -1.624624905227820271e-01 1.086573291017785096e-02 4.599465449152469187e-02 1.540456035706781468e-01 1.826230173432205270e-02 -2.206088911932163887e-01 -1.695300701626789308e-01 7.271748700204365423e-02 -3.363657085324992663e-02 -4.459939272557343452e-03 7.623470857354558428e-02 -5.915295943862933226e-02 -1.733060815416600023e-02 -8.264731396872750102e-02 -1.196679271537407913e-01 -8.276898436277241311e-02 -1.355670810551619539e-02 1.840401580512552870e-01 1.589929275325276392e-01 -1.888966693659601889e-02 -1.143641395841849678e-01 1.130881052764617645e-01 1.172440269168701227e-01 1.658166038889564153e-01 4.232663084066614484e-02 2.147655141168834936e-01 -1.372920482290119343e-02 2.077613498854490870e-01 1.548034565915050176e-01 -1.760286271238962336e-02 -5.386605602043234749e-03 -1.462068330571948682e-01 -2.558604489183083919e-01 9.629140723308398861e-03 2.963848060576930177e-01 6.896382365437191131e-02 -1.547582422067744941e-02 2.218778681947303211e-01 -1.401511327593188590e-02 -1.330330832798647667e-01 1.221280929180697389e-01
1.125353225627887810e-01 -2.147563230034642973e-02 1.446372931274864659e-01 -1.294262436852368636e-01 -4.731841674987507921e-04 2.877210722098453299e-01 5.441481742844478386e-02 -6.756189124966884008e-02 -1.292258459237990709e-01 -1.100561953098406348e-01 1.325738807680359455e-01 8.951416123653815893e-02 6.525587425617750126e-02 -2.090473088279716785e-01 -2.608263330322980744e-01 4.339133397919441026e-02 -1.387521833583050535e-01 4.893733566868156692e-02 -1.343574100162865104e-01 -6.339346457492210825e-03 -2.166133002842910160e-01 -3.245765856061998411e-01 8.468698771506201484e-02 1.233939280449981718e-01 -8.526068079678081335e-02 -2.705148481103403918e-02 -1.849341270205185350e-01 1.892887367627952566e-01 -2.872202973618026567e-02 3.319176374478724489e-01 2.466323695715449127e-01 -4.561292495730540630e-01 1.485987282351874661e-01 -1.571843398207982412e-01 -4.452458558389801868e-02 -9.922972655936274089e-02 -1.469165146484428634e-02 2.785674823304013989e-02 -1.324912718625810559e-01 -1.124150714095566300e-01 5.865425581274024552e-02 -1.224519962972711942e-02 -1.540377748851982365e-01 -4.042645809370895016e-01 1.759563449629446830e-01 -2.453488725715109384e-02 -9.007778289909801339e-02 1.067679025853052327e-01 5.639425415528723229e-02 -1.785018622609055583e-01 4.705481888218249198e-02 5.080068933715630591e-02 -4.144006338082580759e-02 1.237223916767175719e-01 3.380940695273123020e-01 -1.495033122791907809e-01 -1.323831647057111260e-01 -7.786754726576129715e-02 -3.258673321849581694e-01 2.634281501511802348e-02 1.988361064523279723e-02 7.327236733697092830e-02 -8.319705347359344569e-03 3.484515302476158816e-01 1.843456215660526365e-01 2.272882842230873959e-02 2.574737635633795318e-01 1.126902691585912469e-01 3.001847523688010444e-01 5.126135152493374592e-02 7.157870876031176277e-02 -8.299524682845207946e-02 1.066758320057763637e-01 1.554070168791154283e-01 2.289689288081108581e-02 -7.865716924139402877e-02 -1.027260400811841334e-02 2.839177906199971124e-01 1.009738646425710068e-01 -7.392381373509332443e-02 -4.192724685435396392e-02 2.021208751451125940e-01 4.430072520520039053e-02 7.860481248220489714e-02 -1.804364177808046033e-01 -1.829631074397890245e-01 1.827822335747821547e-01 -2.960026533848234692e-02 -1.937377626921678031e-01 -1.615584964100916787e-01 1.060895121785333621e-02 1.059152020443809156e-01 -1.655470611597603670e-01 -1.399951926615961018e-01 -1.500323866997722855e-01 -1.254169390978627785e-01 8.186567835897567980e-02 2.796060900133065866e-02 1.263656942076539502e-01 -2.568642437079399765e-01 -2.684778619781762535e-02 3.952324799876739125e-01 1.862827753423294819e-01 2.195778289945727046e-01 -3.858317459391823190e-02 5.606277777280752744e-02 2.091109951739833842e-02 -2.157356373494461188e-01 6.317715545579080660e-02 2.087809823197799841e-01 -1.896291345393419647e-01 -4.043100574996986996e-02 -6.280616434279863436e-02 8.761652397606439768e-02 1.935405674571763490e-01 -1.607025177180410325e-01 8.739043969176675530e-02 -1.169817217359370859e-01 -9.220875052434784891e-02 -1.347745449623204972e-01 6.552089400675230324e-02 1.189183372993043580e-01 -1.667385054421575419e-01 -2.156337856561839073e-01 -1.151794164507911888e-01 -5.036558371333292594e-02 1.089645123018968820e-01 6.125412272899483090e-02
-1.957943722445653068e-01 4.308070965468797919e-02 -5.127225921264735864e-02 3.995506227249391584e-02 -2.758976890373533997e-01 1.805079962720785580e-01 1.874971569878655653e-02 1.524607698843082892e-01 6.733667750374024152e-02 1.418769558738181558e-01 7.503703409805478897e-02 3.149288751206293785e-02 -2.440651536050585380e-01 -1.946355633272409402e-01 -2.016793383128165917e-01 1.385914132337514280e-02 -9.249699811966496932e-02 2.546833496505400418e-02 -7.108079475031137129e-02 -7.411368870684993670e-02 8.520568843859520347e-02 -5.312391335892598099e-02 -1.355574349935642284e-02 -5.368428326182160537e-02 -5.104762891065451995e-03 1.056358985889324781e-01 -1.219545088363657992e-01 -2.322048521545644340e-01 -1.368371598623092100e-01 -1.068772445166739707e-02 1.358652801186451264e-01 1.820999182162899360e-03 -1.082403887946241233e-01 5.947430384684965904e-02 -1.494594521318875179e-02 -1.391140970081447270e-01 -1.490119944753082182e-01 5.951513731064976553e-02 1.201674436639584009e-02 -2.174379311303029916e-01 5.232622892137357706e-02 2.199221380957204486e-01 1.076002663997649017e-01 4.906553708364606858e-02 -4.574722740992084175e-02 -2.680666880194373380e-01 -9.044164512380825638e-03 1.517640985435363687e-01 8.955151480912446060e-02 -3.976253713474436902e-02 2.043513441318780544e-01 -2.751994284067914298e-02 2.428770893135671072e-01 -5.668982938644478303e-02 -1.615669971838072649e-01 -8.400737504387642551e-02 1.332600975905821328e-01 1.037444796730910279e-01 1.061550370521312375e-01 -1.038332779421541063e-01 -9.320103703141294216e-02 -2.861804302732555705e-01 -7.565549882207625587e-02 -1.895334286452632702e-02 7.378512495723923981e-02 -3.137079637537559113e-02 -6.714495505689140747e-03 -1.309839878644741828e-02 2.188847655475006093e-01 -1.263346167005297560e-01 9.484958918074713752e-02 1.977393007666262970e-01 5.766011658040390286e-02 9.442505875470196680e-03 -4.024102769901525406e-02 1.205135647730618681e-01 -6.224418706859861927e-02 -1.059070221712015043e-02 -1.239937538076890666e-01 -5.886252954216510819e-02 -1.804513336631310971e-01 4.984038460675199733e-02 1.100436378453520381e-01 -7.188658091247723814e-02 2.083758214407187628e-02 9.039480687260247060e-02 5.142981405419662366e-02 -1.160919640994348273e-01 -1.456304331685917552e-01 9.807673779771303169e-02 4.620503628378687389e-02 8.547189596669901857e-02 -2.184409549699725950e-01 3.391579735035611665e-02 6.290040964376693300e-02 -1.962766286897576345e-02 -7.449872543450491991e-02 7.661005040613509676e-02 -2.769487118577738660e-01 8.511794756603115186e-02 1.906510761059035108e-01 2.112780536029094935e-01 -3.521356336311140534e-02 -1.144942779487764795e-01 1.277469289896775440e-01 -1.768802027934838483e-01 3.402666127695955309e-03 -3.174622171600719606e-02 -9.127679303666934307e-02 9.295296384253308453e-02 -1.601197370086963334e-01 4.353825876320351757e-02 -8.576169454477815257e-02 -1.539831044281678440e-01 2.038307238811561950e-01 6.843648284947093097e-02 8.969268287996218225e-02 9.196141793355980254e-02 -2.377678501682906342e-01 -1.907151105842125050e-01 1.018423727763030466e-02 2.930757729165096026e-01 7.235323222898096263e-02 1.991423048517396155e-01 -2.909566837521056562e-02 -5.519790799439240614e-02 -1.839307317840140343e-01 -2.520583125476699715e-02
-1.986586878716471161e-01 -6.337581389320132152e-02 -6.857512280601597843e-02 -4.412885830614741121e-03 -2.162521608568699072e-01 1.542570784318561539e-01 1.941558634605313957e-02 -4.357530958050541414e-02 -5.291126212844657339e-02 -9.679745931500956246e-02 -3.030785013626779989e-02 5.006463071902809286e-02 5.759059249948124447e-04 2.838076293510150006e-01 -1.610467382669714953e-01 3.774627193933173530e-02 -1.890958977310193689e-01 3.316117324726941540e-02 1.217808487843282939e-01 -1.531670766621935284e-02 3.860347499185998871e-02 -3.728168156109697984e-01 -6.792978323634775439e-02 4.617739732967358077e-04 1.511242574652976343e-03 2.799864420562158882e-03 -6.723639326606431488e-02 -2.413256125573179367e-01 4.249007992089394968e-03 1.397162933109149519e-01 6.769876473109322224e-02 3.296120387034745004e-03 -1.612972053497487013e-02 -9.764139271671225251e-02 6.065583986857012166e-02 1.532175245609737890e-01 -3.030169599489879878e-02 8.182008532011557367e-02 3.089270260503500232e-02 -8.106336708940931057e-02 6.316674796572913086e-02 5.900920091218260846e-03 -6.870965490917170515e-02 -7.186871454555518457e-02 1.384505409129262177e-01 4.729761061906923580e-01 -3.835621857331190238e-02 -4.077144354055250997e-02 2.850144919542442201e-01 -1.245460060000426472e-01 -1.475840924051607939e-01 -1.571008232135690796e-01 2.413113889223528208e-01 6.663545422501888915e-02 -4.123976142253181487e-02 -2.251980205164690399e-02 -7.880007159331343936e-02 -2.171631157241669940e-02 5.387164391672782937e-02 -8.791346972016940431e-02 3.932080257675620860e-01 -2.331355584250596191e-01 2.844277749965612792e-02 -3.387942213173962547e-02 -2.020404799895833270e-01 -2.187211968074322388e-01 4.296284108423356618e-02 1.522122843684166060e-01 2.285769305169516319e-01 3.647671802883221612e-03 -1.287094424314943197e-01 1.640928235746575564e-02 1.899123617617619608e-01 1.950674414806500764e-02 9.464796360491928295e-02 1.437219387149617222e-01 8.035864390585921446e-02 3.712671535160883551e-01 1.651797470828496039e-01 1.895216806651083274e-01 2.079219426703259321e-01 -4.072334782088585931e-02 -4.292238995721983641e-02 -2.307885422034380296e-01 -1.325365327967345797e-01 -1.536656475891210738e-01 -2.561947068211744075e-02 1.472256720783443606e-02 -9.971410468436825436e-02 -1.640393575556748362e-01 1.794079424318077015e-02 1.549372455388128671e-02 -6.350039316471016437e-02 -1.271361180424883386e-01 -9.401565918724068271e-02 -5.915590390538127269e-02 -8.565962120121141388e-02 7.459256399171790286e-02 -6.178840965952126126e-03 -2.590272607862793564e-01 1.125974989286230021e-01 -5.138467721707976055e-02 1.008258647692497623e-01 1.776776756820722114e-01 1.795298065271928867e-01 -1.052457606017962732e-01 -1.001826664156599614e-02 -4.015706755129159339e-02 5.655906097207220873e-02 -1.173710052914035407e-01 2.721709981221797497e-02 -9.114911211147778969e-02 -3.723367924865247230e-02 8.437416058850086276e-02 9.297988926283241862e-02 1.907954005410238477e-02 7.392578537806021588e-02 -2.132204123609458130e-02 -1.405599493315146942e-01 -1.989929419448284997e-01 5.899993084695767664e-02 3.460894675068013765e-02 -1.739234221978028794e-01 1.880041295249202937e-01 7.867740584522489589e-02 -6.671061459939997551e-02 1.419836544557512015e-01 8.762486091708954206e-02
1.571423592445938822e-01 -1.266535637420872773e-01 -3.392217304416544343e-01 -2.252024666775137574e-02 -1.928402931223220373e-01 1.393845583761643692e-01 -1.011790759965370129e-01 2.227806819731243115e-01 -2.608866067454350054e-02 4.853682936283030408e-02 -7.551524378153044725e-02 1.113473073468884689e-01 -1.976659872123342487e-01 2.341790484204574474e-01 -1.356046308183626037e-01 7.820977853808486202e-02 -1.261865012350578130e-01 4.946808730354026323e-02 4.131518201701905868e-02 3.625194834919454046e-02 4.959570867665807209e-02 -2.960881788114427260e-01 1.436602134063833802e-01 -1.721212002184896971e-03 -1.188543150949674249e-01 1.448569787007418681e-03 -1.123367851104112858e-01 -1.942049510409290039e-02 -2.683885439148808380e-02 -1.674290249100950437e-02 2.388138077923365396e-02 1.635392414761604463e-01 1.278016896976411354e-01 -9.084133565417278067e-02 -5.623829709912953057e-02 7.617702037368140333e-02 -5.244378131201649779e-02 1.077455025804262001e-01 -2.332718492122937137e-01 -1.025582278900781241e-01 -1.596507584770658419e-02 -1.483025941378927556e-02 2.661809453769030109e-01 6.501971458332996001e-02 -1.203856046618868303e-01 -2.352907598610003981e-01 -3.067634718124719398e-02 -1.333758805738870512e-01 4.383382751370834551e-02 -1.674562669960779626e-01 2.030295813150721773e-01 2.106724466943186991e-01 -9.853072763506741383e-02 -1.924042077959067787e-02 -2.627764954086668214e-01 -6.860515310259397356e-03 1.725680991857827251e-01 5.687223991204718582e-02 -5.399604979734080878e-02 1.703296082668793315e-02 3.268628265318657827e-02 -1.031555168199880385e-01 -7.917652455074019116e-03 6.471428735427915691e-02 -1.644523888754455820e-01 4.154901888821627143e-02 1.677841518769024043e-01 4.050018475963801379e-02 -5.082678831005929196e-03 -1.510212107252303648e-01 -2.447649681879884298e-01 1.346872623382376101e-02 -2.642969057795577573e-02 1.134918932558740268e-01 9.979698742172568582e-02 -1.794612378615610335e-02 -2.303691885794026950e-01 8.233842639694641252e-02 7.303290615621661763e-02 -2.124238601542748073e-02 -6.121940047265896773e-02 -1.165213079192588125e-01 2.439566239079844767e-02 1.526692324760502706e-01 -6.260796649183873741e-02 2.210008719013232814e-01 9.026607117769122612e-02 5.775847928502288176e-02 -6.871488182082172158e-02 -7.172332173570991620e-02 6.388763617496902303e-02 5.857858399601669624e-02 -4.115690110910564387e-02 -2.535243116342330572e-01 -1.280806714148996217e-01 1.664411423149778635e-01 -6.794512039049864852e-03 2.123866828449078314e-01 -6.372280306297095631e-02 -4.728694582819072123e-02 1.395921602135925532e-01 1.299446031892723674e-01 -9.543614062303135137e-02 1.964633990106615102e-01 4.112250357880473800e-02 6.626233299698708334e-02 3.011576444165817504e-02 1.092338876030797962e-01 -1.019941957594308057e-01 4.826126378342171855e-03 -7.890163428484220365e-02 3.993693499374480205e-02 6.755995165562405681e-03 8.261712309386515241e-02 -7.612233772727466929e-02 -1.306316737207111334e-01 -6.705558546656105456e-02 -7.649361124727843686e-02 -1.213523602754480457e-01 -1.162989533653062818e-01 -1.658864860326612900e-01 2.025632676403574250e-01 -1.895706261925182712e-02 1.597414715754539860e-01 2.631262387991817331e-01 -1.272233175953725315e-01 -7.092704326519302938e-02 5.450817560398132228e-02
-1.514617413768682419e-01 -5.790342399550491015e-02 -7.084344070973737362e-02 3.251810115440507271e-02 -6.874843400078115008e-02 1.632572365771420564e-01 5.347432484353011745e-02 3.146064129866368159e-02 -3.885216371125132379e-02 1.366890849320620549e-02 3.300428871765005434e-01 -1.501025760255798591e-01 7.134087789431482751e-02 -3.079195217436886400e-01 2.015669758551899126e-03 2.031357735640380580e-01 -3.325603857609393810e-02 1.094157757664476621e-01 -6.169820107324562770e-03 -4.243052880640799107e-02 -2.170022343706234924e-02 6.854559213412520814e-03 -7.381433137484863516e-02 -1.140026357120575567e-01 1.515140379455635344e-01 -5.733572933461196508e-02 2.625145986805629827e-02 -2.653029540494554472e-02 1.316458628866422065e-01 5.813779047931497829e-02 1.998866736691622473e-02 -2.045506704485725857e-01 6.496329415922656725e-02 2.274261831617083451e-01 -4.553510784905821090e-02 -1.753337719816487339e-01 -1.148496587285727788e-01 -2.889311292138405096e-02 -8.266298991045842662e-03 7.101153433058797482e-02 8.272790978452870814e-02 -7.968100823700491331e-02 1.047786237463703973e-01 2.941870176011324861e-02 -1.618479213065102951e-01 -7.504845014545054316e-02 3.808463041485102840e-01 2.340382259497054696e-01 -2.712205849365915966e-02 3.530582236388700168e-01 3.642223711561719257e-02 7.001899789452275483e-04 -2.890225771655915987e-01 -9.601055659442864210e-02 -7.940225074001434902e-02 -8.831700405982387952e-03 3.584750207639055691e-02 -5.789423513918671299e-02 5.109540418528316259e-03 -1.449142120552259459e-02 -3.542955644919103531e-01 -8.551097968626196477e-02 -1.464990144646480252e-02 -1.302974292971939840e-01 4.269381561000025124e-03 -8.357431861491043668e-02 1.163031750925868774e-01 -9.347557328461131299e-02 -4.282518955976346436e-02 2.378263659434750807e-02 8.304059196809412957e-02 -1.732348079117292938e-01 -7.616258173972993706e-02 -1.111090475961055563e-01 -1.658624470700616541e-02 -5.379932001665565372e-02 3.132297716732183879e-02 -1.137061612957089712e-01 3.300052082480562678e-03 -3.836639539849519970e-02 1.395922248162073109e-01 6.211159275647296779e-02 3.688887075856658176e-02 -6.846335712106867144e-02 -3.848823026909845707e-02 5.469401647297297137e-02 7.948521384838404258e-02 6.314936864427789925e-03 1.157743849460641100e-01 1.275838892651793566e-01 -1.889547182745209830e-01 8.260289700860951045e-02 -3.421020111248974926e-02 5.124292665106293387e-02 1.115976528026742520e-01 -7.217905126550462624e-02 -1.620262419260607434e-01 2.298369929308506920e-01 -1.292984976689249832e-01 -2.879487557091812977e-02 -1.188547728400756176e-01 3.101863159353443131e-02 -1.592133483926403137e-01 7.171346247855373696e-03 -1.332177229290521792e-01 6.614652572692630850e-02 -5.114498470190705082e-02 -6.884461387207981009e-02 -2.136653767810463983e-02 1.399800430560022013e-01 4.180011473545547362e-02 -1.484622755444954256e-01 2.482636881321199918e-01 -2.934754144026330627e-02 -8.236443031111137514e-02 1.281249207889149089e-01 -1.120732850266098757e-01 2.168670487935675240e-01 8.384127861615546518e-02 -3.432306310167950597e-02 1.575804705975501763e-01 1.411186870911999500e-02 -1.236685479919536340e-01 1.563398622024014806e-01 -3.793852088403425887e-02 -3.885413410374709969e-02 -5.111915697043670215e-02 -1.054582115944028287e-01
1.359247747150324204e-01 3.812464438432330155e-02 1.238475864448586455e-01 -2.455669225451634075e-01 4.525831605615217579e-01 -1.049987152299941828e-01 -1.608272082994182395e-01 1.446697298772910312e+00 5.140396166824643710e-03 1.391979667704052737e-01 7.681646347543792663e-02 -4.085795365752974140e-02 2.009095414306622529e-01 -1.099665326616735106e+00 -8.100569935228379981e-02 -1.157408157258782606e-02 -4.192612546111815219e-02 -1.549294043642474861e-01 -4.252123797647856807e-02 2.473238819894842122e-02 3.715851224796029029e-01 4.275361005069586717e-01 2.749483676644262978e-02 2.176884404364833742e-02 -8.100574279195352223e-02 -5.716954059797919180e-02 1.496665442062291851e-01 3.415865748137237312e-01 1.009002955196822149e-02 7.840351609388915288e-02 3.572472218926746046e-01 -2.809661408354550138e-01 -7.383558982073988586e-02 4.503025910300647028e-01 4.175513683374591500e-01 -5.117279108840196988e-01 -1.826259741034748970e-03 -2.827592902537967232e-02 -5.163426779671109051e-02 -7.793348212133383024e-02 2.388984944816144873e-01 -1.540553014582305702e-01 3.158217354382388264e-01 2.671021826063567084e-01 -2.575017829111660439e-01 1.402370138693180557e-01 8.963387853054648191e-02 4.012630487283513209e-02 -1.881395030347486341e-01 8.022176041233721744e-01 5.961912199357154440e-01 2.413158982792793991e-02 5.061476361049783469e-04 1.803399249558170769e-01 5.831956190373435156e-01 3.790571959198046209e-02 -1.601574751430488441e-01 -1.922841700833206879e-02 2.858811741996349909e-01 1.071020587605489710e-01 -4.764299462411564767e-01 2.088010778481021526e-02 9.489340851146708944e-02 -2.622479960041298463e-01 1.989153420582207010e-01 -1.687346629091632522e-01 -3.792746866287050600e-01 -1.552530898905353229e+00 -2.275848991741042660e-01 -1.905183353543661029e-01 6.961322624111802859e-02 1.568964227315917948e-01 7.743702783955778990e-02 -2.215633295565660466e-01 -1.854269036582849306e-01 -2.490435070723631336e-02 2.125779098572495862e-02 1.153364410436058751e+00 2.725792386439283010e-01 6.998566798231746766e-01 5.394499253357499385e-02 3.515262082514591935e-01 -4.087986617304701503e-02 -2.950324247509606562e-02 -5.748206425796003466e-02 4.819595202824683566e-01 -1.171190132808223316e-01 -3.198915646007493424e-02 -1.679027098749735214e-01 8.451765019854876396e-03 -1.332610527065289374e-01 2.532878873671691178e-01 -3.497739698236392303e-01 -1.304696507073704603e-01 2.826852126360416065e-02 -4.288851450273196697e-01 1.239937116467406189e-02 3.225434862618692944e-01 -1.582789900477085719e-03 -4.148882355638280894e-02 -6.293000653943887635e-01 1.488505079637612860e-01 -1.754172279834658177e-01 8.548240726201825068e-02 -8.794203994048022067e-04 -5.436411466505844947e-01 6.023415464429679456e-02 -5.764546529569822275e-02 -5.510160303716540690e-03 -1.277802586563663856e-01 -8.370581696172252339e-02 -2.259166129892387909e-01 -4.862021772158602317e-01 7.869871581345357081e-02 3.301440170034358745e-01 -9.519667120242998604e-02 -3.667211757185298571e-01 -1.798433369819375238e-01 3.045512423297877871e-02 -4.896435307471300180e-01 2.329002176810613528e-02 -7.057873036601934602e-02 1.113512593818296037e-01 9.044086667038170324e-01 2.516013675849895770e-01 -1.525656309351217099e-01 6.230469300679807310e-01 -1.684901795977441497e-01
-1.674904806764184184e-01 7.555297638446008268e-02 3.703504002617546975e-02 9.160124099250425977e-02 -8.212385854154105602e-02 2.809711033223291632e-01 2.125554116177502395e-01 3.060465457459902727e-01 -4.720308194822492309e-02 3.622235900203681774e-02 1.313482441228938369e-01 1.853837372818416818e-01 -7.393409001996141539e-02 4.127365893625790927e-02 -9.867285261497231452e-02 -7.771778502169685195e-03 1.085865529660461209e-01 1.122813408745286234e-01 1.239644197424186016e-02 3.951712845326117024e-02 1.702543773352615253e-01 1.195336545702710973e-01 1.856626824714009416e-01 -2.172587895655201176e-02 1.775709630988067667e-01 2.109815064643452698e-01 1.586600684959887653e-01 9.729927036700478094e-02 1.474000215360716376e-02 1.229611795129979812e-02 -2.103964091694719984e-01 9.562954173521551540e-03 -9.735996396515333995e-02 -5.983801373780743560e-02 1.360453675632903314e-01 -7.310729872832653561e-03 -5.450414318589545670e-02 -2.869315501727400658e-02 -1.370326470793211127e-01 1.408305751550767704e-01 -2.022526562144552342e-01 -1.046970852481755726e-01 -2.616341302694004667e-01 -7.509496656612404952e-02 -3.201408809385520443e-02 -9.735953901829397239e-02 -7.916412899604287606e-04 -9.140434149638167194e-02 -2.417429234425227252e-02 1.698419921661718512e-01 2.925887047460738466e-01 1.102943054984496934e-01 -1.916239818617497537e-02 1.612747975438586501e-01 1.120556136516059897e-01 -2.741243292692577271e-02 -1.607851087003548951e-01 8.700138572766068570e-03 -7.812908865032741623e-02 1.382026885118555620e-02 1.647330283177865506e-02 -5.356193293159686175e-02 -7.992725362308791479e-03 -4.732809938400901056e-02 3.548308923879506249e-02 1.053851950099428669e-01 1.208376046168502076e-02 8.770852687216015853e-02 -7.473165366887223049e-02 -1.243044288931599434e-01 -9.872260804724779237e-02 1.936570514177866215e-02 -2.273574920592211501e-01 1.597090992283393268e-02 -3.010666132168448791e-02 1.246660678226416130e-01 1.540091186670591028e-01 4.641473411066813354e-02 8.168705578256446262e-03 -7.805470574846140597e-02 5.478171554794115938e-02 4.318308911972754821e-02 -5.299357130417670786e-02 1.930152884503385374e-02 9.430886097706588089e-02 -2.962073099836629031e-02 1.588694556877816022e-01 -9.871438609699403899e-02 6.785176895517708306e-02 -6.183718112226499301e-03 1.872862240099024411e-01 -9.496758093213670399e-03 -1.547858482792879575e-01 1.711908612484304704e-01 -8.154174986925579599e-03 4.774646172956644591e-02 1.222759792647592769e-01 -5.224345158206021578e-02 -5.052363128137871834e-02 7.376935642889360933e-02 1.021204734983175294e-01 1.834958937330923856e-01 -7.802262793925966722e-02 -6.676210309855347413e-02 6.806177180851293029e-02 1.573545870939614399e-01 3.728847723870064301e-02 2.377796334525969155e-02 9.782235543499175068e-02 -1.416737704808751219e-01 -7.219416696946170942e-02 -6.387024119651933673e-02 -7.574109687493592313e-02 1.658731380891913798e-01 -1.577180563511956513e-01 -9.150260502363306847e-02 7.933770845024551432e-02 -4.897630799938473833e-02 -9.287375535837732315e-03 3.650054967765664626e-01 5.846156482695909207e-02 3.624438555261453865e-01 -5.325053829817662926e-02 -1.459940380491659417e-01 1.961581394687606783e-01 -8.939905070241829788e-02 -3.129250029038834757e-01 1.859320225559963347e-01
1.312861926365876397e-01 8.623450787956621344e-02 4.745214342702833848e-02 1.971335411760121725e-01 -8.102793990665967117e-02 1.315062466018606380e-01 -2.573922380628239082e-01 2.086979790696208148e-01 8.546551816501907206e-02 -1.695342783578988530e-02 2.374331733440173120e-01 2.797353714660323898e-01 -1.309000292950463773e-01 3.219206399086954606e-02 -2.390829903188841365e-01 3.717191040530976043e-02 -7.615391016552110204e-02 -3.401872211800190116e-02 1.475607701917864244e-02 -1.798123611181635245e-02 9.686457705124590367e-02 3.602666394337820932e-02 1.216407679687283097e-02 -2.033564308730724246e-01 -6.458203761410084842e-02 6.876358398320994714e-02 9.685787062660583535e-02 1.923355345152450574e-02 1.193243369336986597e-02 -9.503701135380474008e-02 -1.097265733093548967e-01 5.338263715921758717e-02 -8.159278642353363920e-02 -3.883047441637763747e-02 2.747168070627354144e-02 1.455397013014994856e-01 1.396828430172870027e-02 1.584198912484352517e-01 1.753455274455479121e-02 2.433958549905592544e-02 -1.524697103513292795e-01 1.146632481775456819e-01 3.694799325725579842e-02 2.037064754249826373e-02 9.141026858495948648e-02 9.691771492669570831e-02 -1.568841164784259140e-02 1.327707955693742947e-01 2.224057931459943321e-02 -2.324150732311156334e-02 5.607886758421143369e-01 -3.378717470927776467e-02 5.651837071504657584e-02 8.780435413280496260e-02 -6.189387354338229258e-02 -9.487285723177554808e-02 -2.283866067613381790e-01 5.809325888538346971e-02 1.154166677735805543e-02 7.259704187732397840e-02 1.516519216743269227e-01 3.458694759232689570e-02 2.143712920883833473e-02 -1.162863015204434608e-01 4.256377123863435558e-02 6.125308438018397389e-02 -3.470659722020694171e-02 -6.632374573122669890e-03 -2.543948463732787491e-01 5.936437385169986147e-02 1.110220898607986728e-01 2.190786509152687633e-01 2.051280823587838531e-01 1.620693836921427156e-01 1.179245092752817248e-01 6.295271945857779106e-02 3.949917133293949500e-02 1.536972279500131155e-01 2.346273706762784517e-01 -7.584977195563516461e-02 -1.720722271315880056e-02 -4.452412956495281626e-03 1.450951814032127307e-01 -6.674044894437613021e-03 1.543197606414783984e-01 5.925503889055865753e-02 -5.765206670421293977e-02 1.238708989950060568e-01 9.760043443150281939e-02 -2.810642077590503884e-01 5.419732449598564650e-02 6.841090038590078026e-02 -8.666265329181624399e-02 -1.851676322016694576e-01 2.840844463958921984e-03 5.179732798540671868e-02 2.110071865979437980e-02 -5.559870584607358446e-02 -6.655670557109943930e-02 1.297307221100765795e-02 1.709015790056575834e-01 1.881407526047119971e-01 -5.522321776019485651e-02 5.948219946416524739e-02 3.376539411649347455e-01 1.048641878732718274e-01 1.191038127444806888e-01 5.373801933590323376e-02 -1.008423531712834276e-01 -1.103180223582771041e-01 1.852199572612315062e-02 -2.370584832501138606e-01 -5.242636398368803047e-02 -2.223427803476614006e-04 -9.215594393458299838e-02 -4.571416728214745123e-02 -1.109511123689813916e-01 4.384377450391317710e-02 9.018228926077236085e-02 -1.591736621174739963e-01 7.290199259451325686e-02 4.437463558869150226e-01 -1.694510934425397936e-02 7.459955456390099382e-02 2.300858160414493703e-01 1.964417335675505971e-01 -1.854316199467279380e-01 -1.440301586709369364e-02
-7.976778443808041352e-02 9.113989093782520756e-02 5.317431618597493609e-02 -1.639467690886437234e-01 -1.726696396000031858e-02 1.469812348030146709e-01 1.039682023439145037e-01 1.146146237987159255e-01 -6.711354031537054843e-02 2.251755476672877287e-01 1.716995012049443992e-01 -4.594606196650748847e-03 5.720787266482808137e-02 -3.086394736838553587e-01 -6.735013011788712478e-02 9.596417747696615874e-02 -1.977631517875880901e-02 -1.238129863578544100e-03 -3.239168588615935762e-02 -6.567102920919401510e-02 1.241331775112994446e-01 -1.174659875037512013e-01 2.077700970047317852e-01 -7.536861258670923824e-02 -1.091005953799112187e-02 1.095404785195804864e-01 4.459734318515310575e-02 1.676022921303091939e-01 1.674591482354088334e-01 -3.771872778628690415e-02 5.073547698962010272e-02 1.694316276279103362e-01 1.293901798063485653e-01 1.199461678933091968e-02 3.344765346923806587e-02 3.888330489944399025e-04 -1.387280471863593656e-01 1.938401613639353371e-01 3.637217405456339824e-03 8.671029859589111932e-02 2.206307009619411924e-02 -1.632562076976497648e-02 -4.130723001052115373e-02 1.043865310942762858e-01 1.467917027075512637e-01 -1.616873875071665467e-01 -1.674550206375918782e-01 -1.240754281868887560e-01 -1.963352787057514107e-02 -7.972779035264396241e-02 3.405403785244799919e-01 -3.548878814355470313e-02 1.786446493288977033e-01 1.453416244008670644e-01 1.621529230722827328e-02 1.706952870076794970e-01 -1.344280452118098712e-01 -4.347906467499012412e-02 -6.681696700262307331e-02 8.860409914426907452e-02 -4.344505777269676294e-02 7.378888117398356428e-02 6.143021042219886513e-02 2.039080956905746020e-02 8.488193276093755624e-02 4.871128567173078211e-02 -2.004178613784153573e-02 -1.921139538413598469e-01 1.626925698082949956e-01 -3.334097327316695616e-04 4.792662323027348410e-03 -4.852990023936942093e-02 1.094826927951853685e-01 -1.885822195638061629e-03 2.715034902319082288e-01 -4.533348875117479415e-02 -6.537628618811903384e-04 2.659713324443071375e-02 5.460446090681978643e-02 -1.225467205928254810e-01 -4.952014962084841376e-02 5.101721155398793867e-02 -3.687635362055504545e-02 -4.035730299357583040e-02 -1.344882376581404415e-01 1.297342390929806522e-01 -5.685707927880278428e-02 -9.529595468857041118e-02 -7.457658507070541454e-02 -5.597629110299999489e-02 -1.598268780194209496e-03 6.490848382884308043e-02 -1.300706490232880486e-01 -8.232251660772239854e-02 -1.345507728019974536e-01 -2.075064971634061617e-01 1.557412743467672528e-02 1.758851473907685758e-01 -3.768204497993508928e-02 -2.627611592344770639e-02 1.418300603135433657e-01 -2.546210679494878212e-02 -1.240254269835984122e-02 -4.816167369966693756e-02 1.286452132341106280e-01 -2.990033168985943568e-02 2.602368457885216868e-01 1.665449506434714677e-01 -7.646516112914028725e-03 1.026941928135406273e-01 1.033073767556903222e-01 -1.883600502066801463e-01 9.310699814260309237e-02 -1.369383929380910969e-01 -7.092914487625398556e-02 2.642736697521705369e-02 -3.724936822100052142e-02 1.885209850763223949e-01 5.831107283267119440e-02 -1.292603239018004779e-01 -4.715429368138533001e-02 1.773032966327881266e-01 -1.020920476861019582e-01 1.950395531468918087e-01 1.029710619165401797e-01 6.722925174647323421e-02 9.215242167262609196e-02 1.137090109822631034e-01
-1.348274971161398106e-01 2.575619145067433238e-02 2.448569122587109237e-01 -4.295712496133723829e-02 -8.492665883253421033e-02 3.120364814381378360e-01 6.779098308874072221e-02 1.306640686855619071e-01 -1.045118819333011595e-01 -1.233660528732001375e-02 7.226124117631060884e-02 -8.586757365348220844e-03 -3.358185137271064991e-02 4.462646160582638133e-02 -1.085216485901448064e-01 3.788318486268611035e-02 1.514802879123914869e-01 -1.047961929587654106e-01 -5.041161197742068806e-02 -5.735630757554533235e-03 2.412067028621275033e-01 -2.972521132858357285e-01 -7.751613428464183830e-02 -3.188550886737519519e-01 -1.213958082281812456e-01 2.021902259416232250e-01 1.616361352073633073e-01 4.646573522549322238e-02 4.171433823378897093e-02 1.412043402244506918e-01 -2.334812763250107559e-03 -2.283649225067911903e-01 -1.382168152098397773e-01 1.747377351608918050e-01 1.440938311661078310e-02 -1.030636686826779114e-01 7.123295750950985050e-02 1.561642584591073080e-01 -1.603490073481350989e-02 7.067012652896745295e-02 -4.509318947066224270e-01 9.322523687129286030e-02 1.546129219153778989e-01 -1.149435130510176178e-01 1.167317028753816072e-01 -7.339240291874027378e-02 -8.712269048691996531e-03 -4.844615100378276557e-02 -8.098520124875591142e-02 9.401056195384788206e-02 2.778904206508874264e-01 2.034588546430558115e-02 -1.429548819445244402e-02 -1.036867161124346848e-01 -1.190375433269757477e-01 1.432351134102097800e-01 9.684369579280646678e-02 1.103774002493688178e-01 4.435595058996100876e-02 -4.805030294617845116e-02 2.227643206611831794e-01 3.301793065822575257e-02 8.998096222864715443e-02 6.153621474338116272e-03 8.378094551122525213e-02 6.644537677448589252e-02 -1.229975949854301281e-01 1.823300516203089916e-02 5.064958395512202810e-02 1.807670111099423937e-01 -1.155988556661568939e-01 1.011721378499133399e-02 5.077517826553037961e-02 -9.605018682724590640e-02 6.378397051466716539e-02 -9.839599367892968781e-03 -8.283971083887825548e-02 1.916844020368834445e-01 -7.155830157279298442e-02 -1.102949432808514735e-01 7.840464510259353981e-02 1.572207687576660795e-01 7.364114036962718379e-02 -4.225615351145023402e-02 -1.091256354007614105e-03 -1.812079948512199459e-02 -1.231402353631838170e-01 4.277748884600060530e-02 -1.083621541278908390e-02 -2.997533108758597756e-02 -1.990681470424413568e-01 -7.988486645522061003e-02 -1.052289185847117003e-01 -3.480246485765117748e-02 -2.192441518568730152e-02 1.340828255922129654e-02 9.388386429111392206e-02 3.780202730709174980e-02 7.318176599003408528e-03 -3.264288636644428060e-02 1.076845702076488775e-01 1.283799660077721005e-01 -4.003975561480999090e-02 -3.718282348316705177e-02 1.143141396019888290e-01 -8.496390385920350730e-02 -1.642801709098473673e-01 -8.900255517732390265e-02 7.095422847055443683e-02 5.831029170021543445e-02 1.766632790969558664e-01 -1.315713025635375788e-01 6.756234619732775365e-03 -1.217527086523683966e-01 2.643474456497246217e-01 -3.567668827800054426e-02 1.026420070037031979e-01 5.452340389229574924e-02 -6.023911804539307940e-02 -2.176726327948508566e-01 1.694684756493309435e-02 4.027588505031810817e-02 -1.147056317533678808e-02 2.651971032496343306e-02 1.740809285427882269e-01 1.304138721709833526e-01 -3.831372770709450676e-02 -8.945133594600583604e-02
