1.106066351919066937e-01 9.577786752449748975e-02 -3.809450042358366456e-02 1.008104945822869691e-01 -3.469134837836081869e-02 3.929896803164677904e-02 -1.897104838219857981e-01 -8.630671738373645041e-02 2.755270031664966771e-02 4.606670846643811518e-02 -1.146540912177100163e-01 6.912932344334758727e-02 1.318816012428508100e-01 1.607859071566368828e-02 -2.261041458055120523e-01 5.117665583384099770e-02 2.643168319097769035e-03 -5.981047694528842523e-02 -2.569614129580371359e-02 1.533533856405274176e-01 -9.962953128790796864e-02 1.622033901165964853e-01 7.393552053424487513e-02 2.449854792432646089e-01 -3.687062555219517562e-02 5.697190377895045704e-02 3.090197073962825270e-03 -1.665584800579276992e-02 1.029296208874221907e-01 5.022926198920900191e-03 -1.503810795311509053e-02 -9.635687490016729695e-02 8.468325378785468427e-02 2.066254179500317534e-01 -5.306606124524985285e-02 6.367417842298808695e-02 -4.844995658411391931e-02 4.935549928220092815e-03 1.364637922960418304e-02 -6.182669404090585658e-02 1.360884321872879721e-01 6.740871913030672957e-02 1.859012360947815690e-01 1.455265628196049932e-01 -6.468339220345208258e-03 4.235669238697407218e-02 4.578705852979113311e-03 -7.497452194763709610e-02 -2.571989095885609047e-02 8.711089544470450308e-02 2.959252566101556320e-02 -1.264376972157580936e-01 5.194092891543707763e-02 -2.983243055340871822e-02 8.282685369207730408e-02 -5.142970536483556371e-02 5.606323680697499617e-02 -1.423358399453984180e-01 3.718917088154370665e-02 8.088488194895070149e-02 6.815235480743664365e-02 -1.511603938610937559e-01 -2.236002415914677410e-01 -5.946938751656526828e-02 -5.784207499396069874e-02 6.085376978013891207e-03 -8.636740846267505767e-02 -3.501321546823120412e-02 -1.532478310453243070e-03 4.692560043121955099e-02 -1.985655888173399122e-02 8.351879651061860921e-02 2.221555820076266397e-01 -3.758834732618000773e-02 1.256519955807928468e-01 2.977948723065261885e-02 -4.293991799378985702e-02 -2.209341242899231228e-01 2.602564061390973127e-02 -6.487692766619834739e-02 1.345719607901973425e-01 -2.913364377650510401e-02 6.994996983364690224e-02 -8.811659429921912812e-02 -4.420906687613150934e-03 -1.511914093775798204e-02 1.776472737786894407e-01 1.590830427718684659e-01 1.116246206051006301e-01 -9.547791316521857252e-02 5.714825289952595033e-02 4.835505887664506147e-02 4.258598798066051336e-03 8.756346638553003103e-02 1.023155090114931526e-01 1.563742020900029117e-01 5.583846867131169595e-02 -3.772438716268636250e-02 9.106284925850292866e-02 4.669967067624847951e-02 4.647573131077952641e-02 4.670124018328835475e-02 -7.405679346355574511e-02 -1.790851800379923975e-01 -1.301933121309845620e-01 8.527357265416397880e-02 1.029975365092435785e-01 1.001075520274558595e-01 -6.849969496544752734e-02 -3.596609318759347220e-03 3.413158635265159391e-02 -5.511724560780870141e-02 -9.263746408369953611e-02 1.363815896080271262e-01 6.058395632966303429e-02 4.081427528282386558e-02 1.000215718165905904e-01 -4.888951620485764565e-02 -1.571913800593751909e-01 -5.998752107569748498e-02 -9.024080068219385298e-02 1.081077163213138917e-02 -6.251834940188226442e-02 -6.279014911384327158e-02 6.354875198994175411e-02 6.774499110229040277e-02 4.470284563033661424e-02 -7.068404140220597986e-02
9.510346327748679662e-02 -7.869736571305296913e-02 1.761969962802300768e-02 -5.736132140268539181e-02 1.376169205567864262e-01 -5.767610565812860551e-02 9.331243123607472698e-03 -4.764597102191926725e-02 -7.222035171024442785e-03 1.577513295868790411e-01 7.098701359774976793e-02 -1.459866187011224781e-01 -1.380938410086590962e-01 -3.101263757113815328e-02 8.810054274966570842e-02 5.102009138954161083e-02 -2.011686782603609724e-01 -9.490165321280079336e-02 -7.864245675145964051e-03 -3.828736348768183723e-02 1.814089301997998949e-01 6.784629119745132220e-02 1.359288776688527267e-01 3.757846263226809896e-02 1.174666096749519134e-01 -5.736490215946030841e-02 -2.049898425382227704e-02 3.067522721285024720e-02 -2.984002853392000304e-02 -1.681373152509809954e-01 -2.084165171996070487e-01 6.352682205349506617e-02 1.834000339000154203e-02 -5.961065941814133740e-02 6.227603148105471248e-02 -6.221863002829312872e-02 2.806841928883515094e-02 1.897330504656474515e-01 1.989509711335967282e-02 8.610589399653808401e-03 -1.228130883167383690e-02 6.823277760052953722e-02 1.864965630650720907e-02 1.736355487753572513e-01 -2.361560616307362137e-02 -1.573757558479869645e-01 1.850422360074539113e-02 3.812307130792108034e-01 -1.031365895100714997e-01 6.732190212718340214e-03 -9.833901232310141016e-02 1.156334898669581501e-01 8.245920867967042323e-02 -2.327144695122789278e-02 -6.140500021738096864e-02 1.489473642887705340e-01 1.125364888711071903e-01 -4.049462524036800265e-02 -8.747705568077301930e-02 7.787870509306339672e-02 -1.031970246639533489e-01 1.684200265371432748e-02 1.316163885137826839e-01 2.273985461160057953e-02 -1.580815454642105766e-01 -6.063573055073773199e-02 1.172417984136874258e-01 -1.612124915390802157e-03 3.944678160163503193e-03 1.409332563549229589e-01 -1.008232069248838486e-01 2.487577171250583002e-02 -4.420132271450389477e-02 1.136551388355787479e-01 5.737412008279570283e-04 -5.306859448130619994e-02 -2.190947346697542236e-02 1.226697825491870897e-02 8.110048798043824336e-02 -4.624334356906255328e-02 1.926804542498044837e-01 -7.167494273244877367e-02 -7.607555618660445662e-02 -3.353136390541115036e-02 -2.101907391509367784e-01 2.376424274575193035e-02 2.965313236260764748e-02 -1.241161859508550271e-02 1.636986407021621959e-01 8.792437588633189582e-02 1.046633648676442707e-01 -8.837815713612548474e-02 -1.219442366331067035e-01 -1.015305095885271763e-01 -6.147041980806297601e-02 -2.285590211934087901e-01 4.594334975962149209e-02 -2.797131836707948960e-01 -9.968813326617843862e-02 1.467179372003686415e-02 -1.385589537207835842e-01 -1.101858263295528717e-01 -7.551932895679651023e-03 7.666488772125774898e-02 -3.860040313996385836e-02 -8.788266642886172209e-02 9.850811961187870558e-02 -1.366911327442875967e-01 -1.271373748098821310e-01 7.732959579756226720e-02 1.080341651330703062e-01 -1.013150385172461310e-01 -1.190768955546790825e-01 -1.027486870015360682e-01 4.967465618953233186e-02 -8.081207843447668626e-02 3.432323961291944281e-02 -8.952919281695928891e-03 1.440845512477166579e-01 9.372295732164165338e-03 -3.180221738351642902e-01 2.021980383526293390e-01 -6.826256029987030904e-02 -6.360319427871202747e-02 -1.692175549026093684e-01 3.607129609617479998e-02 -3.652056033224469755e-02 2.461569517235050880e-02
3.262193738791731995e-02 -2.199565186207504824e-02 -1.515471160371904824e-01 6.606712744387881198e-02 -2.707046485647786674e-02 -2.379139617245059138e-02 -7.287238611908856967e-02 5.633105356980716572e-02 1.903140614217093685e-01 -1.274815224959236770e-01 1.412247201938557828e-03 1.338606814478285334e-01 5.191173426960318804e-02 1.889653703861595563e-02 -6.377724794099703942e-02 -8.869752408074439709e-02 -2.305720896954506494e-02 1.133992235604088933e-01 -8.279567770342895205e-02 -7.777744591682515807e-02 2.208615410105207455e-01 6.389048260245691786e-03 -3.185963090511451101e-02 -1.994884623293579837e-02 4.258210829630522387e-02 4.684577215826948859e-03 2.594243642116841886e-02 -1.969756627665298354e-01 -7.743132149476078530e-02 -1.578302763003898435e-02 1.384871452943906289e-01 4.616334631181630288e-02 1.434927088417113639e-01 6.791868203766895928e-02 -4.596001642849935342e-02 -9.244428800685314251e-02 -1.565757155169267834e-01 -5.467954565547462897e-02 7.412221909688583577e-02 3.336366424643608108e-02 1.412508481088716183e-01 6.794694838682049931e-02 -1.499289008477920349e-01 -4.362038226380425543e-02 -7.180739563173317011e-05 -1.666875339731258704e-02 9.933924417552603137e-02 -1.028397878068943588e-01 -1.310528967353499219e-01 -2.462338436591675339e-02 -1.506447485244742368e-01 -1.922462016110847993e-01 -6.993968941173840659e-02 -1.051816631714875411e-02 7.878455961966839005e-02 5.452674092420203150e-02 -1.080047756786992920e-02 9.657799992397543554e-02 1.051354980720681787e-01 -1.493686867838003168e-02 3.204602593187876741e-02 1.098236037921904995e-01 -3.320048796089605098e-02 -4.333430717811163901e-02 2.046003185362247484e-02 -2.467850473272684836e-02 -1.548483747401997179e-01 1.028855265126914637e-01 6.327619073539864081e-02 4.955215169009651033e-02 8.078662489892808607e-02 1.551893008319126799e-01 -4.804346960973218672e-03 -1.938337516558358009e-01 9.685402539493577490e-03 -8.298810759386049396e-02 6.732745443128935504e-03 -6.571990884687085865e-02 -7.323319798311665740e-02 -1.151281577753736490e-01 1.318542877053661133e-01 1.668786620229470163e-01 2.706358022842346722e-01 8.567130308872587807e-02 -2.014292455412122762e-01 1.582042789421019835e-01 -8.893299573725360618e-02 6.858661535111851282e-02 -4.377447090216930736e-02 -1.382317110532534825e-03 -6.578871419482471006e-02 1.103723660540194135e-01 5.840487315781944105e-02 -1.634187402432028119e-02 3.226773667896973979e-02 1.258749980567352156e-01 -1.262062316112551319e-01 -2.475381672040799508e-02 -7.385750183892367433e-04 -1.047424504160593683e-01 1.007600610988546724e-01 7.920757457525597067e-02 -1.854728865849651631e-02 -7.653963153210129045e-02 1.570828542549902729e-01 -2.063876076308421292e-01 -9.349148986164365280e-03 -1.443460997015327540e-01 1.400978507568744445e-02 1.588171959282292517e-02 -4.820126687592932169e-02 -1.208074052856600578e-01 5.613049507751918105e-02 -9.802990979993969622e-02 1.391019260971457783e-01 8.096575671584875511e-02 9.645938445241700188e-02 -1.329697109131634247e-01 1.677259112484363046e-01 -5.157896061564007373e-02 -1.357015976395650469e-01 -1.491912223878583410e-01 -1.064592548425517399e-01 -8.631559365983902665e-02 7.377605903046653701e-03 -6.708715387792943408e-02 3.655898085857496593e-02 4.891787396207208233e-02
-2.131105689316540458e-02 -1.803856158318338856e-02 6.673382307562411575e-02 8.723995087071752252e-02 5.485485990939802797e-02 1.349811372805714837e-01 2.483915575196852243e-01 -9.095443336052119743e-02 -9.347846483919973470e-02 9.876976795771883269e-03 1.335725787573478207e-01 1.168267384488118621e-01 3.668598250724658394e-02 -7.243323787443974038e-02 4.841988142988624261e-02 -5.942659481530749438e-02 8.401935398410392483e-03 3.646552660275617641e-02 -2.975493859019920362e-01 -1.194989119495895452e-01 1.628533217018104662e-01 1.328031529231750718e-01 9.736321008600526405e-02 -1.481849313436222892e-01 -2.340740503719574983e-01 5.076430816736027252e-02 -3.075040845302139461e-02 2.736777513185323363e-01 1.557102076284544619e-02 -9.466884382656966246e-02 6.865949746954241872e-02 3.453227705204523629e-02 7.999525438597017424e-02 5.020286563621607911e-02 1.558072592895073383e-01 -9.873872723818237496e-02 7.714318997681317291e-02 1.754731507670716228e-01 -1.626359750285503725e-01 -2.661902112043584845e-01 5.848348377908497986e-02 3.244076812024839773e-01 -4.872495789175832620e-02 -1.349548696401521308e-01 -2.735134536431317251e-02 4.434288522356939766e-02 8.974206212523551385e-02 1.342491947283493969e-01 3.271436354878576314e-02 -5.222113733537026709e-02 2.005541640542899406e-01 -1.430690588789481632e-01 -1.241796599764365960e-01 -2.420138717406065607e-03 -6.338561426487415718e-02 -3.436138800916814506e-02 1.606485981462413837e-01 1.256353945581560085e-02 -8.665872051153471894e-03 1.653455051588518521e-01 5.229844964499703874e-02 2.218285713098954726e-01 -1.895435442056421504e-02 4.812824728788530487e-02 -1.145965889913462266e-01 3.619290017398150896e-03 3.159278083106184000e-03 -1.046003875549765955e-01 4.803280477778261448e-02 -9.718607432803155755e-02 -1.026924469458461303e-01 7.630783426247457479e-02 3.639912622177682994e-02 -2.113849878400094612e-02 3.206189358889732083e-02 1.366349039993505765e-01 4.819022363078917515e-02 -2.837431998162371488e-02 1.176836329386043434e-01 -3.618740310510419611e-02 -3.391391401873316419e-03 -4.215172033836434712e-02 9.069437507483635308e-02 2.713242461489021734e-03 -1.801729312775283975e-02 -1.534820624261761142e-02 -5.861541753438311020e-02 -5.517006068201025376e-02 -6.069320356585393601e-03 1.569284733942995225e-01 -1.095440632679675341e-01 1.092097617342209781e-01 7.993718288680032313e-02 7.252432738667934087e-02 4.902955067824335544e-02 -1.588313182918786939e-02 -1.001526291352332759e-01 6.263088206713000872e-02 -8.881714222463268915e-02 8.058541416891695439e-03 -7.909235031253908019e-03 -1.194640723553427458e-01 -2.056698713687715452e-01 9.573642937533373420e-02 5.411616715022689317e-02 -1.029643156036966628e-01 -6.191538050026750006e-03 -1.193291721106794490e-01 1.016216757220814821e-03 5.824231592411013153e-02 8.161367631894859975e-02 -2.679826713630028071e-02 6.641110173286657314e-02 1.962647800149583052e-02 -6.259639404617876879e-02 2.835063678813623533e-01 8.325435145717588470e-02 4.006787326498671004e-02 -9.551807235900405813e-02 -1.600660411794316562e-01 4.272561951115868423e-02 -1.356899643188873295e-01 -9.782899614594886550e-03 4.451317906561338272e-02 1.037737219942756334e-01 8.800461621884131738e-03 2.741773329714133900e-01 -3.236463709210948142e-02
6.067203930592879324e-02 1.430436003794730293e-01 -1.306400578511922872e-01 -8.194517044177965660e-04 -1.868626347953405639e-02 -1.020745496125489565e-01 1.900158885469020037e-02 2.292856618136002445e-01 -1.021742691607715470e-01 -2.363614646176459208e-02 -4.276570599931624195e-02 -2.084589211278933818e-01 2.363524097651256983e-01 -5.364849206748493332e-02 7.164906412108498768e-02 -2.520453316677311317e-01 1.093228786348800913e-02 -2.255518960499566794e-01 1.355422769974742869e-01 -6.755438954209257163e-02 1.032817044774111681e-01 2.209381023200780378e-02 -3.340406703922212811e-02 -5.137277729594183495e-02 -9.443560926525740307e-02 -1.007610639872197900e-01 1.890012990791558462e-02 5.588314464534707704e-02 6.398234474826935969e-02 -4.522170055301546164e-03 -1.738366538261249816e-01 2.315032730032479200e-03 2.408708511375856013e-03 -1.699064109308766057e-01 6.278298449799450676e-02 9.107510967803837676e-02 -6.218150475148331163e-02 -2.120515721966153289e-01 1.283564676245540492e-01 7.174738675309225155e-02 2.273103964763355245e-01 -3.378053440451209578e-03 -1.868127812387397335e-01 1.527034442155209004e-01 -1.133941490728034851e-01 -8.832154748109398434e-02 -1.225230664280272802e-01 -5.209166431124487295e-02 -4.577181266312271846e-02 7.053088395993092896e-02 -3.630408612306764565e-02 -1.251486856834764516e-01 1.244260516288503010e-01 -8.475297977155703266e-02 -1.140356845595362836e-02 1.192932778498675267e-01 2.658961779599486666e-02 -6.648087239664748904e-02 1.179000870683731272e-01 -3.464357118172224637e-02 -1.182612641914726620e-01 1.339591048109759486e-01 4.091681955307291396e-02 -3.336084481344261943e-02 2.393798830697275309e-02 -1.551815396889555942e-01 -1.704275627971630902e-01 -1.354793383105841187e-01 3.354931760662820117e-02 1.025399716326352295e-01 7.648536743398248738e-02 -6.883976974018554684e-02 -1.539303565303669352e-01 1.744609685427178369e-01 4.144330660616741407e-02 4.504839287607100007e-02 -9.655654575639158188e-02 5.674433204129795266e-02 -1.183813486463581033e-01 3.767958990247236711e-02 -1.036377919651331435e-02 -1.004459778095008055e-01 4.619933184251480071e-03 1.361731147044173140e-01 1.505342609620553482e-02 1.293747428201853233e-01 1.304743941296239995e-01 -1.547565583322962346e-01 -2.837643631943614561e-02 -1.618666439457000783e-01 -1.106105033627656324e-02 -6.971640604981994838e-02 -1.182699387250523149e-01 -3.291181532690406336e-02 1.255396175681727094e-02 -4.366053786041228929e-02 -1.994233280326584423e-01 -3.705766939315918024e-02 -2.106123508982953030e-01 -3.711629275195114670e-03 -9.861581298656998951e-02 -4.378646358685567980e-02 -6.442267245848326551e-02 1.211355385549053310e-01 -5.385766155276436318e-02 4.583530778330192207e-02 -1.437378204989380182e-01 1.170133305642581494e-02 -8.102865673609843666e-02 -1.453284281847069814e-01 4.948491208670077052e-02 9.100013616808112771e-02 7.304076722248975528e-02 -3.445514328609526611e-02 3.784751713523363398e-02 -7.564813956611475543e-02 2.766437782049449567e-01 6.293781986399894779e-02 -4.580030885381189409e-02 -3.076729467016970504e-03 -1.514637539763966046e-03 1.456362811203531782e-01 7.899925010879389753e-02 -2.300976303584561285e-03 -6.431683604865209847e-02 -1.200172477784127306e-01 1.553674918365918235e-02 2.530578180720885473e-01
-2.322284408514111165e-01 5.952406149268821972e-02 -1.502779279142859303e-01 4.027946538114698938e-02 -5.287864591101719414e-02 3.296412927973575019e-02 2.098189180502363707e-02 -3.534594680551949274e-03 -7.924317744614592374e-03 -7.153741150594170733e-03 3.321445658309059995e-02 5.628567738301182288e-02 -8.195142825309756351e-02 1.026814087961344657e-02 -9.002347988656618505e-02 -1.303065192759450819e-01 6.765919328718490722e-02 -1.176198039063332257e-01 2.559010448741589339e-01 -7.598828656167681828e-02 6.100842440430505852e-03 -5.846459120667085035e-02 -1.439344390543634555e-01 -1.939139270844717489e-01 3.279507537563954717e-02 5.293527513742050938e-02 1.109766995268396672e-01 8.130454855660301794e-02 -5.741042758772989946e-02 2.095567922503709657e-01 1.368882051983129067e-01 -2.022379149758319339e-01 8.060584455031449824e-02 -2.398160038188482945e-01 6.320848504124225442e-02 -1.034209853946089219e-01 6.300498310386155876e-02 -6.205025706217563719e-02 5.605145958876663753e-02 6.953805457028292003e-02 -2.001314678348029008e-01 1.962934246779425400e-03 -6.260542517604965329e-02 -3.351023414728385857e-02 8.325091580654753187e-03 1.212418526245588324e-01 3.783182322902044897e-02 6.676497062050232301e-02 -5.705310080404719236e-02 1.227533841876479598e-01 -7.778523426412156661e-02 -2.414673010891811300e-01 -1.157770705795142241e-01 2.324072200191910631e-01 -3.377815860438686951e-02 3.033619413595142755e-01 4.996742297351532136e-02 -5.493283263446156056e-02 1.008181256686351973e-01 9.047485690803084082e-03 1.850211412905045441e-02 6.246052209939811223e-02 2.246252093295521279e-02 6.203688205759691487e-02 -2.361197813792768330e-01 -1.175398763707507094e-01 -8.401194193783767528e-02 -4.494380556522702130e-02 1.368036288628027564e-01 -5.937178138348330608e-03 1.606165249663187716e-02 1.239146020025331113e-01 -1.209663510263695174e-01 1.581973782959499378e-02 1.592939018025558984e-01 -1.497834475486115868e-01 9.646868794528839705e-03 2.366984917354207629e-02 -1.951331351882019116e-01 -1.211796035096673191e-02 -3.956162977232165895e-02 8.690620125327579160e-02 7.265266553119247711e-03 7.742340335190397993e-02 6.541212228151462027e-02 -7.683719369054742288e-02 -4.220162186003875021e-02 3.954201147645110964e-02 -6.633780109565391714e-02 6.944725709640911689e-03 5.054225364388634928e-02 1.286094981025500406e-01 -1.589135036833497217e-02 -1.724878463832023590e-01 -9.628149868566325542e-02 2.486322463414866735e-01 -9.085402862668107149e-02 -1.529570802503654389e-02 4.757586606013591152e-02 -2.488309312586340916e-01 -1.037958696138180370e-02 -1.320947757464507599e-01 7.055207151655379372e-02 -8.447098836706881664e-02 1.109480217655086642e-01 1.546622838714401633e-03 5.837790886730051532e-02 1.761703193528945111e-01 -7.566591411847756188e-02 -1.349006316873343179e-02 2.151451354322438947e-01 -6.888375589277433153e-02 -4.953891861937936153e-02 -8.873605946593807192e-02 -1.878661048724818844e-02 -1.592945571976094876e-01 1.453549909034609899e-02 8.892211986520583145e-02 -1.595812971350231702e-01 -1.910421141328804417e-01 -4.266634133104553472e-02 2.095187228486485378e-02 -6.891767160906411838e-02 -1.079675151767928859e-01 -4.269708434999505697e-02 -1.250502239126822235e-01 2.594798620140343487e-02 -4.961231075706047655e-02
-8.109661886428802535e-02 1.488583352949819361e-01 6.906919984106291155e-02 -6.712026295625672656e-02 5.093136650712312002e-02 -8.012613281545748548e-03 -1.595789318902232287e-02 -9.312067329597480125e-02 1.632805901040790542e-01 -5.376533612925774724e-02 1.017098889463038808e-01 2.623335796330207234e-02 -4.430707663994750550e-02 1.300508229621052947e-01 9.788453296077270771e-02 9.683021619731248253e-02 6.438429654484255360e-02 8.162638338385150294e-02 1.106911799687460007e-01 -1.146630452680625668e-02 -9.776471196736890787e-03 -1.688900689977134717e-01 1.333831514538464103e-01 -7.635355232895203736e-02 -2.221463145581677456e-01 1.133949352872803545e-01 -1.331933332234919998e-01 4.729426619789137143e-02 -9.680780828248793102e-02 -4.674530947829751149e-02 7.286162870076006576e-03 1.326647592927970298e-01 -1.384330187217830063e-02 -1.330168845682594969e-01 6.405091150263272914e-02 1.235143430600547237e-01 -6.871032715507122135e-02 -4.788220272480184225e-02 -1.946782923537965226e-01 -1.290450365735655858e-01 1.210647139938058059e-01 -5.300846147849792162e-02 -1.334132190673461560e-01 -7.673848535185863462e-02 -4.940132105309334026e-03 4.094016738505869973e-02 3.803415906915270234e-02 1.082818348801804081e-01 3.419767966201482934e-01 1.737509584723630762e-01 -9.715837048024904971e-03 -2.790050097854378935e-02 -8.296080695810874317e-02 1.355270048032299057e-02 7.328567059996644872e-02 -3.673801385778132506e-02 3.234291734740071117e-02 2.786023465011600031e-02 7.863734672666983228e-02 -5.512524184538872274e-02 -4.341710519558312359e-02 -1.231863247303959380e-01 3.486960261792949878e-02 -1.311322306461132521e-02 1.973317330832843608e-01 1.504809662237835410e-01 1.075984975113746800e-01 7.535607350118846137e-02 5.726916758203232094e-02 4.578771017396329746e-03 6.199400787724269196e-02 1.714312364156359292e-01 9.047592655988591359e-02 -1.895766422810156449e-02 1.588660577734757155e-03 -4.651303382441141637e-02 -1.166475441817149544e-01 -2.231623601926660261e-01 8.074176008079106404e-02 -5.478072320136881390e-02 1.128565347978413985e-01 4.276380251292553891e-02 -4.344830287370813476e-02 5.997299379635285393e-02 -5.707774318585247947e-02 1.109502579390644374e-02 -2.415521270572901572e-02 -3.947980408207021896e-02 2.303613341462229236e-01 -9.511085876982579290e-02 -6.470888704831465055e-02 -1.053920036152033723e-01 3.566516391257173405e-03 -7.814048380778104708e-02 9.689751561828624515e-02 1.905667649349817583e-01 2.525225254810622641e-02 1.925376003594940141e-02 -2.494145504684258663e-02 -5.162099315760098478e-02 -1.145251637915914722e-01 4.638930101811564177e-02 4.851041339619429488e-02 2.095902386739095791e-01 -1.585714572016492796e-01 6.762534524085341003e-02 9.098350233551412425e-02 4.675730550263729191e-02 -5.751892420508347703e-02 8.729305852941297850e-02 7.453290119016041382e-02 3.549607021783374779e-03 -2.268038119287400789e-01 7.071316581311509752e-02 2.037476530991566559e-02 -1.643813086970554449e-01 -1.218350738055580668e-01 -8.164196984359270437e-02 -2.806495590653967920e-02 2.389143085823695542e-02 7.779375876959161717e-02 7.304602645217411760e-02 -1.356149584867528957e-01 1.265394337660038226e-01 -1.414557404575126839e-02 -3.879377888902177385e-02 -1.418357917274639945e-01 3.399664191613094300e-02
-6.323199790415491572e-02 -1.969819052554206973e-01 1.308837408261540047e-01 3.136898236291266184e-02 9.489891993957723371e-02 2.184082892895922168e-02 -1.233548679198723241e-02 -1.273799830776323368e-02 -4.484201123055655408e-02 4.230062584241482682e-02 4.310170574585297371e-02 7.384234142160765735e-03 -6.415026779148168268e-02 -1.124128013702056089e-02 4.458784523365983549e-02 -1.824575840142916572e-01 4.442528811450656423e-02 -4.646737056671487731e-02 1.238178683777005351e-02 7.731713392741620949e-02 2.854994654539807705e-02 3.035083732530943768e-01 5.713426193946003623e-02 5.700157887180728328e-02 -1.047582913209295918e-01 -8.412516856780966057e-02 1.076188876440229841e-01 -6.902152094801459158e-03 -1.761426422663373847e-01 2.030582071222713451e-03 -7.705938952357933858e-02 2.509934412698277065e-02 -1.504291083032003873e-01 1.280155483704142338e-01 -1.024208460321936187e-01 -7.224541924851154984e-02 2.874131553284238819e-02 5.075700435983975661e-02 1.947763285810757972e-01 7.252049882755604027e-02 -1.808890399409200100e-01 -1.029845906146704959e-01 2.163296356756725380e-01 -8.686017525338280559e-03 -1.834799815384951793e-01 1.135723857228527200e-01 1.071681219950930582e-02 -8.287267288286236100e-02 1.544259730003194608e-02 9.808874683984146470e-02 -7.478802207796814150e-02 1.172207094607346720e-02 -1.716091300170173584e-02 -4.694861201984343313e-02 1.511967599655260897e-01 1.565107504829079121e-01 1.747727436107855475e-03 4.610485653430865943e-02 -5.434980843626116553e-02 1.305419025178366499e-01 -9.404107250588912559e-02 -4.366016490010409673e-02 -1.233077608698964767e-01 7.574841028329473702e-02 -7.494921540404277105e-02 -9.076586203308813217e-02 -1.290058570611131716e-01 3.160998374210693615e-03 7.758984169078436688e-02 -7.763424521556291924e-02 4.226440092496925455e-02 -4.154914404620410617e-02 -4.597004532746729044e-02 1.416133911346564855e-01 1.288868777612225958e-02 -9.384167056529961470e-02 -3.510309982953857544e-02 -2.259050191618507120e-02 -1.112318512220688074e-02 -3.547069562044641300e-02 -3.355892087982827697e-03 -5.928173198103130898e-02 1.034349664414150466e-01 1.705077496678487625e-01 2.899322068800169044e-02 8.231045995360720957e-02 -1.330485860512929386e-01 -1.472134599390588217e-01 -3.586551644312871434e-02 2.631016930370436158e-01 -1.323321038313331807e-03 4.171457240596864423e-03 -1.120051527642653144e-01 -2.858494885654185719e-02 8.177912437538281676e-02 1.841980887139492429e-01 -1.568042924419622564e-01 2.636958248891593803e-02 -9.353105110831531899e-03 2.011230259907447748e-01 4.150030577532051734e-02 1.775588387973717763e-01 -1.633390015128773909e-01 -4.042138547836322121e-02 1.516521173455774307e-01 -1.927339227358151053e-01 8.445852805807384581e-03 1.441905693194721338e-01 2.608808108493781280e-02 -5.333349212728317329e-02 5.225445030938176937e-03 -7.003165610672575092e-02 -2.283866117857371869e-01 1.572409001038683335e-02 6.213708903725828625e-02 -2.145993406501318576e-02 -2.847818324262147913e-02 3.319635698554028458e-02 -1.152131758864035904e-01 5.538118600935650754e-02 -1.216938711305609773e-02 -1.182531274766024793e-01 -2.496404475962275826e-01 -7.697985461127812568e-02 -1.034767748020503225e-01 -1.044784670818407063e-01 -7.434998862552176513e-02 -6.587558995771304604e-02
-5.248226473086350236e-02 -1.187097386329194343e-01 5.591701008197166867e-02 8.162672952619925981e-02 -1.773270251306937467e-02 -1.560837294544290335e-02 7.504189531713686967e-02 8.052847328245701930e-02 1.282158290969502845e-01 -1.494193415016217275e-01 7.167290543948824644e-02 -1.901931460821869660e-02 -9.440839975505786741e-02 1.207868212179146333e-01 1.095819262776101394e-01 -7.895812855012407372e-02 -9.453237167483972622e-03 2.086888416983792398e-03 -9.331862938517535011e-02 -7.247435640319646599e-02 -1.367056640887409115e-02 -2.540968899599033940e-03 -7.477481434306332275e-02 9.745342321403689667e-02 -5.088245727763825860e-02 -2.013619371419941503e-02 1.586455513732721867e-01 7.745199622920363736e-02 2.231488791112921644e-01 1.774170330419542196e-01 -2.384332728362324461e-01 -1.393139553067494416e-02 8.404978843986951609e-02 8.765725581081887374e-02 2.349015560407272801e-02 6.252101514821545303e-02 -5.409720816055300224e-02 4.273819625294279778e-02 -2.553328695914210966e-01 1.246243052607800550e-01 3.031094899791239583e-02 6.058985218612084056e-02 7.833592919979252833e-02 -1.115018226107302030e-01 -3.395295919813368091e-02 -3.282029456262847058e-03 2.621108626699948305e-02 -5.317137333400380472e-02 -6.635224796919310386e-02 -9.226700438778970281e-02 2.544410021735621016e-02 -8.132945573908903492e-02 8.497908071244411610e-02 5.027804195317244623e-02 -3.237401718324709821e-04 1.641397321837303191e-01 -3.965736109064538217e-02 1.932835108346285524e-01 1.898296333298075123e-01 2.459940623564562528e-02 2.828619277181692801e-02 -2.787949239725510120e-01 1.011309219148845938e-02 3.241293120586153514e-02 -2.715523883318751719e-01 8.535962556251772138e-02 5.566577169731169034e-02 -1.346228189119053065e-01 -2.015963639620070927e-02 1.590601333036844103e-02 -9.856017936481543951e-02 -7.776309053898207424e-02 5.041639799340840583e-02 6.603512333811353829e-02 -2.969495404252716492e-02 4.862854868753541115e-02 -1.747910092420848771e-01 3.329595338449662517e-02 -6.618699005965687776e-02 2.533100975630003804e-02 -8.051559413053350003e-03 -4.525071376584260258e-02 8.003872161576839131e-03 9.776804882766697291e-02 -2.897783853921612196e-01 6.635278546246801967e-02 6.368974840458420383e-02 6.421945788974411928e-02 -4.940475259433359245e-02 -1.426783784847499847e-01 1.682095721421031642e-01 1.694719449957359236e-01 -2.024665146805451274e-02 -8.289501537821203359e-02 -1.681044754635141122e-02 1.007745031613758828e-02 6.294195071189226387e-02 -5.688663214514421557e-02 -3.558507197830124841e-02 3.186810843775795404e-02 -2.054204340289212394e-01 -8.616591018570232685e-02 -6.105225737407334041e-02 -3.968342342942383395e-03 -1.119688101276013759e-01 2.593308615922725324e-01 1.107020909486519239e-01 2.410845733521377598e-01 2.903934174571655077e-02 4.658181634407487434e-03 -2.133901486333113912e-02 -9.525950122667249664e-02 1.226429863084985694e-01 -4.310003005552787841e-02 1.673552365050330918e-03 4.002647560261729520e-02 -8.400526591653776493e-03 1.031943124303630610e-01 -1.744325580121090791e-01 1.450019018588488348e-02 5.010415128147125557e-02 -1.208263926742976085e-01 1.288258151036798249e-01 4.057222597826306773e-03 -5.312731057861786593e-02 5.320734281749699146e-02 8.059760925686697275e-02 -5.547792572762005880e-02
1.628071500048921053e-02 -7.063511200905750465e-02 -1.231570923403370668e-02 -1.706632229974169024e-01 6.021289398889270728e-02 1.871532252250420469e-01 -1.641911866018079882e-02 2.575166216703083516e-02 -1.132616439968405463e-02 -7.088796505524268265e-02 1.194879104441670253e-01 -3.205261954784503070e-02 1.396829982179835783e-01 -6.742181851503474543e-02 1.426108598684861506e-01 -2.228784377902957338e-03 -5.047586656521842879e-02 -5.640090861908959169e-02 -3.138773822718117779e-01 6.659177452838285771e-02 -2.799921549278980293e-02 2.421363630443098061e-02 6.372467776382952087e-02 1.057877930229998986e-01 -7.236936776005606364e-02 -4.318713048853677766e-02 6.800356039810023139e-04 2.215516303995214431e-02 -6.079328971825057049e-02 -1.466918853967496827e-01 -1.874111481872099694e-01 -4.965766559906858307e-02 5.107397739343415115e-03 1.413885282612609429e-01 4.155672030042150203e-03 -9.682673655311169192e-03 2.748698504142860211e-02 -9.936499926851301290e-02 -1.064792764033120759e-01 -3.930075064666919971e-02 1.481495929817259749e-01 1.344788094339780249e-01 -4.661621319536816271e-02 -3.528930178582591424e-03 -4.901110455845941738e-02 2.478139831201345636e-02 -5.662663573744720902e-02 -8.793359192694680249e-02 7.620292980948603634e-02 3.945625230884006879e-02 4.127265584051759140e-02 2.729101070773202187e-01 1.515455584377096987e-01 6.295999788706986566e-02 -5.428603425618156592e-02 6.623781480039467318e-02 7.856697524359679274e-02 8.943145756123847823e-02 7.671941922573658791e-03 -6.413051989883454540e-02 1.522701602781737495e-01 2.188910859752977445e-01 5.741278777816515716e-02 3.745621883664568275e-02 -6.714026481337284635e-02 1.309531686758550265e-02 -3.320637829426974219e-02 1.944467087726273191e-02 4.733326191839170444e-02 -1.861848712452506341e-02 -3.517548603221407749e-02 4.089077513784271367e-02 2.940939965312540094e-01 1.191316126513049661e-01 -1.931324509632786346e-01 -1.051078963010384920e-01 4.059508293595730510e-01 -5.312882170820262817e-02 -8.926963715797585353e-02 -2.046543541107960218e-01 1.565950184563987269e-01 -1.601530981222101802e-02 9.277703189353642133e-02 3.026250950777158166e-02 -8.074560072694837720e-02 -8.153792069521275873e-03 5.560036567042091205e-02 2.930670352168546558e-02 1.754098706995731172e-02 -2.052478346531863007e-01 -1.688608586976521331e-01 -9.748298978954704486e-02 -2.022760652698626926e-02 -1.261087758707179866e-02 -9.162710772310210527e-02 -1.288268162734702293e-01 8.592070259674539079e-02 1.054860193394775159e-01 -2.890730642107650766e-02 4.442239103258282390e-02 3.063874640734733368e-01 8.198989605719869678e-02 6.900684174224722134e-03 -2.982819451737815306e-02 1.160342266834892416e-01 -1.840481799810262387e-01 9.400299198487040153e-02 1.137873246039749695e-02 2.067090156244487387e-02 1.057952097466921815e-01 -8.539403632822434309e-02 -2.472144523260575433e-01 -1.176406944727139275e-01 1.918789673589300568e-02 1.678817814600099823e-01 9.123729112024013543e-02 1.621979436985736822e-01 -5.809184782142256392e-02 1.046403290232745531e-01 4.326612755108662917e-02 1.405579698189026727e-01 -6.458741823513760270e-03 2.279203602083840208e-02 -7.987671145815333773e-03 -6.256832982122141618e-02 -2.578213298215497121e-02 6.933900940332504703e-02 6.214014159436400536e-02
2.347910060717827707e-01 3.465422236320529672e-03 -1.166329201102698637e-01 1.313333563084902178e-01 -8.137638434462525841e-03 -1.574816431395149041e-01 2.198180335800060115e-01 9.435072889301505950e-02 -4.625450989666211876e-02 1.550669089633864572e-01 2.865302258117247494e-02 -1.214137674091460839e-01 -1.091621013241307198e-01 1.001293840063151169e-01 -1.375018539552038399e-01 1.862337582448570228e-01 1.169602657729975487e-01 8.794737528313219255e-02 -5.980295182977953677e-02 -3.930989940415503120e-02 -1.744301864924389656e-01 6.016051881859123956e-02 2.477293002173724945e-03 -2.576893894041418220e-01 -1.074350155946293651e-04 -2.546301072387454068e-01 -1.163233838042006252e-01 -9.811873612456945004e-02 -1.822219183610809118e-02 -2.949799208228754549e-02 -2.628714590563464570e-01 -6.514191217551250357e-02 -1.580904610099375107e-01 -2.070787366556153808e-01 -8.806958626111575927e-03 4.513525848645597721e-02 -9.949947453337473248e-04 -3.023708471355413541e-01 3.593501707702311809e-01 8.911167719898292761e-02 2.698075112786375573e-01 2.337264722549545898e-02 1.254855258616555391e-01 -7.998781708402086243e-02 1.274705132166814026e-01 -6.467538168361529338e-02 8.582887292083805908e-02 -1.824107835710395142e-01 -4.225583502323903423e-02 2.264646100813730856e-01 -3.873213940483229145e-02 8.255368427190318270e-02 -1.395047503777994136e-01 -7.501474327451829486e-04 2.016523877716876467e-01 -5.077912777057572158e-02 1.622085109702873229e-01 -1.270386341685923737e-01 7.873835303414315409e-03 -1.467665966556121193e-01 8.768041355209969800e-02 2.478482910174087950e-01 1.948153021827340667e-02 -1.376999216837374029e-01 -7.354366450869651017e-02 -8.394774349653022494e-03 -1.440472946768210083e-01 1.485690552977733392e-01 -7.299450326567390179e-02 -5.903355895285343491e-02 -3.139945662144345145e-02 -4.186575317851820577e-02 2.421703141701165001e-03 -6.337908473323775049e-02 -7.670108843138306876e-02 7.004177764303900870e-03 -2.082747681226095049e-01 -3.915956940423750976e-03 -3.856627447664862790e-02 1.644932622555362323e-01 -1.561328831747656742e-01 1.434278514956648931e-01 -4.451108459520164429e-02 6.644014826650179728e-02 1.194647764477720780e-01 8.860105083649351398e-03 -3.484681215442915567e-03 7.276404943077294241e-02 -1.520549572153610807e-01 -5.454290945079780933e-02 -1.380547421479375036e-01 -3.246823986696231734e-02 2.122447500848008706e-01 1.373990292651746867e-02 -8.991969972438290659e-02 -2.418976776983631713e-02 9.579913623707796144e-02 -2.194298534960142585e-02 -5.391068612769839979e-02 2.109274275995950965e-01 2.383813704140733680e-01 5.769194094509030868e-02 -2.412634632859456466e-02 1.853062166234685504e-01 6.571819384071880821e-02 -9.674020602232823174e-02 2.179413049545065925e-05 -4.994624535911811047e-02 2.484487175521681024e-03 2.024284278687304636e-02 1.378707996142930214e-01 -8.194340546619073573e-02 9.331485131494274277e-02 -8.765936260946302627e-02 1.447887632021127857e-01 1.491291533254130719e-01 -1.329639643104810476e-01 -7.991238127199246088e-02 8.094682740502838481e-02 -2.660881763036165304e-01 6.367654166252437187e-02 -4.278299104600323532e-02 5.821804863533744379e-02 -6.065522981031452876e-02 1.780758267199223921e-01 -1.272467067568230636e-01 2.262156785257887770e-02 -1.465598293429449805e-01
-4.659366556057059627e-02 8.618737443613183613e-02 3.394547101210623752e-02 -8.190932974152394241e-02 1.443375047765267649e-01 -7.481170491749018769e-02 -2.445028055636514950e-04 -5.078842947866551299e-02 3.929167068992576312e-02 -1.753623201576080815e-02 -2.177822296159553569e-02 -8.325808092040602737e-02 4.418083304240938425e-02 8.134486988033291788e-02 1.556261256949899863e-01 7.795765124965627069e-02 5.625285217337280819e-02 -1.092375794199092025e-02 1.781557550989421312e-01 -5.152031307481860084e-02 -6.562196196998777709e-02 5.152073086335729607e-02 -3.796837519979761461e-02 1.536237002077045673e-02 1.158634446153670727e-01 3.094931644281823102e-02 1.731358901652850502e-01 2.181765325080782525e-02 6.985823166030688536e-02 -3.702664769590877092e-02 4.514017828020124717e-02 -1.886368282499941151e-01 1.036116649200105599e-01 -6.365502298850982121e-02 5.131575707220843718e-02 6.326283641830490745e-02 1.933222346322608851e-02 2.313672662829811127e-02 -1.577831032192473781e-01 7.652820918550198859e-02 1.838900554268200205e-01 -3.839333574600515414e-02 -7.818195693983122710e-03 6.293919155851973590e-02 1.495562405088194380e-01 -2.596936103201796710e-03 1.351335802920011486e-01 -1.298344866623496376e-03 7.294499415640304241e-02 -1.017574324624850174e-01 -2.040931970880250912e-01 7.842321304336963284e-02 1.481536156304815409e-02 -5.113148801422062045e-02 -5.701968650622229323e-02 -5.034681475816066287e-03 -7.819038318365029161e-02 -1.690049033365660647e-01 2.945659426608987930e-03 1.025253139890173887e-01 -1.127661135395569975e-01 1.515787880251058262e-01 1.493038381223547040e-01 1.006777544852892614e-01 -9.533865805937073723e-02 1.045792090392332202e-01 -4.349997804602613594e-02 6.493955189870967426e-02 -1.026597319846438289e-01 7.600780569679521648e-02 1.930044297304504917e-03 -5.152519090345000774e-02 -3.505441050278267773e-02 -7.635891554459348085e-02 -6.064951507065944637e-03 2.455112738098572389e-01 -2.186903863615415888e-01 1.458471128044152021e-01 -1.266565519377524929e-01 -2.330301371147191353e-02 -1.284781486381214033e-01 -3.055512500552955840e-02 -1.419657244731494239e-01 8.158104760329975419e-03 1.790626045589165938e-01 2.634265996863536033e-02 2.103716336521135877e-02 4.825135025340044487e-02 2.222758569555328620e-02 -6.094426424873332707e-03 -8.742389011413744665e-03 4.673262674477284689e-02 1.167865815272596253e-01 1.169449471017795783e-01 2.093791674152532117e-02 1.664707354932043470e-01 -1.319579361021977759e-01 5.002601171361795163e-03 -6.269384888295383151e-02 6.533316996347482419e-02 1.243158678012597912e-01 -1.646056623804099672e-01 1.267293766371755948e-01 -4.829685380957685764e-02 4.363611884034933677e-03 -6.223909060775530827e-02 -8.276168114696111355e-02 2.542398434626423967e-02 -3.541894576637374947e-02 9.781143874535000449e-02 -3.421525966084471015e-02 -1.496850983674310465e-01 3.115721218332462988e-02 -8.705324400348521396e-02 6.184255548391017626e-02 2.527146064787719887e-02 -1.653295748789636588e-01 -1.602149564967384268e-02 -3.670401320284198687e-02 1.239921199213261382e-01 1.277739306273238673e-01 -3.168677316140122713e-02 -9.028452898169822549e-02 -3.371889289025343378e-02 -2.065969144115409606e-01 -4.025107498087842489e-02 1.473267432106740160e-01 3.548306643330602535e-03
8.364834756568503837e-02 -1.778491295804615901e-01 -7.489950863157707195e-02 -2.728306603029295729e-01 -2.332408708933456087e-02 1.907073894016668714e-01 3.396196037007166990e-01 -1.290559319107812686e-01 -1.064268293134525839e-01 -5.914743862711405870e-03 4.822522705553573819e-02 3.443250496121134235e-02 1.546277169148219631e-02 -4.247911521443641092e-02 -3.404333557820634487e-02 1.491053770355467781e-02 -1.379065649101823832e-02 1.663474868730804510e-02 -4.117941736982549256e-02 -2.264147783781294276e-01 -6.790405816481258350e-02 -2.696560255542605478e-01 1.306679595315892173e-01 -2.383107907077416376e-01 -7.257089038602311526e-02 -1.180197454281018826e-01 6.033346083546527877e-02 -4.152707078863078494e-02 -6.382156374523668962e-02 1.143354826913739047e-01 2.252843081629209154e-02 -4.817308518307367171e-02 6.658667419943355148e-02 -1.052427131092172063e-01 2.255768751253229010e-01 -3.484447856702231616e-02 -1.078136526624649816e-01 1.100470305183214453e-01 1.895014264222799616e-01 1.455585373148783612e-01 -9.040534459807750278e-02 -5.334291082934961709e-02 -3.014485146106354527e-02 1.498656689196413601e-02 -1.178818814993934094e-01 -4.122319593966029538e-01 -5.224253104640615847e-02 4.794736840455229160e-02 -2.194487690534089458e-02 -4.446709072534756751e-02 -2.684752889439996903e-01 6.648179148774298330e-02 1.904296537586817606e-01 -1.166090810291509766e-01 2.003077240199374331e-01 -8.228982573927721977e-02 2.508847226850081102e-01 -1.326345333970328499e-01 -2.083621149900995173e-03 -2.669401362620051343e-01 -1.775807656973849014e-02 6.592335617255540292e-02 -2.223339474342104008e-02 3.529396773646858304e-02 6.962985292655551883e-02 -2.396808385400967314e-02 7.311308196304008855e-02 -8.719307311169315067e-02 2.125740546452336566e-01 -3.603589018018153040e-02 -9.913762897063889412e-02 -2.576690763599383260e-02 1.388590403806253155e-02 1.009943635895863348e-02 -2.206846042764701865e-01 -4.670271378057355705e-02 2.553861490424526592e-01 1.074187327458916846e-01 -2.036774642122582968e-01 1.132171046607589882e-01 2.300087363593845968e-01 -6.580464432977387035e-02 -8.451491162413322933e-02 -1.233465881363409872e-01 -7.967798375757755014e-02 1.528695956372926046e-01 -1.906946143386930026e-01 1.032146484879020581e-01 -4.121223723692084284e-02 -7.051058685304494034e-02 -3.003073904973566771e-02 6.236418511840907675e-02 4.102450038714279545e-02 -2.051308843343153943e-01 -6.961169249077048260e-02 -3.272861846096266486e-02 9.619625463591376102e-02 3.242340580345183798e-01 -3.467013562761733086e-02 6.989675612944511174e-02 1.492230346758855741e-01 -3.588108079656358168e-02 -1.724989903773444799e-01 4.585229236101571147e-03 2.503284597141987589e-01 -5.947560242059431179e-02 -1.127406570858815876e-01 4.323818087559800488e-02 2.276284808043105568e-01 3.283823339068947522e-02 -1.188251169815363224e-02 -1.099015145976453833e-01 -3.509454631690250154e-02 1.266236835864406329e-01 2.516171627986019295e-03 3.410809009680042941e-02 -3.545297474597458587e-02 -2.019520783767770888e-01 -4.943366524845782539e-02 -1.952648040727129886e-02 -9.184236206384760459e-02 1.167138379812903554e-01 -4.556032247993324624e-02 -1.307867589629724547e-01 8.054702079477912835e-02 3.802358125121399826e-03 1.616730482594350149e-01 1.100164433985166140e-01
-6.773932686835572314e-02 1.100191175860625453e-01 -6.806494529525682069e-02 1.163809262189226118e-01 9.033585816061805163e-02 -1.058283295901568839e-02 -1.612257872629160871e-01 6.005942765839420577e-02 -1.498395681833371296e-01 8.114900558410136078e-02 1.660973736353953123e-01 -7.662197220400464304e-02 -6.694627693735698271e-02 7.377538450772287704e-02 1.372595678681510778e-01 -7.900138645867628429e-02 -1.117139043906993784e-01 2.141560450203881371e-03 1.084775071926555312e-01 -9.389237573437275719e-02 -7.459464411850022514e-02 -4.830546322161460848e-02 -9.463984631220068167e-02 -3.127049613297381431e-02 6.992740987878974523e-02 -2.897179358425850532e-02 6.277370720834810243e-03 1.592627299799907192e-01 1.310002727090794072e-01 -1.548663375107828533e-01 4.587581807346377549e-02 7.342517272458101707e-02 1.036521910825798087e-02 6.899213793206573908e-02 -1.065214039760027393e-03 1.946473547125599224e-01 7.464405908203256002e-02 -1.200266831561892789e-01 7.398846318651773613e-02 -5.318587211374237178e-02 2.076382145573344440e-01 1.336881365754968853e-01 -3.123011115805961885e-02 2.553193887273905519e-02 1.924564896860510577e-01 -2.153932611170497613e-02 -1.473200617029579718e-01 -8.542580405806164678e-02 1.307145288576228546e-02 -1.342670904897901377e-02 -1.154559652122887914e-01 -1.613238024376946744e-01 2.297961346206050803e-01 -2.104334900213688381e-02 -2.977858974259122576e-02 -7.416186901165799927e-02 2.618741297602142915e-01 -1.079121579686819904e-01 1.069303411183467473e-01 -6.188891804641721145e-02 -1.864535330901320731e-02 1.270617406511406755e-01 1.474494387009952882e-02 5.766906944839156335e-02 1.891263557624268676e-01 6.095019335310888561e-03 1.351254155484873098e-01 1.100316687339237681e-01 -1.632671121616372650e-02 1.802638147695699022e-01 -8.078390771821779628e-03 -4.031189508341145866e-02 9.383108804228292021e-02 -4.678431106292155195e-02 6.250942384702350141e-02 -1.771626083006014041e-01 -1.212852038660099246e-01 -7.216594426046837873e-02 -3.015113647075290393e-01 -1.247017963127413087e-01 2.033733886131508239e-01 -1.027649317417980018e-02 -6.895656431561840438e-02 -2.243455811062270155e-01 -4.219044770996926985e-02 1.280100026249760825e-01 1.319364777317971922e-02 -1.284009894168836319e-01 -4.313944789972318922e-02 1.111456572292652545e-01 1.486483501540500525e-02 8.418202752185809101e-02 8.675740214339056414e-03 -5.932117953652386172e-02 5.970348888386721453e-02 -8.745782165053163359e-02 1.223567301976787869e-01 7.707173793626592717e-02 3.701721687227378654e-02 2.111604096046952594e-01 -1.342050068482899539e-01 -1.392968099916659999e-02 7.669305856093666662e-02 1.431929156677920478e-01 -1.232133754547301979e-01 1.855918604682330747e-02 -1.065096278762785037e-01 -1.541199362102382009e-01 -7.844997274234669082e-02 -8.746140631881468841e-02 1.765786946258189327e-01 1.298932270283860713e-01 1.459536892238489370e-01 4.267702181376515323e-03 -1.066226317471651377e-02 2.960663677849915132e-01 -1.573529154306630429e-01 2.047925103280756609e-01 -2.036368743863124081e-03 2.816180750734989524e-02 -7.624238166952725104e-02 -2.908054828483979531e-02 -4.570811938274704604e-03 -1.996864686703750946e-01 1.100078397014299797e-01 6.723590371526046161e-02 6.864541673856018600e-02 7.922874532708922002e-02
5.688748169062773224e-02 -1.481666048486434129e-01 -7.750453571819290732e-02 -7.787393905621969870e-02 -9.296457020635558177e-02 7.588180624534397734e-02 -1.236356742242848139e-01 6.093533306413021627e-02 -1.175713775423142399e-01 -1.285118085081008166e-01 -1.811435333868997577e-01 -5.470304102589302123e-03 -1.597458952896073925e-01 1.927829071480759854e-02 -3.756823726833225657e-02 -1.187621327907462387e-01 -7.891266053422605828e-03 1.112664659449726784e-01 3.791220352400145877e-02 5.843632065534484082e-02 5.532492340367891823e-03 -1.058513270889471954e-02 -5.591156778687297185e-02 7.815227285338903485e-02 4.369534260171064471e-02 -1.081502118001016477e-01 1.026078211540904644e-01 -4.833122282014826882e-02 5.041499318320751336e-03 -2.334054746938554054e-02 -2.352805762901619829e-02 2.441700650770224374e-03 -1.550643605190347996e-01 2.862383755375337221e-02 1.436835735966491114e-03 -1.456941261059276072e-02 1.148530827102932222e-01 -6.232527186815572939e-02 -1.719407557490952865e-01 -1.713333492438030292e-01 4.326533171330555066e-02 -1.369909547357213431e-01 -4.952788846509734166e-02 2.476600945151432795e-02 -3.318597551304172111e-01 4.189517981823115411e-02 -1.091057558787870418e-01 -9.750395278091193718e-02 -1.379706924302936261e-02 -2.197311022985675433e-01 2.990975793474121361e-02 -1.742319407296111511e-01 -5.599013602456123784e-02 1.420322774286152667e-01 3.456429920470296263e-02 -8.490921018255906394e-02 -1.002341728955112865e-01 8.571539006364742308e-02 -4.996175994187789654e-02 7.554385455834716767e-02 -8.718681870433293846e-02 7.462296819639401002e-02 1.475891250251556430e-01 -3.988686350315139711e-02 9.011060308980245459e-02 -8.721562990364467582e-02 -4.624764606236329845e-02 -2.898637715905564433e-02 1.649790706903527526e-01 -5.800548029151589291e-02 1.145695618213949350e-02 3.251797756640641829e-02 1.571792076269634131e-01 2.485483630431176844e-02 1.623875278416318513e-01 9.168970990279511069e-02 -1.712925928526178865e-01 4.303535084857981058e-02 -2.726118159057278750e-02 1.594523625212689311e-01 7.062657247615700129e-02 -2.559783607261070099e-02 1.011060264220736971e-01 1.409789379147928789e-01 9.080003182899641645e-02 2.177041357738107863e-01 1.607363292029617974e-01 9.624825282499881174e-02 2.281003384949975010e-01 4.121336343700102850e-02 -1.513386042591819856e-03 -3.080755545636205961e-02 1.435319631886009528e-01 -4.031010217050368105e-02 7.201999176308461481e-02 -7.294994153665596004e-02 2.094908690632655557e-01 3.719548861289099541e-03 2.215533944663984622e-01 1.249128479475403730e-01 4.713236043915176171e-02 -3.955768845321376570e-02 7.754655146722019832e-02 -5.171932661554792809e-02 3.043172369008597528e-02 -2.545059391785234326e-02 -1.066949093080962890e-01 -8.913684728201967319e-03 5.594194907266602807e-04 -9.793364227587220139e-02 1.104469109456550913e-01 4.950188858236926476e-02 -5.591570181165640002e-02 8.984059029979675828e-03 4.263777938780718806e-03 5.283146800988177544e-02 -5.457334387212691568e-02 -1.305289914599194745e-01 8.578360340786210514e-02 -2.033552011160864315e-01 -1.674510624779679269e-02 -1.064079642878366372e-01 -1.412154534529774241e-01 -9.706526351549647769e-02 -3.115872288174403523e-02 1.926475000564660534e-01 4.963541888087882881e-02 -4.697846947870557531e-03
-6.735051879965757438e-02 -4.722904914006051391e-02 1.854414602761829357e-03 -4.839307175137266825e-02 -2.401235135650696406e-01 -1.940349857931783625e-03 -1.207035579079480392e-01 1.108849693997593366e-01 -8.033326428421160015e-02 -5.406039540807316968e-02 6.524561367422877615e-03 -2.377122108682547807e-01 1.468338494942999506e-01 1.069616199216529007e-01 3.310922402796401959e-02 -9.794464203477093456e-02 1.591050877031584265e-02 -2.951280836869961399e-02 2.283399020698277104e-01 -5.999129652829859188e-02 -4.267852469066133955e-03 -9.793233379266581828e-03 -1.492216742292701293e-01 -3.045856485549925177e-02 -1.622360519900695741e-01 4.299874802995865518e-03 1.088261429907405736e-01 9.317376246326747324e-02 -3.100883044334224251e-02 -3.790402059092498610e-02 -4.392210899910255206e-02 -1.414050753464855259e-01 7.298955311207354357e-02 2.250442068925336339e-02 3.889039672630902750e-02 -1.443127661055993230e-02 1.456124027910706553e-01 -7.042996467665849081e-02 -1.492986434808340514e-02 7.509483071197343984e-02 6.960556297792770686e-02 -5.282960355112238660e-02 -1.473996075871942049e-02 5.278381646461481613e-02 -2.123940657708297750e-02 6.353522997606732281e-02 -1.676443062995428557e-01 1.505044984477342807e-01 -1.773221199722042549e-02 -1.572015060171772227e-01 -3.348567904628185071e-03 -4.367019631517440534e-03 7.204461919326952957e-02 -4.451205083844813476e-02 4.211773090675879905e-02 -8.068290696760933856e-02 -3.198574852767047810e-02 -9.163452574955255336e-02 1.849368384980351332e-01 -4.753505228183178138e-02 1.246613017163713255e-01 7.575416322153524784e-02 8.823620981392249485e-02 -1.223985640816000198e-01 -9.882994864075665686e-02 -1.184773948480970368e-01 1.463811526055997306e-02 -2.054926239498360008e-01 4.215874434462718590e-02 1.278072738015823828e-01 -2.911962296928536850e-02 -9.273226643484147602e-02 3.518094074008286387e-02 -4.241554244031955911e-02 1.108803703038562238e-01 2.854603200266750407e-02 -9.166673796636994054e-02 1.128349343990417974e-01 2.511821568276498967e-02 4.660352009717680377e-02 -2.855214163793352508e-02 -6.137578196872828240e-02 1.257195272346147419e-01 7.652907675766060236e-02 -1.311951167842219379e-02 -1.028292946352130921e-01 1.167717962697192163e-01 -1.222843671243705257e-02 1.159580943134275177e-01 -1.217685124619485859e-01 1.941860636039409727e-01 2.100203212819573215e-02 2.312101009818701407e-03 -4.419166090651401035e-02 -1.508831644770809999e-01 -4.438242411820471356e-02 -1.295932361057507698e-01 4.174488184723539053e-03 -1.375922047256386560e-01 -6.877107209725770443e-02 4.157096191311373395e-02 -2.218392354764219324e-02 -1.734789601373200596e-01 -6.599170702385526166e-02 -4.523705374779315308e-02 -1.448762340060868181e-01 -1.329148908288139697e-01 3.295043874214589191e-02 -3.207190288848896925e-02 -5.145987906633247427e-02 -1.463966581145564605e-01 -1.376951891169013176e-01 -1.367344639611194346e-01 -5.138308237922811078e-02 -2.348131843523897089e-01 5.237699452861082489e-02 4.461584059381713818e-02 -6.424635838107971286e-02 1.070995393957317326e-01 3.960602246208102389e-02 1.340068642025895977e-02 -1.114936646338515747e-01 1.306082328560234651e-01 -6.455668878013387513e-02 2.669273233804735773e-02 9.451241990201121601e-02 -3.201887821556930608e-02 -8.431790919791591621e-02
1.442624804621129853e-01 -8.756249952185628238e-02 -4.328363184470100655e-02 -9.161827253885447553e-02 9.902793543983251512e-02 4.402351534929709043e-02 -1.392155641015331846e-01 -5.285066169956717519e-02 1.432059725002029216e-01 1.077738608114913871e-01 -1.021633991655587492e-01 -8.513999654900733516e-02 1.277062267175880193e-02 1.028662328170136531e-02 1.522490901306627620e-01 2.450764709078813441e-02 5.736068161544844758e-03 -7.481909032171726870e-02 -1.581242711443994475e-01 -7.315720532246652863e-02 -1.398743371738707664e-01 -1.996229682339924205e-01 4.445340697505165486e-03 -1.139089821071380751e-02 1.066121102988886737e-01 2.019060496574644759e-01 9.541975560449439744e-03 -1.468053624309551553e-01 -1.045052655787171297e-01 -8.982253993816416426e-02 -1.412617787465652490e-03 3.365301867004046911e-03 2.282488327449651022e-01 -3.143389336252405686e-01 6.227396534295295827e-02 4.717098080485331718e-02 -3.327103959398498151e-02 -4.437562158752436647e-02 -2.805246358379586136e-01 -9.414338539390552929e-02 -2.989038378613948638e-02 2.568952993600655613e-02 -6.504317404137852088e-02 -1.757624335039594532e-01 1.488772164896470240e-01 -2.983068776337827535e-02 1.956209478197707546e-02 1.787218939235692139e-02 7.766625075808077094e-02 2.188339080132556402e-01 -8.629044282918328299e-04 -4.190880980430505831e-02 -1.075612398330318825e-01 -1.114232818618414306e-01 1.361774018166184153e-01 -4.647343554593807990e-02 -8.248306760131364490e-02 -4.610209470100506274e-02 -4.793099378604058491e-02 -1.812384507654969668e-02 2.509093946427833344e-01 2.312607638410144051e-02 -4.500318246021568075e-02 4.244203924819215344e-03 -3.214441424202572201e-02 5.467735130590734710e-02 4.351841624298293139e-03 -5.629534086885958077e-02 -6.360814189096415661e-02 -1.472391245398595172e-01 -1.247714718934196387e-01 -1.054553757248447438e-01 -1.458408348032023683e-01 -5.874572506205765626e-02 1.519980088030214727e-01 1.152413063220643526e-02 -1.759394543758153739e-01 -2.245509825999192355e-01 -1.777105294262208701e-01 -1.672768409846449589e-01 -1.792067992955706512e-01 2.909062252543772112e-02 -1.304825862533671443e-01 6.407064060074492418e-02 1.189230225677896241e-01 -1.174957177890832878e-02 -3.183811734427438589e-01 -1.336060818874274247e-01 1.074521233602057091e-01 5.174815020494433204e-02 5.182887682286058811e-02 1.263177793644556235e-01 -6.253804873077514759e-02 3.031917003072749292e-02 -6.201122327944441626e-02 -4.532874573054526679e-02 -6.994061085069692985e-02 9.746799482149641480e-02 2.123916882620057178e-01 -8.684440886914750191e-02 -2.828679362838596445e-01 9.979352373804975182e-03 -1.775195722183117442e-01 1.236388317402783987e-01 8.596012819114567938e-02 -5.516549416163964159e-02 -1.922207765315742459e-02 -4.456205508871777243e-02 4.772170602033262016e-02 -1.378941837193908837e-01 -9.843395716749135660e-02 1.250123779514727695e-01 -6.320498980335497591e-03 1.733966971536831658e-01 2.668348305929369238e-02 6.557322517725448774e-02 -8.622637984651281007e-02 -8.033625068336092828e-03 -8.639309054495360185e-02 1.192433076682862941e-01 1.740878995162442044e-01 7.167932141416130665e-02 -7.104178182337080039e-02 -1.033766945820821515e-02 -4.562107110921855176e-03 -3.849415991036970325e-02 -2.398695494181697294e-02 -2.580858072697924527e-02
-3.070034507509640867e-02 1.005208843540058711e-01 6.275095470723329738e-03 -3.490493561733976069e-02 -1.230041321306131058e-01 -9.039994241163416822e-02 -5.191374220654258742e-02 -6.514759283386337141e-02 -2.071206046544959989e-02 9.827033520776082276e-02 2.015869505644342918e-01 1.158945084762943861e-01 -5.137944767904327990e-03 -1.006345785549050409e-01 -6.532593086525687043e-02 2.990352565709419874e-02 9.934227792312420868e-03 4.312743081790095662e-02 -3.008276462970243398e-02 -3.956743821580988030e-02 7.677606074153561777e-02 9.361461358970143976e-02 -4.723148765887296568e-02 -4.953566742420151964e-02 2.444268743426506185e-01 1.294838939042789253e-02 -7.132202431879461043e-04 -2.866653456771279390e-02 -8.521444160236459064e-02 2.088236110353985930e-02 5.548390895698862568e-02 -6.643048272620936945e-02 2.944461386990229398e-02 -1.460967502220682501e-01 -1.325272511231115335e-02 2.759924415289178104e-02 5.006696714551535365e-02 -9.219890199814254061e-02 -2.452543930029477473e-02 -3.420610429757083015e-02 -2.050742948263416798e-01 1.171122979758308230e-01 -7.521505511731926309e-03 1.716622575113850302e-01 -4.914330364751600538e-02 -8.074128448647946779e-03 -7.290420492137975050e-02 8.273973677401239013e-02 -7.424973463427857363e-03 -2.749018567862300186e-02 1.028873417663980910e-01 -7.015801718647274310e-02 1.086619617590433087e-02 8.859959037866035544e-03 -3.213245933354541561e-02 -1.073664070584930547e-01 1.007967948853488310e-01 -1.766996506546070489e-01 -5.039752551997937757e-02 7.016306430126881266e-02 -1.330418293409511626e-03 -3.682936672148757161e-03 1.074646934378900714e-01 -5.239983825841422471e-02 -5.209620324606432235e-02 1.576775700304677286e-01 -6.442047657121796611e-02 -1.214417111853900860e-01 4.299732907965506806e-02 -1.073131763572512248e-02 9.522259150439692232e-02 -2.274260135253456869e-02 7.296134153206929041e-02 1.648411663869390198e-01 6.396289939441787697e-02 -9.993296424039750658e-02 -6.026185020244725909e-02 5.350072259556987175e-02 -5.223303960249039979e-02 -1.512699982090585371e-01 1.523601276308285402e-02 -1.773098632472165370e-01 -1.363051453022940673e-01 -4.463130720275543944e-02 1.602366760154871062e-01 -1.147112365270245987e-01 7.339592925947517610e-02 8.737067397283761194e-02 8.407385704509652558e-02 1.000655766943983616e-02 -2.476667531858055965e-02 -4.382234025311410042e-02 7.866723130636944783e-03 1.083291528692984992e-02 -4.043036768618513133e-02 6.881327754936177044e-02 -1.219882166133836876e-01 3.030855062302006270e-03 1.778611537413129010e-02 3.809449744692483542e-02 -1.509175030405246198e-01 -1.885050240614608019e-01 3.150410991568759062e-02 -1.319719719058033702e-01 -4.269903245084440135e-02 -2.566057603915135321e-02 -1.946768386553889008e-02 1.751758015850690686e-01 2.368723301528015066e-02 6.156501581192629080e-02 -4.436517897076466127e-03 2.125382347752554080e-01 -3.423893424076655811e-02 -1.363041450084877815e-01 1.028944399632062134e-01 -1.122336752728709114e-01 -5.009286656916479147e-02 -2.695161383841306740e-02 -6.421810575398655130e-02 -1.103085917083310996e-01 1.334536662593565626e-01 -7.257790860084947782e-02 6.869802185069527611e-02 -2.824589863809504053e-02 1.179132733892640159e-02 5.892422953631858140e-02 1.382288734046193887e-02 -8.956985883798325443e-02
5.826398586599610546e-02 9.914871239206399928e-03 2.049363281528255309e-01 1.198690692180832823e-01 8.161745004173578955e-02 -1.554411428483680746e-01 1.865626501784803035e-02 1.593616296017200396e-01 -6.066907812581618167e-03 -4.338129452023891525e-02 2.320578854680686864e-01 1.345952439377395282e-01 7.010573382786619567e-02 2.781539265733874375e-02 -4.951096975640162379e-02 8.929828528292667322e-02 2.040986401210611798e-02 1.622902679628379467e-03 9.451161213502881631e-02 -3.250590137849495437e-02 1.474224866945676171e-01 -4.726421223076283235e-02 -5.814761900709977671e-02 6.497728199019883744e-02 2.397576215268271745e-03 -3.264660793365155994e-02 5.233536635283472793e-02 -1.478768678902186995e-01 -1.015331103810812735e-01 1.182936744708125432e-01 2.853839504843953476e-02 -6.187074968350250032e-02 1.023710163676598978e-01 -6.800785500881222079e-02 -5.719561762321172943e-02 1.555895522393396443e-02 1.067063947362570514e-01 1.458996451633358263e-03 -9.232418091175221067e-03 1.284064202374803343e-01 8.768871508781615753e-02 1.032058345760310802e-01 5.005726704295913182e-02 2.221735280064185414e-02 3.924476515706602081e-02 -7.537994945574209849e-02 -6.838631685481266764e-02 -4.296581578910875499e-02 -9.542696676409082035e-02 -2.321267084338236517e-02 -2.815803611888114677e-01 -1.338350879865111455e-02 -1.557348320087531893e-02 1.320445508001551194e-01 -4.301278902390873876e-02 3.957927580670915491e-02 -2.700971872404486773e-01 2.619364287255632195e-02 1.636897543560670090e-02 4.415198732629749788e-03 7.789102747123628767e-02 1.228075152013317906e-01 -1.096517011927772983e-01 -5.748445994652834709e-05 -1.102607982054765040e-01 -1.350998370050790764e-01 1.462393941765361138e-01 -4.253405403056122885e-02 -1.120748697132633587e-01 9.868545917782344315e-03 3.404031808317533464e-02 -8.421579657217437287e-02 1.058229636178985578e-01 2.502703713822990866e-02 -5.397490523473520707e-02 1.168231284971685269e-01 2.088446970475595424e-02 1.092061031500976900e-02 -1.001501555039421704e-01 -8.750779806454425658e-02 -2.665638748657837842e-02 -1.011281534063739052e-01 -4.049829405471836591e-02 -3.147311019469209992e-01 -3.098410364737990211e-02 5.876836775484148290e-02 1.908382155949276196e-02 1.178139223967618887e-01 -3.473457975585721863e-02 8.078820820266108260e-02 -7.808277750386702354e-02 -8.263724167722033553e-02 7.087053220069494675e-02 -1.336052238339762166e-01 -7.892326768148980043e-02 1.619327999002040386e-02 7.926063412482539650e-02 -1.571981383932144830e-02 -4.433628759538496555e-02 -3.485754356144330629e-02 1.365505961251724763e-02 -1.578617898394185648e-02 -1.591251665414161187e-01 -2.742571781835363015e-03 4.569577711462001479e-02 1.009549616955074391e-01 -7.511805759269559422e-03 2.285602704446025937e-02 -1.835247499577019950e-02 -4.614913016012006826e-03 2.802732451549907328e-02 -1.809710983933391915e-01 -3.254437428313357306e-02 -7.077637883864711099e-02 -1.136905588919038534e-01 -6.187698581171538134e-03 1.866944019189808457e-01 -9.074584911174078672e-02 -4.351812413324927797e-02 4.096054447414064492e-02 6.316352380753399720e-02 1.007677762704393826e-01 -8.783303800697508934e-02 -9.684869684518050692e-02 4.940494795489729779e-02 8.049448794963699749e-02 -1.026985280808467849e-02 1.587979874414323020e-02
1.452051609235635588e-01 5.737394441534965361e-02 1.743745294612841085e-02 -1.249557681618477731e-02 1.251778158101141125e-01 -3.319203566939671335e-02 -4.855408740337586321e-02 5.174917198034562071e-02 3.216689706786661496e-02 7.689478341239131161e-03 -3.759544895759846933e-02 -1.128902304561699294e-01 -5.347883186718047077e-02 -4.057476717315584847e-02 8.066360667426986097e-02 -6.142152895571219295e-02 1.105831882005569450e-01 -9.492133830420473525e-03 -2.716273381200284831e-02 -2.920866803446090301e-02 9.996276557554011066e-02 4.085407795417475563e-02 -9.679763270160890443e-02 -1.637059020351538663e-01 1.138809498174063635e-02 1.205202373832394980e-01 -7.586169072869393404e-02 -1.593882474281597614e-02 -1.045787609872270568e-01 1.111961885257987115e-01 8.279880396820251884e-03 -1.149101986831943256e-01 -7.882607583855995304e-02 -1.292305544206503141e-02 -1.877399396407340992e-01 1.996051243007209179e-04 -3.997902252672199536e-02 5.374225473107449580e-02 -9.048596874945739887e-02 1.042705885500262858e-01 -2.862684154824154253e-02 -2.689002906312159755e-02 1.668930084709551731e-01 -1.598193196024160767e-01 2.938527479958426974e-02 -1.048091888537108635e-01 -1.087690147900389759e-01 4.825749477746246047e-02 9.859582022655616340e-02 -6.309616755907324070e-02 -1.346244485976859084e-01 6.879331298235922751e-03 -1.260401956119788502e-01 8.062717790239454230e-02 1.065670429466413910e-01 -1.283703003327199277e-01 7.679413429872108954e-02 6.156740269998672160e-02 9.093122293957510427e-02 -3.199389130972096068e-02 1.693346124644012560e-02 -7.017414691670642579e-02 -1.028430730865389775e-01 1.674299629277679058e-01 1.200823723319979081e-02 8.456502988895638062e-02 1.210465862560301253e-01 -5.369352598836600078e-03 -1.791705048312357273e-01 1.286073945947731056e-01 7.358501573136327911e-02 -3.384709415548665945e-02 -3.259733020047621971e-02 -4.220925948144790829e-02 -1.231486357355984773e-01 -1.056339813797105565e-01 -1.589912485539788922e-01 -2.835152921624966571e-01 9.240489717417385562e-02 1.771771880814095312e-01 1.973298698426813325e-02 -1.365790179896925471e-01 -2.166756770266535514e-02 -9.364126693152716174e-02 1.132495654448828215e-01 1.267143909660449486e-01 3.040106519296615836e-02 3.790354011716616511e-02 -9.212920375122457539e-02 3.126289676851599642e-01 -3.126377468746950883e-01 1.642568126574722037e-02 6.479700396270826612e-02 -2.371176300879565546e-02 1.835923834764627560e-01 1.592265853814923970e-01 1.372340168155955775e-01 2.209747044795132287e-01 -5.258713518074058929e-02 4.706575624444257061e-02 3.924432894133896704e-02 7.002690280560987246e-02 2.044039188365636139e-01 1.063891178150035838e-01 7.662499217317467193e-02 3.556267739830688140e-02 1.104680486469112287e-02 -8.540045014709224391e-02 1.202921005904606516e-01 -1.352023311855951870e-01 1.149976631173139502e-01 -1.227277600182775791e-01 -1.200498320388948409e-01 1.125478557637747123e-01 2.722288014750024465e-01 -3.387635786623577339e-02 -1.884698902421214628e-01 -6.103189608207999078e-02 -3.144821434083651390e-02 1.004062637379404301e-02 -9.217921964791381262e-02 9.946935609168175429e-02 -5.971298483723213452e-02 -1.658362726232837370e-01 -6.464521697089162244e-02 -1.863162969302663841e-01 5.508517264153440368e-02 -2.035846335451246825e-02
6.288210458989351714e-02 2.061665898367074923e-01 -2.788350719924352974e-02 -4.486259377404349519e-02 1.707067080153334276e-02 8.491338329450859312e-02 -4.600770062230754957e-03 1.120334065250595673e-01 3.858871252800988305e-02 -1.456571710824396473e-02 -8.499150288302433076e-02 1.190214958258724032e-01 8.269821455826412149e-02 -3.787252152586162435e-02 2.710714753654672182e-02 7.840482190132148921e-02 9.618140100812637427e-02 1.089184627620519985e-01 -1.419577165516251738e-01 8.679859691452283810e-02 1.137841211990454210e-01 1.149673286667135530e-01 -8.754034110551133299e-03 4.444018883008869769e-02 4.378408381562567953e-02 -1.615449598548549665e-02 1.221635541706848904e-01 3.197055894795146347e-02 -1.378624254495665058e-01 -5.458711436656754623e-02 6.635368257775879630e-02 -2.698710920768806684e-02 -1.003811343839854792e-01 -1.018366774713679035e-02 5.503932065897287201e-02 -1.390699130179167409e-01 1.025698847236597303e-04 1.573261861298335951e-01 4.334476515200465924e-02 4.550073977713659130e-03 1.914302196626646024e-01 2.615768576203905127e-01 3.509123212531982394e-02 2.706807417994844256e-01 1.013808205467326973e-01 6.569295434590208260e-02 1.472567913878902179e-01 -1.311762806271164483e-01 1.023064304520107382e-01 -9.034482813578935401e-02 -1.281807306494301205e-02 -1.439706647220965752e-01 1.264647772415621318e-01 7.589184091914613628e-02 8.725238336116628024e-02 3.974628975881070586e-02 2.201000509837315045e-01 -5.563782280308687822e-02 1.032356525300401617e-01 2.286497760996667461e-01 -6.029247141932055770e-02 1.779402019899433141e-01 -8.084044919864941114e-02 4.845884294713360269e-02 -2.103903760664016173e-02 -7.021569644328146120e-02 1.442544378045228226e-01 2.231049856501203001e-03 4.562973666875622114e-02 -4.751683308842396397e-02 4.904200957558056684e-02 -1.294573781595322742e-02 5.382491824684759035e-02 -1.376508068674819896e-01 -1.318049368159138202e-01 6.593066652505444325e-02 -9.768627169788565712e-02 -5.606060865166695439e-02 7.165136617659406681e-02 1.175068212647836230e-01 -1.082898606649896310e-02 8.605204137675621923e-02 2.368488308510809104e-03 -1.565211283121745733e-01 -8.264002997590365329e-02 2.362030769239620298e-02 -3.215690467568002586e-02 -6.180816383891775574e-03 5.945374730306124400e-02 3.223283280904793574e-02 1.434366044545755947e-01 -1.759712503456276889e-01 5.190043123903678203e-03 6.780225597944343485e-02 -1.239499543665323888e-01 -9.771186992296883311e-02 1.785529830768208537e-01 4.752507589139318839e-02 1.069469176674759520e-01 -9.215733677642230781e-03 1.018646996868210614e-01 -3.709676472051644941e-02 1.175377198551738611e-02 3.496350121963865548e-02 -8.287755995133963896e-03 -1.491681829497895073e-01 -5.039980160045722662e-03 -6.599224284788000883e-02 -2.826532138967980529e-02 1.698738978413250333e-01 -6.315522679098993508e-02 -3.352787691242441886e-02 -1.872404165901624118e-01 4.417668154071557884e-02 -9.426009140303052980e-02 -3.783068380425658184e-02 -9.929696199712238769e-02 -3.540327725481966226e-02 -6.230579054825206159e-02 2.015241080035141963e-02 -4.615919263559479374e-02 6.234167695520003577e-02 -2.511247831061335853e-02 -1.403174643558236789e-01 3.147550908642618439e-02 -1.338844746081302786e-02 -1.930814080330666149e-01 2.888429407334304824e-02
-2.166093023500955186e-02 -7.653462519499153183e-02 1.266292602189058680e-04 4.454358410976250876e-02 1.304968455632938007e-01 -2.602455390260999344e-03 -4.363790730398104528e-02 -1.232253315476463870e-02 3.074502826110139808e-02 -1.397373574168172816e-01 -2.673783402838747145e-02 -1.872860716790546443e-01 6.739009817617047648e-02 -4.828359777645322565e-02 1.782026479412996967e-01 1.001870510596395980e-01 -3.447905451598040627e-02 -2.927493228048253515e-01 1.214799792239051705e-02 3.168154400119214259e-02 -5.032960640359786936e-02 -1.636915728881042642e-01 -1.023277065642610312e-02 1.176461365867652181e-01 9.344841684070112620e-02 -2.027129582207403205e-02 -1.285621945189237558e-01 1.303063345439485765e-01 -1.207934462495259403e-01 -2.794316672486560349e-02 2.387471358126213531e-03 1.754644492772285081e-03 -7.533630757372976328e-02 1.871566121880962608e-01 6.055310788506228573e-03 1.061937828820964380e-01 6.492775218473090248e-02 8.837845440996908164e-02 1.083314743203871028e-01 -1.719693188235547204e-02 1.246868513805117311e-02 -7.873296696480185097e-02 1.320511778270446190e-01 -2.622323691612335472e-01 -4.833327671395355740e-02 -3.587987137979909563e-02 -1.120460059804918307e-01 5.071107544849523530e-02 5.105485005779368535e-02 -2.906980404715536759e-01 -2.138415273487453624e-02 9.187661472657009110e-02 -2.181920268443895694e-01 1.051030011235322970e-01 2.171997864835856495e-01 -8.016890698939294069e-02 9.300329429387167723e-02 -1.602581053533031364e-03 5.125932437326328334e-02 8.700373030834686328e-03 3.447836446683189560e-01 -5.624743303003031103e-02 -9.250842871149203561e-03 -2.462752850361283885e-01 5.392480278366502261e-02 1.317649923779608268e-01 1.145322491033639103e-02 -4.383709489778678074e-03 -2.302331908716058750e-01 -2.407267191637098847e-01 8.884322956783860525e-02 1.756180299649896803e-02 1.435670934731337334e-01 -1.251268570542427711e-02 -1.668846105826910300e-02 7.536658638413022693e-02 -9.898403796035620816e-02 4.742416025378300148e-02 -2.860142635925720378e-01 -1.759469369420729179e-01 8.362426530232201782e-02 1.111816862419049562e-02 -1.696329490721560848e-02 1.367814155717337124e-02 -4.493758471758443345e-06 6.592180330198148253e-02 -3.499743121904124593e-02 -2.094139952100319002e-01 -6.001307412817437348e-02 8.774019564936243187e-02 -8.607770088762779770e-02 3.095333396594426509e-02 1.506631553153288117e-01 -1.622303342721125030e-01 4.838876029846379476e-03 3.100403748901018885e-01 -1.634272031448713025e-01 5.075226745768414427e-02 1.581899476942635052e-01 1.642148357748904608e-01 -9.183553954454908019e-02 -1.801097604903889871e-01 -1.486201703388352890e-01 -1.197508062470632566e-02 1.834175683442589577e-01 1.597824302684312525e-01 -1.515132259568080769e-03 -2.084060497301248316e-01 4.890216649522507314e-02 -3.186929003329450061e-02 1.502523019657793224e-01 -1.330071218101626096e-01 -1.252776174902185125e-01 -1.332549849502263906e-01 3.053510053759008191e-01 -4.011272293106379200e-02 7.125200536909244431e-02 -2.906082960839488963e-04 1.350980482694911222e-01 -5.108222677549718177e-02 -5.505762932865083253e-02 -2.277309780257525187e-02 -7.893208068703397307e-02 -2.851712618914850061e-01 -4.779609085534329560e-02 1.495930531431619373e-02 -1.802702003789354024e-01 -1.294046093546711018e-01
-2.163278560895774347e-02 8.011507047409287263e-02 9.315609797459291352e-02 1.064265225661718828e-01 -5.770645820245731694e-02 -9.516852335463098223e-02 -4.436761763474858511e-02 -4.432112157834593863e-02 -4.239365878795788023e-02 -3.454189921453276746e-02 -1.316920095660502610e-01 -6.844761460917764273e-02 -1.020924104305967611e-01 8.838894326594942674e-02 1.066117186641113018e-01 -1.939525858981221429e-01 -1.476091355635364769e-02 -2.951236013296202557e-03 -1.048576710365177050e-01 8.452172080096542750e-02 -1.629406267259815022e-01 4.624119509776698778e-02 1.496381749261456971e-02 -1.312865049345338930e-01 6.364942878001751680e-02 -4.330691847883338941e-02 -1.643946514918211976e-01 -8.109423284238961860e-02 -7.959106039530407239e-02 1.729341902041417467e-01 8.784430705644893922e-02 -1.032482414599105586e-01 6.487256135287325365e-02 6.566598795417540047e-02 -2.103199495270662717e-02 1.674359146211117644e-01 -4.537401496903323284e-02 -9.653798338573835180e-02 1.725761304724706758e-03 -8.576265120027812272e-02 -2.483991783729098263e-02 1.158496852392431609e-01 -7.915885267496028388e-02 1.346750074954398413e-01 -4.302467300050566434e-02 -4.960429806011134451e-02 -1.341471987075513322e-02 1.157415559978390435e-01 -1.357598145150782643e-01 -1.199151736451297967e-01 5.025099335082928304e-02 -3.535165510120827359e-02 -2.384487287566166569e-01 -3.553076491387524571e-02 1.078716265697657328e-02 -4.576437567451938776e-02 -7.870146130542558793e-02 -7.518035729614772067e-02 4.154976291991582110e-02 1.855241952081786438e-01 9.429704777672210173e-03 -5.156803972246887940e-02 -8.092928810386341987e-02 -7.776691480919076986e-04 8.884454843812295000e-02 -5.405728016918730922e-02 6.307632721849937285e-02 -8.208335335672607702e-02 -6.556261688007004873e-02 1.449955492387404732e-01 1.586262445691355091e-02 -9.716243220339393707e-03 -8.575437422145382182e-02 -1.316023047642722252e-02 7.998893367105902596e-02 4.577782245946080547e-02 -4.079724499874336219e-03 -1.470990047926938327e-01 -2.004600969069611840e-02 -5.065925963682333527e-02 7.577036712406065577e-02 4.202365681167342243e-02 3.090636291686286313e-02 5.937618403709397225e-02 4.731671379517462389e-02 -1.073063742963117490e-01 -1.099280349680683277e-01 4.395102980235555262e-02 -9.084570963445159908e-02 -7.718131079730451705e-02 1.381210886921294882e-04 8.949937835766534622e-02 5.726731540451129171e-02 -1.366849811728501063e-01 7.774496673017201875e-02 5.848988532204168339e-02 1.111784347670917612e-02 -8.391661507484460270e-02 -6.439205688292888585e-02 -3.183253879062752749e-03 -3.003297352602618542e-02 -2.038728589592159468e-01 9.506718356957422067e-02 -6.099724834147911279e-02 1.294365372614580678e-01 -6.492007172946598348e-02 4.691455225496246606e-02 -2.094264629330314653e-01 1.788984950313126931e-01 2.002062276931741019e-02 -3.984633827751059981e-02 4.159216190686616105e-02 -6.751508780974237178e-02 4.851563122323733490e-02 -1.129766225447899203e-01 5.443679017007268389e-02 -1.541123392964935945e-01 -1.811234129261699299e-01 1.675536660356558016e-01 -1.948520563538319941e-02 -5.274805371635740009e-02 -2.896772570596254422e-03 -1.293639962351376960e-01 -8.217448520925496602e-02 8.062953991091756714e-03 8.464011803842201587e-02 1.264300684624136417e-01 3.930179620412035252e-02
9.990106802107621975e-02 -1.681330872718587166e-01 -1.125261878603832921e-01 2.676781797650464728e-02 -1.674037989170249485e-01 -6.341357131224105437e-02 1.007822454088384001e-01 -5.139240353785612392e-02 1.001986660941498047e-01 1.088048909081647253e-02 -6.044526321995037123e-03 -2.131872259661999301e-03 2.165977441363599876e-01 9.884449070622631020e-03 -1.301100974309986891e-01 1.632332255151555944e-01 4.093382436809530830e-03 1.666778532153990523e-04 -7.938177775017721260e-02 -7.802263100929364426e-02 -7.906206171343467537e-02 -1.070968584595190926e-01 3.239245746554937633e-02 -9.332387167136619796e-03 -1.435220149028794689e-01 -1.599569627990815313e-01 -1.033242732940540809e-01 3.504997229611755277e-02 -6.537575241118429026e-02 6.048973645872855742e-02 -8.415937393232797437e-02 -9.434683141533171599e-03 -1.976888627759124106e-01 1.045588775133853149e-01 9.965299202917684770e-03 -1.154245319444417300e-01 -1.543418480562407102e-01 -3.853771283746399573e-02 4.209995139773173994e-02 4.610697843579949357e-02 -3.764742294661948662e-03 1.254598837777929840e-02 -4.151013526602141679e-02 -8.754590861043562433e-02 -1.645306458812956507e-01 3.569878339123409572e-01 1.462400919845851903e-02 1.505662013508291541e-01 -1.045004170715663760e-01 -5.729375641979602557e-02 -2.021274326213743505e-02 -1.307457518970983612e-01 -2.513443461920832935e-03 -4.882995487214333852e-02 -1.059658053288806412e-01 1.651874813012983167e-01 -2.627124386626205829e-02 3.874523811437888959e-02 2.671577304295948835e-02 1.182211800812640046e-01 -2.910705303122287230e-02 -2.325297679151031860e-01 -1.034854013797373018e-01 4.099137565220450918e-02 6.904698286583232925e-02 1.718076575820267626e-01 1.018896087316170929e-01 8.580062274750663298e-02 -1.571341221966896309e-02 -2.087015773708305322e-01 -9.804634583708486673e-02 3.517282303837793167e-02 6.241260578066952502e-02 8.061280391413831736e-02 -6.832048794500060473e-02 -1.029765664915817391e-01 1.511787934490330665e-01 -9.326454829489470855e-02 -2.031156178758378450e-01 -7.710177655329314428e-02 -6.113638926677154167e-02 -2.025217950181131682e-02 1.996070945150648923e-01 1.244032560235497180e-02 7.392654943347749807e-02 1.365547436237882217e-01 -3.127792708963955670e-01 8.428700768889983708e-02 7.833554562337316507e-02 -1.291513825428008966e-01 4.952110647538773835e-02 1.578856145349189985e-02 -1.098144672699853525e-01 1.565496609327670929e-01 -1.097784009654801524e-01 -6.481012971957600399e-02 1.894709736395590594e-01 -7.704355489379732802e-02 -3.419697959182605579e-02 4.928762228034675591e-02 -8.682618275103691496e-02 1.259279617135113452e-02 2.764857931037795549e-02 -4.830735909643595061e-02 1.334474654844271246e-01 2.675176247844552463e-02 -2.149080817609324429e-02 -6.583449694098980620e-02 -1.342519956762265876e-01 2.726079394855842469e-02 1.172111789434877455e-01 -8.266176908542952062e-02 4.879888537703896967e-02 -8.922530523058480600e-02 2.415591495002150646e-02 -6.394023215899015400e-02 -6.239530701868438445e-03 -6.837629738297217041e-02 1.512790714923343549e-01 4.923709609887474969e-02 -6.783256700730204425e-02 -1.027658501169091861e-02 -2.949695535881582606e-02 -7.602651427364763570e-02 -8.655380217025787637e-02 3.840929992226029682e-02 1.219669679053122513e-01 1.273068652178890869e-01
2.458242835558215045e-02 -5.880407741805382393e-02 2.191651007997353906e-01 -4.800150016007260351e-02 6.610531174010281230e-02 -2.439030477314155232e-02 7.174193894046949904e-03 1.236512979863154671e-01 1.268920088912304234e-01 -3.268236643656800920e-03 -6.299746350593281308e-02 1.176345661417455835e-01 -1.752119677744404524e-01 3.783404718068033440e-02 1.362351070764086444e-02 8.372283449668724287e-02 -2.211383771487422656e-02 -1.875784034319340210e-02 -1.489613568358455487e-01 -1.843798542905096885e-02 -1.483626941331611833e-02 3.364140745972304253e-02 -1.885795833722009596e-01 9.350396306285098380e-03 -5.581040410353999004e-02 1.811005077555954412e-01 -5.381773691335391130e-02 7.373803769164054278e-02 8.712228271145303071e-03 -1.817495438004249619e-01 2.191297310737946036e-01 2.673485971982069720e-01 -6.986407057905170276e-03 3.962081419110862202e-01 -1.068997847124307787e-01 -3.125730751841920146e-02 -6.899946102366344425e-02 9.695847367759291568e-02 -1.484530801280008194e-01 8.257997536555775064e-02 5.289866601311160599e-02 6.671875960990654442e-02 1.112665839134665963e-01 1.227232918694563107e-01 2.363317342283115519e-01 -1.473066993770836934e-02 1.411173471934238921e-01 -1.200619140471377716e-01 1.362421639137845197e-01 1.555873330004838573e-01 8.800355951740326810e-02 6.137095703059310126e-02 -8.058115988274409947e-02 -1.500297549728688007e-01 2.340116961909123605e-02 7.647846844079733870e-03 -2.341155295295328786e-02 -3.895063893549092354e-02 -9.368640694086263765e-02 5.121717569653237712e-02 1.017645093226135222e-01 -5.110517224407133685e-03 1.624125283474768811e-01 -9.484494753433614367e-02 -7.660870368864945712e-02 -2.344870845023033223e-01 -1.052262572613780478e-01 6.270964255010631067e-03 -7.735463792286650063e-03 1.227692131136317449e-02 3.095975992611754712e-01 2.937535713760613260e-02 6.636772178903095620e-02 1.412831497307685535e-01 -5.397315529774188853e-02 1.173180956059085428e-01 -7.748164059348469808e-03 9.493576206499104719e-02 1.290272314422517830e-01 -1.892421949891995581e-01 1.465919058641571016e-01 -2.974164854113126588e-01 -7.692801640041718736e-02 1.540776158177088462e-01 -8.929155324605833610e-02 2.106028323942788771e-01 9.177478509203003745e-03 1.291461844795454006e-01 3.155046270685743504e-02 -4.587877865636690033e-02 -7.932500924711417822e-02 -8.611925012182193584e-02 8.801183518955392471e-02 1.451623623849208622e-01 1.479833916104511815e-01 1.291149084120244983e-01 -7.667505141173723560e-02 5.979657200968777064e-02 3.130608977179658026e-02 -1.000305592587357045e-01 -6.188320232836019841e-02 -3.367008570723395953e-03 -2.406580017807116376e-02 1.857927723838651846e-01 -1.130605365717568117e-01 1.483866566436261025e-01 -5.684839940987767432e-02 -1.139237596648864648e-01 1.107803998552957525e-01 7.578339727593406960e-02 2.764820777889527292e-01 -6.933822290183878911e-02 -1.548524299382113001e-01 -1.096371643054767780e-01 -1.551012212981146875e-03 4.060479905763804409e-02 -1.850543592767509016e-02 -7.095807690950403646e-02 -4.284221182224173634e-03 1.030057013587129672e-01 -2.191616419997222676e-01 5.122026880866887254e-03 2.643796745603074066e-02 -1.834378079803184597e-02 3.565126603013978046e-02 4.759952562867776904e-01 -1.417040134561547149e-01 -1.667150860715511107e-01
-1.377665560288140467e-01 -1.411220090586234044e-01 3.252565479603609089e-01 -1.067797424418006763e-01 -8.634967396543461599e-03 -2.813356933219209877e-01 -1.890336085631124513e-02 2.503637410321040702e-01 -6.642685039403109504e-02 -7.675586106977383416e-02 -5.066370747854901518e-02 -9.707970757769648906e-03 -4.123159104518926005e-02 3.380397622132206431e-02 2.250785680080884532e-01 -1.398406047776878935e-01 5.392679780999085765e-02 4.692651556707207183e-02 7.163166361832375151e-02 -9.648667421911534883e-03 1.789823175911335884e-01 1.115931802743661272e-01 -8.995089808445448643e-02 6.759665098220814239e-02 2.435666481342585454e-01 7.489266813381835475e-02 -1.290065288108982466e-01 1.830754710187826664e-02 4.153612756504988096e-02 4.310186087419465989e-02 -3.517511342331750696e-02 4.652689100984061521e-01 -1.498164260579085416e-01 9.192409083746518050e-02 -2.923046217109796438e-02 1.956647548425516914e-01 6.314740756048912995e-02 -1.113435820753179706e-01 -2.265905134851665947e-01 2.154312100369369654e-02 -2.071855457593944558e-02 3.148107661207608446e-03 1.022264471598737928e-01 2.006989011600828487e-01 1.743614000094969863e-01 -2.252594273515306014e-02 -7.294002122018301837e-02 -1.069176503498238395e-01 -5.032085395636849007e-02 1.151316533794445873e-01 -3.817774354071100384e-02 -1.247401516389388676e-01 6.839649134659989138e-02 7.018506529685820949e-02 4.358341157108233666e-02 1.795148512812528088e-02 -1.960688644846683149e-01 -9.920615181421765794e-02 -1.498423330564338518e-01 9.787433678291976302e-03 -1.602982953112980224e-02 3.690259733542135268e-02 2.442846574762642664e-01 -1.051781334507944921e-01 -4.409230770646822145e-02 -1.826876340276314958e-02 7.275034191039302101e-02 1.597538868029901582e-01 -1.509653664610843826e-01 8.959286689530115977e-02 -3.951315876431870516e-02 -4.811243099154082631e-02 -4.134716614023759701e-02 -3.522129918242330460e-01 -9.096910746091846356e-02 -4.798852694474316921e-02 3.290075209133008077e-02 -9.571353495415080292e-02 8.262324614015603697e-02 -2.816774410190454186e-02 5.844223771553972574e-02 -1.893360640392831584e-01 -2.188169440236493665e-02 -1.393160530440554386e-02 -3.225488280339872723e-03 -1.493990937392192242e-01 -2.473714845327645850e-02 -1.381661104603189583e-01 -1.006262639208230503e-01 -1.665659835884674145e-01 -1.257868799520561187e-01 -2.660616162836824949e-02 -1.822084077036280614e-01 5.364215368206793483e-02 -7.608187072915179733e-03 -3.958819357114949644e-02 -2.682471504265011332e-03 -1.277501278905315563e-01 -7.953267765564488168e-02 4.596045278445110710e-02 -3.125446685878168207e-01 -2.107492720565718458e-01 -1.675009872364295049e-01 -4.692952991349549907e-02 -3.221430194916047318e-01 1.582383672237703542e-01 -1.600751247007351497e-01 6.243674915979341260e-03 -9.914480855669420556e-02 1.391429042757852674e-01 -5.114253098295709274e-03 3.412317591151959872e-01 -1.160505790974637047e-01 -8.828563380963833085e-02 5.276303998584020577e-02 -4.734489894476075905e-02 -4.053571429684958705e-02 -2.098033803737875055e-02 -1.079531671869828485e-01 -7.142129703507181515e-02 -3.749038319613574172e-02 -2.437724075855120520e-01 -5.745126654389303561e-02 7.948893500581093174e-02 2.104276184176867015e-01 1.667149747275271932e-01 -5.713352402358089915e-02 -5.905907049648695395e-02
-1.046287431968636987e-03 1.110108993573958175e-01 4.586417350805583465e-02 1.325828443429688530e-01 -1.492378596781023664e-02 -6.775791999680942646e-02 6.537006129038163554e-03 -1.238118199000918657e-01 1.787945474103953825e-01 -4.051289143222190636e-02 1.601520784137024089e-01 9.164315066630170092e-02 6.606308950920228296e-02 2.286231755865735238e-01 4.171102984786962536e-02 -3.766412519738119441e-02 -1.698599612389961877e-01 -9.030916357878374101e-02 1.199751150024510049e-01 1.148441778139415170e-01 -2.424598413031122876e-02 2.926455581048970078e-02 5.910999856352231602e-02 1.606820956262491329e-01 1.074328085851744136e-01 4.410495617101399882e-03 -5.784525438805147857e-02 4.136376387268876631e-02 -1.558997076406453963e-01 -9.656011494623163716e-02 -1.651218738458857804e-01 -2.437415562335840807e-02 -6.683079865338881209e-02 -6.082821131660208491e-02 9.429495759580328040e-02 3.319669605011915658e-02 -8.245270683635987086e-03 -6.671384599105639052e-03 1.798264705264789043e-01 1.052380784771790034e-01 -4.171411044873751112e-02 -5.089518315732282500e-02 -1.560998069950651768e-01 -6.542669611699322707e-02 -5.481801461527272684e-02 -2.099680487172962129e-01 8.330958697547172220e-03 -6.890007886876917467e-03 -1.308696765810977991e-01 -5.456098264726495783e-02 2.769032154969029366e-02 8.918831087553749648e-02 2.018416009747567574e-01 -2.507242190240643182e-02 -1.417198919504384924e-01 -2.581103816432294140e-01 -7.025346653215056025e-02 -1.018595934129336578e-01 1.313643148046030884e-01 -8.956762961840654402e-02 4.440775332196916780e-02 6.044519390244408596e-02 -8.813212572209928874e-02 1.813632355535601259e-01 1.165363903540817953e-01 -2.431004041505863689e-01 9.754829705587027278e-02 -4.604999048038693060e-02 -4.597401691626865766e-02 9.102565021742363427e-02 -1.283985030958602891e-01 -7.798028377981841563e-02 5.092381180972881810e-02 1.357028613293143338e-01 -4.148249563975749815e-02 1.120921116807994250e-01 2.775980607847543247e-02 -1.701882362465191312e-01 -9.531636003923422973e-02 8.918309923072557932e-02 2.046437128612118850e-01 2.525146674009430270e-01 -1.132678314859547203e-01 7.224079126492342906e-02 -1.145413856832051130e-01 2.525601737872508468e-02 -7.651439450466741843e-02 -4.802622510765623687e-02 -9.316557745676790070e-02 8.026744045526685439e-03 -7.593674409179268503e-02 1.341067879243426283e-02 -1.768817896078420451e-02 4.699007632473261448e-02 -8.616296315461582922e-02 3.550027380238899438e-02 1.532338753256181317e-02 -5.815780743840321537e-02 8.440109988915473274e-03 1.434324089712055716e-01 8.182722783678730849e-02 5.044474627028149721e-02 -1.385901616338868769e-01 4.760887211091442001e-02 -1.967631316157650856e-01 -1.881135375622658978e-01 -5.383619864228138263e-02 1.734742112156944724e-02 1.176166289032056361e-01 -1.586999328807954246e-01 1.088462932751627504e-01 -3.710886737644725902e-02 -5.985096599414180263e-03 2.134366921868317279e-01 1.010208432674253587e-01 2.640729845014868835e-02 -5.113628807759647288e-02 -1.044132787991438327e-01 -4.509601269882810431e-02 -1.740941373000538805e-01 8.675874148593577806e-02 -3.601006540214829466e-02 -3.434277340271318923e-02 -1.120223010678264020e-01 6.625314559145882576e-02 -7.365835465757378242e-02 6.486991617593397541e-02 -1.548583238299607312e-01
-5.749979396377016827e-03 -1.527701157277402966e-01 -3.580052685615095487e-02 1.183263463900870310e-01 -1.297697961404287170e-01 -8.552820563108917695e-02 -3.676338585669648024e-02 -1.024031698306481220e-01 2.348351055084761316e-02 -1.828872922727688144e-02 8.305442289113386389e-02 -1.919954384490237323e-02 1.189598582890261935e-01 -9.245274330702459714e-03 -9.093534407975498168e-02 -8.159223946978448952e-03 -9.316020770715602306e-02 -2.876249098806841348e-02 9.684547193650305807e-02 1.232214696294978706e-01 1.384502499375329376e-01 5.669073897109736491e-03 -3.131918137465175001e-01 1.364066936238938488e-01 -1.078148832257016659e-01 1.561481420036418171e-03 -1.126131894609187223e-01 -7.286268774649030944e-02 1.389458554698351500e-01 -6.000760974117249485e-03 5.326093516016278812e-02 3.787953046497682247e-02 4.700409423840135742e-03 -3.358583539123993766e-02 1.560404526189636820e-01 -1.201235463398208636e-01 1.511898472319852735e-02 8.742635957915556588e-02 -1.477350238841368879e-03 -1.025399842379148829e-02 2.985750452427186549e-02 1.243842880917686855e-01 6.843341017682247340e-02 4.252285917924779335e-02 1.769426919458590430e-01 4.067318188566926979e-02 -1.943523119962538015e-01 1.166533363391737826e-01 8.155133570963864209e-02 -1.054508451171338491e-02 1.100658272225526479e-01 -9.480353228316595882e-02 2.410595921698890226e-02 -7.848038480124314153e-02 -1.219085455073221497e-01 1.180434131832708705e-01 1.209088528745409230e-01 6.948999279411019470e-02 1.371714851546516067e-01 -3.457174514211920624e-02 -8.413194973154697331e-02 -9.523655282045153520e-03 -4.597606488454208246e-02 1.205625218228507239e-01 -4.508783030218691673e-02 -2.040523400420963390e-02 1.477082331317956798e-01 -1.843056603288133893e-02 2.426005531908878923e-02 -3.332709496184517190e-03 -4.407071608385258743e-02 1.073832360151059789e-01 -4.527695023765042348e-02 -7.484137194834487861e-02 -2.474046943381150512e-02 -1.910548600619241533e-01 3.460148797994625630e-02 4.163000561419728102e-02 2.799506085693734964e-02 -8.360243531010957962e-02 -5.780540412654006088e-02 1.440400608241540481e-01 -9.536487144820450512e-03 3.754968396577702816e-02 3.107506914405904624e-02 -1.090213256733092023e-01 -1.120023292902605910e-01 1.482965606711047768e-01 4.554919286477452506e-02 -7.707518639720644521e-03 1.795396389713131225e-03 1.537244079932649499e-01 8.713588285415251045e-02 -5.134398020944007032e-03 -8.610761040275402567e-02 1.086499832229838834e-02 4.643716815048445912e-02 6.836611329178299279e-02 4.315221904325078350e-02 6.302050455156323061e-02 -1.289953958892865460e-01 1.316909006199949994e-01 -1.002884777028855562e-01 6.382061548787031080e-02 -9.713896848534135653e-02 -1.151847978344941459e-01 2.280273651337896140e-02 -2.279123562775255130e-02 1.295323125615312487e-01 8.302560040582708523e-02 1.236571596980296298e-02 6.828756522179797728e-02 1.559460042506227995e-01 -1.493410188185288409e-02 6.281565126692639778e-02 -8.481730245072999219e-02 -1.442180080648024776e-01 -1.417342314531337966e-01 -8.665006660943558314e-02 2.407005103638513305e-02 6.703960253888269216e-02 3.371522439612614080e-02 1.577775633851094539e-02 -1.428541738712244338e-02 1.934975720100692853e-02 -6.437744977060839979e-02 3.013250156062819655e-03 -6.480828374637874478e-02
1.290855786761089252e-01 -1.113617551396563210e-01 -1.239210687159664204e-01 1.438124065294698328e-01 1.087961097651354431e-01 6.009566306793525520e-02 1.161408581979770233e-01 -6.243086277801489226e-02 -1.929641662784558898e-01 1.403048201269767314e-01 3.747543862846094975e-02 1.132787695211340678e-01 2.137590184526931281e-01 1.351523445925457145e-01 5.142530343880058474e-02 -1.376616776566871002e-02 1.775402394602201284e-01 3.226655327209967256e-02 6.387989257148683764e-02 2.054168759014871337e-01 -8.899571574920865646e-02 -9.459685753399582619e-02 1.933356100865987470e-01 6.578209289930712911e-02 1.298417773543579790e-01 -8.590870525243848865e-03 -1.063157067679884465e-01 2.247600402718248624e-01 5.427390295209293808e-02 2.257425910741021335e-01 7.891587616023119922e-02 3.503802937549230917e-02 -1.129061220445234520e-01 -2.799575519915718791e-02 -5.210498037153449974e-02 1.262076096977292894e-01 -4.859053635657649417e-02 2.042658405711081371e-02 5.905029161120636805e-02 1.969110258715868200e-01 5.216320294003689434e-02 -4.217756259572586625e-02 -1.403488116857797285e-01 -3.893872093478024238e-02 5.827284526393120695e-02 1.873159025033560576e-02 3.635268334606768514e-02 4.016279586303924537e-02 6.731125493162680440e-02 -1.163262138499452092e-01 -3.904954779026660605e-02 -2.428626326733347718e-02 -2.743802384444845796e-02 3.199860131278660369e-02 8.418717944822211308e-02 6.854230667773851537e-02 9.521428055811820279e-02 1.036748321737042747e-02 -9.651809912299648408e-02 1.213621990879439894e-01 3.354495922943363795e-02 -8.482722082800196739e-02 2.751412387395342773e-01 1.283123183706187387e-01 1.304834300962746663e-01 -7.381023985877824267e-02 8.430513019008829823e-02 -1.393902783162077105e-03 -5.349917002078324879e-02 -1.661961666355887268e-01 -1.422309688835340091e-01 -1.624845286166747005e-02 -3.496832256257760736e-03 -1.491031194874873345e-01 4.014787029208249231e-02 -1.447182540605113643e-01 3.833294304366115929e-02 -6.161635701032663892e-02 -3.572160630194298053e-02 -1.386626188964078521e-01 -1.099921934865229489e-01 2.867623530991436284e-02 -1.934806115100793922e-01 -1.163521872449661959e-01 -8.095029790578385509e-02 -2.170081610157640617e-01 3.176198295642050640e-02 -1.775070955259558936e-01 4.961394526383686165e-02 -5.919841827342445933e-02 -1.313331848258372618e-02 6.414929254971161142e-03 8.624152243946221763e-02 -5.104192470778993324e-02 -1.349466347939581312e-01 3.772357886936823518e-03 2.655840672758734075e-02 2.029449646591869882e-01 1.418661731311856022e-01 -1.349473459279671439e-01 -9.253055230475500104e-02 -2.489290213555963097e-02 3.714538403226880919e-02 -1.008045941566898668e-01 6.712473340854660520e-02 -6.391049485543517927e-02 -2.828808289712559376e-01 -1.732289653767642851e-02 -1.322011683740633436e-01 7.815156809990801701e-02 -2.224345970849486709e-02 -1.252329952409607650e-01 -2.011144923893795101e-03 -3.263353939391458458e-02 1.058240919381235184e-01 4.232334702355064482e-02 -4.861425401408614455e-02 2.270498029288607333e-01 1.028047644558437862e-01 -8.436501467280563965e-03 5.142218579855410698e-02 4.357774227680113327e-02 -7.461510102004312306e-02 -2.278491400136959388e-01 -1.647729285679762345e-01 -7.666663117150868123e-02 1.248668652799836826e-01 2.580848953143380364e-02
-1.876767794372841414e-01 2.369214143222880820e-02 -8.045616455862800859e-03 1.134187423496028357e-01 1.241220777449595775e-01 -2.646187078419647010e-02 3.857104211753833306e-02 -1.915356567501619867e-01 -8.788588559495114083e-02 6.430427144147309038e-02 6.059251170776059486e-02 6.017125308940795420e-02 -1.056802006715148179e-01 3.853285571433987672e-02 -1.895484840353578448e-01 3.871598574894600381e-02 2.629285449411137426e-02 -6.760792803183580946e-02 3.672474614232964368e-02 3.619326572937894577e-03 -6.141758973754513073e-02 -1.943517491409950948e-01 -9.041354618374473906e-02 -5.510281428867778997e-02 -1.079783639230934150e-01 1.242844360239103579e-01 5.238810949255331972e-02 -2.587434349127082714e-02 1.613505892274815119e-03 -2.145323350154968167e-01 -2.771275082201136164e-01 6.494319576439880337e-02 -1.644177191159611195e-01 -1.288804412806248967e-01 -8.305196825842894870e-02 1.953724257278369875e-02 6.260352960121802479e-02 -1.130737951843435729e-01 1.316071073052725027e-01 -2.903221883428150352e-02 -5.814021863683747210e-02 -8.870435279734657785e-02 3.574429725486175102e-03 6.068974065665506956e-02 -2.810326906195171129e-02 -1.548303727900742291e-03 -2.562031091396249627e-02 -1.459016135572550055e-01 -5.424744042252089421e-03 -2.149892731506531512e-02 -1.020917212237889560e-01 4.182356990607558750e-02 7.626014483050141957e-03 -6.883938749952440983e-02 4.841569194444989704e-02 1.494123824094582657e-02 2.186154249414475892e-01 -7.422149101915373470e-02 3.897878962826582111e-02 8.860153023461911359e-02 -1.345155681177952478e-01 6.674489969924927990e-02 -1.870434013161120790e-02 -1.251219005138100582e-01 -3.545134188527908348e-02 -3.443246442398448237e-02 -2.008919080943436485e-03 6.615781513652796431e-02 -1.626442252439641856e-01 -1.592917716431710706e-01 -4.073035360070568003e-03 -4.557184638550301065e-02 2.076020079810267094e-01 6.856156338040030399e-03 -5.433298004575280032e-02 -5.159349130963425401e-02 -3.784573369421460887e-02 2.548593419656546288e-01 6.284010982288328051e-02 7.490161415592835881e-02 -1.969028992441139783e-02 9.103002820156619324e-02 1.345440481903392438e-01 -1.477550902085068008e-01 2.015008536976145848e-01 1.359316581941869342e-02 2.215623835555925042e-02 3.034429848562682219e-02 -1.206731454642199219e-01 -6.030765901366279963e-02 -8.130018541978153990e-02 -4.473418461305291721e-02 -2.928655215215837659e-02 -5.733251368169982320e-02 -4.992081890205646300e-02 2.974408849577346234e-02 -3.710018350811780663e-02 1.167304595655795606e-02 -1.229357982565295465e-01 -1.286678966227040588e-01 3.880026709842124277e-02 -1.472537974553201345e-01 1.117492985570876307e-03 1.290486454677416406e-01 1.280610504785779924e-01 7.054183957639401092e-02 -1.926860017290935312e-01 1.522325774842239743e-01 3.787168312452044577e-02 -1.274141731344388129e-01 -2.779622929772768494e-02 -9.682720204245252871e-02 2.838149958624174365e-02 -3.888349246507064039e-02 -1.258132001092685144e-02 -1.515297197007135777e-01 1.307746869359642516e-01 -1.096091638613925015e-02 3.152977626081963913e-02 -1.444513660022581081e-01 -1.094042443836963502e-01 1.576810896806533913e-02 3.067769244487499741e-02 -2.248629976596147051e-01 6.392289678484057436e-02 -4.610838031307278734e-02 3.694681743566272797e-02 -4.096406231116409349e-03
