-4.653117796902001696e-02 -1.230947155754094496e-01 8.035837872836927576e-02 2.423746695907002813e-01 7.919804075127509502e-02 -1.063174926965483741e-01 -1.092790895494330228e-01 -6.132502105626649880e-02 5.386685914578669132e-02 -1.398499511292229484e-02 2.090713318142520261e-01 5.069219815160264098e-02 8.608815527864045747e-02 1.155014713983985863e-01 1.051041691236695788e-02 -1.834872144776106273e-01 -2.322324825004771359e-02 -6.436795136010793617e-02 -5.681632934324024747e-02 1.167689827821199663e-02 7.864462783253924061e-02 -1.934386659442964840e-01 -7.709198234201128375e-02 -7.634272601307112716e-02 3.541365916318633261e-02 -2.544715837854557086e-02 7.585546183208992377e-02 9.737419755154254342e-02 -8.591034825213218762e-02 1.234389796651680915e-01 2.865387278095201870e-02 -7.017075678857349463e-04 1.631818006778527896e-01 5.340177391070405344e-02 -5.163034122935771658e-02 1.540802173395196539e-01 -8.356732853108663969e-03 1.302314988634519222e-01 9.205680297709861043e-03 -1.766507261177616972e-01 4.481984445561228159e-02 6.377048304970540926e-02 -2.375944863786246582e-03 1.923566627835071943e-02 1.104766352417541481e-01 2.234656241887814643e-01 7.894561972665896377e-02 -8.913272930657879789e-02 8.898759710270270559e-03 -1.586837004884311675e-01 -7.663717903856610836e-02 -4.601200534126082681e-02 5.863164447990879338e-03 2.233338659868033815e-02 2.445679887465075086e-01 7.193146375017435423e-02 2.284624203300639200e-01 -1.363260727367172388e-03 1.612928676276476625e-01 -3.130846261150925514e-02 -4.549682388522020143e-02 -1.445912948438998202e-01 -2.500436564391886329e-02 -8.600959851943176804e-02 -1.492192432694988170e-02 2.214733800432922006e-02 4.173492300605533001e-02 2.951509938849267590e-03 -7.885962395797606328e-02 -1.558267657308401444e-01 -2.789187009051575794e-01 -8.066556481545469892e-02 -1.905373990273038012e-02 -1.313021879085700672e-01 -8.214921738847327792e-02 4.621803230777327826e-02 -2.314260883917020756e-02 1.332098159788305258e-01 -8.705310697183431257e-02 1.432707765073341633e-01 -1.304864551831143304e-02 -3.255248694058011094e-01 -7.772335599636888415e-02 -1.376988504849901984e-01 -1.400427252892652574e-01 3.324816188792054095e-02 2.342021255544734504e-01 -2.054518953102970058e-01 -4.120676207719657647e-02 -7.294026406701026310e-02 -2.330076489810151141e-01 7.131345030355715209e-02 -1.386128893802576201e-01 -1.555732141824977578e-02 1.319489770439328247e-01 -6.265860263910187633e-02 -1.054313985372806739e-01 -2.874948947015594780e-01 1.452871105429143772e-01 2.681845018311441176e-01 -1.527970866956874507e-01 2.053859469665295437e-02 -3.884396471076954904e-02 -1.342441101956866056e-01 2.797159168642856519e-01 2.018452516634112667e-02 2.454433741377166911e-03 1.285218278760144953e-02 1.233291331917102038e-02 -2.954160847473828455e-01 4.658927791037942301e-02 2.527976844655154265e-01 2.570222883780070092e-02 -5.412867919173251774e-02 4.130475457169139469e-02 1.275788650094690224e-01 -1.444774909473164545e-02 2.480918858155765627e-01 3.314306233792684020e-02 5.509481126077785812e-02 -1.084236503326250212e-01 -1.941346979978594567e-01 1.053151593379134249e-01 -1.289838569667816903e-01 -1.010236685805149248e-01 1.823485061510659866e-01 -2.099776972389080787e-01 8.696381263638698622e-02
2.402228890016549351e-02 -6.250789995017833056e-02 1.679162521801823293e-02 -1.473529100226852462e-01 4.342341754253605662e-02 -5.742796602393496902e-02 -4.959715908621540811e-03 1.336763127161605391e-01 3.002227375157625125e-03 -6.151198864679401079e-02 1.048206523653006095e-01 -7.176532523961361501e-03 1.217851264779274828e-01 -6.952815220950567254e-02 -2.215845822626745856e-02 -9.188766501369695361e-02 -1.382580947092142964e-01 1.639180081961702160e-02 -6.506445825035586661e-02 -7.413443847581624446e-02 2.030034763208390935e-02 -1.025437018387467258e-01 -1.009234547755898451e-02 -5.421722163286233492e-02 1.911688253173405572e-01 -8.205386495781931411e-02 -1.380188550976987616e-01 -5.418858249296627794e-02 9.401591338723104194e-03 -8.866264049771450939e-02 -5.400098744891028424e-02 -1.171259494825625386e-01 -7.840252775929648643e-02 2.925088259641398652e-02 8.882441781593182484e-02 3.627110929661873234e-02 9.509967175419517527e-02 -8.417106628425078188e-03 6.462232291881651880e-02 4.015667153565777303e-02 -1.541807515284331119e-03 -2.447261636129693385e-01 -2.056500039704174665e-02 8.742540063187451138e-02 -8.103896511304559125e-02 1.874723139378211001e-01 8.294287417444988486e-02 1.526508536427924889e-01 1.748764030351058207e-01 -2.057217618560884254e-01 1.056198396038095788e-01 2.467202122659707675e-02 1.281144027059250290e-01 9.785703994019637197e-02 -6.641918818561226567e-02 -8.899982820153494456e-02 -9.518126296332213299e-02 1.691827061814958622e-02 -8.441946757043156113e-02 -9.535994187219089258e-02 -6.497550790743035487e-02 3.363382831622658414e-02 -6.271706817641260756e-02 1.012285293296570909e-01 -7.894104960545027250e-02 1.368734351845409813e-01 -9.891870736106446460e-02 -2.806194148612705178e-02 5.670801411217242169e-03 -9.805415287803784241e-02 -7.781924765882665407e-02 2.540359142824984498e-02 -4.780081808887984285e-02 -5.825814635451599666e-02 -4.065025558127974281e-02 1.825295973708819866e-02 -8.013796017128703431e-02 1.589618423798413172e-01 -1.865200281327048792e-01 2.392274834859442652e-03 -1.745194285570918560e-02 -1.655810044058286454e-02 -1.400422785491621802e-01 6.289314590738567801e-02 -1.671613983663224057e-01 5.257877791052047167e-02 -1.316251636423018678e-02 -5.168355967777017723e-02 -1.273976792199442432e-01 -7.193022122978123822e-02 -2.351264556894391011e-01 5.997274028007523738e-02 2.274247930460032360e-02 5.356074943199620048e-02 -1.201119874864424314e-01 -7.107550426111271247e-02 5.951352832409404631e-02 7.347837147896176500e-03 1.102214235531662478e-01 5.405333807666145435e-02 1.632123541013483226e-02 3.257767001655231462e-03 1.406003024879957097e-01 -5.947230394964797551e-02 -6.537155811988371035e-02 4.015055732034624771e-03 -3.718589445568461042e-03 -2.436141413214424137e-02 8.796063158773502477e-02 4.913919124138239891e-02 -5.959089757035421209e-02 2.246964183105736035e-01 -5.286693071176142705e-02 5.823646471296617388e-02 -8.068092429553326561e-02 -6.560855818956484731e-02 -4.311753790319290680e-02 1.857479785371908554e-01 1.064182416042649265e-02 2.657671285246775150e-02 -1.438492054768732709e-01 2.338584613578495106e-02 -1.032433351899720159e-01 -6.233495643979009709e-02 5.892382188136904148e-02 -5.059040777546821438e-02 1.650080151717723820e-01 1.303704443933878798e-01
2.560320562476361278e-02 7.243496402225746943e-03 -7.239539542553277696e-02 3.223213640644634337e-02 6.595538090279404186e-02 -5.332935579388447395e-02 -1.066927768409497157e-01 4.355495051282799041e-02 1.767961285538845878e-02 -1.921777500115093643e-02 3.039410131482923189e-02 -8.612778131470701093e-02 5.451573127024270105e-02 5.644356566550901011e-02 4.078369699117973673e-02 7.048397243374450449e-02 2.207252857418300629e-01 4.020085586138077809e-03 5.601130528274312487e-02 1.086236517395448020e-01 -3.956190205076102334e-02 4.673694585215208003e-02 1.164512304340520610e-01 1.109022398222250620e-02 2.760529836442882079e-01 -1.271905885285606330e-01 -6.955759506421720084e-02 -1.518325692775279179e-01 1.019057055238926646e-01 2.439203702031779442e-02 -3.999256719161013024e-02 1.141526853592083890e-01 1.282630654857152544e-03 2.700359052846554309e-01 -2.486154821908558368e-02 1.016056299925275075e-01 -1.041736834290559743e-01 7.331763115369006878e-02 -9.849468427397566062e-02 -1.291974746801932972e-01 -2.285878859847872979e-01 -2.889833491583461422e-02 1.326328055847213194e-01 2.927965631744437053e-02 -1.325618486354902537e-01 1.289532540702573171e-01 4.315542708830027996e-02 7.967797493827011301e-02 7.530821710321748685e-02 3.067289712579875371e-01 3.994138977314015682e-02 -7.979653395201564969e-02 9.702737264899621850e-02 -2.182867357554217347e-01 2.402720492190919127e-02 4.531114643620961363e-03 1.858942327779272430e-01 4.635227113857091734e-03 -1.050656290702072088e-01 1.558249903620150673e-02 -1.420630257016914366e-01 1.429014827792553510e-01 1.866883440595675653e-02 6.899286385855660231e-02 -5.950604456616259696e-02 4.397397928248126392e-02 7.271837179475731765e-03 1.948977549600302561e-01 -1.092639764961092219e-01 -5.697909860971018398e-02 -9.167782276551088294e-02 -1.231105020749006379e-01 -4.100477688324064701e-02 1.095065997981492789e-01 -7.787333673040144899e-02 -1.262840491920194782e-03 6.424377408911785547e-02 7.815959545668686725e-02 -1.363949307765267849e-02 -2.688227162589922337e-01 -4.310614579957990078e-02 2.774804800647380776e-01 -9.394243186159421943e-02 -1.461543869942497631e-01 2.036845363352804764e-02 3.563941365412018336e-02 -7.809551055816474352e-02 -4.043359130747487679e-02 -1.314125508496883504e-02 3.692722266839167794e-02 6.512672874295982739e-02 -1.158943197684619564e-01 1.103465385322148079e-01 -5.846367323481288514e-02 -6.384267062657911218e-02 1.205323745516725109e-01 -2.753424036988163810e-03 7.569492038785967380e-02 -5.032147465012105914e-02 7.457117553877459781e-02 2.664990323507299618e-04 3.225739492947891224e-02 -1.827610493107733047e-01 1.651677142615315397e-01 1.096522227922875209e-01 3.417331111169989721e-02 1.402648065586856174e-01 1.369847446774846711e-01 -1.370516221301536219e-01 1.205024452806694596e-01 6.570320648200130009e-02 1.616205415574570037e-01 -1.315385933202593560e-01 -9.340488461787732621e-02 5.760803381374764859e-02 -8.378674030683905261e-02 -9.638695895623489163e-02 1.409035079136628232e-01 2.231422272346546276e-01 -1.603309327250380598e-02 9.524998693826922103e-02 7.854885022159996399e-02 9.585153802997496697e-02 5.859790743946731439e-02 -4.461417578639322729e-02 2.435331322988067981e-01 -1.185024900663129710e-01 -9.628722675409862042e-02
1.387963653429167832e-01 -3.362899270951772573e-02 9.815276126028839310e-02 5.464479954610073492e-02 -1.216954223627403353e-01 -1.675660801158791735e-01 1.537999848414277060e-01 1.102508144841618382e-01 1.466118594519046081e-01 7.346786012876507788e-02 1.236664650870553661e-01 1.710820672861221303e-01 5.909112147851502093e-03 -1.707175960522522296e-02 2.309332938651584982e-02 -2.382030870608423719e-03 -2.801243497965800189e-01 -9.488693775526083063e-02 2.899892679434429646e-02 2.920165621955124122e-02 2.907977759359808151e-02 -7.170976978207787254e-03 -2.034144374037949177e-01 3.283519167702865504e-02 1.212797325170627237e-02 -1.853055274783945161e-01 6.404357160861659515e-02 -1.870811486335902454e-02 -5.034595964227284864e-02 3.401349909183969556e-03 1.168967118760495527e-01 4.080041003306572600e-02 -1.000317422161498132e-01 1.864710618132523756e-01 1.619989980181666123e-01 -6.205882358597127058e-02 -7.288140404788334692e-02 -2.764400927200775723e-02 5.832910599795387840e-02 6.804900589412855860e-02 1.064559165287459336e-01 7.130448834541631975e-02 -1.242054918537354030e-01 -3.749183071121928862e-02 -1.310938112106362075e-01 6.705824537327727264e-02 1.012792107869633917e-01 1.080054616927212524e-01 -2.688066920668395754e-02 4.931930378949528349e-02 3.224430005198598848e-02 1.606429684468519969e-01 -2.507549973635492813e-01 7.425049248171670946e-02 -4.571764866195855356e-03 -1.095309210261371374e-02 3.713295696968039322e-02 4.310825760972623877e-02 -2.628033290323759236e-02 5.217163495039516680e-02 4.683434937873490189e-02 1.079333305598165760e-01 2.080901671411642534e-02 1.079317806298673577e-01 -1.175995928776745747e-01 -4.506463828592408710e-02 -8.903367510216088354e-02 -1.719971345117510611e-02 1.615779125977204744e-01 -1.750438806768873645e-01 -3.449942408518869019e-02 -4.002921034302176113e-03 -3.424792468105573862e-02 1.815714885569278680e-01 1.127866513596866571e-01 1.005236457009181378e-01 -3.812302471994528236e-02 -2.507239823049832103e-02 5.535057475917723457e-02 3.723522937586897646e-02 -6.303057370607111076e-02 7.104237206342643718e-02 -2.110367031965166285e-01 1.210091658370409107e-01 1.731284712777361179e-01 -1.700980188990190711e-02 8.554472665992314540e-02 -5.592224644049260257e-02 -1.032186622013728378e-01 1.350071816205083430e-01 -1.038047476394788754e-01 2.102810355307405676e-01 -6.916695644090592454e-02 5.077266604087912055e-03 6.446871821687671748e-04 6.277934171248494843e-02 -5.778778000989390207e-02 3.753924481183197603e-02 1.074850300853954638e-01 -1.766355879659071704e-01 -1.682370405661322010e-01 -1.980823410828077419e-02 -1.071128962863279396e-02 -1.433299660085816420e-02 1.325246996678526752e-02 3.409962668049527218e-02 9.679948851068696791e-02 7.978639386622782270e-02 -1.701502585351222230e-02 2.976738359051982891e-02 -1.017862840117164935e-01 7.740520597718909823e-02 -2.839618816021571845e-02 -2.416838696362333394e-01 -6.381682916338003719e-02 -1.002955882434185542e-01 6.229051897250908326e-02 -5.912482628148743591e-02 -6.811118165155898019e-02 -3.354124256889762928e-02 -1.756136907497391209e-01 -1.504162793730122460e-01 5.248264706963506193e-02 -7.969304949299069185e-02 1.057052348613383153e-01 -9.233493925192866325e-02 -4.071093889911883701e-02 -3.264156080417599665e-02
-1.809521796550113137e-01 1.422208807526643103e-02 -1.883777043202175538e-01 1.171755985941263112e-03 -9.882586537632323531e-02 -1.063646291203255469e-02 2.524305899034245959e-01 -2.332884572419792746e-01 7.946692843944537510e-02 -3.230213728454731092e-01 1.020663060133846778e-01 6.392232823114571590e-03 -1.354315349379580924e-01 3.166747768140872055e-02 -7.486803274242627426e-02 3.042203669106089900e-02 -1.448717790481840462e-02 -3.725462500158196241e-03 -1.347578209748830080e-01 -2.902769740191014219e-02 -1.635902012837444908e-01 -2.409457409824820873e-02 2.067481981552518264e-02 -1.182795016171742375e-01 2.772174790197287630e-01 1.880661386860832396e-01 8.175453375665511779e-02 8.874513036250562814e-02 -2.051303070041847476e-02 -1.947335728319163350e-01 -3.871869201559578061e-02 -1.322065372419698737e-01 7.106445852518515627e-02 -2.029868717347187712e-01 -1.115891755934696611e-01 -9.619015395160930570e-02 1.351021703412257358e-01 -1.235857850840911681e-01 -4.069238100716744966e-01 2.982447823023892663e-02 7.291243498500693185e-03 -2.880297751994297453e-02 -9.246379364809036161e-02 1.890944008100998650e-02 -3.139144721941918292e-01 1.381225487047927081e-01 -1.365072742898903319e-02 -3.894399011972834307e-02 -3.366736553357725648e-02 -1.312960917183120801e-01 -1.202103895241568160e-01 -5.272456942568870542e-02 7.986094544310763654e-02 6.957735487486549006e-03 -1.575470665426260963e-01 -5.437768501791443582e-02 4.031581944943925244e-02 1.762147236813045303e-01 1.013266951888346923e-01 -2.891729767221447832e-03 -1.449263373886461592e-01 5.239765985380214625e-02 1.436426316139339208e-02 2.891052266007669222e-02 -8.335473979906127262e-02 1.209704334704033712e-01 -2.679611469099465459e-01 1.661259558581545948e-02 -1.297020963242996074e-02 -1.071946621740138966e-01 1.441411769983336755e-01 2.941470537878037583e-01 1.560423188272113126e-01 -2.117984742561218880e-01 -1.135822676361405992e-01 -3.159951606337644409e-02 5.630667777452176559e-02 -7.249235799825372306e-02 -2.400108065387266953e-01 1.649965776776317061e-01 -1.118165319210985970e-01 9.256995348037195051e-03 2.452996395793422824e-01 -3.757224106531858454e-01 -6.781383295707110910e-03 5.423769445413886836e-02 -1.357718140446241041e-02 7.928045041397008275e-02 2.402017535248193725e-02 -1.113076753872710850e-01 4.404065152000236072e-02 -5.612938318045304631e-02 3.269230111204476930e-02 -1.863185549222743376e-01 -1.845407218508655356e-01 -3.052841042555582418e-01 1.982216615055942821e-02 4.205018720499772988e-02 4.203047403165834084e-02 1.252307529154076671e-01 4.265910315626378346e-01 -1.119909535015743141e-01 6.830200855051883624e-02 9.799454858703926519e-02 5.535955036075801416e-01 -1.670955386821099398e-01 -4.019224458886676288e-02 -1.330803886352116827e-01 4.203391605569461315e-02 -6.411082485485726512e-02 2.825224630831093750e-02 1.584231284093166880e-01 3.039757983946529962e-01 -9.268104263709728285e-02 2.828602225788141508e-02 -6.632451209179429652e-02 6.895811985189236049e-02 -2.704908732966689738e-02 -1.288220489550827019e-01 -1.797996008270925927e-01 3.742297835170851645e-03 1.188034907381642219e-01 -1.295196795411532840e-03 3.532427323626558674e-02 1.207329663935601677e-01 -1.109883409808418431e-01 1.176908805477788200e-01 -1.051395112210769811e-01
-1.137306111735756076e-01 1.720662796110241505e-02 -1.200659363883206376e-01 3.072081197351507476e-02 -7.545316347726274686e-02 1.324352111266171861e-01 -3.281240907927220063e-02 -2.308825735576751914e-01 -6.600680996283173063e-02 -1.504035765942793833e-02 1.500634951113549997e-01 -2.721146042163141016e-02 3.461483132531850138e-01 5.965781637235897938e-02 8.876137796476755298e-03 -2.949818063675743729e-02 2.276605421404006846e-01 -9.827761337716017787e-02 -3.334933606164587703e-03 -7.111162965997268326e-02 7.265801317478172774e-03 1.156069072634102329e-01 -1.222169770746355383e-01 -3.876571735053267048e-02 2.441293640132020382e-01 1.870036210332397808e-01 1.786755751649251114e-02 -5.447338346312970148e-02 1.478808715043325728e-01 -1.478720095328874516e-02 -8.046798331397166104e-02 -2.269828600163017462e-01 1.875634076172536524e-01 2.210144701877414172e-02 -6.778634769324110021e-02 -1.424100248834559157e-01 4.093676214611689790e-02 -7.431045563942195731e-02 -2.431765864485658027e-02 1.098613225516335140e-01 -1.882806151355947699e-01 -2.291492140186520213e-02 2.863551869050873916e-02 -1.158787090548739004e-02 -2.763742322789344841e-01 -3.520416056127551041e-02 -8.046217666237764909e-02 4.027506986411907852e-02 2.484131736737070842e-02 -7.776812896140066801e-03 -1.499583056420292493e-01 -7.950248676431348471e-02 -1.388123695505345534e-01 8.011257355801411351e-02 -1.474140199245238814e-01 9.175039045875332464e-03 -6.370157768595308134e-02 1.149028828843918527e-02 6.679835793630235774e-02 -4.823053820878369508e-02 2.586944961632019115e-03 -2.454600341466536134e-02 4.927641851585714237e-03 9.248737684578235696e-02 3.002630055901436279e-01 -1.129332782728207779e-01 -1.977834504655109349e-01 1.678001157268224353e-01 -5.494356767103731470e-02 1.574041991746012725e-01 1.387690154882617044e-01 5.178790552073140631e-03 2.606986435864259988e-02 8.064719960839640198e-03 -1.017464475551770470e-01 7.565384638142380602e-02 1.714142508112176666e-01 1.290797182683409428e-01 4.202208301020698977e-02 -5.189205551059240112e-02 -1.052367360218061099e-01 -1.027586891062447216e-01 -1.057361033150376745e-01 -1.735031717019557829e-01 -1.433616481747119475e-01 -6.934545644728129683e-03 -2.127522148886734632e-02 6.249882708557932820e-02 1.161481160851654676e-01 -1.384828986374568582e-01 -1.262496007201705517e-01 -2.110025842494852311e-01 6.273257243265839556e-02 -2.104441992115694271e-01 -5.620192913868077983e-02 4.993225501515991677e-02 -4.726469263839843489e-04 5.554564593876818446e-01 -2.438236753439560478e-01 -3.765307664481498673e-02 -4.175582197033674281e-01 2.334098262874034491e-01 5.340408959364405239e-02 3.093277272353958662e-01 1.095038668871323395e+00 -7.479928572246088980e-02 8.944680510667106510e-02 -1.461201245858920195e-01 2.320865111294356797e-02 2.587772211764924890e-01 1.687709674602416443e-01 3.272337920717709181e-02 -1.256484816959526907e-01 -1.517823227671573905e-01 -4.249332955764466464e-03 1.026074289895655689e-01 -8.407691663240519919e-02 -8.172135433248295389e-02 2.427234532530243155e-02 -1.126201942812413842e-01 1.219856664963413079e-01 -2.723179190563987037e-02 -8.183180473718106029e-02 -1.122630355592140958e-02 1.677682055465617994e-01 -5.888741995040201738e-02 3.624193869873257312e-02 1.477164095789833265e-01
1.036083843537818558e-02 -1.204765303355438688e-02 2.204319635802369226e-01 -1.752633713519007735e-02 -1.447704534370075451e-02 2.878985596708944494e-01 -1.323057948049827237e-02 1.487451366234522343e-01 7.465726624134996943e-03 1.013561059401238982e-04 2.127457862989111381e-02 -1.199870795054269051e-01 -3.177624621530384524e-02 6.660391011788999172e-02 -5.550531850774474349e-03 -1.107940649427537338e-01 -1.393296536963228305e-01 -1.871870058536700410e-01 1.872349366944627558e-01 1.116016808602782531e-02 -3.314159990253180421e-01 9.047809367304199268e-02 -3.392770000721798823e-02 -2.228435995016316840e-01 2.206988153886369208e-01 2.843494945849919797e-02 1.272727732952222759e-02 -5.403382543157927986e-02 -3.418010194265520135e-02 1.457720826327328634e-01 4.699159705519430352e-02 -1.335209419051675284e-01 1.642709383597703021e-01 9.890310702992383129e-02 -1.405458183911670877e-01 -1.753141801274386014e-01 -6.325230547675159132e-02 1.117318390757540136e-01 -2.127165944694810462e-01 -5.809431725527422485e-02 -4.047928230280369022e-02 -2.668339468435104722e-02 7.357619730594528590e-03 -1.292736983411779672e-01 -1.047309946095456024e-01 1.805754236540067087e-02 1.378527079775004882e-01 1.268340019191858403e-01 8.782989692701198559e-02 -2.633980429851505434e-02 -2.897238453311188899e-01 2.031064802984927087e-01 1.269276371732419029e-01 -3.601517439178802960e-02 -9.125932034296467543e-02 9.688223737670247082e-03 -5.246436977684430097e-02 -6.930048072348270194e-02 2.289009463980551107e-01 -5.914832775722864144e-02 -5.012309137943976069e-03 -2.927425618145654274e-01 -1.557655146964901163e-02 8.250672702070122044e-02 -1.853955403397993321e-02 -5.732743100806673292e-02 -3.009248867391587368e-01 -5.974362945458813745e-02 -6.680871018411039738e-03 3.030572677927386577e-02 9.944797999811141875e-02 -1.056180461208543891e-01 7.608190393560758380e-02 -1.225919359621878285e-01 1.021546043725612002e-01 -4.527292595415537135e-02 9.478415654066078833e-02 1.251945960921096168e-01 -1.964054175412935088e-01 1.362740902255615005e-01 1.404013074229820413e-01 5.229292108139797779e-02 2.168739474653371135e-01 -1.431990341463171834e-01 1.088040877197908873e-01 1.288711889950592548e-01 -5.894068499971524822e-03 -1.167133395160618176e-01 2.535001178701341840e-02 2.049543636902792509e-01 9.809255749555251258e-02 2.175913082393302750e-02 -3.240762619484551660e-03 -2.440257369111945018e-01 -1.990459771144635973e-02 -1.030228948251347837e-01 -3.560451100012037434e-02 2.365790866809953930e-01 1.494247504630757950e-01 1.137286870599205774e-01 3.610653584792596852e-03 -1.011429496869230421e-01 4.418960797747459313e-02 -1.701722857715223802e-01 4.953936620313542649e-01 -1.326104560717312475e-01 1.337177141865956986e-01 -6.335446421738193112e-02 2.297234445165077799e-01 -1.103538568944213358e-02 2.279222175662229399e-02 9.414803125622889235e-02 -1.602225704837244580e-01 2.119511958338292368e-02 -1.279959791738210229e-01 1.924015881072254838e-02 -3.154078473051667025e-02 2.086520313020877662e-02 1.233426965282576199e-01 2.094957011908003472e-02 -2.193401017414499110e-01 -9.036165466004657254e-02 -8.547022253524468038e-02 1.187109478186764988e-01 2.390180467009636947e-02 -1.046509133653166501e-01 -1.366897802833585973e-01 8.035134374412927771e-02
3.496784147605163078e-03 9.120648737646490367e-02 -3.011362476575081826e-01 -5.708995438000744049e-02 -3.688443814643966312e-01 1.231674617627536994e-01 -2.808253073040299294e-02 -9.920704125981634480e-02 1.052833592587073125e-01 9.209788288833263559e-02 1.151275721428899751e-01 2.529017082629391733e-01 -1.183565198741556718e-01 6.838964263419881895e-02 1.652847495899533066e-03 -5.934412543347724472e-02 2.363435837482240690e-02 -7.550762256200156501e-03 1.804665068895498770e-01 -1.191120757733021146e-01 -9.863449901807880282e-02 -5.212791850452524328e-02 -1.199120171778934041e-01 -2.390095137492777022e-01 8.142318965825902088e-01 1.228287347522743378e+00 1.737676003283561421e-02 -2.933338782118086879e-02 -5.265998598812804410e-02 -1.677730167958368657e-01 -1.342438252916360875e-01 -1.396793785152160572e-01 9.386579847879251981e-02 -2.746429789509972075e-01 -4.111787971586416957e-02 -4.346024841059369370e-01 -1.715040773139587388e-02 -2.474244217314842675e-01 -1.903379786744661961e-01 1.684885971492351697e-01 -4.980547186728892517e-01 -1.982285684104119136e-02 -6.793620431793578884e-02 -4.602582552520903536e-02 -1.481598256704066141e-01 -8.610289177690901019e-02 -1.912316831271247131e-01 -1.131633499233399842e-01 -6.078769028943706298e-02 -1.662942615194723250e-01 -5.526454205881067283e-01 -2.532845799516158028e-02 1.543817850174708795e-01 -1.320882876025210595e-01 4.989846388388904236e-02 -6.047834652006508493e-01 3.223792629134799581e-01 4.258202527744192611e-02 -1.923132088992855759e-01 1.016908271176361275e-02 -2.827627486826281983e-02 7.385181606204760385e-02 3.771076185680065085e-01 -1.729425405348606337e-01 1.436278637454103391e-01 6.968821143097368720e-02 -2.189574366843783093e-01 -3.076944127479772639e-01 -3.038641929617901666e-02 -1.085560076075929026e-01 -2.651061165482633819e-01 -1.367627398382671999e-01 -4.485749781554183163e-02 -2.736359203123554518e-01 -2.766009139500689301e-02 6.459396657169889922e-02 2.672051664195108089e-01 7.018017204455677394e-02 -1.786153397829856049e-01 -6.240051760885112486e-02 -8.704666351129408675e-02 1.063443506271704586e-01 9.638264895290023226e-02 -8.542446172350066647e-01 -1.442044189612384508e-01 2.596742105497948719e-02 2.847592421424439968e-02 8.620815451250113393e-02 -4.949172410328644967e-02 2.178695733990408667e-01 -9.782585180904768141e-02 -4.062213881254461006e-02 1.131842769363701762e-01 -3.417649274603823395e-01 -9.389373475641499267e-02 -1.993738534316945310e-02 -1.305709586797866584e-02 7.081493280482734631e-01 2.293328561535157573e-01 2.307830006908184461e-01 -4.719049132560361459e-02 -3.294684120520478543e-01 -1.182448871156879938e-01 6.896486630633416048e-01 1.718344261637940518e+00 -5.959996607655432266e-02 1.168375450197464346e-02 1.406200735114028488e-01 -2.506666481954861192e-01 3.136534183758928757e-02 1.791418074870715360e-02 4.086285718678566714e-01 3.838994269424688133e-01 -8.740216948363281613e-02 2.604973909731552184e-01 -2.266398128633032028e-01 3.925253129929374696e-01 7.866036280137521375e-02 3.932564791393802078e-02 -6.351480966737857448e-02 -7.333688953950091849e-02 -5.679803925421408883e-02 -8.371957115063667978e-03 -1.065866480395604166e-01 3.014963020580189723e-01 3.649201601534469708e-01 -1.041070897673297829e-01 2.804874071264242819e-01
-8.810802025190219225e-03 -2.192771251883030292e-01 6.497223217194478262e-02 2.920718700421462682e-03 2.422960580463760227e-01 7.025319693965516310e-02 2.000414288632226464e-02 -1.080869935859504749e-01 -8.887563839264786547e-02 -9.285955726035796665e-02 1.942467915503963971e-01 -8.273776342041498644e-02 -1.500996935949303335e-01 9.385677390396589270e-02 8.725196103388216384e-02 -8.621419274204327604e-03 9.405109680361997682e-02 2.749381562784926694e-02 -1.276152978324037179e-01 2.107301688995681099e-01 -2.217906422254354859e-01 -3.384632348191798923e-02 1.459107649555285435e-01 1.957888684979826599e-01 -9.088852815345201119e-02 6.400569717658811551e-04 -9.842166425809641128e-02 1.495837360808895400e-01 2.798468400483851079e-02 -3.481680857551187197e-02 5.662210607547037838e-02 -1.521315961410033002e-01 -1.246514258022168586e-01 2.350244298128423628e-02 1.279484111980812300e-01 -2.364351877425760473e-02 3.415741356638875292e-02 -1.029929979768840487e-01 1.772332305526720664e-01 8.470338258479145899e-02 1.306009176950877482e-01 1.672623608100309578e-01 -2.427524962463252847e-02 -3.784542431957114289e-02 -2.025570399158694579e-01 -4.494247187776442831e-02 6.714142424754047933e-02 1.081004937029665797e-01 2.411853551185247010e-02 -1.190297530463570001e-02 9.804008928964372260e-02 4.110627706178476837e-02 -6.031511459180893125e-02 -1.460562567580520922e-02 2.435090999546213331e-02 -1.104719550248877552e-01 -2.718977328285172579e-01 7.561358389551298131e-02 -9.661425475854359957e-02 9.109221635418875140e-02 6.630672577895405095e-02 -9.517716713681284926e-03 1.891632457638069698e-01 6.434106552636445486e-02 -3.538876092802537704e-02 1.620923732738880352e-01 -1.061237944875909195e-01 -2.547175609694982690e-01 -3.419217816765383194e-02 9.302353335568011583e-02 3.998593378327808950e-02 -2.699345569748254001e-02 7.021187203690254508e-02 -7.794473947090775623e-02 -1.186218419700858784e-01 -5.582591731767233556e-02 -7.414419705765588897e-02 -1.031113139164165360e-01 -1.316717524440538106e-02 1.243188774220849308e-01 -3.223456211146493583e-02 -8.928420341527623649e-02 -5.378237729083430729e-02 -2.355568538192981745e-02 5.573434841280575092e-02 8.136723515795214745e-02 1.766843920824780478e-01 -5.732220869651846046e-02 5.074707254603999518e-02 -1.878098364244179877e-02 -1.000259349109320489e-01 -1.505348565522317500e-04 -2.223918259693583588e-01 -3.750828968730075125e-02 -8.929348781007023089e-03 -2.988310064645053471e-02 -7.382921926969573945e-02 4.339184532472101924e-02 -5.217689713343770519e-02 -8.097169384454853958e-02 -5.714410355518946376e-03 -3.706012368965234949e-02 9.218935537540673408e-02 4.339380515621239082e-02 1.108735987619473562e-01 -8.394470259574675353e-02 -5.342332779036785412e-02 -1.587235874720432927e-02 3.788366929441344677e-02 1.682536811859009773e-01 -2.432225839022822689e-01 -9.462406475720229471e-02 6.881160520965853844e-02 2.116950452373633773e-02 -1.844290437251220049e-01 -1.362257380409309382e-01 -1.162473931661357346e-01 -5.368884180228012531e-02 -4.952213362263949148e-02 6.361021630437711794e-02 1.465087454191372207e-01 2.952577797863696618e-02 5.838732919810264320e-04 -4.506133598374378185e-02 -6.576406895668959751e-02 -1.565893646326372776e-02 -3.531564884456368791e-02 1.218940788855739782e-01
1.654076987135926213e-01 -1.083690284960473343e-01 -3.014502362848610062e-01 -9.143394202302077001e-02 -3.059979614849955842e-01 1.796478129796103551e-01 8.661153817080340100e-02 -7.165814495458450693e-03 7.661694581195530040e-02 3.017586578654479768e-02 2.119570853356061990e-01 1.836891468083800757e-02 2.477539301690832169e-02 3.584135458909346039e-02 8.666975461394055280e-02 -2.580728577154016712e-01 8.495019570801999598e-02 7.814679838013183222e-02 1.816308085337597078e-01 -1.383314679806163239e-01 1.979981162388670321e-02 -4.055403836491820214e-03 -1.721585019344020473e-01 1.004980300983456254e-01 1.445191682446359538e-01 2.659462172270262159e-01 -1.698137388702777306e-01 -1.105489180276079675e-01 -4.672404401470975355e-02 -3.941177094824134530e-02 -2.263814498049915303e-01 -1.295934309490672232e-01 2.757948053861388263e-02 -9.140830156187375322e-02 2.731057831817005829e-02 -9.057501666723069556e-02 -1.387543340569813433e-01 -4.911680766175312296e-02 9.013602576481540354e-03 -3.973208717467645312e-02 -7.807515958286118107e-02 2.949400560365548207e-01 1.337293882413702062e-01 -3.763608138986346274e-02 -1.259129845791043256e-01 -1.356397697680611358e-02 -1.437018818752708489e-02 -2.039172891527678624e-02 5.837560111500705168e-02 -1.790389579531937586e-02 -8.172363958502464054e-02 1.691957541290821029e-02 2.886612165052881984e-01 -1.612649551165412087e-01 1.418566210385859838e-01 -3.772909977412825522e-01 3.162921169780837094e-02 -1.084698648189928588e-01 6.487556082391160439e-02 1.845294904761365373e-01 6.642381733681644584e-02 1.292923625828497347e-01 2.474827504736517858e-01 1.749315409516045972e-02 -6.082413954416617669e-02 1.690931917554557712e-02 -4.787219710266863229e-03 1.834661540580656558e-02 1.736866553250513978e-01 -8.863499350212160344e-02 6.504046543666493208e-02 -1.283635409434783770e-01 2.635919907153665975e-01 -4.113809175852237848e-02 -1.122935314956175767e-01 -2.822154953282227097e-02 -1.013960024794516440e-01 -2.684544595112223764e-01 -1.288551641131492620e-01 9.607026021712436470e-02 -1.933858737640041514e-01 3.326369272979232822e-02 7.809041228474303264e-02 3.232305414601834709e-02 2.323251916145980742e-02 -1.847315771014819766e-02 -1.123294527078045890e-01 1.357855189005409890e-03 1.307278979584439449e-01 8.453746041454786309e-02 -9.562183506221767770e-02 -1.445334802937767449e-01 -9.515623651225527460e-03 2.518355955965233088e-03 7.228470965429924233e-02 -1.439355403799936648e-04 -1.130333692579438450e-02 1.172367646667426822e-01 1.841473822300144780e-01 4.803023521575446736e-02 3.702564148016305318e-02 -6.938276035868337632e-02 5.151764172612205428e-02 1.111673496383605991e-01 5.095527323654401863e-01 -3.750960719585223757e-02 1.978894058817246351e-02 -2.461180773160258350e-02 -2.986660772594527252e-02 1.667036632946069519e-01 3.816022731155756936e-02 -7.712621996923835210e-02 -1.025468948224376661e-02 -3.380933354986659367e-02 6.922970317972489129e-03 -1.979714306206848407e-01 6.711339844651427466e-02 1.570711624492572567e-02 -1.147419500094261080e-01 -7.513792945552610902e-02 2.429228620402632266e-01 2.168269168406580238e-01 3.523833580054256537e-02 1.312507887899636017e-01 2.345818938091896178e-01 -1.252085321669746953e-01 7.364166186120542357e-02 3.805497993645002436e-02
2.922737235095827150e-04 -3.550600060770335575e-02 -1.609332073637267657e-01 -3.997908539608994094e-04 -1.732880353343571600e-01 -5.346133431352320664e-02 6.744053424939547292e-02 1.713490323939774462e-01 -5.376586076542826109e-02 3.361806879091489564e-01 -5.697350892727857247e-03 -9.513183186076408504e-02 3.680000030692165969e-01 7.269574186773943014e-02 7.329241990233202608e-02 8.598689547410470757e-02 2.740076106411613172e-02 -7.186648171864389034e-02 -7.960447102733657354e-02 3.399048178462820563e-02 8.211314216051364412e-02 9.743244691478476771e-02 -2.699887681440784129e-02 2.213315291728637779e-01 -1.283499875614935726e-01 1.612125894567001949e-01 1.674909310670549545e-01 1.314334418719860682e-02 6.668701301480220965e-04 -1.943762800794869225e-02 -1.109449319185248778e-01 5.799764708881261638e-02 6.782535534044652203e-02 1.597367076798462127e-01 1.171374327159689227e-01 -1.097983530862827739e-01 -1.121368182084959420e-01 1.261365511325822364e-01 -4.668301068029648455e-03 -1.051615584503063500e-01 -5.725010579809533540e-02 -1.218705219875030055e-01 1.561315092891369938e-01 -5.743595789667065715e-02 8.106786690174033749e-02 -1.081889224961441881e-01 -5.986033038281363822e-02 -1.465348596704585116e-01 -3.566564499039696218e-02 1.560561990291478851e-01 -2.224256602193394952e-02 6.605889727422863122e-02 1.139313190500859940e-01 8.296476792660067989e-02 -3.472093069023559492e-02 1.149680116280259179e-02 1.096390662753133349e-01 1.691169751484842276e-01 1.925006245710313701e-01 -7.153980232879223605e-03 -1.715167300062443445e-01 5.646208556401646067e-02 -7.330726597313019788e-02 9.528522817037189674e-02 -5.204007710738232928e-02 -6.479529970751626844e-02 1.430870503496236845e-01 -1.104115380234116650e-01 -6.231240294914996980e-02 1.474296326504865862e-01 -2.091047246296713069e-01 -3.053655449058996219e-01 -1.671872065062421642e-01 1.072267332258023398e-01 -6.098622550070709192e-03 -1.663107273119616702e-01 -1.531741503461852283e-01 4.584267103763219053e-02 2.517509445726746620e-01 5.829959336143809151e-02 -1.208439619420981492e-01 7.867122852213882800e-02 -8.274609960343452808e-02 -2.215623523092409286e-01 3.107118506462051843e-02 -3.644589516786385375e-02 8.355864450526601095e-02 -2.832067305059153203e-02 2.605103699057339899e-03 8.326595472374824503e-02 -1.215136879476727133e-01 -1.708466711204889299e-01 -2.437806255425895574e-01 -8.105740902068214737e-02 6.068976720919473655e-02 9.881270261030460078e-02 -8.510402029517381839e-02 1.067812911698250294e-01 8.460339618608510651e-03 1.244509863466389116e-01 -1.834133479252879617e-01 -6.095989125753525917e-02 -1.048132647752764851e-02 -9.570296983037988869e-02 4.295579117100993549e-02 1.836176432478513754e-01 6.995834748220310095e-02 2.573858845228057732e-03 -9.006355155807317658e-02 5.575663988323352471e-02 -4.936573891234221712e-04 1.030424591703505283e-01 6.108766174274815608e-02 -1.384411853835446895e-03 7.495893625775362779e-02 -1.247779057373238215e-01 1.828839340954978299e-01 5.546399595683525197e-02 -2.322834082993674720e-01 -6.438276922588186124e-02 -3.395582511878941084e-02 1.277787532050686237e-01 -8.348478843815372932e-04 5.848650424561104705e-02 1.452094441044325113e-01 1.669117625117848835e-01 -2.180112635604052329e-01 7.055791112392639786e-02
-1.745542887520668551e-01 -9.958228694901526470e-03 -6.780430432513291639e-02 8.698912683539801460e-02 1.872333403450401612e-01 -2.769793886209232642e-02 9.555248749746080017e-03 1.424776305298294521e-01 -2.076653933810485714e-02 3.566596510044424406e-02 3.610122829660963317e-01 -5.253848338762479031e-02 6.564856919023519255e-02 -8.750263706668348282e-03 -5.958164643748702083e-02 3.635329447233578287e-02 -1.247306615963249821e-01 -7.210635941070714372e-02 -5.862132515857756965e-02 7.530123179139786016e-02 1.912241998021205550e-02 2.154657293540740426e-01 -7.131194571350021882e-02 7.773209950000121993e-02 1.530850847787493529e-01 5.952870394314561941e-02 7.331464433819406823e-02 -1.277942380719911675e-01 5.768677222401497745e-02 4.697407149862285747e-02 -4.624242095526763519e-02 -8.064729217094372682e-02 4.074151314685489633e-02 3.477478827430902780e-02 5.757153308507512862e-02 -2.378966119735507687e-02 9.678536033532508798e-02 -3.390468363711581033e-03 -2.401256275722847278e-01 -2.395650406944575816e-02 2.682644918741577608e-02 1.238914012443160205e-02 -7.400700352854432812e-03 8.239089769620150383e-03 -7.485041113910786970e-02 2.344265152972160871e-02 2.968986146830020489e-01 -1.790721399207253206e-01 -6.447447093301912451e-03 -2.257048676507439344e-02 -3.350072604880061783e-02 1.152860705235765337e-01 -3.732722385147371064e-02 1.454818817804249542e-01 -7.194477597387514793e-03 1.457458219321434989e-01 7.115889274007115850e-02 -9.671727263681581532e-02 1.040249314016611776e-01 1.500727913525842609e-02 1.847038690373972031e-02 1.110987255885474007e-02 -4.451584564397746691e-02 4.465973916163121227e-02 -4.397558637850566138e-02 8.879715002280370861e-02 -1.980929372628322666e-02 3.385579594371936063e-02 -8.525490213228686942e-02 -4.405221935444962600e-02 1.067278929315524684e-02 1.163505160150304779e-01 1.005217046509422341e-01 7.010925308636040132e-02 -2.926927873400483188e-02 -5.022729384495759099e-03 8.275979749654945039e-02 -2.919693181053146028e-02 9.174449078347268749e-02 -1.926119922221076423e-03 9.216593268220569374e-03 2.093036616099668290e-01 -2.297467297408803746e-02 1.346688175877592542e-01 2.518231743641918124e-02 -7.507097639827767233e-02 6.132441975564326131e-03 -8.786680231177404488e-02 8.973176479943743844e-03 1.036317625509912271e-01 -4.896832304724307861e-02 -1.575248076040514644e-01 -2.376710730536034377e-02 -1.359627250905435236e-01 1.320174806433687710e-02 8.321009589989250554e-02 -1.369127092308845273e-01 3.521618509048737855e-01 -2.097787700376740894e-02 6.761544077324464774e-02 -4.921409639757636234e-01 -1.230322231766736579e-01 -7.533156096721296824e-02 -1.161317038219489284e-02 6.450664291485379565e-01 1.200779179807877906e-01 5.444438408354958930e-02 -4.246348189320078848e-02 -4.958719628941691410e-02 2.117356104549735496e-01 1.123557247966119610e-01 6.531055278802926078e-02 -7.383856477126507847e-03 2.205547287070504930e-02 -1.822523961783189539e-01 2.608175158310419364e-02 -2.064990120220174252e-01 -1.696803345978536645e-02 -2.058569164496346776e-02 -1.728948010701132632e-01 -1.168177235092629634e-01 2.169625979913981928e-02 2.678189223348895198e-02 7.170253191203455889e-02 1.328546290637354632e-01 6.406522961811178529e-02 2.003796651372753146e-01 2.246201163867851125e-01
-7.221844306297933724e-02 9.651351338319213644e-03 -2.831486492288424195e-01 3.854905443421692557e-02 -2.777216974103882685e-01 1.098821444665809138e-01 -4.439362067737507439e-02 -1.750509037735892559e-01 5.742447871707982016e-02 -1.517597099452091258e-01 2.718288164089372461e-01 -3.534412209271606958e-02 -5.499794362951651583e-02 1.628958756192779855e-01 -1.386691094222153586e-01 8.372858348979769771e-02 1.594414076863915619e-01 6.240395091999508675e-02 -1.047831544167620726e-01 1.608200393806746842e-01 -4.097228738893083366e-01 3.540345332374519871e-02 4.664782244721930871e-02 -2.126946755868191763e-01 2.793843522920261280e-01 2.065656659745728208e-01 -1.889163454600506498e-01 1.213875345135418810e-01 -1.117585600579789756e-01 9.758942941338433902e-03 1.291773042187301379e-01 -2.452139011283270276e-01 -3.800778138866761635e-02 -9.802227162468836463e-02 -1.609078983477612856e-01 -1.273934920996847020e-01 1.584123784178026184e-01 6.103237107895382457e-02 -2.058500578997218000e-01 -6.752744660874522575e-02 -2.847209837347737249e-01 5.275021362312660306e-03 -1.015532023320997110e-02 -2.106235486194579787e-02 -1.090888159169812743e-01 1.562593349483613545e-02 9.957571525575294180e-02 9.402029221610637422e-02 1.318787384971371324e-01 -2.361168308338254251e-01 -3.929996766825943205e-02 -1.246228717541185832e-01 -4.877841724107734311e-02 1.557925193541776498e-01 -7.049429508793103594e-02 -1.630134921746549392e-01 -3.058421198682653719e-02 5.885755307209505210e-02 9.698847606505421604e-02 -9.506595600808856461e-02 9.888287850179276750e-03 -1.319301772608768852e-01 1.838387045768717087e-01 -2.053238264065245511e-01 1.676568426463228567e-01 -3.548928353951674025e-02 -2.908579053316166507e-01 6.160125354388330809e-02 9.517551892879880238e-02 1.009459570413614830e-02 -1.341880002026194785e-01 -2.616308648952328855e-02 1.075634378207366570e-01 -3.220966698818651386e-01 5.886381340048418148e-02 3.379311576711566817e-02 2.116773141584054885e-01 1.211614259597481869e-01 -1.927077494184726847e-01 6.426193898487195244e-02 -1.764769080054371109e-01 5.193973415645952718e-02 -5.822884336372124991e-02 -1.516857637520129809e-01 2.948723285503068378e-02 -5.437197814331208578e-02 -1.219797678842374500e-01 -5.367847141772098124e-02 -4.500859149790743807e-02 5.126727478193678078e-02 -1.968401217714373097e-01 -1.370353018136998835e-01 3.829721913210427237e-02 -1.050512162605233973e-01 -2.582089513125761585e-02 -1.231266281313649208e-01 -1.656048653672694826e-01 1.571681513078115877e-01 -4.952666217499315793e-02 2.160333607854777183e-01 2.819169641913559787e-01 -1.729608410216748049e-01 -1.103842236533185417e-01 1.477346560716051027e-01 6.851209266050735103e-01 -4.534113970478102079e-02 1.590991285270241737e-02 1.247325779195786466e-01 2.114900257659936209e-02 6.263362125573609940e-02 2.288661537824296377e-01 1.746631910268137688e-01 -9.129857819165658819e-03 1.323387860584101516e-01 -2.256293919113058211e-01 -2.189656625556983538e-01 -1.271888122640686125e-01 -6.789692288665682973e-02 -9.745237703484174729e-02 1.054470547181658446e-01 -6.502429686372301898e-02 -1.636493919232089728e-02 -2.718926944128031639e-02 -9.774188852929335813e-02 2.470403232772472035e-01 -2.686717259638871091e-02 -2.026380661120237847e-01 7.840446417650652478e-02
-1.312709089083540816e-02 -7.732100892850844905e-03 1.919242797289316960e-01 -8.385811154900409126e-02 1.368798724782605003e-01 7.053910356438480855e-02 -3.663333545453537760e-03 4.954907382712275127e-02 5.691797041243806810e-02 2.149007969051167644e-01 1.745016685385473998e-01 -1.015821333184254022e-01 5.630771906356130813e-02 -4.100090409970025968e-02 -9.999702749089407761e-02 3.292876524961561163e-02 -3.148579018966411736e-02 -9.981927165611970132e-02 4.703440040527670334e-03 9.748343992807152747e-02 -1.293662663579005501e-01 1.942059220621146498e-01 2.366240182881095173e-03 4.621916166910215729e-02 -1.080994641642271138e-02 -4.166646262593733940e-01 8.829191544664627411e-02 2.072827688020154047e-02 -4.563134532483820172e-02 4.651277196402814340e-02 7.823716454742637993e-02 -1.567383092156849345e-01 -1.843131195786472040e-02 -1.772835267711021234e-01 2.916394170694084909e-01 8.180040747399605280e-03 -2.863687139063398474e-02 -1.671563603028730638e-01 -1.276999965091629718e-01 -7.390386643120138398e-03 1.323807500616534794e-01 -1.561660694485746403e-01 2.515729679913412259e-02 5.971167240242466340e-02 1.128610328300362481e-01 6.005267408808507429e-02 6.766036168129578587e-02 -3.950231366058962190e-02 -3.452738771013663666e-02 -7.634232385652207908e-02 1.180930107983250432e-01 1.025119026469593492e-01 -1.223128011292238249e-01 -9.853468374377116756e-02 5.716971776277984113e-02 1.446664178429195313e-01 -3.997473498035687689e-02 -1.021254007837591876e-01 1.733462270427217344e-01 -1.251841686799113305e-02 -1.169304504844497633e-02 -4.216356210024466700e-01 -1.957636077494600002e-01 2.703783662081695183e-01 3.127454101336123952e-03 1.425209048919417326e-02 5.222830120294088413e-02 9.268281915800180570e-02 5.203656119723611140e-02 4.961442086713949845e-02 1.747650578325397330e-01 6.024158560561935355e-02 1.900127276179650604e-01 2.237835858243082954e-01 -1.763402797265521032e-03 -1.217546680241100160e-01 -1.246082218880457809e-01 -1.340710408833857281e-01 3.738006668922413261e-02 -4.049695976682807924e-02 9.121526198749579928e-02 9.160646814840611718e-02 6.200797978430743623e-02 3.505854881128745576e-02 -5.950477041109080573e-03 -2.315190800278790484e-01 2.956811127039312911e-02 -7.884140184728348488e-02 -1.426362295601542596e-01 2.591258729633143937e-02 -5.680760594195388181e-03 -5.386129289624821265e-02 -1.624303585905680081e-01 -1.130128356605739487e-01 -5.458545150969967147e-02 -6.358001435735131934e-02 1.241109854871157853e-01 3.252349621585294281e-01 2.828731519249665441e-02 6.236208468342672312e-02 -2.482038401300638575e-01 -3.764805311586772590e-02 -6.039616129170586808e-03 -1.971004830224031001e-01 2.861896274001020091e-01 8.580545582879255118e-02 1.247650479698940787e-02 -1.765469553982034756e-01 -7.593839800920768046e-02 -6.558200298982198861e-02 -3.351905022589515837e-02 -1.266482078515927256e-01 -4.343450724106902999e-02 -1.779491101902622857e-02 -1.885608532361955914e-01 5.435837607531403964e-02 -1.966336694863317913e-01 -2.163931006829909742e-02 -7.988936743062168000e-02 -6.622629845664218529e-02 -1.149672700692030286e-02 -1.219578622467480528e-01 5.541031821384031358e-02 -2.382933807831822196e-02 1.084011972495714377e-01 -4.774907673115118961e-02 -9.210668821160912512e-02 -1.671125217899513682e-01
-8.180850317179290399e-02 1.810592482409962845e-01 7.076713983512845918e-02 -4.378717394006927111e-02 1.107331736116080011e-02 6.515700073683881877e-02 -2.846099978885169302e-02 9.192640641362356813e-02 -5.159287132263391806e-02 -1.008361466797858819e-01 7.303348948457358963e-03 -1.169316549247764216e-02 -1.482954571735916605e-01 3.901245240354408311e-02 -1.021532440826221702e-02 1.333066250447068612e-01 -7.649100365875508012e-02 -1.379159959735910997e-02 -1.172978549045324975e-01 5.442890040227656157e-02 2.818714919898736445e-04 -1.893392594541820542e-03 -4.421273483681897876e-02 -8.581481383443885502e-02 3.550480140395240181e-02 -2.610554668915754384e-02 1.686179818778729689e-02 6.314929997980364522e-03 4.735840420456880612e-02 7.225762556146944626e-03 -2.004782791398210945e-02 -1.317451584412615007e-01 -8.485472632918173580e-03 1.561234898685856243e-01 5.767673561023611145e-02 -5.389490796017047669e-02 5.957045199062861902e-03 1.002422569533980290e-01 2.715228477199321377e-03 2.528789498524294452e-02 -6.041336054701486324e-02 1.129149215898150038e-01 7.085792957159851857e-02 -7.094065417965567111e-02 -5.530122517837635088e-02 -8.861677683202348610e-02 1.384529743927801759e-01 -1.472302578202830114e-01 -1.240249278643902886e-01 -1.198552811836740423e-01 -1.823223710746945114e-01 -2.039558767095045466e-01 -1.603564069142630610e-01 -1.795955334289651983e-02 2.635797661692597660e-01 -8.246636392682425709e-02 4.358280969670851740e-02 5.708673042756055166e-02 -5.325892530584264845e-02 -3.738059102503942660e-02 -2.343646092093986874e-02 1.481263765467409968e-02 3.120804791737016859e-02 -1.761293010508939993e-01 1.163649228614876407e-01 2.244326755479828517e-01 -1.561652929206254481e-02 3.489292297688906946e-02 3.569497815071685787e-02 -5.062228078079508697e-02 8.402296218945556894e-02 6.725560780848140185e-02 1.457871911148008737e-01 2.404162347280089720e-02 3.006170862340183381e-01 7.122522395526386003e-03 -2.123600241482589968e-02 3.632596614150998809e-03 -6.041914772079267498e-03 1.244682506265956320e-02 8.404210687114237535e-03 -2.707653050657540805e-02 -1.048261242041534508e-01 2.173874483228466561e-02 -4.824377656962273303e-02 -3.258122438224198697e-02 -1.234737126716449335e-01 5.366710693995486309e-03 4.493408010228780447e-02 -6.977632600874972280e-02 1.289284624129249240e-02 -3.390317041870060527e-02 -2.287583765177943901e-02 -7.090179836828384985e-02 -6.607167498395821736e-02 -1.218885665489971848e-01 2.204597344172087511e-02 -1.311636823358044435e-01 -1.157480034336993546e-03 8.281032367664659111e-02 -8.266363728710572623e-02 1.372401405276739150e-01 -5.239517611961274496e-02 -3.457637127064104587e-02 -7.710113963003375169e-03 3.452564371561695628e-02 2.970650024965744082e-02 9.379919369820712005e-02 -4.670077092940832370e-02 1.945866458787665065e-01 -3.430845207273083841e-02 -2.000273825764954383e-01 2.295134928285486736e-02 1.679903244698888881e-02 3.313511209541658564e-01 -4.635590988753659353e-02 8.477299928483339464e-02 4.250559150812967951e-02 -1.212839124122908202e-01 -3.696772869392835753e-02 -1.029436112182031127e-01 8.025232919928028397e-02 -2.636330779511082967e-01 -1.033406343120800430e-01 -6.857788205214780664e-02 -1.329677321922639877e-01 -1.596042332348522955e-02 -4.971624418502618159e-02
7.914232194086268102e-02 -1.163755345733111790e-01 1.063331132833304632e-01 -5.469921677133945948e-02 -5.494648504923962257e-02 -2.329269765791418690e-03 -4.438298495639459579e-02 6.937594481169329086e-02 -1.239455847627352336e-01 1.010148997908213719e-01 1.514047436390358048e-01 1.140643321453232023e-01 2.525733383664652276e-01 4.801545971174429883e-02 -8.107844842836216259e-02 8.584822239471096017e-02 -4.022025158553388380e-02 -1.683246735823371310e-01 1.774218270137453146e-01 -5.157467274012374203e-02 9.847584733176791005e-02 -8.365218942992995454e-02 7.680872426283807952e-02 -6.856564792763082672e-02 1.380994354640182886e-01 1.129575071655679330e-01 2.679770412974304961e-01 5.987068512241001950e-02 -1.699225954143856743e-01 -1.743459492884842366e-01 4.009752686172692732e-02 -4.989613805731880208e-02 -2.052356433486278789e-02 1.808831247231414141e-01 -1.946517034305421667e-01 -4.801063754447361387e-02 -3.113704398790261355e-02 -9.266662397568574405e-02 -1.587053826202511342e-02 6.047048649307575768e-02 7.433669545650664623e-02 8.090890206843528998e-02 -8.424109790278903886e-03 -1.020555476948920015e-01 -3.960016321663337039e-04 1.394336813686740673e-01 -3.807702470598095523e-02 -1.393785899067574718e-01 7.909356565735070621e-02 -8.128461875348878471e-03 -1.402270355570426480e-02 9.565485771524975811e-02 1.694761610996054491e-01 -9.948949796480141550e-02 3.642226257983674498e-01 -5.808519438148521813e-02 1.125596226688948265e-01 -3.340893121225529255e-02 -1.628860735613480576e-02 -3.950743367838938612e-03 -2.238225947437231245e-01 1.102100743545091771e-02 -5.768822236358182171e-02 8.529952317855588051e-02 3.727712187034459140e-02 5.970401741273730079e-02 -2.732641148795402763e-01 -4.085638832587470959e-02 -5.531721426125206509e-02 1.028192216164487000e-01 1.673708239551351465e-02 -8.411107127017664054e-02 7.792968257043937294e-03 -1.180442091072054639e-01 1.170845252736552877e-01 -9.243494787927419853e-02 -2.893022551429531505e-02 -6.743683190292563967e-02 8.120415425786647878e-02 -9.909186528365551694e-02 -1.098050123531856513e-02 2.160143886498691254e-02 1.385129916067211753e-01 -2.369057556523163424e-02 3.553912437332320401e-02 1.216767475894409423e-01 -2.504610133055701002e-02 1.964924472657869278e-03 5.635630262113034555e-02 -1.251704742229183820e-01 4.330762772702821672e-02 2.831669677731972201e-01 -6.306812840765077532e-02 -1.389466747026929239e-01 3.878492716438980067e-03 -7.182748453800041032e-03 8.208476062773216453e-02 3.958066092198482544e-02 -6.086320732971981645e-02 -4.809739024305968030e-02 -2.550107202309673249e-02 9.303345876280377791e-02 -1.917949312765565295e-01 1.506098735507747088e-01 4.097361990204468896e-01 5.235258512199262443e-02 -1.328153402882633893e-01 -1.469343241720021120e-02 -1.336476345675045585e-01 -4.616841923647992812e-02 8.473864767465658088e-02 1.491251401349066308e-01 -1.266051937292435037e-01 -3.015790808263446934e-02 2.509330585366489896e-01 1.495321989223093728e-01 1.133924443642090329e-01 9.527315238997792479e-02 -1.186211756452520971e-02 -4.793891000524400786e-02 -1.104863288377724156e-01 -3.119952645552490078e-02 -2.362066033389937161e-02 -1.768018118363213001e-02 1.152224388419442885e-01 -2.747003486468140299e-01 -1.530760937137973787e-01 3.606992088755683890e-02
6.437306725185577838e-02 -3.983041670548764096e-02 -8.138344078383592806e-02 1.023493924349908879e-01 3.218164802905267019e-02 4.515348171228208973e-02 -1.060028416897399045e-01 1.445112926646652252e-01 -3.143147147491605065e-01 1.380881796171804510e-01 5.344863109812152124e-02 7.248621857602578766e-02 5.431147584205586569e-03 -1.529296338177137671e-01 -6.133221103432048849e-02 2.095970295500819772e-02 -1.274335809323514923e-01 6.193422872141306212e-02 -4.270192536953151818e-02 2.720235831678857741e-02 -1.496298104512311933e-01 -4.744093243388623760e-02 -1.381917506068207346e-01 1.570773118740421137e-01 9.386211933344008884e-02 -6.444809176932707329e-02 2.438582100411119426e-03 1.644822647572468655e-01 2.538291807840493269e-02 -3.816432051610128134e-02 -9.413962052571400729e-02 -2.088259593315715534e-01 4.874138828530104328e-02 -3.851867933318347398e-02 2.663005923812613585e-01 8.245154308278702937e-02 -3.556464556674489297e-02 4.519312763020684465e-02 -7.648972675404810961e-02 -9.237377940914741348e-02 -5.434692522655586860e-02 1.140438500325471893e-01 -4.305897819214563743e-02 -1.745061022641643811e-01 -6.087947935204401917e-02 -6.412822902392545377e-02 -2.769852224003839080e-03 -2.513024627075998232e-02 -1.738167453410510710e-01 1.935379407208830463e-02 -1.724388180188036329e-02 1.130862035180914688e-01 3.383025966457156586e-02 -1.183523925913506636e-01 -1.214868748700314166e-01 2.366919505531553669e-01 4.645172232494718806e-02 -1.779689590230629226e-02 -4.040480191011015104e-02 -3.496379863539203492e-02 -1.840671680679571709e-02 1.210902806164421419e-01 1.973829942632647216e-01 -5.186765224595100976e-02 2.293391824426349035e-01 -5.737354808697310571e-02 1.325186521268421347e-01 -6.951035484214176940e-02 9.010362344142376634e-02 1.891326326203302682e-02 -1.175828258907468150e-02 5.961184625005379323e-02 2.078873893404060147e-01 6.310936840350023225e-02 3.599185296621242036e-02 4.315294656346781166e-02 1.362617708262229589e-02 1.595785173994100914e-01 9.150613069654982279e-02 -5.493810521763473759e-02 -1.592169366381162576e-01 -7.265753090474354192e-02 6.848904053744613030e-02 -7.010628453924513948e-02 3.951250150175270731e-02 -6.497778990073868610e-02 -1.729306891541553259e-01 -1.316586201647069743e-01 -1.616687443527827783e-01 7.157644509054643389e-02 2.238097834544107712e-01 3.862173724471096390e-03 7.940324952622522525e-02 1.660628492633565642e-02 -1.300231238763395747e-01 2.902895234724250928e-02 -7.647869577040627975e-02 -1.786964333931177762e-01 3.639260354390302932e-02 6.343694624971422946e-02 -2.237706181860361354e-01 -1.843253763173557588e-02 -1.460004972046731742e-01 2.252839406734768735e-01 7.452953577108371863e-02 -8.419889693655679963e-02 -1.945700345580346534e-03 7.604926961694113974e-02 7.524941932763153096e-02 -9.771731825903325064e-02 7.193467309523234043e-02 -1.035966655862123435e-02 1.350630003233927456e-01 -8.637530008704479012e-03 -2.521681965176174670e-03 -9.791260660059579457e-02 -1.131695656954682105e-01 -1.417282492716934739e-01 -1.238645990594861857e-01 7.254838495959432809e-02 -4.585496716078980850e-02 -1.937230432577118078e-01 -1.252733119289877461e-01 2.528557873494728658e-02 2.008193770400947542e-01 2.067233848643105776e-01 -2.074108759020495962e-01 -3.314571477685580858e-02
-6.276627970472963003e-02 -2.834221391112936791e-02 1.198841837747086220e-01 -2.369127015286278184e-02 1.516844592436225950e-02 -9.939093101161705635e-02 -1.016586035915688913e-01 9.933625165802063839e-02 4.031470702197540584e-02 2.545657237746128398e-01 7.751749312472230868e-03 -3.776730377518891513e-02 1.320394456969139485e-01 -1.198606579294425462e-01 -1.225671588579309579e-01 -1.397002952882363258e-01 1.068412664983405952e-01 -8.561616458028278864e-02 2.508994818985690531e-02 1.189001489666053901e-01 -1.662221972300282069e-01 9.177567018368545937e-02 6.008520811458272805e-03 1.076036298304333533e-01 1.450542765162078640e-01 -2.943024079235452284e-01 4.573836602576711319e-02 -1.723127565757173740e-01 2.912379790840629035e-01 -6.817796541514309361e-02 -1.036713653897149146e-01 -1.876301904259705389e-01 -3.615553450335234897e-03 -8.901321496595669680e-02 9.036346380573102854e-02 -1.948811196725686382e-02 2.856110912672001415e-02 -1.172313622292451701e-01 4.185727244806041608e-02 3.911553290097697505e-02 1.852058994970401107e-01 -1.861829612502992615e-01 -3.679632919793475454e-02 -8.172967575019511599e-02 1.059876113553421817e-01 -9.465216264714824967e-02 -2.154327532155809587e-03 -6.754380912517805868e-02 1.110884998661143125e-01 1.651241729255571722e-02 -1.767121789177336089e-01 1.546305222745616437e-01 1.950420726857257925e-01 5.116027641340543247e-02 1.204056831732758237e-01 -9.417189424635638573e-02 -2.282660078063828910e-02 1.626273840808254434e-01 2.270033193038133446e-01 -1.075841415422090254e-02 -7.438760112773193552e-03 -1.279914989748680565e-01 -1.214547166043976473e-01 6.572561399608611854e-02 -1.663342224278173756e-02 5.369320409681746509e-02 4.440686267447478686e-02 4.358341129740788550e-02 1.275158696278459458e-01 1.254556047860349299e-01 -4.374393568390990555e-02 1.696856661459104215e-02 5.763232847960925512e-03 -1.114196135004413002e-01 -6.657623114584350354e-02 1.027492828399742542e-01 8.479095821670493138e-02 -1.417192237991490855e-01 1.029256736666222527e-01 2.769543302771940718e-01 1.058593190633425746e-01 -1.025269882098721053e-01 6.405357344585212165e-02 -1.406911283114915534e-01 -1.534880064415647116e-01 -2.550530043653614354e-01 -1.273302978990710210e-01 -8.460225016909933560e-02 -6.092820298194507461e-02 9.245719637419931580e-02 -2.006599808370569116e-01 -3.147483975024208906e-03 9.099753896257991789e-03 2.033191802705772155e-02 -1.419527549836977279e-02 1.233211868336780842e-01 -1.121684163594708766e-01 1.864333139206777457e-01 2.519054157470904803e-02 -5.051138120523244318e-02 -1.138526896189223370e-01 4.718213822614118758e-02 2.425874224877254751e-02 1.525833105675465824e-02 1.710157652000076356e-01 2.176961087936010383e-02 -8.745195342487678547e-02 8.291784562769256503e-03 2.649149979273572944e-02 8.305341480343958124e-03 1.315888714103266577e-01 -2.212084292656672502e-01 5.584801907713381197e-02 -3.337151115227997289e-02 -4.733768153456639066e-02 1.253070396314233670e-01 -1.075422475079186591e-02 1.036336076021795657e-02 1.432803043254710917e-01 -1.701778446307332382e-01 -1.955494259400648860e-01 -8.835831763780005454e-02 1.261253080055182302e-02 1.336112656797986964e-01 -7.855447383017553908e-02 -5.703614859059124437e-02 1.204614012973984245e-02 -9.674456397840577870e-02
1.192812473921419682e-02 1.738290510762834085e-02 1.313599694493184644e-01 3.489026828942495134e-02 -4.377307909281918930e-02 7.797018264847645208e-02 9.091722478638449012e-02 5.771284954051478233e-02 -5.348483879549036785e-02 3.530495317267399319e-02 -5.190489638737486033e-03 9.868257570280354607e-02 6.150774553641324971e-02 -1.518975119695611942e-02 1.643115212688675553e-01 -1.956638318409772703e-01 -9.001852420957393019e-02 7.406310003853308621e-02 9.007461386451807994e-02 -8.901637749545204814e-02 -4.123578829053493877e-02 7.024155955979184685e-02 7.525744816539645110e-02 1.571410150027000366e-02 1.500373385490447187e-01 -1.188078232196943113e-01 2.569456066746568512e-02 -7.842709158816822679e-02 -2.585130197604163307e-02 2.068450122333902880e-02 6.261160514657049259e-02 6.357287364704111710e-02 -6.481649533903358074e-02 3.891268733926760842e-02 2.418375134782111968e-01 1.864612618110981501e-01 -1.914498662383383454e-02 1.182795615794179772e-01 1.786826423120778107e-01 2.068620889893210413e-01 1.381909109330936580e-01 8.428927807677158782e-03 5.869596728298148713e-02 -7.964513823344190890e-03 -4.793799001734973253e-02 1.436740543533420421e-02 1.722690497885859817e-01 -8.206429857682039433e-03 -4.205793956648155862e-02 9.705789096377967495e-02 -1.555372523067815316e-01 1.227324146785380293e-01 -1.752807088757450948e-01 2.147971494970557851e-02 7.105009589660638003e-02 -1.650731692352548630e-02 4.633254541653354652e-02 3.580539446556606220e-02 2.377495473982017271e-01 -2.830680369651879941e-02 -1.688912173772249281e-01 -9.153160364156055773e-02 5.299820571933979568e-02 9.786774854389454492e-02 3.138524598076137401e-02 -1.719402587176140085e-02 8.606002052728951857e-02 9.488522111184329033e-02 -1.013113980499476263e-01 6.576268126581340245e-02 -5.322199941194780126e-02 3.086982308929448610e-02 -2.752890039454174848e-02 6.374656868759176476e-02 8.419264838445533750e-02 -1.342513547115379603e-02 3.155669374560503004e-01 -1.381571704433428860e-01 5.566094377410598509e-02 1.424948946417866902e-01 -2.168240759289360650e-03 -6.087854043485434880e-02 1.147115554494511358e-02 2.779795468247147922e-03 -1.729387498535863432e-01 1.759791181792109416e-01 1.690330049511682697e-01 -1.974479450517697965e-01 -1.927030074720881558e-01 -1.190777854980306499e-01 -5.672424785357557328e-03 3.704443423768245813e-02 -2.090586628257538881e-02 1.502388985471472815e-01 -1.766054036367277133e-02 2.817898793830588000e-02 7.282688848535888437e-02 4.863925882659573402e-02 -1.287603493501732199e-01 2.075385371854452862e-02 -1.348794649186932891e-02 -7.194256054878393758e-02 5.620694827705791791e-02 1.516533303943342625e-01 -5.184966732508559939e-02 -6.369156011831950126e-02 -1.185994638944133373e-01 6.819807414438891491e-02 -3.133263790054768416e-03 -2.535190978803348802e-03 9.160870077265564904e-02 7.594770522550509106e-02 -2.237661750361930046e-02 2.659311584675684570e-02 7.215128104723721181e-02 8.942168953942499984e-03 -5.331700971478620099e-02 -1.492868294182971844e-01 -2.927316734430425726e-01 6.374222691716004141e-02 1.285253772767555591e-02 3.685391655505375341e-02 1.027239076550133003e-02 -1.508927721681062595e-01 1.370423533821299167e-01 2.329895732157672983e-01 -1.191969674139181645e-01 -2.561170215897743893e-02
-2.174357239633344097e-01 -8.148552335327666207e-02 1.900212595946688260e-02 4.681514549106615547e-02 -9.665106487360322629e-02 -1.606425482762383061e-02 1.489118740827589243e-02 1.991339815867213675e-02 -1.202286893270978624e-01 1.259117600915818092e-01 -1.091549511676667694e-01 1.362538868119621271e-01 -9.010802631860097278e-02 -7.677558969200815042e-02 -1.450778787546938842e-01 -1.017548580481956594e-01 5.493652293577813012e-02 3.893418619800526059e-02 9.258582258963810041e-02 -3.478290362637082023e-02 5.716966900841153471e-02 4.785179392604035908e-02 -9.670320343719149281e-02 -8.206488199561318142e-02 1.541814534665009173e-01 1.513067408163596417e-01 8.128080562727850455e-02 1.015482513812439487e-02 4.520887238350251337e-03 4.751785497496968658e-03 3.002440088922020411e-02 6.124463212106916882e-02 7.904771223196170593e-02 -3.440650117409591036e-02 -6.814220011423800794e-02 1.154767605656569912e-01 -4.538137231382435161e-02 -1.415323433003229936e-01 -1.092102605986421809e-01 1.638361689694687873e-01 6.669546806705622943e-02 -5.475415268328722579e-02 -5.959114293298180265e-02 7.106946066560150543e-02 1.789532080253854532e-02 -9.129213249879647440e-02 -2.306826783004292392e-01 -2.124216933944785349e-02 3.218465470061798728e-02 1.936883815717051205e-02 -2.750552606015537263e-02 5.065896828238560662e-02 -3.260757890814103971e-02 3.940060261589461293e-02 3.615240113179832293e-02 3.186201075317367931e-02 -1.501306383992274951e-02 9.138217129755815682e-02 5.264005647150885037e-02 1.943113764393361934e-02 1.926833016537196908e-01 -2.263796331609949433e-02 3.887911757782904626e-02 1.459895914581776089e-01 -2.698868910645198238e-02 1.095381897848000108e-01 4.026582423481216838e-02 6.296522465369934485e-02 4.980570340250193434e-02 -6.063101197408890530e-02 -2.595184173199465219e-02 4.979083417701409692e-02 -5.899222447375988831e-02 3.398159536053439733e-02 -1.728210293968459044e-01 1.693144201583277747e-02 9.444566309009322369e-02 -8.160665275742229330e-02 -5.044190701279736844e-02 -2.408796882776980119e-01 1.004866996194342249e-01 1.773270751791506672e-01 -9.925605148686758583e-02 -2.750997429089399038e-01 1.319506240413292897e-01 -2.692556905885483687e-01 9.803082945972480325e-03 -8.884452991440798530e-03 1.294050044762982445e-02 -5.318779901924941544e-02 1.154088960261266533e-01 -2.308106025914560822e-01 -4.492057860052257184e-02 -6.928323814043928219e-02 8.555486540440734866e-03 -1.464366012883632495e-01 -1.254125349103110132e-01 2.241161377442906291e-02 4.087607591792166706e-02 9.021994337287322918e-02 -8.011169973982300296e-02 -1.643737521439459504e-01 -9.931452954805305988e-02 2.858562090592494179e-02 1.889514149555384104e-01 -1.031413321369269720e-01 -9.047345779027439472e-02 7.040268478995233281e-02 1.256155068317549584e-01 1.763412867351652202e-01 2.698533993117440133e-01 -2.274670006820199430e-02 9.899199762791881241e-02 -1.517445258226684246e-01 -1.410168523323355461e-01 -3.232539960622293068e-02 2.626380733658078559e-01 1.729555378453233039e-01 -1.328934871536084361e-01 -6.077354143965742195e-03 -8.759753842383959099e-02 1.794354883547278267e-03 -2.027516628878665156e-02 2.107761570678269580e-02 6.125664947567490554e-02 3.191940056908954427e-03 7.900825785202898743e-02 3.291094517287731364e-02
-8.153566331821296420e-02 -1.875958774588035866e-02 -2.986568837181000635e-01 -4.963774464663398001e-02 -2.839305354559921724e-01 1.209092639108610562e-01 -6.491965880790997144e-03 -3.127339086613760144e-01 4.591711953970775001e-02 -1.196272819053539743e-01 1.321628516376802120e-01 2.039871724221255234e-02 1.076272254741224010e-01 3.330617224199871468e-02 -1.641230227853384960e-01 6.979255834281301862e-02 1.148065093472262627e-01 -3.626260142709095136e-02 -6.147092087321365944e-02 7.336824981931375222e-02 -1.132738420497789167e-01 7.211780180320095934e-02 4.927574535132223099e-02 -4.177123228704772429e-02 4.472334531675194458e-01 5.349395372075096411e-01 2.657805549703467704e-02 -8.260408570653787752e-02 -3.215883751218861358e-02 -1.965858415738759232e-02 -1.103636891903616163e-01 -3.290263612448120489e-01 1.217056737963743626e-02 -1.154358734553971033e-01 3.434990181929276076e-02 -9.684464680516120805e-02 -1.773248414470554590e-02 -8.966906523106239757e-02 -2.715350965599318545e-01 -8.423121516646432660e-02 -1.528756239386331872e-01 -3.480245391110428632e-02 2.394504780084404927e-01 1.910478414264736025e-01 -2.903498409071260666e-01 -2.857080428253868098e-01 -1.228242735364372812e-01 2.344994258368646514e-02 -1.189415347591882000e-01 -1.655312984894377060e-01 -3.502669175595419238e-01 1.042009234006613105e-01 9.961463801601744272e-02 -1.623962342267695530e-04 -2.077514870128271615e-02 -3.932523536109326923e-01 1.002210877809333323e-01 -2.630712121857829364e-02 7.132981028133365820e-02 -6.548301159221089907e-02 -5.985405740401929936e-02 2.895975946897185252e-02 2.665372103385600933e-01 3.473986428405565624e-02 1.329347907834268760e-01 2.548665687133420260e-02 -1.051348722184927420e-01 1.816733764371690762e-01 -2.085327285076858661e-01 -1.033164016276510583e-01 -1.672060976600487081e-01 -1.404577307691257104e-01 -1.089627155826365656e-01 -1.043537253901872658e-01 1.785991980166201643e-02 8.848892300280325474e-02 1.328423620012199324e-01 -1.132869524246951504e-01 -1.165327665344957631e-02 1.564498495400516720e-01 -3.120166832337464280e-01 -2.444948067064417474e-01 -1.940579733396921927e-02 -3.590986415123360587e-01 6.042767146989533322e-02 -1.207690371830798387e-01 -1.124412674846111543e-01 1.427417313312823177e-01 1.501812973235589210e-01 2.436159109776039541e-02 1.832857779774687002e-01 9.294811105678227325e-02 2.805413546619531413e-03 -2.830705037569204441e-01 -9.084089668195821643e-02 -6.012271192854375113e-02 -8.020442399984155368e-02 3.081742285266220183e-01 -6.864358199345385603e-02 9.129152448036918777e-02 -1.394205063123090012e-02 -6.355936897941506791e-02 -3.312615455414884280e-02 2.575124482418866823e-01 9.157163408376107760e-01 -9.671491133880841251e-02 -2.100228563543440063e-01 2.405715463046629310e-01 3.887441702634139573e-02 1.324843053367516232e-01 1.085644892494022351e-01 1.538316926688162445e-01 1.217889371341208393e-01 3.916198584583474585e-02 3.312984046078021327e-01 -1.662150224535797471e-01 -6.825594611999978405e-03 -8.412785648812026729e-02 -7.641202866322076293e-02 1.079135362002119070e-01 7.509994006533252109e-02 -6.134742853269161376e-03 -6.832639819853856189e-04 1.035085134864889740e-02 1.848088492583617737e-01 6.544684207985432267e-02 6.099607688627171898e-02 1.421968846090761185e-01
3.602714638736533026e-02 -1.257755268098237900e-01 -1.352199273047279549e-01 3.355639805725033759e-02 -7.162731656045881468e-02 5.601367375349281669e-02 -4.634414472640643878e-02 1.418240494138988395e-01 6.924609814226913296e-02 8.210563958525390893e-02 -2.840567360355021331e-01 5.972102354317201933e-02 -4.088404863318786941e-02 -1.277375183491873036e-03 -1.134910868868205386e-01 -3.370334970737913494e-02 1.975378301630327862e-02 9.048875306033887789e-02 -2.308522071701261114e-01 -3.861965248667497547e-02 -1.173658365341564008e-01 -1.575402748258733499e-01 -2.988357072259563776e-02 6.546443997840376006e-02 -4.588134285642756632e-02 -5.443818344038705431e-02 9.124402659567690602e-03 -2.353851304419482537e-01 -5.708399775460090697e-02 -1.307092388116955772e-01 -3.941463150140946808e-02 1.436252306094664699e-01 3.346225317284587386e-02 1.677325016850352846e-01 -9.702324702258489919e-02 7.693476540552995901e-02 2.854046252940359643e-02 -5.724074913358502981e-04 1.326886439341827817e-01 3.467152153688046051e-02 -1.295593033072172939e-01 -6.223315367817703475e-02 2.723267999926626964e-02 8.719601540336192891e-02 1.687117094706059028e-01 5.619853143911097623e-03 -1.059828620733000853e-01 -1.764232694748972818e-01 -8.757978544284880651e-02 -5.910431654300182802e-02 3.237019916529907532e-02 2.191462765593237688e-02 1.346871719248925181e-01 1.214473787627863011e-01 3.559536073432099240e-02 1.038859492215819108e-01 2.003820160770204695e-01 -4.922829279065209923e-02 3.346265545171902001e-01 6.329497387681004561e-02 3.594053328823269833e-02 9.702111332661876586e-02 4.078205212272621727e-02 -4.894285128033172561e-02 -1.219370494958150510e-02 2.800424442402010480e-02 -5.081726391334161208e-02 -1.358460985485452910e-01 -2.690019286699679019e-02 -1.174709418250444344e-02 -1.244484686489777392e-01 -1.850769724997672616e-01 -2.820407937017471375e-02 -6.461334007030811177e-02 5.412554595265748475e-02 2.401082162556481860e-03 -4.668467792446902992e-02 -3.137743556007888124e-02 -1.098366912807358653e-01 3.696975062377809429e-02 -1.240860906493484739e-01 6.885568492528949813e-02 -8.369689381540380488e-03 -9.801846334928887572e-02 -7.463855235352864770e-02 -1.910273219164390635e-02 -2.240957034697584616e-01 1.149622109394228126e-01 -7.168147961963743098e-02 -5.160933402677485293e-02 3.509022661370857915e-02 -2.147986618849238860e-02 1.978914453585573496e-01 4.866259561438858461e-03 -1.463030593310332972e-01 -1.063450929195994266e-01 8.650682500598519398e-02 -1.301067279138490573e-01 -6.197233123011273992e-02 2.149957331028150009e-01 -2.724855947642558854e-02 -1.671595566318587744e-01 -5.831287302086652496e-02 3.752553661832282866e-02 1.732750798816669047e-01 -9.998781660992819842e-02 4.461182475762367171e-03 -2.472789625387717891e-02 -9.885489586632874304e-02 -1.498902839881783300e-01 -1.279698629003971633e-01 -1.707986403283721644e-01 -1.038207118370548382e-01 -1.837636992562713054e-02 8.423956921988651897e-03 -1.675683130573110136e-01 6.586119800726444873e-02 1.422648091455580577e-01 -6.275849091481583431e-02 3.248212520478554327e-02 6.876213459293978314e-02 1.840413656908952145e-01 1.620416287786445864e-01 -6.013310375100088673e-02 -2.880103113505752543e-02 1.394487471622593566e-01 -8.652093274185984270e-03 -9.776908343954009151e-02
-5.328336906330148615e-02 -1.975709941044999085e-01 -5.739651859665191591e-03 -5.478578675680929183e-02 1.878716433141969580e-02 3.444586584895322628e-02 3.372946482815564195e-02 8.725218839232339041e-02 4.105121957411203559e-02 -4.839095170761756153e-03 2.037907209731160130e-01 -6.203875420360768951e-03 5.574744860839848937e-02 1.225447735597861264e-02 -9.178014942820857808e-03 -1.263772438531259035e-01 9.825752768251846958e-02 -9.544237348719017758e-03 1.677154376584781004e-01 1.133375479300687133e-01 1.725224609109787255e-01 -8.018981379808773347e-02 1.602543289965283335e-01 -1.447451922422201553e-01 -1.766016928638728667e-01 5.305092854563653315e-02 -5.388348508640771611e-02 3.972072216581413497e-03 8.968203616917878873e-02 9.418894308599289056e-03 3.728050235264740442e-02 1.691636530198535951e-02 1.061909644006294590e-01 -1.069066280693990317e-01 -1.918539816199189493e-02 1.652903057693365027e-02 1.142345802559048135e-01 -6.917372967151324929e-03 6.831591429150203794e-03 6.694334773391204078e-03 1.503069226194197472e-01 -5.133665783717396291e-02 -1.161605883612941842e-01 -8.907931195938213753e-02 3.995619432641504126e-02 1.071804546256645459e-02 7.074324952986872639e-02 1.226099819227736004e-01 -3.798024667128570286e-02 -2.237439258140814027e-02 -9.688723203160080899e-02 -4.739385995598333415e-03 -1.801505469094497047e-02 5.620037685083269230e-02 1.371321850077728693e-02 -1.547034185922853584e-03 -7.088194707901106228e-02 2.842933009053251817e-02 1.935550424482387899e-02 -9.147844677905830890e-02 2.434716613218707981e-03 -2.865070082021642719e-02 5.329406310015639275e-02 4.225840632546864345e-02 -3.180554396888629620e-02 1.419405904460474266e-01 1.440589092160614315e-01 -6.501470477701916384e-02 -1.688987858839001432e-02 1.888421584679235085e-02 2.170094445679889711e-02 1.317719769170679900e-01 4.807038551795920350e-02 1.895225012145408949e-01 -4.686691837574007147e-02 9.454572786650242838e-03 7.542065277207973817e-02 -7.686187198691513123e-02 6.643655677260011660e-02 1.820599320410402344e-01 4.518387345782953757e-02 -3.373277308151127057e-03 -4.095125028621048047e-02 -1.097159279215883937e-01 -5.127744476930107438e-03 2.348137939951440989e-01 5.065692430415275581e-03 4.924280974577045777e-02 1.218851601679460106e-01 3.139846657419718967e-02 -4.122454744770232687e-02 3.050162962091551924e-02 1.584062179171190354e-01 -6.943888640473444562e-02 7.047831619129978076e-02 6.343546757754649212e-02 -1.725680853095057019e-02 8.505760809789731161e-03 6.272614133253209823e-02 1.225811994625655849e-01 -6.265945704950849626e-02 -2.794699631176711038e-02 -1.479138185568515951e-01 1.130899149623714878e-01 -3.029357603409784869e-02 -7.650666075168613411e-02 1.722620881639032597e-01 -5.654813003363808044e-02 -6.903970819438244415e-03 -1.198966153283816255e-01 -9.960872456939082187e-02 1.312385177639420752e-01 1.625540762631608183e-02 2.213190965858742865e-01 -1.245104277724033148e-01 4.891206289384967404e-02 -1.011609175966544510e-01 -9.350591038069996919e-02 3.272891228797949331e-02 -2.630022327055864945e-02 -1.221955908379080552e-01 8.779694392829569261e-02 -5.831881189117999603e-02 -1.199731463593532547e-02 -4.511598370364715282e-02 -1.204385839835263178e-01 -9.845730559002130455e-02 7.068807102473446957e-02
-7.502524670816441976e-02 3.477369455758515943e-02 2.653572622507888168e-02 8.278338962277503876e-02 -1.287216996683099302e-01 3.188254068506421457e-02 -8.562581721507647736e-02 7.812887277165528332e-02 6.154557148350051771e-02 6.577606997310771197e-02 1.797037621915595698e-02 -2.278379360804473619e-01 -1.399236964533906447e-01 7.637243531821866216e-02 -6.023855192127489794e-02 1.057271860451208106e-01 -1.241723327267812010e-01 8.444338451583793814e-02 4.190975319470779253e-02 5.408490537171946333e-02 1.424469997793179933e-02 -9.929964712058726717e-02 -3.794706957362636857e-02 5.956940981372708943e-02 -8.912097838064143851e-02 1.254822706656838205e-01 1.070940729055033652e-01 1.368184391448949710e-01 7.540420361080717171e-02 -1.361789828286213699e-01 2.149392237092976471e-02 7.668457175840998064e-02 -5.721466983971459919e-02 -9.328610754572032315e-02 -1.346318879747716024e-01 -1.058393071895531307e-01 3.082196167692370994e-02 1.263168048120816983e-02 1.474654928503806306e-01 1.986563836008989250e-03 -1.534466731662132918e-02 5.427250170585612432e-02 -8.980912701477083981e-02 1.072753748918984784e-01 9.212111367602980605e-02 -1.046108506829484391e-01 2.398848127767510066e-02 -2.396712949412238211e-02 2.015265580230655995e-02 1.095470230356529462e-01 -7.638381018855426585e-02 -1.059081420729204165e-01 9.710984251955659396e-02 -2.724548763907680970e-01 2.634287772238337860e-03 3.090492958908486708e-03 -1.787093300414944325e-02 4.194993138326030824e-02 -8.683885310578368100e-02 4.747060901928550070e-02 -4.976836436034205030e-02 -6.129846491858328278e-02 -8.987737222059064002e-02 -6.951372596181107366e-02 2.548544150849518797e-02 2.462781615957430614e-01 1.288241556236482677e-01 1.366351092678203538e-01 -2.084134381199880537e-01 1.054684563321700019e-01 -6.584775930710327907e-02 7.016707295444811476e-02 -1.484227193585896665e-01 7.018342167404527376e-02 -7.367026132325493748e-02 -1.135368311093352400e-01 8.032463815119281203e-02 1.947144726500162626e-01 2.819679648707338476e-02 6.163467147794281925e-02 1.690196619992704041e-01 -1.759683194691768482e-01 -9.402870506579077969e-03 -1.535497441712701805e-01 -4.820639803863324691e-02 -2.815471094755664372e-02 1.912752534152871720e-01 1.791120736642403885e-02 2.698389146550609491e-02 -4.756282987295663151e-02 -5.824427880567616296e-03 6.104026748550706039e-02 -1.537648672149885543e-02 -3.070252588836011251e-02 3.142025340087553718e-04 -1.182523852738317366e-01 -1.844622273690472436e-01 -1.316991590071137086e-01 1.474957870509535987e-02 -6.541309880591109072e-02 -3.660845910184559043e-02 -5.773871401628952182e-02 -5.850701778853337892e-02 -2.923128293675595832e-02 -1.848530335181280126e-01 -1.487361219115995205e-02 -7.512722249696535126e-02 -7.153009896674659973e-02 1.077841574649797823e-01 6.236715426835939824e-02 -1.697071777108972168e-01 -8.521764218181970829e-02 -9.226230597125315014e-02 9.233240966200687017e-02 -3.950044305443563275e-02 7.099492754388625482e-02 -4.286734335606338236e-03 -6.496395843813317084e-02 -3.185375129774514064e-02 -1.872206094367987461e-01 7.212713570144047362e-03 2.912057435527974636e-02 -2.783483018791381783e-02 6.053075788320774059e-02 6.710227162652017407e-02 7.281605180272021638e-02 1.336209647102170883e-01 -8.727503743200770714e-02
-2.799172728169902619e-02 -2.656049099593827539e-02 7.205149027382004578e-02 -1.293576769868712839e-01 -3.183838956647055268e-02 -9.481814758346901462e-02 1.085783790045518650e-02 -2.119647184781625442e-03 -6.157621247342316695e-02 -2.930533634617935590e-01 -6.091273081908964854e-02 -2.225475430065630422e-01 2.396933322473092463e-03 -7.039317355215303496e-02 2.709110589598537344e-02 -2.996287288327822984e-02 -7.634655479657612154e-02 4.032232363500089234e-02 -1.837546224427432651e-01 -7.286371058925557309e-02 -1.953910623600021990e-01 -8.140128776196832450e-02 -1.416269377801199778e-03 -1.360313933593355895e-01 -1.109787499027096135e-02 -2.339564016196563345e-01 -8.112677910717996932e-02 -9.756553455277711118e-02 1.939367387015260846e-01 -1.314541652188231657e-01 -5.487548212201663611e-02 6.671534170893875237e-02 1.347428369230626310e-01 -1.186628548575294206e-01 5.955850874483979707e-02 -8.016165477363386416e-02 -5.859589636499765164e-02 1.029253139283348717e-01 -9.497723603262473412e-04 -2.893128236621663602e-02 1.982123034814074758e-01 2.384155648062200039e-02 1.453604884346416659e-01 1.142183106029329015e-01 6.079376503033623313e-02 9.329985398567094967e-02 -9.539600466208771057e-02 -2.729729532465370156e-03 5.192908822768663862e-02 1.323222244137830794e-01 -1.209591319762493428e-01 -9.031791331818293800e-02 1.860091975072244719e-01 1.808423376203361493e-02 -4.123117935013083379e-03 7.395596401961762427e-03 3.321532628922166386e-02 8.167390002106869606e-02 1.174027231423652451e-01 -7.561071823364297340e-02 1.399291268633345298e-01 9.180457121706629697e-02 -1.004522731089326493e-01 7.390999105536197322e-02 4.322192208404126990e-02 2.491545979200661953e-01 1.208005559295078080e-01 -8.532326906948677070e-02 -1.327758259838022203e-01 -2.508973148751933446e-01 8.380842992178216821e-02 -8.198703484635185001e-02 6.670079267799425629e-03 3.913203422635658756e-03 -1.713261257130009874e-01 2.771519020885246029e-02 -4.838713253411428689e-02 -1.213677108625499795e-01 3.372294190573188466e-02 -5.428905562886927882e-02 -5.810711579388786602e-02 2.169215726572730832e-02 5.737604107074431234e-03 3.411920695822109884e-02 1.074722525396375333e-01 -1.150272995209080801e-01 7.342518028653733601e-05 -1.087504646167380823e-01 6.317055407459477856e-03 8.933515121975625639e-02 -1.427110814754314373e-02 5.286809626901373821e-02 2.706014683113003305e-01 8.980046811837216758e-02 -6.701142667104871553e-02 2.529053484740957994e-02 -4.178022617073051670e-02 8.925313908992397668e-03 1.040652195984562677e-02 -2.239348583978431964e-02 -5.524711178070769446e-02 1.462192549650762341e-01 -5.806765752782387657e-02 -1.659589188286482485e-03 -3.492984093600269221e-03 9.292261441124687049e-02 1.889160949869886363e-01 -6.500365848182887429e-02 1.447599734899330248e-01 -1.654308473353945834e-03 8.761419895106536959e-03 5.060906169034550678e-02 3.995789160037708371e-02 -1.018829954078545041e-01 3.025670216194206036e-03 1.004839454497803708e-02 -6.373606651736586637e-02 -4.332601539556633213e-02 -1.516277382761767670e-02 -1.072941781834625252e-03 -4.942267874173113251e-02 1.489279716695102174e-01 1.109658954378371226e-01 -3.361233014536105235e-02 2.095287076358532882e-02 -2.841019822927415284e-02 3.438613949213358001e-02 -1.473290328391803697e-02
9.732548074993687195e-03 -1.682931922502197697e-01 -1.462442867520866441e-01 -4.368004969067964399e-02 -3.342919516784046974e-01 1.184116928666635454e-01 -1.158460910745398587e-01 -2.058829616435847443e-01 -2.089187585542857419e-03 4.472039919029012489e-02 9.824823881079859655e-02 1.854908568846403523e-03 2.694890768717736820e-02 9.548223603773516033e-02 1.493649257294411316e-02 2.050271513291554160e-01 -7.689084729452494438e-02 -2.072265197712100035e-02 -1.660223424087116650e-01 2.065064161810430676e-01 -1.928325612661248023e-01 1.413911026394834292e-01 -1.945316873531914292e-01 -1.294948581582578140e-01 1.322490232061719617e-01 -4.743847034134216628e-02 2.089114349840749951e-01 -1.821415340218324186e-02 1.740376646577330710e-01 1.018189570391868914e-01 -2.142220707413269587e-01 -3.132765130047920898e-01 7.544961787025848687e-02 -1.042650507205702265e-02 -7.081767328954671759e-02 -1.400185533999128706e-01 -6.767215666186185419e-02 -9.149006162264465558e-02 -5.498669768820995535e-02 1.409484526451683373e-01 -1.386913497153997310e-01 -1.685448008442592405e-01 -4.406304754018058878e-02 5.292078089687630993e-02 -2.850737787741869020e-02 5.840202793438177206e-03 -8.228710686224616211e-02 9.949084494140650672e-03 8.079698894898117156e-02 -1.344466904571474108e-01 -2.043293348309105917e-01 -6.077162083696991540e-02 -6.630162784445292612e-02 1.138234500367373836e-01 8.032610433263004390e-02 -5.342875315807175257e-02 -8.678083609494835482e-02 1.251985326580336011e-01 3.109395958368675883e-01 -1.446510506853750100e-01 -4.402194995534330912e-02 -4.740822308978685784e-02 1.602590297504578321e-01 3.833476810312368838e-02 -1.149957783491868113e-01 -2.407567657016339846e-01 -3.281800738453823918e-01 -2.308488811740984636e-01 -8.381403255153382914e-02 -1.114443552638066520e-01 1.450234865691916140e-02 1.071257376123441185e-01 4.754376472350282934e-02 -6.691087424607373990e-02 1.995183287196822530e-01 3.719993189312859050e-02 5.661519749638900707e-03 1.830608315698726007e-01 -3.823361417875644624e-02 9.811079834108291098e-02 -1.085558421388548855e-01 -8.198932343065168382e-02 -4.878497732128068975e-02 -1.154412210450204840e-01 -9.280107090561783012e-02 1.842850589841520115e-01 -3.056028810022068734e-02 -1.435123086543340157e-02 -1.297573540354735877e-01 -2.049098739314236459e-02 1.576125716797749654e-01 3.114912956242074996e-02 -1.246232273826070464e-01 -2.109283356036311396e-01 -3.425366468263105202e-02 -1.282028693609459369e-01 -2.525700941218490814e-02 3.592907609009520775e-01 -7.287066333697170620e-03 -9.743022609971264958e-03 -2.755711799260351924e-01 -1.284752290328551039e-01 2.352164382681035948e-01 1.916056075479953824e-01 6.122168104749424744e-01 9.663418500129143662e-02 -6.303152039990538025e-02 -4.752223706391964231e-02 1.267290807016844267e-01 -4.850166779991853250e-02 3.005446055446952397e-02 2.293865818308158111e-01 -2.759015656334778410e-01 1.116561647720416689e-01 3.426109166833818387e-02 -2.394495679585429970e-01 -5.914757616483563157e-02 4.734680897739160232e-02 -4.550419785915531257e-02 1.201130786675601442e-01 -7.456224096117620992e-02 2.215785426488936158e-02 -1.260441318984683590e-01 -8.649383696163179258e-02 9.637163386895893080e-02 4.684224745809172086e-02 -2.510488833301900979e-01 2.315620525285896070e-01
1.835957864329578193e-01 -6.453139027044292597e-02 3.821929765597953388e-02 -1.030594188401467298e-01 1.777119737438833946e-01 -8.941760728646871992e-02 1.763790208550093941e-01 1.457643915326539141e-01 5.545409691601390148e-03 -2.383474212774256973e-01 -1.597043483206155856e-01 -4.292279115711563481e-02 -1.107181732657913295e-02 -2.835788879949905847e-02 -1.659681109191200876e-01 2.101005431148031954e-01 -1.371680352075740211e-02 4.578506380032398328e-03 -1.555613676192801054e-01 5.286711229676457902e-02 -5.806862455784866234e-02 -8.690288873118921786e-02 -1.299845094324851569e-02 1.501969967716448862e-01 2.167466567490262952e-01 -1.426659956192731227e-01 2.655648071097685414e-02 5.680453579247229240e-02 5.707097445006642511e-02 -2.837360790960579728e-03 -2.661608857574987094e-02 3.565581956476950032e-02 1.399572864679262674e-01 1.302390022512649181e-01 -4.669408913311939163e-02 -1.033589411097622368e-01 -5.054048969032028105e-02 6.702662984419597778e-03 2.655496834862890870e-03 6.681670845621615062e-02 2.188434639696485925e-02 1.900400760155701585e-02 1.495854835775870667e-02 4.543083615648698531e-02 8.147243462292270977e-02 1.095693610943230811e-01 1.625055037615788234e-01 -4.600771650418985365e-02 -7.514638722745149713e-02 -5.514844840503092122e-02 -1.056318473121480167e-01 1.296056366559718565e-01 -1.683205727182304490e-01 2.386471875954945983e-03 1.266358576984079679e-02 -5.257161536288951914e-02 -3.354780902626344763e-01 -6.361606804317158914e-02 -5.409158384213155063e-03 7.427267868687341401e-02 7.087851933341450528e-02 -6.745792765592836804e-02 6.264460791404805051e-02 -1.056486796843716519e-01 -1.189724301288927477e-01 -1.523506881902743360e-02 1.296489144231320056e-01 -1.111526841951492872e-01 3.119923905627391275e-02 3.699615435753091097e-02 -1.342290983660460180e-01 2.060009226946512423e-02 6.753939167351946660e-02 -6.633245810318286195e-02 2.782789494572942765e-02 -7.513703035538549235e-02 -2.377953620726729889e-01 -3.603435646355043764e-01 -3.651982168506859999e-02 2.991908631581283520e-02 -6.549017610466087436e-02 1.332361276149315876e-01 7.668485684663262081e-02 1.115435698621712601e-01 1.715081149418486162e-02 2.992031820273450271e-01 9.411377918170045487e-02 7.612012814940428973e-02 -1.520512474148023596e-01 -1.482300927119574799e-02 -4.875453953438284305e-02 1.175982301007656439e-01 -7.710606733842098603e-02 -1.191411643114275234e-02 -2.873908123774826170e-02 -2.562975375707027617e-02 -3.605209518083238307e-02 2.766186901232252707e-02 1.908353764671503472e-01 2.138205710912305380e-01 -2.657120317216683514e-01 -1.991476568599015728e-01 5.518915643345303351e-02 -6.069076203660787872e-02 2.632626971199293342e-01 -4.575941381065425778e-02 -1.024641006989728265e-01 3.455152089210265093e-02 -4.994484675884262870e-02 -8.825524578806583087e-02 -4.076699641106026201e-02 2.482029034218621866e-01 1.449390733101880817e-02 8.342474405381866687e-02 -4.251813894969912536e-03 6.978038436357916589e-03 -1.195667997709394664e-01 -6.184215981256876993e-02 -1.381969138943636155e-01 1.552634639504614500e-01 1.364516172333296237e-02 4.954341094517982630e-02 -1.182808185589735439e-01 2.440342769685564100e-02 -4.319463986778280390e-02 9.527953834792098065e-02 -2.553060487795670228e-02 -2.407320460364067993e-01
-2.689761789599185438e-01 -2.209121787689877821e-03 -1.461926838981402466e-01 -4.853551449036046239e-02 -2.123626249318747439e-01 2.048987690605765244e-01 -9.611191804273359895e-02 -1.764989732723521443e-01 1.027687046235298135e-01 -1.069756271697112904e-01 4.291180256830804535e-02 2.036676181088993912e-02 2.097335930603256293e-01 -1.767302537107230676e-01 7.176975195083226677e-02 4.568181744694835983e-02 1.808496080433895647e-01 1.376522179681722580e-01 -3.127157929996901564e-02 5.371771104618043580e-02 -7.390821060856846147e-02 -3.435458965567604328e-01 -9.873992414125870587e-02 8.073483044606970249e-03 1.978236471473336922e-01 1.582728489064401389e-01 -1.739771478794146509e-01 1.205424939146979568e-01 6.356273934594017239e-02 4.138028643559744923e-02 -5.977960646908062059e-02 -6.556454445395872022e-02 -4.581633195060996061e-02 -6.631387612885897287e-02 -4.160925845542183532e-02 -1.756443763547554104e-01 1.266578345630875457e-01 -1.487153473766329170e-01 -4.006125767111888281e-01 8.136081294523285490e-02 -3.548122389356395123e-01 -9.614870606585518287e-02 -7.340275911683280530e-02 -3.454022888560840526e-02 -6.126167930508819720e-02 -2.065757340816458953e-01 -4.740544352028384055e-04 5.837712931993193667e-03 -2.580449980059223436e-01 -7.464403915391482069e-02 1.526874694760932405e-02 2.402236508814167837e-02 1.668392374889944019e-01 6.751195074375952732e-02 1.199212438488568913e-02 -3.677240434320401263e-01 2.175201996196742538e-01 -3.888285292291679407e-02 -8.157395176201370779e-02 5.580625935581706373e-03 -8.771982271708028689e-02 2.070387946557177283e-01 1.759273587311488418e-01 1.571747795061914921e-01 8.257854297878099159e-02 7.969052028602680027e-03 1.591057378354469865e-01 -5.034719070549577291e-02 -1.055749207999552575e-01 1.761576453827878586e-01 -1.500248912170596416e-01 -1.762818221927617973e-03 2.266242912097912454e-01 -1.034053870874207665e-01 -1.145180571359412230e-01 -1.576425223914295903e-01 1.004128172467873142e-01 2.788228135092067905e-01 -6.500156750589724045e-03 -2.513694879863637155e-01 -2.148498611221053012e-01 -1.125022974195274278e-01 3.574569416894066154e-02 -2.638917262073943726e-01 -9.236451585154915878e-02 7.465432337429978027e-02 -7.911858830058994541e-02 -9.147810151924097577e-02 2.355517793992044015e-02 -2.900977936574712646e-03 -5.510146942506584378e-02 -1.681444940691974033e-01 -1.329334658267702640e-01 -1.725774144190192483e-01 -4.757355437497885579e-03 2.778396151225540761e-02 -7.909424249831706333e-02 1.940133075648281524e-01 -9.832358361481094433e-02 -1.445277307386258394e-03 6.676933885980465555e-02 -6.986257812561723346e-02 -3.525513524674465937e-02 3.172385063227739499e-01 8.259134011641553474e-01 -1.698704581015907100e-01 6.304920137860006712e-02 1.388228818334149572e-01 -1.954447734433664707e-02 -7.438765771580405084e-02 6.927771415770302837e-03 2.396234932158884667e-01 8.919064323518387238e-02 1.043024118506307441e-01 -4.700376961411049936e-02 -2.351184681337245910e-02 2.539672651587669867e-03 5.659834874526811777e-02 1.540778518114652770e-03 -8.314038033008665229e-02 4.518805155005252427e-03 -1.667635979389547884e-02 4.946982280099318507e-02 -1.499760174760741693e-01 3.789195407622576450e-01 1.049124980535030144e-01 -1.000156719990201865e-01 3.530611204207364517e-01
-2.215102011733025705e-02 2.562277377254915198e-03 -1.221711005696591440e-02 1.293194271969654030e-01 -1.951136066178179307e-01 7.999234038421862425e-02 -2.706005669936479285e-01 9.123859381850113470e-02 -9.258258754530475365e-02 -2.126641405069950308e-01 2.369423410673300034e-01 -2.196880629070657731e-01 5.491687436483063539e-02 -1.232881615094781058e-01 -3.849917896256986605e-02 8.560375817217564728e-03 1.230479931405061428e-01 -3.398770697542391646e-03 -4.757066790573705878e-02 -5.431258118363147674e-02 -2.846869838230032812e-01 6.809296233269389320e-02 -3.120257652781236457e-01 -1.003755731955718877e-01 1.532150226985002361e-01 4.738476022743783878e-01 -1.441810935027766083e-01 -6.157971135839607722e-03 -3.267562397770467503e-02 2.527798819800342045e-01 -1.201040096545680919e-01 -3.291794131785539257e-01 -1.979378127546470648e-02 2.312030207326599973e-01 2.578107253808901989e-02 -7.704666040872046318e-02 1.441857984417975252e-03 -2.552819731088655231e-01 -5.515584401333885056e-01 6.296654423973838122e-02 -6.827482157927378115e-02 4.401248267595140456e-02 1.280131465460785690e-02 -5.291151262791412430e-02 -5.201444714535798791e-02 1.030081421748896692e-01 -2.903070703103032835e-01 1.524454997949563351e-01 3.560215669593589597e-03 -3.572543783845722604e-02 -6.095664145100897213e-02 1.323576436249577354e-02 -3.141755005459732630e-01 -5.918529894151808302e-02 -4.642322010016747269e-02 8.684758862119505707e-02 -1.856734450205793641e-01 -2.472658623907809244e-02 -2.913546693258912135e-01 9.175599914595176931e-03 8.768941637456378890e-02 -2.292421361039637673e-01 1.343095518322011406e-01 -2.531379153912851065e-01 3.807130016854716470e-02 -6.382445021499745519e-02 -2.159132997458086678e-01 3.794410681661814638e-02 -1.313432538913916481e-01 -9.158852958418232937e-02 -8.979768393188013176e-02 1.621985753841947708e-01 -2.399217704039330323e-01 -3.203627146166537210e-01 -9.095044895712722788e-02 -1.676431498986904189e-01 3.403082749016725916e-01 -3.181304117318956570e-01 -1.662128544045938516e-01 3.304706591332969706e-03 5.287199370730314568e-02 -8.026949054611583201e-02 -2.933106805625712230e-02 -3.705700851689875397e-01 1.287378590193835326e-01 1.852819516161250402e-01 -1.210092266217049212e-01 -2.009911004125483902e-01 -4.983319079296844728e-02 -2.374893639781034405e-01 5.145472239338957920e-02 3.704808148800003281e-02 1.586308729545468088e-01 -3.399406525624843467e-01 2.095328511462041521e-01 -2.004779962815538830e-01 -1.297704093266509040e-01 5.557390364497100110e-01 -3.658113611232499240e-03 1.900863057375685450e-01 -1.485565010064519298e-01 -1.251859509216192712e-01 4.046358702679823949e-02 1.600730225542891239e-01 1.042824740237269010e+00 -4.299769452751186494e-01 4.308483184796758209e-02 -2.776437252751393636e-01 4.227530420038683179e-02 -1.335082327763333250e-02 4.339937612038682890e-01 3.117811077082180415e-01 2.008497094540997452e-01 1.057257241655716468e-01 8.144981297745188670e-03 -1.144360350062104403e-01 -2.232828383072921474e-01 -5.946751574322865080e-02 1.705167290266535185e-01 4.031812929247927807e-02 -4.177697097183915437e-02 -4.083554902954477511e-02 5.247433939104606537e-02 -5.738591737429362544e-02 4.048952618242593893e-01 1.245096053799397140e-01 -2.079361224256008056e-01 1.041288589836906892e-01
4.201373032382560435e-02 6.758192419768307979e-02 6.752728566779932218e-02 -3.580181077998704359e-02 4.685989577873003742e-02 -3.865021608405137116e-02 -9.634825436054035575e-02 1.153838590214885662e-01 -2.640950445169482075e-01 2.281650220468510182e-01 2.770698508101852586e-01 7.987411159553781115e-02 7.639335731492764847e-02 1.024617152614273746e-01 -1.842154596139293499e-01 2.080738240113980120e-02 1.282394420617532227e-01 8.207111506294366421e-02 -5.308325779740529632e-02 1.614454269537110923e-02 -8.013477545444327999e-02 -6.206273037537910625e-02 -1.202326898852491277e-01 4.848071242416417126e-02 -1.347400087281481751e-01 2.798657986204255640e-02 1.159919208323228340e-01 -1.372662188167843578e-01 -1.067008082349888837e-01 4.927667587664774640e-02 -1.334811451573033603e-01 1.905644158127735854e-01 1.107362170687416561e-02 1.699841331161523472e-01 -5.299718408767820077e-02 2.875429164894363013e-03 -1.882938685194316397e-01 6.384825000228895597e-02 5.580346564078213223e-02 -5.373585471013672676e-02 2.326858265299799888e-02 1.508327297805145580e-02 -9.736871311915870630e-02 4.063903327862527365e-02 6.588787602326506843e-02 -1.443784983745128314e-01 1.717134638617950071e-01 2.826999836324564641e-02 -2.135595238866760601e-02 5.988792591775217444e-02 6.768495379164098102e-02 9.648063729542159794e-02 -6.788602688416937869e-02 1.175866991246754117e-01 2.246361579248440377e-02 1.743172447673934922e-01 2.153126453714115929e-01 1.559078766914039627e-01 -1.860857083641488385e-01 -5.951725505317377596e-02 7.384339916360500855e-02 4.537590177216526549e-02 -9.047784177520114268e-02 1.389950404411803564e-02 -8.020669018137030482e-02 -1.536714449673741711e-01 1.954781160162833709e-01 -1.630470976566903707e-01 1.537371915949886474e-02 -3.751903307225640943e-02 -1.898280076328686533e-02 -1.628130795872469172e-01 -7.604913179642613930e-02 6.689968192262264746e-02 -2.155916936534391787e-02 -2.403003288895634582e-02 8.565633718732484914e-02 2.247506217303097686e-01 1.145369501114707617e-02 -1.414756117323991980e-01 6.928997507684328538e-02 3.274938975462005769e-02 -4.888048155593485711e-02 -1.345012378989847435e-01 -1.821175057547200493e-01 -9.084727547142133763e-02 3.142025021268805146e-02 -7.458482545982882128e-02 -1.760400922147477010e-01 1.013115428179186539e-01 -1.722387457093638718e-01 5.797115938844373678e-02 6.116820096881472185e-02 -1.638062642438517513e-01 -1.205286171957288543e-01 -6.618432491308431920e-02 1.831519011654641482e-01 1.029871750531329982e-01 -1.496126379352702429e-01 1.072467838890559660e-01 -2.005831330603224660e-01 -5.156703912971841858e-02 -3.515588745602899346e-03 1.723081741854921578e-01 3.027678341621655167e-01 2.604029357848467452e-01 -2.808663891496661624e-01 -1.060512436056106067e-01 1.083437152446394824e-01 1.061891151291619179e-01 2.316513869274889059e-01 -2.850020934948910845e-01 2.200353740275507730e-01 -1.017483550433459505e-02 1.647568620630358582e-01 -1.527538838900347959e-02 1.437101074380780497e-01 9.484430504332429235e-02 -3.563470588793895416e-02 -2.170009598549418883e-01 5.636884841975559057e-02 1.016910689214237801e-02 9.048074007902985605e-02 8.265237880880998284e-03 5.918956021023058511e-02 1.476987123064679441e-01 -7.224950092126530832e-02 -1.063732738375896131e-01
