-9.840154560006534462e-03 7.046400350110050299e-04 -6.868091464313144136e-03 6.417923274346887079e-03 -2.966627228114168680e-01 2.550543472738833195e-01 4.156454352659630369e-02 -3.186362782980546871e-01 -1.561488565339313973e-03 -1.177453913252828610e-01 8.807959292833995868e-02 8.319742867330216785e-02 -1.554957732722428987e-01 4.011553845804376461e-01 -9.728917918582753732e-02 9.624082589447406633e-03 -3.797883248117088495e-02 2.189055785847533557e-04 4.037501404685997497e-02 -1.501000116438549505e-03 -1.235699376423833457e-01 -1.149867992688330953e-01 3.103370979429695767e-02 -1.064184929494884357e-01 5.152557890279102493e-02 1.232958400049768422e-01 2.096282382849317533e-02 -1.151144965755079019e-01 1.601843202196393326e-02 4.935903431913273021e-02 -2.088777148261959649e-02 1.377987939527096362e-01 2.128905427510974918e-02 -8.453010912301058000e-02 -2.248671738442188650e-02 1.465706772317045270e-01 -1.010604559036131118e-02 8.197718059645496547e-02 2.051494125150218374e-03 4.013101218312936994e-03 -4.610384315217331413e-02 -4.772985924149283563e-03 -4.361207527973289672e-02 -7.547592636237361596e-02 7.410870976916018871e-02 1.046983716635000727e-01 3.830450979917338246e-03 1.797206266268174674e-02 9.803239709057659512e-02 -1.466107039474137952e-01 4.085069801355307312e-02 1.696633197901603607e-02 3.013302164403795433e-02 9.367626347443504785e-05 -8.735438245872301222e-02 -7.974418193451880688e-02 -5.221127738242932470e-02 6.264704638529169705e-05 -8.671634487539275904e-02 -2.028831569959841947e-03 1.526699791973603337e-01 -5.973575794399147570e-02 3.146020950314067782e-02 1.082756360880365171e-02 -3.819805240680936020e-02 2.994689254247219663e-03 2.202863919092814815e-01 3.210688068523106509e-01 2.869527544820551015e-02 -2.636855727533613664e-02 -1.319714806120395566e-02 3.504145980414091234e-03 7.709397640123702086e-03 5.953853617196901149e-02 8.539197707077063673e-03 -8.463137502511521243e-04 -9.589026289423517591e-02 -1.917954893411086548e-01 9.409455642383547994e-03 -2.412120677353012457e-02 1.243742652588059050e-02 -6.350989245775011394e-02 -9.230930672522052625e-05 4.874651080828943522e-02 7.720920739388221804e-05 -1.867893208268602279e-01 2.666500545737807842e-02 1.125757774418960355e-02 -9.314037620081176022e-06 -4.073624427294225692e-03 -1.088088467238354333e-02 -8.692499897699944994e-03 3.346375951871863319e-02 9.501621110283796356e-02 2.254490423880227387e-07 1.149741857741741896e-01 -9.387295109475417401e-06 -1.001369697576526829e-01 -9.301825270336799845e-02 -1.986177577169783229e-02 2.123287163436705094e-01 -1.118729600118472355e-02 3.790061321801961331e-04 8.441749380672003422e-02 1.394093926325011001e-01 9.546489998149747247e-02 -1.378170129564403436e-03 0.000000000000000000e+00 -2.063072359900095453e-04 1.264730990927503407e-01 -2.786931727146149326e-02 -1.523331046793964007e-02 1.449638464952776318e-01 2.451339169151441760e-02 -9.142214200152919135e-02 -3.380910258310344807e-02 1.115803690595832814e-01 1.150887272443130820e-02 -6.204560509789468908e-03 8.742348104587915891e-02 -9.109516808049571276e-04 1.660374991423504976e-01 -8.985810842433052462e-03 -3.332154416179071155e-01 -6.349883703580069816e-02 1.040341466059786502e-01 -3.018713440846829132e-01 5.645309885987438020e-02
