-4.523092297725460342e-02 4.941100729466542385e-02 -6.062412333472491643e-02 -7.301294221506554605e-02 -1.445354520893283035e-01 -6.616916550873012948e-02 1.657009630746448803e-01 5.468013896579433826e-03 -9.189696047292231218e-02 -1.632364779990932158e-01 -4.438715085524704007e-02 6.289697653541613531e-02 -6.610002820921906386e-02 -3.618056268068661069e-02 -3.349549181305503942e-01 3.007672036830324469e-01 -1.159734730235171540e-01 1.428504802757082637e-01 -2.019025362407725691e-02 -3.227506837053752825e-02 -1.553502798946682605e-02 2.509245870535574130e-01 2.528744890711112081e-01 2.473268927348377944e-02 -1.035419239527183288e-01
-5.580984562639714625e-02 1.927847097625529083e-02 2.282526508140737126e-02 5.642595540078141313e-03 -1.562480269805681665e-01 -3.026237571725588424e-02 -1.175096913150712047e-01 1.672305641817308230e-01 3.310294612358255506e-02 -2.559020874902743770e-01 -1.048930045400800481e-01 1.523586782562587894e-01 6.924049121152892061e-02 -1.487830987976628272e-01 -4.102375986626998969e-03 5.676789324545512654e-03 -1.484599550043007032e-01 6.652474323672090406e-02 -4.792754869456204020e-02 -5.926709529970591861e-02 1.549119449524589132e-01 2.853590856749768645e-02 3.001029742376308193e-02 7.853980734156405796e-02 1.096215617362654160e-01
5.519536180333050462e-02 -1.274109968934029891e-01 1.015903306659372562e-01 -7.056313820237933299e-02 3.412333097394157355e-01 -6.462424833384972089e-02 1.068363061333735785e-02 -1.162815062198198079e-01 -1.262100527803768080e-01 2.577878188379849611e-01 6.461466397516320292e-02 3.015765496365235485e-02 6.444947109304582922e-02 2.409976815281746620e-01 1.880173762749941802e-01 -1.467009014375121878e-01 9.128829702818513914e-02 -2.152214326279104639e-02 3.160769982799261912e-01 6.423173617308298999e-02 -1.639495646700568909e-01 -6.681087464523656483e-02 3.765252735755741237e-02 1.977176800773609855e-01 -2.202241744460825823e-01
6.593261450098204801e-02 8.467368387135118524e-02 7.437083634589390646e-02 1.303378296322228735e-01 7.231709555195514789e-03 2.448358655614794044e-01 -2.170392510718304746e-01 -1.944441573762904218e-01 1.298558255442423814e-01 7.496298723246062889e-02 -4.894511513979289512e-03 -1.667047434033528883e-02 -1.073263317682943002e-01 -3.334362385363116160e-02 4.232673723801251564e-02 -1.107823791447543477e-01 -1.240973216993478817e-01 -4.804596025957291738e-02 -6.890212311177296156e-02 -1.136376989771839541e-01 -1.168347472095667729e-02 7.387752366399921722e-02 1.589854286877913012e-02 9.394269367867240372e-03 -2.399408462355952579e-02
-2.269271214976023299e-01 -7.878659857485554446e-03 -8.016523667933349306e-02 -2.907505182363123719e-02 7.387403566779056352e-02 1.055880147199315666e-01 -2.375627964303206677e-03 -3.034640734057690858e-01 -1.863633306857555572e-01 5.068808229483484640e-02 5.768857375464336162e-02 -1.836157449265233554e-01 8.166822997393812303e-03 -3.784406880367320314e-01 -1.402653410960512104e-01 2.070877168402309176e-01 1.116988662166790158e-01 7.988389371697038333e-02 1.847639399369413737e-01 1.487397553420914675e-01 2.193613449142497729e-01 -2.757821810016604369e-02 1.026133132893105454e-01 1.251987611197336037e-01 -9.739222961742968754e-02
-2.484890647383164453e-02 -6.800796716391982466e-02 8.567724872609781828e-02 3.702345764438952358e-02 5.548858198892238011e-03 5.941499514592419456e-02 5.859090520681282943e-02 -2.280067763906666600e-02 -2.250813260954453651e-02 -1.559719089793366320e-01 6.306773332718502989e-02 -3.200667057652865216e-02 1.662498550981977019e-01 -9.505674962513352422e-02 1.144039807180346341e-01 -1.712383001043533137e-01 5.549808457591553362e-02 -2.438637989713935139e-01 1.201606441064525521e-01 -1.476688936493727178e-01 1.153381343962063682e-01 3.921281213287057532e-02 -2.115780211001812294e-01 -3.475059964258978007e-02 1.313654360162083978e-01
1.610613329011464645e-01 -5.847453614618150497e-02 1.737491318436419352e-01 6.736329781850848575e-02 1.816006502148372892e-01 1.607300196460343181e-02 1.854083836318599354e-01 9.499935979640604378e-02 -1.139022096067549873e-02 3.583616548679598862e-02 5.527476111990714536e-02 1.953158902720068812e-02 -1.431162939296304337e-01 1.383039615335252340e-02 -2.794151475030180048e-02 5.279628112424803593e-02 8.446910892809729107e-03 9.857494203981825853e-02 -3.939514003168021611e-02 -1.367507749894468667e-02 1.285561727244642800e-02 -1.604936788732200942e-02 -2.948051079884181705e-02 -9.125044316482576467e-02 -1.029234588144202767e-01
7.284023313304868741e-02 -1.825126525644785447e-01 -3.661799530015216741e-02 3.728202167135796080e-02 8.845430766955374169e-02 -1.879347005135378543e-02 -8.082126859462133647e-03 -8.974636757291230837e-02 1.096694706977112549e-01 7.173198838811557787e-02 2.649155161669523514e-02 2.567027977420976992e-01 -3.483298793475521071e-01 1.881075175877152117e-01 2.335263310189496233e-01 1.270855383518284532e-01 2.275652173469629724e-01 7.206655150315169345e-02 2.178876482561522068e-02 7.975360612244530856e-02 8.078409522140631016e-02 6.853693441991375902e-03 2.006446437124038695e-01 1.785958434761496794e-01 -2.934026815564007989e-02
1.266808062935268018e-03 1.386483906557191281e-01 -8.515860629392436876e-02 1.194916220687650410e-01 -2.254343753900732439e-02 -3.295064425972871192e-02 -1.217834352647106759e-02 6.266987778656009367e-02 4.262838558452124171e-02 8.476113401494543564e-02 4.193215294489123501e-02 7.773879866066217559e-02 -4.116001837953724152e-02 5.652951108818308340e-02 -1.167999206011611640e-01 3.489130760343920473e-02 -1.596994703401038163e-01 -1.063903779103085034e-01 3.702169694920257048e-02 -1.752384874857551480e-03 1.132629410122751312e-02 -2.487790473528019852e-01 1.074644597461184570e-01 -2.770557023160008514e-02 1.126655354730294600e-01
1.442919798580798163e-02 1.642883341442779588e-01 -1.157194772152696574e-02 -2.127577481305042637e-02 -2.656686064692560106e-02 1.390582369836307897e-01 2.573322802019090139e-02 9.673498231074742493e-02 4.042895165183268968e-02 1.379877247248013639e-01 -8.701600848070617511e-02 1.112523230517737348e-02 1.703712620533668898e-01 -8.337013527025728676e-02 -4.903475150296435214e-02 3.911263500717600955e-02 2.068749829173710808e-01 2.804736527205629881e-02 1.489823273991422170e-01 7.723758273693998033e-02 -6.342944548169057728e-02 3.040566385310986344e-02 7.718418173009912453e-02 -2.042038808695046878e-02 -6.720162735324601566e-02
-1.846236904242873345e-02 1.185870542030094121e-01 5.273393851024645029e-02 -5.104814710820673729e-02 2.562504649090594291e-02 1.801265024383497393e-01 1.003345411340599291e-01 -3.067128355872757867e-02 6.243845620608216851e-02 -1.135274063101625458e-01 6.580398925736639926e-02 1.501002736713991006e-03 -5.195811313954029620e-02 -2.037636910778895319e-02 -2.209888683456694147e-01 1.402130504652197296e-01 -5.128832966529901088e-02 -1.420252294509861402e-01 -2.239539859539735889e-01 -2.642750970625271437e-02 -8.627854305668535007e-02 -8.564859938228802649e-02 -1.246878745733412674e-01 -5.117484085524105081e-02 -9.407714296342545301e-02
-9.358285513882527501e-04 1.972611026482702992e-02 5.429612907781048575e-02 8.276197211850237767e-02 -2.903030430310172064e-02 1.794339775812580154e-02 7.745226566829886694e-02 -3.004829880146209220e-02 7.465139712755647361e-02 -4.492165601303475114e-02 -2.376552708214550030e-02 9.129329013072201571e-02 -1.735717389174214198e-01 -1.246249387388051882e-01 -1.356343154618415425e-02 2.308725738590426124e-01 -7.790329047915035832e-02 3.279326309151762292e-02 2.233253225199738692e-02 -8.923815717368743794e-02 -1.523236405156136175e-01 -2.252551152732428646e-02 -6.352903006722299128e-02 1.521983189420783034e-01 8.647972790931718334e-02
3.319200660336550368e-01 1.421024007301505306e-02 -2.293799394876880893e-01 -1.504721990164639145e-01 1.806647860331523081e-01 -2.079094473954906999e-02 -8.499576178472369181e-02 6.237303835802320701e-02 1.910702221011674196e-01 2.509332020588205328e-02 1.775776215159907689e-01 -1.704311699470676122e-01 -8.789775214721981533e-02 -1.610301884173552245e-01 -1.080670298114908973e-01 -7.214326800001259754e-03 6.553755180266465641e-02 -1.441932807542478379e-01 4.560670684952945059e-02 -1.463992649656679357e-01 1.156598427510313748e-01 -1.019033100074930726e-01 7.678700129451954126e-02 6.913899306592102660e-03 3.962295899145753392e-02
-2.846566350217099584e-01 9.611656413439575650e-03 1.499240833644419069e-01 -1.355991266817067886e-01 -3.193959861906040670e-02 -5.771209201842453229e-02 -9.162606869886562311e-02 8.918486442953323101e-02 -2.636681543089664653e-02 1.703052136439645731e-02 9.173237557775092144e-02 -1.491025122794201185e-01 -8.705992912268276096e-02 1.018398419894423791e-02 -1.248424615932743481e-01 4.011002983430827368e-02 -2.848789002782026875e-02 -1.777508401047337983e-01 -5.272554754651109787e-02 5.853286715022056400e-03 -8.454625252624344001e-02 1.707933432945246688e-01 9.842090982727622062e-02 -9.182530121819694469e-03 -3.636080513920273566e-02
2.658331401288333007e-01 -2.897161072059244516e-02 1.137685843647245065e-01 1.399331584862817043e-02 -2.491119643545961493e-01 8.274941644946615061e-04 6.147894143656418287e-02 1.030536241708285006e-01 -1.410043078910447160e-02 -4.017170660334256488e-02 -7.836333596616111563e-02 -7.356248122891595465e-02 8.634733235631940340e-02 1.027245741704281012e-01 -1.142448505642796736e-01 7.387031313592470894e-02 -7.290690497089044597e-02 4.363777053959184277e-02 9.622557295652467424e-02 2.511442712387311482e-02 -9.417293731036992244e-02 -1.233524264657141489e-01 -8.145150285358766784e-02 3.672267484583623814e-02 1.180570479597539690e-02
2.177453973772403850e-01 2.273901525959033665e-02 -1.746216484371338473e-01 -3.720265292005924679e-02 -1.669958442502720436e-02 1.282720284430485247e-01 -2.491246191437159266e-02 -2.327851454858013980e-02 9.540448277604871019e-02 -1.897921625478350416e-01 6.685476074433914506e-02 9.209687777784953885e-03 -2.641671322541876143e-02 -1.950424756352796551e-01 -1.913668605943822376e-01 -4.862685698744501767e-02 1.085649482047619241e-01 1.333661626977609149e-01 -7.613855176673538228e-02 -3.561606186417849707e-02 6.919458171419251569e-02 2.630060644195911790e-01 7.913864876426877915e-02 6.152477324546357096e-02 1.539984868574098553e-01
-1.033428185008646374e-02 1.023790017002738917e-02 -1.182345526606758540e-01 -2.707718027515751066e-02 -2.305860438591665340e-01 -1.156990619668840509e-01 -4.558564773292245187e-02 8.715128784777503856e-02 -2.132474795712320514e-02 -1.383253831546285562e-01 2.611170679133809069e-01 2.545170994186722602e-02 1.601313136632482592e-01 -5.168348644638397910e-02 -2.954680170344618512e-03 -1.241383809732758969e-01 1.087248893834115437e-01 -3.660339796640584009e-02 -1.693097412111394251e-01 -1.649763762363422315e-01 1.219532593585107849e-01 -6.423061797455243208e-03 -2.052120467651741553e-01 7.984332599950932918e-02 -1.122060616187814386e-01
1.262443166646523840e-01 8.459770115353550113e-02 -8.972161254295674127e-02 -7.632057089386922377e-04 -1.072485406325797558e-01 1.184521375593514288e-02 -1.606026491305230508e-01 3.270638213059252203e-02 -5.710524009045366001e-02 1.993700669800983413e-02 1.341382817190138986e-02 1.332932533698268640e-01 1.266976630903183798e-01 6.804298599539644610e-02 1.527091890013988207e-01 1.092587940067155372e-01 -6.139860296447330335e-02 4.240499982517193650e-02 -4.125959051487333717e-02 -6.857782996016664745e-02 -2.395314739230431159e-02 -3.860461267283690073e-02 -9.900346131615533896e-02 1.250975245490197896e-01 1.657841705016848688e-01
2.931942922326515044e-02 -1.453005313931524933e-01 1.038384018745493187e-02 -1.880496202421066835e-03 7.700290392733016853e-02 -3.582611441843118472e-02 3.123954441982258745e-02 1.142224741811064676e-02 1.038890139970426868e-01 1.531754050333987704e-01 -5.877920364796902775e-02 4.318440094220146047e-02 -1.673633584361532978e-01 -7.995351893281435474e-02 1.196990689435207394e-01 4.324264147170024664e-02 9.112004434704015776e-02 9.966029438359896853e-02 1.668164317983819867e-01 -3.219084412540760415e-02 6.800092951970462818e-02 6.787930088106620963e-02 1.993094711162153587e-01 3.125349094304540054e-02 -3.786456229727950401e-02
2.117246030122034439e-01 -1.218840002864282207e-01 -3.319344911877709220e-02 1.179990550033169078e-01 4.867938933119533157e-02 -2.354785458092133969e-03 -1.033294364499845117e-02 2.900787957989313728e-02 1.672321100674489802e-01 6.979047746021489751e-02 1.627665602461293437e-01 -9.183556409578071122e-02 -4.624741816103860453e-02 -7.865278463856327507e-02 1.005414841351165260e-02 1.725614656057472274e-01 1.473591634272233830e-01 -9.676525227551498187e-02 5.792514288333277736e-03 -1.742063418446031520e-01 -2.421066027561793663e-02 -4.412412213638452520e-03 -1.359724383900130507e-01 6.804881398468308473e-02 -8.702632086586170601e-02
1.965875383230249462e-01 -2.235257446289303229e-01 -5.814983820020983019e-02 4.508600088682118701e-02 -1.794998408561141734e-01 4.809326512216538507e-02 -2.873031761688926364e-02 6.290341749588218567e-02 9.221792576924786600e-02 5.122230552812664928e-02 3.202022855446632482e-02 6.194184876767501458e-02 -1.601011207017341842e-01 2.174936707937704869e-02 1.683043058843917694e-01 5.297090312512266891e-02 -1.047064471235595734e-01 9.575669049764741481e-02 2.046763714846924764e-01 6.180074730490862922e-02 -1.223152383132077442e-01 3.477468779394086301e-02 -7.149231134028408152e-02 -1.015309541409731287e-01 -4.071789287450666706e-02
-2.095789872211061694e-02 -1.054435106291779362e-01 -4.606530161907952670e-02 3.996416261649710783e-02 -3.327745720189698685e-03 -4.476801170892521901e-04 1.358972907750056469e-01 -1.654774291864617441e-01 -1.968492433667169000e-02 -2.221041396832423021e-01 1.107085732686419188e-01 1.796812754043767280e-01 1.268031654081913373e-01 -1.383257179766524125e-02 2.696631707375481413e-01 1.933442225490646926e-01 1.363436006883297523e-03 1.142307213295511992e-01 1.193520551125341056e-01 2.387412511589731556e-02 2.590031629090357446e-01 8.023242069349704672e-03 -1.766021673840026673e-01 2.096663608513301968e-01 -1.547795339114186874e-01
1.109783188623358202e-01 1.097451995369280869e-01 1.961443593248782535e-01 -8.411769520402100075e-02 -1.007408821293708234e-01 -2.801527680033768022e-02 2.349088156218480938e-01 -1.894305782417944894e-01 -7.374265941170117522e-02 -9.109823960110659258e-02 2.657606512824573497e-01 5.796605011759494580e-02 4.749436429842560786e-02 5.203969027940030800e-02 7.786166796671102619e-02 -1.241240287001729725e-01 -1.392005511457294620e-01 2.967757558097976547e-02 2.956151369477535117e-03 -2.886784037415174309e-02 -1.196778024787281125e-01 9.979771680078668855e-04 1.383242681259409801e-01 -5.825404244141442478e-02 8.365094065851053085e-02
1.614286980139171823e-01 -1.871047924893570469e-01 7.181070529081688691e-02 -6.452547646944400972e-02 4.089645424533607659e-02 -1.635036553569511331e-01 7.204965481815328587e-02 -4.615875141310714358e-02 -2.403516830042100316e-01 1.297229385736652363e-01 -1.185330538886133905e-01 -1.336579783634056773e-01 1.894631736458041726e-01 -1.769599851165546689e-01 1.194950470069740533e-01 1.017415274347635845e-01 -8.545019356132084812e-03 -2.408313370474515422e-02 2.642880087968507707e-01 -1.668908726752943716e-01 2.529287622353162956e-01 -2.147711794072357239e-01 7.024314338606670038e-02 1.401301254518927675e-01 4.707357325698347320e-03
-1.052852370786098168e-01 -3.427941319925019437e-02 -1.079555622767998206e-02 1.281102362360649755e-02 -1.577725333090171378e-01 -5.917911819777978144e-02 2.047332485127577872e-01 -1.603924565029832827e-01 -7.163625878213784881e-02 1.786323910721015693e-02 -4.230025039489924976e-02 -4.429683447861251094e-02 8.339179281336212002e-02 -1.422325278285807015e-01 1.131757603370964066e-01 7.307790769452526813e-02 5.021890064740545945e-02 6.014438477406568867e-02 -1.502564711785287777e-01 -1.371907091778606647e-01 -8.225991936646719072e-02 1.084659074567694836e-01 3.144644823736755801e-02 -2.620616409043630135e-01 6.543229293210438280e-02
-9.139856120692919222e-03 -3.067214982264998557e-01 1.511198807886049711e-01 -4.686394836697675703e-02 -6.523962842355499059e-03 -7.516724584312020618e-02 -9.495839090311311223e-03 -6.694118582222047253e-02 8.950146673639268469e-02 1.607005784914293522e-01 5.024438514461779248e-02 -6.999713710151667101e-02 1.674567205004989234e-01 1.865134368137064402e-01 8.744560609292630071e-02 -1.350504700699016285e-02 4.244943906358513569e-02 -1.651734401286494291e-01 6.353415913246349481e-03 1.083587225376269753e-01 1.327869874332744393e-01 7.077784686640040124e-02 -6.354764513416313876e-02 -7.997542387711908951e-02 7.324238296814161850e-04
-7.095174908256300650e-02 2.971177138351644431e-01 -1.839038692836849134e-02 4.111601731258548303e-02 1.974033349729210352e-01 8.224793553198961327e-02 1.674879862853116130e-01 6.505704127561977301e-02 7.275968121985471049e-02 -2.478697575130518749e-01 1.447950586892998159e-01 6.909797681762917809e-02 3.341000921012649613e-03 1.264780147473514027e-01 -1.457800979106343986e-01 -1.574190197275496250e-01 7.977470829202615299e-02 -2.303515942216409831e-02 5.159761631474064220e-02 6.586252225424588103e-02 4.812980457023473962e-02 1.626814248612789837e-01 3.480971348788215042e-02 -6.191106886444842222e-02 -2.843891042906220856e-01
-5.860550657965809401e-02 -7.383079368759747074e-02 1.037425280736421068e-01 1.274982846289284544e-01 3.147100070379656861e-02 5.316512035093475669e-02 -1.397560999476204213e-01 -7.150562150310330045e-02 2.670947189090443902e-02 -1.551048978357808528e-01 1.473629465110116443e-01 1.030025899997848507e-02 4.861038658992122841e-02 -4.168644643040100156e-02 8.617600081116301436e-02 -7.933370953200707953e-02 -1.489961717121995599e-01 1.275700091177392748e-01 -2.001003700135993713e-01 1.801079280275216798e-01 9.948795842519592147e-03 -1.555873990248145822e-01 -8.188774073543281240e-02 -7.016591692663424855e-03 1.815009209569956594e-01
3.058765522686036908e-02 1.942617036583282886e-02 -8.553727032395102778e-03 2.552689498534862697e-02 -1.936863972988491292e-02 1.744114220842228058e-01 -5.561521142248359445e-02 8.994621818293174753e-02 3.355463004706871893e-02 2.302353766287389483e-02 5.891610362879757395e-02 7.081398849069998891e-02 1.416507672531587504e-03 -4.833869064051187631e-02 5.124722595758045285e-03 -2.636060593791337767e-02 -9.436538642233852081e-02 1.701784723766659180e-01 9.414508214848171797e-02 -2.304021010178349677e-02 2.778935079174386646e-01 -1.467180509492388985e-01 7.929833194901576843e-02 7.782132635805035122e-03 -1.449400395151634324e-01
1.427437520553247741e-01 -2.300971864925170987e-02 1.342957150161558366e-01 3.862752681298852603e-02 -3.186290837221169821e-04 3.330656547169830173e-01 2.715735760219311918e-03 -8.425890402065235041e-02 -1.834085958750563544e-02 -1.042898485752174059e-01 1.838374382741920776e-01 7.207704104452290761e-02 7.094285331115823823e-02 -5.889822899485919194e-02 -1.604755827393506418e-01 -1.395149146100353454e-01 5.533505034919268192e-03 6.758549668965459223e-02 -7.750600086041550818e-02 9.314082926129124695e-02 -9.576523132988062903e-02 -7.758998911322309566e-02 3.801652547676103583e-02 -4.109496197823609559e-02 -8.405306564476371436e-03
6.710838987265385636e-02 1.839501653449128471e-01 -3.176796734007936857e-02 7.691037915896713206e-02 -1.167661755880033958e-01 -1.746410843347172837e-01 9.075843557597537692e-02 7.895766096390770261e-02 -2.900515033710049026e-02 1.098739381678060789e-01 1.083608867957365218e-01 -1.246929509116901369e-01 -2.023314082512528422e-01 6.330083488798896041e-02 -1.306276460544097129e-01 -9.049944736046336424e-02 -1.914974476751002963e-01 1.322826675315781353e-01 -9.585530762077335010e-02 3.484974866441613306e-02 4.953420302058984814e-02 -9.953051128305617778e-02 1.273586633778038719e-02 1.577196757968035712e-01 3.383415447002315751e-02
7.829164298472853639e-03 -7.767585858377865082e-02 2.267863133401209000e-02 -1.641755841834760810e-01 1.966402349737763899e-01 -1.149596752331354943e-01 -1.213141119780257043e-01 1.877966797276547362e-01 -1.349233574087460030e-01 1.779619054972715331e-01 -7.969200000431177211e-02 2.919260638035562835e-02 -1.756091513405619864e-01 -1.785352435648735955e-02 1.056510279633579991e-01 -1.259813299627107752e-01 -9.876562370155700377e-02 2.071172740787452227e-01 1.535640203306550267e-01 1.036385069141696480e-01 -3.830834292855185563e-02 -1.888201153119595244e-01 1.390347870322661550e-01 1.973427416245480265e-02 -2.831005202959895328e-01
8.472461044658556595e-02 -3.804091035339538657e-02 -4.135879231118649163e-02 9.542418151343505517e-02 -1.252337183656056785e-01 -4.759765108106541083e-03 -2.467094229504680075e-02 -8.505740837053292480e-03 -1.463628562756652540e-01 -1.489009780118444037e-01 -3.135467800080292237e-03 9.069533901529579223e-02 2.519986004967150056e-03 -7.048740766361423493e-02 -9.937136579001072667e-02 2.026645314808640796e-02 7.319067212897130414e-02 -7.575143665249610414e-02 7.433625894762418973e-02 5.894639930095063596e-02 1.101707991313897739e-01 4.744208948740766957e-02 7.615071899409900889e-03 1.042407971097000507e-01 -4.445515992778764636e-02
-3.102412825454147621e-02 -7.716547921016721212e-02 7.550617999098610533e-02 -7.396349281798803021e-02 -4.867612345522705913e-02 -9.194411951899203461e-02 -1.097323779611165812e-01 -4.250563446765923820e-02 1.484371381685790081e-01 9.829052742059352088e-02 -7.212825717864387864e-02 -2.600213110012116191e-01 -1.804866966772886161e-01 7.378252393818314492e-02 6.668316929926139391e-02 4.220566312120158786e-02 -9.768467382475214122e-02 3.456986271545098299e-02 -4.229131230356208623e-03 1.544612592093318713e-02 2.236762725310226241e-01 -5.504268229094883697e-02 1.354731745189098335e-01 1.675721609132086454e-01 2.363684246982283854e-02
-1.708877309173628678e-02 8.140050509226307018e-02 -1.773814249370384566e-01 1.258300982187891548e-01 -1.241950337003353971e-01 -1.077447990063122411e-02 -5.567406310896342442e-02 1.256126530479815540e-01 1.014259161897302364e-01 1.388963670217528527e-02 -1.177753295752148599e-01 7.566137622372511723e-03 -2.067411242025024853e-01 -1.086570348513214018e-01 -7.976314085538098453e-02 -2.869831786454755257e-02 -1.322828773923223900e-01 -4.811494744025455322e-02 4.490970665354402508e-02 -3.284833733066341160e-02 1.238135414979608384e-01 -7.843120060177395658e-02 1.660630391602643113e-02 8.468971954005154179e-02 7.093942042651682489e-02
1.647694399174624569e-01 5.551662138718554268e-02 7.907275146352311934e-02 -1.630437303068238974e-01 1.739252183633000215e-01 -1.396069414065175540e-01 1.112227559863773613e-01 1.551341890860784278e-01 4.752930687313779157e-02 1.235700311772017917e-01 1.926990712540377002e-02 1.110101418770202131e-01 2.233410996301294360e-01 2.355826703905960010e-02 8.912302614973759141e-02 1.947578026903308279e-01 1.460512196290348896e-01 1.317968703373586896e-02 -9.525849911451689245e-02 -8.658626046346058758e-02 -1.732452015637838405e-01 1.427933235532251877e-01 -1.187590662840327937e-01 -3.360841023106948128e-02 1.012613251113144291e-01
2.079715753293034097e-01 3.958445404672290141e-03 -1.210050439546487416e-01 6.980706919399565225e-02 5.758228741185098670e-02 -1.582342789886266310e-01 -6.956714706668093440e-02 7.780001960347428247e-02 3.037888534079298819e-01 1.520754360570742390e-02 7.215920769265096735e-02 -1.736129496138283379e-02 1.574030958452175277e-01 -7.171039894652753155e-02 -3.784822495810982734e-02 -1.099652730099414180e-02 -4.657168827739946448e-02 -9.573271176062506105e-02 -1.368061818145791531e-01 2.888700531506892960e-02 -8.849609677828465526e-02 -9.048366946753847156e-04 -9.435621369827670857e-02 4.316778272417211293e-02 1.003399501095479651e-01
3.067620516033680786e-02 1.776650945417219407e-01 -6.911996782140215900e-02 8.340886662029875498e-02 -1.700466660528112406e-01 4.320025009590892917e-02 5.299508559863933682e-02 -5.306979703474769966e-02 -2.933330175133048168e-01 -1.358450716788297818e-01 -8.688664375291559050e-02 1.500780697467021529e-01 1.933326474119505811e-01 8.100813558851696627e-02 -5.622049233199623297e-03 -8.501071273272668705e-02 -8.894622584193342951e-02 1.165904969192156637e-01 -1.149569911505682329e-01 -7.277546996105419691e-03 1.161351535005072516e-01 1.411726572511530775e-01 -1.025381590213405442e-01 -1.032219821974565688e-01 1.648448521913452314e-02
-1.688005666566754978e-02 2.555161894437165543e-02 1.642472381961637973e-01 -1.068200341602099507e-01 2.319735958247002017e-01 3.796190919241905493e-02 1.321911302447800196e-01 -1.317092928862585166e-01 1.876358564996721823e-02 1.781160441319053905e-02 -2.835318192597764339e-02 6.040894518100504984e-03 1.199515046145349303e-02 -2.190808499756051117e-02 -9.980070392226082776e-02 8.571651019754041034e-02 2.540507114496797988e-02 4.633479703581059456e-02 8.811646250808925773e-02 -3.060333875513398041e-04 9.001842072342315648e-02 -1.369671602932830690e-01 -1.928368524521274219e-01 -8.471233572398538525e-02 -9.356333054659651816e-02
2.174325108667446715e-01 -1.734192436562907724e-02 -3.411581246870788037e-02 4.893051555396851597e-03 1.135940818287029530e-01 1.243520744016480689e-01 -1.351731022303761520e-01 6.557717560655526579e-02 -5.439221278378742960e-03 1.031611778857013523e-01 -4.297790876500662272e-02 -2.942253408645332385e-02 5.342251608837534325e-03 -2.764826622075084936e-02 9.290448594888492395e-02 -1.539117844594074802e-01 6.465619353514746870e-02 9.696500827435175496e-02 -2.530373625680564474e-03 1.680228435731019321e-01 3.541288129459017886e-02 -1.417419600992362583e-01 5.298945356069045820e-02 1.151525575592584894e-01 8.097720888564205466e-02
3.063627210384754079e-02 -1.787276892266165818e-01 1.916767816644761313e-01 -3.382690790130425673e-02 -1.843343422304085863e-02 7.385412987263800799e-02 -2.723351742911823579e-04 -1.138728738352334235e-01 4.927630446131347347e-02 -1.765261723013948070e-01 1.365420164817308657e-01 7.769892837368221061e-02 4.711717709364192375e-02 1.549849501120971751e-01 4.602307315269386044e-03 3.987770405175269928e-02 2.152772623993869094e-01 -4.727209892675626052e-02 1.885337971688208769e-01 -1.600474779310608886e-01 -8.401290011957260329e-02 -3.476552651880894518e-02 -1.291254221025796567e-01 1.092674557303317667e-01 -4.045730059381728860e-02
1.830373809618889014e-01 1.555354811675822499e-02 2.043377351450065271e-02 6.786867295381741882e-02 1.128869333620056009e-01 9.200252160909493104e-02 -3.586203105886000275e-02 9.884346711535184349e-02 4.903025871937069513e-02 8.481691653204835590e-02 6.048577537553265215e-02 1.493105612764605017e-01 1.384787408077693856e-02 -6.511271168200821746e-02 -1.268985568125744756e-01 3.672008194840864492e-02 -6.330798995841323273e-02 3.064232153168697237e-01 5.156630963908582360e-02 -1.125244279479643839e-01 2.266443620395681285e-02 -1.784645621476834976e-01 2.154265146219668525e-01 6.191445106551722588e-02 5.338323282375642687e-02
1.166049480497111795e-01 -4.289156772453663752e-02 -1.470117638824858519e-01 -2.120315778274742269e-01 2.439873098303146082e-01 -9.564125448118912564e-04 -1.247277856845744326e-01 -3.462974396310516956e-02 -2.954343362291276046e-02 1.450071520289707983e-01 -3.496008006348335501e-02 5.638708878007695630e-02 2.436769326442745076e-01 5.777270904594651590e-02 -1.048161538361805367e-02 1.339215713928588458e-01 4.011427828907595389e-02 3.146765284783159533e-02 3.071297853979166811e-02 -4.147706414962649274e-02 2.219426106060913007e-01 2.886149608283066284e-02 -4.971989972203583880e-02 -2.134593552424319043e-02 -5.691255666173728606e-02
1.200572983909569125e-01 -1.228563604844961771e-01 -9.645468359595654739e-02 6.973455942372419614e-02 -1.533254194650417457e-01 -9.262298516170541784e-02 1.448223805368574479e-01 6.088764854358359735e-02 3.614300083211612752e-02 -1.922794249937139488e-01 -2.666416072445844665e-01 -5.706235760579812105e-02 -3.221784750431655464e-02 -1.210987698379731997e-01 7.793549424784093627e-02 -1.713100010299181131e-01 5.205149488497140542e-02 5.605556517510674325e-02 1.915847337056937605e-01 2.513809758906820901e-01 -3.967736283867870362e-02 -1.835684371987592600e-01 1.721394869309130493e-01 3.633074816930896567e-02 -4.863101993965072284e-02
-2.537022847291116046e-01 -1.983554465883721196e-01 -1.417703184581268865e-02 5.391476581591194556e-03 7.403558071554562636e-02 -7.581732247742310749e-02 -2.337181693868868870e-01 2.653790144177361476e-01 -1.161195324332372769e-01 1.194365680242437666e-01 -3.944432281803117446e-02 1.177594809192520908e-01 2.137772714087910267e-02 1.495247780649112956e-01 4.544369444731392697e-03 -4.086997633790403171e-04 4.264074340228524163e-02 1.040745354646882143e-01 9.654070545056740726e-02 1.776045145559720928e-01 -5.392437738382509921e-02 1.107388753440679413e-01 1.108575556742751912e-02 -4.764701018169022889e-02 -8.398265459993730850e-03
-3.325551090838073098e-01 1.902097819549425639e-01 6.108596990925172637e-03 -1.048438649223892329e-02 -4.895697863286200407e-02 2.491795632399175509e-02 -2.482601893708920038e-01 1.310929901920205969e-02 -2.096589323712572395e-01 -4.309947524092225951e-02 1.060478563121616813e-01 6.324069189818075365e-02 -7.891385630179222066e-02 -3.400038162079171977e-02 2.074272060746369314e-02 8.514208533885378460e-02 -1.619126726933004246e-01 -1.932520983768450662e-01 1.119712696760939361e-02 -8.586892770976231604e-02 4.906790496073422207e-03 5.754964943848171061e-02 6.427180414286903787e-02 3.355437790821317462e-02 -4.809923693359723085e-02
-5.031113871501227686e-02 2.548935871824246219e-02 -1.660491872597809060e-01 -2.045578888023864006e-01 -7.938225983290769783e-02 8.341441330619540906e-02 -1.007396057099831793e-01 3.554126510254313615e-02 -1.091917959543184102e-01 -3.209720037318684882e-02 -6.383819873978212323e-02 -7.547783992552899168e-02 2.115336911661712047e-02 -2.096913175370300197e-01 7.124587781790781005e-02 1.050046164837321605e-01 8.566606464159082224e-02 9.600957056679666757e-02 1.226803434099460743e-01 -1.330407953181887704e-01 3.888971410402503742e-02 1.169456388887609539e-03 6.185082904784498792e-02 -1.326703389314580137e-02 -8.345135465540715058e-02
-1.442605462985986076e-01 2.259903306802441281e-01 -2.108528322197606927e-02 9.236857735173506501e-03 8.042980240398837910e-03 1.673624477489277784e-01 -2.401128370326554018e-01 1.348741189712084343e-01 1.317987721385028010e-01 3.478486295255637031e-03 5.674061032048637737e-02 -1.195628573630256875e-01 -1.851942654415594455e-02 1.557740367064814908e-03 2.551143679005786202e-01 5.867637618217805967e-02 6.147657901159420818e-02 1.726936875545710334e-02 1.043997390253664365e-01 -7.075671445475165827e-03 1.240297438102641037e-01 1.346237511306631052e-01 4.701645676465130395e-03 4.714729229310235525e-02 2.166085707364669155e-01
5.019896536746577820e-02 -8.766873828523316647e-02 1.738986881387028782e-01 4.051564789979923698e-02 -1.641533195469547513e-01 6.818605513861696402e-03 1.410514520578353970e-01 -1.675903405003826840e-01 2.920185342825516728e-02 1.150576856687752503e-01 -1.840803877149933820e-02 7.048264161866769906e-02 -2.171429242178626179e-02 -9.119818977230870205e-02 -1.229676352296324993e-01 3.921929749281393568e-02 -9.265475791846776443e-02 -8.287409162139007524e-02 -8.080636793000252338e-02 -1.527219592805226928e-02 6.136866342823837916e-02 1.866735825210711491e-02 -1.074913338197869550e-01 4.923750465678024268e-02 1.949696646472852124e-01
-9.873122552347937675e-02 -1.223829397162325278e-01 1.500939007173282269e-01 -1.360782782243122324e-01 -5.245742875849351665e-03 -1.093067938274705220e-01 -1.746966346930836911e-01 5.998982210278886590e-02 -1.480543902839386861e-01 -1.410906586739508750e-01 2.256575539425631147e-02 1.641744604864650570e-01 3.732250484866218160e-02 -1.677086423820714489e-02 5.821332524224430427e-02 -6.678586881024545230e-02 1.110007134712129306e-01 1.309648417784182728e-01 7.981988527425701307e-02 -6.720164996104026345e-02 -8.368720523399195144e-02 -2.377171482760655555e-02 1.155679495060782935e-01 2.762586137678505957e-02 1.681512011743294469e-02
-2.311030007519532595e-02 2.882788931031399215e-01 5.769015100335805196e-02 2.690724990920375509e-03 6.383925595610329129e-02 1.837980680290718927e-01 4.492753028785051450e-02 -3.632280687701910926e-02 -8.837053423876715941e-02 1.115522121676741502e-01 -1.596260802944652613e-01 2.006575118135473217e-03 -1.073400727159673357e-01 8.985091352621489558e-02 -1.200818784299971381e-01 -4.066289203066930646e-02 -2.144296069909543134e-02 -4.743121220781445525e-03 -7.845235388896356840e-03 3.690155913765138379e-02 2.241782627631561109e-01 7.573292868284041413e-02 -1.609561996583988228e-02 2.050925703995182259e-01 8.424472422759192447e-02
1.388617112921689267e-01 -1.276192924407308360e-01 -1.199752543827737050e-01 -1.059343904670287106e-01 1.091753867605920469e-01 3.633355411678791669e-02 -8.927852548126267995e-02 -9.560288734818869760e-02 3.947239681620496460e-02 2.820604304012054586e-02 -3.672457526927933036e-02 -1.426158391852912488e-01 -2.318520168722465191e-01 -1.278413365514433249e-02 -4.128029292751367318e-02 -3.996482303077254078e-02 2.117231180906177512e-02 4.387703645128651631e-02 1.490837870640589202e-02 -3.812186701229621638e-02 2.638842558857771789e-02 7.653142546041571959e-02 8.078605157542233239e-02 -1.424418742451719622e-01 -3.412019417087557710e-02
3.281919428868959598e-01 -1.229999157538884669e-01 1.212544371559829970e-01 -2.686650952953968385e-01 -1.733881618125911878e-02 8.310310797198368349e-02 2.000675089942634266e-01 1.308813570026459427e-01 5.043814856112117245e-02 -1.428894032857292162e-01 -1.834632716973227662e-01 -6.511719292041598384e-03 -1.536969468153615292e-01 1.548714148589490081e-01 2.009092901139216680e-01 6.963154731982866552e-02 -8.266813566975113325e-02 -2.435817382696331135e-01 -2.450667777961529070e-01 -1.942242215486711665e-01 -4.601704613874822020e-02 -3.758367283967731926e-02 3.602063612069051485e-02 -8.378057214280688891e-02 1.146123218954021306e-01
2.326637617844627692e-01 8.506044536692007607e-03 -3.866579021295483976e-02 6.856329019563946192e-02 -1.999383679029891336e-01 -5.852364112193517848e-02 -8.567925105799567564e-02 5.762094040806917117e-02 -4.206111847088141176e-02 -1.031094866599105708e-01 -3.968872014240220486e-02 1.064148554357052107e-01 -1.388645120174824277e-01 -2.526850061267692238e-02 3.458665592405309359e-03 -4.268433588523579819e-02 1.802897201394582649e-01 -1.751698483900131220e-01 5.391690225134749583e-03 1.451322036923426706e-01 2.253547486495494356e-01 7.284987115750103659e-02 -3.769808840583768056e-02 -4.215062246342057839e-02 3.328135320791152096e-02
1.183596065422339721e-01 -3.488392299725905088e-02 -9.612507980768308924e-02 4.840269155543518165e-02 2.005738306133677054e-02 9.730527031259536552e-02 4.818146222629201419e-02 -3.651931285124971477e-02 -8.942596421499043879e-02 -1.314583088854388154e-02 -1.020931098425045813e-01 -1.473456948512562037e-01 -1.350625889652154188e-01 2.226169811373516355e-02 1.432119114820777292e-02 5.819289044702198599e-02 -1.042522293211070317e-01 1.712827859910456274e-01 6.436476748625503605e-03 -1.390823645578330992e-01 1.358058280694939002e-01 1.786857073521813388e-01 1.610782084362741839e-01 -2.688367084443583077e-01 -6.245305854746243876e-03
1.376608030419894657e-01 2.139522658683256501e-02 -2.286992938239093831e-01 7.509345678679839320e-02 -2.522742884822326559e-02 2.030508152801575525e-02 1.672153672107321576e-01 3.397287318019928670e-02 2.788041004034073553e-02 1.135336271122604559e-02 5.847042450620211496e-02 -2.773860460852075605e-01 1.568552226143039852e-01 -6.990926180738119000e-02 1.556854036524529250e-01 -2.292459696441689898e-02 -4.013258191606939446e-02 4.696313109152014387e-02 1.013897904592602067e-01 1.250200255902170210e-01 6.444189605875262628e-02 7.468159403793402096e-02 3.807556058635713087e-02 9.621020812684373535e-02 -9.164693494700575094e-02
1.848171332757352348e-01 -2.241422085825611667e-03 -3.736686914412979538e-02 -1.446653096783698939e-02 -2.922410007807443779e-03 -4.912197551112917199e-02 9.108729099868255463e-02 -1.236838793182242630e-01 3.052765283329811341e-02 -2.095320462308396248e-01 -9.598979912644721446e-02 -3.711771318386354167e-03 1.545053965637586957e-02 9.042510511568303821e-02 -9.744632777699527293e-02 1.471834010375971946e-01 -6.029209616116780468e-02 2.529232996526919325e-02 1.419329350235870035e-01 -1.734698212456362368e-02 1.053090327529288134e-01 -1.847871578326153869e-02 5.306447248374109721e-02 -1.855922831939831041e-02 2.901331079869619214e-03
-1.212076697931199348e-01 -1.081208456396239304e-01 -5.332635106677732079e-02 -1.266687213604080209e-01 1.199759706461327874e-01 -1.474079057632103184e-03 -3.411712874638690024e-02 3.954220710944419265e-03 -1.061379535187576828e-01 8.180291190162132520e-02 1.301745212108663396e-01 8.937305922270161185e-02 -7.969678868019637596e-02 1.091896195220564275e-01 -6.793871043695598466e-02 5.171161279383287845e-02 1.926109974232435573e-01 -1.465601100973085991e-01 -9.694664923769866216e-02 -2.225511996016515254e-02 -1.363714501423111680e-01 -1.501079178668662459e-02 5.843524414877840356e-02 7.056496608994325404e-02 -1.030138537100227236e-01
3.367890037539096604e-02 -8.716317341446291889e-02 -9.265720077026765034e-02 -5.828269371109067593e-03 -1.297106817434398318e-01 1.152453453769490370e-02 -5.198767077674739528e-02 -3.684248221669417234e-02 1.988231745243986270e-01 -1.279492678946349271e-01 5.591856841380333371e-02 3.861552619073155973e-02 -4.707086938101953666e-02 1.616224664323562821e-01 -2.728014504583957736e-02 -1.283930104770235892e-01 1.593901725220361054e-01 -1.938126617691702525e-01 -7.873642396518487629e-02 4.761486315722002205e-02 8.136628926176220702e-03 3.022866076534598545e-02 -1.093518833468513501e-01 -1.513287463447022807e-01 7.113056689825417167e-02
1.665053772801192433e-01 7.705756109282561536e-03 -1.008781507471389338e-01 2.081598020576377536e-02 -1.061968775999888419e-03 5.039679402214275461e-02 7.142022788448339210e-02 -6.611149072836916161e-04 -1.131629310032183922e-01 -2.841541417991610627e-02 8.235235735670655421e-02 9.345519945531073625e-02 -1.457831154514447336e-01 5.519088398830322706e-02 4.719175686479602262e-03 8.913997309977383932e-03 3.120922668086782426e-01 -3.103957199845365222e-01 -1.777528992318218037e-01 -3.825668090583619202e-02 1.882892132312127820e-01 -1.335177399717567825e-01 -1.096819865789426668e-01 1.159158211323270127e-01 -3.938094560115393966e-02
-2.088693320224012939e-01 5.521398870088315564e-02 -6.966971440943413307e-02 -7.349897138326040580e-02 3.474872369787582183e-02 -3.245766229951170274e-03 -7.831318437631930307e-02 3.300135539591114719e-02 8.450351230531946700e-02 -7.866056468297595583e-02 -1.926190913806220730e-03 -1.655255772857921678e-02 1.320189206405359972e-01 6.368403872154110128e-03 9.982332218510303612e-02 2.099721192552627194e-02 1.743624562577626158e-01 1.204842660374121771e-01 1.811261068553480236e-01 -1.693070907842070261e-01 1.468098643193873065e-01 -9.730355015665303683e-03 -2.355813534671967469e-01 5.615287634372583686e-02 1.123975329026812298e-01
-9.176854960790488749e-03 4.571527131361288049e-02 1.291142775446978419e-01 4.372967612462829758e-03 2.033243936282371628e-02 -1.179126383031126740e-01 1.529421494961381682e-02 -8.993342676447026521e-03 1.539463771313447776e-02 -1.283964028968763438e-01 -6.675811245965722340e-02 -7.930282532407206819e-02 4.477579839388919070e-02 -6.863340472651628665e-02 7.685564267833179530e-02 6.171885261856795146e-02 5.605896211018996517e-02 1.026125012161735739e-01 9.382362038166209769e-03 -1.648857756687678935e-02 7.839512022246754655e-03 2.367891354596409967e-02 -6.355778741210380001e-02 1.355516509981115614e-01 -4.923583169397430237e-02
-5.595829249693514210e-03 -1.397926372898047713e-02 -3.209375278181824526e-02 -1.510921476240512009e-03 1.282876227665093183e-01 1.514605281360503208e-01 -1.113737908996602910e-01 -6.327581154183607726e-02 -7.604955314515747522e-02 1.325478957720360729e-01 -1.800421796482485903e-01 1.885894887947556567e-02 -1.313943726921505684e-01 8.417725303188546004e-02 1.538268071223846123e-01 -9.153810273404530684e-02 1.273574152342593808e-02 7.136625877851895949e-02 1.832121220065863199e-01 -1.057983263155348463e-01 7.208220690421614230e-02 -2.936350517706508637e-02 -3.588070704809340206e-01 -6.090158788986816535e-02 -5.009602377800153467e-02
2.186211195887508008e-01 8.121789117181048637e-03 -3.569015117844696189e-02 4.948040554046488626e-02 -1.088725171883962450e-01 7.943191994612572304e-02 -1.274824948971917246e-03 -1.149188056955327969e-01 -1.510241951500888302e-01 -3.470071384127963732e-02 8.960631811277057490e-02 1.750964012792965152e-01 1.459091212530617410e-01 -2.403490995926088614e-01 -1.011444314253356763e-01 -1.004372779465249541e-02 2.844379198219980712e-02 -4.715737510912678537e-02 -4.633374852773215757e-02 2.050764488790315573e-02 4.937884140793034893e-02 1.748423559123478757e-02 7.682779479546431034e-02 -2.338238443254606752e-02 -2.966679183211683168e-02
-9.074154117494566407e-02 -2.588276606544951536e-02 2.224872773093470590e-01 7.722946162492383415e-02 -3.324129523637179423e-02 5.086906249477288200e-02 -1.589551333964386581e-01 7.871669373170533945e-02 9.013656076085764524e-02 -6.998240160437312063e-02 3.781759596204277429e-02 4.569851742900488817e-02 -1.464725015687196388e-02 1.165369173346231524e-01 9.115799242605068797e-02 1.738308962166110472e-01 5.386418937196442436e-02 4.828333424562638448e-02 6.862824238838687030e-02 -1.209003207891342080e-01 7.250716010018801172e-02 -6.261795956410243225e-02 1.686856338246626452e-01 -3.606952210766501410e-01 -5.066084816674353009e-02
1.114167006605514681e-01 -5.767438685300538270e-02 -4.112430327709989952e-02 1.226116678928245857e-01 -1.308122901120533921e-01 4.178454685438855870e-02 2.428307145789038446e-01 -8.727402741730957980e-02 1.379295866806619641e-01 -4.133177132195868519e-02 -2.739623085900237936e-03 -6.406345565598001168e-02 -3.228250130893745712e-02 6.625117212616159212e-02 2.450209464083457356e-01 2.968290600400070450e-02 2.639493872817032932e-02 -1.617685654639649528e-01 -1.062143892273582774e-01 1.172029776842480053e-01 1.619469161082308373e-01 -1.177180809554406564e-02 9.955333090837245602e-02 -2.495385615679103219e-01 9.792289828399627569e-03
4.586884371609738914e-02 -6.032529479458283161e-02 1.549826502110812076e-01 -1.726195136042531220e-01 1.078981281343551618e-01 -5.480199317158752220e-02 9.188718796134583144e-02 -1.983193875212141688e-01 3.324713481526953701e-02 -2.503021638200679175e-02 -8.044203465406199460e-02 1.434189785235328619e-02 3.173049558450487528e-01 4.791721500395317024e-02 5.024540269763015654e-02 -5.885752160851517867e-02 3.559259600017151276e-02 -1.674070798372358226e-01 -5.822935599508516358e-02 -1.355483538923030196e-02 -1.703141881518789869e-01 2.697882674671860936e-01 -1.178678174294804232e-01 -8.598808447726043191e-02 -1.166160054616091901e-01
-4.738645733389809656e-02 -6.586205536241261649e-02 -1.307005928157156660e-02 -1.344678587826882328e-02 2.183876154957420934e-01 -1.077523466415380021e-01 -1.333079266404212926e-01 -2.309166741897490382e-01 -9.145413535738640409e-02 -4.919697935084223379e-03 7.229543002219870895e-02 -1.119755731882010608e-02 -7.618192655161054594e-02 -1.930383077982591455e-01 4.388802590920235641e-02 -1.132171747198242040e-01 4.626591033046971446e-02 1.272795744034032339e-01 3.849215009992876246e-02 -4.702887432387797828e-02 -6.647086213048693237e-03 6.437651325986011586e-02 6.121984051529249377e-02 -8.214492441623759411e-02 -1.482246056478467022e-01
1.058816979566438721e-01 4.984993563588563902e-03 -1.167888161879395287e-01 -1.080728891368023803e-01 8.776298889678149640e-02 3.592981125252908692e-02 2.816318821826386265e-01 1.002749515060825242e-01 -1.453668230445762377e-01 -6.469790734870131677e-02 1.731397431734719647e-02 -2.020493599794758732e-01 -1.414530004760217174e-01 -2.306364551790202333e-01 -6.824743211691637612e-02 -6.076541939194401304e-02 -4.114223957055408720e-02 -2.442792666487936526e-01 -1.495950789271642822e-01 -4.543940769359431503e-02 -1.587438128009674709e-01 6.002198576355007031e-02 5.131123000921419125e-02 1.018243491489123111e-02 -9.430672589151217755e-02
8.454211226807557822e-02 -4.729520491579052022e-02 -6.942792705249616232e-03 7.527147558195078358e-02 -1.944781603964851335e-01 -9.111767360569175689e-02 -3.146797656153565298e-02 -2.016374302157687426e-01 -2.731226198844458747e-02 -1.645630714855396137e-01 -1.307660383725481601e-01 3.580117272013252222e-02 -1.630284784017669852e-01 6.497175072367515625e-02 -1.100565383436784700e-01 -3.985338527399182040e-02 7.371230330756753379e-02 1.500347257500119214e-01 1.204876968224619788e-01 1.794081986808639395e-01 1.287782969364506813e-01 -5.696768933061661239e-02 9.673324327610767492e-02 -6.656789653324778067e-02 8.784839789159797074e-02
-1.348107222517648252e-01 -1.613865443977590686e-01 -1.101163751620319875e-01 -1.993664655717630185e-01 4.102498435604377824e-02 -7.978246507026262591e-02 -1.308752332796461193e-01 -2.535988762215111159e-01 2.703086583715775398e-02 -6.342091881513883811e-02 1.395959045381431896e-01 -2.159598184032644197e-01 -3.783519811442765529e-02 4.668604634449330382e-02 -3.392862513570691491e-02 -1.402447381353228969e-03 -8.565588461840023538e-02 2.227823334368395636e-01 -3.762044997247390721e-02 2.348234753936917218e-01 5.074681086226096732e-02 8.235298827784011400e-02 8.108517636494268210e-02 2.287605995116556712e-02 -1.225208372364224862e-01
-9.186910832191531873e-02 1.826148369204665667e-01 1.134611942727452132e-02 1.763919954871053797e-01 7.249555791182142606e-02 -1.246220307949398066e-02 8.555920802828066718e-02 -1.180365934080126328e-02 2.455478340518310945e-02 3.486532193189212109e-03 8.777304982972126968e-02 9.439834252785851698e-02 2.164947672252982500e-02 -1.124290997110002355e-01 -7.879495581215356648e-02 7.717252314159568638e-02 -8.201810875069086293e-02 -7.517139417518596545e-02 -1.307847058599271965e-02 6.099719356187853492e-02 -1.936367537848548981e-02 -1.199457775800840953e-01 1.331216769551802487e-02 9.398841479602901283e-02 3.159484822716202013e-02
-1.321388754357920997e-02 -1.386387758531219261e-01 9.114780290988168387e-02 -3.980050954870321955e-02 1.077204842613004449e-01 6.376389931804296585e-02 3.356812711283430842e-03 -1.495779393130896584e-01 1.053384583776363972e-02 4.228666197259147580e-02 1.287542268696579839e-01 -1.183195070262497844e-01 -9.775755623685263712e-03 -5.402844087310623711e-02 -6.197292123100164862e-02 4.831333653345290524e-02 -8.376851711419509849e-02 -3.217257799733912182e-02 1.053767928955831462e-01 1.646986568661335526e-01 1.350192244936589403e-01 -1.168024053338463791e-01 -9.233019861281804852e-02 -1.436927931792724433e-01 9.389304544845163136e-03
1.502842353673243536e-01 7.731630253964830168e-02 1.947427044195258472e-01 1.457256194768344337e-01 1.462210493263583766e-01 4.139072345445528323e-02 1.240812659838880089e-01 -9.342031289096375257e-02 2.374335409594879043e-01 -4.048850382474391413e-02 1.434500212698716914e-01 -7.769017829002125564e-02 3.349886363322226307e-02 -6.372399646743696910e-02 -3.230429400096350434e-02 -2.608348899561103162e-01 -1.170842769548446072e-01 -1.939042193350572901e-02 1.431402934550984052e-01 -6.858468771034383071e-02 -1.730825831090287634e-02 -6.672829552902985462e-02 6.633246095286851954e-03 -1.465597430010255886e-01 1.396818620412693390e-01
8.079959364358586804e-02 -1.467145058881046127e-01 2.007605085707655501e-01 1.689480186114488136e-01 3.176557430451627025e-03 -1.212107740842089804e-01 -1.801267607016281413e-01 6.950526346904965791e-02 1.383030206198029854e-01 -7.636378879014768528e-02 -6.567662855562117485e-02 -1.911737816614828694e-02 1.208628411553921700e-01 4.748462663141576889e-02 -1.329489868969362387e-01 -5.279575344749759536e-02 -4.715063782531718484e-03 -1.583160090888185989e-01 -5.646382886549444757e-02 -6.885157588506071735e-02 -3.312957327279480307e-02 -2.846482010379659464e-02 4.440124380478126243e-02 -1.110142239732458680e-01 4.218001201216453611e-02
2.374353125458012262e-02 9.219254925371253573e-02 -2.499334659904736688e-01 4.110448531163510971e-02 6.160989090223711190e-02 3.921581211954053986e-02 7.345034014938611744e-02 -1.044451023642127725e-02 5.459071842493467414e-02 -8.534011507372256389e-02 4.251319005655055522e-02 1.773767131240555905e-01 5.450873061376944502e-03 3.951034554391736806e-04 -1.102267696590105150e-01 -7.004086480864095583e-03 4.988342007608735466e-03 9.903637562733902389e-02 -2.133297904755216690e-01 1.738884191923013075e-03 -1.287749914414308416e-01 5.653282887507638660e-02 5.776947979156940582e-02 6.588825498196389241e-02 1.471090219023373225e-01
4.764703911005894327e-02 6.941139128594811525e-02 8.083237518505749508e-02 6.884864865659975908e-02 1.108630155288864855e-01 3.073913508104225006e-02 3.902707486755316313e-02 -2.454490988986025579e-01 2.616432911158583438e-02 8.176946295940784593e-02 2.429985317413743337e-02 -9.317035982899213309e-02 1.086365632821294780e-01 5.143544408121216577e-02 -2.330385393926117932e-01 -4.975696657644245596e-02 -1.149856966861743102e-01 -1.199472263334825928e-01 6.388932287178228364e-02 1.333819663679315093e-01 -7.179699892859808114e-03 -1.186046366191052109e-01 -5.919423585434746560e-02 -2.115642999752320036e-02 8.029297442751835712e-02
-4.212340325798922744e-03 -2.213066703093171175e-02 -3.961013722014505856e-02 -5.430056871764787213e-02 6.376304872456051154e-02 -1.855007427514539509e-01 3.755803709081292907e-02 5.389852367691717883e-02 1.288296553969312530e-01 -6.444538813164793489e-02 -2.088525188819044809e-01 -1.393002330616315565e-01 1.952229584095839868e-02 3.355112423242109787e-02 9.494965171590254160e-02 -2.901119477268385149e-02 -1.578896187242174176e-01 7.921598341590771475e-02 -3.817014522426936951e-02 1.834245342311276172e-01 -1.440899403221636288e-01 -1.120277603087170559e-01 -1.277158012895063255e-01 -1.742805454583878644e-01 2.599688412311646490e-01
-2.246495714736755356e-01 2.274971201486113148e-02 -6.784555634879321784e-02 2.019680077917596073e-02 6.654730283507516442e-02 -2.586504929667905045e-02 -6.026301163819281631e-02 -3.086174885594701253e-02 8.265108611996781207e-02 -2.148234376569465448e-02 1.231095575251752311e-01 -2.352343866836787215e-02 -1.475652939140749687e-01 3.516097617679461718e-02 1.635004062215405785e-01 -1.822265806123154197e-01 -1.050617284881167207e-01 5.294439813593459360e-02 -2.422103448281119967e-02 4.507143982260287951e-02 1.364044178577357436e-01 9.504877295185546263e-03 -1.661805829691663169e-02 5.715931381675633423e-03 -5.320278659608213001e-04
7.840596806651098372e-02 1.206192911986643003e-02 -1.584219754078517450e-01 -1.632109389263513427e-02 -1.697065798544619003e-02 3.493718235155438782e-03 2.585504574700272715e-02 -1.868134964939971998e-01 -6.229456466867525771e-02 -5.742149240764299334e-02 5.646792968380079381e-02 2.003288289867742045e-01 -5.153018488628120092e-02 1.348372262029348158e-02 -8.273984935961102571e-02 -4.233951900552999914e-02 2.622997557173642035e-03 1.141019111042280015e-01 -1.151437391309508562e-01 -6.065201777144235001e-02 7.648785754432374517e-02 6.035254386180333164e-02 1.627108265557034306e-01 -2.637610366516608164e-03 -7.518608132310601599e-02
5.381688083848471665e-02 2.066781282249709889e-02 -1.730957178408401922e-02 -7.292026918093857946e-02 -1.774350039377817906e-02 5.847888102741033434e-02 2.208616798469867359e-01 -1.314196206499369524e-01 -7.466127794204314994e-02 4.128571764620998785e-02 6.988571600257724448e-03 -8.455431251912064183e-02 1.272416380958697191e-01 1.124070725785744906e-01 -1.070910837768158097e-01 6.280824104863513835e-02 1.839615957620893416e-01 2.601480339957545386e-03 -5.017765788859800125e-02 4.093460190474042942e-02 -4.432474416033773019e-03 -3.636504551644714200e-01 -1.920231552400833430e-01 -2.066352408371161242e-01 8.503195087400312879e-02
-2.278050630913962954e-02 2.048605313924857854e-02 3.865946388509587661e-02 5.127152504757228474e-02 -3.977996925166735198e-02 1.197012467436742444e-01 1.872650047074819052e-02 3.487075606738013894e-02 1.353745979646952813e-01 -1.048488231545703919e-01 1.630780767198751757e-01 1.987555112511441013e-01 -2.151377686977721734e-02 -3.514843731235695046e-02 -1.322085423591832717e-02 -7.240258641205150891e-02 1.193464648021578534e-01 -4.080970984819964897e-02 7.029138576331957211e-02 -7.194523376913672386e-02 -1.005964407431387264e-01 4.173363665767487046e-02 -4.974341374464144594e-02 7.413903671886780400e-02 1.170492875230157853e-01
-9.627438511794073062e-02 2.979560573270924329e-02 -1.676394577550607556e-01 -1.788697105469878867e-02 -1.254787792892637643e-01 7.845648421303569320e-02 -7.729425445852918658e-03 3.855773415113390029e-02 -7.746075627125416363e-02 -1.232615094724616445e-02 7.760128376960347130e-02 1.381810928849553366e-01 -1.010148125728120572e-01 -7.251694931052996007e-02 -2.056894712156780852e-02 5.223499639888722242e-03 1.851611780347569083e-02 -5.892393253063797631e-02 -1.881441449623843243e-01 -8.631427932608259912e-02 -6.360702376401602964e-02 -1.172993697115965600e-01 -9.179949526525542358e-02 9.177012468025867731e-02 7.739009927968559799e-02
1.983348293352853176e-01 7.209481483589888842e-03 1.160837223249617106e-01 -1.024534406451785562e-01 1.363241868720257901e-03 -1.382827059983847140e-01 -8.496588916867198193e-02 -1.961174388912944322e-01 -1.190548508786684057e-01 -2.504623316133311461e-02 4.020856257843526821e-02 -1.827235424919579354e-01 6.385224592809228550e-02 1.544592683928036961e-02 4.039912196561139951e-02 1.220206930949132573e-01 6.129677426533581414e-02 1.436808239193671788e-01 3.537311005920175389e-02 -2.228262646915459277e-01 2.040565583416780737e-01 1.717371018835892327e-01 -1.711478689922644181e-01 2.503560312762813378e-02 3.981167744805622077e-02
-1.427386722719755641e-01 -1.368371412324012344e-03 -2.673061948830206952e-02 -9.694115250233488988e-04 -5.891620494387718454e-02 1.753322988585052644e-01 1.115649032104998190e-01 -1.025768059866978554e-02 -2.314799173677552571e-02 -1.270212082374084228e-01 -5.612999937733285927e-02 -4.310542008018893034e-02 -3.260571896526208435e-02 1.480718149982669651e-01 7.310740195365043881e-02 -2.642288006503153153e-02 4.848399005739056217e-02 3.025251323293723371e-02 -8.919384528533283452e-02 -1.415338568826967902e-01 3.738684495745274623e-03 -7.214938473220235127e-02 -2.681709143474972357e-02 -3.106942496668640280e-02 3.460995190087526145e-03
8.482824366355418144e-02 6.307733165102184791e-02 2.763640541773432768e-01 -4.725065414264808389e-02 -2.065463455032866269e-01 1.414251481093022622e-01 -9.426455529089483587e-02 -1.286124480094515132e-02 -2.010626805769281239e-02 -3.487226799571427338e-02 -9.513289147880654717e-02 -4.949118290997125968e-02 8.299574863247578815e-02 9.222197355582943679e-02 -1.259965300730473692e-01 3.475398884904970509e-02 1.145456895384864143e-01 1.342213843271584661e-01 -3.390782187276591281e-02 6.379215031934049041e-02 2.756744345475414804e-02 5.781003800757257560e-02 -9.134467440253721260e-02 -2.298817118635530787e-01 -1.701261877786933163e-01
-1.364791698355084515e-01 -2.122434205930978091e-01 3.795001023292453313e-02 9.507403617599784196e-02 4.152369800959054662e-03 1.421253161318941083e-01 -1.203140496753168226e-01 5.660931278325096599e-02 5.868001321615500671e-02 6.655764792787779993e-02 2.423889300097483140e-03 -3.176658599305693526e-02 -4.112733172498386812e-04 5.385816764239579474e-03 1.376479523114922943e-01 1.587560360724672714e-01 -1.157882647180330793e-01 -7.341177685823666900e-03 3.247068845740307824e-02 -9.775296636555156835e-03 1.354284682741564161e-01 1.640515323535585634e-03 1.008916796737120702e-01 -1.818249765898881098e-01 1.207073899219075902e-01
1.767215605045511367e-02 1.361403363680517009e-01 -1.619954539861376552e-01 1.064151564101366021e-01 5.723245460793228989e-02 7.290602273313499804e-02 -3.974795098926639514e-02 -3.408007870400070471e-01 1.880051845959099244e-01 -1.111354731375020360e-01 -3.537852596974001666e-03 3.893299973931910619e-03 5.329058421900489950e-02 7.202319661688572072e-02 9.671957051998864019e-02 -1.132378944684303557e-01 -6.571434687308755351e-02 8.906166898509719834e-03 4.312756178815078945e-02 -1.164595789062337211e-01 3.995428172631470404e-02 2.172124961884243366e-01 -1.318807111377213147e-02 -1.153697983733267401e-01 9.857834049272748422e-03
-3.949602684535439417e-02 5.765541279915946393e-02 -2.005110610149463957e-01 6.797380135159980519e-02 1.899965938256995279e-01 4.108765897333724326e-02 4.113900094319377504e-02 -3.580489721630282507e-02 2.593883641411875995e-02 1.416238553762940722e-01 3.627218727908953361e-02 9.468158488908479109e-02 1.577214249268038895e-02 3.116384768131657754e-02 6.444626367777320057e-03 -9.068496272264979507e-02 -1.565799825924213406e-01 2.757013925494673778e-02 -5.729238061963288359e-02 -5.034429097992005990e-03 -9.203327414629872139e-02 -1.275321119018931193e-01 -1.501081295450439335e-01 4.054483229728327032e-02 -1.374407363977742658e-01
-1.508447958927248631e-02 1.667947757607058865e-02 -2.781077097991167466e-02 -1.422479389902432945e-01 5.572094980481481080e-02 1.122282334260634729e-01 -1.428817107030755373e-01 -6.878996222885233602e-02 3.495147519646187029e-02 -2.934944879682716001e-02 1.214044655712269022e-01 1.083844599408729376e-01 4.037613948084842197e-02 -1.810328684500212559e-01 9.986459027547858747e-02 -3.642895051138778789e-02 1.289432733880633009e-01 -1.192649278056450990e-01 4.846569439006570557e-02 7.646166162258187515e-02 7.560207668507049408e-03 8.648140043592382475e-02 2.963750971453098584e-02 -1.021580555646866700e-01 3.573557434504275737e-02
-1.030833847670953318e-01 2.222901448703631655e-01 1.208323101151383555e-01 4.433851822996039312e-03 -1.711824664840343180e-01 5.316036839715197054e-02 6.410998794505912146e-02 -9.957783622714859451e-02 1.262733781972710245e-01 -1.125459393250736045e-01 -8.183465381808360806e-02 -1.091018911366680930e-02 2.283826581539290246e-02 -6.385737114506818968e-02 3.027786390092313540e-01 -3.423526932790416089e-02 -4.732587561864910752e-02 -6.827625792558586482e-02 1.802864078583580124e-02 -1.496297856069569721e-01 8.471550819278134137e-02 8.866067908491240268e-02 2.132049161688458899e-02 3.293049392951633708e-02 -1.187318513164887096e-01
1.753613869375107437e-01 1.206849123755526221e-01 -4.626275091152748375e-02 6.322634423915798885e-02 -2.629826860067842331e-02 -5.699121643066483445e-02 6.411958789391379587e-02 4.657672869453806375e-02 1.349509683612366562e-01 8.212348298257819701e-02 3.007030997897101876e-02 -2.936502055408627895e-02 1.177533404742067968e-01 9.321175719284370553e-02 -1.141818258392490217e-02 2.081965842850682091e-01 2.782801303289220152e-02 -5.290868123755888136e-02 8.348532762379048955e-02 -5.515974461793050898e-02 1.565141764479916486e-01 -9.306194897227141813e-03 3.813932902348467213e-02 1.011262860125360652e-01 5.401625532935167007e-02
-2.240357788166204983e-02 1.574456364824902144e-01 -5.906277892694562770e-02 -3.118503139794219850e-02 6.355057526275433716e-03 8.505126863168983864e-02 4.441060081194481840e-02 1.172110792312162364e-01 -1.064993001987208088e-01 1.096505212679893017e-02 1.702637441946545649e-01 8.357308877407933212e-02 -1.205339413377370383e-01 2.214086020865011495e-01 -5.176414008594969890e-02 1.692496235177184255e-02 2.122606796410531627e-01 1.315827856015545083e-01 4.623096660782522599e-03 -2.054788134144591161e-01 1.102660347155843962e-01 9.661206962907116502e-02 1.088897423458741881e-01 -1.460517897000695314e-02 2.519323559241884100e-02
-1.044453109560342652e-01 3.093661959342470721e-02 -8.110940914171616001e-02 -7.596469843411803036e-02 9.020783316045209721e-02 7.167048117132667796e-03 -1.002297470101975833e-02 2.838353346465486565e-02 1.259379342511521976e-02 -1.694213879389574323e-02 9.100344552756409189e-02 2.031773484338899871e-01 2.100131077495906440e-01 -1.795676315424860406e-02 5.132443313459214562e-02 -1.751136645448717333e-01 -8.750821512624903931e-02 4.802142004699507666e-02 1.347406847536147534e-01 2.640263296587997549e-02 1.442895052175838522e-01 -2.271490310669550122e-02 8.427968826688754522e-02 -9.163202139510896738e-02 -1.895868174450201504e-01
1.257421284392330751e-01 -6.553381368562247178e-02 -6.623219103580700595e-02 -1.735632109970256798e-01 2.538641753247272356e-02 1.085159255893539537e-01 5.627361550808330365e-02 1.107591993452522044e-01 -7.186845822033918751e-02 -1.443904423332011411e-01 -8.579330944083693455e-02 5.339972149331333878e-02 -1.007278710170694536e-01 6.900775251749678707e-02 -8.863855138928762589e-02 -2.253201412966432393e-01 -2.511103338900540494e-01 -4.095038149178294867e-02 2.482352949095553707e-02 -1.283023801682204590e-01 -8.127714042148689866e-02 -8.434082696821146655e-03 1.111694849337618515e-02 -1.086438068715933208e-01 -1.502886734474864205e-01
1.517956110845942487e-02 -1.309923224389642760e-01 3.943398990669897547e-02 -1.488987399381098975e-01 -8.235148066251496424e-02 3.362997044138683195e-02 -5.035612500428833863e-03 2.375969068331550832e-02 -3.986368169829437175e-02 7.781133535951666180e-02 1.158900979645164225e-01 6.296038346635926888e-03 -5.942756840116631550e-02 1.326428778016753261e-02 -9.072092567222650450e-02 4.282550315293354865e-02 -1.134749497258638745e-01 1.679709091246699426e-01 -1.340840930783658846e-01 -1.894227869322025748e-01 7.225193588221909269e-02 6.967103269239507957e-02 -4.869689940901825165e-02 -6.734618351274698766e-02 7.976560880655486629e-02
1.080291172886046064e-01 2.972931017065827755e-02 9.245031158415416284e-02 -1.310176691116235193e-01 -4.365017513293847906e-02 -4.648347430210930664e-02 -1.135182800188204028e-01 -8.205792968991278136e-02 -8.567346938387683519e-02 2.375400316050784721e-01 -9.961870329317802641e-02 8.363457452074130050e-02 2.676242978748421056e-02 8.208415152178005769e-02 -9.117872026747661507e-02 -1.028063049579308330e-01 -9.798837441658221625e-02 -1.043278578168530535e-01 -6.724768982662047978e-02 -1.441697753874074117e-01 7.651283091621290111e-02 5.949977758523327526e-02 -1.433958656328337099e-02 6.269032595347273640e-02 8.044295276079579948e-02
1.102889270602592509e-01 2.068535786683374234e-01 9.774592604843544696e-02 -2.159996480577250633e-01 2.781808248792265736e-01 1.144480844650861417e-01 -7.830210256106964403e-03 -1.476690704548607458e-01 3.310466836501033128e-04 -2.150314591253674745e-01 -4.077026741716295588e-02 -6.102675685057323829e-02 2.305316524167728975e-01 -5.221656094845899404e-02 -1.971507427551169589e-01 -4.391221830253701913e-02 7.561757929465702868e-03 -1.476321926966013554e-01 2.532600190960496156e-01 2.039542843181668674e-02 9.650340259863865455e-02 -8.809003130831462303e-02 1.633705664299185678e-01 -7.825386615397003642e-02 3.864132872563394439e-02
-1.711899113562707908e-01 5.958184782535769913e-02 -5.046053145574417448e-02 -1.263654594903207418e-01 -1.763622017927302943e-01 -3.910107341940566306e-02 -1.625459026951566188e-01 -6.229704654880510034e-03 -4.035815494854190499e-02 2.212786467361750886e-01 2.106576834134087084e-02 2.074208428145060679e-01 2.944648515361922639e-02 2.280137674996237651e-01 1.334410669996584104e-03 2.673146165438599620e-01 8.488422255410840722e-02 -7.043080939974472043e-02 1.446571948052666548e-02 -1.132571664863808170e-01 1.311708509104179410e-01 2.189866356731841324e-01 2.916489636168457245e-01 9.377758003513378404e-02 -1.381029272916226291e-01
7.222682587915163488e-02 -1.554872839058854816e-01 1.699188031590957715e-01 -1.248019390043416388e-01 7.063017324959948440e-02 -5.552490131283768782e-02 1.675138592107303370e-01 7.729962464296960545e-02 -6.726043571271335918e-03 -1.178002426487199938e-02 5.486250408366950132e-02 -2.938277739427629445e-02 -1.436710938258803638e-01 -1.200385222356486065e-01 -1.398595431213048856e-01 1.714088162675734550e-01 8.661095601715863845e-02 2.389277902849807900e-01 -2.773790450493490017e-02 -3.123723473061407740e-01 -1.067366201219826505e-01 6.118016127166289730e-02 -2.922216728058291690e-01 1.224078192974851625e-01 -1.571001579713319218e-01
5.365011291133007371e-02 -1.587210633769847168e-01 9.928508014192240216e-02 -3.074766232920178588e-02 1.394176119616332976e-01 -2.792683152581191819e-01 1.058597033809934723e-01 -1.765044170550564284e-01 1.941026876814304636e-01 -1.467360464728656999e-01 6.190943088607520073e-02 -1.277812282124662635e-01 -3.017387778366262957e-02 2.243235904147493354e-02 -1.456870665820259036e-01 -2.413536175520752253e-02 -4.703121476179625456e-03 -1.888905777888396920e-01 2.231165161906976946e-02 1.413019507045212286e-01 9.770009818903607757e-02 1.193813659564174207e-01 1.089655887536170875e-01 -5.420898069652337059e-02 1.076154248358762167e-01
-8.451301876946581970e-02 6.324668982929561312e-02 9.803830441229646753e-02 -1.339465556895655940e-01 -1.130635066769262662e-02 1.093680433087308029e-01 -3.460706451562862215e-03 2.313750629711569251e-01 -2.345950457468598260e-01 -1.857595851215074756e-01 1.672585443215271750e-01 -1.204919434447608573e-01 -4.701043795458203362e-02 -6.970944299381147402e-02 2.158916448419164955e-02 -5.999196463011921381e-03 1.308182889957622830e-01 -1.229402445920004666e-01 -2.629775394765120344e-01 1.042336286739685702e-01 9.119246473696362987e-02 -5.899805924838773946e-02 1.052203894124342926e-01 1.424731242841457690e-01 -5.996666403615009272e-02
2.733137914905251625e-02 -4.622872544665071470e-02 -4.955456931796850192e-03 -3.358572717278218017e-02 4.312439653257332112e-02 -2.533956618634512770e-02 -4.463825211579197649e-02 -2.007578243680880059e-01 9.235926055447690741e-02 1.594894585299904549e-02 6.343999057019317558e-03 -1.326706962924769917e-01 1.084526322753946899e-02 -5.369070825964960408e-02 -5.489549701255786590e-02 -1.201108916885585895e-02 1.021469730938260045e-01 -7.927311683706375622e-02 -2.416781364018958100e-01 7.727557626207909314e-02 -4.386156141286606108e-02 6.507015031376472969e-02 -1.393992374229932052e-01 -6.622364793968132934e-02 2.166665945485249101e-01
6.449563586458718911e-02 -4.946033234664094780e-02 -8.493551247833810991e-02 -7.591972557264078936e-02 -6.201367032758447334e-02 -1.461443222901333550e-01 -1.507612827206145645e-01 -1.382391422683573456e-01 -7.049330156806625503e-02 6.151122099463016829e-02 -6.838355977884162662e-02 -1.845397213475419643e-02 -1.245307181816409231e-01 1.562950307552264939e-01 9.235674179324282473e-02 -4.131995607943407534e-02 2.242347904520421709e-01 1.770121610897186226e-01 -1.924241016734569085e-02 9.665995323679972551e-02 5.625198091067638850e-02 1.002714731184468633e-01 1.251702741948092223e-01 -1.892684621379068025e-02 1.549412293467503643e-01
4.719780962431036064e-02 7.711116848451575467e-02 7.158914817511456696e-02 -8.618461994527164272e-02 4.295702168173654578e-01 5.151434636761120789e-02 1.636003609675560910e-01 -1.981557047044294473e-01 2.008080710663032176e-01 -7.116810438929363491e-02 3.729514084442393101e-02 -1.088339892048443280e-01 2.898955501104275578e-01 -5.606152448785492459e-02 -2.727337796898451905e-01 1.776164480482346833e-02 -2.703978358043261990e-02 -1.614089036649196951e-01 1.423540132711121481e-02 -2.403852696563480440e-01 -2.140545180275780016e-02 -4.943041939339631180e-02 -9.608107898511386580e-02 -1.063161952830389695e-01 1.970981072483998509e-01
4.301052017596220661e-02 -1.459547541488809275e-01 -1.084016832720802043e-01 4.770165256332335735e-02 -2.606731124971726349e-02 -1.764998861835540001e-01 4.974814840991495513e-02 -2.970675127922613873e-02 -4.122528377602605043e-02 1.853792266246158671e-01 -1.070945011262165875e-01 9.124180997808602200e-02 8.119794644949776541e-02 8.622654091230859408e-02 4.105899643074695238e-02 9.605525385282330519e-03 -1.669421582430914985e-01 5.169266502702521415e-02 -9.708134605561735686e-02 -5.116592945439983608e-02 -9.180570959437282103e-03 -1.409617826456624479e-02 2.092423808434792365e-01 7.315087202966369384e-02 -1.067047977406518910e-01
-1.624305804753877758e-01 -1.054703786839420072e-02 -3.998237061413217885e-02 -7.857509679468285824e-02 1.958615139969451524e-01 4.622320782585985499e-02 -6.161560096948415222e-02 4.025277955541196190e-02 1.998116574046686009e-02 -1.398146822376392789e-02 -6.230544456361948417e-03 2.337461155046973715e-01 -1.400397921167684419e-02 -7.530843142356961895e-02 -3.916829021707221581e-02 -2.181998086828447828e-02 9.151785226740176415e-02 4.828069162837923117e-02 -1.464216170637815395e-01 8.057963771565503086e-02 -5.741937758927280477e-02 -4.033911422540679276e-02 -4.883593134253957219e-02 -6.417251360528537785e-02 9.007217640096303046e-02
6.379844546314189513e-02 1.577175618166200000e-01 5.850499212887090572e-02 -6.220704718489038915e-02 4.983624875035855273e-02 4.711814822274531384e-02 1.117926910226739179e-01 -2.089185477922278489e-02 5.540846207989022498e-02 1.224889860220296778e-01 -5.977462732668375328e-02 -5.361249965830771486e-02 -3.625445742948991967e-03 8.173483131335988749e-02 1.797466128231361288e-02 6.411273151755494948e-02 5.963133355436615185e-02 -3.627073447656370409e-01 3.135236783686618650e-02 1.777034900369676151e-01 -5.708009627478120157e-02 1.295666120347999939e-01 2.363159713262317219e-01 6.470772799615408244e-02 -1.276730066280742405e-02
-4.356354421742792554e-02 1.748479074632676711e-01 -7.364922673635815320e-02 1.331734778911328188e-01 -1.122187421706989097e-01 6.322934288125255965e-03 6.298847524659878516e-02 -8.897511180822138821e-02 -1.129713483475319885e-01 -1.141677701693586712e-02 1.095783950081238439e-01 -1.172937939519813448e-02 -7.620031911574806638e-02 -2.868936728340285014e-02 -1.495944123483582411e-01 2.993370980963716566e-02 1.203654157095260940e-01 -2.679327650316814524e-01 1.512910067785960648e-02 7.332533638179043051e-03 -9.576546329974697236e-02 4.028441687887811262e-02 -1.937357757499526614e-02 -5.142808717784914940e-02 3.849564963761119285e-02
1.192268664969715064e-01 -2.562990046536764432e-02 -1.380581033325573581e-01 -1.630253192538963225e-01 1.219259298528871521e-01 -1.698231520320005739e-01 -8.713591572835026333e-02 -1.453133702327730759e-01 -2.130475517869494517e-01 -9.127513340076391646e-02 -3.821348055193991844e-02 -1.153750550978436124e-01 1.800571497119471676e-01 9.325756207768613748e-02 5.683213266319442347e-02 2.168480078155139018e-02 1.385007453273186806e-01 3.416769731140661959e-02 -2.484331565356120985e-02 3.702951027630915770e-02 1.266761679984671762e-01 2.859486229232238372e-02 -8.729094022973568970e-03 -5.688465424097389339e-02 -3.256543300420388504e-02
3.118282357287660220e-02 7.557245251999751556e-02 8.915391509616547860e-02 4.488682302884129671e-02 -1.932655385928700939e-02 1.044164184862927669e-01 1.984399361201755543e-02 -2.391786827686304823e-02 -1.451211178805795199e-01 -2.166359966302118523e-01 8.357671857577551877e-02 -4.653758062702886833e-02 2.053040032770369061e-01 4.058257807626323294e-02 -6.459289156045662506e-02 1.922422494466264342e-01 6.202864553952575771e-02 2.020936408131126516e-01 2.556780925204815355e-02 -6.355973338263179451e-02 4.025237773596540558e-01 6.006695970290844289e-02 -7.883240892394768884e-02 -6.934954202523471722e-02 -6.276229774322365784e-02
1.303329808048046996e-02 -2.324655876119629053e-02 1.289310328599561906e-01 -7.838306117147211816e-02 1.222577831311751628e-01 -2.034931503758049265e-01 -3.282988421644938287e-02 -7.327441699528601526e-02 -1.514266692221705735e-01 1.474709145866479332e-01 -4.481359594867139785e-03 -5.051186043966181261e-02 3.077311947735478920e-02 9.352867898916476797e-02 1.419256052821457337e-01 8.977029342355542785e-02 -1.909947997681251952e-01 -1.016343935472788576e-02 -1.652699480804928067e-01 1.412159105447897134e-01 -1.169111756389673018e-01 1.458249547625497800e-01 3.292533333082754005e-02 1.745869141808914227e-01 -1.988491426594910794e-01
-8.913640220600435593e-02 6.733999053279258670e-03 -4.138004408106819160e-02 -1.035612234760103223e-01 1.152700937026166286e-02 -4.984097243341142208e-02 -4.897576833312240058e-02 1.389017068002477984e-02 -1.070970732973951511e-01 4.115924994216622196e-02 8.297904713948199562e-02 1.198521731926724537e-01 5.247126898804008871e-02 1.465825875018358648e-01 -1.017295383780312118e-01 -4.705959811660138242e-02 3.043774942532871952e-01 -5.125940554834838847e-02 -4.565435512655367095e-02 1.193862968313349343e-01 -1.106017743856079344e-01 3.490363812837768420e-02 9.189983690922330639e-02 7.232748237384425960e-02 -2.962823601294142448e-02
7.967426365657999388e-02 1.244451432655449691e-01 -1.540590999144445146e-02 -9.766045737390231796e-02 1.655402003830503399e-01 6.316979319356171019e-02 -6.683045395297811109e-02 1.003917059169904813e-01 9.086994728478391126e-02 1.301917474351409199e-01 -2.738113918744746259e-02 1.602289539126748319e-01 -1.571233584654952581e-02 8.022916085345482839e-02 -3.495278975356732459e-02 -4.365391653854364118e-02 6.196886571392062198e-02 -1.579934653350621443e-01 -2.075809690917449213e-01 5.925219599328682835e-02 1.314374179820168853e-01 -2.028483644593211815e-02 5.821266012908209858e-02 1.918827825291449241e-01 -7.689543731972867113e-02
2.216839732484998660e-02 -7.292481842221132382e-02 -8.206734811064288898e-03 -1.543342548408444537e-01 -1.802898553804307274e-02 -3.990681875943422052e-02 -8.344025511534330919e-02 -2.544331431012100686e-01 7.916455188399161569e-02 -3.955428760836465080e-02 -6.591991907521087962e-03 -3.311365325389632915e-03 -4.053468169459988751e-02 -1.866305782794366042e-01 -2.284956700125224949e-01 1.408084289472570083e-01 7.354888931532736762e-02 4.050094210863006139e-02 1.290332018501414713e-01 -4.068344709924410357e-02 -5.782918274652697893e-02 1.496382189296016803e-02 -1.810240688836218803e-01 -7.267252185199400694e-02 3.144096316605949348e-01
-1.241060536136956959e-02 1.137535361099539927e-01 2.329091424745136085e-01 -1.111909790850047625e-01 2.460659544658523948e-02 -1.460996918671676470e-01 1.047780080078794009e-02 5.168899766026584935e-02 -9.658904474816747132e-02 -1.907058210731175651e-01 6.369041293175686791e-02 -5.907038200779990422e-02 -3.441114217675878689e-02 -3.494192457977769034e-02 -1.158468542253990041e-01 6.791671989608631665e-02 1.652222069202756161e-01 5.586352459246535923e-02 2.312990125827775120e-02 -1.754805159887602370e-02 -1.340928759397569947e-01 -1.650709382033282158e-01 5.587716573165811551e-02 -4.481642412903744793e-02 -6.689016319513682585e-02
8.668995764385819050e-03 -1.062081701705104020e-01 -1.315732124368682032e-01 -1.103724643816159506e-01 1.174606062542246469e-02 -1.047258263367864366e-02 7.010792843166260835e-02 2.749270361333751300e-02 6.770671044987178200e-02 1.416037177702688943e-01 2.840843835504712131e-02 -1.303929968841338605e-02 -8.650643902426616294e-02 -4.515191372415379434e-02 2.837088299463283794e-02 -4.252029288048134181e-02 6.472151282329519084e-02 -1.004820544049538356e-01 -1.052251801722812879e-01 7.664227086059050009e-02 6.354454819704905000e-02 -9.570297656102139811e-03 -6.032035147245051049e-02 5.051016901263213899e-02 1.663858008522317300e-01
8.517396379118505334e-02 -4.957726863429333386e-02 -5.180717803848514103e-02 -5.311841864196319152e-02 -2.367676515867965792e-01 -9.813399380653248238e-02 1.545490588782885786e-03 -1.889931472404620533e-02 -6.459932877383846306e-02 7.730204661437838076e-02 -8.175256237013599214e-02 -6.941667785367421073e-02 -9.954658610371613925e-02 -1.366951368751314067e-01 -3.421441617894321538e-03 5.907699498089181295e-02 -5.825158645884053604e-02 -1.331518655867863221e-01 -6.498568677202226640e-02 1.243893237623664751e-02 -1.262585465770551252e-01 -8.794151715539908626e-03 -1.333015163440456619e-01 -4.184034688477964586e-02 -8.921075521788339457e-02
-8.044846308645947630e-02 -6.333628252362229205e-02 -6.353430042343179152e-02 -1.323530913307236767e-01 1.196074198320117715e-01 8.894949023031012425e-02 -1.793414360727175749e-01 4.446755677744284457e-02 2.798742900741716527e-02 1.869132210984551790e-01 -1.002921359413323082e-01 -3.934765616074019368e-02 1.373393330882710928e-01 2.404351821008266776e-01 3.871492863960829950e-02 1.094269068259621086e-01 -1.137309477802958407e-01 8.680688573810078912e-02 2.621685533374636390e-01 -1.116323839769652049e-02 -4.269164392694035914e-02 1.996514191711275810e-01 -3.234806154268617812e-02 6.510663322093560024e-02 -1.038762292212163235e-01
1.021711471949755534e-01 -1.502803017487838455e-01 4.505840114756111403e-02 2.727152292169117767e-02 -1.517554302455800530e-01 9.131706876732276906e-03 -9.342203715780067474e-02 9.400960618295395310e-02 -1.964483038557507111e-01 2.723940016441405917e-02 -4.399219337782737244e-02 1.554907883807611912e-01 1.309535992306732621e-01 1.400391478148491353e-01 6.905211814591419306e-02 -1.017218338403179656e-01 -7.857468570253058060e-02 -4.430139336951267187e-02 2.515065974339855681e-01 1.959369903904087939e-01 -1.838032479522231158e-02 -4.140878807992887101e-02 4.818249123587881738e-02 4.311549700284367237e-02 -3.798552807428982186e-02
1.661647183649171688e-01 1.386052884151930259e-02 2.583312513732012594e-02 -1.261295062516800680e-01 5.681090363390697839e-02 5.038054566754407437e-02 7.343730717677694753e-02 -4.435025620655039941e-02 -1.430345112059705666e-02 7.572467013838585226e-02 9.333918356370081437e-02 -6.265017410115088919e-03 -3.554217854163517487e-02 8.612972369571750275e-02 5.884851035034569661e-02 1.515561495845904952e-02 -5.610636257377315389e-02 8.472395057241405292e-02 -1.445563954850146403e-02 -8.821150256794797750e-02 1.533395119329913903e-01 -9.363739275272439655e-02 3.674354298193738960e-02 2.472657802619021225e-02 5.754191109153103389e-02
2.648960929238063922e-01 2.127366510600476601e-01 -7.116612545697960368e-02 5.023230210218442536e-04 -6.596285129486059717e-02 -7.887113381507415699e-02 2.229754530754612940e-01 -6.427230593233336509e-02 -1.544452519063287954e-01 -1.611524939070274609e-01 6.579434652493947044e-02 6.290658385255442318e-03 -8.826796251187847553e-02 -1.060402861394822288e-01 -5.610520914812591048e-02 -1.476125027544403050e-02 -8.504628269105339589e-02 2.144533969809108223e-02 -2.991363492092936546e-02 1.622722141478123020e-02 2.065064353548383760e-02 -5.816503851778242334e-02 -4.861674059628275785e-02 -1.053659660929150005e-01 -2.779498095533262936e-02
1.810955297850947929e-02 5.600172030425953906e-02 1.030557157774186078e-01 1.893097825483719410e-01 1.348742489000480382e-01 -9.769483882153784382e-02 -1.147052280142798059e-01 -8.785713065812923717e-02 -9.720763680673730200e-02 -4.242809861534831140e-02 -3.701731701107762590e-02 1.038199444834700391e-02 9.974751574082141303e-02 -1.962189701863305269e-01 2.992565892182429479e-02 -1.077364192103793085e-03 1.919959651644275178e-01 2.731665156679575698e-02 2.441221018451617333e-03 -1.737981463358417022e-01 -1.143631631478622263e-01 -1.689512049407743133e-01 -2.630196515559973802e-02 -4.541556356415712981e-02 -1.353107428644187427e-01
5.450343852198338834e-02 -4.007794494726509005e-02 -2.020258223094582861e-02 1.059748957079019796e-02 6.942764583444537008e-02 -2.286586955400800036e-01 -7.514965121320005270e-02 2.445066671022360499e-02 -1.866000935693563623e-01 5.775093745247793231e-02 2.352341038187466191e-02 -2.121902400809113146e-02 -1.839461483581729673e-01 -1.334694463870668979e-01 8.135796395169621331e-02 -1.256397114988085928e-01 4.845699108370151581e-02 -2.186507071911494154e-02 2.710053230646688321e-02 1.820084738742216712e-01 -3.783322342737453770e-02 1.206997328844241907e-01 4.023237741463286249e-02 1.125029874467237817e-01 -9.356943068432332922e-02
-5.647814928694739787e-05 -7.761275041518228730e-03 -1.352304819249425527e-01 -9.124719761986405109e-02 9.740144036849993081e-02 1.955312419758309384e-02 1.284003252135234446e-02 -2.935495005041146438e-02 -1.588695585470741370e-02 -1.067883178261988392e-01 -5.175771125567407011e-02 1.530468979406083563e-01 -6.411741417054295233e-02 9.177473410445947943e-02 7.382873861758830480e-02 -6.159699880029482696e-03 9.978654716348563103e-02 3.413582324621530079e-02 -1.300545389918848493e-01 -8.413983230449899320e-02 7.628541356555630648e-02 4.079999950255246144e-02 1.336038170507613532e-01 -2.246573663132262200e-01 8.244016762328280901e-02
3.794965416458561530e-02 -1.263327004971775414e-01 3.053113761452351249e-01 -1.692205649671506967e-02 1.788450137453978239e-01 -1.772312429419099500e-01 2.576249210699219430e-02 7.001788472916992134e-02 -1.422398225596292198e-01 1.158097896722825315e-01 2.847550377867852922e-01 -2.008235976751363699e-02 1.439275180657114961e-01 1.242487037823280516e-01 1.145243180504144226e-01 -1.302058418100188464e-01 -2.481739861908332234e-01 9.030085532081670585e-02 -1.348517131946736503e-01 5.045863228716299803e-02 1.254469788721978007e-01 -4.702012930523282175e-01 6.165078168055285190e-02 -5.231321195087218663e-03 -9.715211920185701233e-02
5.283601404667807172e-02 -3.541200486226099564e-02 -2.735342611156460838e-02 -7.765461663162775974e-02 -2.418309139679683181e-02 1.328189471111708708e-01 3.926519670335214263e-02 1.199899836585449353e-01 -1.224953883549001893e-01 -1.458151439514035197e-01 -4.112179037595219827e-02 -3.196825790112828997e-02 -4.114303622038437830e-02 -6.933925668351997862e-02 1.033682165640804618e-01 -1.639713987072791016e-03 6.568951792459512030e-03 9.144425196451625229e-03 -1.009891637505557632e-01 9.913982209081248498e-02 5.508761655550929552e-03 6.579213192129804155e-02 -8.416430009359386621e-02 -3.289567428349230438e-01 -6.398627562433356619e-02
8.193420500419312802e-02 1.236543008891392431e-01 1.300142627266822060e-01 7.796938939427251747e-02 -8.197077527515041727e-04 -7.204725357750169090e-02 1.389509054619242623e-01 1.641475383429170237e-03 -5.947790503779318977e-02 2.013174601692988841e-01 2.636833279396733759e-02 -1.247014798222397525e-01 -3.435588707276962528e-02 1.678564699413328046e-02 -1.239679942074118080e-01 -9.178738652278252419e-02 -2.084108575425236420e-01 -1.095272876586506766e-01 -4.371966493228600370e-02 1.063930207944285486e-02 -5.861053371003718815e-02 -8.817679317011310747e-02 4.483996721976879485e-02 7.319883120050746372e-02 -2.758540561985887984e-02
