1.672525612637169312e-01 -3.736206507765937965e-03 -1.272195803051116292e-01 -8.754084226033157987e-03 1.371551276749729577e-02 9.561909341967327058e-02 4.122225051942902257e-02 -5.172266018902397372e-02 -4.912773584752014658e-03 1.185285991345149011e-02 4.434759005036434387e-02 -1.749010015390332906e-02 5.638544933408753609e-03 -1.463259278009134204e-02 8.283004877947780509e-02 3.099646695587565670e-02 7.252232958571935839e-02 3.941910281239446520e-03 -1.560033000501831468e-02 3.311580975596205550e-04 -2.656857368370915684e-02 4.110917820833448477e-02 4.982929669374946968e-02 5.385887343676680483e-02 -7.479879141579440054e-03 1.670579006888018442e-02 3.387008142069724420e-02 -3.126281781285955574e-02 -6.002456372123991107e-03 7.740242792378450656e-03 -1.816935140016787825e-02 -1.805746630538374586e-01 2.533687259744294568e-02 1.510308235541676740e-04 -1.567489925368521081e-02 -4.421623013247200085e-02 -1.122416594800576192e-02 4.982410663936124445e-02 2.904390625296537562e-02 -1.337921278608537878e-02 1.046669884149102198e-01 -1.113177427511085997e-02 -6.728787283161531685e-02 2.915461969717305507e-02 -2.123944227768419235e-01 -8.714944212029640536e-02 -2.407976752111714962e-03 -1.661649185415565652e-02 9.816527598881914785e-02 3.858460775308431706e-02 2.542794058189012333e-03 -8.144066286274977834e-03 7.317276631865790582e-02 7.276144505865594003e-04 5.225925497583059146e-03 -1.281276469907363311e-02 7.652897677149604616e-02 -2.426473188176061005e-04 4.698221571603854868e-02 -6.497554662656512998e-03 -1.651457731922954114e-02 8.966756078127628704e-02 -8.754890604088179373e-02 5.170154544664171126e-02 1.020590910736316088e-02 -7.523608512440567615e-03 1.099975446752189494e-02 -6.001752394390525575e-02 2.452422224157617056e-02 4.788424871837806962e-02 -4.905835116322795030e-03 -4.357145329483461116e-03 3.721920191918114129e-02 1.233784994411935010e-01 1.121844055017390913e-03 -2.652535172445467330e-03 2.887293475719094130e-02 -1.007287990519996901e-01 -9.470371170247537940e-02 1.307272855344883064e-02 6.296182098665623061e-02 6.284766002332002610e-02 -1.802904842905693136e-04 9.007635308597297663e-02 -3.777029106236180658e-04 1.483849093768102589e-01 -1.970608822864602233e-02 -3.764410780380977439e-03 -1.556892579610209262e-03 5.860778879258133397e-04 1.534535293479006093e-02 6.831934587382248319e-03 3.298863776720630664e-02 1.538135387297623162e-02 1.054666886285361364e-06 6.484012630467289595e-02 -1.526689109006585678e-05 1.347415577838377565e-01 -2.832359755917972927e-02 7.587457570695910203e-02 7.095666505718878359e-02 8.435509653564368659e-02 4.907507171251003801e-04 -6.795990162363562716e-03 1.087500761935348143e-01 -8.332767189918206807e-02 -2.304543516889553825e-04 0.000000000000000000e+00 -5.105980722503950311e-04 5.537642252752895955e-02 1.699057348198392547e-01 -1.050526590464661708e-01 2.598667316965901433e-02 -2.551776653286949234e-02 5.139954120743311927e-02 9.819518010491465332e-02 -5.965768353895874176e-02 -6.637176995146908294e-03 -1.711385108530214113e-04 -1.940055260981939610e-03 -4.980067698800743530e-04 5.035869784341616417e-02 -1.879946321047205882e-02 -1.130108946097183736e-01 -2.329344793009936482e-03 -4.352703236149321753e-03 1.036225819820787292e-01 2.524685783257162031e-02
