4.147393997373639007e-01 -2.202923750190753094e-01 -5.019651773505843240e-01 3.150979169106905009e-01 2.834819688208177757e-01 -9.214552635973650985e-02 4.396307297030243588e-01 7.092924916703999827e-01 -1.574975208826945999e-02 -4.088446735841359536e-01 9.000563951612224056e-02 -4.572104712581890884e-01 3.777529398739931099e-01 -7.198658811824923953e-01 2.987941820937418599e-02 4.397124333619938930e-01
2.820607543346513313e-01 -2.045202953145769942e-01 -5.678028323197138461e-01 -2.507075001028286065e-01 -1.402238029284386400e-01 6.706003311792371746e-02 1.553685567223273556e-01 8.074844548863921445e-02 2.246440478067559254e-01 -9.340940424247778928e-02 3.153295756838193631e-01 3.789307142503623438e-01 1.987660199800252714e-01 3.363007988759960654e-01 4.653940181035406964e-02 -3.643806542926985026e-01
-5.003142614846599612e-01 -4.117859714369488944e-01 -1.323182033472046104e+00 -3.547015061080389109e-01 3.180808000100182054e-01 1.291229032739858729e-01 -1.273019354946156589e+00 4.439347689984740608e-02 -1.049522854917731840e-01 7.401876848469944592e-02 4.459841479098102801e-01 1.276040678587790689e+00 -1.200509336643909158e-01 -9.395809857759680472e-01 -1.022139788417919387e-01 -1.126287931527461539e-01
-1.613897847557951570e-01 -2.127402802139687077e-02 -8.954665611936757363e-02 3.869024978592620206e-02 -5.108051375688730383e-02 -1.180632184122412109e-01 -2.818222833865487078e-03 4.283318705304176716e-02 6.651722238316788716e-03 3.024718977397813924e-02 -6.343220936809636223e-02 -3.627411659871381672e-02 -6.724604477759510424e-02 -3.595531615405413162e-02 -8.131462820444540496e-02 -1.726282602331676852e-01
3.205315225571267135e+00 3.347950222830795020e-02 4.340531047176165447e-01 1.688286820201477578e+00 -2.123605942097473165e-01 -4.550099029506972110e-04 6.955683820095272252e-02 1.504751833747667855e-01 1.142174165489020093e-01 1.085953224784140358e+00 1.128789576990448129e+00 -3.294532373948958481e-01 1.396205112290756389e+00 -4.661296819778674383e+00 -3.272217535714473935e-01 1.198069318542444445e-01
-4.195595879003028578e-02 -2.772838102385690590e-02 -3.706091861589898007e-01 -1.946406097452641759e-01 1.651513411444399115e-01 1.903543987051371233e-01 -2.558230299387917461e-01 -4.902910552912206898e-02 -1.070798347221640218e-01 2.310092031540201818e-01 1.553336455804772143e-01 6.405188147398177545e-01 9.243436471194188542e-02 -3.128126524981941214e-01 9.911001246340447879e-02 -1.076128923331721582e-01
1.091998484290282873e-01 4.355079975673162296e-02 -6.859545060327226773e-01 2.013638593969148960e-01 2.647742341379166198e-01 -1.366496136260809124e-01 3.937460231082169637e-02 7.910770169775526162e-01 -1.241779198001819046e-01 -1.363463973463221734e-01 9.037064421744855913e-02 -6.185551588401787537e-01 5.180405691755557429e-01 -1.385547116894133790e+00 3.941903208690410998e-01 6.016593391453913808e-01
-6.035534989187283372e-01 1.257441932979979360e-01 -1.495436574487136960e+00 -3.115342001504826097e-01 2.397790459705089194e-01 -9.021338976921143213e-03 -8.447851521785973983e-01 -3.708703168693748553e-02 3.785692786687923361e-02 2.712447238700994578e-01 7.523508156236530242e-01 1.479645154744531732e+00 -5.804692111356031525e-02 -1.223556178649995108e+00 -2.658948259592150767e-02 2.354494942705456784e-02
4.648859824398161866e-02 1.151616917400306861e-01 -4.986817025593158204e-01 1.586158955155443917e-01 -2.112717339000466654e-02 1.576637645946704636e-03 2.151668182098146476e-01 5.352778132084051732e-01 5.038519459248799737e-02 -1.385002342982150914e-01 2.126115078840527806e-01 -4.493653680235704106e-01 1.274614424345988165e-02 -9.819597501694022901e-01 1.366084609054234733e-01 2.075414787734529143e-01
-1.045266788723913653e-01 -1.182586820766480182e-03 -4.726551191219675041e-01 -2.409452093934836003e-01 -1.132655614691435442e-01 -4.506054428430458086e-02 -4.543548933022192315e-01 7.914814259331522106e-02 -7.394115750145995036e-02 2.067023926767311282e-02 1.533907512477921120e-01 4.067426228303978042e-01 -2.301561501273300669e-01 6.607762785827487884e-01 -1.329619742330737930e-01 -1.571066464238255467e-01
-8.555795811048040322e-01 1.034417307919212325e-02 -1.424422448028075383e+00 -2.239587235771010321e-01 -3.294237775470456459e-02 7.082204362371585793e-02 -1.594521576966716481e+00 1.745750725608642417e-01 1.199755918186558024e-01 4.102306123084840106e-01 4.921261069138200273e-01 1.704279536974940168e+00 2.846628557597415121e-02 -1.635929206629283206e+00 1.592118102559794690e-01 5.162305009317708082e-02
-5.996024751676167774e-01 -2.913407402108282307e-01 -1.322660421126958585e+00 -3.823372679964476273e-01 2.041434768979183759e-02 -1.188176058567539384e-01 -1.750311432387134714e+00 -5.552840594115644457e-01 6.270324007328324789e-02 1.464375295398462618e-01 -3.620524500222592756e-01 1.179890754745363202e+00 -8.157499738942457224e-02 -1.727117607426127632e+00 1.226110092167994187e-01 9.015178641244488145e-02
1.946233764788213860e-01 -3.612661546916244582e-03 2.752479072770519508e-02 7.502527135440650863e-02 1.022747579194304007e-01 8.023392601609342922e-02 8.601068468444630355e-01 2.338960415418299410e-01 -4.059766292779393160e-02 -9.954286436175523167e-02 1.997872938722814184e-01 -6.079684895910463238e-01 1.018049563680305386e-01 5.078183390029537836e-02 1.934238068833258328e-01 2.134251610234305929e-01
-1.306141724491214129e+00 4.963300329493794960e-01 -3.140658448149022952e+00 -9.726682652428358944e-01 3.850338156274432100e-01 -4.977823445812810249e-02 -5.587267184849272761e-01 4.677357256402964736e-01 5.382863401430122534e-03 9.652640436534488944e-02 2.977901553144297164e+00 1.587796563711405762e+00 2.420035243306823403e-01 -9.434613710974454337e-01 -4.889626954947053905e-01 7.621529486483430427e-02
3.245711924907410229e+00 -1.267274223167121905e-01 1.136211092498418340e+00 1.347382882368445722e+00 -7.058687744294295241e-02 3.314694540389932775e-02 -3.018462375014389742e+00 -1.022789725501839359e-01 -4.410699150309740219e-02 -8.083949730892122654e-01 -1.238250311829751427e+00 -1.972582248493828905e+00 1.919417358499760029e+00 -7.412757180976667470e+00 -9.596163966086905805e-01 -1.040863493331823098e-01
3.267186896446904187e-01 4.817489995294989107e-03 -4.983429367082973793e-01 -4.767067819922250482e-01 1.261987375883887597e-01 -1.940707004188222673e-01 -2.563431395409188074e+00 3.530334465960844326e-01 -7.827361632550154658e-02 -7.082677805243470237e-01 1.000032375200895357e-01 -5.269933153767685230e-01 1.057377626361827166e-01 -1.018103956691024381e+00 1.681676100717794664e-01 -5.063876551654367120e-02
3.001421732526911301e-02 -5.701582942685595040e-02 -1.645293221420434104e-01 1.778570237815072230e-01 -1.218139391819510337e-01 -5.484981170691537872e-02 -3.324895197488383913e-01 -2.038423195980675062e-01 -1.941702625917859637e-01 1.059999120652592025e-01 1.162127097320891506e-01 2.699113971293742170e-02 -9.414977171650691645e-03 -3.335418091088662718e-01 8.709481361745730066e-02 -2.802640627669055196e-01
-1.210498883553895677e+00 8.842464401488392411e-02 -2.031650178969397924e+00 -6.650091388135126458e-01 1.448286606271903809e-01 -8.929659028225679987e-03 -2.137077544293494835e+00 5.979749921267516616e-02 -1.039850362434451871e-02 -1.674188327396631745e-02 -2.853192597789809826e-01 1.597446542602753539e+00 2.789333918236145890e-02 -2.184552411167662633e+00 -1.157891674753858124e-01 -2.235368641063952694e-02
4.223582366457639403e-01 6.561657803268335087e-02 -2.878565508936387074e-02 6.106287830362015778e-02 2.668562978690106058e-01 -1.094394084515235566e-01 -7.265248244529611821e-01 -1.157228575954430405e-01 9.196670231836666723e-03 3.227834731292665293e-01 4.507950241362679300e-02 3.220625378096143021e-01 -1.832841896735022680e-01 -1.691195928113553848e-01 9.802213863626245416e-02 1.495994776800036244e-02
5.558178654696224186e-01 6.182421840847353300e-02 -1.695480871344852591e+00 2.558687278843935903e-02 1.777278570203577046e-01 -1.640956424493416471e-02 3.903425596999312575e-01 4.996265928246022142e-02 -1.086978277191856385e-01 -7.513490038427693418e-02 1.661675212426155346e+00 3.984063163477161718e-01 5.143491002656396249e-01 -3.322412361459635144e-01 -8.836889412438822533e-02 -1.938513643928616026e-02
-7.823281788958021121e-02 -4.378156466501207378e-01 -5.300279146266549946e-01 -3.182944579816010533e-01 8.036323121273285242e-02 -1.721414895920248683e-02 -1.202823227037526310e+00 4.913682363509768725e-01 -6.983798162398165144e-02 -4.258679746137650768e-01 -2.440632405068656613e-02 1.546965784929563714e-01 3.868680047470950401e-01 -2.486330779348217002e-01 -3.466797875420836728e-01 -1.636976673613690370e-01
-1.149977291755520797e-01 -1.712873006589944180e-01 -4.619683602874550266e-01 -8.699357832215470765e-02 2.414788867559294061e-01 -7.567150981564711720e-02 -1.337964282780756520e+00 -3.834676814582931859e-01 -4.021570440624275961e-02 -2.037283429081501451e-01 2.234280281485367115e-01 5.878550774780746391e-01 3.367525747108466305e-01 -6.243287160669319658e-01 7.999883582649962299e-02 -1.879334967666385636e-01
-1.630237313046850600e-01 -3.779072965216512259e-01 -1.490841197864835710e+00 -3.897979409625202951e-01 -1.084530015254446256e-01 -4.659874240252316613e-02 -2.073901304829110614e+00 3.485510688331688312e-01 7.060648285089599074e-02 1.943600014538710841e-01 -1.968451836161094481e-01 1.293936611389101321e+00 6.915109137854495713e-02 -2.062893676377131946e+00 2.039546266697536414e-01 -1.858813680061758011e-01
1.604362456630007983e-01 3.927758803082148642e-02 -6.327139287173225712e-01 -8.319894290767018696e-02 1.534159136025438908e-01 -4.800604677728705083e-02 1.346062197267625882e+00 1.264486433870364579e-01 6.527481698926682063e-02 -1.050563732991689481e-01 1.412416112232833143e+00 -7.562374587214648614e-02 2.165824567051408411e-01 5.072805385784300292e-01 -1.947337596619283240e-01 6.968253326969722772e-03
-1.115548517808439694e-01 -2.343803280953239698e-01 -6.743696373594226801e-01 -3.712157125582529749e-02 2.199814114697459799e-01 1.149973422920011305e-02 5.702522218721198799e-01 4.757456139199304213e-01 -4.179457216914425621e-02 -2.665861000399007419e-01 1.991328044095162508e-01 -4.285097571240729653e-01 2.628742437754262862e-01 -9.300283597421961090e-01 2.954058989038259586e-01 4.155456178647148890e-01
-9.110092206334574616e-01 -5.567035174949437337e-01 1.775512661767043587e+00 6.933265655923320780e-01 -4.631130318514868616e-02 5.098035990662754674e-02 3.375344502272084934e+00 -7.575244701356977917e-01 -1.059614702479997998e-02 -6.949879472446748307e-01 -1.015496280170181898e+00 -3.441070935974446243e+00 -6.294161351034985863e-01 9.400681522423568470e-01 4.672882297818448660e-01 3.644504246470777087e+00
3.497030429716251332e-01 -1.112147697935402801e-01 -2.647534731845777589e-01 -2.924207272078923614e-01 3.492427509288023590e-01 7.923923129360310735e-02 -2.807189565715743629e-01 2.156486259625728721e-02 2.421150904782974188e-03 -6.156796152396746269e-01 -2.542230726133188345e-01 -8.147609519921109600e-01 5.854974286328554905e-02 1.098510396094734221e+00 -2.109251074428737383e-01 -1.913311595352510108e-01
-2.541371073202089992e-01 -3.442538018332297334e-02 -8.036396372200548255e-01 -6.189875978563120773e-01 2.134722994837071619e-01 1.065767819185175005e-02 8.779165706762309673e-01 3.263147224027874299e-02 -2.338842700266973579e-02 -5.966486298982752734e-01 -6.570187468505879480e-02 4.923440904166962936e-03 1.047630677464125859e-01 1.539241075273034998e+00 -8.826462568175134915e-02 -1.257898881200352204e-01
4.226310151588040243e-01 9.767674039145940457e-02 -2.235340528417342210e-01 -4.413439976205001808e-02 9.883200987941251348e-02 4.554746255313853187e-02 1.946860925904787265e-01 1.008953428630969540e-01 -3.641259084174088695e-02 -4.370436089282692671e-01 -3.961622888474092274e-01 -2.372673402536205900e-01 9.175524266781345806e-02 4.052671619221236421e-01 1.150121040978652476e-01 -8.167757737056997869e-02
-1.229564285813652263e-01 3.677075299978136980e-01 -6.443941574356281121e-01 -6.576047019165295326e-01 -8.622859802967702825e-02 5.745827708734647238e-02 1.563123549390099329e-02 1.947385461328987322e-01 -1.724013134484532472e-02 -7.431861740398538752e-01 -1.986551624770594715e-01 -3.352069076259398539e-01 1.969250991119364247e-01 6.264645480161249447e-01 2.562408069964814405e-01 -5.226560153312119830e-03
3.095492659421303916e-01 4.542272351923001272e-01 -2.240638033302309595e-01 -3.422309840800996095e-01 7.787291626429121427e-02 -2.475522852617599578e-01 3.241460972301153376e-01 2.263157028946330140e-01 3.253859589563667856e-03 -1.604858846026087082e-01 -3.476085584578155196e-01 -4.698544408225854840e-01 1.564313714753278461e-01 5.032693308803133370e-01 2.779532547304921497e-01 2.785673415540606407e-02
2.013432079392642737e-01 2.571887901186898917e-01 -4.094833133614479426e-01 -3.164441611764828854e-01 6.799625243338658365e-02 1.744965868611924806e-02 2.454426518897435683e-01 1.449270172404979462e-01 -2.302001876354584781e-02 -2.252095662794151021e-01 -2.892079378978769655e-01 -3.358948275354241564e-01 -2.435361019005933755e-02 2.805738849818242842e-01 7.665907254840054197e-02 7.414465092332834378e-03
-4.113004666441248958e-01 5.970480212984555224e-02 -1.164774338836980644e-01 -4.899507636761972762e-01 8.731432960124216325e-02 1.159194347748639664e-01 -1.107321623513416897e+00 1.102161813368595505e-01 -1.498453798676994443e-02 -3.816923587291101150e-01 -5.747840886021400308e-01 -6.431133009280005919e-02 -2.191045723871559436e-01 1.882377648063881248e-01 1.801715772849731001e-01 -1.888471045896583482e-03
-4.789629146175151675e-01 1.648694410158924872e-01 -5.154066100150138663e-01 -1.893841481953168204e-01 1.593544950495453250e-01 1.854075090143390142e-02 -5.603510633991273249e-01 1.651438395709174667e-01 -1.555499658592463322e-02 -1.287489070784146039e-01 -5.012059468339232771e-01 3.731203208078835987e-01 -6.090126769107497007e-02 -2.809305794702963155e-01 2.191823488680778170e-02 9.490107628949524810e-02
9.936067707141624239e-02 -6.892103890539628963e-02 2.196744158614757081e-01 -3.767171797759508722e-01 1.354090241357698288e-01 -3.839979897078821258e-02 -3.193564942524286798e-01 6.182986668493774957e-02 1.032006416052237419e-01 -4.741722970122626002e-01 -6.560677462595964071e-01 -3.180982063041634111e-01 -2.883285050378016634e-01 -4.254033018430438129e-01 -4.201592567204575496e-02 7.233224370654901640e-03
4.954483420569812113e-02 1.405774418746176535e-01 1.586858541272083978e-01 -2.837332848618902004e-01 -5.089590454173868739e-02 3.648633816051843892e-02 -1.221229984129974744e+00 4.832088929206151962e-02 9.965427323472197604e-03 -2.333571591806999912e-01 -4.752368377372836461e-01 -3.644873266164422865e-01 -7.930957261999597996e-02 -9.135313721427342770e-01 1.312766856143124383e-01 1.958443458943422838e-02
-4.069216595094291566e-01 -1.160326817476862726e-01 -1.304916780782040264e-01 -1.914099242853554983e-01 -1.288037326543779726e-01 -5.171190548789352665e-02 -5.656105475067367827e-01 -1.529595813891441482e-02 -4.821459995321455277e-02 -3.339220074838098462e-01 -6.618753771408382169e-01 3.146503564306544765e-01 -1.551070907718432590e-01 -3.544397610678535759e-01 1.308185647090977233e-01 -8.900159162696370807e-02
-1.427969847337831277e+00 4.599544121478644221e-01 1.480045012697294229e-02 -1.172014814746742184e+00 -1.319113111893177037e-01 1.973359228225791268e-02 -1.901495144026417838e+00 2.696177694807906922e-01 -9.497537727880331349e-02 -1.992777820783686316e-01 -1.259720808146430837e+00 8.114938181868338596e-01 -6.831064901313892435e-01 -5.163145312339624260e-01 -4.552169493342431705e-01 -9.409145350395470286e-03
2.722522629993029408e-01 -3.332719023129700892e-02 -2.241721685729284319e-01 -3.126816450630660604e-01 1.908679194247611399e-01 1.426196238816728190e-01 8.888845657251577270e-01 2.294319043459090018e-02 4.509335028843124149e-02 -8.333896810650335274e-01 -1.149442506567155409e-01 -1.612966439264789331e+00 4.541560700194477995e-01 2.089345435227199510e-01 -5.569223571047128563e-02 8.847501194378935840e-02
7.376077880447462487e-01 -2.427903122002106340e-01 6.707906728190550227e-01 -6.730254419153345324e-01 -5.218716308259491177e-02 3.749955049844418131e-02 -3.956117152924422342e+00 -1.133817567221343248e-01 6.578835172686975374e-02 -1.666024992461098142e-01 -1.603499819225107315e+00 4.277888718102745153e-02 -7.162604137674061233e-01 3.720750584529466387e-01 3.375325568115365993e-01 -4.332512643122928692e-02
-1.157300707655499750e+00 3.068429716487048112e-02 -1.281846399692405380e-01 -5.776838964950675726e-01 1.776336773689786153e-01 4.807012846476802978e-03 -1.620019208344779305e+00 -6.009962824945349474e-02 -3.915479635246350149e-02 -2.866953010396126045e-01 -7.015339455019141690e-01 2.418487717524628045e-01 -3.125020122718774607e-01 -1.102674987048707367e+00 -1.431011184863129615e-01 1.948978704929191508e-01
-1.525145836928647469e+00 2.148599334695670826e-01 3.134466142206853712e-01 -2.805039694959932550e+00 2.050274645084519121e-01 4.110536115999766787e-02 -6.471455161619908303e+00 1.252280728875536098e-01 7.804268345539709661e-02 -1.743793310452542489e+00 -3.699512730353031298e+00 -9.030299073227748829e-02 -1.325099784957856297e+00 -9.803393282419516908e-01 -4.421671553627576357e-01 5.750891619842226493e-02
