-3.312111605538260121e-03 -1.454467762371140782e-01 -1.770945663653485380e-01 6.005431155620818973e-02 -1.012062153695295480e-01 7.001794127345986607e-02 2.528114592933358162e-01 -1.580470714791162162e-02 -5.913809672751765834e-02 3.715422564003334482e-01 -6.671272330665255212e-02 3.371535396271718721e-01 -5.411800399816751178e-02 -2.721607770487804445e-01 3.027741469165076693e-01 1.219432062542040590e-01
-8.007961848757771950e-02 8.014865904928416551e-01 -2.356474061433604106e-01 -9.477749068980427793e-01 -1.566058743905728579e-01 -1.809434849008537682e-01 1.870373072318819996e-01 4.762969149595137064e-01 -3.495138968747386887e-02 -1.387447816735540018e-01 -1.026644266219359503e-01 4.827466732841226293e-01 -2.953097078609059900e-02 -3.088116511422610566e-01 -1.409048954591285152e-01 7.121665556855452106e-01
3.199409573053163536e-01 4.159459605068795141e-02 1.092088464913792828e-01 -8.344419232917187068e-02 9.140896343156908188e-02 1.174845195443151996e-03 -4.417331873451814384e-02 1.405611483779535265e-01 -6.957201635020492103e-02 1.948564988260966246e-01 8.944050808280136489e-02 2.887314187269353627e-01 -4.444565061768872977e-02 -4.268557775087922918e-02 8.065564464632517250e-02 1.348029105377475112e-01
-1.897647382284715217e-02 -5.436421470661616934e-02 -1.011439598552104149e-02 2.523047717068241033e-02 -1.607462077983199122e-01 -9.201284621844996181e-02 -5.654292038674468834e-02 1.122643440043109009e-01 7.998992531346235668e-02 7.146515166073057201e-02 3.889257035515191613e-02 -9.730648520610832297e-02 1.980936519408015711e-02 -1.990845277082116116e-01 2.431800223386769710e-01 -1.962792331740821627e-01
-8.627823266787085221e-02 1.383770600369163724e-02 -1.289612423423145693e-01 -1.451646653834202938e-02 -1.198202606767783535e-01 -1.044607185770840274e-01 3.095461526858513390e-01 -1.346934916776776903e-01 -7.809755924434999552e-02 -2.108731172281941568e-01 -1.623148681461442089e-01 3.256558763172760496e-01 1.116846134883577868e-01 -3.232897412604775200e-02 8.500674758000652254e-02 -1.565043553847919877e-01
1.978344771505233246e-01 4.695793027336181424e-02 -3.047718108059936648e-02 1.587171071154014068e-01 5.214323409533798415e-02 -7.048586593377820231e-02 -1.849610656231201467e-01 7.814585921233732635e-02 -4.522825663127043316e-02 2.286479101933076852e-02 -6.529339926674630756e-02 7.876695481424690615e-02 2.589853537542737786e-03 -2.625382877895003353e-01 -3.003136071441670288e-02 3.977109437372984835e-01
8.427454963699507751e-01 -2.055871400173536409e-02 -3.956879791392023393e-01 3.034493574750342024e-02 -8.947272248869664324e-02 2.005245204214290561e-02 -7.236781426480758117e-02 -1.795760501331861714e-01 -7.335681395241515877e-03 -6.433880956772836633e-03 -2.311736586211141087e-01 1.409806850115592203e-01 2.013482399344022344e-01 3.630867624316938547e-02 2.328387676943197843e-02 -5.745182604764550310e-02
-2.968138251412050233e-01 2.229630879371647389e-01 -9.439116111879557458e-01 5.133692994076911598e-01 -1.400965585949847103e-01 7.149002964077608331e-03 4.529985719230720798e-01 1.213155321069047388e-01 -9.422198214552648943e-02 3.483900075612496594e-01 -1.689571006843733902e-01 -2.904638379645210766e-01 -3.055179320386276487e-01 1.050935487331428719e+00 -9.442442923203767102e-02 -2.690064083340582557e-01
-1.592166298461618890e-01 -9.617204630260629827e-02 -8.575055892951226333e-02 3.438615100618840348e-01 8.916969888640453867e-02 3.098093409663044140e-02 -2.692362614797816356e-01 -1.653322938083229554e-01 -1.688207579986577000e-01 -2.173442108104128023e-01 4.304848297329290641e-01 1.824357818779620832e-01 2.156211587815479169e-01 -2.617824931339407524e-01 3.962645887019075608e-02 8.862348182731152324e-01
-6.788872053088597369e-02 1.681270033659535423e-01 -8.537460414287786903e-02 3.044585860394534091e-03 -1.109374568462957039e-03 1.159432170096009497e-03 -8.166507242600545835e-02 -5.920028236554101403e-02 -6.677243841825736270e-02 3.061304273557576699e-02 3.464381967960582925e-02 2.229632966989356091e-01 1.365475589557607339e-01 -5.112732996503076277e-02 3.257190422579019085e-02 1.006148363791892625e-01
8.909474406859896334e-02 -7.941199124207881654e-02 -4.008118855368354438e-01 5.560566119909930716e-02 -1.128405287475723329e-01 -5.592460206846433480e-04 2.682924001066843700e-01 -9.836006697651179798e-02 1.849372667043664570e-02 -3.267139790140553834e-02 -1.617212326381591569e-01 7.414485243053570152e-01 1.315298497093358721e-01 1.449574098444392778e-01 9.023978771458235348e-02 -2.828835014220780764e-01
-1.887237370928851465e-01 1.203390890324814722e-01 -1.477930932573638945e-01 -9.065791491267705116e-02 -3.500769372764531151e-02 -1.344252076020797937e-01 -3.720307529214761377e-01 -9.043693203960181948e-02 -1.643554810830838431e-01 -6.312759197146179391e-01 6.460738733858141514e-02 1.200370740399844677e-01 2.049145613491859530e-01 -5.545062867134887413e-02 1.833697522721264572e-01 2.475486370920131421e-02
-1.255545025211300403e-01 -6.728357636727375080e-02 -1.062243655839711920e-01 1.316337566535278336e-01 -1.349732661521725330e-01 1.076386676168180900e-01 -1.433091650862745176e-02 -3.740783875692568761e-02 -2.408739087799667902e-02 5.577848563470576282e-02 1.394607988902812346e-01 -3.786804021657429881e-02 1.215530620218248786e-01 -3.494377047660322116e-02 4.569638380066065597e-02 -1.841975688609814588e-01
5.299622277834037387e-01 -8.400701651885145171e-02 -1.841451852360539154e-01 5.893717324587683520e-02 -9.719181052073096183e-02 -9.415179872368888148e-02 2.227475302818753000e-01 -1.519786112802511968e-01 8.113787599646161627e-03 3.335700291393558503e-01 -8.626596876394306834e-01 5.089028853798465146e-01 -1.207915125019219382e-01 2.766116961031557242e-01 -1.361940001912651521e-01 5.699020740996612044e-01
2.868276545796695221e-01 -1.574339389100384290e-01 6.837992799797832921e-01 -4.583021824871710836e-01 -1.462857514657332769e-01 -6.924343972946286896e-02 -4.138532649973639121e-02 1.125322556298109788e-02 -8.528195406979632853e-02 1.025570385792279327e+00 -5.731381902112193255e-02 -6.723389592900574918e-02 7.195377996219158578e-02 4.351803848970067778e-01 -8.549856025546388738e-02 -2.076845735632610879e-01
9.095806135373409873e-01 -6.829016299793264633e-01 1.697391707717542442e+00 3.084031805931974346e-01 1.029390318925118564e-01 -5.761052331184701725e-02 -4.074500916393207495e-02 -1.402430131365177135e-01 -1.299280091073854448e-01 1.344239504021881082e+00 4.019958988326975957e-01 -2.631761127264583555e-01 9.394151244836687065e-01 1.042940313556121046e+00 -5.040231083618440522e-02 2.228738088158023767e-01
