1.759836313214115655e-01 -2.976331995119867457e-01 -4.825529721994414878e-02 -5.685503466775055914e-01 -2.433516456646931392e-01 -4.338430452342837973e-01 1.744232258739702446e-01 -2.615288762072406903e-01 -4.773557517107969439e-02 -6.667543238232296332e-01 -6.268144717015555756e-02 2.947076624943068685e-02 -2.813625988922929116e-02 3.012971997184613615e-01 -1.305898648922054761e-01 8.995958184868236840e-01 1.482154682868843387e-01 2.636777404254312396e-01 -3.715515300821198297e-02 -1.651286403649453172e-02 8.918163979732215418e-01 7.224607871207280319e-01 9.960697063382546734e-02 -4.232819532393105461e-02 -2.793236370407823060e-03
3.616214251236576360e-01 -7.916095117348621868e-03 -2.637858506480155740e-01 6.496889721519959193e-02 3.054185665981772879e-01 2.403887736090522600e-02 2.440382283229818039e-01 -2.366872051382730435e-01 3.559766850847727593e-01 -1.835604994483422125e-01 -2.093894587468609347e-01 -2.403598432064372181e-01 8.851700621001358515e-02 5.888280914457358003e-03 -2.969936533512056998e-01 2.268655279548933423e-01 7.023593394854478478e-02 -2.611674703587851809e-01 4.656582195139762070e-02 2.109752205627312971e-01 2.151126362483711807e-01 2.935222223802928521e-01 -1.529766174608273299e-01 -1.776362901302706299e-01 3.217813971356366931e-01
-3.015429169883808713e-01 -2.542702826103516653e-02 3.877181485938587802e-01 -8.174862552251456471e-02 1.332009345680641443e+00 2.280790123990601020e-02 2.999082213391782029e-04 7.165551316581612873e-02 -2.373724637819541738e-01 3.076854532691110644e-01 1.530890236101906388e-01 -2.153399135728940872e-01 2.066678378867878862e-01 2.863177520015382505e-01 6.748124240935376994e-01 -1.146891019935994072e+00 -7.444048546986219428e-01 -1.949621559022933215e-01 3.642083874233926211e-01 3.147251426829600907e-01 -5.711394429936066386e-01 -1.183931449523704771e+00 1.568439495479358736e-01 2.643864818614078960e-01 3.062834624335408207e-01
4.110756294803663002e-01 1.213717784211053169e-01 2.806322126656067839e-01 -1.035835035160835027e-01 -9.373897021477307634e-01 1.093955294704027081e-01 6.875021324637862197e-01 1.737670231240174071e-02 -1.175386290725353999e-02 -9.049621613832575795e-01 2.977029415290322056e-01 2.130146697138753653e-01 4.387129275412751106e-01 -1.897998743180928649e-01 -1.057739760749747182e+00 3.533846885340304889e-01 3.259234746092662949e-01 -9.552709462546254970e-02 2.850044131895061381e-02 -2.559939043978188278e-01 -1.407145475254030498e-01 5.751714663878501055e-01 -1.041191088901716189e-01 -2.921184693925730769e-01 3.361138513652437571e-02
1.074182213282886406e-01 -5.397922736430815077e-02 -8.239424192486401177e-02 1.187862146313265789e-02 -8.897310176075107213e-02 -6.903605462153564187e-02 8.786602621107994504e-02 1.336507174848387547e-01 9.788939920000455652e-02 7.009321424262651701e-02 4.546064233303437341e-02 -1.677275137393661741e-01 1.575160198723718763e-01 7.362173176507984251e-02 5.786540941637750846e-02 1.306196161074476281e-01 1.390953746760316967e-01 3.008380283029773311e-02 2.556624024970249529e-02 -4.266828277766698818e-02 -1.075670064762876410e-02 -7.066736976385969149e-02 -5.726268261444999313e-02 -1.165364871298709831e-01 1.219048157278473883e-04
1.141646383697171585e-01 3.112710163741215785e-01 -1.278953615835058504e-03 -1.367955178847692632e-01 1.246012525756326067e-01 -3.407897561752840088e-02 -6.736867498481650951e-02 1.844547929895548610e-02 -1.233585093797809618e-01 1.909547596915744244e-02 -1.422883910627429672e-02 6.906773300341965439e-03 6.231944181170575442e-02 -6.896176114751927967e-03 -7.198965610079764363e-04 3.218709462998248227e-02 4.870603299191690605e-02 -1.112701868499433866e-01 -1.378955037273542072e-01 -2.738980785606208793e-03 -1.375715046478667158e-01 1.226150752077884154e-02 8.814225029048400328e-02 7.224625228770069352e-02 -1.000685073733154490e-01
3.639280393217521614e-01 1.002784632277821109e-01 5.275747309524827511e-01 -1.680785923650978952e-01 4.265358098768381838e-03 2.315784640933447186e-02 3.548356108103531970e-01 -2.105635188980935213e-01 6.113302991881992138e-02 -1.088585952112469668e+00 4.170268555682364875e-01 -1.374729868663406851e-01 3.340045984896571896e-01 8.422698243056435385e-03 -1.048618700264137615e+00 -1.168096975141625637e-01 2.115490394630499815e-01 -1.383370160478722133e-01 2.247790048989094513e-01 -2.237318243802392248e-01 3.571161861849374008e-01 -3.202076455500529883e-01 -1.167019845458328042e-01 4.281961143033705813e-02 2.067490222533150956e-01
-4.240745887507524348e-02 -5.823526907713712925e-02 -1.081196747482911641e-01 1.604642485548284092e-02 1.354917408057981221e-01 2.317272409712813584e-03 1.922853898572182973e-01 -1.242007264425362134e-01 3.308071895665530282e-01 -2.233895891443329895e-01 -1.926201796620329032e-01 1.423761356605589279e-01 1.527608333502373517e-01 2.665048990876787462e-03 -2.439838731474471001e-01 2.238323942387127619e-01 -6.722653424350656659e-02 1.170304470097391497e-01 8.560809014275820583e-02 3.050238719650034958e-02 -1.718212437395194234e-02 1.954911555129676404e-01 5.133515719563726959e-02 1.635774717950494450e-01 1.698515952993023548e-01
-2.663184743669825064e-02 -1.999777211764300344e-01 -1.145351733227208957e-01 4.601366331024858529e-03 8.268150107436329777e-02 5.298770684096092837e-02 -1.247745369267912879e-02 -2.730645500731403510e-02 2.210184248577578420e-02 7.901983552379216597e-03 1.402751903057103400e-01 1.438433794717192821e-02 -1.478793013059755967e-01 -1.275459199830380475e-01 1.515899138352465869e-01 -1.180215330140227947e-01 7.712524620914926188e-02 -2.716764190025400955e-02 -1.683139316431404506e-02 -1.344076857288742030e-02 1.214961969680938281e-01 -1.994969336723548953e-02 -3.785587354440044135e-03 -1.532113061971032142e-01 2.088245076114594520e-02
-1.176560044303194053e+00 -2.661186085272151166e-03 -4.318498128964418648e-01 -2.079239759389805431e-01 -7.758291147326200343e-02 4.651009813338691234e-02 -8.451579969654476887e-01 2.097804679553444684e-01 -3.621684079113122734e-01 1.234033424195815076e+00 -2.018462019907687754e-01 2.749899599099351888e-01 -4.134497145737277557e-01 4.890048031650915394e-01 3.223889596619004538e-01 1.361238966782793436e-01 6.396407151701233307e-02 5.517476519518992317e-01 4.565065801065436996e-02 5.500148685601494725e-01 -9.939510496539073758e-02 4.036940821565241921e-01 2.554681808706874557e-01 5.641665057308399289e-01 -2.426092663044918385e-01
-4.282648032330392540e-02 1.318227944664885076e-01 4.816676331341533945e-01 -1.531862890250819224e-02 1.363980878418143694e-01 -4.807303817058199841e-02 -1.894482712955821921e-02 1.809500543886697621e-01 -4.570989476555969294e-02 3.933733271464537884e-01 1.624742697720579498e-01 -5.635700919048610563e-02 1.542328328112806957e-01 2.522716129261422524e-01 -7.330756394080963911e-01 -4.651979603227441619e-03 -1.130536167159587428e-02 -2.144296404432577963e-01 -2.127800784241384857e-01 -5.034307820212621798e-02 -1.116895973517268159e-01 -1.936673299752653121e-01 4.058163753717228955e-02 -3.738164933027723902e-01 2.694906045428510644e-01
7.139346256229451848e-01 -7.581586954212524501e-03 6.882304215958347238e-02 2.549337628249133750e-02 2.069486227701941849e-01 1.517010337518053323e-02 3.657092460989913585e-01 -3.820042493312955645e-01 1.469899951631189472e-01 1.695422481388208780e-01 -7.479290782858080688e-02 -3.628037167383582617e-01 -1.415427819007517019e-01 -3.370596897963062388e-01 3.271271191230091802e-01 -2.173638575591349265e-01 -2.591033125762464140e-01 9.473499001206399373e-02 9.190548942823442702e-02 8.301651089968583100e-03 -1.218464917994175334e-01 -2.878689936084591894e-01 3.545527783156376955e-01 -1.009175390295306667e-02 -3.881512239011251225e-02
-2.737659409333157434e-01 3.158014467208188902e-01 -5.988127039435073989e-02 -3.563680898691522908e-02 -4.604480747103158467e-01 2.936253273855533585e-01 -9.393853855535345965e-02 1.282961542802289225e-02 -2.793077981387296349e-01 3.331633494672096019e-01 -9.372079171048151858e-02 -8.737914807888746971e-02 1.162373973506909824e-01 -3.943695487897908025e-01 2.964615261223502718e-01 4.681892674091072126e-01 3.004240008872533993e-02 8.642227546915390302e-02 -1.613969666648991386e-01 -1.488786868208856196e-01 2.945596636619778330e-01 1.195762677984323896e-01 3.822950133057607947e-02 -6.356313592941398305e-02 -8.723967818106975747e-02
-1.358111892472381621e+00 -6.587046637577823049e-03 -4.923156618435930304e-02 -5.384191888192185749e-01 4.562686581565845723e-01 1.611158815591860749e-01 -7.895110688725037740e-01 3.869268855200493351e-01 -3.152498966023054017e-01 2.659801280762490450e-01 1.640471190217837882e-01 2.675138679301675704e-01 1.048051439996165596e-01 -1.452747560460128373e-01 6.942745628373095945e-01 -9.259871246731461725e-02 3.414216800155039921e-01 8.189890859039851423e-02 3.648606044135893622e-01 1.439803966113326061e-01 -2.104377162837660353e-01 8.269288848882538900e-02 -1.204158187963308840e-01 8.429481764458117421e-02 -2.194503219479105871e-01
-9.628058019511347154e-02 1.005386004820681967e-01 -2.741114435007845074e-02 -6.814499227182876928e-02 9.576166212212192108e-02 1.535571050477174682e-02 2.379559363500138858e-02 -1.654560366087960976e-01 1.077827737321009581e-02 -1.818556554511063447e-02 -8.595819218154564277e-04 1.241023726138457683e-01 1.105890688555838525e-01 -1.265174320205121050e-01 1.128687406543302935e-02 -1.675373997882531885e-01 1.831001176057449609e-01 -1.194807830983242447e-01 4.086729058692434302e-02 4.493181424592859047e-02 2.846447562780028001e-02 -2.537351985838033896e-01 -1.844148586010753155e-01 8.932173222204341581e-03 1.079809754243083869e-01
9.766689101819657770e-01 -1.032059817332735413e-01 2.088824585737329709e-01 -2.443887917355186123e-01 -4.828400052445843138e-01 -1.725562673059043706e-01 6.523322187715554499e-01 6.363357344968462170e-02 5.000393373104139449e-01 -5.128389738396915698e-01 5.629104441043402546e-02 1.956529948739943181e-01 -1.386368154146434273e-01 1.286612016498973055e-01 -4.041761406589419181e-01 -4.684627018278672561e-02 -3.056731870183334032e-01 -2.734544845618373521e-01 -5.733722437489537915e-01 -2.060842698004843876e-01 -1.240025784399509390e-01 1.167952694654473406e-02 1.012998181160634503e-01 -4.119293475437855179e-01 3.241402125474500684e-01
