1.439086388481226886e-01 3.933024944392508188e-02 9.665347741616718558e-02 2.204606791320461723e-01 1.867605300413225089e-01 -9.777576080927431745e-02 1.060788009566331763e-01 -1.094942523354464764e-02 -9.888527965192617925e-03 1.144232357400440381e-02 1.536058450622914198e-02 1.455705945014819647e-01 6.859441388787497484e-02 3.079175027782007565e-02 4.662174993264822653e-02 4.863498502147459851e-02
1.400504877293312356e-01 -2.132181970691633330e-02 3.112133515604709189e-02 -8.680332226408686569e-02 -2.552989815834078580e-01 6.533603443802937782e-02 8.823426384059117333e-02 -7.430589461626216363e-02 2.260070078924903969e-01 -1.419332989814989510e-01 5.016406098311829327e-03 -1.566761627711012531e-02 1.484653630727498508e-01 1.468633825144944061e-01 1.527559054104432774e-02 4.138080564954222523e-02
-1.474380792007808083e-01 -1.982882162081548993e-01 -3.479121549177384420e-02 -8.844815552091662980e-03 1.230286860039773722e-01 1.202008558977719910e-01 -4.466780889704713431e-02 -2.951911620237588144e-02 -1.044625831751727074e-01 -1.227063536680517708e-01 -1.688200461872338132e-01 2.152732409231139510e-01 -7.591193409439672690e-02 -3.414691438494417419e-02 -1.229425837817749861e-01 1.055133652817585310e-01
-1.613897847557951570e-01 -2.127402802139687077e-02 -8.954665611936757363e-02 3.869024978592620206e-02 -5.108051375688730383e-02 -1.180632184122412109e-01 -2.818222833865487078e-03 4.283318705304176716e-02 6.651722238316788716e-03 3.024718977397813924e-02 -6.343220936809636223e-02 -3.627411659871381672e-02 -6.724604477759510424e-02 -3.595531615405413162e-02 -8.131462820444540496e-02 -1.726282602331676852e-01
7.012753318316804207e-02 -3.618817899468307342e-02 -1.310988304506286728e-01 7.801944032115926131e-02 -9.072983643832421841e-02 5.242586930401559216e-03 9.703821054480270270e-02 2.227669543484719558e-02 1.150951006252080716e-01 -1.455099748707518736e-01 4.319186932269097889e-02 -1.010273168565318097e-01 -9.020344284282308389e-02 -5.645454317637159380e-02 -2.540794989681485760e-02 1.850163923188676007e-02
-1.262579495660354767e-01 8.943763426780365622e-02 4.721911329664402884e-02 -1.540498207495857586e-01 1.488252193795599754e-01 1.895740523287199886e-01 1.183038929527170241e-01 -1.780115881059641386e-02 -1.070640560797427587e-01 1.103900164543017287e-01 -4.040542686001440814e-02 1.284572807983131726e-01 1.575997709267717289e-02 9.441009989878852704e-02 3.599814812555535842e-02 7.078888682082180861e-02
-6.603309833367671661e-03 1.791193342269289945e-01 1.206280860071562606e-02 3.875228186066138197e-02 1.883146876368308187e-01 -1.347922794784006673e-01 -1.286886311216212109e-01 1.004641725581869593e-01 -1.173474073554086200e-01 1.807068516466926733e-01 -4.006795152818724143e-02 -7.544014774339445617e-02 1.831969218595390636e-01 1.438255539542489247e-01 1.903186965108780992e-01 1.125155442892819130e-01
-1.220250485518097339e-01 1.916908596814937416e-01 -2.652677262229214891e-02 7.301489149436787840e-02 9.472519677737480104e-02 -1.550031927080074146e-02 6.729482800187289171e-02 9.284250937164546802e-02 3.746798188459180001e-02 -9.633846820486623164e-02 3.031126517542787058e-02 1.513674311765124125e-01 -8.180160195495117526e-02 -2.537322591131952604e-02 -4.255309851269044319e-02 2.151394604087303042e-01
4.352047178741360461e-02 4.081161760069543926e-02 -8.088206334336570102e-02 4.442037622072636527e-02 -6.743326606573761539e-02 3.107504670628754868e-03 -6.199772178104503290e-02 6.731099923541748742e-02 5.731195856219698653e-02 -3.646921960112660399e-02 3.975465052775049163e-02 -1.073265150432721055e-01 -1.521649806365628077e-01 5.124114984226033759e-02 1.626740963664113568e-02 8.010330343934295161e-02
2.071796959886497980e-01 9.586312681870166885e-02 -9.426340847958784852e-02 9.943880379961463067e-02 -1.315907410511521214e-01 -4.647055687739098939e-02 -1.754590635695500028e-02 1.728797822406042961e-01 -7.389391281196173999e-02 -7.595805721195261762e-02 -9.881288375841729490e-03 -5.998070821862093449e-02 1.006513781304247263e-01 -1.079019958311917132e-01 -1.133272426980460185e-01 -3.794323126062944945e-02
-9.517084092571918841e-02 1.915656938928128605e-01 9.371156814102216126e-02 5.300924732464288268e-03 -1.225436153593820326e-01 8.440923438500023968e-02 -1.082793843990843274e-01 -1.537356154287181365e-01 1.188834168564772559e-01 4.958923587367651542e-02 9.235349055676073116e-02 6.251237004010534726e-02 6.747306515347853417e-02 -8.523385449800047198e-02 -1.030462211900594477e-01 7.116126074194437101e-02
-8.263331145515512288e-02 -6.632970502604486340e-02 -4.235229846771190049e-02 -5.091902712488216576e-03 -3.539939112534839366e-02 -1.375324224313059784e-01 -1.091681474596631479e-01 -2.226712917071751729e-01 6.231560977827464709e-02 -1.498967367170438714e-01 -1.098815120767002995e-01 1.948129872288056549e-02 -8.382786392569617495e-02 1.132032766437658655e-01 -1.284199923334055360e-01 1.649261400346028333e-02
-1.555037913336179863e-02 -1.153653386329868552e-01 5.072975316992529154e-02 -2.136761081568219062e-02 7.717905512136674639e-02 8.232709513821023783e-02 2.269760208107954869e-01 1.333461236503244163e-01 -3.722374545670562723e-02 -4.252661198403509535e-02 1.101499925710479055e-01 6.024452514907843031e-02 6.414936285017633355e-02 -1.569092063076761856e-01 -3.060459668770696123e-03 -5.482801464625570997e-02
-2.580787752529463686e-01 -1.058954440721163182e-02 7.261246759627433545e-02 -5.137048657248501071e-02 7.864698928987422233e-02 -4.668150321769022615e-02 -3.402726871835866362e-02 -2.941302403693183548e-02 -7.513985185840814027e-04 -4.775645884188779028e-02 2.272299516396599495e-01 7.063882977274749467e-03 -1.639963255174954337e-01 6.910893820765742768e-02 -3.999098380316393891e-02 1.870635124507453451e-01
-1.059203559075838630e-01 1.145695095093770925e-03 4.548683150716966578e-02 1.896365495005876423e-02 -5.971268279123422701e-02 -2.393693979240435130e-02 -1.819255786308491829e-01 -3.427299829251701652e-02 -5.305906404988821462e-02 -4.135509944467235383e-02 -1.119658904457939835e-01 4.130217268225261362e-02 1.529869750379948268e-01 -1.598507605192157344e-01 5.382897555571881931e-02 4.649544589471621414e-02
-1.202183975389794074e-01 -4.302636487344971283e-02 -3.457668086352396614e-02 -6.439568043680340970e-02 -3.090136038107746050e-02 -1.678050347806081810e-01 1.203345242650132041e-01 1.107053222121167912e-01 -8.089367825569220016e-02 -1.909021025974516894e-01 5.370516242505447152e-02 -6.046618171804083591e-02 -9.262662058777824253e-03 -4.078903122617196647e-02 7.331051602980809268e-02 1.760439883485991897e-01
-7.984033070864718362e-02 -1.373633436150959453e-01 -1.571652097208142418e-01 5.920966703503801470e-02 -1.188859257784029011e-01 -5.075593152352170928e-02 -5.935242495935146023e-02 -5.178123033046774272e-03 -1.936952821459589913e-01 1.827524057095048643e-02 5.249603013469469198e-02 1.019364343847028141e-02 -3.347449428049865949e-02 6.500818061149193569e-03 3.954572435229868066e-02 -2.734940337568926294e-01
1.254316965171391740e-01 4.297724903302515415e-02 -7.015805976115417619e-02 -6.624461319005318927e-02 4.937417773491884626e-02 -1.195450501710944823e-02 -2.565892619351816117e-01 2.060785639159868898e-01 -1.129550595167101365e-02 7.144162391773345444e-02 -6.978412410394901899e-02 1.716079149033207241e-01 2.166552825056659165e-02 2.031776947706428332e-02 -1.053014250435449634e-01 1.542409590584404300e-01
6.105399279623079101e-02 1.287223458966721690e-01 -6.057676035334184916e-02 -4.552115555008032916e-02 2.303916697683942028e-01 -1.061133686403647192e-01 -1.684067550571989244e-02 1.147719838084447080e-01 9.581874186044682037e-03 5.764596363779832949e-02 -3.960902920102871844e-02 3.831309886245877483e-02 -1.414450732819477197e-01 1.617435450518402706e-01 -1.122067657218527026e-02 -5.903990015713477674e-02
-3.915266571045173533e-02 -4.746711869774786208e-02 -1.432131812919659186e-01 -1.752496063094006462e-01 6.939265455437393371e-02 -1.604540736184396216e-02 -1.655600380381375830e-02 1.109055394676628920e-01 -1.124169703178895946e-01 -1.063649384184290614e-01 -4.157808686896775907e-02 1.315026574056074593e-02 -3.128972119010570152e-02 2.315081130987343278e-02 -6.224103439902112928e-03 8.006407070444695323e-03
-1.676679811277697885e-01 -8.074480365754603539e-02 3.053591728416300485e-02 -1.060421175543905387e-01 -1.157362900566747815e-01 -3.098121506035484557e-02 3.951461903214525950e-02 2.365463372043880574e-01 -6.924343504015180450e-02 3.401035060446500058e-02 7.884918819173963866e-02 -1.355746548804983576e-01 5.207367887281653257e-02 -9.078691462066437734e-02 -2.571357503788248011e-01 1.741795811575567454e-01
-2.837538655722759429e-01 3.864479065317840550e-02 -7.487225327899101057e-02 1.403468341289384191e-01 1.068508764552356799e-01 -4.527129930811124581e-02 -4.089740113735079036e-02 -1.138526333759594528e-01 -4.264579112904792052e-02 -6.358114477348317251e-02 -3.684439564350737439e-02 2.717120353638086822e-02 3.820004785187520319e-02 7.301279023637766152e-02 -7.094078699978451086e-02 -1.020368804394273660e-01
1.861719545997909953e-01 -6.627024528425513872e-02 -5.899674099610131839e-02 -5.527947974338807968e-02 -1.843069550156648528e-01 -4.791033104001153620e-02 -1.466728952267445929e-01 6.259309716867797468e-02 6.965568457772582101e-02 4.356497296896537710e-03 9.383056806004802519e-02 4.105844704238063164e-02 5.835358550957374033e-03 -5.750718495733527641e-02 -1.802282906658378425e-02 -9.242761617816347419e-02
-9.996757755659189948e-02 -1.123459327907198185e-01 2.394264904252281501e-02 -1.197173812462133391e-01 8.417846569272433022e-02 -2.494779122318182066e-02 4.639454705796359352e-02 4.946587691372900109e-02 6.435885941335453553e-02 -1.941344180067805791e-01 -1.965894100692096996e-02 8.646272091147379213e-02 -1.626394676276237961e-01 8.399282559570950268e-02 -2.284081857270352789e-01 -4.905116801313286201e-02
-3.333384799236553675e-02 -1.648735447700016010e-01 -1.001700434486655078e-01 -1.547307741563025696e-01 1.648134932207559744e-01 1.634722439192701562e-02 7.324080720583305004e-02 -2.237061477634786841e-02 -3.558936457592298819e-02 -1.757006532737386273e-01 -2.865324773246765225e-02 -7.334684260916103649e-02 7.482652367053613252e-02 1.198871644518565288e-01 1.471652293239719966e-01 1.195315250976057286e-01
-5.116327853110873569e-01 -1.156672371922935205e-01 1.082099237487118004e-01 8.245414564839992355e-02 -1.768400340575212448e-01 3.568821754303375809e-02 5.206792919873175496e-01 3.075270113837402786e-02 -1.592607731310238112e-02 -1.706586565319757887e-01 -1.418771933982850009e-01 9.546947345206395485e-02 -2.029784298097812301e-01 1.895295583006981199e-01 1.937442479280689078e-01 4.761047376040271062e-01
-1.379609462063135228e-01 9.283713101322499731e-03 1.452290534253258547e-01 1.284119658795798702e-01 9.297061319782139177e-02 5.804425792137151568e-02 -1.491419724013213211e-01 3.126392324732187727e-02 -1.072578104449616217e-02 -5.927275408213936864e-02 9.181741988349949313e-02 -2.614281364934736285e-01 -1.170835377647570230e-01 1.257451704143461579e-01 -3.743283408155430314e-02 -7.500302105081170512e-02
-9.999198805748248098e-02 3.042182299590514769e-02 -9.843433722845477962e-02 -5.867474474593001310e-03 8.215857120497958854e-02 6.834487774347465907e-04 1.584389465547616782e-01 1.805487237669597261e-02 -3.771069657035183015e-02 -1.794603543475227492e-01 -8.111890926945530822e-03 3.180642555484056166e-02 2.674446160894779906e-02 8.623268985404250464e-02 5.085403069630937967e-02 -1.140003642318841888e-02
-2.145593109109684427e-01 -1.030608338872819954e-02 -1.006321563648808759e-01 5.244060424544261245e-02 4.631303293186071063e-02 2.824538600019560128e-02 7.334635056307431400e-02 2.094004122930676892e-01 -4.653263308033097484e-02 -2.806010354275168539e-01 2.025055599872095657e-02 7.404470651756141046e-03 -1.027407065872100039e-01 -1.981352321775663519e-02 -3.871606010671954645e-02 4.826552570042112744e-02
-1.709322805159312897e-01 2.438214920459500779e-01 -9.347673035483823611e-02 -1.152260909391960020e-01 -2.288620040014528456e-01 2.522869477675875396e-02 -1.664798291143061715e-01 -4.950472712931879710e-02 -2.745741375845348400e-02 -1.268622658279200954e-01 1.747492034312806142e-01 1.006669815016034419e-01 8.819111883736005519e-02 -1.908113406581112004e-02 1.143550799757267200e-01 9.134641543956349696e-02
-3.087145302759419091e-02 1.047738238038279923e-01 -9.546551389291120515e-02 -8.310434068337678448e-02 8.625960113284511510e-02 -2.654770785275704648e-01 1.479799447286143654e-01 5.609823647607920655e-02 -4.004384864573729171e-03 -1.719544394905992563e-02 -1.028141107874009086e-01 -2.123652183084636172e-02 6.011549300424170322e-02 1.819234509376702613e-01 2.705630472168659151e-01 1.099031844494917885e-02
-1.567976811046676855e-01 -4.911045300931860674e-02 -1.018585091920487240e-01 -3.651925175224030040e-02 3.827324300122681572e-02 -3.117160876948279515e-03 1.165164668835887568e-01 -2.339222836869837147e-02 -3.419087700875964031e-02 -1.013308231771049422e-01 -1.631850236563123224e-01 -1.499726880394340878e-01 -1.656398269547693369e-01 1.773088556532551319e-01 8.978865870014551831e-02 1.533130338449253671e-01
-2.183696546866569221e-01 -1.965555855389290452e-01 -7.388599807967392852e-02 -2.151517570998644907e-02 4.986902749098275078e-02 1.049265367335872751e-01 -5.622171483683566749e-03 1.741093591401888518e-01 -2.194006457248188005e-02 -1.376279336708772227e-01 -1.680736674124606311e-01 -8.163663797041034731e-02 -1.552811884301632910e-02 -6.076661648490775530e-02 9.388808423304229045e-02 1.389632941967287594e-01
-3.119013629205412697e-01 8.905448945554104989e-02 -2.256295078449343239e-01 1.532773634550014565e-02 1.224870564193659694e-01 6.590027581257225549e-03 -1.415563497182620034e-01 -5.768708240760826722e-02 -2.588018923798923732e-02 -5.485472853900941886e-02 -2.032324612517874551e-02 -3.293226695442531913e-03 -2.232745227943603444e-02 -9.119435439458399573e-02 -2.383008861439545045e-02 1.599247451858218927e-01
-8.131417784294628359e-02 -4.394784461774447343e-02 1.049484418444989048e-01 -2.795156693358302191e-01 1.181378601288285979e-01 -6.305180679668805077e-02 -2.674427699807712874e-02 9.788387813307555807e-03 9.519891612145429949e-02 -6.254194219133203669e-02 -6.779001985257021579e-02 1.286041932938297994e-01 -2.693488937996323385e-01 1.870840762751008884e-02 -1.350213021092049881e-01 -9.924650535482393288e-02
1.628502489422907762e-01 -2.279753770230971699e-03 1.627287355496763108e-02 -2.024924779317187618e-01 -7.290446587946956825e-02 1.974920726231537901e-02 -2.361255510021197795e-02 6.146255094294977850e-02 1.025130428544018596e-03 1.938151136731580682e-02 4.544537993818123511e-02 -1.823734689929600028e-01 -2.957572061900175589e-02 8.345435576457584104e-02 5.886556079922609236e-02 -7.015735323731667195e-02
-1.227379693017606882e-01 -1.112272329138185301e-01 -1.757695967424212358e-02 9.039988662539634456e-02 -1.951804101481602327e-01 -6.598820890579461251e-02 -1.673463911699790141e-01 7.828347102678590019e-02 -5.545294741989491988e-02 -8.255816095476492533e-02 -2.169859508735140496e-02 4.636502586865171027e-02 -5.994365089985576739e-02 -2.892575292811491727e-01 5.423306589992983595e-02 -5.496230104531318883e-03
-1.820738676709486026e-01 -1.124396616192950976e-01 1.483989771443089412e-02 -4.743398775436542814e-02 -4.700363860069957378e-02 -2.164916503147224641e-02 -1.935320699787065057e-01 -1.671553015012439136e-02 -1.542631600761380506e-01 -1.838533033571554051e-02 -9.425164635392094259e-02 3.812142634569222477e-02 -2.177078365666317850e-01 6.765741270104083660e-02 -1.180535272411493281e-02 -2.842032379248703999e-01
-4.830227833900331558e-02 -2.710765766998152540e-02 -1.784714885741943424e-01 -1.719934380866659507e-01 6.051200840821666788e-02 8.978663725903540671e-02 -8.456573833385047645e-02 4.508008884389270304e-02 2.358757052949745844e-02 -6.733211499207451822e-02 1.275637445927184643e-01 -1.694233485665529171e-01 3.107829663530444972e-02 4.775520771363216121e-02 -2.435788391434372258e-02 -1.004350382139420211e-01
-1.941919705408305663e-02 -1.207817527350360798e-01 3.211119256134532807e-02 1.288115992783978037e-01 -5.608188949755541636e-03 -4.086196762383979868e-05 -3.104314267725222232e-01 -2.752423559293793506e-03 4.849351224457584819e-02 -8.133478680086388135e-02 -4.384955591131085156e-02 4.337411672030916376e-02 -1.602073480581896747e-01 -4.298560009308492053e-02 9.151716259592793112e-02 -5.123283587645518361e-02
-3.020023620367182637e-01 1.335711045300031485e-01 1.048308630463906654e-01 -1.225901426764575558e-01 -1.217891201329898143e-01 -3.048148961522936795e-02 2.085955318209815612e-01 7.295853246467013829e-04 -5.955520840758006529e-02 7.729192582915246634e-02 2.855799046296351659e-02 -2.115976501537545351e-01 -1.048457449092388555e-01 1.697396617011043551e-01 2.677953913607509714e-02 1.583167134549283706e-01
-5.015330380801156229e-01 -1.264192409059665401e-01 -4.647723543519770295e-02 -2.828398659788259883e-01 -9.326459728860410359e-02 -1.259392977041446371e-01 -2.626419253135236498e-01 3.249021840287870388e-02 -4.044613063828246535e-02 -3.475883533229193190e-01 -1.793374032429179274e-03 1.270165157578886650e-01 -5.190695717053864788e-01 2.998072700877438823e-01 -4.355594354972955329e-02 -4.506840930169979664e-01
