1.195985415759217574e-01 -2.280211270979271565e-01 1.097724711740964421e-01 -3.341121418823402855e-01 1.495832560020828039e-01 -3.703845124018680379e-01 1.240246938064542281e-01 -1.592853775583583376e-01 -1.794721764009023224e-02 1.951104302407263569e-01 -8.085313728211858397e-02 -4.864935893520409144e-02 -1.451035075587678302e-02 2.089353361143006516e-01 2.414406131135967415e-01 2.706251674959898601e-01 8.151168403006962826e-02 1.478171945588802050e-01 3.366849075095430799e-02 7.886108143447156937e-02 1.956833370118830628e-01 1.345410911211562810e-01 -4.932357566510189861e-02 -2.927331468442800899e-02 5.988540136232048394e-02
-4.071064490107523248e-02 5.161474963021184248e-02 2.517339865594508605e-02 8.501448333975929195e-02 -7.817021050494438184e-02 2.333794952157569602e-01 -1.264336529172929435e-01 -3.756001313074878306e-02 9.264233259644388818e-02 3.071769719188573167e-02 8.215712843986908154e-02 -5.050001869733439230e-02 -7.326246213771092641e-03 8.413546043999044688e-04 1.580669157497646693e-01 6.892595872920634359e-02 8.042547948286553339e-02 -6.505528280879893654e-02 9.695138240295862742e-02 2.366206943770582730e-02 1.390178024855434624e-01 2.023981287790855288e-01 -3.173556521603704272e-02 -4.111983764381089979e-02 -8.732316130192008252e-02
-4.812501167032295912e-02 -7.728719746059649343e-02 4.411400041943575566e-03 -4.531718002827123115e-02 4.580108781369100768e-02 6.970285301435327763e-02 -1.260882975522857885e-01 1.129592746042573474e-02 -6.269905738402464790e-02 1.399699080147448760e-01 1.166499613827663567e-01 -5.202905610989862206e-02 7.612014324637866348e-03 7.557727823662566125e-02 -3.584052001533847426e-02 -5.384151915213135527e-03 3.538483529458571857e-03 4.789943344815481008e-02 -3.658852641028190883e-02 5.338059642782612413e-02 -2.776285164209002856e-02 -2.958025217614752150e-02 5.242500711165978128e-02 1.288390580543172792e-01 -6.365004596516901647e-02
1.406916762475341094e-02 7.546352691248908034e-04 3.061961036778335782e-02 3.353426580802779111e-02 -1.970917904312610991e-01 -1.648350490635686061e-02 3.308777305840276961e-02 -1.072652127958920454e-01 1.583449490780680924e-01 1.565425212258042195e-02 1.588814341160261212e-01 -7.928844091152753570e-02 -8.387911358339476819e-02 -1.122014043465693715e-02 -1.699260659572850996e-01 3.131581263835328532e-02 6.751928580698955684e-02 1.024196263197419410e-01 1.012918433455304995e-01 -5.349766127018501516e-02 -1.294871921515640123e-01 2.120180029209154382e-01 -8.710230812638691811e-02 -1.082630003975194322e-01 -1.163322377793978568e-01
1.117289901394112328e-01 -5.189138624313505838e-02 -7.537199724921141153e-02 1.376767197708669496e-02 -2.069614317057821493e-02 -6.781093410116958986e-02 7.539768339100981487e-02 1.065302277741310977e-01 9.853032868391935206e-02 7.669112443139246282e-02 4.026105331679370042e-02 -1.775902180019017229e-01 1.669235179708726535e-01 3.019731038696472220e-02 6.081381191954877974e-02 1.114945848093395336e-01 1.433335975660649797e-01 4.187548624812407333e-02 4.355307554884563920e-02 -5.992396718563407915e-02 3.307267430210107575e-03 -8.541774931689290196e-02 -7.199538734262798945e-02 -8.935886128750161750e-02 -1.560380804331483635e-02
1.049164306246401362e-01 3.170759137034843134e-01 1.892689977620316474e-02 -1.348616018379389381e-01 1.264932265873897066e-01 -3.010027077491422842e-02 -6.605938192410690246e-02 2.096521335219875617e-02 -1.240741245657901171e-01 2.223694540405066547e-02 -8.857317166609448428e-03 9.816225065188142682e-03 3.828184666737404623e-02 6.782970395058045450e-03 1.692506638096012098e-03 2.842463336336097796e-02 4.153178248291698044e-02 -1.031673129902680869e-01 -1.429604757454883412e-01 -6.186352188833575509e-03 -1.432836996344463987e-01 8.739862985894145120e-03 9.389181147058213439e-02 6.068962568778482614e-02 -1.048383686041829271e-01
-7.300096529197475093e-02 1.660196265333712187e-02 -3.152083015819147349e-02 -4.671803784726803743e-02 5.930816288631785005e-02 -1.068011904853181787e-01 -3.498132167794985870e-02 -7.779535874423380848e-02 -8.837831182480836156e-02 -1.162463910419049284e-01 6.538729242208358994e-02 2.495355463892223995e-03 -9.626420581825333167e-02 -2.980920153145509219e-02 -1.865438251993348229e-01 -6.384117598640669244e-02 2.220575167005114092e-01 -8.706930430746117472e-03 7.276530138058626140e-02 -3.438035732311496475e-03 6.237432252620609546e-02 7.221014266043998542e-02 -9.825082733732397322e-02 -2.858643823594086714e-03 1.604873729642019298e-01
-8.035086958260624634e-02 -5.825390998398622538e-02 -2.881266646209304158e-02 2.517120631433176006e-02 5.354668101258441837e-02 1.249823603058332483e-01 5.058845518357082266e-02 -7.609451964630579122e-03 1.240521657350839024e-01 7.282612833963496290e-02 -1.500439895961050429e-01 2.507909743682826820e-01 1.773537778268158838e-01 -1.458196626344586584e-02 3.747385333727219076e-02 1.318676382376127720e-01 -1.725699719315406527e-02 7.297854024504120407e-02 1.103137941219247409e-01 -9.495826456323332165e-02 -6.008101068433861769e-02 9.135756582617571286e-02 4.495369078490239756e-02 9.286493518531481473e-02 -1.455933635799583001e-02
-2.851772812087804282e-02 -1.999514689971645942e-01 -1.146695790361691170e-01 4.622500350590330077e-03 8.231175843921276214e-02 5.302851931327341728e-02 -1.274076899932820306e-02 -2.720371240719699629e-02 2.161795496687194534e-02 7.979404652217900185e-03 1.403520200428213238e-01 1.454359089727803346e-02 -1.481455788889963487e-01 -1.271838299249761772e-01 1.517097036235992014e-01 -1.171716182528212552e-01 7.676270649506350408e-02 -2.691105646853135178e-02 -1.674718419482380122e-02 -1.322304422410577884e-02 1.222159388938452718e-01 -1.941400571376541637e-02 -3.427588180892211442e-03 -1.531355267560686739e-01 2.056453330685366343e-02
-3.279751874743874751e-02 -1.417997780737648705e-01 8.866642501651500474e-02 -1.310196508612110067e-01 1.916533827268321333e-01 3.542790464121058774e-02 -1.807405149501182806e-01 -1.214633472623889987e-01 6.768038475937500353e-02 3.235349635020141612e-01 6.546559343514175844e-02 6.554541004961735029e-02 9.670997487065770282e-03 2.465722267504108778e-01 1.695205614483444034e-01 -3.518983237533765407e-02 5.256308095630417287e-02 7.905875980971027728e-02 -6.901698853341853290e-02 8.514338149834153879e-02 9.888092149847506340e-02 2.312088202766487688e-01 -4.310490919260803050e-02 9.303050537649228124e-02 -6.215777414698980818e-02
-6.437978505672405094e-02 9.801268529962620102e-02 1.921649598803090442e-01 -2.723544482820308092e-03 -2.958548781055479054e-02 -3.693154619425501051e-02 -1.896215279284902966e-01 -1.925963903737067454e-02 2.329241756930509888e-02 1.146940457667032648e-01 9.428391813600861537e-02 -4.347569124540466567e-02 -2.105860231982150180e-02 1.110706804135350168e-01 -2.024138559814587721e-02 -5.186751791813220408e-02 1.396625144303172139e-01 1.030240733647620338e-01 9.672681371213560138e-04 -5.414730428349815577e-02 -2.018213322962036094e-01 5.817413805029644780e-02 -9.138019272010870775e-02 -1.960253256474680239e-01 1.574459591938904557e-01
8.617275323039039203e-02 -1.193389494826634090e-01 -1.078915246694311797e-01 8.087613404572432940e-02 -1.010638134852227948e-01 1.272902591066778777e-01 7.632228715875637171e-02 5.585759419677659848e-02 5.313368937409172765e-02 -4.370214975683951904e-03 7.897234151071208519e-02 -5.061841707085038000e-02 8.263076300674973909e-03 6.410003537016537023e-02 4.989288252613981178e-02 -1.043154419491557627e-01 -4.709869824142954436e-02 2.143927179956163845e-02 -4.532118830195057402e-02 1.807999875188578409e-01 -3.460742816408512307e-02 -1.006400703107655087e-02 8.357592605047289847e-02 1.903328370454576007e-02 -1.268101532759710777e-02
-7.213901615002246692e-02 -2.084330005642324839e-03 8.920060056840754814e-02 2.060613699895684839e-02 -4.653196125314148363e-02 1.460750040933399829e-01 -1.399893162492233667e-01 -1.689435127786425017e-01 9.585441225134512522e-02 7.582097796734452166e-02 -6.492524396656716712e-02 -1.237863642311484158e-01 2.459062064764823696e-01 4.526053051131691263e-02 1.374141764204292737e-01 2.418673619465702002e-02 -1.055027909482362299e-03 6.373195771814284261e-02 4.331489528308864884e-02 -2.716111895327964765e-02 -8.064857177006834466e-03 -1.882190271656199176e-01 -7.204102979863689915e-02 7.199186628735385583e-03 8.598163486437364333e-02
6.746114856523547504e-03 -1.843492340324637824e-01 -1.392302336810987418e-01 -3.979962475067989058e-01 2.120549412903272868e-01 -1.554116507217332688e-01 -4.111481157264182396e-02 -1.565531142636727296e-02 -1.360168060611821050e-01 1.326460972865770860e-01 2.046002325039099901e-01 4.702631133868489383e-02 6.250841400669472636e-02 -1.052993667287217411e-01 3.088867729055438383e-01 -2.014200710005696893e-01 1.741946039398212243e-01 -1.532592246521158330e-01 1.502086667983614787e-01 1.645457834068290159e-01 -3.079174053861296126e-02 4.381316437268338582e-02 6.504941388992920015e-02 -6.093382764190556633e-02 -1.960084332961803122e-01
-1.335784895572336151e-01 5.071168626729286727e-02 -2.304008082832331890e-03 -6.063549228594782708e-02 9.674913798765419348e-02 4.673643064368238065e-02 -7.191986383322983289e-02 -1.237314894992699310e-01 4.771840141100224669e-02 -4.989615252156640035e-02 9.676562459611870795e-03 1.533375136051761400e-01 5.626164450959705854e-02 -8.235209127953839470e-02 1.653356155769989191e-02 -9.547240518588716307e-02 1.614031293465492400e-01 -5.627367022852785422e-02 2.093428870935081301e-02 4.168103629527180470e-02 1.552940657187033488e-02 -1.979135737877097956e-01 -1.484180950240853447e-01 -4.516162488038893280e-02 2.884559018169452829e-02
9.037746451593431374e-02 -1.578414546661013051e-01 -1.212957783743913859e-01 -9.864127915942248748e-02 -6.018571204832829508e-02 2.957738419446833897e-02 4.267497396264313680e-02 1.018837308052570195e-01 6.136213635111476689e-02 -1.663085873215245647e-01 -3.411308936500057759e-02 -5.007513970603101605e-02 5.724453716713280571e-02 -8.022866797096787905e-02 -1.156089263426734459e-01 2.497983930892127072e-02 -1.543615887659983976e-01 -4.256880420408665905e-02 -1.178122577065016524e-01 -6.148100892779793936e-02 -8.085243639696867296e-03 -8.052346715512746778e-02 3.503296056964638749e-02 8.075405201959066914e-02 4.451986606199687113e-02
