1.743784338803365530e-01 -3.217588369576734886e-01 -1.685633860164996722e-01 -5.033214635756870781e-01 9.804978453986623599e-02 -1.979511751011174270e-01 1.592301842673293499e-01 3.193495807729986313e-01 4.255713028560657168e-02 -1.968624518583456384e-01 -2.550892615912095721e-02 2.021615179514658633e-01
2.909627832881407916e-01 1.462089721458836422e+00 -1.676071557476361759e-02 6.110502787092164656e-01 2.241004245085952418e-01 1.463338227480721621e-01 -3.852892484828570052e-01 -1.107163596551007101e-01 1.220472648945540639e+00 -8.887202573536308325e-02 4.804683340312040363e-01 5.166336791338691503e-01
-5.193323268658245340e-01 -6.698822928031568091e-01 -2.226233761645886322e-01 3.881598372009151254e-01 5.730081833421021287e-01 -1.080795602105342756e-01 -2.682033086025023549e-01 2.577499450844307136e-02 -2.568504045024177507e-01 -1.822447837899429310e-02 -4.085954849113324627e-01 -1.198179105918538045e+00
-1.129505784542759322e-01 -1.280611380774866748e-01 -2.868967699269489233e-02 5.715839310570623999e-01 4.354275848404690064e-02 3.955718334565698491e-02 2.807632859223527233e-01 -1.947187795678365918e-01 -1.284305754420145551e-01 -6.319037634128649161e-02 -6.311707487333928501e-02 2.217245020938670153e-01
-4.927616438280774114e-02 9.525047507280318126e-02 -6.856432705276196971e-02 2.304081595181377007e-01 -2.637429986324624220e-01 -1.038185793293419645e-01 -1.378002548869139143e-01 -6.048849655347875165e-02 2.253928232880503535e-01 -4.459542645585702451e-03 -1.639955398279656917e-01 -4.694669675455654390e-01
-7.534868569981942321e-02 1.433168403625672584e-02 3.508142513464665435e-02 6.995966958139351877e-02 1.742641856392466125e-03 5.528984989726842825e-02 4.493392748703650685e-02 -1.846262178029505763e-01 7.399644236764099138e-03 7.688797598884312967e-02 5.100806517686403557e-02 -4.702593329337558664e-02
-4.723909891514304071e-01 -5.453235319695308725e-01 -9.028825052027549675e-03 6.463433811122948347e-02 2.438319710375564109e-01 -7.320180354388496902e-01 -1.068854685079099892e-01 3.371068585758078551e-01 2.490093750215774948e-01 -4.706376581547914301e-02 -3.402217548759951526e-01 -5.607853577640058429e-01
-7.399596813577616339e-02 -6.483818091755195745e-01 3.394535279416553003e-02 -3.487166486907207763e-01 1.913940232571132924e-02 9.457113561448743377e-02 1.001036521365004373e-01 1.017468593943661459e-01 -5.175767185950779226e-01 -2.160191120399558573e-02 -2.261254492008436257e-01 -1.607630500192972489e-01
-8.049535679284975931e-01 -3.135060232174252115e-01 -1.091699104480713250e-01 -3.632491075028788097e-01 -3.119098221937685600e-01 -3.687429055644707021e-01 1.084216777858040548e-01 7.249797336664365321e-02 -1.315185146403351213e-01 -3.780367315178975035e-02 -2.608174539079294862e-01 4.028410329303841464e-02
1.118894322197996477e-01 -6.567612437604980480e-02 -1.388938144092937386e-02 -1.678490233953237876e-01 2.283001261152285133e-01 4.274571054561200623e-03 8.738470021703011181e-02 -1.139431412652791159e-01 1.226815970769786629e-01 -3.820089555778202750e-02 -1.511573008758383407e-01 1.463268238231871937e-02
-4.689145971423790138e-02 -5.504658562018076573e-01 1.575025705134853668e-02 7.219747262297541157e-01 -3.566260020245486106e-02 9.374616732012074766e-03 -6.920335920910500316e-02 1.245024656521627991e-02 -1.742203409829246874e-01 -3.702424407043429511e-02 -3.807146115858345975e-02 -1.423188849862094263e-01
-9.292905553504426930e-02 1.144218641174978707e-01 6.616610843643180861e-02 3.394791548200873921e-01 -1.092422579181269275e-02 3.782991004446600303e-01 1.012959479068474278e-01 -1.730822612205172584e-01 -1.409346285883730787e-01 -3.045026909038417093e-02 1.578737303018266369e-01 2.537615688478367035e-02
