1.188082108275171217e-01 -3.371754195146555166e-01 1.207682460514993006e-01 -5.171724256008893850e-01 1.889488938212431635e-01 -4.697072186083998679e-01 1.772777606160060859e-01 -1.885708176488973820e-01 -3.444323817194449439e-02 -4.241204368832490051e-02 -1.201357350211763320e-01 1.892731358245425960e-02 -1.158503904512730581e-01 2.610949961651442552e-01 3.543838057620671278e-01 4.172116531539207807e-01 1.035715233921017803e-01 2.081899614990483094e-01 -1.866269195281317420e-03 1.081662966393303338e-01 2.861209289138442746e-01 2.273621148898557209e-01 2.343699428727236134e-02 -7.957063871488204154e-02 1.113341729040111944e-01
-3.973510216539746787e-02 5.145914819343799795e-02 2.538826819455215766e-02 8.458642014717390745e-02 -7.748884110988318863e-02 2.332303951784225615e-01 -1.259372843436979694e-01 -3.655343172385652067e-02 9.195717473832894229e-02 3.284652332469685521e-02 8.132386304530557497e-02 -5.097326886461020501e-02 -5.764680896764036618e-03 1.137110372102505262e-03 1.577640104231165519e-01 6.912925433537456255e-02 8.026540528000367103e-02 -6.608644389616677439e-02 9.580044146563490570e-02 2.334076672302761932e-02 1.394265386986019151e-01 2.021256697513994505e-01 -3.248390366485676833e-02 -4.236701556163935400e-02 -8.733727423863975325e-02
-2.214097929793712172e-01 -1.154058065415170392e-01 -8.498638921426808490e-02 -7.380114481604328758e-02 2.298579689093062095e-01 1.959345661941389038e-02 -2.983595380044553602e-01 -8.637231353202712292e-03 -1.183189648592684190e-01 3.225771806602029668e-01 9.314615014660020120e-02 -2.350227671706107621e-02 -1.602806892868809674e-01 2.582314281044590376e-01 9.929694622376213087e-02 -1.445431155929102207e-01 -9.478385841085153196e-02 8.490021277791634513e-02 -1.136366146684877759e-01 1.833677286941060025e-01 9.281305771079037537e-02 -5.357045440420184212e-02 1.222246199585055315e-01 2.584426962912060310e-01 -1.064647087167853862e-01
8.704030100870320530e-02 -1.531222534425335201e-02 1.800884101358890821e-01 -2.764690370262336966e-02 -3.859412879629158799e-01 -2.534296864590374239e-03 1.703218128428202749e-01 -4.541284874340044408e-02 4.497649674539733883e-02 -1.901491388676775363e-01 2.565879505924322235e-01 -1.128399143883586364e-02 1.005832054564010369e-01 -2.591880322987298868e-01 -2.486980159106476629e-01 1.433044475396357542e-01 3.802760838210456629e-01 2.481477989747049931e-02 2.564932213604247391e-01 -3.079769127594613742e-01 -2.175361171997664822e-01 3.633795986493285057e-01 -1.954948686771982302e-01 -1.684407762770358807e-01 -1.325769022715430623e-01
1.115862126052482028e-01 -5.196798989190577756e-02 -7.487078080028404525e-02 1.370506053085895903e-02 -2.044232900945599368e-02 -6.790537322660798736e-02 7.605604670379163823e-02 1.079564048457597875e-01 9.844318529742202006e-02 7.685625894294625948e-02 4.009011865831203780e-02 -1.777445760654052243e-01 1.668968372719518145e-01 3.005596345673159850e-02 6.077103891910249495e-02 1.115303683856810196e-01 1.429408338661002087e-01 4.159576250999290348e-02 4.338317509585219722e-02 -5.993858327111173390e-02 2.919084159317447864e-03 -8.560133163578825810e-02 -7.213644062391853795e-02 -8.967442212397097601e-02 -1.575924494887393293e-02
1.052607069802339174e-01 3.172643976943528288e-01 1.911776987050029658e-02 -1.349926341990630163e-01 1.263944281477857312e-01 -3.005955799296055816e-02 -6.572423272581970344e-02 2.111145055382839322e-02 -1.242395521944925363e-01 2.218088657813747575e-02 -9.181825706152089289e-03 9.846811528338808919e-03 3.822644211869334618e-02 6.884755288023933044e-03 1.649560212807368951e-03 2.882020477906383632e-02 4.113144264048985282e-02 -1.032906522828983126e-01 -1.435316804336880803e-01 -6.440762854924339705e-03 -1.431451818764742090e-01 9.695138932824209216e-03 9.371505193905063646e-02 6.032674766529428495e-02 -1.049427258913094713e-01
-5.271135290487901498e-02 -9.496910632579841707e-03 6.920531693327007516e-02 -9.954533898278644655e-02 -3.785071566918479791e-02 -1.151096901907850689e-01 1.762104867217818491e-02 -3.977371206760010186e-02 -1.525770829614662982e-01 -2.385058456702789376e-01 1.561475583962624314e-01 7.240601226135919000e-02 -2.769273860892221620e-02 -1.523530844556156283e-01 -2.592766355123936606e-01 -2.828014037730649036e-02 4.166157723783459610e-01 -6.291801058412471725e-02 1.384293123432426831e-01 -1.621354431981175126e-01 1.062439402385930709e-01 1.527743548494017722e-01 -1.407679913566847463e-01 -2.759603940514498283e-02 1.456795932317164199e-01
-8.020447408407635481e-02 -5.828519680539556019e-02 -2.858300662922844126e-02 2.512950114065405985e-02 5.347777754719679200e-02 1.249204805826599068e-01 5.088514904518980086e-02 -7.626276209346622044e-03 1.239723653881365933e-01 7.304502856127992327e-02 -1.501920401867927746e-01 2.507492605411408837e-01 1.776186065430973293e-01 -1.463123161365065608e-02 3.724843792866680547e-02 1.317732051676907823e-01 -1.753543744416828296e-02 7.295765895020411840e-02 1.101933043857397654e-01 -9.481866503441944982e-02 -5.982815053864452143e-02 9.129521242918089974e-02 4.488306948617616643e-02 9.269569302470177796e-02 -1.452696800319999010e-02
-2.716402616898778988e-02 -1.999648891202085721e-01 -1.146911153963730001e-01 4.610704539567234833e-03 8.217169896330492329e-02 5.300865263748056472e-02 -1.276890135323969708e-02 -2.724743521357338161e-02 2.149128543037525860e-02 7.912323850753742380e-03 1.402997078187443458e-01 1.449017543631018513e-02 -1.482022951540880040e-01 -1.273146140562607942e-01 1.517784648471325326e-01 -1.173834207126000645e-01 7.722772402401252567e-02 -2.701186804633147129e-02 -1.679570025269297440e-02 -1.334773006373059061e-02 1.219884845310714172e-01 -1.954424717103761533e-02 -3.549863380395599458e-03 -1.531850367228420051e-01 2.045786154951750868e-02
-3.292292167657246971e-01 -1.941421501372465885e-01 -4.627915273049210826e-02 -1.897718564906573091e-01 4.173553552841265946e-01 -4.606633926932589967e-02 -3.958166364674005067e-01 -1.451691426462856371e-01 -9.265992542744974636e-02 6.503347652780051558e-01 -1.148947388960906875e-02 7.884420832835846438e-02 -1.498335642977064175e-01 4.438902659797811512e-01 2.123683158251527536e-01 -1.039126659797724311e-01 -1.448685501388642105e-01 2.410255028850190051e-01 -3.895987024626691025e-02 3.066493284493141402e-01 1.895647747334356648e-01 1.639111953804275879e-01 -5.349509186837777793e-04 3.968435522935573334e-01 -1.257207639424622048e-01
-5.761267470603543411e-02 1.052664699246225605e-01 2.157339016579477298e-01 -6.490944356085638633e-03 -3.671616688100989845e-02 -3.711800336035107895e-02 -1.630675122561579538e-01 -1.885693018832887424e-02 6.788507413728192379e-03 1.535794616640102084e-01 7.361265344149720002e-02 -6.939697244845302593e-02 6.164021153831229782e-02 6.543042241508414958e-02 -1.369645561610365880e-01 -3.878409564289535261e-02 1.268269635373584225e-01 1.134834695125891274e-01 -1.234350425749852938e-02 -1.667122129957460466e-02 -2.075073091981720630e-01 5.303804013935680545e-02 -9.421755671392997855e-02 -1.609635274978047093e-01 1.515846514257048749e-01
2.183706561238239474e-01 -1.294639648258908982e-01 -1.290161433979103156e-01 6.464246359655750895e-02 -1.177851950589904190e-01 1.120911519583158156e-01 1.468380830399494685e-01 1.569224105055727625e-02 1.645693427453573665e-01 -1.097196551789186847e-01 4.896179055010577326e-03 -1.018690609035416139e-01 -3.739505250506895001e-02 6.795524699566339588e-02 1.564096058364951303e-01 -5.577601963046389943e-02 -1.103639990697312528e-01 8.323106854162513543e-03 -1.478933636733577306e-01 2.484536181253360343e-01 -2.266491836380755964e-02 3.347805305807659282e-03 1.773226575867160593e-01 -1.057983142774565344e-01 2.719235180578902233e-02
-5.376979879549180497e-02 8.490822555601842611e-03 1.178276728004235829e-01 3.780404694238518899e-03 -6.742883344421196634e-02 1.414668367917200908e-01 -6.837383048068765290e-02 -1.538633845992528337e-01 5.835194044427164523e-02 1.118209273224315403e-01 -1.213138552181970004e-01 -1.952818241942463895e-01 3.285135798041688426e-01 1.755969822687787965e-02 5.379514748172573024e-02 9.604537779061141090e-02 -1.086229011381514425e-01 1.121529990435494034e-01 5.974291960000227553e-02 4.463500904327027258e-02 -4.857538289114476937e-02 -2.473039469264371459e-01 -9.170486928667695437e-02 8.655660478090357324e-02 8.111033693291105906e-02
-1.606671773786322033e-01 -2.333446860546089519e-01 -1.399435822298385756e-01 -5.010734570923471853e-01 2.702218000372327844e-01 -2.106028712606509146e-01 -7.100921174112560796e-02 1.636823457306051804e-02 -3.179693984644780258e-01 2.363000130017562928e-01 1.820570917758239371e-01 7.296776545843514095e-02 1.180583275357111050e-01 -1.457042095692369366e-01 2.734053037555205234e-01 -1.364297055052469398e-01 1.328049112396478271e-01 -4.306106419433106125e-02 2.789294615635366514e-01 2.059997374309453233e-01 -4.216963997220052329e-02 2.336826218907077715e-02 2.349370729045250836e-02 1.628229074057120918e-01 -2.400289620587166828e-01
-1.333930787277572694e-01 5.081870891423570513e-02 -6.571106733430520262e-04 -6.079366289134047890e-02 9.488666408052291723e-02 4.661444230532656163e-02 -7.108724860661884415e-02 -1.239061378830428328e-01 4.736566025276161412e-02 -4.243511892685785519e-02 8.646426251568091470e-03 1.530428080786540579e-01 5.580655519158091160e-02 -7.648312424041099622e-02 6.474331818635668638e-03 -9.362163751706897852e-02 1.595763868511721750e-01 -5.521564542352075389e-02 2.049802733582267722e-02 4.071593899209345613e-02 1.408087785634499177e-02 -1.980906473953701619e-01 -1.488149952575392732e-01 -4.578280625521333885e-02 3.021581924959934606e-02
4.155103397885651084e-01 -2.093498253402913678e-01 -1.867292985327404231e-01 -1.902273014404738949e-01 -8.282120733724672446e-02 -9.833406945408849562e-03 2.228294528821881948e-01 4.006702362156858155e-02 4.020271978168472038e-01 -3.787722524930451362e-01 -9.697477325721486074e-02 1.121159787526266466e-03 -2.800295574359167039e-02 -5.592158977177245222e-02 2.053515189139265562e-02 5.844872402196394506e-02 -2.196919120223241872e-01 -1.313507392570734122e-01 -3.825009695027790091e-01 -1.124768466691646596e-01 -9.400557290461554472e-03 -4.911384059764656307e-02 2.455048328680337621e-01 -2.630602675132868162e-01 2.194598006394906098e-01
