2.143444017938917756e-01 4.052105032275454821e-02 5.978710100825838231e-02 2.402931274664009964e-01 1.866994365259936617e-01 -9.624584675229166941e-02 9.593452498495694258e-02 -1.488199765676221850e-02 -9.625795258013561395e-03 -8.532427662120276035e-02 6.661971790484932932e-02 6.185248897089178077e-02 9.863508620958948148e-02 -2.174408755505364554e-01 4.219633939977318615e-02 1.730923138254945592e-01
1.408398042234556280e-01 -2.182165455080076547e-02 3.191321417197346983e-03 -1.017416381017891003e-01 -2.545136797166826503e-01 6.511555863226224650e-02 6.310026106792306078e-02 -7.431118695711035060e-02 2.246440478067559254e-01 -1.246755448050388959e-01 3.723670896920958789e-02 6.152363515127114851e-02 1.532317037745782040e-01 1.148523447171794915e-01 1.076974074484518019e-03 2.486532096633561895e-02
-2.151811703687436794e-01 -1.984053157966351177e-01 -1.125533120768520551e-01 -8.519979655960753517e-02 1.230092388331413406e-01 1.184308579762369112e-01 -1.626816821317095263e-01 -3.207935800928906483e-02 -1.043077653205043004e-01 -6.914963190014661309e-02 -9.803637678427104540e-02 4.049366944686695335e-01 -9.647746083378073989e-02 -2.159209171292255092e-01 -1.385031873539028791e-01 1.732752703132448835e-01
-1.613897847557951570e-01 -2.127402802139687077e-02 -8.954665611936757363e-02 3.869024978592620206e-02 -5.108051375688730383e-02 -1.180632184122412109e-01 -2.818222833865487078e-03 4.283318705304176716e-02 6.651722238316788716e-03 3.024718977397813924e-02 -6.343220936809636223e-02 -3.627411659871381672e-02 -6.724604477759510424e-02 -3.595531615405413162e-02 -8.131462820444540496e-02 -1.726282602331676852e-01
4.537852168433764155e-01 -2.800198913860883765e-02 -2.550551479766688390e-02 3.227793631458989454e-01 -9.262498268267425894e-02 1.053564362741378491e-02 1.563211704713849404e-01 1.145141762887479965e-02 1.159777166071444127e-01 -1.862030334698649148e-01 6.561333649879097507e-03 -5.118646014808064804e-01 -8.697483444387670015e-02 -6.095082930746681393e-01 -6.391108802857532745e-02 2.975029135908733302e-01
-1.274644156319766353e-01 8.988103851824268131e-02 2.545206497577496771e-02 -1.542114145889761090e-01 1.498707532729066372e-01 1.894195622490120468e-01 7.561645992336020472e-02 -1.976637260764721807e-02 -1.070640560797427587e-01 1.271857281828225883e-01 -2.099549178152293472e-02 1.718052928127080936e-01 1.906456476997119703e-02 1.625742261179539613e-02 3.329822435527241692e-02 5.786342671833410306e-02
1.060035923700328314e-01 1.812234588761257315e-01 -6.969259683454191896e-03 8.448363383134893656e-02 1.878415241137924296e-01 -1.335445996932780877e-01 -1.592416432920720493e-01 9.817517592153958417e-02 -1.178614531699719720e-01 8.733721736347345443e-02 -7.042062533215481292e-03 -2.014625236253654583e-01 2.065692722621277344e-01 -2.123395128471838034e-01 1.897654353781519088e-01 2.746914860804696712e-01
-1.757110647862398511e-01 2.033356456288679670e-01 -6.213126608088159059e-02 4.614278145526969771e-02 9.430772526639487341e-02 -1.176379069226028175e-02 7.856804622412631722e-02 8.396533655063144475e-02 3.746798188459180001e-02 -6.245981360298639984e-02 8.101194777428957772e-02 2.726127919472771666e-01 -8.224675855109196687e-02 -1.650924496952449472e-01 -6.680353767388530484e-02 3.351193076096736778e-01
5.255120931210274793e-02 3.985637208611850224e-02 -8.695733461003382625e-02 6.758738052955937103e-02 -6.761089147995448523e-02 3.195316912855772871e-03 1.217849954705873573e-02 6.725951344719693914e-02 5.694819383762578235e-02 -1.235404792152799136e-01 2.884734013146775591e-02 -2.449748759102179096e-01 -1.499746997398496706e-01 -1.672979319480110971e-01 9.341751893009319838e-03 2.411212896653224802e-01
1.513341404966286885e-01 9.791600876331764403e-02 -1.231841245563222720e-01 6.336674704246231249e-02 -1.317317581635812640e-01 -4.560538163969201503e-02 -6.919060925219586156e-02 1.689524940401795072e-01 -7.389391281196173999e-02 -3.551038757449143796e-02 -1.904728005028814841e-02 -1.717620353976050465e-02 7.714593549031532882e-02 -9.355876248171800247e-02 -1.089788588169009614e-01 -5.547166839286873236e-02
-1.739340210204509685e-01 1.966327903777676522e-01 4.062355384343250414e-02 -1.766697296680773280e-03 -1.247991824984762410e-01 8.706020903101015229e-02 -1.327615037146170629e-01 -1.641739907320682590e-01 1.197287291872013298e-01 9.493170458008058643e-02 1.372714058486647903e-01 2.357411625565456748e-01 4.216616200155900995e-02 -3.355993873788583604e-01 -1.132822193666691429e-01 1.583609393448938141e-01
-5.302249807136263926e-02 -4.967481548895673338e-02 -3.040373168035548357e-02 2.095273422834637023e-02 -3.761962932434919499e-02 -1.312554382279593479e-01 -2.419732014953951127e-01 -2.319405238973358818e-01 6.233460062788971634e-02 -1.174403449248665188e-01 -7.944748631763501323e-02 6.794132604964599198e-02 -9.850047051324234415e-02 -1.505666799530658573e-01 -1.474530367898688465e-01 5.114480837180787609e-02
-2.257728089769295374e-03 -1.146428679855833743e-01 5.184304128760153230e-02 -9.129585557893046821e-03 7.728669051807710022e-02 8.254041925876796915e-02 2.963476035011922693e-01 1.330952080402243998e-01 -3.753316384903352537e-02 -1.141733510739887658e-01 1.099713990467544866e-01 -6.387617032850871623e-02 7.075055180325416637e-02 -2.336923910666673376e-01 -4.608674462575792011e-03 5.249636054208497993e-02
-4.748160934578165016e-01 5.606249404291566152e-03 -1.711173602777754377e-01 -2.681254791767366252e-01 7.768857604271119099e-02 -4.203843437259376092e-02 -1.466798234728413919e-01 -4.158660008864453750e-02 1.499152863584105608e-03 -2.034409535684872372e-01 4.329777134055460275e-01 1.707384819656564134e-02 -1.629618252908343889e-01 -3.915266828017302525e-01 -5.013925405841757749e-02 6.591321787150228317e-01
3.511511605922261747e-01 1.011363528053929421e-02 -2.778499999794918629e-02 6.812276928843138957e-02 -5.639826580663871020e-02 -1.853358150731983928e-02 -6.812019688008392748e-01 -5.368267980573929871e-02 -4.996480245485259569e-02 -1.496639214422246511e-01 -1.009373644472583015e-01 -1.296241516630162183e-01 2.143730962146277452e-01 -7.014509699920044028e-01 7.184301916660991438e-02 2.082277297754218590e-02
-4.935080074971348596e-02 -4.510558912320248443e-02 -1.297992846038986958e-01 -1.469140603804403589e-01 -3.140340491946177343e-02 -1.673455918233908157e-01 1.439052275275473462e-02 1.048910244541611525e-01 -7.931372553567125894e-02 -3.163373098507765713e-01 1.517845336132426504e-01 -2.596125464023339990e-01 1.001975737692296399e-02 -4.461300504487211716e-01 6.910867007330334655e-02 5.300557845569980886e-01
-8.597442987897464806e-02 -1.368167480403083003e-01 -1.623373181343225335e-01 6.603285537182709830e-02 -1.188860824858433696e-01 -5.058700281100398516e-02 -5.700165326333635207e-02 -4.494681275878604186e-03 -1.936639605168532230e-01 1.911723971653936024e-02 5.856060947987638821e-02 4.236743825159008242e-03 -3.649065480375502518e-02 -6.775276110132590068e-02 3.986023116750227885e-02 -2.355189970089048568e-01
3.095053598922761773e-02 5.742596204382601627e-02 -1.685458164024103422e-01 -1.375166316135875144e-01 4.641268834121290571e-02 -6.628567190144664042e-03 -4.719617976328790432e-01 1.960887891167588937e-01 -1.126304110083746826e-02 1.636436939946820171e-02 1.553336665832016905e-02 3.003593912658726328e-01 3.411344984720991735e-02 -3.797303124471074764e-01 -1.213265682258237027e-01 2.491301117865638015e-01
7.961838376026889041e-02 1.276215515744076046e-01 -5.953665059724925351e-02 -2.636652386446079049e-02 2.302370743673928799e-01 -1.065381027793761010e-01 -6.458699057242374419e-02 1.137348072103656765e-01 9.241134164611062435e-03 7.191336104864387568e-02 -4.657305168995442418e-02 5.985861018829935314e-03 -1.506948266276082471e-01 8.569732187860877592e-02 -5.709092165800073136e-03 -3.185280288157687351e-02
-6.449049805168707850e-02 -4.475063269012603817e-02 -3.224784511435292989e-01 -2.486184768388267075e-01 6.913056243596839290e-02 -1.458542404292962301e-02 -1.855699691135101193e-01 1.068767416529616682e-01 -1.119209043859508146e-01 -2.325767050125698843e-01 9.327383564068041089e-02 8.819421882531473800e-02 2.455732198339544148e-02 -2.598560549850468249e-01 -4.535369748461511551e-03 7.524433758027024299e-02
-1.763095863569467403e-01 -7.638549571533952143e-02 -5.962299125243674530e-02 -1.831318306142772079e-01 -1.150964050175736497e-01 -2.791468667196542880e-02 9.120278353002364211e-03 2.334465209137998321e-01 -6.917954887075360160e-02 -7.214799974918470471e-02 2.157760394729459630e-01 -2.353477117633981097e-01 1.071885724673663082e-01 -2.882339150714295362e-01 -2.371105772649083343e-01 4.386489099029949879e-01
-3.383452335507906028e-01 3.785442769998725171e-02 -1.486113255318699811e-01 7.085757795766906009e-02 1.062659327624472516e-01 -4.426166125170721832e-02 -1.056870941883298887e-01 -1.192900222947922834e-01 -4.111352070372652906e-02 -1.341362128229935946e-01 3.118982598762988501e-02 3.666658019864756091e-02 6.111642052397497221e-02 -9.198100175431155046e-02 -5.678428368191777709e-02 -3.860823609250507455e-03
2.986846599038619487e-01 -5.422509041936204172e-02 -7.450125961337658587e-02 -2.731347872243394120e-02 -1.874990199122192891e-01 -4.191405105638223300e-02 -4.277400495058523155e-01 5.290941187915056826e-02 7.031677206470059172e-02 2.018840511471842181e-02 1.210835892519164791e-01 1.035806545377072757e-01 1.648421041386786273e-02 -4.473506068140856162e-01 -3.413507287184695121e-02 -1.717514918342813446e-01
-1.889962757977844965e-01 -1.125342352751595998e-01 -8.750508146328583869e-02 -2.043949881116222944e-01 8.409246811702902891e-02 -2.484146839286440964e-02 1.301977839403841430e-01 4.946587691372900109e-02 6.435885941335453553e-02 -2.932843209395293305e-01 1.244437679343913944e-01 1.082968586766207553e-01 -8.690733513504762808e-02 3.033980848473519579e-02 -2.289955252341389913e-01 8.679128488858578461e-02
-5.405394886362153289e-02 -1.647221324774803541e-01 -9.663170718673690096e-02 -1.254124967708949712e-01 1.643667926191794970e-01 1.652338013184770707e-02 1.960568677576861596e-01 -2.253123333888010574e-02 -3.590592513029443322e-02 -2.557111764126158149e-01 -2.946550440433122128e-02 -2.359831889359879642e-01 7.064389476949776980e-02 -1.173033847571262611e-01 1.433590002646428219e-01 3.524797569065736824e-01
-1.011892420564045603e+00 -1.225480972770435217e-01 8.111295394061888153e-01 7.043128028494972659e-01 -1.801281741238255629e-01 3.885674798213833298e-02 2.800652647940291562e+00 2.094894445335950678e-02 -1.206030213826047616e-02 -4.842340171408595073e-01 -3.296821407581260743e-01 -1.993773205356203393e+00 -5.044957898416998487e-01 2.523017189506399638e-01 2.375247872961701034e-01 2.960361522572950044e+00
-1.068625869018186708e-01 1.828317602105031942e-02 1.398714101509405440e-04 -3.911590826320723857e-02 9.349277704727725069e-02 6.200785970474988196e-02 -5.109543062197889896e-01 1.200049191875570895e-02 -3.432240076251604453e-03 -6.204529341184563535e-02 1.595937217588587476e-01 -2.332513630215867287e-02 -1.481401273517327644e-01 2.271706164246272142e-01 -6.881014805359256248e-02 -2.272350855651150692e-01
-1.598553580051161882e-01 3.735311316595239101e-02 -2.806165004435552390e-01 -2.002967041118502434e-01 7.987414230649607372e-02 5.630740244776106899e-03 -5.966677829770703628e-03 7.809356425809618404e-03 -2.818091258829033205e-02 -1.974081814528177992e-01 6.692475873726454194e-02 2.275746247402468947e-01 -2.037085565512405591e-02 2.697251524990958438e-01 4.369952440599694093e-02 -6.618093836173720435e-02
-2.291620232634460075e-01 -4.311679700921030103e-03 -1.599897094005608977e-01 -5.289522030612439640e-02 4.282469264213720206e-02 3.253201505760594525e-02 -1.127044277966082059e-02 1.989405485384548311e-01 -4.043657914739816339e-02 -2.614406725069066684e-01 -2.631051967039023387e-02 1.205167778053306965e-01 -2.057290955620478812e-01 2.079467350810054460e-01 -4.560564638975590779e-02 -2.910862266876125884e-02
-1.785232453907355243e-01 2.511426329156155601e-01 -2.123216663939498372e-01 -2.637775634062968777e-01 -2.333743576933996478e-01 2.970195377170945297e-02 -3.162875240614798633e-01 -5.874558777556465605e-02 -2.022315811493761301e-02 -1.687601902123850584e-01 1.410993093002712584e-01 1.870370128293649126e-01 2.841844088751106431e-02 1.280467841237022952e-01 1.048495224822119792e-01 1.612660302962387604e-02
-3.605796377804314917e-02 1.125466985078800719e-01 -2.752654377974656508e-01 -2.957654040024167430e-01 8.380875979940954901e-02 -2.609119261791147393e-01 -2.167976467434546695e-01 4.433795355924484427e-02 1.173571623720089888e-03 3.761196429771834077e-02 -1.344531381969111816e-01 3.404907680514939750e-01 -6.074206166596781906e-04 3.280619602743641838e-01 2.603837699309677345e-01 -2.163477450539956770e-01
-1.452266216441800428e-01 -4.295734424065352636e-02 -1.748451633991306986e-01 -1.404310208827431461e-01 3.492971991427591683e-02 1.608538844451016343e-03 -3.711032821339833171e-02 -2.880570742961330657e-02 -2.489065448102772624e-02 -1.179909756298137408e-01 -2.285440228929786488e-01 -1.303047696384372900e-01 -2.308975161936389353e-01 2.624516885898216523e-01 8.249646486591548367e-02 1.154095647923671364e-01
-2.579271531214478719e-01 -1.963126920380368068e-01 -1.551617454950710573e-01 -1.776868874550010247e-01 4.765105406239357466e-02 1.090217223932025831e-01 -2.566462475016322853e-01 1.700409798461859356e-01 -1.792233942861397311e-02 -1.167165220828754041e-01 -2.394056992900692460e-01 8.369266303748941482e-02 -9.475072190508701531e-02 8.253034177593618348e-02 9.299448838691609653e-02 -3.565703052342324413e-03
-3.265187872440546424e-01 9.196486426650272994e-02 -2.493978478532074272e-01 -5.510702941429213714e-02 1.189567327028513283e-01 1.047015987593083106e-02 -2.398996811986377209e-01 -6.017348080054978066e-02 -2.001455849864442957e-02 -5.744301208869894565e-02 -1.416308070869495561e-01 2.815223198047606470e-02 -1.145513512782917603e-01 -1.007636688590049512e-02 -2.976068053035256164e-02 1.725445021472704343e-01
-3.801854481467014518e-02 -4.201336043131523312e-02 1.767110115025608275e-01 -2.553329816815608222e-01 1.150318092658187824e-01 -5.589130553413359376e-02 -6.093627376947211016e-02 5.739154070889748716e-03 1.009319543686473947e-01 -1.195934516475789799e-01 -1.896390212394443442e-01 -1.754542257011097173e-01 -3.516617166754263391e-01 -1.258064449334275400e-02 -1.381626667551332233e-01 5.389670390219929988e-04
2.161394020187933918e-01 -7.652817989741607374e-04 2.089093895116421809e-02 -2.459119859201066571e-01 -7.487789198329233842e-02 2.520139009936810809e-02 -2.506742294330789877e-01 5.916231692689984806e-02 6.283204570612944614e-03 1.431996133134402598e-02 -7.102558726016770796e-02 -1.459504072523531981e-01 -1.051329737967444250e-01 5.573683211441475549e-02 5.316195555583293209e-02 -1.653885800724809729e-01
-1.066938937718903829e-01 -1.073185623549599149e-01 -3.253970426019677648e-02 2.978788500822861576e-02 -1.969539094833342441e-01 -6.115227884775367717e-02 -3.722410186530918375e-01 7.477372316411531883e-02 -5.235463746415680575e-02 -8.078032344495116035e-02 -1.286695297904088264e-01 1.277023444330571411e-01 -1.197393121314256348e-01 -2.596118066078658693e-01 5.372812258563197663e-02 -1.417828906054629245e-01
-9.093008623522194633e-02 -1.157540269318406562e-01 -1.545389973906775294e-01 -4.058625560202944738e-01 -5.744233263759420532e-02 -1.253544615807431102e-02 -9.199972509065176274e-01 -2.871126030383578179e-02 -1.115161488233499532e-01 6.570292019626573776e-02 -2.192031794390968957e-01 5.414324207909577691e-01 -3.941503230666834612e-01 2.302213795099224136e-01 -2.635600390430380136e-02 -6.701017776642193002e-01
2.800993194614725956e-01 -2.878734347458576995e-02 -1.031419785382447080e-01 -1.189048529491739670e-01 5.501266479125388464e-02 1.007795581317139366e-01 -2.018851743527876330e-01 3.698699411007969756e-02 3.963940794737180057e-02 -2.851982482749573222e-01 9.539645787165633439e-02 -8.101214615523713025e-01 1.684023949845163404e-02 -5.751738463115634026e-02 -2.533472554544205849e-02 -6.811175912351916106e-02
3.243878602943389700e-01 -1.273703885785275602e-01 5.491740507970324647e-02 6.132737796014222503e-02 -1.735997242305953661e-02 9.896779202331913022e-03 -1.227927837209125794e+00 -2.126860369186428165e-02 6.046230763573551270e-02 1.023522756563287339e-01 -1.755143925386691839e-01 1.056658373308484167e-01 -3.174317793772198359e-01 -1.825766556139179209e-01 7.694275089963402425e-02 -5.642683024456369711e-01
-4.956611504261878021e-01 1.138479457879084250e-01 2.909193822243756333e-01 9.672501678657791438e-03 -1.306454190793081838e-01 -2.334109616958991024e-02 7.950779854764313814e-01 -1.028610325192551474e-02 -4.755027253762270784e-02 -1.073121830583147022e-02 -1.990064153607080388e-01 -9.960206942846252520e-01 -3.266161060823573048e-01 4.915917755465980254e-02 6.076241319535596180e-02 1.079450184583455208e+00
6.816061011504205569e-02 -1.577250866087029080e-01 6.836811119198742126e-02 -5.234014260704036303e-01 -1.298107173620835497e-01 -8.875462334247287421e-02 -1.437440499041431341e+00 -1.713047519378822076e-02 4.232644929349695800e-02 -3.857023177516114565e-01 -5.181414362896973325e-01 -7.325019263029949323e-01 -1.088744907834437781e+00 9.692710488455844042e-02 -3.967497399802993180e-02 -3.961613491065795190e-01
