-1.931430096062254076e-01 -9.121637148453536070e-02 1.441610109133104056e-02 4.311248723539613803e-02 -9.386963053358809983e-02 1.020643846415431183e-01 1.433141559374669638e-01 4.052350416231023655e-02 -5.914383455536605105e-02 1.013146150158682895e-01 7.583065161636726170e-02 8.798017203220229177e-02 -6.612027172369115691e-02 -2.914507125242099539e-01 2.095663661645994214e-01 -1.534912063127970849e-01
2.781600543698840682e-03 2.383780025146759740e-01 2.283449768353941478e-02 9.221384622636112638e-02 -1.505468526373347771e-01 -1.777495327522262136e-01 -4.359461060564317342e-02 1.071666636565301173e-01 -3.440712718839386564e-02 -9.395743160449936127e-02 1.853993325765962430e-02 1.024621945934275913e-01 -1.420832410477190222e-01 -1.383405843982113137e-01 -7.876098498711824047e-02 1.150236694280374616e-01
6.134803335088684362e-02 2.036465888244641531e-01 2.499364901784676407e-01 -1.463485002100248789e-01 1.261620170817796260e-01 2.164565075963605090e-02 -1.161881601777102757e-01 6.107192659900891052e-02 -6.950010428912939409e-02 2.379376517964921223e-01 1.468422501293625559e-01 4.337968756831462290e-03 -8.060434161317815704e-02 5.983110670213922372e-02 9.649504181088204569e-02 -1.267381609557832467e-01
-4.573993438065789702e-02 -5.436421470661616934e-02 4.634379037278935770e-02 -2.311511694264813122e-02 -1.606251963983083286e-01 -8.866700583348204046e-02 -9.199916459888672626e-02 1.124022620726114474e-01 7.998992531346235668e-02 1.152112502296264995e-01 -1.433257756736950293e-02 -9.752216441489532095e-02 -2.354873348845051839e-02 -1.402836864169937081e-01 2.426669042073743010e-01 -2.247763479585644097e-01
6.048762804288314310e-02 -1.289833561414462926e-01 -7.035917051748835638e-02 7.768357522021027139e-03 -1.176754321972994927e-01 -1.139853016842769656e-01 2.709330798293581588e-01 -1.361637680331662971e-02 -7.650715475377822816e-02 -1.263962137399163854e-01 -1.937676442591080780e-02 3.295561088753531931e-02 -1.828719401869912942e-01 -5.775093005227724396e-02 7.804984982339845112e-02 -1.557098085661204334e-01
4.834728884694419054e-02 1.698486887372072096e-01 -2.322681890544772958e-03 8.080909102012200085e-02 6.692452308938869054e-02 -7.075056975105768753e-02 6.202623222407339931e-03 -1.567096633295102237e-01 -4.512947839984001591e-02 2.767239880709685546e-02 7.045125773336501085e-02 1.734831951758114641e-03 7.026286580982739338e-02 -1.112613895846915751e-01 -1.011893194539075468e-02 2.027850795921781919e-03
5.063106385168945067e-01 -2.055871400173536409e-02 -2.724511672080242447e-02 -1.718246160882634307e-02 -9.183876090590052665e-02 1.932352113782475136e-02 -6.971352310677393638e-02 -1.794613290910725967e-01 -7.335681395241515877e-03 1.896875305799693712e-01 -1.513639042072492114e-01 1.095337880836388944e-02 1.243171697834777600e-01 1.287223038971367362e-01 2.908171383539527588e-02 -1.576890716033123585e-01
2.504730932657733278e-01 1.714763188451364981e-02 -8.471811205215512000e-04 6.264508446993999335e-01 -1.364470826688375105e-01 1.456384685304584802e-03 4.260945977398021833e-01 -1.430488891536095541e-02 -9.422309345943638559e-02 4.898284290359485038e-02 -9.323406222546776201e-02 -2.628003381251978188e-01 -8.678179704967317609e-02 4.344684362547966971e-01 -5.433126596534313540e-02 -2.021009113189239648e-01
1.380951517356426017e-01 8.006566115377033999e-02 3.119650478312377406e-03 -4.722322217469516331e-02 9.384616713891605344e-02 4.296005258329514687e-02 3.291497139061449334e-02 -2.710661280102621713e-03 -1.688227862514351807e-01 -7.918603120272583312e-03 -4.177578965352580359e-02 5.981800096988197646e-02 1.104970318352176128e-01 -8.976072920751973494e-02 4.484593476726262545e-02 1.714816707301914656e-01
-6.665269033959554668e-02 1.681270033659535423e-01 -8.529015744009151023e-02 2.409571276320865169e-03 -1.109374568462957039e-03 1.149889987006237450e-03 -8.374850630844984933e-02 -5.920028236554101403e-02 -6.677243841825736270e-02 3.277669383114936025e-02 3.304438356257932696e-02 2.225035464876268243e-01 1.370742415486238264e-01 -5.100019246712125115e-02 3.235081233602447870e-02 9.971179807917596172e-02
9.225775695254814779e-02 -4.258606581054483024e-03 -1.172179093931082910e-01 3.038559331131607255e-01 -8.553272616458816591e-02 -3.255262696600073891e-02 2.175404922904074778e-01 2.419415097954133106e-02 2.568750660445891926e-02 -2.774372959261810490e-01 6.274960591603427618e-02 1.593085204792909770e-01 -5.416000891963815983e-03 -6.657710297611751926e-02 7.472185487352971112e-02 -7.096311795510394649e-02
-2.788179673104486112e-01 -2.265227852328774265e-03 -3.711003179338197566e-01 -2.431586623663711116e-02 -3.502453695298616415e-02 -1.353176397137133002e-01 -9.416284076636809164e-02 -4.669988052325325933e-02 -1.643554810830838431e-01 -4.369932094967140523e-01 -4.991038253355209453e-02 4.022909112255898534e-02 1.844032044808385506e-01 -2.212594948979136888e-01 6.991180944023603697e-03 3.725328511084069483e-01
2.403907793028198236e-02 -1.017032825549492037e-01 -1.134370116072938584e-02 3.134751879228489524e-02 -1.370759940360591067e-01 8.664900046717836923e-02 1.086819411841891125e-01 -6.299793536445252862e-02 -2.408739087799667902e-02 -8.669407912585203047e-02 7.119835418471555377e-02 -1.061933539719703418e-01 -2.209824987015258230e-02 -8.560944013038615519e-02 5.089403893978845100e-03 -1.794533881470634362e-01
7.347938474726609659e-01 -1.001566186240806788e-01 9.969789922622136757e-02 3.512715519862444347e-02 -7.597874483098888965e-02 -8.888332283788724641e-02 -1.516988291171940048e-02 -5.800497603482995118e-02 5.498905855459135066e-03 1.343089272107216570e-01 -1.474962897229483982e-01 4.142793405887957303e-01 -3.280195810298778408e-02 3.766425435764134133e-02 -1.411031777021646560e-01 8.740288329804325462e-01
2.672590612756988171e-01 -1.560966426451371458e-01 6.738098241046268644e-01 -4.597805576477047573e-01 -1.461917256658275543e-01 -6.857056519325332999e-02 -6.560726936128204179e-02 1.053788219981430067e-02 -8.527631056083009864e-02 1.000120952911875083e+00 -5.499772399844299331e-02 -6.602077005398539200e-02 8.270512490991648036e-02 4.613926446052724617e-01 -8.479803168526735269e-02 -2.155190296390089577e-01
2.155523640063186364e-01 -2.054010836428025455e-01 6.475382393424003458e-02 1.061686727701182803e-01 -7.506358999875473517e-03 -2.624262318247392450e-02 -2.423211034838280986e-02 -2.613162811964208840e-02 -1.299134803716682218e-01 2.234834472361025559e-01 1.275920168117202214e-01 6.162417247872519627e-02 3.462452497579941446e-01 4.057973506044973422e-01 -7.328848049406941345e-02 4.448202250204476987e-02
