-1.798432381284892079e-01 -2.745796768535741506e-01 1.029384088353143406e-01 -9.859778484046294311e-01 -9.502485846319209950e-02 -4.023105866690069310e-01 2.908062187165424417e-01 6.301489023468770725e-03 2.138931312330392132e-01 4.106144484461320826e-02 -5.148753453084797815e-01 -5.675481677502701716e-01
8.948140451444536181e-02 -7.688879843622291599e-01 5.066323279873617691e-02 2.820530728878095639e-01 3.511864777355058198e-01 7.555256507974067968e-04 9.215790798197485284e-03 1.076693310665634146e-01 5.054173852309419568e-02 6.536345419481202901e-02 5.845605762927672533e-01 -2.145070535134956380e-01
-5.232706680290385992e-02 -3.555532506114314484e-01 1.187644886394785548e-02 -1.489588150874095129e+00 -2.124831379914993504e-02 -2.890124413921869514e-02 1.003560470629801804e-01 -5.328552637079778664e-01 -6.049772998705319482e-01 -1.980780521716167530e-01 -7.832431713119923922e-01 -3.732584116594392376e-02
1.230290680727720853e-01 1.202379848784411315e-01 -3.873268174079522869e-02 -3.023027505753355867e-02 -1.048552965067092724e-01 -1.420017937178975342e-01 -1.706270190625012728e-01 1.950775395231789666e-01 -5.096521817516535408e-02 -4.380743016111864063e-02 -1.252795360049926143e-01 7.774903558319101737e-02
-5.861031764128906696e-01 1.819882278484967753e-01 -7.600700990632454357e-02 9.002895504398158444e-01 -1.867927719157282951e+00 -1.353723742488061304e-03 1.505829363666839893e-01 -8.367923084558765989e-01 2.035661778362150010e+00 3.025356837708202337e-02 -2.604443402210134373e+00 -9.024952904084139194e-01
-4.835703537966992011e-02 -2.433175457229392602e-01 -8.033251118455984885e-02 -3.130561199522616800e-01 -1.730104977211865402e-01 -3.410393054622525705e-02 -1.955572754872300090e-01 -1.922253145574024102e-01 3.257456510260591746e-03 5.196134230389866729e-03 1.161549167928943860e-01 -5.242287881593796217e-02
-2.628824398467460854e-02 -2.963408284150712557e-01 4.643928907203490053e-02 -1.530646775826187467e+00 -1.259974030081337570e+00 -3.697041726305002052e-01 1.617058548724683575e-01 -5.631364639641536218e-01 5.560394339946207465e-01 9.008424334619467844e-02 -7.396851584570802718e-01 -1.140538452952625459e+00
2.143646086166352549e-01 -4.723064258801875498e-02 1.222651778863970973e-01 -1.796734832064891485e+00 -1.838995553261506766e+00 -4.290741200799214061e-01 -3.604719569346722524e-02 5.971673042248036058e-03 -7.345346571392802337e-01 9.766390364837128357e-02 -1.044993570987395870e+00 8.957970549421059858e-02
1.267439833160711460e-01 -2.653627356416537464e-01 1.961927025962439605e-02 -2.645377672527191026e-01 -8.205332908857365659e-01 -2.885172915305206920e-01 -1.168677817144570530e-01 -1.152268375264646483e-01 7.785291374842698842e-01 1.943621185649292704e-01 -1.003081703952217602e-01 -9.012658208976116470e-01
1.733418846699472382e-01 -3.296460292157611383e-01 1.868175858313119164e-01 5.228326591091481818e-02 -9.533048985474208425e-01 1.830126282871828991e-01 -8.102111944403107835e-02 1.169819721227263881e-01 -3.994574765409967254e-01 -1.550100930908341994e-02 3.647648385270970683e-01 -1.559105974603907929e-01
-4.083043898499670588e-02 -6.090492160406119071e-02 3.410224619361688914e-02 -1.323716652062745025e+00 -1.214377788225067478e+00 -1.495593244972548974e-01 -1.377020590142931655e-01 -6.177864859827674193e-01 -3.118911949642300119e-01 4.074777827488702125e-02 -6.632787799161367071e-01 -1.081249424359015943e-01
-7.025309274485028732e-01 -3.142999128431294698e-01 -5.077512055664650664e-02 -1.640395541086519637e+00 -3.291504242949327974e-01 -2.035549521342112367e-01 8.759018793190694041e-03 -1.703259681331915631e+00 -2.573961863237407277e-01 4.393917012645369435e-02 -1.102604037591171871e+00 7.358913105117441400e-02
2.960220131132906274e-01 2.315534710485893100e-01 -9.126250282063726182e-02 3.400993340745752658e-01 -7.318663261251242558e-01 -6.782567918437526489e-02 -6.448548629829237155e-02 -3.471072217633484058e-01 3.829582716251216934e-01 -8.264385386590145099e-02 1.560446906148677537e-01 -3.847837561165687870e-01
2.738849970668445266e+00 2.739928541028807119e-01 -1.404957056082597189e-01 -5.496132401041045057e+00 -7.091170880415308631e+00 -1.387046359685772501e+00 5.387103055364828030e-02 1.439817167104578965e+00 -3.244650485567925902e-01 8.435365543235137653e-02 -6.074865461169348890e+00 -3.528618556678257967e+00
-3.061550000537464289e+00 -1.698116814658718887e-01 4.396900012414145520e-02 -7.482314256767742755e+00 4.341461524234899727e+00 -1.314437673057727407e+00 2.688596899765553425e-02 1.385516799316399705e-02 1.015692098646371777e+00 -6.895497777502006265e-02 -8.895170348909019253e+00 -1.370643701639878143e-01
2.873842058316739556e-01 5.549673961065879069e-02 -5.666799620797530884e-02 -8.071380219006067946e-01 6.860793080340429340e-01 -2.875508065300708127e-01 -1.732733713486130367e-01 9.582843140473402965e-02 -2.141016241479797369e-02 1.543046488422255280e-01 1.049058516659093776e-01 -2.574939652615289565e-01
-3.307646342149828111e-01 6.798676391818352094e-02 5.541927799256273629e-02 -1.838904714343369759e-03 8.276107112443482905e-03 1.361309607029332069e-01 2.567029769897840596e-01 -2.843433769347483153e-01 4.124675184376789816e-01 -2.393791775759264093e-02 2.229241604033573021e-01 -6.558397972696312916e-02
-2.327225821124662419e-01 -5.217583587560644665e-01 1.369299879617613680e-02 -3.615748847789529208e+00 -4.306750653950312535e-01 -8.626069481606073452e-01 -4.623752699798881066e-02 -8.531146513954214194e-01 -3.523869399402269065e-01 -4.672933583372553684e-02 -3.142033599968141910e+00 -5.889194445423100444e-01
-2.386798565624834167e-01 3.959196600808804339e-02 2.314227154056369418e-01 7.906838503479646230e-03 -4.936690925489939374e-01 -1.445729240678422269e-02 -9.851542323587378358e-02 -1.466965820256167508e-01 -1.503852275090824912e-02 6.326199420033171671e-03 -1.132398986855545631e-01 -6.687309341142617936e-02
8.853791837518379948e-01 1.949654737984757302e-01 -1.371580221972486247e-01 -2.415976659740966870e+00 -3.289398817234132633e+00 -5.040042181174434477e-01 -2.253123893421946911e-01 3.656590148946667340e-01 1.511819785515752024e+00 -2.070859286614844808e-01 -2.391708525223522397e+00 -1.042656445482345262e+00
2.665241016104932803e-01 -1.307994942227285740e-01 -1.752019690132064142e-02 -8.237333843793012145e-01 1.398544690512214972e+00 -5.605742365574732933e-01 3.373883812294380946e-01 1.933149439527211966e-01 2.652449283024174154e-01 -1.466392434786994714e-01 1.615338822139891217e-01 -8.970787737702595743e-01
3.325239702708376877e-01 2.124949971308590646e-01 5.990660724979803703e-02 -7.326679926834664958e-01 -1.658972474506520134e-01 -4.044399872486839076e-01 -1.454050654970480416e-01 4.772490577860912242e-01 8.100442393489218351e-02 -5.067844612831681750e-02 -4.331946036337616102e-01 -1.740280552594524743e-01
-1.998935866247108228e-01 -6.015734179564223849e-01 5.904623219636687820e-02 -1.446865776944569415e+00 -2.217487199184740465e+00 -5.877868478345495973e-01 1.981830383370581858e-02 -6.644997856798831037e-01 7.369238257761701050e-01 3.900933226879264859e-02 -9.348466608572568726e-01 -9.385581674139045205e-01
5.447571874897777500e-01 2.430906296548060452e-01 -2.128412746344363060e-01 -3.109966094846260964e-01 -5.325104054247180585e-01 -4.365422367781193747e-01 -2.500632571874052967e-01 1.085612467828323213e+00 2.689270416777791994e-01 6.079695728741384836e-02 -9.137518900875453154e-01 3.987907821746145692e-03
2.272102549840384345e-01 -3.539203118529516967e-01 -6.327215323134700864e-02 -3.949414283200546882e-01 -1.017534198489957964e+00 -2.343719894062648579e-01 -5.854662715060240247e-02 -4.130700325547792540e-01 9.375162052635570564e-01 5.829536797532935966e-02 -1.701537387559710068e-01 -6.910872106022774020e-01
-7.706076234424285021e-01 3.973045969150198253e+00 -1.209258687976591355e-02 -1.699781626881010643e+00 4.408415044725181864e-01 1.565256623211482012e-01 -1.054266530178919609e-01 -5.694912458151288881e+00 -3.679821430102251933e-01 -1.604158067320597333e-02 -1.978185231058374960e+00 1.250328829766760519e+00
-9.134423327856050490e-02 -4.427943345725131041e-01 -7.068080524271463938e-02 -2.573775160351834401e-01 2.701110739456080156e-01 -4.714097940135995590e-01 3.532219291039357528e-02 5.877959287290396295e-01 -4.846182008936236185e-01 -8.129292025230386298e-02 -3.791795680166017979e-01 -3.160292009299197069e-01
3.254615927209477677e-01 -2.180192583544773577e-01 -3.767912509998769949e-02 2.212658272346640642e-01 -1.208495206684693457e+00 -3.275068174722000625e-01 1.414476251931483936e-02 4.492805039176658854e-01 -4.851549606879932974e-01 -1.183832800670038682e-01 -5.724225166645598994e-01 -3.896244520597177963e-01
-4.367801945658212337e-01 -3.186905436933633040e-01 -8.673738840920164339e-02 7.216982602040939998e-01 4.489088336595652984e-01 -2.774363039889258808e-01 -1.547017890493936620e-01 2.313429644881779407e-02 7.349533557515539051e-02 -2.803076556612299833e-02 2.519527017736369334e-01 -1.680684764238895290e-01
1.267185811048232580e-01 -3.022319100208880061e-01 -7.873839876235441682e-02 2.348591405475453642e-01 -6.915064809107042132e-01 -4.508731449288653215e-01 -5.449708863549156818e-02 -1.104143807360644658e-01 -5.658745532263409483e-02 -4.779421110249673643e-02 -6.981245295997418054e-01 -3.430921709429599620e-01
3.731086486061178237e-02 -6.249252247050746806e-02 7.969707932925856886e-02 3.185955662113705289e-01 -1.037202138043544331e+00 -2.088582339315765979e-01 -6.398166357640747148e-02 3.160335282482547026e-01 -1.506628644902266168e-01 -1.128011331470006873e-01 -8.111469651841886064e-01 -6.238211275822407309e-01
1.735169831174797062e-01 -1.070898168429602615e-01 -1.382601313908760933e-02 2.343087481711336184e-01 -1.113269006260466876e+00 -4.293651524596250879e-01 -3.335434647467023367e-02 3.144679784380118859e-01 -6.005774783613070100e-02 3.872804753950634393e-02 -1.091286933312593854e+00 -4.446861900556323688e-01
-2.560207540295390133e-02 -2.177667002637854454e-01 -1.184480959657245175e-01 -1.574005126927918163e-01 -6.351763976233841535e-02 -2.300056620307223687e-01 -2.904054282390631375e-03 -6.770382739574361264e-02 -1.742052840717902562e-01 -1.616474188651032540e-01 -8.436470949686367682e-01 -5.007393117324300258e-01
-3.920030710381908895e-02 -7.022027768658990754e-02 1.352939088187203875e-01 4.081583844959772445e-01 -1.073054950910591332e+00 -2.351864127169090157e-01 1.789518851429970289e-02 -2.420768348231620015e-01 -1.608809978653875372e-01 3.554817927437690928e-02 -6.704500214949148384e-01 -6.014421082230129167e-01
-1.297272213238553629e-01 -1.623660555595815014e-01 -1.740440394638906318e-01 -4.036814131196544281e-02 4.008691203487350641e-01 -1.169245501374728546e-01 1.568326035151734188e-01 5.812314803877330870e-03 -7.368512244689350010e-02 1.420618051872356638e-02 -4.750975154128195266e-01 1.767541899498586977e-01
2.916341477999326304e-01 -2.151410346736556678e-01 -2.172686269186135111e-01 -8.678836266533602739e-01 6.930564791447345607e-01 -2.678354018557063121e-01 2.275079894734165220e-02 -2.144207591126995327e-01 -1.089869486484546929e-01 2.699043549407613776e-02 -1.464759241652774824e+00 -5.590175381616480088e-01
5.124713321951468448e-01 -2.390402963099873823e-01 -1.049864645674088992e-01 -1.183756041373226486e-01 1.594243427921414602e-01 -2.122039594331468770e-01 7.876045444276762175e-02 -1.802973003143787389e-01 -1.640412820731293464e-01 -1.159420516399913004e-01 -8.102789196631664526e-01 -3.149235031096136450e-01
-2.339943857550482731e-01 5.324946779711061673e-01 1.821822741736291162e-02 3.475923761058825057e-01 -2.361197811432544647e-01 -2.521862908120781621e-01 9.244894361972810781e-02 1.743694014583373031e+00 -2.369314507104259837e-01 2.790957643924534340e-02 -1.426780959588788589e+00 -2.012130594586532539e-01
9.406344976062551710e-01 -2.474329312758018484e-01 2.426047784605314932e-03 2.935045782115161539e-01 -1.182885772548896153e+00 -5.180945506989463878e-01 -1.246669262038708342e-01 -4.070953154638958793e-01 3.615522780017578763e-01 2.412485572559268099e-01 -8.113364946455164928e-01 -1.185754583213406432e+00
-1.007968175732893990e+00 5.879730190758820918e-02 -2.018723100073292198e-01 3.848299231873913984e-01 -1.329241787242748885e+00 -8.206416735629651349e-01 1.938483384715455615e-01 2.428223314984079839e-01 5.057516009481906050e-01 -8.826783460681700277e-02 -7.984968288348301968e-01 -1.099429526088995246e+00
-4.592562369113033921e-02 2.460752723723810265e-01 -1.088105399775640969e-01 -5.513025290448743121e-01 -1.862474283150557186e+00 -6.256962579114632161e-01 1.313268516056852186e-01 6.368660565696322717e-02 -3.688965182127425524e-01 2.205236022649329983e-02 -2.549188545674460737e+00 4.493548210718750768e-02
-1.262007019790877815e-01 8.232990692262545096e-01 2.064292375375705590e-01 6.651306627367121749e-01 -4.605254648609026447e+00 -1.822585547858703636e+00 1.531474254028114372e-02 1.380410888474137954e+00 1.763744985962550915e-01 -3.445396852692610406e-03 -5.423873996655913743e+00 -2.602281644841765385e+00
