4.411487488494066911e-01 1.451865220777526777e-01 -1.546332353031840412e-01 -2.356470417789780503e-01 -4.351900705281462889e-01 1.811673909723785642e-02 2.865510123242114293e-01 -2.089099810223885023e-01 -5.099278308996279402e-02 -4.054260411299225875e-01 -2.253305855154741633e-01 -2.023372636274007874e-01 -2.274929761996994926e-01 -1.238044190018404017e-01 7.952410384812867716e-02 3.639047318216312443e-02 8.140395146720527664e-02 3.544901233329151441e-02 4.483977295352481462e-02 4.177381786626503946e-01 3.096342872390785983e-01 7.927166201329603756e-02 -1.874684374593756919e-01 -4.073174345125079032e-01 -1.069111181938858651e-01
-5.701047267616218273e-01 1.055105955723732586e-01 6.932621004798771303e-01 -1.945121854419769869e-01 1.210280085338547584e+00 2.315520643291346936e-01 -1.058557220351805939e-01 2.503412146104085356e-01 -3.758796268506618410e-01 8.709606402128383662e-01 1.353613593470400500e-01 -1.369488310465123704e-01 3.834971078986869064e-01 1.803322559235695233e-01 2.659066412850403793e-01 -1.036436442650497725e+00 -6.098440653798865574e-01 -3.925639393593286508e-01 6.817542968211164345e-01 1.409153769434544345e-01 -8.138986420444895842e-01 -1.047271221981559641e+00 -2.796858084591946625e-01 3.056254403898420735e-01 1.606531044758881255e-01
2.582327925347692454e-02 1.066064852870545615e-01 -1.486535881679353910e-01 -1.224118828280733456e-01 -8.234849247686418239e-02 1.073120680221480577e-01 3.076025078847381689e-02 2.123877990405465543e-01 9.439407337216478011e-02 -8.945162091070638435e-04 1.283241839051825761e-01 1.939054913583462131e-02 -7.820025846962411209e-02 6.740004558447393324e-02 -6.862132911443698247e-02 -3.113183479418007646e-02 1.297789718921985302e-01 -7.664711354498542550e-04 -7.388605336614685604e-02 -4.571827676896381143e-02 9.843743402250916541e-02 -5.543667999039715577e-02 -3.677743403745811768e-02 -5.009842264311241411e-02 1.219534567707677118e-02
4.492645800148049595e-01 -4.074817007935476743e-01 2.286300069237334198e-01 -5.145335429071070665e-01 -1.269478733669346382e-01 -2.948059119891959790e-01 3.886790001819224183e-01 -1.007683987889958360e-01 2.834025935972998012e-01 -3.581722650259840934e-01 1.360751434561214834e-01 -2.549163371726014676e-02 2.757699949637410497e-01 5.709934865906485940e-02 -1.195484685578487027e-01 2.428377544797092336e-01 -1.285123881648030618e-03 -2.126511283468281721e-01 -7.394454135260851713e-01 -1.283307135616821859e-01 3.148583212735256431e-01 1.818562217362115485e-01 2.029373321768260796e-01 -6.934066824136937424e-01 3.833624901772607063e-01
-3.476020601479504202e-02 4.626341979342757371e-02 -1.038384644886530955e-01 -2.297490241507298969e-01 1.370313219481748002e-01 3.977434810200619064e-01 1.963413645141373967e-02 6.698482927622073646e-02 2.468450453096114328e-01 -4.364278490355893297e-02 2.574446222104001189e-02 9.739879856697605809e-02 -2.658001639038448660e-01 -3.645744692014984967e-01 4.392666236677033598e-01 -1.551314012984744001e-02 -1.882648288133670633e-01 -9.706572237184721286e-02 -1.142059192274736817e-01 5.012860283040815323e-02 -2.122530629063286434e-01 -9.016493767417800564e-02 -5.245487488878177590e-02 4.473306267950670490e-02 1.717746726516813649e-01
4.134152804346578058e-01 -2.406991429403321781e-01 -1.740727847873415821e-02 -3.273465482746248378e-01 2.345185533221308960e-01 -4.166464858952895201e-01 3.358894869123874583e-01 -3.946631190318689031e-01 4.244093566693025732e-01 -3.407040646100367720e-01 -2.518122044635838774e-01 -2.051973811630601607e-01 1.902630988381169841e-01 5.014083122272782189e-01 -2.527410196720206170e-01 -8.220426821354218094e-02 -2.221319451123581964e-02 -5.541977303282247247e-02 -2.760911553063232771e-01 9.108536233943272109e-02 1.404414442684255582e-01 2.295086904078879036e-03 -1.188782209442603433e-01 -1.280184557835992720e-01 2.227465015327212139e-01
2.522797762804637189e-01 -9.406997104705962232e-02 2.369112872247278179e-01 7.401468473334855969e-02 -2.902260775349514710e-02 -6.186063042399930073e-02 1.684798466932623251e-01 3.020771000422323854e-02 -1.026581558818269319e-01 -4.849046803243217685e-03 -6.422464365346863824e-02 -2.380608369578068872e-02 1.444504990614719209e-01 4.815839871943625866e-02 1.866883277551117937e-01 -2.726190244575089627e-01 3.070759744662916388e-02 1.337926164005127649e-01 -4.638566227396113961e-02 1.473415604014949865e-01 -7.856747282484964623e-02 -1.736151581703763158e-01 -9.706947903996386920e-03 9.470924003023642457e-03 -2.482251817817645034e-01
2.999381627798510253e-01 -6.910095135356976274e-03 3.568881663125416659e-01 -4.362250316090929836e-01 5.050466920975474894e-01 5.632550343024594897e-02 3.621272072889145655e-01 -2.666443001622418874e-01 3.133726242126099737e-01 -1.006530990393815994e+00 3.781610932910596246e-01 2.821460412877905416e-02 4.126257437639329617e-01 -5.827142307084978157e-01 -3.110247776019518517e-01 1.189703593313033853e-01 3.618361399618960084e-01 -4.599295374613237564e-01 3.995268159378119743e-01 -2.976991783710775663e-01 2.271286100456833545e-01 3.697554109980163983e-02 -1.283093073727605005e-02 -1.347663587101440297e-01 4.282287800769069563e-01
-5.628869833093053110e-01 6.057264029133654915e-02 -4.197762843261951815e-01 -2.588140808701102635e-01 -8.436227472049516729e-01 -5.434631745221256416e-02 -4.413774577934616028e-01 2.480851442925651462e-01 -4.569353944603018469e-01 -8.245348558128690053e-02 -3.630846593563528957e-02 3.332192049589181027e-01 -1.512338695415128553e-01 3.107513902305108489e-01 -1.624478792157388052e-01 5.189317494773433292e-01 2.852189017364692436e-01 3.586339510106928974e-01 -3.700619208662070947e-01 1.378075595047269786e-01 2.848991530663111948e-01 5.990655866947389718e-01 1.500068688699575936e-01 1.370832623565807276e-02 -4.234238527426839038e-01
-8.781922992816343365e-02 6.993786101496803076e-02 -1.061224238029441630e-01 -2.224789173002079609e-02 -8.589219167431562385e-02 5.095234350423738338e-03 -1.794231260566176156e-01 1.326459718728558446e-01 -9.646083457391227411e-02 5.989270156914077749e-03 -2.125249490408322867e-02 -7.621165002263090293e-02 -8.877820378396929224e-02 9.363965498366479123e-02 -5.256425761624589771e-02 2.711682246548492367e-02 -8.014986254802658472e-02 -6.471833847862325240e-02 4.722937952718248011e-02 9.304064725708957595e-02 -1.753183739847415795e-02 -1.421921823919090055e-01 1.997954133077582684e-01 -8.565512512253797839e-02 -1.541589338367692075e-01
-5.188853814217124494e-03 8.371361031909467162e-03 -2.376502217019139107e-01 -1.106152058423892082e-01 9.627673602030490940e-01 3.392394840360383329e-02 -9.179022798312856668e-02 -4.112842182096383692e-02 -2.457488658022601302e-01 -1.628327732849894627e-01 1.940490353839709539e-02 3.031360314728038033e-02 -2.454965965582957821e-01 -3.141785224959657286e-01 9.456473222780883425e-01 -2.972194108616957875e-01 -1.073036363952264427e-01 -2.971810854518392997e-01 4.339317917523131257e-02 -4.098765258906195835e-02 8.623874877069707956e-02 -1.064001652195687847e-01 -1.880317198774358878e-01 7.225849599084495367e-02 2.740158760972199459e-01
-1.255643190983786461e-01 -2.310372065620815984e-01 -2.350511186431272215e-01 -3.720223698592283745e-01 -4.814629267885568720e-02 -3.131759834213582727e-01 -2.263832061852155964e-01 -3.076155976252882840e-01 -4.241965822084829418e-01 2.961656489850763574e-01 -6.288548362043362705e-02 -6.034083310491394209e-02 -4.995328025413020012e-01 -1.789279442164550260e-01 5.138467790571903393e-01 2.817003185149567490e-01 1.720989630224020184e-01 9.453287969424186699e-01 3.494444245960447448e-01 2.138725474047045993e-01 2.962572019885377772e-01 2.031026032084350397e-01 5.512484751942996475e-01 4.985106079411504854e-01 -3.215206896696403138e-01
